SVM-light Version V6.02
0 # kernel type
3 # kernel parameter -d 
1 # kernel parameter -g 
1 # kernel parameter -s 
1 # kernel parameter -r 
empty# kernel parameter -u 
31362 # highest feature index 
1560 # number of training documents 
322 # number of support vectors plus 1 
1.0321465 # threshold b, each following line is a SV (starting with alpha*y)
-0.0019920821991236442767558845190479 1:1 9:1 11:2 29:1 161:1 242:1 288:1 465:1 557:1 1104:1 1975:1 2113:1 2140:1 2776:1 2777:3 2778:2 2779:1 2780:1 2781:1 #
0.0046341559632336369947691601112183 1:1 2:2 3:1 4:1 5:1 6:1 7:1 8:1 9:1 10:1 11:6 12:1 13:2 14:3 15:1 16:1 17:1 18:1 19:1 20:1 21:1 22:1 23:1 24:1 25:1 26:1 27:1 28:1 29:1 30:1 31:1 32:1 33:1 34:1 35:1 #
-0.00014053819308053197914554210967708 11:2 16:1 36:1 38:1 41:1 46:1 50:3 98:4 122:1 152:1 155:1 173:2 242:1 296:1 352:1 414:1 427:1 506:1 746:1 776:1 826:1 829:1 848:2 913:3 1235:1 1346:2 1381:2 1764:2 1815:1 1834:1 2272:1 2276:3 2480:1 2489:1 2591:1 2619:2 2695:1 3109:1 3152:1 3157:2 3957:1 5238:1 6454:2 7123:1 7921:1 8104:1 8293:2 8304:2 8575:2 10409:2 10510:3 11863:2 19630:1 28129:2 28130:2 28131:2 28132:2 28133:2 28134:2 28135:2 28136:2 28137:2 28138:2 28139:3 28140:2 28141:2 28142:1 28143:1 28144:1 28145:1 28146:1 28147:1 28148:1 28149:1 #
-0.0017454752319230502303343266490288 9:2 21:2 36:1 38:1 169:1 282:1 310:1 402:1 408:1 452:1 477:1 491:1 589:1 658:1 714:1 718:2 879:1 926:1 1081:1 1147:1 1326:1 1447:1 1671:1 1712:1 1790:1 1815:1 2040:1 2041:1 2042:1 2043:2 2044:1 2045:1 2046:1 2047:1 2048:1 2049:1 2050:1 2051:2 2052:1 2053:3 2054:1 2055:2 2056:1 2057:1 2058:1 2059:1 2060:2 2061:1 2062:1 2063:1 2064:1 2065:1 2066:1 2067:1 #
-3.9681053579812348346220890471514e-05 1:2 9:4 11:6 29:1 38:1 112:17 114:2 122:3 123:5 127:18 204:6 229:1 244:2 394:2 431:1 468:1 537:5 592:5 593:5 595:5 630:1 707:14 796:2 824:2 965:1 1007:1 1025:1 1030:2 1102:1 1166:1 1252:1 1328:10 1540:6 1585:4 1605:2 1654:5 1676:2 1683:13 1727:3 1729:1 1739:4 1865:1 1892:2 1976:1 1986:2 2031:1 2070:1 2089:2 2194:5 2280:1 2336:1 2483:4 2833:2 2855:1 2857:5 2944:20 2946:2 3020:1 3842:1 3901:1 3948:3 4034:1 4096:1 4992:1 5060:10 5145:1 5349:2 5638:1 7245:1 7246:1 8293:5 8304:1 8399:2 8682:3 8863:3 9349:2 9542:4 9663:3 9775:2 11137:2 11666:3 12275:1 12291:2 12303:2 12307:2 12312:1 12716:1 13443:1 13666:5 13667:5 14166:2 15371:1 16198:3 16517:2 16522:1 18063:4 19783:1 20807:1 21516:5 22094:1 22420:3 23919:1 26832:1 26833:1 26834:1 26835:1 26836:5 26837:5 26838:5 26839:5 26840:5 26841:5 26842:5 26843:1 26844:1 26845:1 26846:2 26847:1 26848:2 26849:2 26850:7 26851:1 26852:1 26853:1 26854:1 26855:2 26856:1 26857:2 26858:1 26859:1 26860:1 26861:1 26862:1 26863:1 26864:2 26865:1 26866:1 26867:2 26868:1 26869:1 26870:2 26871:1 26872:1 26873:1 26874:1 26875:11 26876:1 26877:1 26878:4 26879:3 26880:2 26881:3 26882:3 26883:1 26884:1 26885:2 26886:2 26887:2 26888:1 26889:5 26890:5 26891:1 26892:1 #
-0.0014376863057723435115192733846357 11:2 28:2 31:1 36:1 62:2 82:1 90:1 99:1 119:1 135:2 196:1 200:1 214:1 259:1 293:1 352:1 366:1 395:1 429:2 506:2 651:2 972:1 1335:1 3387:1 3577:2 3578:2 7061:3 21166:1 21167:1 21168:1 21169:1 21170:1 21171:1 21172:1 21173:1 21174:1 21175:1 21176:1 21177:1 21178:1 21179:1 #
-0.0014959252436415346274728443987101 2:4 11:6 28:1 29:1 30:1 36:1 46:1 61:1 68:2 81:1 196:2 305:1 331:2 352:1 390:1 408:1 451:4 477:1 659:1 695:2 727:1 733:1 745:2 893:2 929:1 1322:1 1421:1 1640:2 1729:1 1972:3 2090:2 2445:1 2832:1 3352:1 3366:2 3442:2 3593:7 4293:1 4686:5 5113:2 5117:1 6213:1 7872:1 8608:2 10531:6 11284:5 20856:3 20857:1 20858:5 20859:5 20860:1 20861:2 20862:2 20863:2 20864:4 20865:2 20866:1 20867:1 #
0.0046341559632336369947691601112183 1:5 28:1 38:1 93:1 166:1 287:1 314:1 315:1 316:2 317:1 318:1 319:1 320:1 321:1 322:1 323:1 324:1 325:1 326:1 327:1 328:1 329:1 #
0.0046341559632336369947691601112183 1:2 22:1 31:1 37:1 242:1 297:1 388:1 447:1 461:1 462:1 463:1 464:1 465:1 466:1 467:2 468:1 469:1 470:1 471:2 472:1 473:1 474:1 #
0.0046341559632336369947691601112183 1:2 9:1 28:1 57:1 82:1 174:7 177:2 178:1 180:2 242:1 287:2 735:1 867:1 1052:1 1343:1 1344:1 1345:1 1346:1 1347:1 1348:2 1349:2 1350:1 1351:1 1352:1 1353:1 1354:1 1355:1 #
0.0046341559632336369947691601112183 17:1 21:1 38:1 75:1 98:2 132:1 135:1 160:1 169:1 224:3 427:1 711:1 821:3 859:1 987:2 988:2 989:2 990:2 991:1 992:1 993:1 994:1 995:1 996:1 997:1 #
0.0046341559632336369947691601112183 1:2 6:2 9:1 11:1 30:1 38:3 72:1 73:1 92:2 162:1 186:1 229:1 402:1 427:1 514:1 516:2 780:1 1007:1 1167:2 1356:1 1357:1 1358:3 1359:1 1360:2 1361:2 1362:1 #
-0.0046341559632336369947691601112183 1:1 38:12 224:3 319:1 555:1 820:1 1889:1 2182:1 6906:1 16009:1 16010:2 16011:4 16012:1 16013:1 16014:1 16015:1 #
-0.00028241461074380018892587829171248 1:7 11:2 16:1 38:1 45:1 46:1 90:1 279:2 467:6 477:1 574:1 1162:1 1252:1 2025:1 2180:2 2440:1 2637:1 3338:1 5129:1 5248:4 7781:2 8094:2 10204:1 10894:1 12163:1 16122:6 17026:8 17182:1 17183:1 17184:1 17185:1 17186:6 17187:2 17188:4 17189:4 17190:4 17191:2 17192:4 17193:2 17194:2 17195:2 17196:2 17197:2 17198:2 17199:2 17200:2 17201:2 17202:4 17203:2 17204:2 17205:2 17206:1 17207:1 #
-0.0020498457520391490625788488699754 1:1 8:1 9:1 11:2 18:2 19:1 36:1 37:1 69:1 84:3 171:2 249:1 477:1 483:1 492:1 537:2 821:1 822:1 824:1 867:1 965:1 1148:1 1151:1 1152:1 1219:1 1247:1 1272:1 1273:1 1463:1 1605:2 2516:1 3105:3 3858:1 5876:1 9401:1 9561:1 11243:1 11244:1 11245:1 11246:2 11247:1 11248:1 11249:1 11250:1 11251:1 11252:1 11253:1 #
-0.0012283437647124628537553814311423 1:1 9:1 11:1 17:1 27:1 119:1 200:1 287:1 366:1 444:1 704:1 820:2 907:1 1300:1 1634:1 1654:1 1873:1 2647:1 2693:2 2790:2 2988:2 4031:1 4436:1 5157:2 5158:1 5159:1 5160:1 5161:1 5162:1 5163:1 5164:1 5165:1 5166:1 5167:1 #
-0.00010767501276715891371862920955493 1:3 11:3 75:3 82:1 90:1 171:1 203:1 229:2 244:1 389:1 395:1 518:1 528:2 536:1 582:3 663:1 701:2 713:1 746:1 774:1 776:1 822:1 826:1 907:1 919:1 950:1 1020:1 1227:1 1787:1 2346:3 2489:2 2732:2 2909:1 3813:2 4891:2 5185:1 5228:1 6554:1 7331:1 10276:6 10320:1 10321:1 10322:1 10323:2 10324:2 10325:1 10326:1 10327:1 10328:1 10329:1 10330:2 10331:1 10332:1 10333:1 10334:1 10335:1 10336:1 10337:2 10338:1 10339:1 10340:1 10341:1 10342:1 10343:1 #
0.00085021862747963240520415739709392 1:1 2:2 6:1 11:2 38:1 61:1 75:2 82:75 92:6 135:1 137:1 162:1 193:2 200:1 252:1 337:3 408:1 436:1 506:1 555:71 562:1 746:1 892:1 893:1 894:1 895:1 896:2 897:4 898:3 899:1 900:2 901:1 902:1 903:2 904:1 905:1 906:1 907:1 908:1 909:1 910:1 911:1 912:1 #
0.0046341559632336369947691601112183 9:10 11:1 17:1 20:1 36:1 38:6 41:1 49:1 91:1 96:1 119:1 137:1 171:1 200:4 203:5 214:3 313:4 338:1 339:1 400:13 427:1 435:1 499:4 506:1 540:1 562:1 582:1 602:1 732:1 826:1 913:1 914:1 915:1 916:1 917:1 918:1 919:1 920:1 921:1 922:1 923:1 924:1 925:1 926:1 927:1 928:1 929:1 930:1 931:1 932:1 933:1 934:1 935:1 936:2 937:1 938:1 939:1 940:1 941:1 942:1 943:1 944:1 945:1 946:1 947:1 948:1 949:1 #
0.0046341559632336369947691601112183 1:2 2:1 6:2 8:1 9:10 11:4 47:2 57:1 61:1 82:1 170:1 213:1 233:1 288:3 311:1 312:1 313:3 402:1 417:1 425:1 427:1 468:1 476:1 535:1 536:1 537:1 538:1 539:1 540:1 541:1 542:1 543:1 544:1 545:1 546:1 547:1 548:1 549:1 #
0.0046341559632336369947691601112183 9:3 11:6 16:3 24:2 36:1 38:1 49:1 56:1 82:4 99:2 137:2 169:1 173:2 244:2 258:1 287:1 293:1 308:1 318:1 319:1 327:2 338:1 339:1 400:1 402:1 427:1 444:2 516:1 630:1 645:1 649:5 657:1 661:1 732:1 748:1 826:1 845:1 848:12 866:1 867:1 892:1 948:1 969:1 1128:1 1205:1 1230:1 1297:2 1298:1 1299:2 1300:1 1301:3 1302:1 1303:2 1304:1 1305:1 1306:1 1307:2 1308:3 1309:2 1310:2 1311:1 1312:1 1313:1 1314:1 1315:1 1316:1 1317:2 1318:1 1319:1 1320:1 1321:1 1322:1 1323:1 1324:2 1325:1 #
0.0046341559632336369947691601112183 2:3 9:2 11:3 36:1 41:1 82:3 99:1 137:1 169:1 171:1 173:2 182:3 210:1 251:2 294:3 295:1 296:4 297:1 298:1 299:4 300:2 301:1 302:3 303:2 304:1 305:2 306:2 307:2 308:1 309:2 310:1 311:2 312:1 313:1 #
-0.00064655683400702702173790115125485 1:1 36:1 38:1 93:12 171:1 183:1 199:3 230:4 247:4 251:1 252:1 258:1 282:1 338:1 569:10 602:1 626:1 696:1 826:1 943:1 1167:2 1206:1 1229:1 1346:1 1448:1 1523:1 1763:1 1775:1 2330:1 2433:1 2570:9 2571:18 2669:5 3081:2 3425:1 3527:9 3530:1 3972:1 5086:1 5145:1 5981:1 6758:1 10986:1 10987:1 10988:1 10989:1 10990:1 10991:1 10992:2 10993:2 10994:4 10995:6 10996:6 10997:1 10998:1 #
-0.00067364795846173118869931739638446 8:1 9:9 11:2 15:1 17:1 28:4 36:1 41:1 56:3 62:1 82:9 90:1 92:1 124:1 137:5 174:3 177:12 178:3 180:6 213:1 290:1 330:1 337:1 352:1 447:3 466:1 536:1 557:3 592:1 593:1 605:3 617:1 624:6 649:1 707:1 824:1 842:1 848:8 864:1 919:1 944:3 968:3 969:1 994:1 999:3 1001:1 1004:1 1056:1 1205:1 1214:7 1262:1 1433:3 1452:3 1457:3 1566:3 1640:6 1686:1 1892:6 1972:1 1976:3 1995:6 2282:1 2293:7 2308:3 2309:15 2573:6 2591:1 3458:2 3502:1 3733:2 4050:3 4268:1 5314:5 5315:2 6332:3 6855:3 6989:1 7807:1 8455:3 8766:3 9011:5 9982:3 10846:1 10852:1 11195:1 13066:9 13068:6 13420:6 14601:3 16188:1 18371:3 19090:3 19476:1 19477:1 19478:1 19479:1 19480:1 19481:3 19482:3 19483:3 19484:8 19485:18 19486:3 19487:4 19488:3 19489:3 19490:3 19491:3 19492:2 19493:6 19494:3 19495:3 19496:3 19497:3 19498:3 19499:3 19500:2 19501:1 19502:2 19503:1 19504:1 19505:1 19506:1 19507:1 19508:1 19509:1 #
-0.00071637016718513392855155474947537 1:1 11:1 20:1 48:1 49:1 65:2 90:1 93:3 161:1 213:1 259:1 352:3 402:1 447:1 475:1 529:1 701:3 705:1 707:1 747:1 748:1 867:1 914:2 1021:1 1034:1 1205:1 1233:2 1248:3 1635:1 1767:1 2268:1 3505:1 6332:2 8157:3 9586:1 9587:1 9588:1 9589:2 9590:1 9591:1 9592:1 9593:1 9594:1 9595:1 #
0.0046341559632336369947691601112183 1:2 11:2 16:1 17:3 38:5 55:1 57:2 242:3 282:1 297:1 428:1 447:2 617:2 643:1 695:1 726:2 727:3 728:1 729:3 730:2 731:1 732:1 733:1 734:1 735:1 736:1 737:1 738:2 739:1 740:1 741:1 742:1 743:2 744:1 745:1 746:1 747:1 748:1 #
0.0046341559632336369947691601112183 1:1 6:1 11:1 17:3 18:1 38:1 90:1 164:1 173:3 186:1 229:1 249:1 331:1 402:1 447:2 455:1 514:1 554:1 780:1 1146:1 1147:1 1148:2 1149:1 1150:3 1151:2 1152:2 1153:2 1154:1 1155:1 1156:1 1157:1 1158:1 1159:1 1160:1 1161:1 1162:2 1163:1 1164:1 1165:1 1166:1 1167:2 1168:7 1169:7 1170:1 1171:1 1172:1 1173:1 1174:1 1175:1 1176:1 1177:3 1178:3 1179:4 1180:5 1181:1 1182:1 1183:1 1184:1 1185:1 1186:1 1187:1 1188:1 1189:1 1190:1 1191:1 1192:1 1193:1 1194:1 1195:1 1196:1 1197:1 1198:1 1199:1 1200:1 1201:1 1202:1 1203:1 #
0.0046341559632336369947691601112183 1:1 8:1 9:1 11:2 22:1 38:5 41:2 49:1 90:1 119:1 169:1 200:1 250:1 282:1 319:1 347:1 389:1 400:1 447:1 475:1 476:1 477:2 478:1 479:2 480:1 481:2 482:1 483:2 484:1 485:1 486:1 487:1 488:1 489:1 490:1 491:1 492:4 493:1 494:1 495:1 496:1 497:1 498:1 499:1 500:2 501:1 502:1 503:1 504:1 505:2 506:1 507:1 508:1 509:1 510:1 511:1 512:1 513:1 514:1 515:1 516:1 517:1 518:1 519:1 520:1 521:1 522:1 523:1 524:1 525:1 526:1 527:1 528:1 529:1 530:1 531:1 532:1 533:1 534:1 #
0.0046341559632336369947691601112183 1:1 4:3 11:1 57:1 229:1 319:1 745:1 1007:1 1008:1 1009:1 1010:2 1011:2 1012:1 1013:2 1014:1 1015:1 1016:2 1017:1 1018:1 1019:1 1020:1 1021:1 1022:1 #
-0.0029346996458190200383897572322667 1:1 11:2 38:1 82:2 113:4 282:1 290:1 400:15 445:1 592:1 593:2 617:1 710:1 713:1 751:1 864:2 874:1 926:1 1214:3 1892:3 1972:1 2341:3 3461:1 3573:1 3839:1 4050:3 4835:1 5060:7 5131:1 5234:1 5827:1 6044:1 6128:2 7624:1 8303:2 16117:1 16118:1 18769:1 19093:2 22523:1 22524:1 22525:1 22526:2 22527:1 22528:1 22529:1 22530:2 22531:2 22532:1 22533:1 22534:1 22535:1 22536:1 22537:1 22538:1 22539:1 22540:1 22541:1 22542:1 22543:1 22544:1 22545:1 #
-0.0015784688500791587296295803710677 1:1 9:11 11:2 20:1 29:1 37:1 41:1 120:1 171:1 222:2 455:1 465:1 466:3 661:1 824:3 892:2 948:1 1335:1 1841:1 1843:1 2275:1 2278:1 2279:1 2280:1 2566:3 2909:1 3399:1 5777:1 5784:1 6005:1 6331:1 8000:3 15337:8 17434:1 21808:1 21809:1 21810:2 21811:1 21812:4 21813:1 21814:1 21815:1 21816:1 21817:2 21818:2 21819:2 21820:1 21821:1 21822:1 21823:1 21824:1 21825:1 #
-0.00010329616381256035383389563220291 1:2 9:6 11:3 16:1 41:2 55:1 98:1 106:1 119:1 146:1 173:5 203:5 213:1 229:1 242:3 297:1 308:1 330:1 389:1 392:7 418:1 427:1 468:1 481:1 661:7 677:1 793:1 824:1 1143:6 1166:6 1187:3 1252:1 1289:1 1300:7 1364:1 1423:1 1438:2 1443:1 1504:1 1585:1 1637:2 1654:4 1677:1 1708:1 1734:1 1827:1 1829:2 1841:2 1861:1 1889:2 2065:1 2082:1 2141:1 2156:1 2163:5 2183:1 2200:1 2341:2 2378:1 2420:1 2483:1 2647:1 2785:1 2793:2 2821:1 2995:1 3195:1 3298:1 3393:1 3563:2 3716:4 3762:1 3764:1 3931:1 5154:2 5455:1 5559:1 5968:1 6185:1 6369:2 6968:1 7236:1 7813:1 8533:1 9398:4 9440:1 10131:1 11000:1 13561:3 15865:1 19416:1 19417:1 19418:1 19419:1 19420:1 19421:1 19422:1 19423:1 19424:4 19425:1 19426:2 19427:1 19428:1 19429:3 19430:1 19431:6 19432:2 19433:2 19434:1 19435:1 19436:1 19437:2 19438:1 19439:1 #
-0.00054993922631086603752814667700477 1:1 11:1 82:3 173:32 213:9 242:1 446:1 824:1 926:1 1566:1 1605:1 1849:3 1850:3 3308:1 5284:1 5335:1 6369:1 9029:2 13178:1 15401:6 28933:1 28934:1 28935:1 28936:10 28937:2 28938:19 28939:1 28940:7 #
0.0046341559632336369947691601112183 2:1 11:2 21:2 37:1 38:4 82:1 113:1 132:1 182:2 203:1 297:1 352:2 447:2 499:1 602:2 725:1 824:2 826:1 859:1 860:1 861:1 862:1 863:1 864:3 865:4 866:2 867:1 868:1 869:1 870:1 871:2 872:1 873:1 874:1 875:2 876:2 877:1 878:1 879:1 880:1 #
0.0046341559632336369947691601112183 1:2 2:2 9:1 11:1 38:2 62:2 93:2 110:1 111:1 112:5 113:1 114:2 115:1 116:2 117:1 118:1 119:1 120:1 121:1 122:5 123:2 124:2 125:2 126:2 127:3 128:2 129:2 130:1 131:1 132:1 133:1 134:1 135:1 136:1 137:3 138:2 139:2 140:1 141:1 142:3 143:1 144:1 145:1 146:2 147:1 148:1 149:4 150:1 151:1 152:1 153:1 154:1 155:1 156:1 157:1 158:1 #
-0.001234193223910556511113689737158 11:2 38:1 214:1 233:1 388:1 428:1 455:1 504:1 506:1 516:1 555:7 785:1 934:1 1162:1 1575:1 1585:1 1628:4 1668:1 1670:1 1788:1 1829:1 1986:2 2165:1 2259:1 2417:1 2505:1 3638:1 3640:1 3781:1 5129:1 5378:2 5412:4 5559:1 5878:4 10050:2 14175:1 14176:2 14177:1 14178:1 14179:2 14180:1 14181:1 14182:1 #
-0.00012694289941125777012795317055804 1:2 56:1 116:5 137:1 331:2 555:4 630:1 732:2 1334:1 1346:1 1461:1 1495:1 1634:2 1683:1 2238:2 3071:1 3400:1 3864:1 3869:1 3873:1 4689:2 8003:1 8004:2 8005:1 8006:1 8007:1 8008:1 8009:1 8010:3 8011:1 8012:2 8013:1 8014:1 8015:1 8016:1 8017:1 8018:1 8019:1 8020:2 8021:1 8022:1 8023:1 8024:1 8025:1 8026:1 8027:1 #
-0.0042777413351047493400569621258001 3:1 4:1 6:5 9:2 11:2 38:1 41:2 50:1 61:1 90:2 92:3 196:1 251:1 337:2 506:1 537:1 555:5 602:1 659:4 662:1 879:1 1438:2 1676:1 1698:1 1729:1 2077:1 2319:1 3056:1 3677:1 4696:6 5117:1 5235:1 5577:1 13632:1 14082:1 14083:1 14084:1 14085:1 14086:1 14087:2 14088:1 #
-0.00012589616991611084673326204086408 1:1 36:1 53:3 114:1 136:1 193:1 195:2 371:1 400:2 455:1 604:1 892:1 1167:4 1214:1 1430:1 1442:1 1473:1 1531:1 1734:1 1742:1 1756:1 2141:1 2306:1 2319:1 2350:1 2534:1 2629:1 2933:1 3067:1 3195:1 4014:1 5157:2 5583:1 5832:1 12202:1 17058:1 17379:1 19192:2 20029:2 20030:1 20031:1 20032:1 20033:1 20034:2 20035:1 20036:1 20037:1 20038:2 20039:1 20040:1 20041:1 20042:1 20043:1 20044:1 20045:1 20046:1 #
-0.0034170936059949265015123209821013 1:1 11:2 16:1 29:1 46:1 82:2 137:4 169:1 447:1 622:2 624:2 1104:1 1205:1 1224:1 5149:1 20668:4 20669:2 20670:4 20671:2 20672:2 20673:1 #
-0.0046341559632336369947691601112183 2:1 3:1 9:1 11:1 20:1 46:1 75:1 99:3 100:1 183:1 204:1 216:1 414:1 1624:1 1945:1 2483:3 7325:1 10232:1 12497:1 12498:1 12499:1 #
-0.00056082257821615994798636339879749 1:1 9:11 11:2 38:2 52:3 200:1 229:1 345:1 392:2 732:1 824:1 972:1 973:3 1166:2 1233:2 1335:1 1346:5 1727:1 1843:7 2092:3 2483:1 2581:1 2946:1 8328:1 9626:2 11752:7 13147:1 13511:1 20580:1 21874:2 28522:2 28523:2 28524:2 28525:2 28526:2 28527:1 28528:1 28529:1 28530:1 28531:1 28532:1 28533:2 28534:1 28535:2 28536:1 28537:1 28538:1 28539:1 28540:1 28541:1 28542:1 28543:1 #
-0.0045163444016363234190247766264292 1:3 2:1 9:3 11:6 20:1 82:5 90:1 186:1 215:1 233:2 249:2 250:1 251:1 253:1 287:1 288:1 304:1 305:2 455:1 589:1 638:1 641:1 780:1 798:1 880:1 914:1 1272:5 1971:1 5869:1 6045:1 8045:2 9957:1 10136:1 10889:3 10890:5 10891:2 10892:1 10893:1 10894:1 10895:1 10896:1 10897:1 10898:1 10899:1 10900:1 #
-0.00019857611595452059351750440097106 1:1 11:1 16:1 17:2 28:1 38:2 137:18 169:2 196:1 253:1 309:1 327:2 352:4 558:8 657:1 707:2 745:3 914:2 938:1 1104:1 1205:1 1457:2 1624:4 1708:4 1757:1 1942:1 1972:2 1976:11 2090:1 2288:3 3458:4 3578:18 3866:6 3976:11 7788:1 8462:2 8825:1 19215:1 19216:1 19217:1 19218:1 19219:1 19220:6 19221:3 19222:4 19223:1 19224:1 19225:5 19226:1 19227:1 19228:1 19229:1 19230:2 19231:3 19232:1 19233:1 #
-0.00018058295616975327847752996746067 1:1 9:4 11:1 37:1 49:1 112:4 122:2 162:3 200:7 251:1 293:1 416:1 454:1 557:3 637:1 695:1 824:2 943:1 969:1 1064:1 1326:1 1335:1 1364:1 1380:5 1405:1 1585:1 1625:1 1708:1 1756:1 1805:2 1828:1 1843:4 1844:3 1866:1 2029:1 2140:1 2171:1 2933:2 2943:1 2946:1 3783:1 4219:2 4236:1 4528:1 5454:3 5790:3 6005:1 6543:2 6961:1 7386:1 14956:1 16198:1 16888:1 21418:2 27591:3 27592:1 27593:1 27594:1 27595:1 27596:1 27597:1 27598:1 27599:1 27600:1 27601:1 27602:1 27603:1 27604:3 27605:3 #
0.0046341559632336369947691601112183 11:1 38:1 92:1 137:1 173:3 215:1 222:1 288:1 554:1 617:1 618:1 619:1 620:1 621:1 622:1 623:1 624:1 #
0.0046341559632336369947691601112183 1:3 4:1 6:3 11:2 16:1 41:1 46:1 48:1 49:1 50:1 51:1 52:1 53:1 54:1 55:1 56:1 57:1 58:1 59:1 60:2 61:1 62:1 63:1 64:1 65:1 66:1 67:1 68:1 69:1 70:1 71:6 72:1 73:1 74:2 75:6 76:2 77:2 78:2 79:4 80:2 81:2 82:2 83:2 84:4 85:1 86:1 87:1 88:1 89:1 90:1 91:1 92:1 93:1 94:1 95:1 96:1 97:1 98:1 99:1 100:1 101:1 102:1 103:1 104:1 105:1 106:1 107:1 108:1 109:1 #
-0.0046341559632336369947691601112183 11:1 82:1 123:1 173:6 196:1 352:1 466:1 518:1 545:1 555:12 595:1 611:2 701:1 859:1 867:1 965:1 1187:2 1224:1 1328:1 1620:1 1627:1 2171:1 2207:1 2341:1 2346:1 2528:1 3994:1 4616:2 5876:1 7893:1 8293:1 9314:1 9315:1 9316:2 9317:1 9318:1 9319:1 9320:1 9321:2 9322:1 9323:1 9324:1 9325:1 9326:1 9327:1 9328:1 9329:1 9330:1 9331:1 9332:1 9333:1 #
-0.0014700911112193934798114680617687 1:1 23:1 41:1 122:1 165:2 173:1 296:4 378:1 460:1 474:1 499:2 602:1 1252:1 1534:3 1695:1 1827:2 1853:1 2399:1 2591:1 2774:1 2857:2 3733:2 4761:1 8328:1 9359:1 9360:1 9361:1 9362:2 9363:1 9364:1 #
0.0046341559632336369947691601112183 1:1 9:1 11:3 27:1 38:1 57:2 82:4 99:3 222:1 223:1 224:2 225:1 226:1 227:1 228:1 229:1 230:6 231:6 232:6 233:1 234:1 235:1 236:1 237:2 238:1 239:1 240:1 241:2 242:1 243:1 244:1 245:1 246:1 247:1 248:1 249:1 250:1 251:1 252:1 253:1 254:1 255:1 #
0.0046341559632336369947691601112183 1:1 9:3 11:2 57:1 162:1 233:1 252:1 254:1 447:2 774:2 775:2 776:1 777:2 778:1 779:2 780:1 781:1 #
-0.00057847349089151789414131599187385 1:1 11:2 16:1 28:1 81:4 82:17 90:1 98:1 99:3 127:1 169:1 233:1 235:1 242:2 244:2 331:2 352:1 366:1 416:3 439:1 447:6 506:1 516:2 519:1 529:1 605:2 694:1 701:1 703:3 714:1 914:1 921:1 1021:1 1056:1 1227:1 1252:1 1322:1 1539:1 1718:1 1767:1 2489:1 2775:2 2853:1 2911:1 3171:1 3179:1 3208:1 3519:1 3560:1 3694:2 3804:1 4470:6 4734:1 4891:1 5134:1 5145:2 10135:1 13189:1 21296:3 21297:1 21298:1 21299:1 21300:1 21301:1 21302:1 21303:1 21304:1 21305:1 21306:1 21307:1 21308:1 21309:1 21310:1 21311:1 21312:1 21313:1 21314:1 21315:2 21316:1 21317:1 21318:2 21319:1 21320:1 21321:1 21322:1 21323:1 21324:1 #
-0.0032364370278783810216949312632551 1:1 11:1 38:1 46:1 48:1 93:2 168:1 174:1 195:2 287:1 418:1 447:2 454:1 491:1 557:1 701:1 914:1 1428:1 1566:1 2378:1 2406:1 2821:1 3221:1 3269:1 3967:1 6332:2 6710:1 7120:1 11168:1 11169:1 11170:1 11171:1 11172:1 #
-0.00025367569053467878097130050463193 1:1 11:4 16:1 17:2 38:1 82:1 90:1 200:1 203:12 242:2 388:1 532:1 626:1 813:1 867:1 955:1 965:11 1166:1 1304:1 1346:1 1430:1 1462:1 1620:1 1635:1 1654:1 1853:1 1876:1 2028:1 2892:12 3774:1 4342:1 4785:8 5156:1 5421:1 5832:1 11632:1 13318:1 14926:5 19420:1 19956:3 20494:5 20495:1 20496:1 20497:1 20498:1 20499:1 20500:4 20501:1 20502:1 20503:1 20504:1 20505:1 20506:1 20507:1 20508:1 20509:1 20510:1 20511:2 20512:1 20513:1 20514:1 20515:2 20516:2 20517:2 20518:1 20519:1 20520:2 20521:1 20522:1 20523:12 20524:1 20525:1 20526:2 20527:1 20528:1 20529:1 20530:1 20531:1 20532:1 20533:1 20534:1 20535:5 20536:3 20537:2 20538:2 20539:2 20540:1 #
0.0046341559632336369947691601112183 1:1 9:2 11:2 21:1 38:1 61:1 93:12 136:1 137:5 168:1 171:1 172:1 173:13 174:1 175:1 176:3 177:3 178:3 179:3 180:3 181:1 182:1 183:1 184:1 185:1 186:1 187:1 188:1 189:1 190:2 191:1 192:2 193:1 194:2 195:1 196:1 197:1 198:2 199:1 200:1 201:2 202:1 203:1 204:2 205:1 206:1 207:1 208:1 209:1 210:1 #
0.0046341559632336369947691601112183 1:1 6:1 11:2 205:1 244:1 288:2 397:1 555:13 782:1 783:2 784:2 785:2 786:2 787:2 788:2 789:1 790:1 791:2 792:1 793:1 794:1 795:1 796:1 797:1 798:1 799:1 800:1 801:1 #
0.0046341559632336369947691601112183 1:2 11:3 16:1 17:1 21:1 38:1 61:1 72:1 82:1 94:1 120:1 200:1 211:1 215:1 394:1 414:1 513:1 514:2 617:1 640:1 735:1 736:1 798:1 900:1 1066:1 1081:1 1104:1 1257:1 1271:1 1272:2 1273:1 1274:1 1275:1 1276:1 1277:1 1278:1 1279:1 1280:2 1281:1 1282:1 1283:1 1284:1 1285:2 1286:1 1287:1 1288:1 1289:1 1290:1 1291:1 1292:1 1293:1 1294:1 1295:1 1296:1 #
0.0046341559632336369947691601112183 1:1 11:1 22:1 173:2 203:2 404:1 606:1 607:1 608:1 609:1 610:1 611:1 612:1 613:1 614:1 615:1 616:1 #
-0.004253097783556275372773836096485 1:2 11:2 69:1 152:1 171:2 174:4 252:1 287:2 400:2 425:1 483:1 508:1 557:1 970:1 1370:2 2386:2 2506:1 2818:1 3781:1 11005:1 12111:1 12901:1 20729:1 23534:2 23535:1 23536:2 #
-0.001422334733047085197216174989876 9:2 11:1 38:1 72:1 94:3 309:3 311:2 371:1 402:1 457:1 640:1 719:1 826:1 829:1 914:1 1007:5 1187:4 1449:1 1521:1 1568:2 1715:1 1802:1 1986:1 2502:3 2810:7 2884:1 3244:1 3265:1 4158:1 4551:1 6554:1 7813:1 17547:1 21073:1 21074:1 21075:1 21076:1 21077:2 21078:1 21079:1 21080:1 #
-0.0046341559632336369947691601112183 1:1 6:1 41:1 72:1 182:2 205:1 366:1 1798:1 2292:1 2585:1 2586:1 2587:1 2588:1 2589:1 2590:1 2591:1 #
-0.0044176262482711094181642152989298 1:1 11:2 224:1 244:1 287:1 309:1 499:2 622:2 822:1 848:1 849:1 1083:2 1494:2 2750:1 5234:1 6185:1 7236:1 9604:1 16772:1 23152:2 24294:1 24295:1 24296:1 24297:2 24298:2 24299:2 24300:2 24301:1 #
0.0046341559632336369947691601112183 1:1 2:1 8:1 9:2 11:3 29:1 38:3 57:1 82:3 99:1 173:1 177:1 178:1 233:1 235:1 282:2 283:1 284:1 285:1 286:1 287:2 288:2 289:1 290:1 291:1 292:1 293:1 #
-0.0001295942814183806434703838394995 1:1 11:2 17:2 41:1 50:9 62:2 68:1 82:47 99:30 161:1 196:1 204:2 229:1 253:1 312:1 352:5 416:1 447:1 659:2 700:1 711:1 713:3 798:1 842:3 975:1 1449:1 1539:6 1585:5 1698:1 1707:1 1729:1 1972:9 1986:2 2206:1 2544:1 2709:1 2830:1 2996:1 3372:1 3563:1 4301:1 5777:1 7448:5 9216:1 9217:1 9218:1 9219:1 9220:1 9221:1 #
-0.0014398529922306601940007464435212 1:1 3:1 7:1 8:1 9:1 11:1 37:1 38:6 84:4 171:1 319:1 409:1 506:1 617:1 1430:2 1607:1 2270:1 2626:1 3598:1 9496:1 16963:1 16964:5 16965:1 16966:1 16967:4 16968:4 16969:2 #
-0.0010964643866396028316911870348349 1:1 11:2 82:2 170:1 180:8 293:1 425:1 427:1 555:1 1314:1 1534:1 1782:1 2062:1 2220:1 2221:1 2657:1 2908:1 3582:8 4347:1 4960:1 4961:1 8073:4 11151:1 11200:1 18091:1 18092:1 18093:1 18094:1 18095:2 18096:3 18097:4 18098:4 18099:4 18100:1 18101:1 18102:1 18103:1 #
-0.0028708529449810184751290531579571 1:2 9:16 11:1 38:12 41:1 46:1 82:2 90:1 161:2 173:14 251:2 308:1 395:1 402:1 555:4 661:2 732:1 900:2 1166:1 1167:4 1169:2 1628:1 1703:1 1750:2 1766:1 1915:6 2140:1 2200:1 2494:2 2520:1 3059:1 3334:14 3469:1 3838:2 4286:1 4329:4 5241:1 5378:1 6471:1 7788:1 7898:2 8187:1 8838:2 20664:1 20848:1 23429:3 23430:3 23431:1 23432:1 23433:1 23434:1 23435:1 #
0.0046341559632336369947691601112183 1:1 9:1 11:1 22:1 46:1 161:1 447:1 455:1 651:2 755:1 950:1 951:1 952:2 953:1 954:1 955:1 956:2 957:1 958:1 959:1 960:1 961:1 962:1 963:1 964:1 965:1 966:1 #
0.0046341559632336369947691601112183 1:1 11:2 16:1 37:2 75:1 91:1 119:1 169:1 211:1 212:1 213:1 214:1 215:1 216:1 217:2 218:2 219:2 220:1 221:1 #
0.0046341559632336369947691601112183 1:1 9:1 11:1 57:1 196:1 224:1 254:1 400:1 427:2 430:1 439:2 441:1 442:1 443:1 444:1 445:1 446:1 447:1 448:2 449:1 450:2 451:1 452:1 453:1 454:1 455:1 456:1 457:1 458:1 459:1 460:1 #
0.0046341559632336369947691601112183 11:1 16:1 38:1 57:1 93:5 169:1 196:2 200:1 253:1 400:1 439:1 506:1 516:1 552:1 590:2 626:2 630:1 731:1 756:1 757:1 758:1 759:1 760:1 761:1 762:1 763:2 764:2 765:1 766:1 767:1 768:3 769:1 770:1 771:1 772:1 773:1 #
0.0046341559632336369947691601112183 11:1 57:1 81:2 159:1 160:1 161:1 162:1 163:1 164:1 165:1 166:1 167:1 168:1 169:1 170:1 #
-0.00034822064406448007640657027472741 8:3 17:3 36:1 115:1 119:2 168:1 182:1 184:1 282:1 444:3 455:1 475:1 704:1 776:1 802:2 819:14 826:2 893:1 894:1 914:1 919:1 926:1 954:1 1032:2 1179:1 1317:1 1369:3 1486:1 1635:1 1756:3 1861:1 2031:1 2378:2 2602:3 2670:1 2784:1 3247:1 3361:1 3561:1 3671:1 4167:9 4168:1 4169:1 4170:1 4171:1 4172:4 4173:1 4174:2 4175:1 4176:1 4177:1 4178:3 4179:3 4180:1 4181:2 4182:1 4183:1 4184:1 4185:1 4186:1 4187:1 4188:1 4189:1 #
-0.00037213875387023917680473505953387 1:1 11:3 36:2 46:1 65:1 111:1 240:1 242:2 245:1 492:1 518:2 582:1 590:3 826:2 921:1 1755:1 1757:2 2298:1 2908:1 2933:2 3531:1 4581:1 4902:1 6139:3 7229:1 7851:1 8242:2 10136:1 14560:1 14640:1 17058:1 19207:4 19565:1 26137:1 28442:1 28443:1 28444:1 28445:1 28446:1 28447:3 28448:4 28449:3 28450:1 28451:1 28452:1 28453:1 28454:1 28455:1 28456:1 28457:1 28458:1 28459:1 28460:1 28461:1 28462:1 #
-0.0017953808884687680238328999493547 1:1 11:3 115:2 116:3 119:1 161:1 229:1 233:1 309:1 389:1 704:1 774:1 919:1 1122:1 1219:1 1346:1 2316:2 2647:1 7070:1 14834:1 16974:1 24765:2 24766:1 24767:1 24768:1 #
-0.0025066315250203839888609724795288 1:2 11:3 16:1 169:1 229:1 255:1 732:1 747:1 796:1 2502:1 4634:2 5237:1 5434:1 8800:1 9341:1 9342:1 9343:1 9344:1 9345:1 9346:1 9347:1 9348:1 9349:1 9350:1 9351:1 9352:1 9353:1 9354:1 9355:1 9356:1 #
-0.00030713409379042012296162633688823 1:2 11:2 28:1 90:1 158:1 213:1 282:1 308:1 311:2 331:3 389:1 444:1 543:1 640:1 695:1 774:1 798:1 986:1 1020:1 1219:1 1458:2 1995:2 3450:2 4194:1 4783:1 7104:1 7608:2 7965:2 11298:1 21156:1 21486:2 23028:4 26247:1 28350:2 28351:2 28352:1 28353:1 28354:1 28355:1 28356:1 28357:1 28358:1 28359:1 28360:1 28361:1 28362:1 28363:1 28364:1 28365:2 28366:2 28367:2 28368:2 28369:2 28370:2 28371:2 28372:2 28373:2 28374:2 28375:2 28376:2 28377:2 28378:2 28379:2 28380:2 28381:2 28382:4 28383:4 28384:4 28385:2 28386:2 28387:2 28388:2 28389:2 28390:2 28391:1 28392:1 28393:1 28394:1 28395:2 28396:1 28397:1 28398:1 28399:1 28400:1 28401:1 28402:1 28403:1 28404:1 #
-0.0014084545229058186444764944056374 1:1 11:2 17:2 38:1 93:6 131:2 178:2 199:1 200:1 213:2 244:1 253:1 319:1 366:1 475:1 544:1 545:1 602:2 639:1 714:1 994:6 1100:1 1273:1 1376:1 1539:1 2156:1 2570:4 2608:1 3070:1 3404:1 3866:3 4194:1 4352:3 4353:4 4634:1 5222:1 5646:1 6554:1 6981:1 6982:1 6983:2 6984:2 6985:2 6986:2 6987:2 6988:2 6989:2 6990:1 6991:1 6992:2 6993:1 6994:1 6995:2 6996:2 6997:1 6998:1 6999:1 7000:2 7001:1 7002:1 7003:1 7004:3 7005:1 #
0.0046341559632336369947691601112183 1:2 2:2 9:1 11:1 36:1 99:3 197:2 229:1 233:1 389:1 589:1 651:4 747:1 752:2 829:1 926:2 1128:2 1255:1 1256:3 1257:1 1258:2 1259:1 1260:2 1261:1 1262:1 1263:1 1264:1 1265:1 1266:1 1267:1 1268:1 1269:1 1270:1 #
0.0046341559632336369947691601112183 1:1 2:1 6:1 9:1 11:4 16:1 61:1 82:1 90:1 92:1 98:1 99:1 100:1 137:1 168:1 229:1 244:1 296:3 330:1 331:1 332:1 333:1 334:4 335:2 336:1 337:2 338:1 339:1 340:1 341:1 342:1 343:2 344:1 345:1 346:1 347:3 348:1 349:1 350:1 351:1 352:1 353:1 354:1 355:1 356:1 357:1 358:1 359:1 360:1 361:1 362:1 363:1 364:1 365:1 366:2 367:1 368:1 369:1 370:1 371:1 372:1 373:1 374:1 375:2 376:2 377:1 378:1 379:1 380:1 381:1 382:1 383:1 384:1 385:1 386:1 387:1 #
0.0046341559632336369947691601112183 1:1 2:1 11:2 36:1 37:1 38:1 39:1 40:1 41:1 42:1 43:2 44:1 45:1 46:1 47:1 #
0.0046341559632336369947691601112183 1:2 2:1 6:4 11:1 17:2 28:1 82:1 90:1 91:1 92:1 100:1 137:1 162:1 196:3 215:1 222:2 235:1 293:1 309:1 327:1 366:1 389:1 402:4 447:1 468:1 543:1 657:1 658:1 659:1 660:1 661:1 662:2 663:2 664:1 665:1 666:2 667:7 668:2 669:2 670:1 671:2 672:1 673:1 674:3 675:1 676:1 677:1 678:1 679:1 680:2 681:1 682:1 683:1 684:2 685:1 686:1 687:1 688:1 689:1 690:1 691:1 692:1 693:1 694:1 695:1 696:1 697:1 698:1 699:1 700:1 701:1 702:1 703:1 704:1 705:1 706:1 707:1 708:2 709:1 710:1 711:1 712:1 713:1 714:1 715:1 716:1 717:1 718:1 719:1 720:1 721:2 722:1 723:1 724:1 725:1 #
0.0046341559632336369947691601112183 1:1 9:1 11:3 57:1 119:1 229:2 244:1 388:1 389:1 390:1 391:1 392:1 393:1 394:1 395:1 396:18 397:1 398:1 #
-0.0012456414495977780835384018942591 11:1 82:5 137:5 214:2 220:1 347:1 399:1 447:2 466:1 516:1 969:2 1055:1 1056:1 1227:1 1405:1 1499:2 1635:1 3689:1 3725:1 4042:2 4050:3 4051:1 4053:1 8119:1 8120:2 8130:2 10531:1 17050:1 21239:1 24738:1 28330:1 31264:3 31265:1 31266:1 31267:1 31268:2 31269:1 31270:1 31271:1 31272:1 31273:1 #
-7.3151995555998281200831001580553e-05 1:1 11:1 16:1 17:1 41:2 53:1 114:2 189:52 253:1 331:1 389:1 414:1 442:1 447:7 480:1 488:1 492:1 518:2 528:1 532:1 555:1 557:1 602:1 617:1 681:2 750:1 819:1 826:1 895:1 1100:1 1122:3 1227:1 1252:1 1627:1 1729:1 1775:1 1796:1 2071:2 2092:1 2192:1 2298:1 2629:1 2631:1 2647:1 2900:1 2914:1 3505:1 3598:1 3709:2 3762:2 4038:1 4689:1 6080:1 6554:1 6789:1 7745:1 8955:1 9047:1 10131:1 10380:1 10826:1 12748:2 16674:1 18115:1 21829:1 21995:2 28215:14 29069:1 29070:1 29071:1 29072:1 29073:13 29074:1 29075:1 29076:10 29077:1 29078:1 29079:1 29080:2 29081:1 29082:1 #
-0.00091547816271616850713338520151297 1:1 4:1 11:6 16:1 23:1 24:1 29:1 36:1 48:1 61:1 82:4 137:4 204:1 210:1 233:2 235:1 252:1 257:1 366:1 368:1 395:1 516:2 700:1 713:1 774:2 879:1 929:1 969:3 988:2 1032:1 1104:1 1197:2 1640:1 1895:2 1956:1 2113:1 2171:1 2637:1 3364:7 3458:3 3618:2 3992:1 4216:1 4851:1 8293:3 13659:2 13660:2 13661:1 13662:1 13663:1 13664:1 13665:1 13666:1 13667:1 13668:1 13669:1 13670:1 13671:1 13672:1 13673:1 13674:1 13675:1 13676:1 #
-0.00087851868795019594921003047716113 11:1 46:1 82:2 93:1 137:5 160:3 196:2 287:1 352:1 431:1 864:2 874:1 1764:1 1889:1 1892:2 2607:1 3387:1 3992:1 4042:1 9969:1 9973:1 11526:1 13246:1 25751:1 27579:1 27580:1 27581:1 27582:1 27583:1 27584:1 27585:1 27586:1 27587:1 27588:1 27589:1 27590:1 #
-0.00068393640406524979814817388756865 1:1 11:1 169:1 177:7 222:2 309:1 622:4 710:1 744:1 864:3 1273:1 1370:1 1561:1 1892:3 2122:1 2450:1 3109:1 3349:2 3502:1 3616:1 4835:1 6128:1 8050:1 8889:1 13354:1 13420:12 16643:1 17745:1 19086:1 23583:1 23584:1 23591:1 25655:1 25657:1 25658:1 25659:1 25661:3 25662:1 25665:1 25666:1 26154:1 26156:1 26158:1 26159:1 26165:1 30474:1 30475:1 30476:1 30477:1 30478:1 30479:1 30480:1 30481:1 30482:1 30483:1 30484:1 30485:1 30486:1 30487:1 30488:1 30489:1 #
0.0046341559632336369947691601112183 1:2 11:4 17:1 18:3 22:1 28:1 29:1 57:1 76:1 82:1 93:1 177:3 178:2 180:3 199:2 233:1 253:1 260:1 400:6 456:1 506:1 550:1 551:2 552:1 553:2 554:5 555:3 556:2 557:1 558:1 559:2 560:1 561:1 562:1 563:1 564:1 565:1 566:1 567:1 568:1 569:4 570:4 571:2 572:1 573:1 574:1 575:1 576:1 577:1 578:1 579:1 580:1 581:1 #
0.0046341559632336369947691601112183 1:1 11:1 161:1 245:1 327:1 447:1 626:1 637:1 729:1 735:1 736:1 995:1 1204:1 1205:1 1206:1 1207:1 1208:1 1209:1 1210:1 1211:1 1212:1 1213:1 1214:1 1215:1 1216:1 1217:1 1218:1 1219:1 #
-0.0021948350207655108537463384266175 1:1 11:1 17:1 93:3 116:1 174:2 178:1 200:1 240:1 393:1 397:1 400:4 506:1 535:1 1020:1 1251:1 1438:1 1439:3 1488:1 1491:2 1493:1 1566:1 1716:1 2116:3 2367:1 2555:1 2806:2 2877:2 2946:1 3153:1 3171:3 3591:1 3598:3 3646:1 3758:1 4528:1 5831:1 7135:1 9058:2 31167:1 31168:1 31169:1 31170:1 31171:1 31172:1 31173:1 31174:1 31175:1 #
-0.00026474254256155616915960337998115 1:1 11:1 29:2 53:6 55:1 93:1 161:1 171:1 319:3 447:1 516:1 518:1 555:3 582:1 626:1 627:1 642:1 703:1 798:1 893:1 894:1 1227:1 1233:1 1245:3 1266:1 1464:1 1504:1 1709:1 1854:1 1908:1 2273:1 2337:1 2555:1 2833:1 4637:1 5185:1 5389:1 5421:1 6755:1 9516:1 10829:2 11674:2 11750:1 13246:1 22735:1 22736:1 22737:2 22738:3 22739:2 22740:1 22741:1 22742:1 22743:1 22744:1 22745:1 22746:3 22747:2 22748:1 #
-0.00050345280014238804645876346199884 1:3 11:1 72:1 99:2 111:1 229:1 242:1 245:1 293:1 366:1 439:1 447:7 480:2 491:1 557:1 626:2 694:1 730:1 819:1 914:1 1020:1 1304:1 1441:1 1519:2 1695:1 1764:2 1795:1 2029:1 2065:1 2198:1 2297:1 2489:1 2853:1 2946:1 3386:4 4882:1 4891:1 4902:1 5137:1 5389:1 5421:1 5842:3 6256:1 6272:5 8464:2 15339:1 15340:1 15341:1 15342:2 15343:2 15344:2 15345:1 15346:1 15347:1 15348:1 15349:1 15350:1 15351:1 15352:6 15353:2 15354:1 15355:1 15356:3 15357:1 15358:1 15359:2 15360:2 15361:1 15362:1 #
-0.0046341559632336369947691601112183 1:1 2:1 9:2 20:1 31:1 72:1 73:1 244:1 290:1 319:1 651:4 672:1 1024:1 1222:1 1702:1 2270:1 2273:1 4321:1 8983:1 11615:1 17566:1 19933:1 19934:1 19935:1 19936:1 19937:1 19938:1 19939:1 #
0.0019945859917154724373633545297935 1:4 9:1 11:3 21:1 28:1 30:1 82:4 99:4 137:1 160:2 162:1 173:5 182:1 183:1 203:2 204:2 209:2 222:1 249:1 309:4 311:18 408:1 414:1 455:1 516:2 606:1 622:10 624:10 704:1 776:1 826:1 978:1 1081:3 1082:1 1083:3 1084:2 1085:1 1086:1 1087:1 1088:9 1089:9 1090:2 1091:1 1092:1 1093:1 1094:1 1095:1 1096:1 1097:1 1098:1 1099:1 1100:1 1101:1 1102:1 1103:1 1104:2 1105:1 1106:1 1107:1 1108:1 1109:1 1110:1 1111:1 1112:1 1113:2 1114:2 1115:1 1116:1 1117:1 1118:1 1119:1 1120:1 1121:1 1122:1 #
0.0046341559632336369947691601112183 1:1 9:2 11:1 17:2 30:1 36:1 38:2 57:2 75:1 82:2 99:2 160:1 242:1 249:1 305:1 311:1 394:1 447:1 514:1 677:1 895:1 967:1 968:1 969:1 970:1 971:1 972:1 973:1 974:1 975:1 976:1 977:1 978:1 979:1 980:1 981:1 982:1 983:1 984:1 985:1 986:1 #
0.0046341559632336369947691601112183 1:1 2:1 11:2 124:1 892:2 998:2 999:2 1000:1 1001:2 1002:2 1003:2 1004:1 1005:1 1006:1 #
-0.0004825100233272931271946704079312 1:2 9:1 11:2 38:2 48:1 62:1 162:1 213:5 242:1 247:3 252:1 311:8 451:1 692:1 700:1 794:4 796:1 900:7 986:5 1227:1 1448:1 1551:2 1625:1 1635:1 1705:1 1723:5 1850:1 1914:1 2062:1 2182:1 2197:2 2207:1 2249:1 2298:1 2443:1 3079:1 3296:1 3327:1 3944:1 4236:1 4289:1 4882:1 5437:1 6340:4 6906:2 7766:1 8168:1 8508:1 10757:1 10893:1 12098:1 12902:1 16160:1 16161:1 16162:2 16163:2 16164:2 16165:2 16166:7 16167:7 16168:7 16169:7 16170:5 16171:1 16172:1 16173:1 16174:1 16175:1 16176:1 16177:1 16178:1 16179:1 16180:1 16181:1 16182:1 16183:1 16184:1 #
-0.002188143674198301386057963213716 8:1 11:1 29:1 38:2 99:8 161:1 200:1 204:1 213:1 242:1 389:1 425:1 719:1 730:1 879:1 1422:1 1585:2 2631:1 3030:1 3137:1 3638:1 3762:1 6796:1 7080:1 7082:1 7083:1 7088:2 8919:2 30989:1 30990:1 30991:1 30992:1 30993:1 30994:1 30995:1 30996:1 30997:2 #
-0.0038684665763070130543865854377827 1:2 9:1 11:4 16:1 38:1 119:1 215:1 365:1 417:1 450:1 913:1 970:1 2640:1 3276:1 3280:1 5158:1 8872:1 15723:3 19908:2 19909:2 19910:2 19911:1 19912:1 19913:1 19914:1 19915:1 19916:1 19917:1 #
0.0046341559632336369947691601112183 11:1 57:1 637:1 1023:1 1024:1 1025:1 1026:1 1027:1 1028:1 #
-0.0046341559632336369947691601112183 1:2 7:2 11:1 38:2 93:2 319:2 582:1 878:1 995:2 1360:1 2206:1 4344:1 9095:1 10412:2 13256:1 26122:1 26123:1 26124:1 26125:1 26126:1 #
-0.0014360541117603097503729880912715 1:2 41:1 75:1 114:2 169:1 197:1 460:1 516:1 630:1 667:1 692:1 747:1 828:1 879:1 892:1 1419:1 1775:1 1791:1 2183:1 2371:1 2932:1 3107:1 3872:1 4012:1 4017:1 5732:1 8028:1 10034:1 10230:1 10416:1 10656:1 11081:1 25439:1 28241:1 30115:1 30116:1 30117:1 30118:1 30119:1 30120:1 30121:1 30122:1 30123:1 30124:1 30125:1 30126:1 30127:1 #
-0.0037191817347473040203387206759089 11:1 17:1 36:1 72:1 93:4 242:1 253:1 329:1 371:1 503:1 506:3 516:1 544:1 893:1 1303:2 1304:1 1498:1 1718:1 2360:1 2389:1 2443:1 3023:1 3594:1 4563:1 6543:1 9516:1 14093:1 18147:2 19733:1 19734:1 19735:1 19736:1 19737:1 19738:1 #
0.0046341559632336369947691601112183 1:1 6:4 7:4 11:1 22:1 57:1 81:2 82:1 84:6 99:3 171:1 192:1 200:2 252:1 313:1 335:1 402:1 506:1 657:1 659:1 727:1 780:2 814:1 826:1 940:1 1138:1 1150:1 1326:1 1327:1 1328:1 1329:1 1330:1 1331:1 1332:1 1333:1 1334:1 1335:1 1336:1 1337:1 1338:1 1339:3 1340:1 1341:1 1342:1 #
0.0046341559632336369947691601112183 1:3 2:1 9:1 11:2 38:1 127:1 203:1 215:1 255:1 288:1 352:1 537:1 749:2 750:1 751:1 752:1 753:1 754:1 755:1 #
-0.0013028257155298719749403346668259 11:2 47:1 81:1 82:1 84:3 161:2 229:2 447:1 711:2 914:2 1082:1 1434:1 1721:2 2984:1 2985:1 2986:1 2987:1 2988:1 #
-0.00070379085916675763155703204887459 1:1 4:2 8:1 11:3 17:2 28:2 37:1 76:1 81:3 84:18 149:1 200:7 204:1 229:3 233:1 258:1 319:1 474:1 719:1 893:3 948:1 985:1 1250:1 1303:4 1346:2 1376:1 1731:4 1759:1 1763:1 1834:3 2092:1 2272:1 2504:5 2629:1 2943:1 3179:5 3185:1 3296:1 3593:1 3598:4 4012:1 4340:1 5255:1 5803:1 6358:1 8339:5 8495:1 8831:1 9413:1 9769:1 14876:1 14976:2 14977:2 14978:4 14979:1 14980:7 14981:4 14982:2 14983:4 14984:1 14985:1 14986:2 14987:3 14988:2 14989:2 14990:1 14991:1 14992:1 14993:1 14994:1 14995:1 14996:2 14997:1 14998:1 14999:1 15000:1 15001:1 15002:1 #
-0.002338901265759312560893468102563 1:3 6:1 9:1 11:1 18:1 20:1 21:3 37:1 183:3 192:3 389:1 395:1 506:1 602:2 929:1 969:1 1022:1 1227:1 1423:1 1697:1 1965:1 2449:1 2777:1 4250:1 4803:1 4846:1 5559:1 8719:1 14587:4 21994:3 24375:1 31274:1 31275:1 31276:1 31277:1 31278:1 31279:1 #
-0.00034558961299568870164516942722344 1:2 9:2 11:3 20:1 29:1 37:1 138:1 169:1 186:2 249:2 287:1 479:4 518:1 590:1 626:4 780:2 798:1 858:1 1148:2 1245:1 1252:1 1683:7 1712:1 1718:4 1787:1 2036:1 2062:1 2114:2 3421:5 3562:4 3778:4 8035:7 11249:1 14640:4 15277:1 15278:1 15279:1 15280:1 15281:1 15282:1 15283:1 15284:1 15285:1 15286:1 15287:1 15288:1 15289:1 15290:1 15291:1 15292:1 15293:1 15294:1 15295:1 15296:1 15297:1 #
0.0046341559632336369947691601112183 11:2 16:1 38:1 57:1 93:2 174:1 256:1 257:1 258:1 259:1 260:1 261:1 262:1 263:1 264:1 265:1 266:1 267:1 268:1 269:1 270:1 271:1 272:1 273:1 274:1 275:1 276:1 277:1 278:1 279:1 280:1 281:1 #
0.0046341559632336369947691601112183 4:1 11:1 17:1 38:1 57:1 61:1 171:1 173:1 205:2 298:1 335:1 379:1 427:3 516:1 660:1 931:1 1220:1 1221:1 1222:2 1223:1 1224:1 1225:1 1226:1 1227:1 1228:1 1229:1 1230:1 1231:1 #
0.0046341559632336369947691601112183 1:2 11:2 30:1 91:1 287:1 290:1 327:1 397:1 543:1 844:1 845:1 846:4 847:1 848:2 849:1 850:1 851:1 852:1 853:1 854:1 855:1 856:1 857:1 858:1 #
0.0046341559632336369947691601112183 1:1 2:2 7:1 9:1 21:1 173:5 181:3 182:2 287:1 338:1 881:3 882:2 883:1 884:1 885:1 886:1 887:1 888:1 889:1 890:2 891:1 #
0.0046341559632336369947691601112183 11:1 36:1 57:2 90:1 93:1 127:2 379:1 516:1 940:1 1232:1 1233:1 1234:1 1235:4 1236:3 1237:3 1238:1 1239:1 1240:1 1241:1 1242:5 1243:1 1244:1 1245:1 1246:1 1247:1 1248:1 1249:1 1250:1 1251:1 1252:1 1253:1 1254:1 #
-0.0046341559632336369947691601112183 11:2 19:1 38:2 46:1 173:1 183:1 253:1 309:1 311:1 335:1 614:1 2303:1 4194:1 8015:1 13127:1 19555:1 19556:1 19557:1 19558:1 19559:1 19560:1 19561:1 #
-0.0039202617784799744654611330929583 1:3 11:2 55:1 173:3 467:1 555:1 842:1 1253:1 2177:2 2222:1 3210:1 6047:1 9450:1 9451:2 9452:1 9453:3 9454:1 9455:1 9456:1 9457:1 9458:1 9459:1 9460:1 9461:1 9462:1 9463:1 9464:1 #
-0.0010245957306147385201811061961052 6:2 11:1 38:2 56:2 161:1 173:2 331:2 365:1 439:5 649:2 796:1 1122:1 1197:1 1222:2 2180:1 3764:1 4321:1 5129:1 8788:1 8955:1 13711:1 15318:1 15319:1 15320:1 15321:1 15322:1 #
-0.00042947102731500481302001626104925 1:2 2:1 11:2 60:1 90:1 193:2 247:1 428:1 626:1 781:1 796:1 802:1 880:1 898:1 929:1 1227:1 1443:1 1553:1 1640:5 1676:1 1702:1 1969:1 2268:1 2639:1 2946:1 4344:1 4762:1 5117:1 5167:1 5892:2 5997:1 6566:1 8023:1 8057:2 9043:2 9380:5 15046:1 15935:1 22304:1 22305:1 22306:2 22307:1 22308:3 22309:1 22310:1 22311:1 22312:1 22313:1 22314:1 22315:1 #
-8.1899302133453153688252834641048e-06 11:1 20:1 116:1 290:1 311:4 331:1 488:1 589:3 972:1 1315:1 1640:1 1782:2 2029:1 3320:1 5248:1 6870:2 9126:2 14953:2 15113:26 18245:1 18246:2 18247:7 18248:1 18249:1 18250:2 18251:1 18252:2 18253:1 18254:1 18255:2 18256:2 18257:1 18258:1 18259:2 18260:2 18261:2 18262:3 18263:1 18264:1 18265:1 18266:1 18267:1 18268:1 18269:1 18270:1 18271:1 18272:1 18273:1 18274:1 #
0.0046341559632336369947691601112183 1:1 2:2 9:2 11:3 17:1 20:1 25:1 29:1 36:1 82:1 96:1 137:1 193:1 195:1 215:1 287:1 288:1 309:4 335:3 336:1 366:1 408:1 427:1 447:1 455:1 506:1 798:1 858:1 914:1 1063:1 1123:2 1124:3 1125:1 1126:2 1127:2 1128:3 1129:1 1130:1 1131:2 1132:1 1133:2 1134:2 1135:2 1136:1 1137:1 1138:2 1139:1 1140:1 1141:1 1142:1 1143:2 1144:1 1145:1 #
0.0046341559632336369947691601112183 2:4 11:2 21:2 29:1 36:1 72:1 90:1 244:1 371:1 397:1 455:1 639:1 640:4 641:2 642:1 643:1 644:2 645:2 646:2 647:2 648:2 649:2 650:1 651:4 652:1 653:1 654:1 655:1 656:1 #
0.0046341559632336369947691601112183 2:3 9:3 11:1 38:3 57:1 69:1 82:1 93:2 136:1 137:1 158:1 235:1 253:1 297:1 388:1 402:1 506:1 582:1 583:1 584:2 585:1 586:1 587:1 588:3 589:2 590:1 591:1 592:1 593:1 594:1 595:1 596:1 597:1 598:1 599:1 600:1 601:1 602:1 603:1 604:1 605:1 #
-0.0046341559632336369947691601112183 2:2 11:2 36:2 162:1 196:2 213:1 229:1 305:1 335:1 506:2 665:1 681:2 1063:1 1304:2 2089:1 3948:1 4665:1 7812:1 15868:1 18802:1 18803:1 18804:2 18805:3 18806:1 #
-0.00062992049040894062920947771289093 2:2 9:1 11:2 82:2 91:2 161:1 171:1 203:2 204:2 389:2 506:1 637:1 880:1 1539:1 1782:3 2591:1 2731:1 23459:2 23460:2 23461:2 23462:2 23463:2 23464:2 23465:4 23466:2 23467:11 23468:9 23469:1 23470:1 23471:4 23472:4 23473:4 23474:4 23475:4 23476:4 23477:4 23478:2 23479:2 23480:10 23481:1 23482:1 23483:1 23484:1 23485:1 23486:1 #
-0.0014811876671275909286146221788272 1:3 2:1 11:3 29:1 31:1 41:1 99:1 160:3 258:1 426:1 455:1 506:2 578:2 582:1 733:1 785:1 796:1 826:3 974:1 1224:1 1438:1 1888:1 2113:1 2163:1 2249:1 2657:2 2765:1 2996:1 3218:1 3259:2 3286:1 3427:1 3520:1 5131:2 5133:2 5134:1 5261:1 6872:2 7921:2 10409:1 11863:1 13245:1 18187:1 23597:2 23598:1 23599:4 23600:1 23601:2 23602:2 23603:1 23604:1 23605:1 23606:1 23607:1 23608:2 23609:1 23610:1 23611:1 23612:1 23613:1 23614:1 23615:1 23616:1 23617:2 23618:1 23619:2 23620:2 23621:1 #
-0.00077940523959466067628609753370483 1:1 9:1 11:2 17:2 36:1 46:1 94:3 200:2 287:1 288:1 416:1 455:1 479:1 582:1 657:1 704:1 999:2 1016:1 1105:1 1106:1 1285:10 1423:1 1516:1 1575:1 1625:2 1706:1 1853:1 2219:1 2401:1 2570:1 2690:1 2877:1 3052:2 3435:1 4277:1 4416:1 4661:1 5255:1 5777:1 5973:1 6763:2 6766:1 8750:2 9080:1 9120:1 9402:1 9403:1 9404:1 9405:1 9406:1 9407:1 9408:1 9409:1 9410:1 9411:1 9412:1 9413:1 9414:1 9415:1 9416:4 9417:1 9418:1 #
0.0046341559632336369947691601112183 2:1 6:1 9:1 12:1 49:1 61:1 205:1 215:1 224:2 311:1 397:1 541:1 829:2 1029:1 1030:1 1031:1 1032:1 1033:2 1034:1 1035:2 #
0.0046341559632336369947691601112183 1:1 2:1 11:1 38:1 57:1 174:1 329:1 447:1 504:1 506:1 555:1 562:1 590:2 1049:1 1050:1 1051:1 1052:1 1053:2 1054:1 1055:1 1056:1 1057:1 1058:2 1059:1 1060:1 1061:1 1062:1 1063:1 1064:1 1065:1 #
-0.00028808772724451257082195487768672 7:4 38:2 72:2 506:1 573:1 651:2 798:1 1646:1 1664:1 1745:1 1916:2 2064:1 2304:1 2940:1 4124:1 7101:2 8067:1 8476:2 9437:1 10044:1 10045:1 10046:3 10047:1 10048:1 10049:1 10050:1 10051:1 10052:2 10053:2 10054:2 10055:1 10056:1 10057:1 10058:1 10059:1 #
-0.0036496053895525210931938264735663 1:1 9:2 11:1 38:2 41:1 61:1 93:2 447:1 927:1 972:1 1049:1 1334:1 1434:1 1640:2 3523:1 3762:1 6142:1 7120:1 7648:1 15216:1 17798:1 17849:2 18834:1 18835:4 #
-0.0012397212881841441350916355190748 1:1 9:1 11:1 29:1 38:1 46:1 287:1 749:3 1104:1 1128:2 2110:1 3368:2 4820:2 7361:1 7646:1 8053:2 19011:4 29288:1 29289:4 29290:1 29291:2 29292:1 29293:1 #
-0.0001497035158548740347347200119188 1:1 11:3 20:1 29:2 45:2 46:1 47:1 53:1 82:6 168:1 185:2 229:1 287:1 329:1 347:3 366:1 374:1 400:3 408:1 671:1 745:1 826:2 842:1 969:1 1252:1 1405:1 1519:1 1708:1 1781:1 1933:1 2062:1 2220:1 2221:1 2341:3 2933:1 3557:1 3716:3 4630:1 5173:1 6128:5 7158:1 7159:1 7160:1 7162:1 7163:1 7169:5 7170:6 7175:1 7190:1 9313:1 9467:1 9468:1 9469:1 9470:1 9471:1 9472:1 9473:1 9474:1 9475:1 9476:1 9477:5 9478:1 9479:2 9480:1 9481:1 9482:1 9483:1 9484:1 9485:1 9486:1 #
0.0046341559632336369947691601112183 1:1 9:3 11:1 91:1 168:1 288:1 304:1 313:2 318:1 379:1 426:1 427:3 428:1 429:5 430:1 431:1 432:1 433:1 434:1 435:1 436:1 437:1 438:1 439:1 440:1 #
-0.0046341559632336369947691601112183 1:2 2:1 4:1 6:2 9:1 11:3 16:1 17:2 18:1 21:1 72:1 119:1 162:1 173:1 186:3 229:1 427:1 516:1 543:1 589:1 602:1 745:1 780:1 798:1 837:1 867:1 929:1 986:1 1024:1 1049:1 1222:1 1346:1 1423:1 2116:1 2165:1 2273:1 2570:1 2637:2 2940:1 3527:1 3560:1 3864:1 3972:1 4115:1 4640:1 5134:1 10442:1 10610:1 16314:1 16315:1 16316:1 16317:1 16318:1 16319:1 16320:1 16321:1 16322:1 16323:1 16324:4 16325:2 16326:2 16327:2 16328:1 16329:1 16330:1 16331:1 #
-0.0031700701989926340952641314885341 1:1 11:1 152:2 186:2 229:1 252:1 259:1 427:5 439:2 447:2 455:2 637:1 696:1 780:2 824:3 879:1 1081:1 1559:1 1942:5 3349:2 5060:1 5061:1 5062:1 7860:1 7861:2 7862:1 #
-0.0029981699457381780563047790622022 1:1 9:1 11:3 16:1 36:1 46:1 82:1 196:3 203:5 229:1 309:2 439:3 900:1 1001:1 1878:1 19459:1 19460:1 19461:2 19462:1 19463:2 19464:1 19465:2 19466:1 19467:1 19468:1 #
-0.00076147422889128520574059111325482 1:2 11:3 38:1 61:1 82:4 119:1 137:6 170:2 173:1 196:1 235:1 242:1 287:1 352:2 427:3 506:1 537:2 606:1 704:1 731:2 774:1 1055:1 1105:1 1106:1 1972:2 2089:8 2125:1 2140:1 2288:1 2334:1 2566:1 2709:1 2806:1 2861:1 3153:1 3393:1 3577:1 3578:2 3598:2 3646:1 4042:1 4154:1 5060:1 8049:1 10884:1 11530:2 11531:1 11532:1 11533:1 11534:1 11535:2 11536:1 11537:1 11538:1 11539:1 11540:1 11541:1 11542:1 11543:1 11544:2 11545:1 11546:1 11547:2 11548:2 11549:1 11550:2 11551:1 11552:1 11553:1 11554:2 11555:1 11556:1 11557:2 11558:1 11559:1 11560:1 11561:1 #
-0.0023988852765835662859961185944258 1:1 11:7 94:2 183:1 186:1 200:1 215:2 229:1 242:3 245:1 506:1 516:1 649:1 730:1 780:1 1285:1 1303:1 1326:1 1498:1 1540:1 1546:1 1605:1 1834:1 2435:2 3598:1 5139:1 7308:1 8572:1 11653:1 15859:1 15860:1 15861:1 15862:2 15863:1 15864:1 15865:1 15866:2 15867:1 15868:1 15869:1 15870:1 15871:1 15872:1 15873:1 #
0.0046341559632336369947691601112183 1:1 2:1 9:3 11:2 22:1 38:2 46:1 57:1 288:1 290:1 329:1 408:2 409:1 427:1 506:1 774:1 796:1 974:1 1036:1 1037:1 1038:1 1039:1 1040:1 1041:1 1042:1 1043:1 1044:1 1045:1 1046:1 1047:1 1048:1 #
-0.0023398734136891074023023584516068 1:2 17:1 106:1 164:1 165:2 171:1 213:1 282:1 389:1 557:1 640:2 667:6 826:1 1262:1 1628:1 1638:1 1755:1 1795:1 2257:1 2452:1 7840:2 7867:1 7868:3 7869:1 7870:3 7871:1 7872:1 7873:1 7874:1 7875:1 7876:1 #
-0.0015772848697436208514899291799338 11:3 38:1 46:1 90:1 127:9 331:2 395:1 488:2 661:1 1069:4 1122:1 1743:3 1862:1 2914:2 3195:1 5881:1 9080:1 13959:2 14192:3 16207:1 16208:1 16209:1 16210:1 #
-0.0020647731344628989305634014783664 1:1 2:1 6:1 11:1 16:1 38:1 72:1 90:2 173:1 319:1 402:1 483:1 589:1 789:2 1102:1 1105:1 1106:1 1834:4 1866:1 2435:1 2480:1 2772:1 3030:1 3598:1 5073:1 5200:1 5960:1 8240:1 18812:1 21494:1 21495:1 21496:1 21497:1 21498:1 21499:1 21500:1 21501:1 21502:1 21503:1 21504:1 21505:1 21506:1 #
0.0046341559632336369947691601112183 2:3 9:2 20:1 21:2 22:1 38:1 41:1 46:1 49:1 91:1 186:3 252:1 311:3 319:1 525:2 530:3 867:1 926:1 941:1 1056:1 1066:1 1067:1 1068:4 1069:1 1070:1 1071:1 1072:1 1073:1 1074:1 1075:2 1076:2 1077:1 1078:1 1079:1 1080:1 #
0.0046341559632336369947691601112183 1:1 2:4 11:2 28:1 36:1 57:1 90:1 93:1 96:1 99:1 154:2 169:1 200:2 283:1 468:1 506:1 625:2 626:2 627:2 628:2 629:2 630:1 631:1 632:1 633:1 634:1 635:1 636:1 637:1 638:1 #
-0.0016519747534050729844551375080641 9:6 11:1 37:1 56:1 61:1 93:3 173:3 196:3 242:2 252:1 332:3 400:1 439:1 447:1 555:1 626:4 694:1 719:1 1013:4 1079:1 1102:1 1292:1 1335:1 1518:1 1708:1 1829:1 2336:1 2408:1 2566:1 2696:1 2778:1 2914:1 2943:1 2946:2 3621:2 3760:1 4114:1 4563:1 4616:4 5421:1 6312:2 6348:1 6627:3 9384:1 12190:4 12551:2 13932:1 16342:1 16427:1 16428:1 16516:1 16517:1 18871:3 24496:1 24505:1 27473:1 27474:1 27475:1 27476:1 27477:1 27478:1 27479:1 27480:4 27481:2 27482:1 27483:1 27484:1 27485:1 27486:1 27487:1 27488:3 27489:1 27490:1 27491:1 27492:1 #
-0.0046341559632336369947691601112183 1:1 2:1 6:1 9:3 11:2 16:2 82:1 90:1 169:1 173:2 214:2 329:1 366:1 387:1 417:2 454:1 602:1 614:1 724:2 824:1 829:1 1214:1 1335:1 1346:1 1511:1 1679:1 1759:1 1843:1 2637:1 3030:1 5558:1 7400:1 7401:1 7402:1 7403:1 7404:1 7405:2 7406:1 7407:2 7408:1 7409:1 7410:1 7411:1 7412:1 7413:2 7414:1 7415:2 7416:1 7417:1 7418:1 7419:2 7420:1 #
-0.0031367015183859066687621641733585 1:1 2:1 11:2 46:1 61:2 76:1 77:1 82:2 84:1 93:1 96:2 178:1 200:1 229:1 235:1 240:1 311:2 331:1 447:1 450:2 483:1 589:6 602:1 1253:1 1491:1 2051:3 2555:1 3147:2 3148:1 3149:1 3150:1 3151:1 3152:1 3153:1 3154:2 3155:1 3156:1 3157:1 3158:1 3159:1 3160:1 3161:1 3162:1 3163:1 3164:1 3165:1 3166:1 3167:1 #
-0.0018766130088438755674912217230599 1:2 2:2 11:1 161:1 293:1 366:1 479:1 516:1 630:1 826:2 969:1 1013:1 1214:1 1227:1 1405:1 1491:2 1506:1 1633:2 1654:1 2212:1 2483:1 3286:1 4067:1 4528:1 4665:2 4857:1 4867:1 5723:4 6155:1 8045:1 11468:2 13648:2 17493:2 18732:3 30748:2 30749:1 30750:1 30751:1 30752:2 30753:1 30754:1 30755:3 30756:1 30757:1 30758:1 30759:1 30760:3 30761:1 #
0.0046341559632336369947691601112183 1:3 2:1 11:4 31:1 38:1 57:5 62:1 82:1 112:1 120:1 123:2 127:2 152:2 153:1 154:1 222:2 408:1 417:1 427:1 447:1 592:2 593:2 595:3 602:5 677:1 700:1 802:1 803:1 804:2 805:1 806:1 807:1 808:1 809:2 810:1 811:1 812:1 813:1 814:1 815:1 816:1 817:1 818:1 819:1 820:1 821:3 822:2 823:1 824:4 825:2 826:1 827:1 828:1 829:1 830:1 831:1 832:1 833:1 834:2 835:2 836:1 837:1 838:1 839:1 840:1 841:1 842:1 843:1 #
0.0046341559632336369947691601112183 2:2 9:1 11:1 17:2 38:1 56:1 57:2 99:2 173:4 282:2 389:1 399:3 400:1 401:1 402:1 403:1 404:1 405:1 406:3 407:1 408:1 409:1 410:1 411:1 412:1 413:1 414:1 415:1 416:1 417:1 418:1 419:1 420:1 421:1 422:1 423:1 424:1 425:1 #
-0.0015944164891938911003677059596839 4:1 11:3 17:7 36:2 38:1 49:1 56:1 82:1 90:1 122:3 152:2 196:1 242:1 244:3 251:1 304:1 428:2 465:1 506:1 776:1 846:1 867:1 1628:1 1639:1 1822:1 1862:1 2171:2 2194:2 2235:1 2270:1 2802:2 2872:4 3088:1 3091:1 3210:1 3349:1 3864:1 4882:1 13047:1 14144:1 15229:1 21955:2 21956:4 21957:1 21958:1 21959:1 21960:1 21961:1 21962:1 21963:1 21964:1 21965:1 21966:1 21967:1 21968:1 #
-0.00041064625703644098498115710960121 1:1 11:2 51:1 52:1 82:5 137:4 194:2 207:1 251:2 265:1 397:1 400:1 414:1 447:2 468:1 529:1 602:4 626:1 692:5 701:1 730:2 866:2 921:1 1227:1 1539:1 1739:2 1757:1 1827:2 1841:1 1843:2 2566:1 2581:5 2582:2 2583:4 2764:2 2804:1 2908:2 2988:2 3402:1 3461:1 3513:1 3992:1 4042:2 5228:1 5738:2 5830:1 5893:2 7045:1 8120:2 8121:1 9407:1 9799:2 10127:1 12255:1 13311:1 13316:2 13317:2 13318:2 13319:2 13320:2 13321:2 13322:2 13323:2 13324:1 13325:1 19836:2 25404:1 25405:1 25406:1 25407:1 25408:1 25409:2 25410:1 25411:1 25412:2 25413:1 25414:4 25415:2 25416:1 25417:1 25418:1 25419:1 25420:1 25421:1 25422:2 25423:1 25424:1 #
-0.0014536158801690970097941768557348 29:1 36:1 46:1 56:2 160:1 402:5 411:1 651:2 725:1 747:1 802:1 965:2 1023:1 1100:1 2206:1 2880:1 3137:2 3864:1 5034:1 5830:1 9450:1 10363:2 17298:3 18988:2 28405:1 28406:1 28407:1 28408:1 28409:1 #
-0.0010894466390429147131108100765573 11:1 17:3 20:1 61:1 115:1 169:1 287:1 330:1 389:1 725:1 802:2 888:1 895:2 1668:1 1841:1 1861:1 2082:1 2321:1 2420:1 3972:1 4533:2 4671:1 5167:1 5586:1 8719:1 9063:2 9920:1 11000:1 14285:1 18671:1 20946:1 20947:1 20948:1 20949:1 20950:2 20951:1 #
-0.00084967793133898874852888427611219 1:2 9:1 11:1 38:1 98:1 99:5 173:2 204:2 213:1 352:1 400:1 402:1 417:1 455:1 700:1 710:1 784:1 829:1 879:1 907:2 965:1 996:1 1104:1 1150:1 1187:3 1432:1 1585:2 1734:1 1822:1 1850:1 2206:1 2946:1 4855:2 5255:1 7011:1 7811:1 7812:2 7813:1 7814:3 7815:2 7816:1 7817:1 7818:1 7819:1 7820:1 7821:2 7822:1 7823:1 7824:1 #
-0.00089525204902066591716031096481743 1:1 9:40 11:2 82:74 99:16 160:1 204:1 229:1 240:1 352:8 366:1 451:2 466:7 824:2 975:1 1229:1 1272:3 1311:1 1317:1 1499:1 1506:4 1639:1 1843:7 1853:10 1888:2 1972:2 2657:2 2946:6 3245:1 3552:3 3555:3 3598:1 4042:1 5186:7 5267:9 5275:1 6005:2 6873:7 7796:1 7798:1 7799:5 7801:1 10510:1 10955:2 11861:1 16347:1 19664:8 20298:1 23097:2 23098:3 23099:1 23100:2 23101:2 23102:1 23103:4 23104:7 23105:3 23106:1 23107:1 23108:1 23109:1 23110:1 23111:1 #
-0.0001092307886309075085204053912058 1:1 9:1 11:6 17:1 20:1 21:1 29:2 38:1 61:1 72:1 183:1 186:3 200:1 213:1 229:3 244:2 282:1 339:1 352:2 397:1 408:1 427:1 429:1 514:1 517:1 550:1 554:1 704:1 713:1 748:1 780:5 781:1 798:2 929:1 976:1 1219:1 1245:2 1246:4 1414:1 1724:1 1757:3 1766:1 1769:12 1815:1 1827:12 1894:12 2940:1 3177:1 3393:1 3867:1 3948:3 4177:1 4194:1 4308:1 4672:1 4839:1 4840:1 5021:1 5603:2 6365:1 7357:6 8495:1 10127:4 10915:1 11287:1 12016:1 16279:1 16316:1 21628:2 22229:1 24348:1 24349:1 24350:2 24351:19 24352:1 24353:1 24354:1 24355:1 24356:1 24357:1 24358:1 24359:1 24360:1 24361:1 24362:12 24363:12 24364:6 24365:12 24366:6 24367:1 24368:1 24369:1 24370:1 24371:1 24372:1 24373:1 24374:1 24375:1 24376:1 24377:1 24378:1 24379:1 24380:1 #
-0.00070903352756728952287212930372107 1:2 11:3 41:1 81:1 168:1 200:2 233:1 319:2 389:1 466:3 479:1 617:1 725:1 747:1 821:6 919:1 1016:1 1335:1 1639:4 1844:1 1854:2 2028:1 3216:1 3282:1 3402:1 3598:1 4416:1 5437:1 5607:1 9542:1 11712:1 16847:1 18192:1 19234:7 19235:1 19236:2 19237:1 19238:2 19239:1 19240:1 19241:1 19242:3 19243:2 19244:1 19245:1 19246:1 19247:1 19248:2 19249:1 19250:1 #
-0.00084930585247116902741781885310957 1:2 11:3 16:1 28:1 29:1 75:5 90:2 331:1 389:1 408:1 774:1 819:2 866:1 929:1 999:1 1020:1 1025:1 1346:1 1449:1 1504:1 1765:3 1782:1 1853:1 2059:1 2310:1 2346:3 2555:1 2943:1 3506:1 4160:1 8203:1 8825:1 9465:1 10276:1 10473:1 27894:1 27895:1 27896:3 27897:1 27898:1 27899:1 27900:1 27901:1 27902:1 27903:1 27904:1 27905:1 27906:1 27907:1 27908:1 27909:1 27910:1 27911:1 #
-0.0040766316641826375391510772772108 1:2 11:1 38:1 69:1 171:1 173:3 200:1 425:1 427:1 455:1 562:1 602:2 649:2 853:1 929:1 996:2 1187:1 1727:1 1763:1 2116:1 5241:1 6434:2 7803:1 7804:1 7805:1 7806:1 7807:1 7808:1 7809:1 7810:1 #
-0.00043507776678713673762857738758214 1:1 11:1 29:1 38:1 45:7 222:5 431:1 479:3 592:7 593:7 744:1 943:7 1381:1 1491:1 1639:1 1683:3 1956:1 2171:1 2265:1 2358:1 3799:1 4671:2 5454:2 16778:1 22725:1 22726:1 22727:1 22728:1 22729:1 22730:6 22731:6 22732:1 22733:4 22734:1 #
-0.0013602021630359170407259528090549 1:2 11:3 29:1 173:1 203:2 222:1 287:2 290:1 319:1 455:3 499:1 518:1 630:1 661:1 726:1 907:1 1094:1 1112:1 3363:3 3593:1 8874:1 9268:1 9556:3 27091:1 27092:3 27093:3 27094:3 27095:2 27096:1 27097:1 27098:1 27099:2 27100:1 #
-0.0024090165763330367854067048938305 1:1 9:2 11:1 41:1 99:1 204:2 431:1 474:1 535:1 711:2 747:1 829:1 926:1 1021:1 1686:1 5558:1 8592:1 8593:1 8594:2 8595:2 8596:1 8597:1 8598:1 8599:1 8600:1 8601:1 8602:1 8603:1 #
-0.00013884425910868660163782761785001 9:8 11:3 28:3 29:1 36:1 38:1 82:16 98:2 162:2 183:1 186:2 200:3 229:1 233:1 331:2 352:1 365:1 408:2 442:1 474:1 521:1 545:1 550:2 649:2 719:2 832:1 866:1 900:3 943:1 1364:3 1683:1 1708:2 1790:1 1822:1 1831:3 1889:5 2101:1 2141:1 2194:7 2270:1 2411:1 2448:1 2513:1 2618:1 3689:1 3920:1 4321:2 4675:1 4744:1 4839:2 5881:1 6599:5 7010:1 8015:1 8572:2 9029:5 10131:1 13759:4 13760:4 13761:2 13762:1 13763:1 13764:1 13765:1 13766:1 13767:1 13768:1 13769:1 13770:4 13771:1 13772:1 13773:1 13774:1 13775:3 13776:1 13777:1 13778:1 13779:1 13780:1 13781:1 13782:1 13783:1 13784:1 13785:3 13786:1 13787:1 13788:1 13789:3 13790:1 13791:3 13792:4 13793:1 13794:1 13795:1 13796:4 13797:2 13798:1 13799:3 13800:3 13801:1 13802:1 #
-0.0012391940153082129164041624846959 9:3 11:2 75:1 76:1 81:8 82:1 90:2 99:2 137:6 195:1 213:2 240:1 242:1 282:1 319:1 389:1 439:1 452:1 466:1 476:1 829:1 1304:1 2348:1 2591:1 3458:4 3598:1 4671:1 5968:1 8073:1 9550:1 12510:1 12551:1 13285:1 16145:1 17370:1 17676:1 29233:1 29234:7 29235:1 29236:2 29237:1 29238:1 29239:2 29240:1 29241:1 29242:3 29243:1 29244:1 29245:1 29246:1 29247:1 29248:1 29249:1 29250:1 29251:1 29252:1 29253:1 29254:1 29255:1 29256:3 29257:1 29258:1 29259:1 #
-0.0010181835600980705495988143383101 1:2 8:1 17:2 38:1 60:1 119:1 162:1 249:1 394:1 400:2 479:1 518:1 536:1 557:1 692:1 719:1 747:1 748:1 824:3 1143:1 1196:1 1263:1 1502:1 1551:1 1707:1 1742:1 1823:1 1896:1 2114:1 2214:1 2476:1 3010:1 3152:1 3329:1 3561:2 3585:1 3698:1 3846:1 3847:2 3848:1 3849:1 3850:1 3851:1 3852:1 3853:1 3854:1 3855:1 3856:1 3857:1 3858:1 3859:1 3860:1 3861:1 3862:1 3863:1 3864:1 3865:1 3866:1 3867:1 3868:1 3869:1 3870:1 3871:1 3872:1 3873:1 3874:1 3875:1 3876:1 3877:1 3878:1 3879:1 #
-0.0011371490326424773219249342304238 1:1 2:1 9:3 11:2 46:1 62:1 82:1 200:1 213:1 252:1 287:2 331:1 365:2 402:1 455:1 506:2 589:1 603:1 796:1 936:1 986:1 1300:3 1449:1 1723:3 1849:5 1850:2 1944:1 6308:1 6906:2 9450:1 10016:1 10024:1 13178:1 26821:2 26822:2 26823:1 26824:1 26825:3 26826:1 26827:1 26828:1 26829:1 26830:1 26831:1 #
-0.0004718329702576039069369939760179 1:4 11:3 17:1 119:1 222:1 229:1 242:1 243:1 378:1 402:1 426:2 460:1 466:1 475:2 582:1 630:1 640:2 718:1 802:1 1013:1 1262:1 1346:1 1493:1 1634:5 1759:1 1815:1 1862:1 1944:1 2062:1 2623:2 3071:1 3378:2 3505:1 4689:1 4882:2 5228:1 5368:1 6214:4 6902:1 9094:1 9403:2 13244:1 24559:1 24560:1 24561:1 24562:1 24563:1 24564:1 24565:2 #
-0.00065006092150572680754549992343527 1:1 11:2 16:3 38:2 112:2 122:3 153:6 161:1 169:1 174:1 177:3 178:1 240:1 416:1 421:1 445:1 492:4 506:1 516:1 536:1 557:1 593:1 703:1 842:1 874:1 950:1 969:1 1020:1 1052:1 1166:1 1269:1 1493:1 1566:1 1892:1 1949:1 1995:1 2171:1 2640:1 3150:4 3151:1 3152:1 3153:1 3157:1 3179:1 3505:1 3660:1 3732:1 3733:2 3734:1 3735:2 3736:1 3737:2 3738:2 3739:1 3740:2 3741:4 3742:2 3743:1 3744:1 3745:2 3746:2 3747:1 3748:1 3749:1 3750:1 3751:1 3752:1 3753:1 3754:1 3755:1 3756:1 3757:1 3758:1 3759:1 3760:2 3761:1 3762:1 3763:1 3764:1 3765:1 3766:1 3767:3 3768:3 3769:3 3770:3 3771:1 3772:1 3773:1 #
-0.0012583487152054392051864217805246 1:1 2:1 11:3 16:3 38:5 41:1 49:1 65:1 93:1 171:3 220:1 253:1 308:1 329:1 331:2 339:1 388:1 389:2 416:1 447:2 478:1 483:1 506:3 516:1 617:1 630:1 759:1 785:2 867:1 934:1 995:1 1101:1 1104:4 1420:1 1493:2 1625:1 1782:6 2110:2 2181:1 2324:1 2420:1 2433:1 2452:1 2555:2 3060:1 3190:1 3372:1 3378:1 3505:1 4668:1 5776:2 5825:1 6142:1 9990:1 11195:1 16674:1 16675:1 16676:1 16677:1 16678:2 16679:1 16680:1 16681:1 16682:1 16683:2 16684:1 16685:1 #
-0.0035569127322531693055629453681377 1:1 11:3 27:1 29:1 38:1 49:1 50:1 98:4 203:1 209:1 233:1 311:1 395:1 557:1 589:1 602:2 606:3 776:1 789:1 3378:2 3725:1 5826:1 10603:1 10604:1 10605:1 10606:1 10607:1 10608:1 #
-0.0033547018655556998939504254053645 1:2 11:1 36:1 38:1 93:2 169:1 447:1 466:1 518:1 569:2 1763:1 2417:1 3081:1 3762:1 3839:1 5340:1 7637:2 7638:1 7639:2 7640:1 7641:1 7642:1 7643:1 7644:1 7645:1 7646:1 7647:1 7648:1 7649:1 #
-0.00044367154657086823764042260442864 31:2 82:2 93:2 149:1 199:1 242:3 243:1 255:1 282:1 297:1 329:1 969:1 993:1 1032:1 1162:1 1167:2 1428:2 1504:1 1802:1 1895:2 2494:1 2732:1 3530:1 4217:1 4555:1 5662:4 7419:1 12411:1 12412:2 12413:1 12414:1 12415:1 12416:1 12417:1 12418:1 12419:1 12420:2 12421:1 12422:1 12423:1 12424:1 12425:1 12426:1 12427:2 12428:4 12429:2 12430:2 12431:1 12432:1 12433:2 12434:1 #
-0.0018201724592022898007587228264015 1:1 17:1 30:1 38:1 69:1 244:1 488:1 866:1 1162:1 1281:1 1322:1 1445:1 2384:1 4308:1 5437:1 7093:1 9440:1 11152:1 16279:1 16722:1 18288:1 24757:1 24758:1 24759:1 24760:1 24761:1 24762:1 #
-0.00087893971162760061929808408365261 1:1 11:1 38:1 75:1 90:1 93:1 137:1 195:2 352:1 408:1 602:1 732:1 914:1 1001:1 1540:1 3458:1 4218:1 4728:1 4731:1 5086:1 8614:2 8615:2 8616:1 8617:1 8618:1 8619:1 8620:1 8621:1 8622:1 8623:4 8624:2 8625:1 8626:1 8627:1 8628:1 8629:1 #
-0.00062812894718981631368703855144986 1:2 9:2 11:2 16:1 17:1 37:1 52:1 53:2 61:1 91:1 93:3 171:1 173:1 196:1 229:1 242:2 243:1 297:1 327:1 330:1 331:1 393:2 431:1 483:1 582:1 626:1 821:1 858:1 913:1 914:1 965:2 1102:1 1166:1 1224:1 1227:1 1292:1 1433:1 1512:1 1605:1 1716:1 1730:1 1734:1 1757:2 1801:1 1966:1 2177:1 2270:3 2360:2 2595:1 2806:1 2855:1 2995:1 3023:1 3190:1 3283:2 3295:1 3458:1 3858:2 3888:1 4838:1 5139:1 5185:1 5309:1 6493:1 6494:1 6495:1 6496:1 6497:1 6498:2 6499:1 6500:1 6501:1 6502:1 6503:1 6504:1 6505:1 6506:1 6507:1 6508:1 6509:5 6510:1 6511:2 6512:3 6513:1 6514:1 6515:1 6516:1 6517:1 #
-0.00124933449095344147744546248191 3:1 9:4 11:2 16:1 36:1 38:3 49:1 173:1 213:3 297:1 617:1 630:1 694:1 843:1 1154:1 1252:1 1540:1 1556:1 1628:1 1822:1 1849:1 1850:1 2090:2 2407:1 2912:1 4616:1 4761:1 6308:2 6493:1 6864:1 9240:1 9944:1 11159:1 19241:1 21612:1 21613:1 21614:1 21615:1 21616:1 21617:2 21618:1 21619:1 21620:2 21621:2 21622:1 21623:1 21624:1 21625:1 21626:1 21627:1 21628:1 #
-0.00046707758570152497308233807693512 1:2 6:5 9:1 11:3 41:1 81:1 122:3 152:3 155:2 229:1 233:1 251:1 308:1 352:2 389:1 402:2 429:1 455:2 460:2 465:1 488:1 595:1 617:5 626:4 659:2 665:1 701:1 776:1 888:1 914:2 1029:1 1235:3 1252:1 1322:1 1585:1 1639:2 1676:4 1697:2 1759:1 1822:1 1972:2 1979:1 1986:2 2062:1 2480:3 2489:3 2604:1 2637:2 2695:3 2712:1 3366:1 3778:1 3806:1 3956:1 3957:3 5585:1 5598:5 5689:1 6213:2 7063:1 7448:3 8104:3 10631:2 12190:1 14640:1 16155:1 24381:4 24382:1 24383:2 24384:1 24385:1 24386:1 24387:1 24388:1 24389:1 24390:1 24391:1 24392:1 24393:1 24394:1 24395:1 24396:1 24397:1 24398:1 24399:1 24400:1 24401:1 24402:1 24403:1 24404:1 24405:1 24406:1 24407:1 24408:1 24409:1 24410:1 24411:1 #
-0.0010747101459847078173959200597665 2:1 11:5 28:1 30:1 46:1 61:1 69:1 72:1 81:1 82:3 90:1 160:7 204:2 331:1 388:1 400:1 418:1 799:1 1069:1 1122:1 1322:2 1639:2 1739:5 1853:2 2062:1 2183:1 2220:1 2221:1 2516:1 3070:1 3904:4 5015:1 6087:1 7094:3 9464:1 9957:1 10335:1 11416:1 11417:2 12620:1 16469:2 17220:1 18790:1 19764:1 26210:1 26211:1 26212:1 26213:1 26214:1 26215:1 26216:1 26217:1 26218:1 26219:1 26220:1 26221:2 26222:1 26223:1 26224:1 26225:1 26226:1 26227:1 26228:3 26229:1 #
-0.00087151572588700177215970121835653 1:4 9:1 11:3 29:1 50:1 81:1 171:2 222:1 258:1 352:1 427:1 475:1 529:1 626:2 742:1 774:1 842:1 926:2 1021:1 1524:1 1605:2 1742:1 1817:1 2114:1 2144:1 2241:1 2678:1 2972:1 3276:2 3458:3 3888:1 5038:1 5226:1 5258:1 5793:1 6061:2 7078:1 7104:1 8296:1 9422:1 11292:1 14766:1 16008:1 16340:1 16613:1 17295:1 17296:5 17297:1 17298:1 17299:1 17300:3 17301:1 17302:1 17303:1 17304:1 17305:3 17306:1 17307:1 17308:1 #
-0.0006057795823430633941342193793389 1:1 9:1 11:1 17:1 38:2 49:1 62:1 98:1 162:2 200:4 287:1 389:1 408:1 428:1 442:1 455:1 503:1 557:1 685:1 704:1 730:3 745:2 927:1 1187:1 1315:1 1328:1 1476:1 1501:1 1535:1 1556:2 1617:1 1724:1 1734:1 1805:1 1967:1 2476:1 2570:2 3338:1 3456:2 4011:1 6593:1 10435:1 11681:1 12057:1 12902:1 14282:1 14283:1 14284:1 14285:1 14286:1 14287:1 14288:1 14289:1 14290:1 14291:1 14292:1 14293:1 14294:1 14295:1 14296:2 14297:2 14298:1 14299:1 14300:3 14301:1 14302:3 14303:1 14304:2 14305:1 14306:1 14307:1 14308:3 14309:1 14310:1 14311:1 #
-0.00012132483094253433621341475845412 1:1 16:1 17:2 23:1 38:7 169:2 451:1 455:1 519:1 746:1 776:1 826:2 866:1 929:1 969:1 1148:1 1326:2 1698:1 1767:1 1827:1 1995:1 2059:1 2476:1 2570:1 3180:1 3502:1 3557:2 3685:1 4734:2 4834:1 5229:1 5662:1 5688:4 6613:2 7191:1 7192:1 7193:1 7194:2 7195:1 7196:1 7197:1 #
-0.0009029419881091447315155096298156 1:1 11:2 16:1 38:1 84:1 99:2 119:1 137:1 235:1 240:2 242:1 255:1 283:1 331:4 338:1 414:1 447:1 492:3 637:2 651:2 867:1 1303:1 1428:1 1491:1 1671:1 1767:1 2110:1 2443:1 2638:1 2693:1 3020:1 3023:1 3149:1 3190:1 3594:1 6087:1 7008:2 7046:1 7135:1 7419:1 9999:4 10000:1 10001:1 10002:1 10003:1 10004:1 10005:1 10006:1 10007:1 10008:1 10009:1 10010:1 10011:1 10012:1 10013:1 10014:1 #
-0.00088883275452813397324303146262992 8:1 11:1 16:1 17:1 29:1 31:1 37:3 38:1 52:1 93:1 149:1 169:1 199:1 242:1 282:2 393:1 408:1 441:1 447:1 477:1 516:1 582:1 626:1 692:1 776:1 777:1 779:1 893:2 929:1 1020:1 1100:1 1105:1 1106:1 1227:1 1229:3 1251:1 1315:1 1866:2 2065:1 2116:1 2544:1 2618:1 2911:1 3213:1 3557:1 3709:1 3870:1 5073:2 5602:1 5959:1 5964:1 6677:1 7266:2 7647:1 7648:1 7865:1 9422:1 10972:3 15216:2 17849:1 18109:1 18110:1 18111:1 18112:2 18113:1 18114:1 18115:1 18116:1 18117:1 18118:1 18119:1 #
-0.00070724862380078842415825901568383 1:2 112:1 199:1 242:1 331:1 379:1 408:1 450:1 481:1 485:2 514:1 528:1 671:1 744:1 929:1 938:1 1370:1 1539:1 1923:2 4139:1 4647:1 5326:1 6867:1 9118:3 11177:1 11178:1 11179:4 11180:1 11181:1 11182:1 11183:3 11184:1 11185:1 11186:1 11187:1 11188:1 #
-0.00092850904746869487860205794049762 9:1 11:2 20:1 45:1 215:1 233:1 252:1 309:2 319:1 429:1 506:1 637:1 1166:1 1686:1 1995:1 2141:1 3088:1 3091:1 9584:1 17321:1 21156:6 23972:1 27162:3 28194:2 28195:1 28196:1 #
-0.00023650142650013505885540909812192 6:1 9:1 11:2 36:1 37:2 38:1 61:1 82:4 116:1 137:4 220:1 229:1 242:1 251:1 253:1 365:5 465:1 529:1 701:1 730:1 1022:1 1346:1 1448:2 1449:1 1495:1 1878:1 2183:6 2250:2 2417:1 2433:1 4301:1 4440:1 5254:1 7243:1 7331:1 11674:1 14229:12 14230:2 14231:2 14232:2 14233:2 14234:2 14235:1 14236:1 14237:1 14238:1 14239:1 14240:1 14241:1 14242:2 14243:1 #
-0.0020196271347285577046903881637263 1:1 11:2 17:1 38:1 178:1 200:1 229:1 240:1 392:1 555:1 578:1 824:1 864:1 969:1 1063:1 1317:1 1708:1 2670:1 2709:1 3228:1 3393:1 3765:1 5827:1 7126:1 7127:1 7128:1 7129:1 7130:1 7131:1 7132:2 7133:1 7134:2 7135:1 7136:1 7137:1 7138:1 7139:1 7140:1 7141:1 #
-0.00011055852652039821135132591223282 1:1 11:1 17:1 93:1 112:2 122:1 155:3 173:2 196:1 200:1 229:1 352:1 392:8 630:1 746:1 1214:1 1512:3 1585:1 2089:1 2163:1 2218:1 3485:1 3487:1 3733:1 4442:5 4449:2 4477:1 4490:2 4498:2 5451:4 5479:1 6694:2 6697:1 6853:6 8872:1 8923:4 9627:1 10422:2 12467:1 12480:1 13845:1 15025:8 16060:1 17084:1 18784:1 19725:2 25556:1 29116:1 29117:1 29118:1 29119:3 29120:3 29121:3 29122:2 29123:4 29124:1 29125:1 29126:2 29127:1 29128:2 29129:1 29130:1 29131:1 29132:2 29133:1 29134:5 29135:1 29136:1 29137:7 29138:5 29139:2 29140:2 29141:1 29142:1 29143:1 29144:1 #
-0.00049989167296659794970103973810183 7:1 11:2 17:1 36:1 38:2 75:3 82:3 98:1 252:1 259:1 287:1 431:1 466:1 529:5 590:1 630:1 700:1 988:4 1013:1 1764:1 2110:1 3234:1 3763:1 3904:2 6214:3 7245:1 7246:1 7355:1 7624:2 7907:4 8290:1 8291:1 8292:1 8293:5 8294:1 8295:1 8296:1 8297:1 8298:1 8299:1 8300:1 8301:4 8302:1 8303:1 8304:1 8305:1 8306:1 8307:1 8308:1 8309:1 8310:1 #
-0.00036493723042479520382586066773456 9:3 11:1 17:2 41:1 49:1 53:3 119:1 196:1 229:1 371:1 455:1 516:1 522:1 535:1 657:1 999:1 1016:1 1020:1 1227:1 1422:1 1442:2 1467:1 1511:4 1698:1 2071:1 2167:1 2275:1 2434:1 2933:2 3249:1 3281:1 3456:1 3785:1 4217:1 5083:2 5334:1 5778:2 5779:2 5780:1 5781:1 5782:1 5783:1 5784:1 5785:1 5786:1 5787:3 5788:4 5789:2 5790:2 5791:2 5792:1 5793:2 5794:1 5795:1 #
-0.00010105542125176501127604977714469 1:2 8:2 11:1 38:1 47:1 61:2 75:2 90:1 112:2 122:1 152:1 155:1 173:1 255:1 312:2 339:1 366:2 452:1 474:1 506:1 692:1 746:1 747:1 842:1 914:2 934:1 1032:1 1214:1 1296:1 1356:6 1421:1 1428:1 1467:1 1489:1 1535:1 1556:1 1557:1 1558:4 1559:1 1560:2 1561:1 1562:1 1563:3 1564:1 1565:1 1566:1 1567:2 1568:1 1569:1 1570:1 1571:1 1572:10 1573:1 1574:2 1575:1 1576:1 1577:1 1578:1 1579:2 1580:5 1581:1 1582:2 1583:1 1584:1 1585:2 1586:3 1587:1 1588:3 1589:1 1590:1 1591:1 1592:1 1593:6 1594:1 1595:1 1596:1 1597:1 1598:1 1599:1 1600:1 1601:2 1602:1 1603:1 1604:1 1605:1 1606:1 1607:1 1608:1 1609:1 1610:1 1611:1 1612:1 1613:1 1614:1 1615:1 1616:1 1617:1 1618:1 1619:1 1620:1 1621:1 #
-0.0035722715449263290135584192341867 1:2 11:2 73:1 99:1 229:2 537:2 617:1 774:1 826:1 2317:1 5115:1 5196:1 21225:2 #
-0.00089873957514412185134528021634992 1:1 16:1 61:1 90:1 112:1 113:1 122:1 127:2 155:2 173:1 174:1 207:1 282:1 287:1 374:1 408:1 455:1 602:1 955:1 1235:2 1559:1 1566:1 1567:1 1683:1 2063:1 2489:2 2498:1 2520:1 3208:1 3662:1 3664:4 3783:1 3957:2 6980:1 7276:1 7277:2 7278:1 7279:2 7280:1 7281:1 7282:1 7283:1 7284:1 7285:1 7286:1 7287:1 7288:1 #
-0.00083157613024802037177130031864181 9:1 11:1 17:1 23:1 28:4 38:2 49:1 82:1 171:1 200:2 252:1 282:1 458:1 466:1 1013:1 1034:1 1167:2 1232:1 1303:3 1759:1 1782:2 1827:1 1926:2 1930:1 2062:1 2218:4 2219:1 2220:1 2221:1 2222:1 2223:1 2224:1 2225:1 2226:1 2227:1 2228:1 2229:2 2230:1 2231:1 2232:1 2233:1 #
-0.00061039025728499565152246342236708 1:2 11:3 16:1 23:1 27:1 41:1 99:1 293:1 366:1 429:1 658:1 661:1 786:1 851:1 858:1 1122:1 1295:1 1421:1 1862:3 2073:1 2124:4 2171:1 3002:1 3329:2 4107:1 5212:2 5225:1 5881:1 6014:4 6956:1 7759:2 8067:1 8198:3 8199:2 8200:1 8201:1 8202:1 8203:1 8204:1 8205:1 8206:2 8207:1 8208:1 8209:1 8210:1 8211:1 8212:1 8213:1 8214:1 8215:2 8216:2 8217:1 8218:1 8219:1 8220:1 8221:1 8222:1 #
-0.00014821273651135897738741198370604 1:1 11:3 16:1 18:1 21:2 36:1 90:1 124:3 127:3 128:3 168:1 169:1 174:1 249:1 287:1 331:1 402:1 408:1 417:1 439:1 578:2 592:3 593:3 611:1 724:1 1032:1 1052:3 1214:1 1405:2 1635:1 1676:1 1757:1 1798:1 1833:2 1972:1 2319:1 2476:1 2569:3 2570:5 2988:2 3701:1 3732:1 5601:7 6164:1 7236:2 7427:1 7745:1 8215:1 10027:1 10659:3 11005:1 12396:7 12722:1 12994:2 13116:1 15495:1 15844:2 18354:1 20088:1 20653:1 21975:4 23146:1 23350:1 24370:1 24462:1 27650:10 28217:2 28218:1 28219:1 28220:1 28221:1 28222:2 28223:1 28224:1 28225:2 28226:2 28227:2 28228:2 28229:4 28230:1 28231:2 28232:2 28233:2 28234:1 28235:1 28236:1 28237:1 28238:1 28239:1 28240:1 28241:1 28242:1 28243:1 28244:7 28245:3 28246:3 28247:1 28248:1 28249:1 28250:1 28251:1 28252:1 28253:1 28254:1 28255:1 28256:1 28257:3 28258:3 28259:3 28260:2 28261:2 28262:3 28263:2 28264:1 28265:2 28266:2 28267:1 28268:1 28269:1 28270:1 28271:1 28272:2 28273:1 28274:1 28275:1 28276:1 28277:1 28278:1 28279:1 28280:1 28281:1 #
-0.0013176869229621628477194805739714 11:2 17:3 20:2 21:1 48:1 82:4 131:2 196:2 203:1 287:1 491:1 499:1 550:1 602:1 663:1 724:3 829:1 848:2 969:1 1421:1 1625:1 1823:1 2089:1 2090:1 2476:1 2670:1 3563:1 3564:1 3565:1 3566:1 3567:1 3568:1 3569:1 3570:1 3571:1 3572:1 3573:1 3574:1 3575:1 3576:1 3577:2 3578:2 3579:1 3580:1 3581:1 3582:1 3583:1 3584:1 3585:1 3586:1 3587:1 3588:2 3589:1 3590:1 3591:1 #
-0.0012331377892055676859239810028157 11:2 16:1 82:2 162:2 173:2 185:1 233:1 258:1 287:2 290:2 327:1 331:1 427:1 452:1 630:1 995:1 1020:1 1102:1 1227:1 1489:2 1556:1 1708:1 1759:1 1878:1 2603:2 2608:1 3185:1 3493:1 3494:1 3495:2 3496:2 3497:1 3498:1 3499:1 3500:1 3501:1 3502:1 3503:1 3504:2 3505:1 3506:1 3507:1 3508:1 #
-0.0016732570452852608272609202799686 1:2 8:1 38:1 111:1 305:1 408:1 447:1 452:1 711:1 824:1 1056:1 1155:1 2395:1 2478:1 4684:1 4727:2 4728:1 4729:2 4730:1 4731:1 4732:1 4733:1 4734:1 #
-0.00069671845777883234431676617859353 2:1 15:2 23:1 37:1 38:3 69:1 98:1 196:1 651:2 667:1 798:2 802:1 919:2 954:1 955:1 969:1 1020:1 1021:1 1145:1 1162:1 1252:2 1270:1 1405:1 1449:1 1488:1 1532:1 1533:3 1635:2 1684:1 1764:2 1771:1 1827:1 2029:1 2110:2 2320:1 3698:1 3743:1 4718:2 5662:2 5777:1 6977:1 7952:1 10180:1 13245:1 18704:2 22200:2 22846:1 25437:1 25438:2 25439:3 25440:1 25441:1 25442:1 25443:2 25444:1 25445:1 25446:1 25447:1 25448:1 25449:1 25450:1 25451:1 #
-0.00094920504371597599208021378558442 11:1 46:1 180:8 331:1 417:3 1006:1 1050:1 1462:1 1506:2 1539:2 1670:1 3070:1 3218:1 4631:1 5145:1 6808:1 8071:1 8072:1 8073:2 8074:2 8075:2 8076:1 8077:1 #
-0.00084030146021051390671507963503473 1:1 41:1 75:1 293:1 297:1 408:1 468:1 479:1 518:1 582:1 730:1 746:1 1295:1 2029:1 2105:1 2476:1 4014:2 5602:1 8319:2 8320:2 8321:1 8322:1 8323:1 8324:1 8325:1 #
-0.00037653349443915657725201473482457 11:1 36:1 37:1 38:2 62:1 122:1 244:4 251:2 408:1 516:1 746:1 842:1 880:1 1224:1 1227:1 1326:1 1418:2 1611:1 4012:1 4891:5 5714:2 7088:2 11404:1 12527:1 24222:1 24223:1 24224:1 24225:1 24226:1 24227:1 24228:1 24229:1 24230:1 24231:1 24232:2 24233:1 24234:2 24235:1 24236:1 #
-0.00016394926565451616506594034738953 1:2 11:1 20:1 62:3 93:1 114:9 119:1 136:1 146:3 203:3 233:1 331:2 388:1 400:7 408:2 428:2 455:1 483:2 499:1 545:1 546:2 605:2 681:3 701:2 748:1 840:1 842:1 926:1 968:1 995:1 999:2 1020:1 1104:1 1196:1 1346:4 1449:1 1556:1 1670:1 1769:1 1822:1 2015:1 2017:1 2089:1 2114:1 2116:1 2171:1 2183:1 2207:1 2341:1 2351:9 2412:13 2420:1 2640:1 2667:1 2695:1 2940:1 3250:1 3278:1 3399:1 3458:1 3593:1 3721:1 4200:2 4551:1 4686:2 5134:2 5248:1 5315:1 5336:1 5777:1 5831:2 5970:1 6842:1 8393:1 8750:17 9553:1 14166:1 14400:2 14401:1 14402:1 14403:1 14404:3 14405:1 14406:1 14407:1 14408:1 14409:1 14410:1 14411:2 14412:4 14413:4 14414:2 14415:2 14416:2 14417:1 14418:1 14419:2 14420:1 14421:1 14422:1 14423:1 14424:1 14425:1 14426:2 14427:1 14428:1 14429:3 14430:3 14431:1 14432:1 14433:3 14434:1 14435:1 14436:1 14437:2 14438:1 14439:1 14440:1 14441:1 14442:1 #
-0.00038751691295584874503640793186321 1:3 11:3 38:4 61:2 90:1 229:1 242:1 255:1 319:1 389:1 390:1 395:1 397:1 416:2 455:1 516:1 908:1 1166:2 1251:1 1419:1 1634:1 1709:1 2273:1 2358:1 2448:1 2754:1 4031:2 4347:4 4640:1 4722:1 4746:1 5334:1 7018:1 8078:2 8187:1 8220:1 9389:2 12621:1 12622:4 12623:1 12624:1 12625:1 12626:1 12627:1 12628:1 12629:1 12630:3 12631:2 12632:2 12633:1 12634:1 #
-0.0011882672286143646477041269093888 1:1 7:1 9:3 11:3 38:1 287:1 331:3 366:1 555:1 929:1 1148:1 1252:1 1326:1 1443:1 1668:1 1702:1 2348:1 2731:1 3320:3 3762:1 3899:1 4442:2 6511:3 6554:1 14287:1 14946:2 14947:1 14948:1 14949:1 14950:1 14951:1 #
-0.00027543203287514324241122554148831 1:1 75:3 137:4 242:1 319:1 468:1 506:2 518:1 727:1 1050:1 1373:1 1448:1 1491:1 1683:3 1757:1 2062:1 2449:1 2450:1 3010:1 3140:1 3265:1 3276:1 4177:1 4689:1 4820:1 5103:1 5658:1 8040:10 8326:1 9440:1 11712:2 14820:2 16329:1 16835:1 23963:1 23964:1 23965:4 23966:1 23967:1 23968:1 23969:1 23970:1 23971:1 23972:1 #
-0.00028555682385355564932571947878159 1:1 17:3 36:1 48:1 195:1 224:6 393:1 458:1 517:2 530:1 536:1 582:1 798:1 802:1 827:1 999:2 1187:3 1291:1 1421:1 1718:2 1805:1 2092:1 2156:1 2618:1 2765:1 2943:1 3213:1 3235:1 3464:1 4114:4 4117:3 4278:1 4834:1 5022:3 5185:1 5227:1 6304:1 6678:2 7851:1 8899:2 9222:4 10757:3 11652:1 11920:1 13261:1 14630:2 15847:3 15856:2 27010:1 28107:1 29900:1 30095:1 30096:2 30097:1 30098:1 30099:1 30100:1 30101:1 30102:1 30103:1 30104:2 30105:1 30106:1 30107:1 30108:1 30109:1 30110:1 30111:1 30112:1 30113:1 30114:1 #
-0.00077360219402228377807290149448249 8:1 9:2 17:1 28:1 49:1 56:1 92:1 99:1 162:1 173:1 200:1 213:2 257:1 282:1 309:2 311:1 402:1 485:1 574:1 589:3 658:1 711:1 829:1 831:1 866:1 914:1 1081:1 1150:1 1166:4 1524:1 1707:2 1986:1 2058:1 2064:1 2140:1 2259:1 2288:1 2309:1 2384:1 2528:1 2628:1 2670:1 3219:1 3864:1 3944:1 4722:1 4772:1 5890:1 6393:1 6743:1 7120:1 8961:1 9157:2 10025:1 15140:2 28482:1 30035:2 30036:1 30037:1 30038:1 30039:1 #
-0.00012094232735895970470320348599813 1:1 11:2 38:2 93:3 122:1 152:3 229:1 233:2 592:1 593:1 703:2 824:1 864:6 874:1 943:1 1060:3 1252:1 1370:1 1610:1 1611:1 1823:1 1892:1 2140:1 2316:1 2389:1 2821:1 3393:1 4115:1 4177:1 5060:3 5128:1 5454:1 5676:1 5899:1 16104:1 16392:1 16393:6 16394:5 16395:1 16396:1 16397:6 16398:1 16399:1 16400:1 16401:1 16402:1 #
-0.00032446939719025412940042740750357 1:3 11:2 30:1 38:1 90:2 204:1 245:1 247:1 388:1 395:1 408:1 416:1 429:1 516:1 530:2 973:7 1104:1 1227:1 1232:1 1291:1 1605:1 1654:3 1698:3 1729:2 2649:2 3109:1 3311:1 3372:3 4250:1 5966:1 6213:1 6552:1 6758:1 7287:1 7448:1 9593:1 24329:1 24330:1 24331:1 24332:1 24333:1 24334:2 24335:1 24336:1 24337:5 24338:2 24339:2 24340:1 24341:2 24342:1 24343:1 24344:3 24345:3 24346:1 24347:1 #
-0.0012121373714032101197302093709141 1:3 6:1 9:1 20:1 38:2 92:2 174:1 196:2 233:1 447:1 554:2 659:2 747:1 914:2 1224:2 1449:1 2275:1 2341:2 2348:2 2417:1 2419:1 3853:1 3944:1 5968:1 7624:2 7625:1 7626:2 7627:1 7628:1 #
-0.0001188372860312799744698583626068 1:2 9:8 11:8 38:1 41:1 73:1 76:1 82:2 90:2 119:1 127:16 152:15 168:1 171:1 183:1 200:7 220:1 229:1 240:8 252:4 309:1 369:1 389:1 407:1 416:1 450:1 506:2 514:1 518:1 582:6 598:1 649:17 662:1 696:3 719:2 793:2 796:1 798:2 802:1 842:1 888:21 900:3 907:1 1007:4 1304:9 1585:3 1695:2 1788:1 1822:6 1916:2 2165:1 2222:1 2259:1 2323:8 2494:3 2570:1 2637:1 2946:12 2995:1 3521:1 3527:1 3598:1 4135:1 4200:1 4321:12 5200:1 5216:4 5254:1 5412:2 5429:1 5430:2 5431:2 5586:1 5732:1 5801:1 5802:1 6551:3 6552:3 7080:2 7081:1 7082:4 7083:2 7088:3 8838:3 9463:2 10635:1 13370:1 13719:1 14934:2 18296:1 19272:2 19273:2 19274:1 19275:1 19276:1 19277:6 19278:2 19279:1 19280:1 19281:2 19282:5 19283:15 19284:5 19285:5 19286:1 19287:1 19288:2 19289:1 19290:1 19291:1 19292:1 19293:2 19294:1 19295:1 19296:1 19297:1 19298:1 19299:1 19300:2 19301:2 19302:1 19303:6 19304:4 19305:3 19306:4 19307:1 19308:1 19309:1 19310:1 19311:1 19312:1 19313:1 19314:1 19315:1 19316:1 19317:1 19318:1 19319:1 #
-7.7326445027692985220019172842854e-05 1:2 11:4 82:14 200:7 233:1 235:1 319:1 431:1 439:57 447:60 506:8 558:4 611:2 626:2 802:2 824:1 914:2 994:1 1013:1 1049:1 1128:1 1304:2 1708:4 1734:7 1764:2 1843:7 1853:2 2092:1 2404:1 2504:1 2778:1 2946:1 3387:2 3458:5 3762:4 4139:2 4637:1 5022:5 5114:1 5554:2 6005:1 9990:1 10131:1 11740:1 11742:1 13029:1 13261:4 14392:1 21304:19 28954:1 28955:1 28956:1 28957:1 28958:1 28959:1 28960:5 28961:1 28962:1 28963:1 28964:2 28965:2 28966:1 28967:1 28968:1 28969:2 28970:1 28971:2 28972:1 28973:1 28974:1 28975:1 28976:1 28977:1 28978:1 28979:1 28980:1 28981:1 28982:1 28983:1 28984:1 28985:1 28986:1 28987:1 28988:1 28989:1 28990:1 28991:1 28992:5 28993:4 28994:14 28995:15 28996:2 28997:2 28998:2 28999:2 29000:2 29001:2 29002:2 29003:2 29004:2 29005:2 29006:7 29007:10 29008:4 29009:2 29010:2 29011:2 29012:1 29013:1 29014:2 29015:1 29016:1 29017:1 29018:1 29019:1 29020:1 29021:2 29022:1 29023:4 29024:1 29025:2 29026:1 29027:1 29028:1 29029:1 29030:1 29031:1 29032:1 29033:1 29034:1 29035:1 29036:1 #
-0.0013198709629610270045035891328666 1:1 9:2 11:1 82:1 173:1 229:1 297:2 389:1 730:1 741:1 1640:1 1670:1 1829:1 2304:2 2445:1 3487:1 3521:1 3598:1 5546:1 5966:1 13837:1 25472:1 30872:1 31042:1 31043:1 31044:1 31045:1 31046:2 31047:2 31048:2 31049:1 31050:1 31051:1 31052:1 31053:1 #
-0.00089303900200280806123687149522539 11:2 36:1 37:1 61:2 173:1 195:1 426:1 430:2 447:1 516:1 1052:1 1729:1 1942:1 1986:1 2570:1 3349:1 3352:1 5766:1 7670:1 11500:2 11501:1 11502:1 11503:1 11504:1 11505:1 11506:4 11507:1 11508:1 11509:1 11510:1 11511:1 11512:1 11513:1 #
-0.0016372356266647744484771243023147 9:1 11:1 16:1 61:1 193:2 282:1 327:1 455:1 665:1 826:1 842:1 972:1 1300:1 2081:1 2483:1 5755:1 7307:1 7308:1 7309:2 7310:1 7311:1 7312:1 7313:1 7314:1 #
-0.00090292735533562310488997493251873 2:1 11:1 37:1 38:1 41:1 257:1 282:1 318:1 483:1 506:3 562:1 602:1 692:1 713:1 774:1 785:1 794:1 826:2 878:1 934:1 1080:1 1187:2 1285:1 1443:1 1535:3 1556:1 1661:2 1761:1 2183:1 2341:1 2751:1 3250:1 3716:2 4151:1 4152:1 4153:2 4154:2 4155:1 4156:1 4157:1 4158:1 4159:1 #
-0.00044494391578297473382672122532711 11:2 36:1 115:1 116:2 173:1 224:2 282:1 288:1 337:1 365:2 408:1 428:1 439:1 455:1 667:2 732:2 900:1 914:1 926:1 1166:1 1458:1 1524:1 1585:1 1945:1 2449:2 3286:1 4321:1 4551:1 4761:1 9338:10 10304:1 10305:1 10306:1 10307:4 10308:3 10309:1 10310:1 10311:1 10312:1 10313:1 10314:1 10315:1 10316:1 10317:1 10318:1 10319:1 #
-0.00024555230422163996841650179803196 1:3 11:3 16:2 20:1 27:1 29:1 30:1 37:1 62:1 161:2 169:1 171:1 196:1 221:1 243:1 245:2 297:1 352:1 466:2 582:1 651:4 665:1 714:1 785:1 884:1 955:1 996:1 1022:1 1074:1 1143:1 1145:1 1357:1 1788:1 1922:1 1995:1 2036:1 2404:1 2407:1 2449:1 2452:1 3219:3 3338:1 4177:1 6660:2 7828:1 8829:1 9405:1 9445:1 12681:5 15256:1 17036:1 18798:1 18991:1 24376:1 26155:1 26300:4 27360:3 27361:1 27362:1 27363:5 27364:5 27365:5 27366:5 27367:1 27368:1 27369:1 27370:1 27371:2 27372:2 27373:1 27374:1 27375:1 27376:1 27377:1 27378:1 27379:1 27380:1 27381:1 27382:1 27383:1 27384:1 27385:1 27386:1 27387:1 27388:1 27389:1 27390:1 27391:1 27392:1 #
-0.0013888027841986476038083075934537 20:1 46:1 53:1 99:1 112:1 122:1 199:1 402:3 659:1 665:1 674:1 1020:1 1051:1 1380:1 1625:1 1727:1 1933:1 2180:1 2933:1 3282:1 3729:1 3886:2 3992:1 6976:2 9013:1 17445:1 23112:1 23113:1 #
-8.7264873415056950362034271506673e-05 8:1 11:5 12:1 29:1 37:1 90:2 93:1 119:1 173:2 203:2 210:2 229:1 253:2 287:1 290:1 400:1 417:1 431:3 447:1 450:2 466:1 506:1 530:1 602:1 701:1 779:1 985:1 1064:1 1187:1 1364:2 1428:1 1497:1 1502:1 1535:2 1764:1 1815:1 1834:2 1861:4 2341:1 2378:1 2699:1 2861:1 2943:1 3023:2 3181:1 3190:2 3250:1 3458:1 3594:1 3880:1 4688:1 4746:1 5298:14 5303:2 6349:1 7235:1 7236:1 7237:1 7238:1 7239:1 7240:2 7241:1 7242:1 7243:1 7244:1 7245:2 7246:2 7247:2 7248:2 7249:2 7250:2 7251:2 7252:2 7253:2 7254:10 7255:6 7256:6 7257:1 7258:1 7259:1 7260:1 7261:4 7262:1 7263:1 7264:1 7265:1 7266:1 7267:2 7268:1 #
-0.00094008424739907788837689484040538 1:1 11:3 41:1 72:1 90:1 132:1 137:1 174:1 233:1 242:1 246:1 331:1 366:1 590:2 626:1 1021:1 1252:1 1493:1 1683:1 1782:1 2308:1 2732:2 2807:1 3140:1 3152:1 3815:1 7829:1 8117:1 10510:1 12620:1 12733:1 13321:1 19918:3 19919:1 19920:1 19921:1 19922:1 19923:1 19924:1 19925:1 19926:1 19927:1 19928:1 19929:1 19930:1 19931:1 19932:1 #
-0.00075932323298627242644937007653994 8:1 11:2 17:1 36:1 38:1 75:1 82:1 137:1 243:1 352:1 400:1 447:2 483:2 499:1 713:1 732:1 969:2 1187:1 1248:1 1295:1 1381:2 1573:1 1697:1 1763:3 2116:1 2544:1 3563:1 4042:1 4528:1 5185:1 5585:1 6342:1 7028:1 7061:2 8328:1 10990:1 13950:1 22908:1 30159:1 30160:1 30161:2 30162:1 30163:1 30164:1 30165:1 30166:1 30167:1 #
-0.00043217509957427826779510771082471 6:2 11:3 16:1 36:1 61:1 82:7 93:1 112:1 114:2 116:2 122:3 127:5 149:1 171:1 213:3 222:1 233:1 251:1 296:1 331:1 366:1 387:1 460:1 491:2 657:1 824:1 826:1 900:1 948:1 1050:1 1376:2 1707:1 1731:1 1734:1 1763:1 2070:1 2132:1 2144:1 2145:1 2236:1 2407:1 2780:1 2941:1 2948:1 3030:1 3195:1 3593:1 3761:1 4696:2 5073:1 5159:1 5331:3 5400:1 5614:2 6600:1 6864:1 8826:4 8873:2 11137:1 13575:1 14820:5 17209:1 17583:3 17584:1 17585:2 17586:3 17587:1 17588:1 17589:1 17590:1 17591:1 17592:1 17593:1 17594:1 17595:1 17596:1 17597:1 17598:1 17599:1 17600:1 17601:1 17602:1 17603:3 17604:1 17605:1 17606:1 17607:1 17608:1 17609:1 17610:1 17611:1 #
-0.00052764680733024301850092596666286 9:2 11:1 16:1 17:4 20:1 38:2 48:1 168:1 169:1 200:2 229:1 365:2 371:1 452:1 455:1 475:1 649:2 785:1 798:1 802:1 938:1 1423:1 1670:1 1683:1 1723:4 1828:2 1841:2 2141:1 2168:1 3402:1 3701:1 3849:1 3920:1 4616:1 4838:1 5028:1 5140:1 6012:1 6906:3 9953:1 10131:1 10852:1 10901:1 12007:2 12008:1 12009:1 12010:7 12011:1 12012:1 12013:1 12014:1 12015:1 12016:1 12017:1 12018:1 12019:1 12020:1 12021:1 12022:1 12023:1 12024:1 12025:2 12026:1 12027:1 12028:1 12029:1 12030:1 #
-0.00017659760060514096921026327979831 1:1 29:1 53:2 197:2 224:3 247:1 251:1 389:1 408:2 459:2 466:1 602:1 792:3 1167:2 1169:2 1247:1 1559:2 1568:1 1683:1 1765:2 2933:3 3338:1 3387:1 3760:1 3799:1 3813:1 4010:1 4014:1 4131:1 4679:1 4699:7 4896:2 8023:1 13985:1 14908:1 19654:1 20033:1 22813:2 22814:2 22815:2 22816:1 22817:3 22818:7 22819:1 22820:1 22821:1 22822:1 22823:2 22824:2 22825:2 22826:1 22827:1 22828:1 22829:2 22830:1 22831:1 22832:1 22833:1 22834:1 22835:1 22836:1 22837:2 22838:2 22839:1 22840:1 22841:1 #
-0.00037508657871974460454311817159123 1:1 11:1 16:1 38:1 41:1 169:1 171:1 229:1 400:4 444:1 455:1 468:3 589:1 757:6 759:1 826:2 879:1 955:1 1052:1 1197:1 1465:1 1519:2 1625:1 1972:6 2114:1 2316:1 2637:1 2946:1 3191:2 3192:4 3193:1 3194:1 3195:1 3196:1 3197:1 3198:1 3199:1 3200:2 3201:1 3202:1 3203:1 3204:1 3205:1 3206:1 3207:1 #
-0.00039217498611311186508532333760968 9:3 11:2 38:1 61:1 82:2 93:1 98:2 112:1 116:1 122:2 233:1 244:2 257:1 319:1 352:1 455:1 592:6 593:5 747:1 748:1 796:1 798:1 1021:1 1346:2 1572:2 1585:2 1829:1 1886:2 2060:1 2070:1 2807:2 2838:2 3020:3 5060:3 5154:1 5662:1 6369:1 6458:2 7064:1 8439:2 9638:1 9775:1 14047:1 14153:1 14154:1 14155:1 14156:1 14157:1 14158:1 14159:1 14160:1 14161:1 14162:1 14163:1 14164:1 14165:2 14166:1 14167:1 14168:1 14169:1 14170:1 14171:1 14172:1 14173:1 14174:1 #
-0.0039759804957551934598281029309419 1:1 9:1 11:1 38:1 69:1 183:1 252:1 477:1 1150:1 1737:1 3880:1 8215:1 10086:1 10087:1 10088:1 #
-0.0018331812274459007884586103642732 7:1 11:2 29:1 90:1 93:2 195:2 215:1 253:1 305:1 589:2 626:1 651:2 1380:1 1708:1 2411:1 3149:1 3764:1 3992:1 7877:1 15841:1 19208:1 19726:1 19727:1 19728:1 19729:1 19730:1 19731:1 19732:1 #
-0.00058218494385729355981157207011734 11:1 28:1 29:1 36:1 52:1 75:1 204:1 222:1 245:1 388:1 408:1 651:2 824:1 1270:1 1326:2 1335:1 1364:1 1829:1 1844:1 1856:1 1882:1 2476:1 3059:1 3385:1 3386:1 3387:1 3388:1 3389:2 3390:1 3391:1 3392:1 3393:1 3394:1 3395:1 3396:1 3397:1 3398:1 3399:1 #
-0.00039766449027432118797087401418366 11:3 17:1 36:1 50:1 67:4 82:2 173:2 214:2 229:1 245:1 284:1 431:2 466:1 617:2 694:2 824:1 1260:1 1457:3 1708:2 2140:1 2623:1 2884:2 3581:1 4147:1 5298:1 5303:1 6842:3 7246:1 7250:1 7256:1 8575:1 11405:1 12728:1 13711:1 19943:1 20073:1 20848:1 22063:1 22064:2 22065:1 22066:1 22067:1 22068:1 22069:1 22070:1 22071:1 22072:2 22073:2 22074:2 22075:1 #
-0.00026065968561781935330934345529386 1:3 8:1 16:1 17:2 41:3 53:9 90:3 112:4 114:1 152:1 173:3 258:1 400:4 418:1 455:2 483:1 510:1 516:1 519:3 602:1 727:2 758:1 794:1 802:1 880:1 969:2 1016:1 1020:2 1227:1 1317:1 1370:1 1405:1 1421:2 1531:1 1539:1 1608:1 1765:1 2141:1 2165:1 2178:1 2348:1 2360:1 2367:1 2400:1 2434:1 2480:1 2591:1 2608:2 2637:1 2914:3 2996:1 3194:1 3473:1 3563:1 3715:1 4014:5 4128:1 4148:1 4151:1 4528:1 4647:1 4665:1 4772:1 4820:1 4831:1 5134:1 5959:1 7061:1 7281:1 7324:1 7361:1 7835:1 8724:1 10031:1 11932:1 12140:1 14478:1 18731:1 18732:2 18733:1 18734:1 18735:1 18736:1 18737:1 18738:1 18739:1 18740:1 18741:1 18742:1 18743:2 18744:1 18745:1 18746:1 #
-0.0016524443496966736196623903865088 203:1 257:1 352:1 399:2 400:1 417:1 483:1 532:1 858:1 969:1 1148:1 1817:1 4699:1 8111:1 8112:1 8113:1 #
-0.00056648562415734151492818782003269 11:1 36:1 38:3 120:1 137:2 169:1 243:1 252:1 331:1 393:1 701:1 748:1 1066:1 1334:1 1621:1 1635:1 1861:1 2015:3 2058:2 2513:3 5437:1 6561:2 6743:1 7093:2 7459:1 7921:1 8040:1 8961:1 11676:1 14403:5 15317:1 15706:2 20665:1 20666:1 20667:1 #
-0.00029074229802923939186554136426821 9:1 11:1 36:1 38:1 41:1 90:4 92:1 242:2 245:1 287:2 429:2 440:1 528:1 529:1 590:1 626:1 627:2 651:2 1024:1 1449:1 1551:1 1575:1 2068:1 2194:1 2259:2 2827:2 3849:3 4321:2 5664:1 5707:3 6561:1 7851:1 11451:1 11452:1 11453:1 11454:2 11455:2 11456:2 11457:1 11458:1 11459:1 11460:1 11461:1 11462:1 #
-0.00033541702604787150543419471659945 6:4 9:1 28:1 38:2 41:1 50:1 55:1 92:3 95:1 98:1 183:1 196:2 200:1 206:2 222:2 250:1 252:1 352:1 378:2 431:1 452:1 455:1 545:1 692:1 776:1 893:1 907:1 919:1 943:1 1007:1 1145:1 1253:1 1333:1 1438:2 1654:1 1701:1 1731:1 1734:1 1766:1 1767:1 1769:1 1772:1 1822:1 1854:1 1995:1 2013:1 2058:1 2080:1 2166:1 2182:5 2319:1 2483:1 2555:1 2670:1 2995:1 3109:1 3320:1 3764:1 4032:1 4114:1 4193:1 4295:1 4705:1 5570:1 5571:1 5572:1 5573:1 5574:1 5575:1 5576:1 5577:1 5578:1 5579:1 5580:1 5581:1 5582:2 5583:1 5584:1 5585:1 5586:1 5587:1 5588:1 5589:1 5590:1 5591:1 5592:1 #
-0.0020895489433767236268912892427352 1:1 9:2 20:1 162:1 244:1 1634:1 2489:1 13677:1 17681:1 17682:2 17683:1 17684:1 17685:1 17686:1 #
-0.00098236288680261319231079575331478 1:1 4:5 11:2 50:1 69:1 98:1 209:1 229:2 249:2 780:1 781:1 1016:1 1063:1 1253:1 1407:1 1965:1 2278:1 11418:1 16316:2 18173:1 25837:1 25838:1 #
-0.00014618450919489967302841715302009 1:2 4:1 11:2 17:2 38:1 162:1 204:1 243:1 287:2 329:1 338:2 842:4 895:1 1100:1 1104:1 1145:1 1205:2 1346:1 1764:7 2626:1 2650:1 3485:1 3491:1 3839:1 4192:2 4665:1 5892:1 7221:1 7629:1 8042:1 10027:1 10441:2 10442:1 10443:3 10444:4 10445:2 10446:1 10447:6 10448:1 10449:1 10450:1 10451:1 10452:1 10453:1 10454:2 10455:1 10456:1 10457:7 10458:1 10459:1 10460:1 #
-0.001361322093226086668918406452633 1:1 11:1 41:1 99:1 213:1 293:1 327:1 330:1 438:1 475:1 1295:1 2820:1 8177:1 9687:1 12314:3 18192:1 18193:1 #
-0.00052082308363959254997321846047953 1:1 11:2 31:1 38:2 56:1 73:1 82:1 90:1 119:1 136:1 162:1 173:2 186:1 253:1 282:1 389:1 408:1 866:1 1326:2 1329:1 1545:1 1566:2 1745:1 1761:1 1916:2 1933:1 2341:2 2435:1 3196:1 3470:2 3864:1 4216:1 4299:1 5154:2 5614:2 6016:1 6369:1 6593:1 11290:1 14443:1 14444:2 14445:1 14446:1 14447:2 14448:2 14449:1 14450:1 14451:1 14452:1 14453:1 14454:1 #
-0.00030212684619346826930125216037482 9:2 11:4 16:1 17:1 18:1 20:1 28:4 36:2 41:1 90:2 169:1 186:1 195:1 204:1 213:1 240:1 287:3 352:2 374:1 389:1 416:1 429:1 447:1 506:2 514:1 645:1 649:1 657:1 695:1 879:1 948:1 1167:2 1263:1 1304:1 1329:1 1376:1 1815:1 1942:5 2407:1 3948:3 7896:3 8600:1 11925:1 12629:1 12631:1 19794:7 20940:2 24842:1 25519:1 25520:1 25521:1 25522:3 25523:1 25524:1 25525:2 25526:1 25527:1 25528:1 25529:1 25530:1 25531:1 25532:1 25533:1 25534:1 25535:1 #
-0.00061495097505810951583893331218178 1:1 11:1 29:1 38:1 82:3 196:1 245:1 439:1 555:4 582:1 651:2 900:5 5656:1 7828:1 14613:1 30744:1 30745:1 30746:4 30747:4 #
-0.00069699696706689050814537145228655 11:1 36:1 46:1 99:3 162:1 257:1 283:1 319:1 425:1 711:1 888:1 1258:1 1321:1 1476:1 1551:1 2090:1 2814:1 2815:1 2816:1 2817:1 2818:1 2819:1 2820:1 2821:1 2822:2 2823:1 2824:1 2825:1 2826:1 2827:1 2828:1 2829:1 2830:1 2831:1 2832:1 2833:1 2834:1 2835:1 #
-0.0013508324664996112368653413682296 1:1 11:1 530:2 1022:1 1205:1 2250:1 2483:1 3563:1 4055:1 5292:1 9026:1 9027:1 9028:1 9029:1 9030:1 #
-0.00017835405289195842542387948626015 1:1 11:2 37:1 38:4 41:1 50:3 68:4 112:2 119:1 122:10 128:6 149:1 152:4 155:4 160:5 161:1 214:1 245:1 319:1 331:1 389:1 400:4 428:1 431:2 439:2 447:2 451:1 466:4 545:2 557:2 617:2 630:2 640:1 704:1 731:1 732:1 746:1 750:3 758:1 780:1 796:2 802:1 821:1 822:1 826:1 914:2 921:1 938:1 1104:1 1235:4 1346:1 1457:1 1491:1 1511:1 1566:1 1677:1 1759:1 1853:2 1911:1 1986:1 2241:1 2308:3 2378:1 2480:4 2489:4 2498:1 2631:1 2634:1 2638:1 2695:8 2795:1 2840:1 2932:1 3194:2 3213:1 3456:1 3531:1 3671:1 3764:1 3957:4 4011:1 4012:1 4278:1 4871:1 5454:1 6362:1 8104:4 8339:2 8955:1 9466:1 9550:1 11322:1 12240:1 16855:2 19175:1 19176:1 19177:4 19178:1 19179:1 19180:1 19181:1 19182:2 19183:1 19184:1 19185:1 19186:1 19187:1 19188:1 19189:1 19190:1 19191:1 19192:1 19193:1 19194:1 19195:1 19196:1 19197:1 19198:1 19199:1 19200:1 19201:1 19202:1 19203:1 #
-0.00053336480046251987397615268449158 1:4 4:1 9:1 11:3 45:1 46:1 99:4 196:2 204:1 213:1 229:1 365:1 514:3 751:2 914:2 1498:2 1605:1 1628:1 2194:2 2337:3 2877:2 3244:1 3286:1 3291:1 3598:1 7851:6 19674:2 19675:3 19676:4 19677:1 19678:1 19679:1 19680:1 19681:1 19682:1 19683:1 #
-0.00029526257240887016043348611837871 1:1 11:1 16:2 17:1 52:1 53:3 55:1 82:3 93:1 119:1 200:1 352:1 366:1 455:1 480:1 518:1 626:4 627:1 701:1 725:1 747:1 831:1 880:1 921:1 1025:1 1145:1 1245:1 1447:1 1550:1 1684:1 1759:1 1995:1 2140:1 2192:1 4473:1 5732:1 6222:1 6232:1 6234:1 6235:1 6236:1 6238:1 6250:1 6253:1 6382:1 12253:1 12254:1 12255:1 12256:1 12257:1 12258:1 12259:1 12260:3 12261:2 12262:1 12263:1 12264:1 12265:1 12266:1 12267:1 12268:1 12269:1 #
-0.00040936162578507275400935272458014 8:1 47:1 55:1 60:1 119:1 194:1 408:1 412:2 535:1 700:1 747:1 748:1 955:1 1475:2 1688:1 1727:1 2265:3 3560:1 3778:1 3836:1 4414:2 4415:1 4416:2 4417:1 4418:1 4419:1 4420:1 #
-0.00060452938209441331798843499711893 4:1 17:1 45:1 222:2 282:1 416:1 732:1 1016:1 1370:1 1610:1 2116:1 3563:1 4475:1 4746:1 6564:1 6565:1 6566:1 6567:1 #
-0.00014814895443785732571592705930641 11:1 17:1 45:4 173:2 200:1 465:1 1326:1 1418:1 1624:2 1757:1 1938:1 2516:2 3070:1 3562:3 4217:1 5159:1 6047:1 6393:1 12343:2 18814:1 18815:1 18816:1 18817:3 18818:2 18819:1 18820:1 18821:1 18822:2 18823:1 18824:1 18825:2 18826:1 18827:1 18828:2 18829:2 18830:1 18831:1 18832:2 18833:1 #
-0.00021084603667228835489205751585473 1:1 8:1 11:2 17:1 36:1 38:2 99:3 196:1 204:1 242:1 259:1 293:1 389:1 417:1 451:1 504:1 518:1 532:1 1295:1 1561:3 1634:1 1635:1 1692:6 1862:3 3280:1 3349:1 3628:2 4110:1 4882:1 5881:1 7111:1 7917:1 8201:2 12368:1 12736:3 17003:1 19455:1 19917:1 20003:1 20004:2 20005:3 20006:1 20007:3 20008:2 20009:1 20010:1 20011:1 20012:1 20013:1 20014:1 20015:1 20016:1 20017:3 20018:1 20019:1 20020:1 20021:1 20022:2 20023:1 20024:1 20025:1 20026:2 20027:1 20028:1 #
-0.00030396643931913767825228611663135 8:1 11:2 17:2 20:1 30:1 38:3 41:3 65:2 82:1 137:3 290:3 297:1 352:1 366:1 447:2 455:1 458:1 483:2 488:3 492:1 506:1 562:1 704:1 1167:2 1227:2 1252:2 1296:1 1329:1 1405:3 1432:1 1695:1 1707:1 1767:2 2036:1 2494:2 2591:1 2818:1 2979:2 3150:1 3151:1 3157:2 3598:1 4042:1 4752:1 4779:1 5964:1 6390:1 6884:2 8223:1 8224:1 8225:1 8226:1 8227:1 8228:1 8229:1 8230:1 8231:1 8232:1 8233:1 8234:1 8235:2 8236:1 8237:1 8238:1 8239:1 8240:1 #
-0.0002455299689819458695827503191822 1:2 8:1 11:3 16:1 27:1 38:2 169:1 257:1 282:1 319:1 330:1 393:1 455:1 470:1 472:1 516:1 557:2 892:1 1166:1 1331:1 1457:1 1483:1 2070:1 2071:1 2077:1 2092:1 2476:2 2529:1 2619:1 3259:1 3511:3 3515:1 3522:1 3855:1 3882:1 3889:3 4675:1 5117:1 5226:1 5959:1 6600:2 7342:1 8078:4 10533:1 15440:1 16154:1 17535:2 18747:6 22120:1 22121:1 22122:1 22123:1 22124:1 22125:1 22126:1 22127:1 22128:1 22129:1 22130:1 22131:1 22132:1 22133:1 22134:1 22135:1 22136:2 22137:1 22138:2 22139:1 22140:1 22141:1 22142:1 22143:1 22144:1 22145:1 #
-7.3665431417279213645137037058674e-05 1:1 11:2 16:1 20:1 37:1 38:1 75:1 82:1 90:1 93:2 99:1 171:1 196:1 204:1 235:1 240:1 244:2 345:3 416:3 418:2 447:2 455:2 532:1 603:1 698:1 770:2 771:1 880:1 892:1 913:1 1056:1 1106:2 1122:2 1304:7 1372:2 1438:1 1449:1 2036:1 2092:2 2378:1 2450:1 2581:1 2989:1 3502:1 3776:2 4429:1 4675:1 4891:1 4937:1 6529:2 9550:1 9613:2 10835:2 13869:1 13880:2 26467:1 27121:3 27122:1 28197:1 29586:1 30698:1 30699:1 30700:2 30701:2 30702:1 30703:1 30704:2 30705:1 30706:1 30707:1 30708:1 30709:1 30710:2 30711:2 30712:2 30713:2 30714:2 30715:2 30716:2 30717:2 30718:2 30719:2 30720:2 30721:2 30722:2 30723:2 30724:2 30725:1 30726:1 30727:1 30728:11 30729:1 30730:1 30731:1 30732:1 30733:1 30734:2 30735:2 30736:1 30737:1 30738:1 30739:1 30740:1 30741:1 30742:1 30743:2 #
-0.0012536892231416753816508613539327 1:2 11:1 28:1 29:1 46:1 75:2 255:1 518:1 824:1 965:1 7834:3 10338:1 18275:1 18276:1 18277:1 18278:1 18279:1 18280:1 18281:1 18282:1 #
-0.00024683948787364984453138183617682 1:2 9:1 11:2 36:1 41:1 296:2 408:1 442:1 477:1 535:1 661:3 748:1 929:1 1020:1 1128:2 1219:1 1326:1 1467:1 1515:1 1525:1 1692:2 1743:1 1822:1 1828:1 1829:1 1830:1 1831:1 1976:2 2412:1 2413:1 2585:1 2780:1 3598:3 3764:1 4584:1 4611:1 4834:1 6045:1 6087:1 6534:1 6550:1 7361:1 8495:1 8982:2 9440:1 9949:1 11387:1 11388:1 11389:1 11390:1 11391:2 11392:2 11393:2 11394:1 11395:1 11396:1 11397:1 11398:2 11399:1 11400:1 11401:1 11402:1 11403:1 #
-0.0014067402726651865099705140949027 1:1 4:1 11:1 38:1 203:2 331:1 447:1 499:1 611:1 658:1 1224:1 1782:2 2032:1 2033:1 2034:1 2035:1 2036:1 2037:1 2038:1 2039:1 #
-0.00060094550226173120213712941506401 1:1 11:1 16:2 38:3 41:3 90:2 169:3 186:1 242:1 259:1 297:1 397:1 402:1 417:1 516:1 641:1 780:1 842:1 999:1 1166:3 1438:1 2059:1 3104:1 4030:1 4031:2 4032:1 4033:1 4034:1 4035:2 4036:1 4037:2 #
-0.00031898566792210394666567951915681 1:1 11:1 17:1 37:1 41:1 82:1 122:1 127:2 203:1 290:2 333:1 746:1 874:1 907:1 1166:2 1892:1 2494:1 2528:1 3616:1 5050:1 6663:2 8131:1 8889:1 11976:3 11977:1 11978:1 11979:1 11980:1 11981:1 11982:1 11983:1 11984:2 11985:2 11986:2 11987:2 11988:2 11989:2 11990:2 11991:1 11992:1 #
-0.00032396244843721288620211340436583 11:1 16:1 38:1 76:1 161:1 309:1 399:1 409:1 447:1 626:1 707:1 1013:1 1304:1 1498:1 3152:1 3190:1 3295:1 5186:1 6384:1 6513:1 19819:1 19835:1 20305:1 20573:1 20574:1 20575:6 20576:1 20577:1 20578:1 20579:1 20580:1 20581:1 #
-0.00040012001271837893288593757112892 1:4 11:3 29:1 90:1 99:2 161:1 200:4 229:1 242:2 416:2 429:1 453:1 468:2 474:1 506:5 651:2 747:1 914:1 1052:1 1326:1 1335:2 1654:1 1683:1 1764:1 1843:1 1893:1 2092:1 2445:1 2483:1 2614:1 2940:1 3387:1 3709:1 3979:1 7750:1 8339:1 10846:1 13029:1 13030:1 13031:1 13032:1 13033:1 13034:1 13035:2 13036:1 13037:3 13038:1 13039:2 13040:1 13041:1 13042:1 13043:1 13044:1 13045:1 #
-0.00022460748528448147651875865804527 9:1 11:1 16:1 36:1 169:1 173:2 312:1 319:1 329:1 408:1 451:1 455:1 603:1 704:1 820:1 1373:1 1563:6 1572:1 1609:1 1633:1 1764:1 2171:1 2229:1 2350:1 2857:1 2933:1 3184:1 5717:1 5718:1 5719:2 5720:1 5721:1 5722:1 5723:2 5724:1 5725:1 5726:1 5727:1 5728:1 5729:1 5730:1 #
-0.00013165336339138455088240697854474 1:1 11:2 16:1 37:1 41:1 81:2 99:1 161:1 164:1 169:1 200:3 204:2 229:2 243:1 293:1 352:2 378:1 429:1 516:1 1082:2 1166:1 1232:1 1314:1 1635:1 1710:1 1788:1 1802:1 1914:1 2165:1 2245:1 2298:3 2314:2 2695:2 4442:4 4490:2 4718:1 4833:1 5777:1 9106:1 10035:1 10413:1 10414:1 10415:4 10416:1 10417:2 10418:2 10419:2 10420:4 10421:3 10422:2 #
-0.00010613102375199980152015166723345 8:1 11:1 16:1 17:2 36:1 38:1 41:1 111:2 213:1 222:1 258:3 282:1 582:4 630:1 657:1 727:1 732:1 745:1 802:1 919:4 955:1 1050:1 1317:1 1628:1 1641:1 1757:2 1880:3 1995:1 2073:1 2270:1 2441:6 2562:1 2685:1 2802:2 3400:2 3401:1 3402:1 3403:1 3404:2 3405:1 3406:1 3407:1 3408:1 3409:1 3410:1 3411:1 3412:1 3413:1 3414:2 3415:1 3416:1 3417:1 3418:1 3419:1 3420:1 3421:1 3422:1 3423:1 #
-0.00016938585261004189975314604410528 4:2 8:1 11:2 17:2 28:1 29:1 38:2 61:1 171:1 200:3 282:1 352:1 371:1 389:1 429:1 434:1 603:3 713:1 791:2 794:1 919:1 1102:1 1423:1 1504:1 1539:1 1585:1 1634:3 1739:2 1850:1 1862:1 1915:2 1945:1 2163:5 2591:1 2628:1 2631:1 3070:1 3338:1 3764:1 4765:1 5574:1 6012:1 7243:1 9561:1 9914:1 13047:1 15930:1 17203:1 18850:1 31087:1 31088:1 31089:1 31090:1 31091:1 31092:1 31093:1 #
-0.00014448490954087551182277726624648 11:2 17:2 82:2 160:1 174:1 200:3 229:1 240:2 242:1 337:1 389:1 428:1 439:3 447:4 455:1 465:2 506:2 516:1 537:1 557:1 562:1 626:1 637:1 651:2 725:1 929:1 1219:1 1304:1 1430:1 1457:1 1545:1 1620:1 1641:1 1670:1 1706:1 1767:1 1864:1 2082:2 2167:1 2168:1 2324:1 2778:1 2804:2 2927:1 2939:1 3059:1 3138:1 3147:1 3828:1 4138:1 4563:1 5123:1 5389:2 7670:1 8640:2 11181:1 13246:1 14553:1 14554:3 14555:1 14556:1 14557:4 14558:1 14559:2 14560:1 14561:2 14562:1 14563:1 14564:1 14565:1 14566:1 14567:1 14568:1 14569:1 14570:1 14571:1 14572:1 14573:1 14574:1 14575:1 14576:1 14577:3 14578:3 14579:2 14580:1 14581:3 14582:2 14583:1 14584:1 14585:1 14586:1 #
-9.8335985218788726173327896518117e-05 11:4 28:1 29:1 42:1 46:1 75:7 82:3 171:1 242:2 244:1 282:1 408:1 439:2 488:1 506:3 516:1 528:1 531:1 550:1 560:1 582:1 796:1 913:3 1227:1 1326:2 1421:3 1488:4 1534:1 1605:2 1862:1 2023:1 2046:1 2324:1 2346:2 2436:1 2731:1 2732:3 2991:2 3107:1 3140:3 3637:1 3813:2 4205:1 4250:1 4856:1 4882:2 5186:1 5893:1 6267:1 8015:1 8368:1 9051:2 15847:1 16315:1 17450:2 19911:1 20891:1 21740:1 21741:4 21742:3 21743:2 21744:1 21745:1 21746:2 21747:1 21748:1 21749:1 21750:1 21751:1 21752:1 21753:1 21754:1 21755:1 21756:1 21757:1 21758:5 21759:1 21760:2 21761:2 21762:1 21763:1 21764:1 21765:1 21766:1 #
-0.00013678594649867777295615400845463 1:1 8:1 11:1 16:1 36:1 38:3 41:1 61:1 162:1 169:1 222:1 229:1 282:1 440:1 454:1 470:1 516:1 546:2 642:1 703:1 727:1 732:1 745:1 759:1 785:2 880:1 1020:1 1025:1 1227:1 1491:2 1623:5 1625:1 1658:1 1677:2 1817:2 2023:1 2145:1 2943:1 3179:2 3276:1 3344:1 3403:1 4736:1 4834:1 5186:1 5237:1 6393:1 6554:1 11931:1 12420:1 17137:1 17138:1 17139:1 17140:1 17141:1 17142:2 17143:2 17144:1 17145:1 17146:1 17147:1 17148:1 17149:1 17150:1 17151:1 17152:1 17153:1 17154:1 17155:1 17156:1 17157:1 #
-3.3829796300287486151767146758118e-05 1:1 11:1 17:3 38:2 53:1 174:1 184:1 242:4 245:1 282:1 331:1 389:1 439:1 451:1 488:1 492:11 528:2 704:1 713:1 725:1 747:1 864:1 866:2 900:1 1105:1 1150:1 1154:1 1252:1 1368:1 1417:2 1443:1 1458:2 1467:1 1605:2 1708:1 1736:1 1834:3 1849:1 2270:3 2326:1 2348:1 2908:1 2943:1 3393:1 3618:1 3733:1 4075:1 4236:1 4689:1 5349:1 5439:1 5892:2 5949:1 8331:1 10991:1 11863:3 12240:1 12971:1 19627:1 19628:2 19629:1 19630:1 19631:1 19632:9 19633:2 19634:1 19635:1 19636:1 19637:1 19638:1 19639:1 19640:1 19641:1 #
