SVM-light Version V6.02
0 # kernel type
3 # kernel parameter -d 
1 # kernel parameter -g 
1 # kernel parameter -s 
1 # kernel parameter -r 
empty# kernel parameter -u 
31978 # highest feature index 
1560 # number of training documents 
248 # number of support vectors plus 1 
1.0160039 # threshold b, each following line is a SV (starting with alpha*y)
-0.001664748042909574296879804400362 2:1 4:1 62:1 77:1 152:1 385:1 550:1 1315:1 1696:2 2057:1 3500:1 4711:1 5711:1 7135:1 8334:1 16241:1 #
-3.0986789924823317525417326612214e-05 1:1 2:1 20:1 61:1 81:2 95:2 102:1 114:1 131:10 137:2 165:1 227:5 263:2 264:1 272:1 331:1 332:1 334:4 550:4 594:1 637:1 730:1 787:5 1153:1 1637:2 1654:1 1711:1 1794:1 2027:4 2149:1 2157:1 2407:1 3089:5 4018:1 4168:1 4194:1 4260:1 4837:1 5326:1 5486:2 6520:1 6944:2 8242:4 10124:6 11032:1 12459:1 16290:1 19022:1 19899:1 23144:1 23608:3 28499:9 28879:1 28880:1 28881:1 28882:1 28883:4 28884:1 28885:1 28886:1 28887:1 28888:1 28889:1 28890:1 28891:1 28892:1 28893:1 28894:1 28895:2 28896:1 28897:1 28898:1 28899:1 28900:1 28901:2 #
-0.00012760287827710725303519134765651 2:1 61:2 62:2 107:1 187:1 563:1 660:1 738:3 819:1 838:4 984:4 1041:1 1055:1 1609:3 1610:1 1699:2 1887:1 2068:1 2149:2 2286:1 2386:2 2471:1 2607:1 2707:1 2727:1 2763:1 2773:1 3050:1 3121:1 3611:4 3637:1 3682:1 4204:1 4528:1 4806:1 6329:1 11441:1 11563:1 11749:1 11750:2 11751:1 11752:1 11753:1 11754:1 11755:1 11756:1 11757:1 11758:1 11759:1 #
-0.00015727326194129055410113326995969 2:1 25:1 28:1 61:1 84:1 102:1 103:1 131:2 132:8 142:1 183:1 187:1 199:1 214:1 220:1 302:1 330:1 336:1 558:5 738:2 742:1 749:1 1041:1 1055:2 1106:1 1517:1 1587:1 1742:1 1744:1 1900:1 2006:1 2166:1 2470:1 3233:1 3689:1 4116:2 4430:1 4528:1 5221:1 5650:1 5928:2 7863:1 15990:1 18965:2 19428:1 25156:1 26309:1 26310:1 26311:1 26312:1 26313:1 26314:1 26315:1 #
-0.00031833966016369373303734890967576 41:1 62:1 67:1 123:1 303:1 310:3 330:2 621:1 640:1 843:1 955:1 1053:1 1153:1 2401:2 2488:1 3481:1 4018:2 4391:2 4695:1 14948:1 14949:1 14950:1 14951:2 #
-0.00049242261277915614844924441229068 4:1 24:1 61:1 62:1 95:12 134:1 218:1 229:1 264:1 310:1 330:1 394:1 530:1 841:1 858:11 1028:1 1047:1 1497:1 1515:1 1654:2 1699:1 2049:1 2249:1 3850:1 4226:1 4252:1 5025:4 7039:2 7044:1 10449:1 13311:1 13312:1 13313:1 13314:1 13315:1 13316:1 13317:1 13318:1 13319:11 13320:1 13321:1 13322:1 13323:1 13324:1 13325:1 13326:1 13327:1 13328:1 13329:1 13330:1 13331:1 13332:1 #
0.0042360814678347640319100442241051 2:1 10:5 18:1 20:1 41:2 61:1 62:1 63:1 64:1 65:1 66:1 67:1 68:3 69:1 70:1 71:1 72:1 73:1 74:1 75:1 76:1 77:1 78:1 79:2 80:1 81:1 82:1 83:3 84:2 85:1 86:2 87:1 88:1 89:1 90:1 91:1 92:1 93:1 94:1 95:1 #
0.0042360814678347640319100442241051 2:1 10:2 24:1 30:3 74:3 93:3 96:1 97:1 98:7 99:3 100:1 101:4 102:1 103:1 104:1 105:1 106:1 107:1 108:4 109:1 110:1 111:1 112:1 113:1 114:1 115:1 116:1 117:1 118:1 119:1 120:1 121:1 122:1 123:1 124:2 125:1 126:1 127:1 128:1 129:1 130:1 131:1 132:1 133:1 134:1 135:1 136:1 137:3 138:1 139:1 140:1 141:1 142:1 143:1 144:2 145:1 146:1 147:1 148:1 149:1 150:1 #
0.0042360814678347640319100442241051 4:2 7:1 10:2 62:1 93:1 121:2 148:1 151:1 152:1 153:3 154:1 155:1 156:1 157:1 158:1 159:1 160:1 161:1 162:1 163:1 164:1 165:1 166:1 167:1 168:1 169:1 170:1 171:1 172:1 #
0.0042360814678347640319100442241051 2:1 4:1 10:5 27:1 31:2 72:1 74:1 205:1 336:2 538:1 754:1 796:1 797:1 807:2 816:2 822:1 896:1 1105:1 1106:1 1107:1 1108:1 1109:1 1110:1 1111:1 1112:1 1113:1 1114:1 1115:1 1116:2 1117:2 1118:2 1119:1 1120:1 1121:1 1122:1 #
-0.00019898438547288313689442862397527 1:2 2:1 24:1 61:2 62:1 77:1 99:1 110:1 122:4 130:1 152:1 165:2 252:4 257:1 264:1 538:1 573:1 577:1 580:1 591:4 593:7 695:2 725:1 731:1 751:1 793:1 796:1 998:1 1022:4 1067:1 1311:1 1729:1 1749:1 1894:1 2043:1 2328:1 2362:1 2390:1 3027:1 3047:1 3229:1 3329:1 3339:1 3507:1 3545:1 3701:1 3755:1 3872:1 3913:1 3995:1 4244:1 4321:1 4327:1 4938:1 6267:1 6361:1 6424:1 7028:1 8021:1 8106:1 8881:2 11635:2 11840:1 13099:1 14080:1 15753:1 16411:1 21588:9 21589:1 21590:1 21591:1 21592:1 21593:1 21594:1 21595:2 21596:7 21597:2 21598:1 21599:1 21600:1 21601:2 21602:2 21603:2 21604:2 21605:1 21606:1 21607:1 21608:6 21609:1 21610:1 21611:1 21612:1 21613:2 21614:1 21615:1 21616:1 21617:1 21618:1 21619:1 21620:1 21621:1 21622:1 21623:3 21624:1 #
-0.001797628074102203439565972331593 2:2 4:3 6:1 10:5 18:1 22:2 24:1 27:1 30:8 31:6 48:1 61:3 74:2 77:1 83:2 85:5 98:2 99:20 102:4 109:1 119:1 142:1 171:2 173:2 226:2 240:1 247:1 310:1 336:2 349:3 391:5 393:2 397:1 400:2 422:4 451:1 457:1 458:4 518:1 525:1 532:1 539:1 585:1 606:1 658:1 668:2 723:1 738:1 797:1 841:1 854:13 874:1 927:8 944:3 947:1 1098:2 1103:4 1153:1 1292:2 1535:1 1542:1 1552:1 1568:1 1579:2 1637:1 1696:1 1750:1 1794:1 1909:2 1947:1 2037:1 2068:3 2205:1 2230:1 2245:1 2277:2 2279:1 2331:1 2351:1 2428:4 2429:3 2434:1 2438:1 2581:2 2654:1 2728:1 2782:1 2870:2 3030:2 3065:1 3140:1 3174:1 3197:1 3386:2 3593:5 3650:2 3852:2 3931:1 4140:2 4586:1 4730:1 4882:1 4933:1 4986:3 5050:1 5512:1 5576:1 6923:1 6924:1 6932:6 7138:3 7151:1 7692:1 8899:1 10027:1 10054:1 11069:2 11110:1 11152:1 11993:1 12396:1 12612:1 12788:1 13798:3 14569:5 15660:1 16847:1 17155:1 19450:1 19880:4 20185:1 20232:2 20523:1 20981:1 22881:1 25332:1 25662:4 26981:1 31003:4 31004:1 31005:1 31006:1 31007:1 31008:1 31009:5 31010:5 31011:4 31012:3 31013:1 31014:1 31015:1 31016:1 31017:1 31018:1 31019:1 31020:1 31021:1 31022:1 31023:2 31024:3 31025:1 31026:1 31027:2 31028:1 31029:1 31030:1 31031:1 31032:1 31033:1 31034:1 31035:1 31036:2 31037:1 31038:1 31039:1 31040:1 31041:1 31042:1 31043:1 31044:1 31045:1 31046:2 31047:1 31048:1 31049:1 31050:1 31051:1 31052:1 31053:1 31054:1 31055:2 31056:1 31057:1 31058:1 31059:1 31060:1 31061:1 31062:1 31063:1 31064:1 31065:1 31066:2 31067:2 31068:2 31069:1 #
-0.000280366034466169385293288218719 1:1 2:1 4:1 26:1 30:1 31:1 61:1 83:4 94:1 95:2 264:2 289:1 296:1 303:1 310:3 330:1 356:1 378:8 384:1 386:1 387:5 391:3 393:3 397:1 411:1 412:2 421:2 450:1 451:1 457:1 493:1 506:1 527:1 738:1 841:1 854:2 866:1 896:1 1028:1 1047:1 1568:1 1575:1 1587:3 1654:4 1693:1 1705:1 1761:9 2028:1 2196:1 2418:1 2419:6 2442:1 2465:1 3789:3 3991:1 4252:1 4728:3 8502:3 10976:5 12453:1 13240:1 14584:1 16456:1 17173:1 18915:1 19429:1 19430:1 19431:1 19432:2 19433:2 19434:1 19435:2 19436:6 19437:3 19438:1 19439:3 19440:1 19441:2 19442:1 19443:1 19444:1 19445:1 19446:1 19447:1 19448:1 19449:1 19450:1 19451:1 19452:1 19453:1 19454:1 19455:1 19456:3 19457:3 19458:1 19459:1 19460:1 #
-0.00032434525347688496123982337948632 2:1 21:1 23:1 27:1 34:2 41:33 49:1 61:3 62:1 81:13 95:19 123:1 142:1 165:1 199:1 202:3 217:1 229:1 246:1 311:2 336:1 378:2 379:10 384:6 506:2 581:1 636:1 725:1 796:2 841:4 939:5 1066:1 1106:6 1256:6 1655:8 1904:1 2045:1 2154:1 2157:8 2244:1 2249:2 2419:1 2766:1 3182:1 3330:1 3797:2 4655:1 6277:1 7121:1 8070:4 8171:1 8940:1 11482:4 12560:2 13220:31 23324:1 23325:1 23326:2 23327:2 23328:5 23329:1 23330:2 23331:2 23332:1 23333:1 23334:1 23335:1 23336:1 23337:1 23338:1 23339:11 23340:1 23341:1 23342:1 #
0.0042360814678347640319100442241051 169:3 205:1 346:1 532:1 883:2 884:1 885:1 886:1 887:1 #
0.0042360814678347640319100442241051 1:1 2:1 31:1 98:1 619:1 718:1 723:1 785:1 786:1 787:2 788:1 789:1 790:1 791:1 792:1 793:1 794:1 795:1 #
0.0042360814678347640319100442241051 15:1 18:1 62:2 99:1 103:1 187:1 231:1 532:8 540:1 541:1 542:1 543:1 544:1 545:3 546:5 547:1 548:2 549:1 550:3 551:2 552:1 553:1 554:1 555:1 556:2 557:1 558:1 559:1 560:2 561:1 562:1 563:2 564:1 565:1 566:1 567:1 568:1 569:1 570:1 571:1 572:1 #
-0.00010351597559519147952536433088255 61:3 77:1 81:2 95:1 98:18 108:1 114:1 123:1 153:1 173:1 225:3 226:12 227:5 229:5 264:6 324:1 558:6 594:8 653:2 668:1 690:1 730:1 731:1 732:3 733:1 734:1 738:3 947:6 1113:5 1636:12 1655:2 1670:4 2154:1 2157:2 2166:2 2330:1 3121:6 3263:3 3778:4 3932:2 3957:3 3992:3 5631:1 5725:1 6524:1 6525:1 6526:2 6527:2 6528:2 6529:7 6530:12 6531:2 6532:11 6533:2 6534:2 6535:2 6536:7 6537:3 6538:3 6539:1 6540:5 6541:5 6542:3 6543:6 6544:1 6545:1 6546:1 6547:1 6548:2 6549:1 6550:4 6551:1 6552:4 6553:1 6554:2 6555:4 6556:3 6557:10 6558:11 6559:1 6560:1 6561:1 6562:1 6563:1 6564:1 6565:1 6566:3 6567:1 6568:1 6569:2 6570:2 6571:1 6572:1 6573:1 6574:1 6575:5 6576:2 6577:1 6578:1 6579:1 6580:7 6581:1 6582:2 6583:2 #
0.0042360814678347640319100442241051 1:1 8:1 9:2 10:2 27:1 30:1 31:3 41:2 61:2 78:1 83:3 95:1 115:1 183:1 303:1 384:6 386:3 391:1 393:4 394:4 397:1 451:1 494:3 527:2 532:2 577:1 748:1 750:1 754:1 786:1 882:1 1071:1 1109:1 1546:1 1547:1 1548:1 1549:2 1550:3 1551:1 1552:3 1553:1 1554:1 1555:1 1556:1 1557:1 1558:1 1559:1 1560:1 1561:1 1562:1 1563:1 1564:1 1565:1 1566:1 1567:1 1568:1 1569:1 1570:1 1571:1 1572:1 1573:1 1574:1 1575:1 1576:1 1577:1 1578:1 1579:1 1580:1 1581:2 1582:1 1583:2 1584:1 1585:1 1586:1 1587:1 1588:1 1589:1 1590:1 1591:1 1592:1 1593:1 1594:1 1595:1 1596:1 #
-0.0042360814678347640319100442241051 1:1 4:1 10:5 23:1 28:1 61:1 96:1 132:1 159:1 175:1 178:1 202:1 205:1 384:2 386:2 462:4 506:2 754:2 768:3 775:1 903:1 978:2 1055:2 1056:1 1693:1 2157:1 2343:1 2395:1 2396:1 2397:1 2398:1 2399:3 2400:1 2401:2 2409:1 2410:1 3321:1 3852:1 4143:3 4293:1 5444:1 7149:1 7508:1 11752:1 15386:1 15387:1 15388:1 15433:1 18687:2 21314:1 23638:1 27245:1 28148:1 31098:1 31099:1 31100:1 31101:1 31102:1 31103:1 31104:1 31105:1 31106:1 31107:1 31108:1 31109:1 31110:1 31111:1 31112:2 31113:1 31114:1 31115:1 #
-1.6118283944001978352832463170508e-05 1:1 22:2 61:1 62:1 84:10 102:1 114:11 115:11 118:1 119:1 148:10 173:1 196:10 229:23 256:1 558:1 584:1 618:1 658:1 668:1 892:1 896:1 1515:11 1657:1 1713:11 1746:1 1755:10 2040:1 2119:1 2328:1 2362:11 2601:1 2758:1 2769:1 2870:2 3047:1 3412:1 3415:1 3501:1 3506:11 3678:33 3931:1 3991:5 4260:1 4443:1 4828:1 6424:1 6913:1 8587:10 8610:1 13073:22 13344:22 13525:1 13950:4 15164:33 15945:2 17831:1 27123:2 27124:22 27125:1 27126:1 27127:1 27128:10 27129:10 27130:11 27131:11 27132:11 27133:10 27134:11 27135:2 27136:1 #
-0.0042360814678347640319100442241051 1:1 10:4 18:1 22:2 30:2 60:1 61:1 62:2 99:3 107:1 121:1 149:1 218:2 272:1 336:1 606:1 658:2 785:1 1059:1 1099:1 1130:1 1577:1 1639:1 1805:1 2049:1 2056:1 2320:2 2460:1 2784:1 3872:1 3996:1 7139:1 7500:1 8077:4 8083:1 8634:1 12194:1 16370:1 16998:1 16999:1 17000:1 17001:1 17002:1 17003:1 17004:1 17005:1 17006:1 #
0.00077999849447912741190469532170937 2:3 4:1 6:4 10:3 24:1 27:6 30:1 32:1 41:3 59:1 61:2 62:2 72:1 74:3 81:4 95:30 114:3 133:1 137:2 151:1 188:1 200:1 202:1 229:2 240:6 243:1 261:1 281:1 282:1 283:1 284:1 285:13 286:1 287:1 288:2 289:1 290:22 291:1 292:6 293:1 294:2 295:1 296:1 297:11 298:1 299:1 300:1 301:5 302:1 303:2 304:1 305:1 306:1 307:3 308:7 309:3 310:2 311:1 312:4 313:4 314:2 315:16 316:3 317:2 318:4 319:6 320:2 321:2 322:2 323:7 324:5 325:2 326:3 327:2 328:2 329:2 330:1 331:6 332:4 333:1 334:1 335:4 336:3 337:2 338:3 339:1 340:2 341:1 342:3 343:6 344:1 345:1 346:1 347:2 348:3 349:1 350:2 351:1 352:11 353:4 354:1 355:1 356:3 357:1 358:1 359:1 360:1 361:1 362:1 363:1 364:1 365:1 366:1 367:1 368:1 369:1 370:2 371:1 372:2 373:1 374:2 375:1 376:1 377:1 378:4 379:7 380:1 381:1 382:1 383:1 384:8 385:1 386:2 387:1 388:2 389:2 390:1 391:10 392:1 393:5 394:1 395:1 396:1 397:4 398:1 399:1 400:2 401:1 402:1 403:1 404:1 405:1 406:1 407:1 408:1 409:2 410:1 411:2 412:2 413:1 414:1 415:1 416:1 417:1 418:1 419:1 420:1 421:2 422:10 423:1 424:1 425:2 426:1 427:1 428:1 429:1 430:3 431:1 432:7 433:1 434:1 435:1 436:2 437:1 438:1 439:1 440:1 441:1 442:3 443:1 444:1 445:1 446:1 447:1 448:3 449:1 450:1 451:2 452:1 453:1 454:1 455:1 456:1 457:2 458:8 459:1 460:1 461:2 462:6 463:2 464:2 465:2 466:3 467:1 468:2 469:1 470:1 471:1 472:1 473:1 474:1 475:1 476:1 477:1 478:1 479:1 480:1 481:1 482:1 483:1 484:1 485:1 486:1 487:3 488:1 489:1 490:1 491:1 492:1 493:1 494:1 495:1 496:6 497:1 498:1 499:1 500:1 501:1 502:1 503:1 504:1 505:1 506:1 507:2 508:2 509:1 510:1 511:1 512:1 513:1 514:1 515:1 516:1 517:1 518:1 519:1 520:1 521:1 522:4 523:1 524:1 525:1 526:1 527:1 528:1 529:1 530:1 531:2 532:1 533:1 534:1 535:1 536:1 537:2 538:1 539:1 #
0.0032924036824142424717543065071368 9:2 10:2 14:1 15:1 20:2 22:1 30:1 48:2 61:2 62:3 74:1 77:1 95:29 99:1 110:1 122:3 130:1 165:2 169:2 226:1 294:2 310:2 312:1 330:1 532:1 573:1 574:2 575:6 576:5 577:6 578:1 579:1 580:1 581:3 582:1 583:1 584:4 585:2 586:1 587:1 588:2 589:2 590:2 591:2 592:4 593:2 594:1 595:2 596:4 597:2 598:1 599:1 600:1 601:1 602:1 603:1 604:3 605:1 606:1 607:2 608:2 609:2 610:1 611:2 612:1 613:1 614:1 615:1 616:1 617:1 618:1 619:1 620:1 621:1 622:1 623:1 624:1 625:1 626:1 627:1 628:1 629:2 630:1 631:1 #
0.00027484265379726683601463443906709 2:1 4:7 7:1 9:2 10:5 15:3 17:1 21:1 22:1 27:1 30:4 31:20 41:2 45:1 48:2 49:1 61:2 62:3 73:1 74:1 77:1 78:1 81:1 90:1 94:1 95:9 132:1 157:1 165:3 178:1 183:1 226:1 229:1 240:9 275:1 295:1 297:1 302:1 336:1 364:1 383:1 384:11 385:1 412:2 417:2 418:2 420:1 421:1 422:2 427:1 461:6 462:1 477:2 480:1 493:1 494:1 506:2 522:1 532:3 548:1 577:3 588:1 594:1 606:1 720:1 738:2 748:1 754:3 755:1 778:1 786:1 796:1 799:1 807:2 823:1 826:2 841:1 864:1 882:1 888:2 889:1 890:1 891:1 892:2 893:1 894:1 895:1 896:4 897:2 898:1 899:1 900:1 901:1 902:2 903:2 904:7 905:2 906:2 907:1 908:3 909:1 910:1 911:1 912:1 913:1 914:2 915:1 916:1 917:1 918:1 919:1 920:1 921:1 922:1 923:1 924:2 925:6 926:7 927:7 928:7 929:7 930:6 931:1 932:1 933:1 934:1 935:1 936:1 937:1 938:1 939:1 940:1 941:1 942:1 943:1 944:1 945:1 946:2 947:1 948:1 949:1 950:1 951:1 952:1 953:1 954:2 955:1 956:1 957:1 958:1 959:1 960:1 961:1 962:2 963:1 964:1 965:3 966:3 967:3 968:3 969:2 970:2 971:1 972:1 973:2 974:1 975:1 976:1 977:1 978:1 979:8 980:2 981:2 982:2 983:2 984:2 985:2 986:1 987:1 988:1 989:1 990:1 991:1 992:7 993:6 994:6 995:1 996:1 997:1 998:1 999:1 1000:1 1001:1 1002:1 1003:1 1004:1 1005:1 1006:2 1007:1 1008:1 1009:1 1010:2 1011:1 1012:1 1013:1 1014:1 1015:1 1016:1 1017:1 1018:1 1019:1 1020:1 1021:1 1022:1 1023:1 1024:1 1025:1 1026:1 1027:1 1028:6 1029:4 1030:2 1031:2 1032:1 1033:4 1034:3 1035:6 1036:1 1037:2 1038:1 1039:1 1040:1 1041:1 1042:1 1043:2 1044:1 1045:2 1046:1 1047:2 1048:2 1049:1 1050:1 1051:1 1052:1 1053:1 1054:1 1055:1 1056:1 1057:1 1058:1 1059:1 1060:1 1061:1 1062:1 1063:1 1064:1 1065:2 1066:1 1067:1 1068:1 1069:2 1070:1 1071:1 #
0.0042360814678347640319100442241051 2:1 61:1 62:1 83:4 121:1 153:1 182:1 220:1 224:1 226:2 247:1 264:2 532:5 584:1 595:9 596:1 704:1 738:1 750:4 766:1 787:1 841:3 842:3 1054:1 1121:1 1655:2 1696:1 1718:1 1878:1 1932:1 2049:1 2124:1 2125:1 2126:1 2127:1 2128:1 2129:1 2130:1 2131:1 2132:1 2133:1 2134:1 2135:1 2136:1 2137:1 2138:1 2139:1 2140:1 2141:1 2142:1 2143:6 2144:1 2145:3 2146:1 2147:1 2148:1 2149:4 2150:1 2151:1 2152:1 2153:1 2154:1 2155:4 2156:1 2157:3 2158:1 2159:1 2160:1 2161:1 #
0.0042360814678347640319100442241051 2:1 10:2 20:1 24:1 25:1 30:2 31:4 61:4 77:2 83:1 85:1 99:2 102:1 111:1 139:1 165:1 173:2 310:2 330:2 532:5 580:1 622:1 667:1 704:1 723:1 770:1 866:1 1103:1 1542:2 1680:1 1742:1 1787:1 1793:3 1817:1 1927:1 1960:2 2008:2 2173:2 2175:3 2277:1 2279:1 2305:2 2320:1 2485:1 2523:1 2524:1 2525:1 2526:1 2527:1 2528:1 2529:1 2530:1 2531:1 2532:1 2533:1 2534:1 2535:1 2536:1 2537:1 2538:2 2539:1 2540:2 2541:1 2542:1 2543:1 2544:3 2545:1 2546:2 2547:1 2548:1 2549:1 2550:1 2551:1 2552:1 2553:1 2554:1 2555:1 2556:1 2557:1 2558:1 2559:1 2560:1 2561:1 2562:1 2563:1 2564:1 2565:1 2566:2 2567:1 2568:1 2569:1 2570:1 2571:1 2572:1 2573:1 2574:1 2575:1 #
-0.0024530500525607071109213119797232 2:2 10:6 31:22 32:1 61:2 62:1 70:1 74:1 81:3 83:1 89:6 93:1 96:1 99:1 102:1 107:5 123:1 126:1 143:3 153:1 171:1 174:1 188:1 194:1 247:1 263:1 264:3 286:2 302:1 313:1 324:2 414:1 462:1 576:6 588:1 596:1 621:1 628:2 731:1 739:1 750:1 760:2 775:2 785:4 826:1 864:1 882:4 895:8 1109:2 1139:1 1140:1 1146:1 1153:1 1198:1 1199:1 1255:1 1262:1 1269:1 1273:2 1278:1 1280:1 1542:1 1544:4 1629:1 1639:1 1657:1 1742:1 1751:1 1762:1 1862:2 1870:1 1872:1 1945:1 1947:1 1980:1 2198:1 2489:2 2579:1 2614:1 3131:1 3615:1 3683:1 3755:4 4096:4 4157:1 4202:4 4267:1 4464:2 4586:1 4606:1 5066:1 5131:1 5303:2 5319:6 6222:1 6578:1 7058:2 8123:3 8154:1 8164:1 8331:2 8440:1 9758:1 9824:1 10733:2 11488:1 12290:1 12326:1 13437:2 14435:1 14497:1 15637:1 16099:1 16501:1 17095:1 17310:2 19871:1 20582:2 20944:1 22616:1 23579:2 23931:1 23932:1 23933:1 23934:1 23935:5 23936:1 23937:1 23938:1 23939:1 23940:4 23941:1 23942:4 23943:1 23944:1 23945:2 23946:1 23947:2 23948:2 23949:2 23950:1 23951:1 23952:1 23953:1 23954:1 23955:1 23956:1 23957:1 23958:1 23959:1 23960:1 23961:1 23962:1 23963:1 23964:1 23965:1 23966:1 23967:1 23968:1 23969:1 23970:1 23971:1 23972:1 23973:1 23974:1 23975:1 23976:1 23977:1 23978:1 23979:1 23980:1 23981:1 23982:1 23983:1 23984:1 23985:1 23986:1 23987:1 23988:1 23989:1 23990:1 23991:1 23992:1 23993:1 23994:1 23995:1 23996:1 23997:1 23998:1 23999:1 24000:1 24001:1 24002:1 24003:1 24004:1 24005:1 24006:1 24007:1 24008:1 24009:1 24010:1 24011:1 24012:2 24013:2 24014:2 24015:1 24016:1 24017:3 24018:1 24019:1 24020:1 24021:1 24022:1 24023:3 24024:1 24025:1 24026:1 24027:2 24028:1 24029:1 24030:1 24031:2 24032:2 24033:3 24034:1 24035:1 24036:1 24037:1 24038:1 24039:1 24040:1 24041:1 24042:1 24043:1 24044:1 24045:1 24046:3 24047:1 24048:3 24049:1 24050:1 24051:1 24052:1 24053:1 24054:2 24055:4 24056:1 24057:1 24058:2 24059:2 24060:2 24061:2 24062:2 24063:2 24064:1 24065:1 24066:1 24067:1 24068:1 24069:1 24070:2 24071:1 24072:1 24073:1 24074:1 #
-0.00079522253898799100894217994905944 10:1 23:1 24:1 46:1 47:1 61:1 62:1 95:46 130:1 194:1 199:1 214:1 229:2 264:1 283:2 300:1 301:4 310:1 579:1 587:1 598:1 611:1 739:3 826:1 841:1 849:1 895:1 963:1 1066:2 1100:1 1153:2 1292:2 1909:1 1962:1 2169:1 2320:1 2350:1 2390:1 2784:1 2896:5 3042:1 3128:2 3737:1 3996:1 4199:1 4927:1 6191:1 7033:1 7919:1 8232:1 8548:2 8552:2 8556:2 8563:3 8868:1 9189:1 11428:2 14631:1 16605:1 16610:2 17359:2 18183:3 18360:1 25832:2 26540:2 26541:1 26542:1 26543:1 26544:1 26545:1 26546:1 26547:2 26548:4 26549:4 26550:2 26551:1 26552:9 26553:1 26554:1 26555:1 26556:1 26557:1 26558:1 26559:1 26560:1 26561:1 26562:2 26563:1 26564:2 26565:1 26566:1 26567:1 26568:1 26569:1 26570:1 26571:17 26572:1 26573:1 26574:1 26575:1 26576:1 26577:1 26578:1 26579:1 26580:1 26581:1 26582:1 26583:1 26584:2 26585:2 26586:2 26587:2 26588:2 26589:2 26590:2 26591:2 26592:2 26593:2 26594:2 26595:2 26596:2 26597:2 26598:2 26599:2 26600:1 26601:1 26602:1 #
-0.0011640953831266117896731104863761 2:1 9:3 10:3 25:1 30:2 32:2 46:1 47:1 48:2 61:6 62:2 74:1 81:3 95:3 102:1 109:3 123:11 171:3 174:1 187:3 188:1 225:1 240:2 263:8 264:1 280:1 310:1 330:1 336:7 539:1 577:1 582:2 584:1 594:1 601:1 606:1 628:1 630:1 636:1 743:1 764:3 769:1 896:3 921:1 963:1 1542:1 1552:3 1633:3 1654:1 1655:1 1756:2 1784:1 1892:1 2068:1 2091:1 2286:1 2320:1 2328:1 2382:1 2508:1 2641:1 2691:2 2802:2 2872:1 2882:2 2896:1 2908:7 2909:1 2910:1 2957:2 2983:1 3033:1 3167:1 3547:1 3649:1 3949:1 4016:1 4155:1 4299:2 4467:1 4933:7 5075:1 5248:1 5375:1 6401:1 6592:1 6909:1 7390:4 7731:4 8295:1 8544:2 8943:1 9535:1 9899:1 10087:1 10542:1 11638:1 12612:1 13530:1 17005:1 20334:2 20337:1 22735:2 22739:4 24534:1 24983:1 24984:1 26682:1 26683:1 26684:3 26685:2 26686:1 26687:1 26688:1 26689:1 26690:1 26691:1 26692:1 26693:1 26694:1 26695:1 26696:2 26697:1 26698:1 26699:1 26700:1 26701:1 26702:1 26703:2 26704:2 26705:2 26706:1 26707:1 26708:1 26709:1 26710:2 26711:1 26712:1 26713:1 26714:1 26715:1 26716:2 26717:1 26718:1 26719:4 26720:4 26721:1 26722:4 26723:1 26724:1 26725:1 26726:1 26727:1 26728:1 26729:1 26730:1 26731:1 26732:1 26733:1 26734:1 26735:1 26736:1 #
0.0042360814678347640319100442241051 7:1 62:1 93:1 121:1 160:1 200:1 577:1 1057:1 1997:1 2353:1 2354:1 2355:1 2356:1 #
0.0042360814678347640319100442241051 62:2 93:1 109:1 131:1 169:1 245:1 532:1 545:1 546:1 878:1 1267:1 1636:2 1883:1 1884:1 1885:1 1886:1 1887:2 1888:1 1889:1 1890:1 1891:1 1892:1 1893:1 #
0.0042360814678347640319100442241051 24:1 74:2 77:1 118:4 169:1 174:1 175:2 197:1 550:1 577:2 1072:1 1073:1 1074:1 1075:1 1076:1 1077:1 1078:1 1079:1 1080:1 1081:1 1082:1 1083:1 1084:1 1085:1 1086:1 1087:2 1088:1 1089:1 1090:3 1091:1 1092:1 1093:1 1094:1 1095:1 1096:1 1097:1 1098:1 1099:1 1100:1 1101:1 1102:1 1103:1 1104:1 #
-0.0003172921096712521659560790610044 2:8 4:4 62:1 152:2 385:4 1054:2 2390:2 3027:1 4451:1 4457:1 5711:4 26382:8 26383:1 26384:2 26385:1 26386:1 26387:1 26388:1 26389:1 #
-0.0042360814678347640319100442241051 4:1 10:3 18:1 20:1 62:1 74:1 83:1 85:1 213:1 220:1 752:1 874:1 899:1 1103:1 1315:1 1597:1 1663:1 1696:3 1894:1 1900:1 2658:1 2738:1 3140:1 5113:1 6048:1 6116:1 6359:2 7488:1 8021:1 9291:1 10139:1 10140:3 10141:1 10142:1 10143:1 10144:2 10145:1 10146:2 10147:1 #
-0.0042360814678347640319100442241051 49:1 62:1 74:1 121:1 153:1 292:2 532:2 748:1 826:3 1078:1 1761:1 2320:2 3122:1 3834:2 3991:2 4183:2 8101:1 11663:2 11664:1 11665:1 11666:1 #
-0.0010407113560071646566479452999943 6:2 15:1 18:2 24:2 62:3 65:1 98:5 114:2 135:2 153:7 187:1 206:1 229:1 280:1 538:1 546:3 664:3 1639:1 1902:1 1908:3 2328:2 2419:1 2769:1 3028:1 3239:1 3689:1 3861:1 6103:1 6117:2 8198:1 8200:1 8260:1 11440:1 12618:1 12827:1 12828:1 12829:1 #
-0.00037495134121193966596219393494493 62:2 96:1 102:1 123:1 130:1 142:1 173:1 174:1 738:2 800:1 816:2 822:1 825:1 842:1 1099:1 1126:1 1141:1 1951:2 2276:1 2508:1 2524:1 2646:1 2876:1 3371:1 3412:1 3634:1 3674:1 4145:1 4548:1 4985:2 5085:1 5666:1 5764:1 6240:2 6396:1 17831:1 18823:2 19570:4 23002:1 23003:1 23004:1 23005:1 23006:1 23007:2 23008:2 23009:2 23010:1 23011:1 #
0.00078826876119274648466866972640332 6:1 10:3 15:2 24:1 25:1 30:4 61:1 74:5 82:1 83:2 85:1 90:1 94:1 109:1 118:1 123:32 138:1 148:1 153:4 187:2 194:1 220:1 229:4 240:1 263:8 278:1 310:4 311:1 330:4 334:2 584:2 616:1 636:2 640:1 728:1 738:4 786:3 787:1 799:1 841:9 874:1 889:1 897:1 947:4 951:1 957:1 1103:1 1275:3 1587:1 1652:1 1655:1 1659:1 1703:10 1714:10 1718:14 1730:1 1735:1 1739:1 1741:1 1744:1 1853:2 1899:1 1904:1 2114:1 2245:1 2304:2 2331:2 2460:1 2463:1 2471:1 2488:6 2494:2 2501:4 2512:1 2727:1 2763:1 2764:1 2765:1 2766:1 2767:1 2768:1 2769:1 2770:1 2771:1 2772:1 2773:3 2774:1 2775:1 2776:1 2777:1 2778:1 2779:1 2780:1 2781:1 2782:1 2783:2 2784:1 2785:1 2786:1 2787:1 2788:1 2789:2 2790:3 2791:4 2792:1 2793:2 2794:1 2795:1 2796:1 2797:3 2798:3 2799:9 2800:2 2801:2 2802:1 2803:1 2804:1 2805:2 2806:1 2807:3 2808:1 2809:1 2810:5 2811:1 2812:1 2813:1 2814:1 2815:1 2816:1 2817:1 2818:1 2819:1 2820:1 2821:1 2822:2 2823:3 2824:3 2825:3 2826:3 2827:4 2828:2 2829:1 2830:1 2831:1 2832:3 2833:2 2834:1 2835:2 2836:5 2837:1 2838:1 2839:1 2840:2 2841:1 2842:1 2843:1 2844:1 2845:1 2846:1 2847:1 2848:1 2849:4 2850:4 2851:1 2852:1 2853:1 2854:1 2855:1 2856:1 2857:1 2858:1 2859:1 2860:1 2861:1 2862:1 2863:1 2864:1 2865:1 2866:1 2867:1 #
0.00010547985335361587686062861957126 9:1 10:2 18:1 30:3 32:2 48:1 61:5 70:1 74:2 77:1 99:1 109:1 110:1 114:1 121:1 153:2 169:2 187:1 189:1 198:1 199:1 214:46 300:1 330:4 532:7 538:2 576:4 577:2 578:1 588:1 590:1 593:2 607:1 624:3 659:3 667:1 693:1 751:1 754:1 755:1 769:3 773:1 774:1 778:1 779:1 874:1 885:25 916:1 1535:1 1542:3 1579:1 1750:2 1755:2 1784:6 1832:2 1980:1 2040:1 2057:1 2175:5 2243:1 2351:2 2382:1 2448:1 2654:1 2691:138 2696:1 2727:1 2868:1 2869:1 2870:2 2871:1 2872:6 2873:1 2874:1 2875:1 2876:1 2877:1 2878:1 2879:1 2880:1 2881:1 2882:3 2883:1 2884:2 2885:1 2886:1 2887:1 2888:8 2889:1 2890:1 2891:1 2892:1 2893:1 2894:1 2895:1 2896:1 2897:1 2898:1 2899:1 2900:1 2901:1 2902:1 2903:1 2904:1 2905:1 2906:1 2907:1 2908:3 2909:1 2910:1 2911:23 2912:1 2913:11 2914:11 2915:11 2916:8 2917:1 2918:1 2919:1 2920:2 2921:1 2922:2 2923:4 2924:3 2925:1 2926:2 2927:2 2928:37 2929:4 2930:6 2931:2 2932:1 2933:1 2934:1 2935:1 2936:2 2937:1 2938:1 2939:27 2940:1 2941:1 2942:6 2943:1 2944:3 2945:2 2946:1 2947:2 2948:3 2949:3 2950:2 2951:1 2952:1 2953:1 2954:7 2955:2 2956:2 2957:3 2958:1 2959:1 2960:1 2961:1 2962:32 2963:1 2964:1 2965:2 2966:9 2967:1 2968:2 2969:1 2970:1 2971:2 2972:1 2973:1 2974:1 2975:1 2976:2 2977:3 2978:1 2979:4 2980:4 2981:1 2982:3 2983:3 2984:3 2985:12 2986:1 2987:1 2988:1 2989:1 2990:1 2991:2 2992:1 2993:1 2994:1 2995:1 2996:2 2997:1 2998:1 2999:1 3000:1 3001:1 3002:1 3003:1 3004:5 3005:3 3006:1 3007:3 3008:3 3009:1 3010:1 3011:1 3012:1 3013:1 3014:1 3015:1 3016:2 3017:1 3018:1 3019:1 3020:1 3021:1 3022:1 3023:2 3024:1 3025:1 #
-0.0001050565544038133900797346576006 10:1 20:1 30:1 61:4 95:3 107:1 109:1 114:3 123:2 173:1 189:1 213:1 214:37 225:1 240:1 247:1 263:2 272:2 278:2 281:1 336:4 538:2 577:1 582:1 596:1 606:1 769:1 876:1 885:15 896:1 901:1 921:1 963:1 1060:1 1066:4 1070:1 1535:1 1750:2 1892:1 2080:1 2185:1 2249:2 2252:2 2382:1 2654:1 2691:94 2784:1 2872:4 2908:1 2910:1 2914:3 2915:3 2928:11 2929:2 2930:3 2931:1 2939:4 2942:2 2949:1 2961:2 2962:33 2963:1 2964:1 2965:2 2966:8 2967:1 2968:2 2970:1 2971:2 2972:1 2976:2 2977:3 2978:1 2979:4 2981:1 2982:3 2983:3 2984:3 2985:12 2986:1 2987:1 2988:1 2989:1 2990:1 2991:2 2992:1 2996:2 2998:1 2999:1 3000:1 3003:1 3004:5 3005:3 3006:1 3007:3 3008:3 3012:1 3013:1 3014:1 3016:2 3017:1 3018:1 3019:1 3020:1 3021:1 3022:1 3023:2 3024:1 3025:1 3755:1 3766:1 4827:1 5075:1 5310:1 5358:2 5465:1 5602:2 6180:1 6356:1 6931:1 6961:4 7390:2 8544:1 10934:1 11746:1 12098:5 14510:1 20337:1 20753:1 22716:1 22717:2 22718:1 22719:1 22720:1 22721:1 22722:1 22723:1 22724:1 22725:1 22726:1 22727:1 22728:1 22729:1 22730:1 22731:1 22732:1 22733:1 22734:1 22735:1 22736:1 22737:1 22738:21 22739:18 22740:18 22741:2 22742:1 22743:2 22744:6 22745:1 22746:1 22747:5 22748:2 22749:1 22750:1 22751:1 22752:2 22753:1 22754:2 22755:1 22756:1 22757:1 22758:1 22759:2 22760:2 22761:1 22762:3 22763:3 22764:1 22765:1 22766:1 #
-0.0038717340454596732915448775713685 10:1 24:1 30:5 31:1 61:1 62:2 67:1 74:1 83:2 90:1 132:1 153:3 159:1 229:7 260:1 263:5 310:2 330:2 334:1 611:1 675:1 786:3 947:2 957:1 1070:1 1542:1 1714:3 1718:2 1729:1 1735:2 1739:1 1786:1 1791:3 1853:1 2283:1 2304:2 2494:2 2512:1 2764:1 2765:1 2789:2 2849:4 2850:4 2855:2 2857:1 4154:4 7921:1 10298:1 11922:6 18648:1 18649:2 18650:2 18651:1 18652:1 18653:1 18654:1 18655:2 18656:1 18657:1 18658:1 #
-8.0629967029009796172095425603743e-05 2:1 6:3 9:2 30:3 31:1 48:3 61:1 62:1 67:2 81:2 95:1 107:1 122:2 123:6 132:1 142:1 159:1 182:1 229:4 232:1 248:1 263:3 290:8 331:2 336:1 364:3 594:5 616:1 636:1 739:1 787:2 947:1 963:1 1103:1 1275:4 1542:1 1610:3 1637:2 1655:1 1701:3 1714:7 1718:5 1729:1 1793:1 1794:1 2249:4 2401:1 2463:1 2536:1 2684:1 2764:1 2765:1 2787:1 2818:1 2896:1 3153:2 3597:3 3650:1 4547:1 4958:5 4978:8 5018:1 5587:8 5701:1 6440:2 6482:5 6945:1 7463:2 8634:1 11923:1 12228:1 16956:1 18505:1 21993:1 22162:5 26262:2 26263:1 26264:7 26265:1 26266:1 26267:4 26268:4 26269:3 26270:3 26271:3 26272:4 26273:5 26274:4 26275:6 26276:3 26277:5 26278:14 26279:2 26280:2 26281:2 26282:1 26283:1 26284:1 26285:2 26286:3 26287:1 26288:1 26289:1 26290:2 26291:1 26292:4 26293:1 26294:8 26295:7 26296:2 26297:2 26298:2 26299:2 26300:1 26301:1 26302:2 26303:1 26304:1 26305:1 #
-0.00016462506365243174477966392466044 18:1 27:24 30:2 62:1 68:1 114:2 118:3 127:1 131:6 132:1 165:2 182:1 214:1 225:1 229:1 272:4 273:2 300:1 577:7 581:1 784:1 816:4 841:5 911:1 947:1 1041:2 1059:1 1099:1 1610:2 1670:4 1690:2 1742:1 1946:1 2049:17 2079:1 2098:8 2320:1 2330:2 2390:1 2393:1 2526:1 3042:1 3045:1 3379:2 3678:1 4344:1 4455:1 4600:1 5664:1 6833:1 6931:1 8096:1 10505:1 16557:1 28077:1 28078:1 28079:5 28080:3 28081:2 28082:5 28083:3 28084:1 28085:1 28086:1 28087:1 28088:1 28089:1 28090:1 28091:1 28092:1 28093:1 28094:1 #
-0.0025237977235327540420639635954103 123:1 263:1 347:3 580:1 738:5 1693:1 1745:1 3131:1 4273:1 9476:2 9477:2 9478:1 #
0.0042360814678347640319100442241051 10:4 22:1 48:1 93:1 99:2 102:2 174:1 195:2 216:1 245:1 336:3 558:4 563:1 579:1 623:1 668:1 878:1 879:1 1078:1 1535:2 1673:1 1892:2 2488:1 2776:1 2874:1 3026:1 3027:1 3028:1 3029:1 3030:1 3031:2 3032:2 3033:1 3034:3 3035:1 3036:2 3037:1 3038:1 3039:1 3040:1 #
0.0042360814678347640319100442241051 10:2 61:2 62:1 165:1 462:2 606:1 751:1 1315:1 1765:1 1766:1 1767:1 1768:1 1769:1 1770:1 1771:1 1772:2 1773:1 1774:1 1775:1 1776:1 1777:2 1778:2 1779:1 1780:1 1781:1 #
-0.0042360814678347640319100442241051 10:2 74:1 102:1 1951:1 2128:2 2757:1 3859:1 4251:1 4652:1 4670:1 5859:1 18820:1 21890:1 21891:1 21892:1 #
-0.00030406459335422089456865690770826 2:1 61:1 62:2 102:1 149:1 202:1 214:1 229:3 258:1 263:1 300:1 303:2 558:2 580:1 584:1 796:1 895:1 1499:2 1597:1 1718:3 1928:1 2084:1 3030:1 3330:1 3680:1 4292:1 5113:1 7879:1 9839:1 9840:1 9841:3 9842:1 9843:1 9844:2 9845:2 9846:3 9847:1 9848:1 9849:1 9850:1 9851:2 9852:2 9853:1 9854:1 9855:2 9856:1 9857:2 9858:1 9859:2 9860:1 9861:1 #
-0.0021744399316852647610631699137684 1:2 4:1 10:1 23:2 72:2 73:1 74:1 82:2 102:1 115:1 141:1 142:1 154:1 156:2 187:1 267:2 281:1 283:1 285:1 302:1 338:5 484:1 548:1 881:1 895:1 1311:1 1497:1 1515:1 1579:1 1636:3 1728:1 1816:1 2032:1 2351:2 2637:1 2757:1 2758:2 3131:1 3614:1 3766:1 3809:1 4321:1 4511:1 4819:1 9117:1 9639:1 9995:1 14914:1 21965:1 21966:1 21967:3 21968:1 21969:1 21970:1 21971:1 21972:1 21973:1 #
0.0042360814678347640319100442241051 2:2 22:1 24:1 27:2 30:3 61:2 62:1 93:2 96:1 102:1 132:1 173:2 199:2 229:1 452:1 579:2 796:1 1597:1 1598:2 1599:3 1600:2 1601:1 1602:1 1603:1 1604:1 1605:1 1606:1 1607:1 1608:1 1609:1 1610:1 1611:1 1612:1 1613:1 1614:1 1615:1 1616:1 1617:1 1618:1 1619:3 1620:1 1621:3 1622:1 1623:1 1624:1 1625:2 1626:1 1627:1 1628:1 1629:1 1630:1 #
0.0042360814678347640319100442241051 4:1 10:3 15:1 18:1 31:2 34:2 61:1 62:1 74:2 77:1 83:1 85:1 93:1 102:1 109:1 123:5 153:1 174:1 197:1 200:1 214:2 220:2 226:1 229:3 263:3 558:1 731:1 739:1 754:2 841:4 947:1 954:1 1061:1 1066:1 1315:1 1657:1 1700:1 1701:1 1702:1 1703:2 1704:1 1705:1 1706:1 1707:1 1708:1 1709:1 1710:1 1711:1 1712:1 1713:1 1714:3 1715:4 1716:1 1717:1 1718:2 1719:1 1720:1 1721:1 1722:1 1723:1 1724:1 1725:1 1726:2 1727:1 1728:2 1729:2 1730:1 1731:2 1732:2 1733:2 1734:2 1735:3 1736:3 1737:4 1738:1 1739:1 1740:1 1741:1 #
-0.0020368184291054045563507113314472 4:1 62:1 72:1 263:2 280:1 383:1 558:1 593:1 640:2 677:1 750:4 840:1 883:5 963:1 1041:1 1077:1 1078:1 1495:4 1496:3 1657:1 1693:1 1742:1 1921:2 2083:1 2390:1 2465:1 3039:1 3131:1 3140:1 3649:1 3939:1 4157:1 4282:1 4404:2 4430:1 4496:1 5862:1 5938:1 6892:1 7278:2 9000:1 9001:1 9002:1 9003:1 9004:1 9005:1 9006:1 9007:1 9008:1 9009:1 9010:1 9011:1 9012:1 9013:2 9014:1 9015:1 9016:1 9017:1 9018:1 9019:1 9020:1 9021:1 9022:1 9023:1 9024:1 9025:1 #
-0.0042360814678347640319100442241051 7:1 10:2 62:1 155:2 178:1 225:2 267:2 336:1 754:3 1055:1 1066:1 1579:4 1613:1 1652:2 1892:1 1911:4 1959:1 2040:1 2074:1 3131:1 3233:2 3834:1 4177:1 4291:1 4404:1 5085:1 5397:1 5403:1 8951:1 9862:1 11366:1 11381:1 11947:1 11948:1 11949:1 11950:1 11951:1 11952:1 11953:1 11954:1 11955:1 11956:1 11957:1 11958:1 #
-0.00065396532667285776820736975523118 6:1 22:2 61:1 84:1 102:2 110:4 131:1 153:1 187:1 302:1 331:2 546:3 557:2 738:1 797:1 911:1 1642:1 1893:1 2467:2 2473:1 2689:4 2874:1 3540:1 3612:1 3676:1 3689:1 3710:1 5382:1 5411:1 5457:1 5458:2 5459:1 5460:1 5461:1 5462:1 5463:1 5464:3 5465:1 5466:1 5467:1 5468:1 #
0.00075573210135562696957572947908943 2:1 10:4 27:4 61:1 70:1 74:1 81:5 83:1 94:4 95:10 121:1 142:1 171:1 335:1 384:1 385:1 394:1 411:2 414:1 421:2 422:1 452:1 487:1 576:1 645:2 750:4 760:1 761:1 787:1 826:1 847:1 882:1 883:1 898:3 970:2 1055:1 1109:2 1123:2 1124:1 1125:1 1126:1 1127:3 1128:1 1129:1 1130:1 1131:1 1132:1 1133:1 1134:1 1135:1 1136:1 1137:1 1138:1 1139:1 1140:1 1141:1 1142:1 1143:9 1144:1 1145:1 1146:1 1147:3 1148:1 1149:1 1150:1 1151:1 1152:1 1153:2 1154:1 1155:1 1156:1 1157:1 1158:1 1159:1 1160:1 1161:1 1162:2 1163:1 1164:1 1165:1 1166:1 1167:1 1168:1 1169:1 1170:1 1171:1 1172:1 1173:1 1174:1 1175:1 1176:1 1177:1 1178:1 1179:1 1180:1 1181:1 1182:1 1183:1 1184:1 1185:1 1186:1 1187:1 1188:1 1189:1 1190:1 1191:1 1192:1 1193:1 1194:1 1195:1 1196:1 1197:3 1198:1 1199:2 1200:1 1201:2 1202:1 1203:1 1204:1 1205:1 1206:1 1207:1 1208:1 1209:1 1210:1 1211:1 1212:1 1213:1 1214:1 1215:1 1216:1 1217:1 1218:1 1219:1 1220:1 1221:1 1222:1 1223:1 1224:1 1225:1 1226:1 1227:1 1228:1 1229:1 1230:1 1231:1 1232:1 1233:1 1234:1 1235:1 1236:1 1237:1 1238:1 1239:1 1240:1 1241:1 1242:1 1243:1 1244:1 1245:1 1246:1 1247:1 1248:1 1249:1 1250:1 1251:1 1252:1 1253:1 1254:3 1255:1 1256:1 1257:1 1258:1 1259:1 1260:1 1261:1 1262:1 1263:2 1264:4 1265:3 1266:3 1267:3 1268:1 1269:1 1270:1 1271:1 1272:1 1273:1 1274:1 1275:1 1276:2 1277:1 1278:1 1279:1 1280:1 1281:1 1282:1 1283:1 1284:1 1285:1 1286:1 1287:1 1288:4 1289:6 1290:4 1291:5 1292:5 1293:1 1294:1 1295:1 1296:4 1297:1 1298:1 1299:1 1300:2 1301:2 1302:2 1303:1 1304:1 1305:2 1306:1 1307:1 1308:1 1309:1 1310:1 1311:1 1312:1 1313:1 1314:1 1315:1 1316:1 1317:1 1318:1 1319:1 1320:1 1321:1 1322:1 1323:2 1324:1 1325:1 1326:1 1327:1 1328:1 1329:1 1330:1 1331:1 1332:1 1333:1 1334:1 1335:1 1336:1 1337:1 1338:1 1339:1 1340:1 1341:1 1342:1 1343:1 1344:1 1345:1 1346:1 1347:1 1348:1 1349:1 1350:1 1351:1 1352:1 1353:1 1354:1 1355:1 1356:1 1357:1 1358:1 1359:1 1360:1 1361:1 1362:1 1363:1 1364:1 1365:1 1366:1 1367:1 1368:1 1369:1 1370:1 1371:1 1372:1 1373:1 1374:1 1375:1 1376:1 1377:1 1378:1 1379:1 1380:1 1381:1 1382:1 1383:1 1384:1 1385:1 1386:1 1387:1 1388:1 1389:1 1390:1 1391:1 1392:1 1393:1 1394:1 1395:1 1396:1 1397:1 1398:1 1399:1 1400:1 1401:1 1402:1 1403:1 1404:1 1405:1 1406:1 1407:1 1408:1 1409:1 1410:1 1411:1 1412:1 1413:1 1414:1 1415:1 1416:1 1417:1 1418:1 1419:1 1420:1 1421:1 1422:1 1423:1 1424:1 1425:1 1426:1 1427:1 1428:1 1429:1 1430:1 1431:1 1432:1 1433:1 1434:1 1435:1 1436:1 1437:1 1438:1 1439:1 1440:1 1441:1 1442:1 1443:1 1444:1 1445:1 1446:1 1447:1 1448:1 1449:1 1450:1 1451:1 1452:1 1453:1 1454:1 1455:1 1456:1 1457:1 1458:1 1459:1 1460:1 1461:1 1462:1 1463:1 1464:1 1465:1 1466:1 1467:1 1468:1 1469:1 1470:1 1471:1 1472:1 1473:1 1474:1 1475:1 1476:1 1477:1 1478:1 1479:1 1480:1 1481:1 1482:1 1483:1 1484:1 1485:1 1486:1 1487:1 1488:1 1489:1 1490:1 1491:1 1492:1 1493:1 1494:1 #
0.0042360814678347640319100442241051 4:4 6:2 7:1 10:4 27:1 62:2 74:4 117:1 153:1 248:1 336:3 611:1 786:1 807:1 1315:2 1542:1 1696:3 1854:1 2043:2 2044:1 2045:1 2046:1 2047:1 2048:1 2049:1 2050:1 2051:1 2052:1 2053:1 2054:1 2055:1 2056:1 2057:1 2058:1 2059:1 2060:2 2061:2 2062:2 2063:2 2064:4 2065:2 2066:1 2067:1 2068:1 2069:1 2070:1 2071:1 2072:2 2073:2 2074:1 2075:1 2076:1 2077:1 2078:1 2079:1 2080:1 2081:1 #
-0.0017407132678751804401307001768373 30:1 32:1 61:1 62:2 74:3 602:1 911:1 1055:1 1696:1 1718:5 3145:1 4405:1 5245:1 7846:1 8356:2 12468:1 16034:2 16301:1 16302:1 16303:1 16304:1 16305:3 16306:3 16307:1 #
-0.0042360814678347640319100442241051 10:2 20:1 61:1 62:1 74:1 81:1 556:1 606:1 874:1 883:1 1617:1 1619:1 2330:1 2419:1 4832:1 8378:1 14008:1 14009:1 14010:1 14011:1 14012:1 14013:1 14014:1 14015:1 14016:1 14017:1 14018:1 14019:1 14020:1 #
-0.0032492075635887057022399559969017 73:1 74:2 93:2 187:1 325:2 576:1 577:4 616:1 754:1 775:7 874:1 1141:1 2173:2 2238:1 3762:1 10736:1 10737:1 #
-0.0042360814678347640319100442241051 22:1 62:4 189:1 292:3 532:2 743:1 1315:1 1661:1 1704:3 1735:1 1955:1 2870:1 4238:1 5113:2 11110:1 12496:1 #
-9.2104851779605342474918638906445e-05 2:1 6:1 30:1 62:3 96:1 102:1 147:1 174:1 203:1 546:6 584:1 637:1 653:2 667:1 744:1 841:1 1055:1 1058:1 1598:1 1636:1 1654:1 1655:1 1690:1 1882:1 2068:1 2128:1 2390:1 2519:1 2567:1 2657:1 2658:1 2660:2 2869:1 2870:1 3038:1 3039:1 3131:1 3235:1 3239:1 3432:1 3668:1 3683:1 3688:1 3689:1 3690:1 3691:2 3692:1 3693:1 3694:1 3695:1 3696:1 3697:1 3698:1 3699:3 3700:1 3701:1 3702:1 3703:1 3704:1 3705:1 3706:1 3707:1 3708:1 3709:1 3710:1 3711:1 3712:1 3713:1 3714:1 3715:1 3716:1 3717:1 3718:1 3719:1 3720:1 3721:1 3722:3 3723:2 3724:1 3725:1 3726:1 3727:1 3728:1 3729:1 3730:1 3731:1 3732:1 3733:1 3734:1 3735:1 3736:1 3737:1 3738:1 3739:1 3740:1 3741:1 3742:1 #
0.0042360814678347640319100442241051 1:1 2:3 10:2 24:2 30:1 32:1 48:1 61:2 62:1 70:1 83:1 85:1 95:3 102:2 121:1 122:1 171:3 173:1 194:1 218:1 302:1 310:1 330:2 508:3 532:1 550:1 576:1 577:2 593:1 655:1 656:1 657:1 658:1 659:1 675:1 676:6 678:8 692:1 696:1 700:1 713:1 720:1 732:1 738:10 889:1 895:1 1069:1 1109:1 1502:1 1511:1 1512:1 1513:1 1514:1 1515:1 1516:1 1517:1 1518:1 1519:1 1520:1 1521:1 1522:2 1523:1 1524:5 1525:2 1526:2 1527:2 1528:2 1529:1 1530:1 1531:2 1532:1 1533:1 1534:1 1535:1 1536:1 1537:1 1538:1 1539:1 1540:1 1541:1 1542:1 1543:1 1544:1 1545:1 #
0.0042360814678347640319100442241051 9:1 10:6 32:1 48:1 61:3 62:2 70:1 81:1 83:1 92:1 95:8 99:1 171:1 205:1 225:1 229:3 263:1 278:1 286:1 330:1 336:3 576:2 581:1 582:1 584:2 590:1 606:1 639:1 659:1 693:1 699:1 747:1 748:1 749:1 750:2 751:1 752:1 753:1 754:3 755:1 756:1 757:1 758:1 759:2 760:1 761:1 762:2 763:1 764:1 765:1 766:1 767:1 768:1 769:1 770:1 771:1 772:1 773:1 774:1 775:1 776:1 777:1 778:1 779:1 780:1 781:1 782:1 783:1 784:1 #
0.0040474724741480245376878954743916 2:1 10:3 61:1 62:1 81:2 83:3 93:1 95:3 117:1 123:4 131:2 132:1 158:1 205:1 229:1 263:3 292:1 539:1 841:2 866:1 883:1 1652:2 1704:2 1714:3 1718:2 1738:1 1782:1 1783:1 1784:1 1785:1 1786:1 1787:1 1788:3 1789:2 1790:1 1791:1 1792:1 1793:1 1794:1 1795:1 1796:1 1797:1 1798:1 1799:1 1800:11 1801:1 1802:8 1803:1 1804:1 1805:1 #
0.0042360814678347640319100442241051 9:1 10:2 20:1 27:2 30:1 31:2 41:2 48:1 61:1 77:1 78:1 85:2 95:1 99:1 102:1 121:1 142:2 178:1 183:1 225:1 247:1 263:1 330:1 532:2 560:1 573:1 576:7 577:1 604:1 659:1 754:2 755:1 766:1 878:1 896:1 946:2 951:1 961:1 1012:1 1013:1 1806:1 1807:1 1808:1 1809:1 1810:1 1811:1 1812:1 1813:1 1814:1 1815:1 1816:1 1817:1 1818:2 1819:1 1820:1 1821:1 1822:1 1823:1 1824:1 1825:1 1826:1 1827:1 1828:1 1829:1 1830:1 1831:1 1832:1 1833:1 1834:1 1835:1 1836:1 1837:1 1838:1 1839:1 1840:1 1841:1 1842:1 1843:1 1844:1 1845:1 #
-0.001496060455806686893473478328076 2:1 10:1 30:2 31:1 32:2 60:4 61:3 62:1 95:60 225:2 229:1 275:1 336:2 414:1 653:2 658:1 760:2 766:1 785:7 1031:6 1281:2 1539:1 1552:1 1639:2 1751:1 1848:1 1882:1 1935:2 2564:1 2896:2 3047:1 3354:1 3407:1 4199:1 5123:1 5432:2 8250:1 8634:2 9836:2 11868:1 12613:1 13882:3 14324:2 15640:1 16272:1 17033:2 17451:1 17455:1 19507:1 19987:1 28186:1 28187:1 28188:1 28189:1 28190:1 28191:1 28192:1 28193:1 28194:1 28195:1 28196:1 28197:1 28198:1 28199:1 28200:4 28201:1 28202:1 28203:1 28204:1 28205:1 28206:2 28207:2 28208:2 28209:2 28210:2 28211:2 28212:2 28213:2 28214:2 28215:2 28216:2 28217:2 28218:2 28219:2 28220:2 28221:2 28222:2 28223:2 28224:2 28225:2 28226:2 28227:2 28228:2 28229:1 28230:1 28231:1 28232:1 28233:2 28234:2 28235:1 28236:1 28237:1 #
-0.00029167289895300012834977732012476 62:1 123:2 158:1 311:1 550:2 645:1 944:1 1552:2 1661:1 1748:1 2114:2 2120:1 2149:2 2465:1 2485:2 2567:1 3028:1 3153:1 3362:2 3808:2 4091:1 4930:1 5303:1 5408:1 5474:1 5598:1 6945:1 7937:1 7940:1 8050:2 8613:1 9197:1 9438:1 12761:1 13443:3 13444:2 13445:1 13446:1 13447:2 #
-0.0042360814678347640319100442241051 2:1 6:2 9:1 10:3 48:4 61:1 62:1 74:1 123:1 225:2 248:1 280:1 336:2 594:2 656:1 738:2 783:1 1105:1 1535:2 1655:1 1701:1 1712:1 1784:1 1859:3 1892:3 2783:1 3105:1 3120:1 3300:1 3450:1 3648:1 7259:2 7568:1 8105:1 8424:1 8455:1 8899:2 8935:2 11005:1 11006:1 11007:1 11008:1 11009:3 11010:2 11011:1 11012:1 11013:1 11014:1 11015:2 11016:1 11017:1 11018:1 11019:2 11020:2 11021:1 #
-3.8283267582789868611892192262758e-05 18:1 32:2 61:2 62:1 67:1 77:1 107:2 114:2 131:1 133:2 137:1 182:2 216:1 229:1 247:1 275:1 322:4 550:2 567:1 732:4 738:13 749:1 786:18 796:1 847:1 963:1 1109:2 1639:1 1787:1 2075:1 2196:1 2344:2 2419:1 3707:2 3991:1 4096:8 4709:1 4730:2 4938:1 5610:1 6409:1 8436:1 8437:1 8438:1 8439:1 8440:1 8441:4 8442:2 8443:5 8444:2 8445:2 8446:2 8447:3 8448:1 8449:1 8450:1 8451:1 8452:1 8453:1 #
-2.4340013671132823276210127572128e-05 2:1 3:1 7:1 10:1 20:1 22:4 25:1 30:3 33:3 48:1 61:3 74:1 102:3 110:1 111:4 115:1 118:8 120:2 123:2 130:1 131:14 132:15 133:1 141:4 149:1 152:3 173:1 174:1 214:1 217:1 220:1 225:1 229:5 248:2 264:4 310:3 313:2 322:1 330:6 336:1 344:3 550:3 558:2 584:2 587:1 588:1 590:1 640:1 658:2 720:2 731:11 742:1 785:1 806:1 821:1 896:1 990:1 1016:1 1026:1 1041:4 1055:4 1098:10 1105:1 1121:1 1495:1 1515:1 1539:1 1544:2 1552:1 1600:4 1636:2 1710:1 1742:1 1746:8 1766:1 1772:2 1787:1 1793:5 1832:1 1898:3 1928:1 1934:3 1935:3 1953:1 1960:2 1980:1 2008:1 2045:1 2068:1 2098:1 2189:4 2205:4 2271:1 2277:2 2465:1 2524:1 2580:1 2642:1 2646:13 2647:1 2782:4 3121:1 3155:2 3321:1 3339:1 3354:3 3361:3 3434:3 3533:1 3611:1 3637:1 3641:1 3647:1 3650:1 3715:3 3748:35 3750:1 3928:8 3949:2 4027:1 4177:1 4246:4 4260:1 4266:1 4471:4 4533:2 4534:2 4669:2 4717:1 4968:1 4969:1 5054:2 5102:1 5330:3 5373:1 5393:2 5408:2 5412:1 5530:1 5704:1 5709:2 5710:1 5939:1 6035:1 6363:1 6830:1 6850:2 6914:2 6919:2 7569:1 7835:1 7907:4 8198:1 9030:1 9050:1 9052:2 9092:1 9161:2 10027:2 10136:2 11022:1 11023:1 11024:1 11025:1 11026:12 11027:12 11028:2 11029:1 11030:1 11031:1 11032:1 11033:3 11034:1 11035:1 11036:1 11037:1 11038:1 11039:3 11040:1 11041:1 11042:2 11043:1 11044:1 11045:1 11046:1 11047:1 11048:5 11049:3 11050:1 11051:3 11052:1 11053:1 11054:1 11055:1 11056:2 11057:2 11058:1 11059:1 11060:1 11061:3 11062:1 11063:3 11064:1 11065:1 11066:4 11067:1 11068:1 11069:6 11070:1 11071:2 11072:2 11073:1 11074:1 11075:1 11076:1 11077:1 11078:1 11079:1 11080:1 11081:1 11082:1 11083:1 11084:2 11085:4 11086:3 11087:2 11088:1 11089:2 11090:1 11091:1 11092:1 11093:1 11094:1 11095:2 11096:1 11097:1 11098:2 11099:2 11100:1 11101:1 11102:1 11103:1 11104:1 11105:1 11106:2 11107:1 11108:1 11109:1 11110:2 11111:2 11112:1 11113:17 11114:4 11115:3 11116:1 11117:1 11118:1 11119:1 11120:5 11121:1 11122:1 11123:1 11124:3 11125:3 11126:1 11127:1 11128:1 11129:5 11130:1 11131:1 11132:1 11133:1 11134:1 11135:1 11136:1 11137:1 11138:1 11139:1 11140:1 11141:2 11142:1 11143:1 11144:3 11145:1 11146:1 11147:1 11148:1 11149:1 11150:1 11151:1 11152:3 11153:3 11154:1 11155:1 11156:1 11157:2 11158:1 11159:2 11160:1 11161:1 11162:1 11163:1 11164:2 11165:1 11166:1 11167:1 11168:1 11169:1 11170:1 11171:1 11172:1 11173:1 11174:1 11175:1 11176:1 11177:1 11178:6 11179:1 11180:1 11181:1 11182:1 11183:1 11184:1 11185:1 11186:1 11187:1 11188:1 11189:1 11190:1 11191:1 11192:1 11193:1 11194:1 #
-0.0042360814678347640319100442241051 9:1 22:1 32:1 48:1 61:1 74:1 95:1 102:2 107:1 171:3 330:2 532:1 576:3 581:1 588:1 590:1 606:1 659:1 693:1 754:1 755:1 769:1 774:1 775:1 778:1 779:1 911:1 1061:1 1517:1 1960:1 1980:1 2175:5 2524:1 2681:1 2888:5 2889:1 2890:1 3946:1 4070:2 4315:1 4586:1 6111:1 10256:2 30923:2 30924:1 #
-0.00081726993626828764189645726290223 8:1 22:1 24:1 26:1 28:1 30:1 31:1 62:1 70:2 119:1 126:1 127:2 152:1 174:1 175:1 183:1 220:2 577:22 580:1 584:1 598:1 654:1 739:4 908:1 912:1 1067:1 1095:1 1105:1 1552:7 1677:2 1691:1 1744:1 1766:2 1883:3 1975:3 2034:1 2049:3 2074:1 2079:1 2277:1 2332:1 2343:1 2344:2 2351:5 2564:2 2657:1 2722:1 2876:1 3027:1 3030:1 3046:1 3351:1 3479:1 3679:1 3720:1 3950:3 3990:1 4017:1 4229:1 4344:3 4593:1 5194:1 5317:1 7164:1 7316:1 8904:1 9604:1 11242:5 11531:1 12565:1 16217:1 16218:1 16219:6 16220:1 16221:2 16222:1 16223:1 16224:1 16225:1 16226:1 16227:1 16228:1 16229:1 16230:1 16231:2 16232:1 #
-0.0012689274148451354460448436967113 2:2 9:2 10:2 11:1 21:1 27:3 34:1 48:2 61:1 95:6 96:1 102:1 225:2 240:3 296:1 297:1 313:1 330:1 334:1 356:5 383:1 385:2 391:7 393:2 397:2 411:2 412:2 417:2 418:2 420:2 421:2 422:2 450:2 451:2 457:2 458:2 462:8 525:1 550:1 610:1 616:1 738:1 800:1 879:1 896:1 944:1 970:1 1024:2 1070:2 1329:4 1542:1 1562:2 1642:1 2429:5 2654:2 2865:2 4902:1 4999:2 5542:1 6920:1 7911:2 8442:2 8543:2 8544:2 9466:1 10960:1 12042:2 15264:1 18246:1 20663:1 20664:1 20665:1 20666:1 20667:2 20668:2 20669:2 20670:2 20671:2 20672:2 20673:1 20674:1 20675:1 20676:2 20677:1 20678:1 20679:1 20680:1 20681:1 20682:1 20683:1 20684:1 20685:1 20686:1 20687:1 20688:1 20689:1 20690:1 20691:1 20692:1 #
-0.00047474403188951536797235419840035 2:5 22:1 41:8 47:4 61:3 62:2 68:1 95:8 99:1 103:1 216:1 297:8 312:2 318:1 558:1 723:1 748:1 784:1 841:1 878:5 900:1 911:1 951:16 1762:1 1928:1 2028:1 2050:2 2062:1 2074:1 2249:1 2330:1 2430:4 2657:1 2784:1 3543:1 4147:1 5958:1 6053:1 6273:4 8209:1 10312:3 10316:4 11758:1 12348:1 16435:1 18174:1 18175:1 18176:2 18177:6 18178:1 18179:2 18180:4 18181:4 18182:4 18183:1 18184:1 18185:1 18186:1 18187:1 18188:1 #
0.0042360814678347640319100442241051 10:2 74:2 127:2 199:1 283:1 666:1 667:1 756:1 1093:1 1497:1 1728:2 1961:1 1962:1 1963:2 1964:1 #
0.0042360814678347640319100442241051 10:1 22:1 62:1 74:1 90:1 93:2 111:1 131:2 132:1 197:1 205:1 229:1 539:1 558:3 754:1 818:1 882:1 883:1 899:1 1129:1 1685:2 1735:1 1785:1 2109:1 2110:1 2111:1 2112:3 2113:1 2114:1 2115:1 2116:1 2117:1 2118:1 2119:1 2120:1 2121:1 2122:1 2123:1 #
-0.00010112026339789898562310233032235 10:1 18:1 20:1 60:4 61:1 62:2 134:1 165:1 280:1 599:1 606:1 752:2 816:2 822:2 1308:1 1629:1 2075:1 2205:4 2321:2 2324:1 2784:1 3490:1 3506:1 3707:1 4202:1 4336:2 4353:1 4355:1 4464:1 4472:1 4727:2 5505:1 6359:6 7240:1 8077:3 8078:1 8079:1 8080:1 8081:1 8082:1 8083:1 8084:1 8085:1 8086:1 8087:1 8088:1 8089:1 8090:1 8091:1 8092:1 8093:1 8094:1 8095:1 8096:1 8097:1 #
-0.0022756541834309156405180551985268 4:1 10:1 20:1 23:1 61:1 109:1 123:6 132:1 187:1 220:3 248:7 313:1 584:1 655:4 754:7 794:1 874:1 1055:1 1066:1 1082:2 1497:3 1637:1 2120:1 2401:1 2530:1 2802:1 3542:1 3839:1 3850:1 4233:1 4547:1 4912:1 5317:1 6211:1 7579:1 7844:2 8021:1 9084:1 10796:1 10797:1 10798:1 10799:2 10800:4 10801:1 10802:1 10803:1 10804:1 10805:1 10806:1 10807:1 10808:1 10809:1 10810:1 10811:1 10812:1 10813:1 10814:1 10815:1 10816:1 10817:1 10818:1 #
-0.00079498711510722088434410803614583 2:4 15:2 18:2 24:2 46:1 61:2 62:1 81:1 95:1 118:4 119:1 123:2 131:1 148:1 165:3 200:2 216:2 220:1 229:1 278:1 280:1 335:1 384:1 587:1 618:1 655:1 738:1 878:1 883:1 1060:1 1544:1 1683:1 1694:1 1742:1 2120:1 2279:1 2390:1 2783:1 3030:1 3107:1 3501:2 3674:1 3852:1 3942:1 3950:1 4222:4 4224:2 5194:1 5237:1 5408:4 5427:1 5518:1 5678:1 5940:1 7240:1 7503:1 9611:1 9612:3 9613:1 9614:3 9615:2 9616:1 9617:1 9618:1 9619:1 9620:1 9621:1 9622:1 9623:1 9624:1 9625:1 9626:1 #
-0.00070012472623663657683018568533839 2:2 11:1 62:1 103:1 166:1 308:1 538:5 550:1 581:1 598:1 616:1 644:1 730:4 787:1 874:1 1512:1 1652:2 1654:1 1793:3 2154:1 2876:1 3042:1 3363:1 3734:2 4558:6 4960:3 5208:1 6435:3 7021:1 12415:1 12421:1 20220:2 21974:1 21975:1 21976:1 21977:1 #
0.0042360814678347640319100442241051 10:1 22:1 24:1 33:1 62:1 70:1 93:2 121:1 165:1 171:2 278:1 532:1 766:1 1055:1 1308:2 1892:1 1896:1 1914:1 1915:2 1916:2 1918:1 1919:1 1920:1 1921:1 1922:1 1923:1 2049:1 2082:1 2083:2 2084:1 2085:1 2086:1 2087:1 2088:1 2089:1 2090:2 #
0.0042360814678347640319100442241051 2:1 10:2 30:1 61:1 74:1 83:1 86:1 92:1 606:1 627:1 738:1 783:1 927:1 1927:1 2385:1 2386:1 2387:1 2388:1 2389:1 2390:1 #
0.0042360814678347640319100442241051 10:3 15:1 24:1 31:1 102:1 730:1 1315:1 1596:1 1693:1 1694:1 1695:1 1696:1 1697:2 1698:1 1699:1 #
-0.0013350322501824924466967692282537 33:1 62:1 112:1 123:4 197:1 558:1 738:5 742:1 786:1 841:1 842:1 1661:2 1693:1 1787:3 2277:1 2330:1 2763:1 2764:1 2765:1 3032:1 3570:1 3797:1 4293:1 4724:5 5408:1 5444:1 7744:1 8050:1 12626:2 12627:1 #
-0.00051923318828256956932593046971647 7:4 10:2 14:1 61:3 96:2 107:2 119:1 123:5 202:3 224:3 225:3 226:4 227:1 264:1 278:1 410:9 539:1 730:2 731:1 732:2 786:1 947:1 1535:2 1634:1 1636:2 1657:1 1784:1 2283:1 2367:1 2392:1 2441:1 2696:1 3390:5 3658:1 3834:2 3912:1 4313:1 4327:1 4499:3 4501:1 4539:2 4739:1 4743:3 4779:2 5310:3 5363:1 5464:1 6192:1 6439:2 8072:2 8898:2 10515:1 12359:1 13920:1 13935:1 15593:1 15597:1 19755:1 21152:1 27340:1 27341:1 27346:3 28649:1 28650:1 28651:1 28652:1 28653:1 28654:2 28655:3 28656:5 28657:2 28658:1 28659:1 28660:1 28661:2 28662:1 28663:1 28664:2 28665:1 28666:1 28667:1 28668:1 28669:1 28670:2 28671:1 28672:1 28673:1 28674:1 28675:1 28676:2 28677:1 28678:1 28679:1 28680:1 28681:1 28682:1 28683:1 28684:1 28685:1 28686:1 28687:1 28688:1 28689:1 28690:1 28691:2 28692:1 28693:1 28694:1 28695:1 28696:1 28697:1 #
-5.6292043031942337551112170990208e-05 2:1 17:1 60:1 61:4 62:2 77:1 111:3 114:1 121:11 135:3 138:2 153:1 165:3 191:1 213:1 225:4 226:7 278:1 538:2 548:1 720:3 732:4 748:1 1066:1 1113:4 1535:3 1636:1 1793:1 2049:1 2277:1 2667:1 2729:3 2733:1 2735:1 2871:3 2909:1 2957:3 3180:2 3678:1 3778:1 3912:3 4437:2 4703:1 4739:4 4766:2 4894:1 5208:1 5514:1 5590:1 5650:1 5721:1 5915:3 6058:1 6449:2 6491:1 6823:1 7476:1 8257:1 8647:1 8881:1 8898:3 9351:1 9994:1 10411:2 11872:1 12912:1 13013:1 13083:1 15146:1 16376:1 18085:1 20142:1 21421:1 21422:1 21423:1 21424:1 21425:1 21426:2 21427:1 21428:1 21429:1 21430:1 21431:1 21432:2 21433:5 21434:3 21435:3 21436:1 21437:1 21438:4 21439:1 21440:3 21441:2 21442:1 21443:1 21444:1 21445:1 21446:1 21447:2 21448:1 21449:1 21450:2 21451:2 21452:1 21453:1 21454:1 21455:1 21456:1 21457:1 21458:1 21459:1 21460:2 21461:2 21462:1 21463:1 21464:1 21465:2 21466:2 21467:3 21468:1 21469:1 21470:1 21471:1 21472:1 21473:1 21474:1 21475:1 21476:1 21477:1 21478:1 21479:1 21480:1 21481:1 21482:1 21483:1 21484:1 21485:1 21486:1 21487:1 #
-0.0010519247268035312927597635379584 10:1 18:1 61:2 123:3 142:4 182:1 187:1 224:1 225:1 226:3 229:1 278:1 732:1 796:2 984:1 1113:1 1818:1 1878:2 2383:1 3060:4 3085:2 3197:1 4766:1 5280:4 6134:5 6138:2 6139:2 6146:1 6155:1 6159:1 7637:1 9822:1 9982:1 10859:1 13423:2 15320:1 15321:1 17661:3 20356:2 23811:1 23812:1 23813:2 23814:1 23815:2 23816:1 23817:1 23818:1 23819:1 23820:1 23821:1 23822:2 23823:1 23824:1 23825:1 23826:1 23827:1 #
0.0042360814678347640319100442241051 2:1 4:2 9:1 10:4 26:1 27:2 30:1 48:2 61:1 62:1 95:6 102:3 229:1 303:2 312:1 347:1 530:1 584:1 754:1 803:1 838:1 858:1 951:1 1055:1 1090:1 1115:1 1511:1 1934:1 2025:1 2026:1 2027:1 2028:1 2029:1 2030:1 2031:1 2032:1 2033:1 2034:1 2035:1 2036:1 2037:1 2038:1 2039:1 2040:1 2041:1 2042:1 #
0.0042360814678347640319100442241051 10:2 77:1 93:1 107:1 121:2 127:1 148:1 157:1 200:1 229:2 548:1 622:1 735:1 754:1 1080:1 1093:1 1195:1 1597:1 1751:3 1819:1 1892:1 2516:1 2517:1 2518:1 2519:1 2520:1 2521:1 2522:1 #
0.0042360814678347640319100442241051 9:1 10:3 32:1 61:1 62:3 70:1 72:2 83:1 85:1 175:1 205:1 220:3 227:1 330:1 580:1 588:1 590:1 676:1 678:1 692:1 696:1 713:1 748:1 750:3 854:2 1495:2 1496:3 1497:1 1498:2 1499:1 1500:1 1501:1 1502:1 1503:2 1504:1 1505:1 1506:1 1507:1 1508:1 1509:1 1510:1 #
-0.00061216400040083724341799520374252 15:1 18:1 20:1 62:1 65:1 77:1 102:2 127:2 131:2 173:1 187:2 216:1 220:1 560:1 599:1 739:1 751:1 770:5 896:2 969:5 1308:5 1657:1 1694:1 1771:1 1814:1 1815:1 1915:5 1916:5 1919:5 1920:5 1921:5 1922:5 1924:1 2074:1 2343:1 2784:1 3245:1 3357:1 3539:1 3737:1 3822:1 3991:1 5080:1 5604:1 5939:1 6105:1 6266:2 6424:3 6435:1 7033:1 7140:1 7164:1 7904:2 10258:1 10259:1 10260:1 10261:1 10262:3 10263:1 10264:1 10265:1 10266:1 10267:1 10268:1 10269:1 10270:1 10271:1 10272:1 10273:2 10274:1 10275:1 10276:1 10277:1 10278:1 10279:1 #
0.0042360814678347640319100442241051 2:2 10:2 17:1 18:1 22:1 30:1 31:3 32:1 61:3 62:2 83:4 85:3 86:1 92:3 107:1 132:1 156:1 171:1 181:1 194:1 532:1 558:1 576:3 577:5 593:1 609:1 738:2 754:1 760:1 866:5 882:2 1109:1 1197:1 1262:1 1273:4 1278:1 1541:1 1542:1 1605:1 1636:1 1648:1 1862:1 1884:1 1965:1 1966:1 1967:1 1968:1 1969:1 1970:1 1971:1 1972:1 1973:1 1974:1 1975:1 1976:1 1977:1 1978:1 1979:4 1980:2 1981:2 1982:2 1983:1 1984:1 1985:1 1986:1 1987:1 1988:1 1989:1 1990:1 1991:2 1992:1 1993:1 1994:1 1995:1 1996:1 1997:1 1998:1 1999:1 2000:1 2001:1 2002:1 2003:1 2004:1 2005:1 2006:1 2007:1 2008:2 2009:2 2010:1 2011:1 2012:2 2013:2 2014:1 2015:2 2016:1 2017:1 2018:1 2019:1 2020:1 2021:1 2022:1 2023:1 2024:1 #
-0.0025575064769811036748115018468752 1:2 6:1 17:1 27:8 30:2 31:4 61:4 70:1 83:3 85:2 86:3 90:4 92:1 93:1 107:3 127:1 131:1 132:4 158:1 160:1 171:1 178:1 181:2 194:1 257:1 286:1 297:1 303:5 532:4 576:2 577:2 738:1 739:1 751:1 760:3 761:1 785:1 796:1 826:1 882:4 1079:4 1090:3 1098:1 1198:1 1199:1 1200:1 1255:1 1262:1 1273:4 1278:1 1312:1 1608:1 1677:1 1815:1 1846:1 1867:1 1870:1 1871:2 1882:1 1927:1 1963:1 1966:1 1967:1 1982:4 1983:1 1992:1 1996:1 2098:1 2182:2 2237:1 2422:1 2477:2 2581:4 3030:2 3042:1 3678:4 3682:1 3928:1 3930:1 3986:1 4141:1 4157:1 6095:1 8098:3 8099:1 8100:5 8101:2 8102:1 8103:1 8104:1 8105:1 8106:1 8107:2 8108:1 8109:1 8110:1 8111:2 8112:1 8113:1 8114:1 8115:1 8116:1 8117:1 8118:1 8119:5 8120:5 8121:2 8122:1 8123:3 8124:1 8125:1 8126:1 8127:1 8128:1 8129:1 8130:1 8131:1 8132:1 8133:1 8134:1 8135:1 8136:1 8137:1 8138:1 8139:1 8140:1 8141:1 8142:1 8143:1 8144:1 8145:1 8146:1 8147:1 8148:1 8149:1 8150:1 8151:1 8152:1 8153:1 8154:1 8155:1 8156:1 8157:1 8158:1 8159:1 8160:1 8161:1 8162:1 8163:1 8164:4 8165:2 8166:2 8167:2 8168:2 8169:1 8170:1 8171:1 8172:1 8173:1 8174:1 8175:1 8176:1 #
-0.002332936466194642649574220172326 1:1 20:1 23:2 30:2 32:1 61:2 74:1 83:2 119:1 142:1 153:3 173:1 188:1 263:1 300:1 336:2 532:3 550:1 593:1 606:1 611:1 739:2 854:3 883:2 1071:1 1195:1 1544:1 1729:2 1735:6 1737:2 1738:10 1853:2 2175:1 2389:1 2784:1 3149:1 3197:1 3378:1 3778:1 3922:1 3957:1 4645:1 5076:1 9030:1 14029:1 14030:1 19121:2 19122:2 19123:2 19124:2 19125:2 19126:2 19127:2 19128:2 19129:2 19130:2 19131:2 19132:1 19133:1 19134:1 19135:1 19136:1 19137:1 #
-0.0010864602369032826112427159159779 1:1 2:3 20:1 23:1 24:2 28:1 61:2 77:1 102:2 130:3 131:1 174:1 206:1 331:1 609:1 723:1 738:1 739:1 787:1 881:1 990:1 1542:1 1609:1 1637:1 1703:4 1761:1 1832:2 1900:1 1966:2 2093:3 2386:1 2524:1 2536:1 2950:2 3500:3 3912:1 4157:1 4187:1 5145:1 5146:2 5147:2 5148:1 5149:1 5150:1 5151:2 5152:1 5153:1 5154:2 5155:2 5156:2 5157:1 5158:1 5159:1 5160:2 5161:2 5162:2 5163:2 5164:2 5165:1 5166:1 5167:1 5168:1 5169:1 5170:1 5171:2 5172:1 5173:1 5174:1 5175:1 5176:1 5177:1 5178:1 5179:1 #
-0.0042360814678347640319100442241051 10:2 61:1 93:1 142:1 225:2 312:4 336:2 1055:1 1597:1 1892:2 3239:1 3778:2 7926:1 12839:1 12840:1 12841:1 12842:1 12843:1 12844:1 #
-0.001432981890939450959204792823698 4:2 6:1 26:1 27:1 62:1 72:1 92:1 97:1 127:1 134:1 199:1 229:1 246:2 261:1 593:3 832:1 841:1 874:1 899:1 963:1 1103:1 1495:1 1514:1 1703:4 1791:1 1888:1 1928:1 2249:1 2589:1 2614:1 2871:1 3030:1 3149:2 3538:1 3637:1 5477:1 5787:1 6040:1 6180:2 7224:2 7268:1 7905:1 8027:2 8028:1 8029:1 8030:2 8031:1 8032:1 8033:2 8034:3 8035:1 8036:1 8037:3 8038:1 8039:1 8040:1 8041:1 8042:1 8043:1 8044:1 8045:1 8046:1 8047:1 #
0.0042360814678347640319100442241051 10:3 72:1 93:1 121:1 156:2 587:1 754:2 876:1 877:1 878:1 879:1 880:1 881:1 882:1 #
0.0042360814678347640319100442241051 2:1 10:4 30:1 74:1 102:2 109:1 127:3 142:3 173:1 188:1 611:1 668:1 730:3 883:3 1642:2 2166:1 2319:1 2320:1 2321:1 2322:1 2323:1 2324:1 2325:1 2326:1 2327:1 2328:1 2329:1 2330:1 2331:1 2332:1 #
-3.8064153421469281715020654965898e-05 1:1 2:1 61:1 62:2 81:1 95:5 194:1 227:5 229:1 302:1 349:9 394:2 645:3 823:1 1060:1 1690:2 1711:1 1718:14 2367:1 3670:33 3676:1 3707:2 4299:1 4666:1 4669:1 4839:5 4840:5 4842:1 4866:1 5906:1 5918:2 6027:1 6393:1 6645:4 6846:2 7951:2 9065:1 18726:6 19250:1 23012:7 23013:8 23014:2 23015:1 23016:4 23017:1 23018:1 23019:1 23020:16 23021:1 23022:11 23023:1 23024:15 23025:1 23026:1 23027:4 23028:1 23029:1 23030:1 23031:5 23032:5 23033:3 23034:15 23035:1 23036:2 23037:15 23038:13 23039:1 23040:2 23041:1 23042:1 23043:3 23044:3 23045:1 23046:1 23047:1 23048:1 23049:1 23050:1 23051:1 23052:1 #
-0.00026167327875664696994542635088976 2:1 6:1 8:1 31:1 61:1 62:4 74:3 205:1 214:2 239:1 245:1 260:1 556:2 591:1 754:1 783:1 882:1 1515:1 1636:1 1657:1 1750:1 1794:1 1846:1 1878:1 2091:1 2154:1 2581:1 2655:1 3432:1 3496:2 3840:2 4511:1 4713:4 5943:4 6555:1 8645:1 16042:1 21866:4 25454:3 27845:2 28168:2 28169:2 28170:1 28171:2 28172:1 28173:2 28174:1 28175:1 28176:1 28177:1 28178:1 28179:1 #
0.0042360814678347640319100442241051 8:1 10:3 22:1 70:1 73:1 85:1 93:3 102:1 107:1 153:1 173:1 189:1 197:1 205:1 239:2 593:1 606:1 739:2 877:1 896:1 1512:1 1552:1 1670:1 1750:1 1819:1 1927:1 2091:1 2092:1 2093:1 2094:1 2095:1 2096:1 2097:1 2098:1 2099:1 2100:1 2101:1 2102:1 2103:1 2104:1 2105:1 2106:1 2107:1 2108:1 #
0.0023892146761451170736134663741268 1:2 10:2 62:2 70:4 85:2 121:2 131:3 155:1 166:1 171:4 252:2 287:1 292:2 336:3 347:1 484:1 532:7 548:1 550:1 581:1 664:1 738:4 739:1 778:1 816:2 822:1 831:1 870:4 896:2 954:1 1308:2 1639:1 1642:1 1652:1 1704:1 1730:1 1735:7 1742:2 1755:2 1805:1 1818:1 1896:1 1907:2 1908:1 1909:1 1910:1 1911:1 1912:1 1913:1 1914:1 1915:2 1916:2 1917:2 1918:1 1919:1 1920:1 1921:1 1922:1 1923:1 1924:1 1925:4 1926:3 1927:3 1928:1 1929:1 1930:1 1931:1 1932:1 1933:2 1934:1 1935:1 1936:1 1937:1 1938:2 1939:1 1940:1 1941:1 1942:1 1943:1 1944:1 1945:1 1946:1 1947:1 1948:1 1949:1 1950:1 1951:1 1952:1 1953:1 1954:1 1955:1 1956:1 1957:1 1958:1 1959:1 1960:1 #
-0.00065854419315389939836025146036036 6:1 25:1 62:1 63:1 118:5 131:9 146:2 148:1 153:1 154:1 251:1 273:1 302:1 394:3 545:1 558:1 584:1 748:1 800:1 816:2 1210:1 1631:1 2027:2 2091:1 2459:1 2467:2 2661:2 2783:1 3045:1 3131:1 3479:1 3539:1 3647:1 3658:1 3734:1 4260:2 4280:1 4434:1 4442:1 4528:1 5419:1 5610:1 5731:1 5760:1 5866:1 8936:1 9589:1 10370:1 10469:1 11337:1 11338:3 11339:1 11340:2 11341:1 11342:1 11343:1 11344:1 11345:1 11346:1 11347:1 11348:1 11349:1 11350:1 11351:1 #
-0.0042360814678347640319100442241051 10:1 18:1 48:1 62:1 109:2 121:2 142:1 171:1 336:2 639:1 2049:1 2205:1 2277:2 2325:1 2727:1 2896:2 6691:1 22540:1 27064:1 27065:1 27066:1 27067:1 #
-0.0003231325974775602202435087484389 24:2 99:2 102:1 131:4 148:1 173:1 183:2 188:1 214:1 229:1 302:1 330:1 336:1 752:1 797:1 800:2 883:2 991:1 1315:2 1516:6 1631:1 1745:1 1959:1 1960:7 2068:1 2196:1 2707:1 2874:1 3625:15 4226:1 4347:1 4639:1 5795:2 6070:1 6077:1 6271:1 6336:2 6337:1 6338:1 6339:3 6340:1 6341:1 6342:1 6343:1 6344:1 6345:1 #
0.0021566806253029398646181569176861 10:5 25:3 32:1 61:1 81:1 83:1 89:1 93:1 98:3 99:1 102:2 121:1 123:3 131:4 143:4 148:2 153:1 173:1 187:1 227:1 246:1 258:2 280:1 330:1 336:2 349:1 394:2 532:1 550:1 577:1 584:1 766:1 785:1 796:1 826:1 864:1 883:4 1082:1 1111:3 1127:1 1536:1 1633:2 1636:4 1637:2 1669:1 1691:2 1703:4 1735:5 1784:1 1794:5 2091:1 2242:5 2243:1 2244:1 2245:1 2246:1 2247:1 2248:1 2249:1 2250:3 2251:1 2252:1 2253:2 2254:1 2255:1 2256:2 2257:1 2258:4 2259:1 2260:1 2261:1 2262:2 2263:1 2264:2 2265:1 2266:2 2267:1 2268:1 2269:1 2270:1 2271:1 2272:1 2273:1 2274:1 2275:1 2276:1 2277:1 2278:1 2279:1 2280:1 2281:1 #
0.0042360814678347640319100442241051 10:5 22:2 85:2 174:1 180:1 196:1 229:1 256:1 272:1 593:1 831:1 896:1 1655:1 1703:2 1742:1 1743:1 1744:2 1745:1 1746:1 1747:1 1748:1 1749:1 1750:1 1751:1 1752:1 1753:1 1754:1 1755:2 1756:1 1757:1 1758:1 1759:1 1760:1 1761:1 1762:1 1763:1 1764:1 #
-0.00076039242332763881931229077437706 2:2 10:1 20:3 22:1 30:3 31:1 61:1 62:2 70:1 77:3 114:1 126:1 131:6 165:1 174:1 195:1 198:1 214:1 542:2 558:2 566:1 580:1 598:1 627:1 636:1 642:1 853:1 906:1 916:2 920:1 1055:1 1092:1 1637:1 1691:1 1699:1 1762:1 1902:1 2075:1 2344:1 2780:1 3034:1 3755:1 3988:1 4439:1 4464:8 4824:2 4985:1 5076:1 5309:1 5631:1 6412:1 6427:1 7139:1 7203:2 7598:1 7961:1 8432:1 8479:1 15357:1 17744:1 17827:1 19189:1 19190:9 19191:4 19192:2 19193:1 19194:2 19195:1 19196:1 19197:1 19198:1 19199:1 19200:2 19201:2 19202:2 19203:2 19204:1 19205:1 19206:1 19207:1 19208:1 19209:1 19210:1 19211:1 19212:1 19213:1 19214:1 19215:1 19216:1 19217:1 19218:1 19219:1 19220:1 19221:1 19222:1 19223:1 19224:1 19225:1 19226:1 19227:1 19228:1 19229:1 19230:1 19231:1 19232:1 19233:1 19234:1 19235:1 19236:1 19237:1 19238:1 19239:1 19240:1 19241:1 19242:1 19243:1 19244:2 19245:2 19246:1 19247:1 19248:1 19249:1 19250:5 19251:1 19252:2 19253:1 19254:1 19255:1 #
-0.00022029722847573569442965191189643 1:1 30:2 34:1 62:1 122:2 187:1 229:2 280:1 577:2 593:1 595:1 596:6 598:1 606:1 653:6 725:1 1078:1 1542:1 1947:1 2083:6 2594:1 2729:1 3238:1 4569:1 4806:1 5076:1 5212:2 6670:2 9441:1 12481:5 12482:1 28708:2 28709:1 28710:1 28711:1 28712:5 28713:1 28714:1 28715:1 28716:1 28717:1 28718:1 28719:1 28720:1 28721:1 28722:1 28723:1 28724:1 28725:1 28726:1 28727:1 28728:1 28729:1 28730:1 28731:1 #
-0.0026369139419699389598195082839993 22:2 27:1 74:1 93:1 109:1 114:1 152:1 280:1 303:1 344:1 577:1 668:1 755:2 963:1 1746:1 2005:1 2083:1 2343:1 3147:2 4314:1 5397:1 5581:1 7236:1 7237:1 7238:1 7239:1 7240:1 7241:1 #
-0.00040814623133610990072042690179899 1:1 2:1 20:1 24:1 32:1 61:2 95:3 102:1 114:2 119:1 149:1 174:3 214:2 216:1 220:1 332:2 349:1 422:2 448:1 458:2 484:4 550:2 558:5 559:1 580:1 731:1 822:1 826:2 841:6 854:1 896:1 940:2 1648:1 1948:2 2067:2 2076:4 2123:1 2164:2 3161:2 3276:1 3489:1 3539:2 3542:1 3637:1 3737:1 3994:1 4557:1 5928:1 6035:1 6191:2 7969:4 8247:1 17563:1 18924:1 18925:1 18926:1 18927:2 18928:1 18929:2 18930:1 18931:3 18932:1 18933:1 18934:1 18935:1 18936:1 18937:1 18938:1 18939:1 18940:1 18941:1 18942:2 18943:2 #
-0.00053146429755913297907771175587754 26:1 32:1 49:1 61:1 62:2 68:1 77:1 95:1 109:3 200:1 214:1 264:3 280:1 332:1 409:1 558:1 567:2 599:1 734:2 764:2 793:1 841:12 921:3 1055:1 1061:1 1068:1 1069:1 1642:3 1654:2 1711:1 1784:1 2330:1 2372:1 2390:1 2594:1 3030:1 3676:2 4560:3 4860:1 10894:3 21881:2 21882:1 21883:2 21884:1 21885:1 21886:1 21887:1 21888:2 21889:1 #
-0.00074628296263681544262663658528822 61:1 95:2 122:5 205:1 310:1 606:1 650:1 831:1 1637:1 1809:6 2524:1 3727:3 3901:1 4046:1 4047:1 4048:1 4049:1 4050:1 4051:1 4052:2 4053:1 4054:1 4055:1 4056:1 4057:3 4058:2 4059:3 4060:3 4061:1 4062:1 4063:1 #
-3.8691872791422887711831890555914e-05 2:1 16:1 22:1 26:2 61:1 72:1 82:1 85:1 95:216 98:2 102:1 109:1 112:1 129:1 142:1 165:1 173:1 180:1 182:1 205:1 264:2 336:1 383:1 384:4 385:5 386:4 411:1 412:2 421:2 422:4 458:4 462:11 466:1 584:1 598:1 640:1 750:3 831:1 841:5 847:1 854:2 896:1 963:1 978:4 1028:2 1029:1 1035:1 1040:1 1047:1 1049:1 1075:1 1323:1 1517:1 1742:1 1761:5 1762:1 1914:1 1921:1 2091:1 2120:1 2172:3 2343:1 2351:2 2421:2 2441:1 2470:1 2510:1 2536:1 2579:1 2637:2 3134:1 3147:2 3388:1 3593:1 3637:1 3768:1 3934:1 3942:1 4252:1 4253:1 4451:3 4496:2 4508:1 4723:1 4842:1 4914:1 5010:1 5018:2 5070:1 5134:1 5401:2 5610:1 5981:1 6031:4 6696:4 6847:4 6957:1 7042:1 7161:3 7731:1 7912:1 8997:1 9136:1 9139:1 9140:1 10089:1 10482:1 12014:1 12015:1 13641:2 15433:1 17166:1 17167:2 17168:2 17169:1 17170:1 17171:1 17172:3 17173:1 17174:2 17175:2 17176:2 17177:2 17178:1 17179:1 17180:1 17181:2 17182:3 17183:1 17184:1 17185:2 17186:2 17187:1 17188:2 17189:2 17190:1 17191:1 17192:2 17193:1 17194:6 17195:4 17196:1 17197:1 17198:1 17199:1 17200:1 17201:1 17202:1 17203:214 17204:2 17205:1 #
0.0042360814678347640319100442241051 2:1 4:1 10:5 17:1 24:1 26:1 27:2 31:1 32:1 61:1 62:1 70:1 74:2 85:1 94:5 95:2 158:1 159:1 297:1 487:1 531:1 532:1 579:1 611:1 677:1 963:1 1055:1 1070:1 1273:1 1311:1 1316:1 1587:1 1686:1 1711:1 1733:2 1755:1 1898:1 1933:1 2027:1 2049:1 2057:1 2333:2 2334:2 2335:1 2336:1 2337:1 2338:2 2339:4 2340:1 2341:1 2342:1 2343:2 2344:1 2345:2 2346:2 2347:2 2348:1 2349:1 2350:1 2351:1 2352:1 #
-0.00089454765495770318349533223312164 2:3 20:1 31:1 32:1 61:1 62:1 66:1 72:4 74:1 85:1 142:1 152:1 165:1 170:1 174:1 182:1 199:1 220:1 229:2 240:1 256:1 263:3 278:3 280:1 310:1 552:1 601:1 609:3 641:1 662:1 748:1 756:1 944:1 1054:1 1541:2 1605:1 1637:1 1711:1 1718:2 1960:1 1963:2 2040:1 2091:1 2215:1 2249:2 2277:1 2385:1 2765:1 3027:1 3678:1 3797:1 4325:1 4426:2 4678:2 4684:3 5104:1 5211:1 5611:1 5856:1 6110:1 6430:1 7033:1 8183:3 8260:2 9880:1 11908:4 14670:1 17144:3 18339:1 20808:1 20940:1 20949:3 22105:1 22929:1 22930:2 22931:1 22932:1 22933:1 22934:1 22935:1 22936:1 22937:1 22938:1 22939:1 22940:1 22941:2 22942:1 22943:1 #
-0.0013213196457590328878467511586337 74:1 111:2 145:3 364:2 559:1 577:2 766:3 963:1 1093:1 1544:1 1750:4 2330:1 5410:2 6186:2 6429:1 24594:1 25745:2 28587:2 31424:2 31425:1 #
-0.00081469087990606583668529161457172 19:1 24:1 31:4 32:2 49:2 61:2 62:2 83:2 85:3 95:1 115:1 123:3 132:1 148:1 173:1 216:1 220:2 246:1 335:2 422:1 461:1 475:1 491:1 534:1 669:1 738:1 739:1 748:1 819:1 826:1 896:4 911:1 975:1 1251:14 1536:3 1542:1 1750:1 2277:1 2679:1 2758:1 2858:1 3048:1 3122:1 3391:1 4067:1 4260:1 4266:1 4358:1 5397:1 5661:1 7847:1 7848:1 7849:1 7850:1 7851:1 7852:1 7853:1 7854:1 7855:1 7856:1 7857:1 7858:1 7859:1 7860:2 7861:1 7862:5 7863:4 7864:1 7865:1 7866:1 #
-0.0008522783849307991911603554768817 1:1 17:1 24:1 73:2 122:1 173:1 203:1 213:1 239:4 550:1 577:11 580:1 807:1 963:1 1552:1 1636:2 1911:2 2043:1 2112:1 2271:1 2369:1 2957:4 3219:5 3766:1 4344:1 4457:1 4717:1 5530:1 6078:2 13013:1 13355:1 15596:2 17899:1 #
-0.0013496380442918132821356058670403 1:1 2:2 4:2 6:2 10:2 22:1 30:2 32:1 61:3 62:1 73:1 74:2 102:2 123:4 156:2 165:1 225:1 226:2 240:1 264:2 278:1 303:1 312:2 414:1 530:1 538:1 539:1 580:1 593:1 760:1 783:1 796:1 1022:1 1033:2 1078:1 1544:1 1579:1 1636:1 1639:1 1750:4 1793:1 1935:1 1941:1 2027:1 2049:5 2164:3 2166:1 2169:2 2244:1 2289:3 2390:1 3131:1 3149:1 3501:1 3658:2 3739:1 3942:1 3950:1 4007:5 4116:1 4166:1 4253:1 4528:1 4686:1 4933:3 5060:1 5166:1 5360:1 5425:2 5426:1 5427:1 5428:1 5429:1 5430:2 5431:1 5432:1 5433:1 5434:1 5435:1 5436:1 5437:1 5438:1 5439:1 5440:1 5441:1 5442:1 5443:1 5444:1 5445:1 5446:1 5447:1 5448:1 5449:1 5450:1 5451:1 5452:1 5453:1 5454:1 5455:1 5456:1 #
-0.00042523236606419045902072184617282 61:1 72:6 95:2 422:1 458:2 487:2 611:1 621:1 1542:1 1639:1 1755:2 1915:1 2083:4 2879:1 3092:1 3858:2 4133:1 6103:1 8587:1 9197:2 12613:4 13418:1 17975:2 17976:1 17977:1 17978:2 17979:1 17980:2 17981:2 17982:1 17983:1 17984:1 17985:1 17986:2 17987:2 17988:1 17989:1 #
-0.0014234486350390308101454550637754 10:1 15:1 18:1 32:1 61:2 62:1 70:1 74:1 77:1 102:1 112:1 123:2 142:1 225:2 226:1 256:1 264:1 287:1 378:2 387:1 558:2 580:1 878:4 939:1 947:1 1113:3 1121:1 1636:2 1902:1 2056:1 2091:1 2166:1 2169:1 2351:1 2654:2 2784:1 3489:2 4030:1 4356:1 4548:1 4631:4 5246:1 6048:1 6198:3 6203:1 7266:1 10976:1 16114:1 18500:1 20693:1 20694:1 20695:1 20696:1 20697:1 20698:1 20699:4 20700:1 20701:1 20702:1 20703:1 20704:1 20705:2 20706:2 20707:1 20708:2 20709:1 20710:1 20711:1 20712:1 20713:1 20714:1 20715:1 20716:1 20717:1 #
-0.00072344802632031237395876521745208 2:4 4:5 7:6 26:3 27:3 34:1 41:1 48:1 61:2 62:1 63:1 78:2 95:2 102:3 122:3 134:1 142:1 147:1 175:1 217:1 218:1 294:1 336:1 391:2 393:1 397:1 450:1 451:1 452:1 457:1 550:1 610:2 616:1 636:1 638:1 666:1 738:1 874:1 895:1 914:2 975:2 1315:1 1696:1 1932:1 2026:1 2164:1 2351:1 2419:1 2422:1 2425:1 2536:1 2783:1 3637:1 4155:1 4190:1 4964:1 6202:1 8363:1 8432:1 8943:1 9214:1 13058:1 13351:1 16009:1 16896:1 17563:1 19294:1 23656:1 23657:1 23658:1 23659:1 23660:1 23661:1 23662:1 23663:1 23664:1 23665:1 23666:1 23667:1 23668:1 23669:1 23670:1 23671:1 23672:1 23673:1 23674:1 23675:1 23676:1 #
-0.00085176417982041558243921919313379 18:1 61:1 68:1 82:1 95:1 102:1 118:2 173:1 174:1 303:3 332:2 334:1 394:2 545:1 550:1 637:1 797:1 883:1 1091:1 1613:3 1684:1 1794:1 2166:1 2389:1 2522:1 3027:1 3105:1 3361:2 3875:1 4110:1 4391:1 4397:1 4695:1 7202:1 9039:1 22332:1 25169:2 25170:1 25171:1 25172:1 25173:1 25174:1 25175:1 25176:1 25177:1 #
-0.00094844918135482576826422729254773 2:1 9:1 26:3 33:1 48:1 60:2 61:2 62:2 84:1 109:2 115:1 121:6 127:1 131:2 174:1 220:1 224:1 278:1 331:1 332:2 336:3 548:1 668:1 730:1 732:1 738:2 1636:1 2276:1 2422:1 2641:1 2729:1 2863:1 3157:1 3238:1 3239:1 3539:2 3676:1 3942:1 3991:1 4194:1 4402:1 4913:1 6498:1 7028:1 7120:1 7356:1 8257:1 14128:1 15054:1 15172:5 16492:1 26673:1 26674:1 26675:1 26676:1 26677:1 26678:3 26679:1 26680:1 26681:1 #
-0.0003742927276223910774619052510559 18:1 20:2 26:1 27:4 32:1 41:1 61:3 77:1 78:1 84:4 95:2 96:1 118:1 131:6 132:2 134:1 229:1 294:1 297:1 311:1 344:1 550:1 584:1 723:1 751:1 803:2 874:1 900:1 1098:1 1121:2 1587:2 1637:1 1642:1 1713:1 1744:2 1794:2 1882:1 1941:1 2215:1 2330:1 3039:1 3089:1 3236:1 3339:1 3361:2 3674:2 3678:1 3720:1 4018:1 4044:1 4194:1 4548:1 5054:1 5094:1 5486:1 5614:1 5615:1 5616:1 5617:1 5618:1 5619:1 5620:1 5621:1 5622:1 5623:1 5624:1 5625:1 5626:1 5627:1 5628:1 5629:1 5630:1 5631:1 5632:1 5633:2 5634:2 5635:1 5636:1 5637:1 5638:1 #
-0.000210335080374479666247972131643 2:1 22:1 25:1 30:1 32:1 61:1 102:1 107:1 123:2 132:1 133:1 142:1 226:1 260:1 550:1 636:1 738:1 858:1 1536:1 1714:5 2027:1 2118:1 2802:7 4143:1 5398:3 6348:5 6589:2 9543:1 9785:1 22609:1 25111:3 25112:2 25113:1 #
-0.00017304886833240630474202437216746 1:1 4:4 6:13 7:7 21:1 27:16 31:2 34:33 36:2 41:28 49:2 59:1 61:4 78:4 81:1 83:18 95:60 102:1 107:24 109:1 122:5 123:1 127:1 147:1 173:1 174:3 199:3 203:1 220:1 227:1 229:1 240:1 264:8 297:48 301:2 307:1 312:2 324:2 334:1 335:2 339:2 356:3 390:1 391:2 393:1 397:1 422:6 430:6 448:5 450:1 452:5 457:1 458:6 487:8 508:2 530:1 538:1 567:1 594:8 677:5 728:1 748:1 841:9 975:2 1316:3 1552:1 1605:1 1609:3 1642:1 1660:3 1882:3 2045:1 2169:1 2249:4 2252:3 2286:6 2347:1 2351:15 2419:2 2772:1 3153:7 3540:6 3701:7 3951:6 3996:12 4127:9 4229:2 4260:21 4717:1 4938:1 4961:1 5505:1 6091:3 6192:1 6273:1 7115:2 7963:6 7969:4 10312:1 10316:1 11304:1 11482:2 11994:1 17844:8 18181:4 20833:1 20834:2 20835:1 20836:1 20837:1 20838:1 20839:1 20840:1 20841:1 20842:1 20843:1 20844:1 20845:1 20846:1 20847:2 20848:4 20849:5 20850:5 20851:7 20852:5 20853:2 20854:1 20855:3 20856:4 20857:6 20858:2 20859:1 20860:1 20861:4 20862:1 20863:1 20864:2 20865:1 20866:4 20867:3 20868:7 20869:1 20870:1 20871:1 20872:1 20873:3 20874:3 20875:3 20876:1 20877:6 20878:7 20879:1 20880:3 20881:10 20882:3 20883:3 20884:3 20885:1 20886:3 20887:1 20888:1 20889:1 20890:1 20891:1 20892:3 20893:3 20894:3 20895:2 20896:2 20897:2 20898:2 20899:2 20900:2 20901:2 20902:2 20903:2 20904:2 20905:2 20906:1 20907:1 20908:2 20909:2 20910:2 20911:2 20912:1 20913:1 20914:2 20915:1 20916:1 20917:1 20918:1 20919:1 20920:1 20921:2 20922:1 20923:1 20924:1 20925:1 20926:1 20927:1 20928:1 20929:1 20930:2 20931:1 20932:1 #
-0.00049330911332707541496617187348761 2:3 6:6 9:1 10:5 18:1 24:1 30:5 61:1 86:1 95:8 115:2 142:1 174:1 183:1 300:2 311:1 324:1 336:20 550:2 559:2 628:2 659:2 696:1 743:1 823:1 864:3 906:1 1103:1 1311:1 1514:1 1535:1 1684:1 1912:1 1935:5 1959:6 2063:1 2098:1 2108:5 2166:1 2176:1 2205:1 2215:1 2351:7 2419:5 2498:1 2782:2 2896:2 3044:2 3153:2 3180:3 3354:6 3481:1 3539:2 3548:1 3721:1 3730:1 3778:2 3912:1 5188:1 5611:1 5697:1 6664:2 7198:1 8114:3 8539:1 8899:9 10869:1 11938:1 12119:1 12611:13 13013:10 13431:7 14569:2 15331:1 15458:1 22006:1 22007:1 22008:1 22009:1 22010:1 22011:2 22012:1 22013:1 22014:1 22015:1 22016:1 22017:1 22018:1 22019:1 22020:2 22021:1 22022:1 22023:1 22024:1 22025:1 22026:1 22027:1 22028:1 22029:2 22030:4 22031:8 22032:2 22033:1 22034:2 22035:1 22036:1 22037:2 22038:1 22039:2 22040:1 22041:1 22042:1 22043:1 22044:1 22045:1 22046:1 22047:2 22048:1 22049:2 22050:1 22051:1 22052:1 22053:1 22054:1 22055:1 22056:1 22057:1 22058:1 #
-0.00026767533193028738864455151613697 2:1 4:1 18:1 20:1 22:1 31:1 61:5 62:2 123:4 165:2 182:2 205:1 214:1 217:1 226:1 229:1 263:6 264:1 289:1 313:1 336:1 484:1 557:1 573:1 584:9 599:1 677:1 720:2 725:1 730:8 841:6 896:1 921:1 947:2 1109:1 1519:1 1535:2 1536:1 1636:5 1639:1 1693:1 1696:1 1714:3 1761:2 1783:1 1791:1 1794:7 1821:1 1963:1 2083:2 2154:1 2166:1 2196:1 2246:15 2249:1 2252:6 2401:5 2422:1 2460:1 2488:1 2784:2 3032:1 3131:2 3157:1 3434:1 3788:5 4098:1 4187:1 4238:1 4528:1 4708:2 4730:1 5795:1 5990:1 6094:1 6145:1 6359:1 6360:1 7042:1 7096:2 7366:1 7394:1 7599:1 7840:2 8198:1 9052:1 9563:1 11442:1 11993:2 12656:1 12803:1 13112:1 16037:1 18497:1 18498:1 18499:1 18500:5 18501:1 18502:1 18503:5 18504:1 18505:5 18506:1 18507:2 18508:2 18509:1 18510:4 18511:1 18512:6 18513:1 18514:2 18515:2 18516:1 18517:1 18518:1 18519:1 18520:2 18521:3 18522:1 18523:1 18524:1 18525:1 18526:2 18527:1 18528:1 18529:1 18530:1 18531:1 18532:1 18533:1 18534:4 18535:2 18536:1 18537:1 18538:1 18539:1 18540:1 18541:1 18542:1 18543:1 18544:1 18545:1 18546:1 18547:1 18548:1 18549:1 18550:1 18551:1 18552:1 18553:1 18554:1 18555:1 #
-0.0010501349275972395643646839502594 3:1 6:3 10:3 24:1 27:2 30:2 32:1 48:3 61:3 95:8 127:1 130:1 153:1 173:2 187:1 191:1 198:1 202:1 213:1 216:1 225:3 226:2 239:2 245:1 264:4 312:4 336:4 349:1 582:1 584:1 594:4 658:1 666:4 668:1 723:2 731:1 737:1 796:1 797:1 841:2 878:1 921:1 1091:1 1515:3 1655:1 1657:1 1774:4 1924:1 1934:1 2049:1 2076:1 2078:2 2169:2 2277:1 2320:2 2328:2 2330:1 2419:6 2500:1 2722:1 2728:1 2731:1 2733:1 2762:3 3105:1 3109:1 3357:1 3479:1 3716:1 3924:1 4280:1 4669:1 4739:1 4860:1 4962:1 5067:1 5581:1 5624:1 5755:1 12844:1 15975:1 17310:3 17442:1 27742:1 28136:1 29731:1 29732:1 29733:1 29734:1 29735:1 29736:1 29737:1 29738:1 29739:2 29740:1 29741:1 29742:1 29743:1 29744:1 29745:1 29746:2 29747:1 29748:1 29749:1 29750:2 29751:1 29752:1 29753:1 29754:1 29755:1 29756:1 29757:1 29758:1 29759:1 29760:1 29761:1 29762:1 29763:1 29764:1 29765:1 29766:2 29767:1 29768:1 29769:1 29770:1 #
-0.00021552689423935621182946975604722 24:1 61:1 62:1 77:1 95:3 134:1 197:1 229:2 292:1 383:1 394:2 622:1 664:1 1056:1 1542:1 1630:1 1777:1 1914:1 1915:2 1916:2 2076:1 2128:1 2154:1 2459:1 3131:1 4496:2 4510:1 4648:1 5067:2 7796:1 7797:1 8759:1 8761:1 8763:1 8767:11 8769:3 8775:8 8790:3 8817:3 8820:1 9139:1 9140:1 10906:1 13043:1 13048:3 14703:3 14706:1 15193:3 16841:1 30229:1 30230:2 30231:1 30232:1 30233:1 30234:1 30235:1 30236:1 30237:3 30238:1 30239:3 30240:2 30241:2 30242:1 30243:1 30244:1 30245:1 30246:1 30247:2 #
-0.00073603957768281842895252697900332 1:2 24:1 26:1 61:1 95:2 102:3 131:1 142:1 173:1 384:1 394:2 422:1 750:2 899:1 1026:1 1103:1 1496:1 1657:1 1896:1 2128:1 2343:1 2441:2 3121:1 3500:1 3629:1 4023:1 4165:2 4199:1 4226:2 4356:1 4496:4 4497:1 4498:1 4499:1 4500:2 4501:1 4502:1 4503:1 4504:1 4505:1 4506:2 4507:1 4508:1 4509:1 4510:1 4511:1 4512:1 4513:1 4514:1 4515:1 4516:1 4517:1 4518:1 4519:1 4520:1 4521:2 4522:2 4523:1 4524:1 4525:1 4526:1 4527:1 4528:1 4529:1 #
-0.00032978186054146980780987785664138 2:8 18:1 22:1 26:1 61:1 62:2 77:1 203:1 229:1 263:3 275:1 383:1 549:1 550:2 611:1 627:1 642:1 738:6 925:1 969:1 1054:1 1070:1 1079:1 1315:4 1587:3 1655:1 1671:1 1712:1 1821:2 1915:1 1916:1 1919:1 1920:1 1921:1 1922:1 1959:6 2083:1 2252:1 2419:1 2512:1 2784:1 3118:1 3148:1 3363:1 3450:1 3545:1 3901:2 4057:3 4136:3 4437:1 4728:2 5759:1 5789:2 7135:3 7706:2 8432:1 9623:1 12652:1 26991:1 29377:7 29378:1 29379:1 29380:1 29381:1 29382:2 29383:2 29384:1 29385:1 #
-0.00013131052525223392058763283163358 1:1 4:1 20:1 25:18 30:1 31:2 36:2 61:1 62:1 83:11 85:4 95:2 99:3 123:25 142:1 149:2 153:11 165:1 182:1 187:1 225:2 226:5 231:1 264:3 292:6 301:4 318:1 323:3 330:1 336:3 484:3 532:2 550:1 556:1 563:2 578:1 584:1 594:4 606:1 645:1 658:2 675:1 690:6 720:3 732:16 807:1 883:9 947:1 954:1 1041:1 1067:2 1095:1 1109:1 1113:20 1195:3 1499:17 1535:3 1536:2 1633:18 1636:1 1637:3 1678:1 1680:1 1696:1 1700:1 1735:66 1738:29 1742:5 1790:2 1791:2 1927:4 1946:1 1958:1 1959:9 2024:6 2108:3 2166:1 2189:1 2390:2 2393:1 2486:4 2489:1 2490:1 2491:1 2492:1 2493:1 2503:2 2610:1 3174:4 3209:2 3239:2 3378:1 3448:1 3612:1 3715:15 3954:4 3957:2 4266:1 4336:1 4403:1 4439:1 4457:1 4511:1 4766:1 4855:1 5076:1 5310:1 5368:5 5464:1 5643:1 5721:1 5859:1 6116:6 6410:1 6537:1 7138:2 7269:1 7915:18 7921:1 8198:1 9036:1 9677:18 9758:18 11110:1 11130:1 11972:2 12434:1 13662:3 13791:1 14029:2 14030:2 14569:8 16557:1 19132:1 19133:3 19134:3 19135:2 19390:1 20456:2 20459:2 25534:32 26473:2 26856:1 29072:1 29073:3 29074:1 29075:1 29076:1 29077:3 29078:1 29079:2 29080:1 29081:1 29082:19 29083:8 29084:5 29085:3 29086:1 29087:1 29088:5 29089:1 29090:1 29091:1 29092:1 29093:1 29094:1 29095:3 29096:3 29097:2 29098:4 29099:4 29100:4 29101:2 29102:4 29103:2 29104:2 29105:2 29106:4 29107:1 29108:1 29109:1 29110:1 29111:1 29112:19 29113:1 29114:1 29115:32 29116:16 29117:16 29118:2 29119:18 29120:15 29121:1 29122:3 29123:1 29124:2 29125:1 29126:1 29127:1 29128:2 29129:4 29130:3 29131:3 29132:1 29133:1 29134:5 29135:3 29136:2 29137:1 29138:1 29139:1 29140:4 29141:2 29142:1 29143:1 29144:1 29145:1 29146:1 29147:1 29148:1 29149:1 29150:1 29151:1 29152:3 29153:2 29154:1 29155:3 29156:1 29157:1 29158:1 29159:1 29160:1 29161:1 29162:1 29163:1 29164:1 29165:1 29166:1 29167:1 29168:1 29169:1 29170:1 29171:1 29172:1 29173:1 29174:1 29175:1 29176:1 29177:1 29178:1 #
-0.00063389075471491872475898743388711 61:2 62:2 77:1 99:3 109:2 121:3 127:2 132:1 174:1 194:1 303:2 311:1 318:1 548:2 569:1 577:1 610:1 1095:1 1593:1 1636:1 1749:1 1926:1 2330:1 2390:1 3507:1 3612:5 4713:1 5064:2 10150:1 11874:3 14085:1 25397:1 25465:1 28466:2 28467:1 28468:1 28469:2 28470:2 28471:1 28472:1 28473:2 28474:1 28475:2 28476:1 28477:1 28478:1 28479:1 28480:1 28481:1 28482:1 #
-0.0018895070273376914776752855118502 8:1 61:2 62:1 182:1 224:1 278:1 558:6 732:1 1597:1 1892:1 2166:1 6538:1 7132:1 28641:1 31543:1 31544:1 31545:1 31546:1 31547:2 #
-0.0012202329474231765008701566799232 49:1 61:2 85:5 117:1 123:1 149:2 165:1 187:1 214:1 264:1 289:1 313:1 1066:1 1761:2 1816:1 2027:2 2049:1 2271:1 2351:2 2657:1 2696:1 3173:2 3450:2 3505:1 4393:1 4714:1 5599:1 10147:1 18339:2 18520:1 20940:2 22258:2 22259:2 22260:1 22261:1 22262:1 22263:1 22264:1 #
-0.00041467821028183911779771420036411 2:3 22:1 61:2 131:1 132:1 165:1 214:1 278:1 347:1 448:2 458:1 677:1 738:2 796:1 819:1 947:1 990:1 1069:1 1111:5 1794:3 2367:1 2566:1 2573:1 2612:1 2646:1 2647:1 3472:1 4133:1 4260:1 5404:1 5999:1 6058:2 7903:1 7969:6 8516:1 12458:1 13675:1 17975:2 30118:1 30119:1 30120:1 30121:2 30122:4 30123:1 30124:1 30125:1 30126:2 #
-0.00018562589253786775014137822026328 2:1 22:1 31:4 61:1 62:1 70:1 74:2 95:1 102:2 109:2 227:5 264:1 538:2 636:1 732:3 737:1 797:1 882:1 1282:4 1639:1 1654:2 1655:2 2149:5 2154:1 2467:3 2567:4 2696:1 3227:3 3665:1 4560:1 5361:1 6920:1 8098:1 11032:1 12652:1 14569:1 18635:1 19022:1 19387:1 19899:1 22838:1 22839:1 22840:2 22841:2 22842:1 22843:6 22844:6 22845:1 22846:1 22847:1 22848:1 22849:1 22850:1 22851:1 22852:4 22853:1 22854:1 22855:1 22856:1 22857:1 22858:1 22859:1 22860:1 22861:1 22862:1 22863:1 22864:1 22865:1 22866:1 #
-0.00066603644123150473367600543639355 20:1 32:1 61:1 62:1 99:1 118:1 131:1 257:1 289:1 330:3 331:1 336:2 611:1 783:1 797:3 874:1 883:4 1542:1 1714:3 1969:1 2091:1 2330:1 2614:1 3592:1 3809:2 3988:1 4336:3 4560:2 4938:1 5791:1 5792:1 5793:1 5794:1 5795:2 5796:1 5797:1 5798:3 5799:1 5800:1 5801:1 5802:1 5803:1 5804:1 5805:1 5806:1 5807:2 5808:1 #
-0.00069680005478865085326301009871486 2:3 24:2 71:1 102:1 173:1 258:2 281:1 336:1 611:1 667:2 748:1 769:1 800:1 909:1 1515:2 1516:1 1774:2 1935:1 1947:1 1953:1 2098:1 2320:1 2508:1 2530:2 2773:1 3366:1 3684:1 3942:1 4681:1 5091:1 5092:1 5093:1 5094:1 5095:2 5096:1 5097:1 5098:1 5099:1 5100:1 5101:1 5102:1 5103:1 5104:1 #
-0.0023532418502153016476308167170828 74:3 216:1 1105:1 1115:1 1636:1 1661:1 2660:1 3496:2 3922:2 15383:1 17308:1 21963:1 21964:1 #
-0.001179871186535163055109087792971 2:1 25:2 197:1 205:1 2272:1 2332:1 4260:1 4265:1 4266:1 4420:1 5088:1 8025:1 9119:1 22865:1 25518:2 25519:1 25520:1 #
-3.7340952196135258705188275651921e-05 2:1 61:1 175:1 409:8 847:1 1705:16 1947:2 2079:1 2869:2 3330:1 3545:1 3649:1 5134:1 5135:7 5136:1 5137:1 5138:2 5139:4 5140:4 5141:4 5142:4 5143:4 5144:4 #
-0.0021789379980385386800789682126833 27:1 41:1 61:1 77:1 94:1 102:1 103:1 542:1 580:1 635:1 754:1 1660:1 2784:1 3104:1 3131:1 3938:1 9425:1 10804:1 13997:1 13998:1 13999:1 14000:1 #
-5.9613578036336664221946091135607e-05 2:5 6:1 18:2 32:2 49:1 61:2 62:2 81:25 95:1 102:2 110:3 123:1 165:1 182:1 187:1 199:1 225:1 312:1 349:2 484:1 550:27 558:4 559:2 618:1 627:2 636:1 746:1 799:1 814:1 816:2 822:1 833:1 841:1 855:2 864:1 895:1 939:8 947:1 1034:3 1041:1 1055:1 1078:2 1082:1 1105:1 1115:1 1153:1 1609:1 1654:1 1670:1 1690:1 1815:1 1911:1 1947:1 2105:1 2108:2 2245:3 2269:4 2298:1 2470:1 2477:1 2501:1 2513:3 2517:1 2519:1 2579:1 2657:1 2777:1 2810:2 2813:1 3042:1 3065:2 3077:1 3097:1 3098:1 3104:2 3149:1 3239:1 3292:1 3646:1 3689:1 3797:1 3850:1 3860:2 3996:1 4020:1 4116:1 4155:1 4198:1 4251:1 4347:1 4408:1 4435:3 4655:1 4698:1 4894:1 5135:1 5241:1 5269:1 5397:1 5408:1 5427:1 5586:5 5604:1 5611:1 5624:1 5694:1 5760:1 5915:2 6031:4 6524:1 6847:1 7023:1 8209:3 8626:1 8744:1 8927:1 9438:2 9657:1 9658:1 9659:4 9660:1 9661:1 9662:1 9663:1 9664:1 9665:1 9666:1 9667:1 9668:1 9669:1 9670:1 9671:2 9672:4 9673:1 9674:1 9675:2 9676:1 9677:1 9678:3 9679:2 9680:1 9681:1 9682:3 9683:2 9684:1 9685:1 9686:1 9687:1 9688:1 9689:1 9690:1 9691:1 9692:1 9693:2 9694:3 9695:1 9696:1 9697:1 9698:1 9699:1 9700:3 9701:1 9702:1 9703:3 9704:1 9705:2 9706:1 9707:1 9708:1 9709:1 9710:1 9711:1 9712:1 9713:1 9714:1 9715:3 9716:1 9717:1 9718:1 9719:1 9720:1 9721:1 9722:2 9723:1 9724:5 9725:1 9726:1 9727:5 9728:2 9729:1 9730:9 9731:5 9732:2 9733:4 9734:2 9735:1 9736:1 9737:3 9738:1 9739:1 9740:1 9741:1 9742:1 9743:1 9744:1 9745:1 9746:1 9747:1 9748:1 9749:1 9750:1 9751:1 9752:1 9753:1 9754:1 9755:1 9756:1 9757:1 9758:1 9759:1 9760:1 9761:3 9762:1 9763:1 9764:1 9765:1 9766:1 9767:1 9768:1 9769:2 9770:1 9771:10 9772:2 9773:1 9774:1 9775:2 9776:2 9777:1 9778:1 9779:2 9780:1 9781:1 9782:1 #
-0.00032653556192559690446106102079682 61:1 95:13 96:1 99:1 107:1 130:2 142:1 196:1 272:1 384:9 385:9 874:1 896:1 963:1 1016:1 1026:1 1308:10 1517:1 1636:1 1637:1 1654:1 2343:1 3029:1 3500:1 3501:1 3549:1 3593:2 4075:1 4076:1 4360:1 5242:1 6986:1 8587:1 10038:1 10491:1 16847:2 24329:1 24330:1 24331:1 24332:1 24333:1 24334:1 24335:1 24336:1 24337:1 24338:8 24339:1 24340:1 24341:1 24342:1 24343:1 24344:2 24345:1 24346:1 24347:1 24348:1 24349:1 24350:1 24351:1 24352:1 24353:1 24354:2 24355:1 24356:1 24357:1 24358:1 24359:1 24360:1 24361:6 24362:1 24363:4 24364:4 24365:4 24366:1 24367:1 24368:1 24369:1 24370:1 24371:1 #
0.0018311059463273565098978545861996 2:2 10:3 20:1 32:1 49:1 60:2 61:2 73:1 74:2 83:2 85:2 116:1 174:1 301:1 330:1 394:1 532:6 576:4 580:1 584:1 590:1 621:1 636:1 676:1 678:1 700:1 739:2 775:1 778:2 796:1 954:1 996:1 1103:1 1273:2 1639:1 1654:1 1762:1 1805:1 1941:1 1960:1 1975:1 1980:1 2021:1 2173:1 2204:1 2205:1 2215:1 2357:1 2358:1 2359:1 2360:1 2361:1 2362:2 2363:1 2364:1 2365:1 2366:1 2367:1 2368:1 2369:1 2370:1 2371:1 2372:1 2373:1 2374:2 2375:1 2376:1 2377:1 2378:1 2379:1 2380:1 2381:2 2382:1 2383:1 2384:1 #
-0.00040395202046177112326086344751275 62:1 98:3 214:1 216:1 344:1 538:1 550:1 621:1 843:1 1713:2 1794:2 2475:1 2874:1 3107:1 3991:1 4226:2 4539:1 4548:1 5767:1 6435:3 6837:1 7488:1 7847:1 7961:1 8921:7 8922:1 8923:1 8924:1 8925:1 8926:1 8927:1 8928:1 8929:1 8930:1 8931:1 8932:1 8933:1 8934:1 #
-0.00011683655096508566584995181258932 18:2 61:1 62:2 95:2 99:2 102:1 182:1 200:11 213:1 220:1 229:1 267:4 610:1 631:1 642:1 737:1 822:1 969:5 1282:2 1308:5 1539:2 1541:19 1637:1 1701:20 1766:1 1915:5 1916:5 1919:5 1930:1 1960:2 2084:1 2098:3 2493:1 2722:1 2874:1 3169:1 3258:2 3351:1 3825:1 4321:1 4420:1 4428:7 4439:1 4573:1 5794:2 7122:1 7919:6 7920:1 8019:1 10934:1 15412:1 15662:1 19507:2 21054:2 22638:1 23985:2 29771:1 29772:1 29773:11 29774:1 29775:1 29776:2 29777:2 29778:1 29779:2 29780:1 29781:1 29782:1 29783:1 29784:1 29785:5 29786:1 29787:5 29788:1 29789:1 29790:2 29791:1 29792:1 29793:1 29794:1 #
-0.00023927973774904838597660239329912 61:2 81:4 142:2 173:1 174:1 577:4 588:1 590:2 593:2 609:1 610:4 723:1 866:2 874:1 1105:8 1749:1 1751:3 1900:1 1906:1 1911:2 1941:1 1980:1 2276:1 2696:1 3256:1 4717:1 5492:1 5631:1 5721:1 9145:2 9146:2 9147:3 9148:1 9149:1 9150:2 9151:2 9152:1 9153:2 9154:2 9155:1 9156:1 9157:1 9158:1 9159:1 9160:2 9161:1 #
-0.0012810693870893004146782612195921 130:1 580:1 584:1 622:1 1308:1 1540:1 1915:1 1916:1 1919:1 3354:1 3802:1 5023:1 5780:1 7904:2 8051:1 25324:1 28872:2 28873:1 28874:1 28875:1 #
-0.00054238491501474759507589462614874 1:1 2:1 49:1 61:1 81:1 84:1 102:3 107:1 123:1 131:6 133:2 142:1 165:1 173:1 183:1 226:1 227:3 291:1 394:1 409:4 555:1 594:1 637:4 732:1 738:7 1034:4 1090:4 1115:1 1517:1 1535:1 1654:6 2008:2 2083:3 2091:1 2802:2 3388:1 3621:2 4430:1 4435:3 4766:1 4812:1 5067:2 5326:1 6498:1 6555:2 7767:1 7768:1 7769:1 7781:1 8380:2 8381:1 8382:2 8383:1 8384:1 8385:1 8386:1 8387:1 8388:1 8389:1 8390:1 8391:1 8392:1 8393:1 8394:1 8395:1 8396:1 8397:1 8398:1 8399:1 8400:1 8401:1 8402:1 8403:2 8404:2 8405:1 8406:1 8407:1 8408:1 8409:1 #
-0.00025968736474887534537367428377763 1:1 2:1 6:1 15:1 61:1 62:3 77:1 102:7 173:2 189:1 194:2 200:2 214:4 246:2 251:3 256:1 260:1 278:1 311:1 312:4 484:1 537:1 550:1 725:1 748:1 770:1 841:8 849:1 895:1 897:1 947:1 1594:1 1624:1 1626:1 1709:1 1755:1 1935:1 2050:1 2277:1 2383:1 2863:1 3027:1 3232:1 3370:1 3393:1 3491:1 3593:1 3650:1 3734:1 4083:1 4145:1 4256:1 4467:1 4525:1 4806:2 4816:1 4893:1 4933:2 5080:1 5507:1 5638:1 5958:1 6931:1 6935:2 6945:1 7840:1 8201:1 8593:1 8594:1 8595:2 8596:1 8597:1 8598:1 8599:1 8600:2 8601:1 8602:1 8603:1 8604:1 8605:1 8606:1 #
-0.00015650416590641324588242810911254 1:1 2:1 6:2 61:2 81:3 95:6 102:1 123:11 132:2 134:2 264:1 302:1 340:1 606:1 636:1 668:1 738:1 800:1 842:1 847:1 1041:2 1079:1 1275:5 1609:1 1821:1 1882:1 2008:3 2027:2 2118:1 2149:3 2166:4 2279:1 2582:1 2718:1 2854:1 2950:1 3027:1 3356:2 3789:1 4018:2 4141:1 4157:2 4204:1 4534:1 5520:1 8187:1 9153:1 9279:1 9911:1 13297:3 13298:6 13299:1 13300:1 13301:1 13302:1 13303:1 13304:3 13305:1 13306:7 13307:2 13308:1 13309:1 13310:1 #
-0.00051508804316067471288503876181153 7:1 62:1 70:1 96:1 102:1 167:1 174:1 175:1 197:1 202:1 593:1 896:1 1597:1 1624:1 1643:2 2277:1 2325:1 2343:1 2728:1 3027:1 3407:1 3617:1 5050:1 8415:1 11068:2 14346:1 16202:1 16203:1 16204:1 16205:1 16206:1 16207:1 16208:1 16209:1 16210:1 16211:1 16212:1 16213:1 16214:1 16215:1 #
-0.00045162942275450452134927248337704 20:1 22:2 61:1 62:2 71:2 77:1 95:6 109:1 198:1 280:1 536:2 584:1 602:2 653:2 732:1 796:1 816:2 842:1 1060:1 1685:1 1711:1 1755:2 1941:1 1955:1 2330:1 2498:2 3097:1 3098:1 3105:1 3149:1 3487:2 3727:1 3977:1 4766:1 5598:2 5666:1 5785:1 6697:2 7033:1 7128:1 7500:1 10541:1 10542:1 10543:2 10544:1 10545:1 10546:3 10547:2 10548:2 10549:1 10550:2 10551:1 10552:2 10553:1 10554:2 10555:1 10556:1 10557:1 10558:1 10559:1 10560:1 10561:1 10562:1 10563:3 10564:1 10565:1 10566:1 #
-0.00043395374825809480490504399519125 1:1 2:1 10:1 15:1 26:1 30:1 34:2 48:4 61:2 62:2 132:1 165:1 182:1 197:1 202:1 229:2 264:1 280:1 336:2 596:3 611:1 704:1 739:1 793:1 796:1 1639:1 1859:5 1892:1 2027:2 2149:1 2244:1 2564:1 2784:1 2876:1 3238:1 3797:1 4147:1 4240:1 4251:1 4302:1 4315:1 4427:1 4806:2 4904:1 5212:1 6048:1 6095:1 6670:1 6886:1 6935:1 7287:1 8331:1 8350:1 9409:1 10717:3 11192:1 12481:4 12482:2 12483:1 12484:1 12485:1 12486:2 12487:1 12488:1 12489:1 12490:1 12491:1 12492:1 12493:1 12494:1 12495:1 #
-0.00036122970727196313054513376883392 1:2 2:1 6:1 7:5 9:1 18:1 24:1 60:1 61:1 62:1 77:1 114:3 119:1 121:2 127:1 165:2 175:1 189:1 200:1 214:1 247:2 261:1 364:2 548:2 577:2 584:1 653:2 659:1 796:1 1541:1 1755:1 1892:2 1969:1 2330:1 2344:2 2564:1 2641:1 3086:1 3121:1 3234:2 3238:5 3335:1 3649:1 4141:1 4897:1 5530:2 5810:5 6545:1 7316:2 8066:1 8925:1 11217:1 11243:1 12146:1 12348:1 14937:1 15201:2 28095:1 28096:1 28097:2 28098:1 28099:1 28100:1 28101:1 #
-0.00082039684347948616405937771745016 2:4 27:2 62:1 102:1 131:2 132:1 175:1 577:1 621:1 636:1 653:2 752:1 782:2 787:1 796:1 841:1 1637:1 1718:1 1973:1 1980:1 2045:1 2765:1 3086:1 3624:3 3678:1 3988:1 4471:1 4645:1 17069:1 17070:2 17071:1 17072:1 17073:1 17074:1 17075:1 17076:1 17077:1 #
-0.0010734141419004924068031359141173 2:1 24:2 61:1 72:1 95:5 146:1 148:1 384:2 390:1 391:3 400:2 457:1 518:1 530:1 587:1 606:1 784:1 796:1 896:1 1821:2 2049:2 2343:2 3942:2 6670:1 7427:1 18600:1 18601:1 18602:1 18603:2 18604:1 18605:1 18606:1 18607:1 18608:1 #
-9.6975707705212560406568544912886e-05 2:3 9:2 34:2 41:2 61:1 62:1 68:2 72:2 77:1 78:1 81:4 95:2 119:1 142:2 151:1 174:3 194:1 199:2 297:1 364:1 422:2 550:9 559:1 587:1 594:4 598:1 666:1 782:1 821:2 1316:2 1771:2 2141:1 2249:6 2579:1 2607:1 3289:2 3403:1 3679:1 3854:1 3951:1 4229:4 4890:1 5485:1 6040:1 6191:4 6263:2 7120:1 7121:2 7225:1 7463:1 8662:1 9038:8 10632:1 10907:1 10911:4 12196:6 13220:2 17837:1 18696:1 19979:8 20345:1 28801:1 28802:1 28803:1 28804:2 28805:6 28806:4 28807:4 28808:9 28809:4 28810:4 28811:2 28812:2 28813:2 28814:2 28815:2 28816:2 28817:2 #
-0.00060458570481977636727061176102893 7:1 15:1 24:1 25:1 34:2 61:2 62:1 70:1 97:1 102:3 123:1 165:1 173:1 183:1 194:1 214:2 558:1 658:2 819:1 841:1 896:1 1033:1 1099:1 1688:1 1818:1 1894:1 1941:1 2128:2 2164:1 2244:1 2465:1 3229:1 3708:1 3782:1 4267:2 4528:1 4547:1 4599:1 4610:1 5539:1 6360:1 6412:1 7122:1 8517:2 8654:1 12443:1 12444:1 12445:1 12446:1 12447:1 12448:1 12449:2 12450:2 12451:2 12452:2 12453:2 12454:2 12455:1 12456:1 12457:1 #
-5.2362665561762554140932263146979e-05 6:2 32:1 61:2 62:1 72:1 81:6 82:1 95:33 107:3 119:2 123:2 129:1 131:2 200:1 225:1 226:1 229:1 247:1 300:1 310:1 378:20 379:23 384:7 385:1 394:1 411:1 412:2 421:2 422:1 450:1 457:1 458:2 462:3 493:5 494:4 506:7 508:3 558:1 577:3 578:1 593:1 675:1 677:1 723:1 732:1 738:1 754:1 786:1 793:1 841:1 842:2 858:3 901:1 1020:1 1021:1 1022:1 1023:1 1028:1 1047:1 1066:1 1086:1 1103:2 1109:1 1323:1 1329:5 1497:1 1512:1 1519:5 1541:1 1550:4 1552:2 1636:15 1655:1 1713:2 1771:1 1821:4 1908:1 1921:1 1947:1 1952:2 2049:9 2164:2 2196:1 2249:2 2289:1 2351:2 2464:1 2658:1 2727:2 3234:1 3263:2 3354:1 3390:1 3500:1 3924:1 3932:4 3950:2 3957:1 3992:2 4226:7 4246:1 4252:1 4547:1 4561:1 4670:1 4827:1 4842:1 4993:3 5509:1 5674:1 5675:5 5678:7 5824:3 5833:1 5939:1 6531:2 6538:1 6927:1 7441:2 7560:2 7562:1 7564:1 7928:1 8242:1 8502:7 9583:1 10504:1 10521:2 10906:1 11305:1 11794:1 11795:1 11999:1 12000:1 12001:1 12002:1 12003:1 12004:1 12005:1 12006:1 12007:1 12008:1 12009:2 12010:2 12011:1 12012:2 12013:1 12014:1 12015:1 12016:3 12017:1 12018:1 12019:1 12020:2 12021:1 12022:1 12023:1 12024:1 12025:1 12026:2 12027:1 12028:1 12029:1 12030:1 12031:1 12032:1 12033:1 12034:1 12035:1 12036:1 12037:1 12038:2 12039:1 12040:3 12041:1 12042:5 12043:1 12044:1 12045:1 12046:1 12047:1 12048:2 12049:3 12050:1 12051:1 12052:1 12053:1 12054:1 12055:1 12056:1 12057:1 12058:1 12059:1 12060:1 12061:1 12062:1 12063:1 12064:1 12065:1 12066:1 12067:1 12068:1 12069:1 12070:1 12071:1 12072:1 12073:1 12074:2 12075:3 12076:1 12077:1 12078:1 12079:1 12080:1 12081:1 12082:2 12083:1 12084:1 12085:1 12086:1 12087:1 12088:1 12089:1 12090:1 12091:4 12092:1 12093:1 12094:1 12095:1 12096:1 12097:2 12098:1 12099:1 12100:1 12101:2 12102:1 12103:1 12104:1 12105:1 12106:1 12107:1 12108:1 12109:2 12110:1 12111:1 12112:1 #
-0.00042857017573734971930057846556394 1:1 2:3 61:1 62:1 84:5 98:1 123:1 131:4 227:1 272:1 331:2 738:3 786:1 1041:1 1056:1 1075:1 1593:1 1631:1 1642:1 1661:1 1816:1 2149:1 2244:1 2485:3 2776:1 3048:1 3672:1 3957:1 4260:3 4457:2 4679:1 4718:1 4837:1 4838:1 5636:1 5652:1 6027:1 7500:1 10419:1 12461:1 17065:1 17888:1 24117:1 25362:1 25363:2 25364:3 25365:1 25366:2 25367:1 25368:1 25369:1 25370:1 #
-0.0015933975107149877473849963749331 6:1 20:1 26:1 32:2 61:2 62:1 74:3 77:1 229:1 559:1 577:3 796:1 799:1 1597:1 3707:1 3955:1 5080:1 8198:1 9147:1 9438:1 9913:2 10911:1 10965:1 13365:1 #
-0.00041870843736867920017313826619443 1:1 2:2 26:1 31:1 61:1 62:1 102:2 173:1 224:1 227:2 593:1 725:2 841:3 921:1 1749:1 1883:1 1934:1 2166:1 2367:1 3128:1 3180:1 3476:1 3477:1 3478:2 3479:1 3480:1 3481:1 3482:2 3483:1 3484:1 3485:1 3486:1 3487:1 3488:2 3489:1 3490:1 3491:1 3492:1 3493:1 3494:1 3495:1 3496:1 3497:1 #
-0.00059915213202748512141132541941602 15:3 18:3 30:1 61:1 95:3 118:1 131:5 205:1 636:1 730:1 841:2 1060:1 1071:1 1643:1 1755:1 2780:1 2784:1 3182:1 3737:1 4420:1 4866:1 5023:1 6931:1 8613:2 9970:1 9971:3 #
-0.00013730887322792185013635435364421 2:6 20:2 32:3 61:3 77:1 102:2 119:2 142:1 173:1 182:1 187:1 220:1 225:2 256:1 287:1 347:5 394:1 616:1 636:1 750:2 784:1 796:3 841:1 968:2 970:2 1315:1 1495:1 1648:2 1921:2 2057:3 2367:2 2468:1 3167:1 4083:1 4116:1 5074:1 5932:5 6043:3 7135:1 7905:2 9130:3 9132:7 12172:3 15264:1 22143:1 25061:2 25062:1 25063:2 25064:2 25065:2 25066:1 25067:1 #
-0.0012382657988088245377272800240576 1:1 2:1 4:1 15:1 20:1 62:2 558:1 738:4 752:1 1055:1 1821:2 2530:1 3681:1 3778:1 5310:1 5610:1 6180:1 6244:1 6691:1 7675:1 16985:2 #
-0.00019951272114314679505774063894563 18:1 24:1 62:2 68:1 138:1 148:1 165:2 174:1 175:1 246:1 263:1 300:1 534:1 539:3 550:1 667:1 730:1 895:1 1054:1 1080:1 1092:1 1101:1 1605:1 1639:1 1698:1 1814:1 2166:1 2275:1 2350:1 2660:1 2718:1 3027:1 3121:1 3361:1 3570:1 3649:1 3737:1 3930:1 4398:1 4539:1 5666:1 5731:1 6850:1 7961:1 8221:2 8923:1 9434:1 9438:1 9614:1 10357:1 10358:2 10359:1 10360:1 10361:1 10362:1 10363:1 10364:1 10365:2 10366:2 10367:1 #
-0.00015386180154749383398524176236322 1:2 32:1 33:1 61:4 62:1 85:2 138:2 197:1 324:1 487:1 538:1 631:1 739:1 786:1 825:3 842:1 853:14 896:1 1016:2 1316:2 1624:3 1689:1 1690:1 1853:2 1915:4 1932:1 1933:1 1948:3 2869:3 3084:1 4827:1 6739:1 6745:4 6934:1 7867:3 7868:1 7869:1 7870:1 7871:1 7872:1 7873:1 7874:1 7875:1 7876:1 7877:1 7878:1 7879:2 7880:1 7881:1 7882:1 7883:2 7884:1 7885:1 7886:1 7887:1 7888:1 7889:1 7890:1 7891:1 7892:1 7893:1 #
-0.00049823286481011635085797140121144 8:1 22:1 30:2 62:1 98:1 115:1 118:1 131:1 153:4 164:1 165:3 173:1 175:1 240:1 580:1 598:1 623:1 625:1 668:1 738:1 830:1 832:2 861:1 883:1 963:1 1098:1 1514:2 1515:1 1642:1 1703:1 1705:1 1748:1 1902:1 2083:1 2393:2 2579:1 2696:1 3500:1 3545:1 3624:1 4155:1 4260:1 4424:1 4897:2 5043:1 5054:1 5067:2 5507:1 5665:1 6117:1 6435:1 7677:1 10175:2 11316:1 11563:1 12301:1 14978:2 15328:1 16052:1 16155:3 21301:1 21302:1 21303:1 21304:1 21305:1 21306:1 21307:1 21308:1 21309:1 21310:1 21311:1 #
-0.00022794325418180346300503491541178 2:1 15:1 18:1 36:2 61:1 84:1 118:3 131:3 165:1 227:2 263:2 272:2 538:1 718:1 738:2 1654:2 1794:1 1816:3 1910:1 2149:4 2277:1 2696:1 3055:1 3669:3 3670:5 3957:1 4072:1 4837:1 4838:1 4846:1 6058:1 7905:1 9040:1 12461:1 14943:1 17100:1 17102:1 17888:1 19373:1 21378:2 22189:1 24115:2 24116:3 24117:1 24118:1 24119:3 24120:1 #
-0.00045867164113215627609804192488241 18:1 62:2 98:2 112:1 118:1 131:2 152:3 158:1 229:1 577:2 595:1 749:1 753:1 874:1 1613:1 1750:1 2268:1 2277:1 2696:1 3030:2 3701:1 4536:2 4806:3 7082:3 9927:1 18000:4 18001:1 18002:1 18003:1 18004:2 18005:1 18006:1 #
-0.00060158237117598201398188662025746 15:1 18:1 20:1 22:1 27:2 30:2 62:1 122:1 165:2 229:4 303:1 577:2 658:1 1552:1 1654:1 1941:1 2164:1 2657:1 3045:1 3367:1 5050:1 5066:1 5180:1 5181:3 5182:1 5183:1 5184:1 5185:1 5186:1 #
-0.00014448738613700160601099886648058 2:4 11:1 18:1 19:1 22:3 34:1 61:3 62:2 71:1 77:1 81:1 95:1 102:3 123:1 164:1 174:1 191:1 194:1 264:2 310:1 335:1 487:1 560:1 569:1 598:1 640:1 667:1 754:1 797:1 841:4 896:1 899:1 909:1 1026:1 1033:1 1047:1 1084:1 1315:1 1498:2 1655:1 1698:1 1761:1 1774:1 1933:3 1955:1 2279:1 2351:3 2374:1 2399:1 2470:1 2530:1 2568:1 2573:1 2780:1 3028:1 3038:2 3039:2 3182:1 3202:1 3220:1 3397:2 3593:2 3637:1 3814:1 3996:1 4252:1 4256:1 4263:1 4279:1 4321:1 4511:2 4697:1 5475:1 5598:1 5611:1 5928:2 6696:1 7124:1 7138:2 7241:2 7979:1 7982:1 9626:1 9664:1 9785:1 10258:1 10500:1 10837:1 10838:1 10839:1 10840:1 10841:1 10842:1 10843:2 10844:1 10845:1 10846:1 10847:1 10848:1 10849:1 10850:1 10851:1 10852:1 10853:1 10854:1 10855:1 10856:1 10857:1 10858:1 10859:1 10860:1 10861:1 10862:1 10863:1 10864:1 10865:1 10866:1 10867:1 10868:1 10869:1 10870:1 #
-0.0011115838190011602653467503998286 131:1 205:1 246:1 384:1 385:1 394:3 921:1 1630:1 1921:2 2467:1 3858:1 5694:1 7645:1 7951:1 11480:2 12771:1 17600:1 17601:2 17602:1 #
-0.00037905666472839495174940172006472 7:1 8:1 15:1 21:1 61:1 62:2 77:1 165:1 245:2 330:2 395:1 587:1 588:1 594:1 723:1 880:2 1054:2 1760:1 1955:1 2189:2 2328:1 2646:1 2784:1 3040:1 3390:1 3411:1 3479:1 3720:1 3748:2 3797:2 4717:1 4723:1 12868:1 12869:1 12870:1 12871:1 12872:1 12873:1 12874:1 12875:1 12876:1 12877:1 12878:1 #
-5.5210768100782483017944374248387e-05 2:1 32:1 61:1 62:1 81:1 112:1 142:1 153:1 194:1 247:2 280:1 336:2 384:3 385:1 394:5 464:1 550:2 669:1 738:1 819:1 1086:1 1495:2 1694:1 1730:1 1770:2 1777:1 1810:1 1921:2 2091:1 2252:1 2640:1 4136:1 4202:2 4315:1 4353:1 4472:1 5269:8 5958:1 6134:3 6136:2 6137:1 6138:1 6139:1 6140:1 6141:2 6142:1 6143:1 6148:1 6150:1 6158:2 6908:1 6970:2 6982:1 6986:2 8103:1 8679:2 11364:6 12692:1 12942:1 13068:1 15538:1 17449:1 17450:1 17451:1 17452:2 17453:2 17454:2 17455:1 17456:1 17457:1 17458:1 17459:1 17460:1 17461:1 17462:2 17463:1 17464:3 17465:2 17466:1 17467:2 17468:2 17469:2 17470:2 17471:1 17472:1 17473:2 17474:3 17475:1 17476:1 17477:1 17478:1 17479:13 17480:1 17481:1 17482:1 #
-5.1172249026644077082859318750252e-05 2:1 27:13 31:1 62:3 109:1 127:1 131:4 220:1 256:1 278:1 303:1 349:1 383:4 577:2 622:1 636:1 640:1 653:2 723:1 746:1 770:3 847:1 874:1 969:4 1098:2 1515:3 1642:1 1689:1 1756:1 1762:1 1766:1 1793:4 1915:4 1916:4 1919:4 1920:4 1921:4 1922:4 1951:1 1975:4 2079:1 2237:3 2248:1 2382:1 2696:1 2718:1 2874:1 3335:1 3352:1 3357:1 3386:1 3720:1 3930:1 4043:1 4232:1 4353:1 4458:1 4960:2 5612:2 5616:1 6057:1 6435:7 7637:1 7943:2 9065:2 9189:1 9237:1 9238:2 9239:1 9240:1 9241:1 9242:2 9243:1 9244:11 9245:1 9246:2 9247:1 9248:2 9249:1 9250:1 9251:1 9252:1 9253:1 9254:1 9255:1 9256:1 9257:1 9258:1 9259:1 9260:1 9261:1 9262:1 9263:1 9264:1 9265:1 9266:1 9267:1 9268:1 9269:1 #
-0.00019522862798799958238687990430549 2:3 11:1 61:1 62:1 63:1 95:1 96:1 102:1 117:3 118:3 119:1 127:1 131:6 142:1 173:1 245:2 263:2 331:1 738:1 756:1 796:1 800:1 911:1 944:1 1055:1 1091:1 1098:2 1121:1 1636:1 1657:1 1761:1 1766:1 1782:1 1784:2 2006:1 2166:2 2332:1 2772:1 2778:1 2874:2 3105:1 3361:1 3970:6 3972:3 4110:1 5134:1 5798:5 7779:1 8221:1 13082:1 16792:1 16793:1 16794:2 16795:1 16796:1 16797:1 16798:1 16799:1 16800:1 16801:2 16802:1 16803:1 16804:1 16805:1 16806:1 #
-0.00065172996520425927145098166093362 15:1 18:1 34:1 61:1 95:3 102:3 173:1 194:1 216:1 219:1 312:1 332:1 587:1 742:1 796:1 841:2 849:1 1777:1 1821:1 1898:2 1931:1 3032:1 3085:1 4016:1 4260:1 4266:1 6927:1 6934:1 7441:1 7991:1 8276:1 12866:1 15244:2 29362:4 29363:1 29364:1 29365:2 29366:1 29367:1 29368:1 29369:1 29370:1 29371:1 29372:1 29373:1 29374:1 29375:1 29376:1 #
-0.0013188722547482275172098242776997 102:1 205:1 537:1 896:1 1026:1 2101:1 2523:1 2724:1 4606:1 8216:1 10306:1 13082:1 22435:2 22436:1 22437:1 22438:1 #
-1.5556835757345651989440316054214e-05 2:1 32:1 61:1 71:1 199:1 332:2 336:4 349:1 580:1 730:4 925:4 1055:1 1090:2 1115:4 1587:4 1624:1 1654:2 1657:1 1794:20 1892:1 1922:1 2008:1 2027:3 2244:2 2277:1 2390:1 2448:1 2499:5 2606:1 2646:1 3104:1 3145:4 3342:1 3410:1 3658:1 3680:1 3704:1 3770:1 3932:1 3990:1 4233:1 4292:1 4402:2 4713:1 5080:2 5309:1 5912:1 5940:2 6266:11 6356:1 6503:2 6892:2 8183:1 8366:3 8832:1 9420:1 10396:1 10518:1 11531:3 12494:1 12511:2 14330:3 14705:1 15458:1 18005:1 19717:1 19914:1 24469:4 24723:1 28274:1 28275:1 28276:1 28277:1 28278:4 28279:4 28280:2 28281:2 28282:1 28283:1 28284:1 28285:1 28286:1 28287:7 28288:1 28289:7 28290:1 28291:22 28292:3 28293:4 28294:1 28295:6 #
-0.00020933843138602054034791422054695 41:1 61:1 62:1 132:1 153:1 205:1 225:1 577:2 582:1 585:2 593:1 750:1 754:1 764:1 1141:5 1552:2 1648:2 1653:1 1750:1 1751:1 2098:1 2722:1 4048:1 7905:1 15787:1 15788:3 15789:1 15790:1 15791:1 15792:1 15793:1 15794:1 15795:1 15796:1 15797:1 15798:1 15799:2 15800:3 15801:1 15802:1 15803:2 15804:1 15805:1 15806:1 #
-0.00089605095131036708450134042891477 62:1 118:1 1308:2 1713:1 1742:1 1794:1 1914:1 1915:2 1916:2 1918:1 1919:1 1920:1 1921:2 1922:1 1923:1 3361:1 3647:1 4356:1 4404:1 6692:1 13429:1 30975:1 30976:1 30977:1 30978:2 #
-0.00075512848287908836998616468605405 546:2 797:1 798:1 885:3 1597:1 1689:1 2871:1 4717:1 5301:1 5786:2 6218:1 13217:1 27941:2 27942:1 27943:1 27944:1 27945:1 27946:1 #
-0.00057585690129571560219590153906211 2:3 11:1 62:1 108:1 174:3 198:1 199:1 220:2 252:1 537:1 787:2 1515:1 1544:1 1636:2 1902:1 2166:1 3625:1 5079:1 5080:1 5081:1 5082:1 5083:1 5084:1 5085:1 5086:2 5087:1 5088:1 5089:1 5090:1 #
-0.00070913594320985479015767571908668 2:2 14:1 20:1 132:1 165:1 205:1 229:1 300:1 550:1 564:1 642:1 644:1 664:1 1054:1 1636:1 1883:2 1908:1 2344:1 2393:1 3145:1 3633:1 3634:1 3635:1 3636:1 3637:1 3638:1 3639:1 3640:1 3641:1 3642:1 3643:1 #
