SVM-light Version V6.02
0 # kernel type
3 # kernel parameter -d 
1 # kernel parameter -g 
1 # kernel parameter -s 
1 # kernel parameter -r 
empty# kernel parameter -u 
32208 # highest feature index 
1558 # number of training documents 
297 # number of support vectors plus 1 
1.0560557 # threshold b, each following line is a SV (starting with alpha*y)
-0.00026486856605273823711543812464697 27:1 29:1 34:1 78:1 127:1 146:1 166:2 201:1 217:1 282:1 359:1 389:1 391:3 396:1 593:1 594:1 596:1 606:1 615:1 743:3 749:2 911:3 1072:3 1085:1 1447:3 1473:3 1491:1 3424:2 3713:1 4873:5 4883:1 7436:2 7788:1 11071:1 13959:1 15813:1 15814:1 15815:4 15816:1 15817:2 15818:1 15819:1 15820:1 15821:4 15822:1 15823:1 15824:1 15825:1 15826:1 15827:1 15828:1 15829:1 15830:1 15831:1 15832:1 15833:3 15834:1 15835:1 15836:1 15837:1 #
-0.00044118958252976951889615109259069 1:1 27:2 72:1 130:1 136:1 259:1 285:1 342:3 397:2 427:1 450:2 534:3 597:1 961:1 968:1 1607:1 1794:1 2604:2 2681:1 2790:1 2914:5 3169:1 3909:2 4054:1 4193:1 4528:2 4625:1 5744:1 6001:1 6005:1 6623:1 6780:1 8170:1 8371:1 8521:1 9757:1 10211:1 10212:3 10213:1 10214:1 10215:1 10216:4 10217:1 10218:1 10219:3 10220:1 10221:1 10222:2 10223:1 #
-0.0018664018332016064048717307599645 20:1 24:1 27:1 34:2 41:1 42:1 61:1 69:1 74:2 101:1 140:3 151:1 152:1 250:1 253:1 262:1 263:2 336:1 404:3 458:1 475:1 492:1 536:3 930:1 961:1 1220:1 1339:1 1396:1 2251:1 2459:1 3018:1 4267:1 4603:1 4806:1 5214:1 5440:1 6007:1 6808:1 7073:1 8079:1 18713:1 18856:1 19483:1 19484:1 19485:1 19486:1 19487:1 19488:2 19489:1 19490:1 19491:1 19492:1 19493:2 19494:1 19495:1 19496:1 19497:1 19498:1 19499:1 19500:1 19501:1 19502:1 #
-5.0808886817219693870888164166644e-05 1:2 27:2 31:1 34:1 39:1 246:1 250:4 365:2 1788:2 3125:2 6436:2 8521:1 9018:1 14133:2 21277:5 21278:1 21279:2 21280:6 21281:2 21282:4 21283:2 21284:2 21285:14 21286:2 21287:2 21288:2 21289:2 21290:2 21291:1 21292:1 21293:1 21294:1 21295:2 21296:2 21297:2 21298:2 21299:2 21300:2 21301:2 21302:1 #
-0.00052329039741619905613118080012214 27:2 29:2 34:1 44:6 59:3 69:1 130:1 201:4 207:1 248:12 385:1 391:1 396:1 485:1 487:1 583:1 823:4 1162:1 1198:1 1418:1 1533:1 2251:1 2252:1 2253:2 2254:1 2255:1 2256:1 2257:1 2258:1 2259:4 2260:2 2261:2 2262:2 2263:1 2264:1 2265:1 2266:1 2267:1 2268:1 2269:1 2270:1 2271:1 2272:1 2273:1 2274:1 2275:1 2276:1 #
0.004548175621347276369188517008979 1:1 2:1 3:1 4:1 5:1 6:1 7:3 8:1 9:1 10:1 11:4 12:1 13:2 14:2 15:1 16:1 17:1 18:1 19:1 20:1 21:1 22:1 23:1 24:3 25:2 26:3 27:1 28:1 29:1 30:1 31:1 32:1 33:1 34:2 35:1 36:1 37:1 38:1 39:1 40:2 41:1 42:1 #
0.004548175621347276369188517008979 1:1 2:2 13:2 27:1 29:2 34:2 43:1 44:2 45:4 46:2 47:1 48:1 49:2 50:1 51:1 52:1 53:2 54:1 55:2 56:1 57:1 58:1 59:1 60:1 61:6 62:1 63:1 64:3 65:2 66:1 67:2 68:2 69:2 70:2 71:2 72:2 73:4 74:2 75:1 76:1 77:2 78:4 79:2 80:2 81:3 82:2 83:2 84:3 85:2 86:2 87:2 88:2 89:2 90:2 91:1 92:2 93:2 94:2 95:1 96:1 97:1 98:1 99:1 100:1 101:1 102:1 103:1 104:1 105:1 #
0.004548175621347276369188517008979 1:1 2:3 3:1 4:1 11:5 13:2 14:2 15:1 16:1 17:1 18:1 19:1 20:1 21:1 22:1 24:1 27:1 28:1 29:1 30:1 31:1 40:1 74:2 78:1 106:1 107:1 108:1 109:1 110:1 111:1 112:1 113:1 114:1 115:1 116:1 117:1 118:1 119:2 120:1 121:1 122:1 123:1 124:1 125:1 #
0.004548175621347276369188517008979 1:1 2:1 13:3 27:1 29:1 34:1 43:1 44:1 45:1 46:1 53:4 54:1 55:2 56:1 57:1 58:1 61:2 63:1 64:2 65:2 66:1 67:1 68:1 69:1 70:1 71:1 72:1 73:2 74:1 75:2 76:1 77:1 78:2 79:1 80:1 81:1 82:1 83:1 84:1 85:1 86:1 87:1 88:1 89:1 90:1 91:1 92:1 93:1 94:1 107:1 126:1 127:1 128:1 129:1 130:1 131:1 132:1 133:1 134:1 135:1 136:1 137:1 138:1 139:1 140:1 141:1 142:1 #
0.0023550964385379053074587307747834 1:2 3:1 27:2 29:1 34:1 45:1 78:5 136:1 138:1 143:1 144:1 145:1 146:2 147:1 148:1 149:2 150:1 151:2 152:1 153:1 154:2 155:1 156:1 157:1 158:1 159:1 160:1 161:1 162:1 163:1 164:1 165:1 166:1 167:1 168:1 169:1 170:1 171:1 172:5 173:5 174:5 175:1 176:10 177:1 178:1 179:5 180:5 181:5 182:1 183:2 184:1 185:5 186:5 187:1 188:5 189:5 190:1 191:5 192:1 193:1 194:5 195:5 196:5 197:5 198:5 199:2 200:4 201:19 202:4 203:1 204:1 205:1 #
-0.001164341941298707109458954178649 1:2 3:1 13:1 27:3 28:1 39:1 44:2 45:6 48:1 59:2 69:5 72:1 125:1 143:1 151:1 247:1 250:2 262:1 282:1 342:1 383:2 389:1 391:4 404:2 458:3 545:1 557:2 576:1 577:1 583:1 585:1 594:1 697:2 913:1 1014:1 1402:1 1417:1 1429:1 1473:1 1475:1 1606:1 1669:2 1795:1 2214:1 2367:1 2427:5 2652:1 3973:1 4210:2 6007:1 6037:1 6571:1 6894:2 8452:1 10237:1 10435:1 10766:2 10800:1 10904:2 11327:2 12009:1 17209:1 27471:1 27472:1 27473:1 27474:1 27475:1 27476:1 27477:1 27478:1 27479:1 27480:1 27481:1 27482:2 27483:1 27484:1 27485:1 27486:1 #
-0.00050888952949648203274990443389925 27:2 69:1 136:1 235:1 284:1 536:1 581:1 583:2 653:1 743:1 745:1 933:1 1122:1 1145:1 1165:1 1225:1 1452:1 2601:1 2837:2 3449:1 3527:1 4232:1 5484:1 5640:1 7010:2 7409:1 7528:1 8149:1 8158:1 10241:1 12577:1 12580:2 20566:1 21045:1 21132:1 21136:1 26657:1 26658:1 26659:1 26660:1 26661:1 26662:1 26663:1 26664:1 26665:1 26666:2 26667:2 26668:1 26669:1 26670:1 26671:1 #
-0.00010278678601743675418301454671521 1:3 13:6 22:2 27:4 34:2 48:2 55:2 59:14 64:6 69:2 73:1 78:14 130:1 136:1 166:9 249:2 262:1 263:6 282:1 389:1 402:1 545:1 593:9 602:20 728:3 741:1 911:1 922:1 977:6 1339:1 1410:11 1447:1 1497:3 1505:1 1506:1 1510:1 1620:6 1621:6 1704:1 1941:14 2238:1 2273:1 2300:1 2367:2 2427:10 2559:9 2606:1 2723:2 2952:1 3125:9 3227:12 3249:1 3250:1 3985:1 4115:9 4127:6 4149:1 4589:2 5168:1 5381:1 5473:1 6767:2 7010:1 7436:1 8219:9 8285:2 8480:1 8585:1 11069:2 12950:1 12951:1 12952:1 12953:5 12954:1 12955:1 12956:4 12957:1 12958:2 12959:1 12960:6 12961:1 12962:2 12963:1 12964:1 12965:1 12966:1 12967:1 12968:2 12969:4 12970:4 12971:1 12972:1 12973:2 12974:1 12975:1 12976:1 12977:1 12978:1 12979:1 12980:1 12981:1 12982:1 12983:1 12984:1 12985:2 12986:2 12987:1 12988:1 12989:1 12990:1 12991:2 12992:1 12993:1 12994:1 12995:1 12996:1 12997:1 12998:1 12999:2 13000:2 13001:1 13002:1 13003:1 13004:1 13005:2 13006:1 13007:9 13008:1 13009:2 13010:1 13011:1 13012:1 13013:1 13014:1 13015:1 13016:1 13017:1 13018:1 13019:1 13020:1 13021:1 13022:1 13023:1 13024:1 13025:1 13026:1 13027:1 #
-0.0010128335155155706454044306497053 1:1 4:4 31:1 32:2 52:1 127:1 130:1 152:1 219:1 250:1 261:1 465:1 466:1 576:1 577:1 638:1 1089:2 1410:2 1452:1 1480:2 1679:1 1922:1 2238:3 2239:1 2290:1 2372:1 3171:1 3504:2 3553:1 3555:1 4694:1 4695:3 4696:1 4697:1 4698:3 4699:1 4700:1 4701:1 4702:1 4703:1 4704:1 4705:1 4706:1 4707:1 4708:1 4709:1 #
-0.0038436188204847691364529627122693 1:3 27:1 28:1 30:1 31:1 43:1 53:2 64:4 69:1 128:1 139:1 151:3 152:1 208:1 214:3 253:1 403:1 475:1 487:1 575:1 749:2 776:1 821:2 824:1 977:1 982:1 1006:1 1366:1 1673:1 3279:1 3878:1 4379:1 4724:1 5415:1 7873:2 7874:1 7875:1 7876:1 7877:1 7878:1 7879:1 7880:1 7881:1 7882:2 7883:1 7884:1 7885:1 7886:1 #
0.004548175621347276369188517008979 1:1 4:1 48:2 64:1 69:1 151:1 248:1 249:1 250:1 251:1 252:2 253:2 254:1 255:1 256:1 257:2 258:1 259:1 260:1 261:1 262:2 263:1 264:1 265:1 266:1 267:1 268:1 269:1 270:1 271:1 272:2 273:2 274:1 275:1 276:1 277:1 278:3 279:1 280:2 281:1 282:3 283:1 284:2 285:1 286:1 287:1 288:1 289:1 290:1 291:1 292:1 293:1 294:1 295:1 296:1 #
0.004548175621347276369188517008979 27:1 218:1 766:1 1495:1 1496:1 1497:1 1498:1 1499:1 1500:1 1501:1 1502:1 1503:1 1504:1 1505:2 1506:2 1507:2 1508:2 1509:1 1510:1 1511:1 1512:1 1513:1 #
0.004548175621347276369188517008979 29:1 30:1 32:1 279:1 285:1 394:1 428:1 475:1 487:1 581:1 638:1 998:1 999:1 1000:2 1001:1 1002:1 1003:1 1004:1 1005:1 #
0.004548175621347276369188517008979 1:1 27:1 34:1 246:1 302:1 569:1 580:1 581:1 582:1 583:1 584:1 585:1 586:1 587:1 588:1 #
0.004548175621347276369188517008979 22:2 27:1 29:2 47:1 224:1 279:2 282:1 301:1 333:6 350:1 362:1 692:2 749:1 800:1 1503:1 1570:1 1572:2 1612:5 1630:1 1631:1 1632:1 1633:1 1634:2 1635:1 1636:2 1637:1 1638:2 1639:2 1640:1 1641:2 1642:3 1643:1 1644:1 1645:1 #
-0.002730250960432072451777862909239 1:3 2:1 3:1 7:3 27:2 29:3 48:16 55:11 59:4 69:1 74:2 125:1 130:1 138:1 140:1 141:1 145:1 250:1 282:1 299:1 386:1 394:1 655:2 728:2 896:1 1000:1 1010:2 1156:1 1327:1 1417:1 1419:1 1697:1 1715:1 1795:1 2184:1 2198:1 2231:1 2307:1 2984:1 3828:2 4272:2 4715:1 4716:1 4717:1 4718:2 4719:1 4720:1 4721:1 4722:1 #
-0.0027902021063817392283745721925925 1:1 2:3 27:3 29:1 61:1 77:5 79:7 125:1 138:1 362:1 394:1 404:1 545:2 743:1 824:1 1188:1 1375:1 1548:4 1880:1 2116:1 2162:1 2628:1 6150:1 6375:1 6632:1 7581:3 8715:3 18949:3 19845:3 26753:1 26754:3 #
-0.0005027348094582284338677213852975 1:1 27:1 34:2 39:1 59:1 72:1 78:2 97:3 130:1 136:1 235:3 246:1 362:1 442:4 539:2 552:1 581:2 983:1 1032:1 1447:1 1527:2 1819:1 2184:1 2427:1 2429:2 3161:1 3490:1 4043:1 8506:1 8507:1 8508:1 8509:1 8510:1 #
-0.004548175621347276369188517008979 1:5 3:2 6:2 13:10 22:6 27:3 29:1 34:3 45:2 56:1 64:3 69:1 77:2 78:1 93:4 138:1 139:1 152:2 166:2 211:1 224:2 235:1 264:1 271:5 281:2 282:1 301:2 310:1 333:1 338:2 391:1 397:3 471:1 514:3 524:1 527:1 531:1 592:1 593:1 608:1 660:1 728:1 738:1 823:5 824:1 843:2 847:1 892:1 968:1 977:1 983:2 995:1 1035:1 1059:1 1061:2 1072:2 1312:2 1339:2 1412:1 1418:2 1570:1 1572:2 1636:2 1697:1 1940:1 1941:1 1942:1 1974:2 2010:1 2013:1 2023:1 2168:1 2184:1 2192:1 2372:1 2445:1 2871:1 3413:1 4654:1 5101:3 5345:1 5751:1 6591:1 8051:1 8956:1 9520:1 9667:1 12476:1 12480:1 12705:1 14256:1 14257:2 14258:2 14259:1 14260:1 14261:1 14262:1 14263:1 14264:1 14265:1 14266:1 14267:1 14268:1 14269:1 14270:1 14271:1 14272:1 14273:1 14274:1 14275:1 14276:1 14277:1 14278:1 14279:1 14280:1 14281:3 14282:1 14283:1 14284:1 14285:1 14286:1 14287:1 14288:1 14289:1 14290:1 14291:1 14292:3 14293:1 14294:1 14295:1 14296:1 14297:1 14298:1 14299:1 #
-0.0010661351181161847576778223256611 2:4 27:3 29:3 32:2 48:2 55:1 57:1 77:1 79:3 131:1 134:1 166:1 201:1 247:1 250:1 259:2 466:1 488:2 539:2 570:1 902:2 994:4 1174:1 1252:2 1357:1 1399:1 1400:1 1419:2 1420:1 1440:1 2310:1 2486:1 2536:1 2628:1 2897:1 2986:1 3208:1 3827:1 4202:1 4223:1 4938:2 5951:1 6158:1 6333:1 6547:1 6571:2 6577:1 6758:1 8711:1 8917:2 15039:1 16872:9 28761:4 28762:1 28763:1 28764:1 28765:1 28766:4 28767:1 28768:1 28769:3 28770:4 28771:2 28772:2 28773:1 28774:7 28775:3 28776:2 28777:2 28778:3 28779:2 28780:2 28781:1 28782:1 28783:1 28784:1 28785:1 28786:1 28787:1 28788:2 28789:1 28790:1 28791:1 28792:1 28793:1 28794:1 #
0.0036282696053486079845740164273593 1:1 3:1 22:17 27:2 31:1 42:1 45:2 48:2 59:14 93:2 125:1 130:1 136:1 151:1 219:4 235:1 279:2 282:1 285:1 297:1 298:1 299:1 300:1 301:1 302:1 303:1 304:1 305:2 306:1 307:1 308:1 309:1 310:1 311:1 312:1 313:1 314:1 315:5 316:1 317:1 318:6 319:1 320:1 321:1 322:1 323:1 324:2 325:2 326:1 327:1 328:1 329:1 330:1 331:1 332:1 333:1 334:1 335:1 336:1 337:1 338:3 339:7 340:8 341:8 342:14 343:2 344:2 345:4 346:1 347:2 348:2 349:2 350:1 351:1 352:1 353:1 354:1 355:2 356:1 357:1 358:1 #
0.00031088108319010697780382379562525 1:2 3:5 7:3 22:16 27:2 29:6 34:4 42:1 45:3 47:5 48:2 56:3 59:9 77:3 79:3 93:7 97:1 107:1 127:2 139:1 151:2 152:4 211:1 213:1 235:9 247:2 253:3 259:1 279:3 282:2 284:1 285:10 300:5 302:1 303:1 304:2 305:3 361:2 383:1 397:4 407:10 418:2 420:9 441:4 453:1 458:2 466:3 477:1 499:1 514:2 520:1 524:1 527:1 530:1 531:1 536:2 735:1 736:2 737:1 738:2 739:2 740:1 741:4 742:1 743:4 744:1 745:1 746:1 747:1 748:1 749:1 750:2 751:2 752:2 753:1 754:1 755:2 756:2 757:2 758:3 759:6 760:12 761:12 762:12 763:13 764:8 765:9 766:9 767:3 768:3 769:4 770:3 771:3 772:3 773:6 774:3 775:9 776:6 777:3 778:3 779:3 780:3 781:3 782:3 783:3 784:3 785:3 786:12 787:3 788:9 789:3 790:9 791:9 792:9 793:3 794:3 795:6 796:3 797:3 798:8 799:3 800:3 801:3 802:3 803:3 804:3 805:3 806:3 807:3 808:3 809:3 810:3 811:3 812:8 813:29 814:3 815:3 816:3 817:3 818:1 819:2 820:1 821:1 822:1 823:1 824:2 825:1 826:1 827:3 828:1 829:1 830:1 831:1 832:1 833:1 834:1 835:1 836:1 837:1 838:1 839:2 840:1 841:1 842:3 843:1 844:1 845:1 846:1 847:2 848:2 849:1 850:1 851:1 852:1 853:1 854:1 855:1 856:1 857:1 858:1 859:1 860:1 861:1 862:1 863:1 864:1 865:1 866:1 867:1 868:1 869:1 870:1 871:1 872:1 873:1 874:1 875:1 876:1 877:1 878:1 879:1 880:1 881:1 882:1 883:1 884:1 885:1 886:1 887:1 888:1 #
0.004548175621347276369188517008979 1:1 3:15 27:1 29:1 53:2 78:5 108:1 166:1 225:1 227:1 259:3 331:13 384:1 385:1 386:1 396:1 397:1 404:1 405:1 466:1 482:1 563:2 585:1 586:1 658:1 659:1 660:1 661:1 662:1 663:1 664:1 665:2 666:2 667:2 668:2 669:2 670:2 671:2 672:2 673:2 674:2 675:2 676:1 677:1 678:1 679:1 680:1 681:1 682:1 683:1 684:1 685:1 686:1 687:1 688:1 689:1 690:1 691:1 692:1 #
-0.00096365902061062210653963333584215 1:1 41:1 52:1 53:2 56:1 61:4 138:1 214:1 279:8 297:1 358:1 397:3 404:1 475:1 570:1 697:1 968:3 974:1 1162:1 1630:2 1637:4 2041:5 2610:2 2612:1 2616:1 2631:1 2898:1 4476:2 5810:2 9129:1 10705:1 12466:3 14850:1 16822:2 16823:4 16824:4 16825:4 16826:1 16827:1 16828:1 16829:1 16830:1 16831:1 #
0.004548175621347276369188517008979 13:2 22:6 27:4 32:1 64:1 71:1 92:1 107:2 123:1 127:1 151:1 152:1 166:3 201:2 213:1 250:2 285:2 305:1 389:1 391:1 394:3 397:4 450:2 483:1 575:1 589:1 590:1 591:2 592:1 593:6 594:3 595:2 596:5 597:1 598:1 599:1 600:1 601:1 602:4 603:1 604:1 605:3 606:1 607:2 608:1 609:1 610:1 611:1 612:1 613:1 614:1 615:1 616:1 617:2 618:1 619:2 620:2 621:1 622:1 623:2 624:2 625:2 626:1 627:1 628:1 629:1 630:1 631:1 632:1 633:1 634:1 635:1 636:1 637:1 638:1 639:1 640:1 #
-0.00068072743842751879360386535466887 1:1 22:37 27:3 45:12 123:1 127:1 166:1 272:1 279:6 397:1 554:1 1099:1 1200:1 1400:1 1447:4 1508:9 1831:1 1911:1 2041:2 2356:7 2606:4 2725:1 2830:2 2890:1 3784:4 5381:2 5912:1 6651:4 22200:1 22201:1 22202:2 22203:1 22204:1 22205:1 22206:2 22207:5 22208:2 22209:2 22210:9 22211:6 22212:5 22213:1 22214:1 22215:8 #
0.004548175621347276369188517008979 3:1 31:2 34:2 77:1 107:2 125:1 151:2 152:1 213:3 247:3 250:5 279:2 282:1 298:1 302:1 404:2 405:1 438:1 475:1 487:1 544:1 727:1 732:1 734:1 749:2 824:3 831:3 922:2 925:1 927:1 995:1 1198:1 1425:1 1630:1 1633:1 1664:1 1665:1 1666:1 1667:1 1668:3 1669:2 1670:1 1671:1 1672:2 1673:1 1674:2 1675:1 1676:1 1677:1 1678:1 1679:1 1680:1 1681:1 1682:1 1683:1 1684:1 1685:1 1686:1 1687:1 1688:1 1689:1 1690:1 1691:1 1692:1 1693:1 1694:1 1695:1 1696:1 1697:1 1698:1 1699:1 1700:1 1701:1 #
-0.0006260604712193703876368933158858 1:1 27:1 45:2 69:1 78:1 201:3 263:1 389:1 1192:1 1620:2 1621:1 1847:1 2255:1 3957:1 7028:1 7029:1 7030:1 7031:1 7032:1 7033:1 7034:1 7035:1 #
0.004548175621347276369188517008979 1:1 2:1 7:2 27:1 28:1 29:1 34:1 44:9 48:21 77:1 78:4 136:1 274:2 333:1 412:3 468:3 720:1 1200:1 1431:6 1432:1 1433:1 1434:1 1435:3 1436:1 1437:1 1438:1 1439:1 1440:1 1441:1 1442:1 1443:1 1444:1 1445:2 1446:1 1447:2 1448:1 1449:8 1450:7 1451:1 1452:1 #
0.004548175621347276369188517008979 1:1 2:2 27:2 34:2 35:1 48:1 74:1 77:4 130:1 136:1 246:1 383:1 390:1 581:1 932:1 1440:2 1447:2 1514:1 1515:7 1516:1 1517:4 1518:3 1519:2 1520:2 1521:1 1522:4 1523:2 1524:1 1525:1 1526:1 1527:1 1528:1 1529:1 1530:1 1531:1 1532:1 1533:1 #
0.004548175621347276369188517008979 1:1 4:1 27:1 32:2 34:1 41:1 45:2 48:2 78:1 107:1 125:1 151:1 152:1 153:1 234:2 253:1 333:4 392:1 438:1 448:1 510:1 544:2 552:1 634:1 638:1 645:1 776:1 1061:5 1188:1 1189:1 1190:10 1191:1 1192:1 1193:1 1194:1 1195:1 1196:1 1197:3 1198:1 1199:1 1200:1 1201:1 1202:1 1203:1 1204:1 1205:1 1206:1 1207:2 1208:1 1209:1 1210:1 1211:1 1212:1 1213:1 1214:1 1215:1 1216:1 1217:2 1218:2 1219:1 1220:1 #
0.004548175621347276369188517008979 22:1 27:2 29:1 146:2 149:1 211:1 235:1 250:1 279:2 312:1 332:1 580:1 602:2 728:2 743:1 920:1 925:1 986:1 1188:3 1191:1 1198:1 1609:1 1773:1 1830:1 1861:1 1862:2 1863:2 1864:1 1865:1 1866:1 1867:4 1868:2 1869:2 1870:1 1871:1 1872:2 1873:1 1874:1 1875:1 1876:1 1877:1 1878:1 1879:1 1880:1 1881:1 1882:1 1883:1 1884:1 1885:1 #
-0.00049350691158032457261928271918805 3:6 27:3 41:1 42:1 48:6 55:8 73:4 98:1 99:2 123:1 241:1 246:4 264:4 397:1 453:4 471:1 502:14 634:3 798:3 812:4 1061:2 1099:1 1192:1 1197:2 1223:2 1838:1 2254:1 2263:1 2300:1 2640:3 3287:3 3296:1 3309:1 3463:1 3748:2 4414:1 4541:2 5465:4 6086:1 6310:2 8125:2 8424:1 8466:1 8731:2 8756:1 9693:4 11211:1 11218:1 13578:3 14017:1 15006:1 17108:1 20224:1 22813:1 22814:1 22815:1 22816:1 22817:2 22818:1 22819:1 22820:1 22821:1 22822:2 22823:2 22824:1 22825:1 22826:2 22827:1 22828:1 22829:1 22830:3 22831:1 22832:18 22833:1 22834:1 22835:1 22836:1 22837:1 22838:3 22839:1 22840:1 22841:1 22842:1 22843:1 22844:1 #
-0.00034492377474897029099309975208598 6:3 20:3 27:3 28:2 34:2 41:1 47:1 59:2 73:1 101:1 136:2 152:10 166:6 201:4 214:1 217:8 247:1 248:5 250:4 253:1 282:2 361:3 362:1 386:1 391:1 392:4 397:1 404:5 453:1 466:4 473:1 475:2 540:1 590:1 593:9 594:13 595:6 596:4 602:7 603:1 728:2 766:1 776:1 911:7 927:2 950:1 953:1 961:1 974:1 978:1 1001:6 1013:2 1048:1 1122:10 1166:7 1220:1 1224:1 1244:2 1251:3 1366:1 1396:1 1505:1 1506:1 1508:1 1510:1 1511:1 1512:1 1548:1 1630:2 1664:2 1839:1 1974:5 2194:1 2228:1 2244:2 2307:2 2443:2 2546:2 2559:5 2597:2 2610:6 2620:2 2934:1 2952:1 3192:1 3326:2 3381:1 3431:1 3470:8 3479:5 3484:2 3748:1 3857:1 4119:1 4132:4 4214:1 4222:2 4228:1 4589:2 4593:1 4642:1 4766:1 4963:1 4979:3 4982:2 5032:1 5223:1 5591:5 5840:1 6245:1 6387:1 6523:1 6591:1 6828:1 7765:4 7878:1 8015:2 9347:1 9546:1 9649:2 9970:1 11116:1 11322:1 12023:1 12085:1 12509:3 13582:1 13583:1 14812:3 15582:1 15824:4 18726:1 19214:2 19215:1 19216:6 19217:8 19218:2 19219:1 19220:4 19221:4 19222:1 19223:5 19224:2 19225:2 19226:3 19227:2 19228:6 19229:1 19230:1 19231:1 19232:1 19233:2 19234:1 19235:2 19236:2 19237:2 19238:1 19239:1 19240:1 19241:2 19242:1 19243:1 19244:1 19245:1 19246:1 19247:4 19248:1 19249:2 19250:1 19251:2 19252:2 19253:1 19254:3 19255:2 19256:8 19257:1 19258:1 19259:1 19260:1 19261:1 19262:1 19263:1 19264:1 19265:1 19266:1 19267:2 19268:1 #
-0.004548175621347276369188517008979 2:3 3:1 22:4 27:1 29:1 48:1 49:1 61:1 74:2 77:2 78:2 79:1 93:18 97:1 98:1 128:1 211:1 234:1 235:2 236:2 279:5 300:1 333:4 350:2 487:1 502:4 585:1 625:1 749:1 777:2 812:1 918:1 1190:6 1197:1 1218:1 1367:4 1400:1 1573:1 1576:1 1600:2 1637:2 1743:2 2047:1 2048:1 2049:1 2097:1 2220:1 3234:1 3270:1 7361:3 12466:1 12467:1 12468:1 12469:1 12470:2 12471:1 12472:1 12473:3 12474:1 12475:2 12476:2 12477:1 12478:2 12479:2 12480:2 12481:1 12482:2 12483:1 12484:2 12485:2 12486:3 12487:2 12488:1 12489:1 12490:1 12491:1 12492:1 12493:1 12494:1 12495:1 12496:1 12497:1 12498:1 12499:1 12500:1 12501:1 12502:1 12503:1 12504:1 12505:1 #
-0.0010188250391848618480600263680458 35:1 107:1 637:1 908:1 937:1 1230:4 1346:1 1853:1 1910:1 2234:1 2331:1 2458:1 2674:1 3983:1 4103:2 4104:2 4220:1 4759:1 5276:3 5436:1 6391:1 9271:1 9272:2 9273:1 9274:1 #
-0.00015349942786035007040272570844053 1:1 27:1 53:2 61:7 139:1 246:1 250:1 487:1 581:1 1018:1 1223:1 2316:1 2445:1 2463:1 2575:2 2700:1 2797:1 3509:1 4356:1 5279:1 5475:6 5480:7 5707:1 8093:1 9256:1 9522:1 10277:1 10565:2 12225:1 12404:1 17131:2 18150:1 19322:1 19635:1 21925:1 27667:1 30922:1 30923:1 30924:1 30925:1 30926:1 30927:1 30928:1 30929:1 30930:2 30931:1 30932:1 30933:1 30934:2 30935:1 30936:4 30937:3 30938:2 30939:2 30940:2 30941:1 30942:1 30943:1 30944:1 30945:1 30946:1 #
0.0024272235494529467367263997346072 1:1 2:1 22:9 27:1 42:1 45:2 53:2 59:1 61:1 72:1 77:2 79:2 107:1 130:1 139:1 237:1 250:3 270:1 279:2 330:10 389:1 390:1 404:2 487:1 545:1 693:1 694:1 695:1 696:1 697:1 698:1 699:1 700:1 701:3 702:1 703:3 704:2 705:1 706:3 707:13 708:4 709:2 710:1 711:1 712:1 713:3 714:12 715:2 716:2 717:10 718:10 719:2 720:3 721:2 722:2 723:1 724:1 725:1 726:1 727:1 728:1 729:1 730:1 731:1 732:1 733:1 734:1 #
0.00018388856326161188417186997945407 1:1 2:9 9:2 10:1 22:24 27:12 31:2 44:1 45:11 47:1 48:2 56:4 74:23 79:2 93:3 99:2 102:1 108:10 115:1 130:6 131:1 138:2 143:1 152:1 158:9 211:1 227:1 235:2 241:1 253:1 279:2 282:1 300:1 302:1 333:2 350:1 378:1 397:1 402:1 407:10 538:1 555:2 563:14 637:1 653:2 743:4 770:1 774:1 824:1 829:1 904:1 925:1 1000:1 1014:1 1099:1 1221:7 1222:5 1223:1 1224:2 1225:1 1226:1 1227:1 1228:1 1229:1 1230:2 1231:1 1232:1 1233:1 1234:1 1235:1 1236:1 1237:1 1238:7 1239:1 1240:1 1241:17 1242:17 1243:1 1244:1 1245:1 1246:1 1247:34 1248:1 1249:10 1250:2 1251:1 1252:6 1253:17 1254:3 1255:8 1256:6 1257:2 1258:7 1259:2 1260:12 1261:1 1262:2 1263:2 1264:2 1265:3 1266:1 1267:3 1268:4 1269:4 1270:1 1271:2 1272:5 1273:5 1274:2 1275:15 1276:1 1277:1 1278:1 1279:2 1280:1 1281:7 1282:7 1283:11 1284:2 1285:1 1286:1 1287:2 1288:2 1289:2 1290:10 1291:2 1292:3 1293:1 1294:1 1295:1 1296:1 1297:1 1298:1 1299:1 1300:1 1301:2 1302:1 1303:1 1304:1 1305:10 1306:3 1307:1 1308:1 1309:1 1310:2 1311:1 1312:1 1313:1 1314:1 1315:1 1316:3 1317:3 1318:5 1319:9 1320:3 1321:1 1322:1 1323:2 1324:8 1325:8 1326:1 1327:1 1328:4 1329:5 1330:1 1331:1 1332:7 1333:6 1334:3 1335:3 1336:2 1337:1 1338:1 1339:1 1340:2 1341:1 1342:1 1343:2 1344:2 1345:1 1346:1 1347:1 1348:1 1349:1 1350:1 1351:1 1352:1 1353:1 1354:1 1355:1 1356:1 1357:1 1358:1 1359:1 1360:1 1361:1 1362:1 1363:1 1364:1 1365:1 #
0.004548175621347276369188517008979 1:2 2:2 6:1 9:1 13:4 22:9 27:2 29:2 42:1 45:1 48:1 69:1 81:1 84:1 93:1 102:2 136:2 152:1 235:1 246:1 247:1 262:1 359:1 360:1 361:1 362:1 363:1 364:1 365:10 366:1 367:1 368:1 369:4 370:1 371:3 372:3 373:3 374:3 375:3 376:3 377:2 378:1 379:1 380:1 381:1 382:1 383:1 384:1 385:1 386:1 387:1 388:1 #
0.004548175621347276369188517008979 22:6 27:1 29:1 34:1 69:1 78:1 107:1 211:1 219:3 262:1 263:1 297:1 330:2 378:1 466:1 487:1 488:2 530:1 536:4 738:1 976:1 1374:1 1678:1 1690:1 1794:1 1795:1 1796:1 1797:1 1798:1 1799:1 1800:1 1801:1 1802:2 1803:1 1804:3 1805:3 1806:1 1807:3 1808:1 1809:1 1810:1 1811:1 1812:1 1813:1 1814:1 1815:1 1816:1 1817:1 1818:1 1819:1 #
0.004548175621347276369188517008979 1:4 27:2 28:1 43:1 56:1 101:1 107:2 141:1 224:1 241:1 246:3 271:2 279:5 291:2 336:1 404:1 410:1 429:2 466:1 583:2 901:1 938:1 957:1 983:1 1061:1 1689:1 1886:1 2124:1 2125:2 2126:1 2127:2 2128:1 2129:1 2130:1 2131:1 2132:1 2133:1 2134:1 2135:1 2136:1 2137:1 2138:1 2139:1 2140:1 2141:1 2142:1 2143:2 2144:1 2145:1 2146:1 2147:2 2148:1 2149:1 2150:1 2151:1 2152:1 2153:1 2154:2 2155:1 2156:1 2157:2 2158:1 2159:1 2160:1 2161:1 2162:1 2163:1 2164:1 2165:1 2166:1 2167:1 #
-0.002613792125502872615988581017632 44:3 151:1 152:1 253:2 279:2 299:1 350:1 823:1 897:1 1547:1 2170:1 2231:1 2486:1 2577:1 2582:1 2594:1 2709:1 2793:1 2842:1 2843:1 3302:2 3303:2 3304:1 3305:1 3306:1 3307:1 3308:1 #
-0.00093171365702800787531728810009213 1:2 22:28 28:1 30:1 31:1 34:1 61:1 136:2 138:1 247:1 248:1 279:10 282:2 284:1 387:1 389:3 404:1 425:2 471:1 472:1 473:1 483:1 581:1 697:1 738:1 902:1 922:1 932:1 940:1 1004:1 1063:1 1083:1 1098:1 1165:2 1230:6 1246:1 1376:1 1400:1 1427:1 1475:1 1664:1 1677:1 1678:1 1690:1 1857:1 1896:1 1925:1 2109:1 2259:1 2289:1 2433:2 2540:1 2570:1 2616:4 2708:1 2837:1 3218:1 4068:1 4203:1 4414:1 4421:4 5169:1 5247:2 5361:2 5381:1 5560:1 5762:2 6987:1 7012:6 8169:1 8176:3 8177:8 8178:5 8180:3 8235:4 10705:1 11980:1 11981:1 11982:1 11983:2 11984:1 11985:1 11986:1 11987:2 11988:1 11989:2 11990:1 11991:1 11992:1 11993:2 11994:2 11995:1 11996:4 11997:3 11998:1 11999:1 12000:1 12001:2 12002:1 12003:2 12004:1 12005:1 12006:1 12007:1 12008:1 12009:1 12010:1 12011:1 12012:1 12013:2 12014:1 12015:1 12016:1 12017:1 12018:1 12019:1 12020:1 12021:2 12022:1 12023:1 12024:1 12025:1 12026:1 12027:1 12028:1 12029:1 12030:1 12031:2 12032:1 12033:4 12034:1 12035:1 12036:1 12037:1 12038:1 12039:1 12040:1 12041:1 12042:1 12043:1 12044:1 12045:1 12046:1 12047:1 12048:1 12049:1 12050:1 12051:1 12052:1 12053:1 12054:1 12055:1 12056:1 12057:1 #
-0.002084374210259852013005232862497 3:1 22:1 27:1 30:1 44:1 48:1 52:1 69:4 78:3 97:1 101:2 152:2 211:1 213:1 271:1 286:1 304:1 305:1 307:2 308:2 330:1 466:1 487:1 488:2 536:8 542:1 594:1 738:1 823:1 1011:1 1176:1 1181:2 1926:1 4203:1 6076:1 18689:1 32044:1 32045:1 32046:1 32047:1 32048:1 32049:1 32050:2 32051:2 32052:2 32053:2 32054:2 32055:2 32056:1 32057:1 32058:1 32059:1 32060:1 32061:1 32062:1 32063:1 32064:1 #
-0.00021631560071138495032067039502977 1:3 22:21 27:4 30:1 31:1 32:15 34:1 43:1 48:1 56:1 69:1 72:21 78:4 99:1 101:1 136:1 138:2 139:1 146:2 207:1 225:1 250:1 253:2 262:2 270:1 284:2 336:1 359:1 453:1 458:5 487:1 488:1 531:1 567:1 578:4 638:1 737:2 757:1 798:2 812:3 823:3 897:7 926:1 999:1 1007:1 1072:2 1090:1 1157:1 1213:2 1218:1 1244:1 1399:1 1419:1 1421:10 1432:1 1474:1 1512:1 1679:1 1761:1 1908:1 2182:4 2237:1 2338:1 2397:4 2614:1 2777:4 2820:1 3169:4 3321:1 3571:1 3572:4 3865:3 3867:5 3871:4 4094:1 4909:1 5065:1 5269:1 5344:1 5563:1 5765:1 6007:1 6086:1 6385:1 6708:1 6807:4 7271:1 7280:4 7332:4 7828:1 8074:2 8486:1 9648:1 10042:1 10332:5 10334:4 10424:2 10571:1 11782:2 11784:2 12311:1 12452:2 14412:2 14466:1 14825:1 14829:1 15210:1 15353:3 16447:4 16481:2 20269:1 23226:1 23227:1 23228:2 23229:4 23230:4 23231:2 23232:1 23233:1 23234:3 23235:2 23236:2 23237:4 23238:1 23239:3 23240:1 23241:1 23242:1 23243:2 23244:2 23245:2 23246:1 23247:2 23248:1 23249:2 23250:1 23251:1 23252:2 23253:1 23254:1 23255:1 23256:2 23257:1 23258:1 23259:1 23260:1 23261:1 23262:1 23263:1 23264:5 23265:1 23266:2 23267:3 23268:1 23269:1 23270:2 23271:1 23272:1 23273:1 #
0.004548175621347276369188517008979 3:2 10:1 22:3 27:3 29:1 30:1 31:1 34:1 39:1 48:1 77:3 79:3 93:7 107:1 130:1 136:2 151:1 235:1 282:1 300:2 301:2 438:1 450:2 502:2 514:2 524:1 545:1 692:1 766:2 775:2 798:1 805:2 813:1 1197:1 1200:1 1339:2 1503:2 1504:2 1505:4 1506:4 1509:2 1510:2 1511:2 1512:2 1513:2 1573:1 1576:1 1702:1 1703:2 1704:4 1705:2 1706:5 1707:4 1708:1 1709:1 1710:1 1711:1 1712:1 1713:1 1714:1 1715:1 1716:1 1717:1 1718:1 1719:1 1720:1 1721:1 1722:1 1723:1 1724:1 1725:1 1726:1 1727:1 1728:1 1729:1 1730:1 1731:1 1732:1 1733:1 1734:1 1735:1 1736:6 1737:1 1738:1 1739:1 1740:1 1741:1 1742:1 1743:3 1744:1 1745:1 1746:1 1747:1 1748:1 1749:1 1750:1 1751:2 1752:1 1753:1 1754:1 1755:1 1756:1 1757:1 1758:1 1759:1 #
0.004548175621347276369188517008979 3:1 6:1 22:3 27:1 34:2 61:1 74:1 93:12 107:1 152:1 211:1 214:1 250:1 279:1 301:2 302:1 404:2 466:1 487:1 488:2 489:1 490:1 491:1 492:1 493:1 494:1 495:1 496:1 497:1 498:1 499:1 500:1 501:1 502:2 503:9 504:3 505:9 506:1 507:1 508:1 509:1 510:1 511:1 512:1 513:1 514:1 515:1 516:1 517:1 518:1 519:1 520:1 521:1 522:1 523:1 524:1 525:1 526:1 527:1 528:1 529:1 530:1 531:1 532:1 533:1 534:1 535:1 536:1 537:1 538:1 539:2 540:1 541:1 542:1 543:1 #
-0.00023666443943717505298679482095281 1:2 27:2 34:3 39:1 45:1 72:1 81:5 84:5 130:1 166:1 201:2 246:1 270:1 342:1 352:3 418:1 489:1 508:2 569:1 670:2 743:2 1086:1 1099:2 1157:1 1211:2 1283:1 1503:1 1607:1 1658:1 2023:1 2198:1 2640:4 2701:1 3134:3 3456:1 3710:1 3725:1 3783:1 4076:5 4615:1 4654:1 4727:1 5333:1 5375:1 5495:2 5683:2 5790:1 5802:2 5803:1 5804:1 5805:1 5806:1 5807:1 5808:1 5809:1 5810:1 5811:1 5812:1 5813:3 5814:3 5815:1 5816:2 5817:4 5818:1 5819:1 5820:1 5821:1 5822:2 5823:1 5824:2 5825:1 5826:1 5827:1 5828:2 5829:1 5830:1 5831:1 5832:1 5833:1 5834:1 5835:1 5836:1 5837:1 5838:1 5839:1 5840:1 5841:1 5842:1 5843:1 5844:1 5845:1 5846:2 5847:1 5848:1 5849:1 5850:5 5851:2 5852:2 5853:1 5854:3 5855:2 5856:2 5857:6 5858:1 #
-0.0014634231684995475854943469684599 1:1 27:1 107:1 128:1 279:2 429:3 475:2 907:1 921:1 938:1 957:1 977:1 1165:1 1198:1 1327:1 1630:2 2041:1 2124:1 2163:1 2167:1 2199:1 2674:1 3893:5 4102:1 5119:1 8634:1 12616:1 14785:1 19121:1 19122:1 19123:1 19124:1 19125:1 19126:1 19127:1 19128:1 #
-0.0005009817832317686736587347695604 1:1 27:2 52:1 53:4 56:1 94:2 127:1 217:4 250:1 279:1 282:3 284:1 299:1 396:2 397:2 453:2 487:2 539:1 545:1 697:1 749:1 911:2 939:1 968:1 983:1 994:3 1059:5 1122:1 1161:2 1173:3 1200:1 1475:1 1480:1 1547:1 1590:1 1763:1 2139:1 2841:1 3018:1 3486:1 4674:1 5101:1 5431:1 5479:1 5555:1 5591:1 6024:1 6150:1 8455:1 8637:1 15221:1 15838:1 16040:1 16355:4 16361:2 16787:1 18057:3 18058:1 18059:1 18060:1 18061:1 18062:1 18063:1 18064:1 18065:1 18066:1 18067:1 18068:1 18069:1 18070:1 18071:1 18072:1 18073:1 18074:1 18075:1 18076:1 18077:1 18078:1 18079:1 18080:1 18081:1 18082:1 18083:1 18084:1 18085:1 18086:1 18087:1 18088:1 18089:2 18090:1 18091:1 18092:1 18093:1 18094:1 18095:1 18096:1 18097:1 18098:1 18099:1 #
-0.00032569620314810043999742550369092 1:2 27:1 42:1 73:2 136:1 145:1 247:2 333:1 362:2 367:1 766:3 921:1 947:1 1018:1 1163:2 1211:1 1418:5 1505:3 1506:3 1510:3 1511:3 1512:3 1551:1 1704:3 1826:1 2116:1 2896:1 2952:3 3192:2 3224:1 4377:3 5473:1 5655:1 5665:1 5898:1 6852:1 6870:2 7059:2 7060:1 10848:1 17550:1 18924:3 19586:1 23775:1 23969:4 29227:1 29228:1 29229:1 29230:1 29231:1 29232:1 29233:1 29234:1 29235:1 29236:1 29237:1 29238:1 29239:1 29240:1 29241:1 29242:2 29243:1 29244:1 29245:1 29246:1 29247:1 29248:1 #
0.004548175621347276369188517008979 2:1 3:2 4:1 22:3 27:1 29:1 31:2 34:1 47:1 48:2 61:1 72:2 73:1 74:3 93:1 152:2 229:2 250:1 263:1 279:3 286:1 299:1 300:1 301:1 387:1 392:1 404:1 430:1 471:2 487:2 489:1 507:1 545:1 563:1 565:1 566:1 567:1 569:1 570:1 614:1 638:1 671:1 692:1 720:1 738:2 743:4 757:1 824:1 921:1 939:1 983:2 1061:1 1339:1 1366:1 1547:1 1548:1 1615:1 1637:2 1691:1 1768:1 1820:1 1821:1 1822:1 1823:1 1824:1 1825:1 1826:1 1827:1 1828:1 1829:1 1830:1 1831:1 1832:1 1833:1 1834:1 1835:1 1836:1 1837:1 1838:1 1839:1 1840:1 1841:1 1842:1 1843:1 1844:1 1845:2 1846:1 1847:1 1848:2 1849:2 1850:1 1851:1 1852:1 1853:2 1854:2 1855:1 1856:1 1857:1 1858:1 1859:1 1860:1 #
-0.00010705023168125682084522026782381 27:4 45:1 237:1 241:1 248:3 468:2 555:2 733:1 926:1 961:1 986:1 1447:2 1450:2 1474:1 1845:1 1849:22 1853:1 1854:22 2005:1 2117:1 2162:1 2213:1 2466:1 2486:1 2899:1 2900:23 2903:1 3327:2 4389:2 4696:1 5286:1 5759:2 6460:1 7982:1 14409:1 14544:1 17384:1 19478:1 30337:2 30338:1 30339:1 30340:1 30341:2 30342:2 30343:4 30344:1 30345:1 30346:1 30347:1 30348:1 30349:1 30350:1 30351:1 30352:1 30353:1 30354:1 30355:1 30356:1 30357:1 30358:1 30359:1 30360:1 30361:1 30362:1 30363:1 30364:2 30365:1 30366:1 30367:1 30368:1 30369:2 #
-0.0025072226887716416408868891352313 1:1 13:1 22:4 27:2 31:1 43:2 69:1 93:1 211:1 270:1 279:10 301:3 330:4 397:3 498:1 499:1 514:2 527:1 531:1 564:5 738:1 813:1 814:1 949:1 1122:2 1312:1 1385:2 1479:1 1503:1 1570:4 1572:4 1799:2 2445:1 2650:1 2899:1 3262:1 3268:1 4670:1 4713:1 5457:1 6508:1 6584:1 8051:3 17799:1 18688:7 18689:2 18690:5 18691:1 18692:1 18693:1 18694:1 18695:1 18696:2 18697:1 18698:1 #
-0.0025563191309195664596698449599899 1:2 2:1 4:2 5:1 22:2 27:3 48:2 69:2 74:4 118:8 125:1 130:1 152:1 201:4 219:4 235:1 282:1 285:3 302:1 394:1 425:2 737:1 928:2 930:2 977:1 1122:1 1366:1 1473:2 1540:4 1878:1 2151:1 2194:1 2378:2 2466:1 2929:1 3371:1 3828:1 3957:1 4399:1 4458:1 5105:1 6162:1 6423:1 7204:1 7205:2 7206:1 7207:1 7208:1 7209:1 7210:1 #
-0.0031376627244589041544620133805665 1:1 2:6 7:2 10:1 27:4 30:1 47:2 48:8 74:1 78:6 101:1 106:1 108:1 130:1 136:2 201:1 235:2 237:1 241:1 250:4 336:1 477:1 638:1 914:1 1347:1 1421:1 1438:1 1473:1 1527:1 1553:1 1768:1 1922:1 2117:1 2594:1 2677:1 2798:1 2872:7 3486:1 3579:3 3876:1 5865:1 7007:1 8079:1 8170:2 14657:1 14658:1 14659:1 14660:3 14661:1 14662:1 #
-0.00094299525337347277643279541692323 1:2 27:1 29:3 48:2 77:1 127:1 219:7 253:3 262:1 282:1 299:1 359:1 576:1 577:2 743:2 949:1 1244:1 1419:1 1547:2 1680:1 1689:2 2162:1 2798:2 2872:1 3365:1 3553:1 3577:2 3598:1 4030:1 4399:1 5281:2 6569:1 6570:1 6571:4 6572:2 6573:9 6574:4 6575:3 6576:1 6577:1 6578:1 6579:3 6580:1 6581:1 6582:1 6583:1 6584:1 6585:1 6586:1 6587:1 #
0.004548175621347276369188517008979 1:2 22:1 27:2 56:1 69:2 78:1 101:1 106:1 125:1 227:1 247:1 412:2 544:1 634:1 908:1 983:1 984:1 985:1 986:1 987:1 988:1 989:1 990:1 991:1 992:1 993:1 994:1 995:1 996:1 997:1 #
0.004548175621347276369188517008979 1:1 53:2 57:1 151:1 152:1 271:2 404:1 405:1 475:1 482:1 483:2 907:1 965:2 977:1 978:1 979:1 980:1 981:1 982:1 #
-0.00048933325785012330485373999167109 1:1 32:1 36:1 53:8 124:1 250:1 284:1 425:1 453:1 473:2 570:1 583:1 585:1 738:1 1032:1 1301:1 1503:4 2310:1 2426:3 2878:1 3306:1 3800:1 4539:1 5503:1 5504:1 5505:1 5506:1 5507:1 5508:1 5509:1 5510:2 5511:4 5512:2 5513:2 5514:2 5515:4 5516:2 5517:2 5518:1 5519:2 5520:2 5521:1 5522:1 5523:1 5524:1 #
-5.2458921094335920359569974680269e-05 1:2 27:1 42:1 43:1 56:5 140:5 241:1 282:2 387:2 404:6 585:2 589:1 824:1 1167:1 1363:1 1920:1 2214:1 2947:1 5415:1 5473:3 5952:1 7840:1 8977:1 9787:1 10148:1 13695:3 13911:1 13912:1 13913:1 13914:1 13915:1 13916:1 13917:1 13918:1 13919:1 13920:1 13921:1 13922:11 13923:2 13924:4 13925:1 13926:1 13927:1 13928:1 13929:1 13930:1 13931:1 13932:1 #
-0.0043003024408983714019227839742143 1:2 27:1 28:1 32:1 41:1 64:2 93:1 115:1 120:1 151:1 235:1 262:2 263:7 271:2 302:2 305:1 307:1 308:1 378:1 466:1 468:2 536:1 700:1 738:1 966:5 968:1 983:1 994:1 1347:1 1420:1 1450:1 1819:1 1912:1 1979:1 2157:1 2254:1 2451:2 3488:1 4093:1 4780:1 7217:1 9276:1 9453:2 14866:1 15210:1 26049:1 30173:1 30174:1 30175:1 30176:1 30177:1 30178:1 30179:1 30180:1 30181:1 30182:1 30183:1 30184:1 30185:1 30186:1 #
-0.00084353816104598688951909934985451 1:1 3:5 27:1 31:2 42:1 73:1 98:1 130:1 247:4 277:2 386:3 404:3 435:1 450:3 458:2 466:1 487:1 544:1 638:1 776:2 1085:1 1212:2 1216:1 1502:1 1535:3 1838:1 1857:3 1878:1 2152:1 2217:2 2237:1 2290:1 2612:3 2725:1 2914:1 3029:1 3125:1 3181:3 3183:2 3321:1 3504:1 3527:1 4485:1 4543:1 4733:2 6577:1 7576:1 7842:1 7970:1 8675:1 10817:2 13465:1 20103:2 20109:1 20155:1 22212:1 22502:1 30508:1 30509:1 30510:1 30511:1 30512:1 30513:2 30514:1 30515:1 30516:1 30517:2 30518:1 30519:1 30520:1 30521:5 30522:2 30523:2 30524:1 30525:1 30526:1 30527:4 30528:1 30529:1 30530:1 30531:1 30532:1 30533:1 30534:1 30535:1 30536:1 30537:1 30538:1 30539:1 30540:2 #
0.004548175621347276369188517008979 1:1 22:1 27:1 29:2 32:1 45:2 48:2 61:2 139:1 206:2 235:3 250:1 279:3 336:1 394:1 431:1 487:1 577:3 581:2 583:4 638:1 650:1 728:4 776:2 1200:1 1204:1 1366:1 1367:1 1368:1 1369:1 1370:1 1371:1 1372:1 1373:1 1374:2 1375:2 1376:1 1377:2 1378:1 1379:2 1380:1 1381:1 1382:1 1383:1 1384:1 1385:1 1386:1 1387:1 1388:1 1389:1 1390:1 1391:2 1392:1 1393:1 1394:1 #
-0.0010645279614292786456164474628849 22:4 27:1 48:16 78:6 488:1 577:1 1878:1 2555:1 2640:4 2798:3 3553:1 5132:2 5168:7 5281:3 5724:1 7088:2 8591:1 9650:1 9651:1 9652:1 9653:1 9654:3 9655:1 9656:3 9657:2 9658:3 9659:1 9660:2 9661:1 9662:2 9663:1 9664:1 9665:1 #
-0.0002433061440846978314492266015634 1:1 247:1 253:1 282:1 285:1 386:1 438:1 466:2 757:1 925:1 974:1 1161:1 1192:1 1412:1 1505:2 1506:2 1510:2 1704:2 2452:1 2530:3 2783:1 3270:1 3271:1 3783:1 3816:1 4603:2 10721:2 12231:1 18100:3 19883:2 19884:1 19885:1 19886:2 19887:1 19888:1 19889:1 19890:1 19891:1 #
-0.0014166479572120076191321658143352 3:3 4:1 39:1 43:1 48:3 81:1 84:1 130:1 149:1 151:7 152:2 250:1 259:1 291:1 333:1 352:2 390:1 407:2 471:1 829:1 894:1 925:1 928:1 977:1 1159:1 1188:3 1366:1 1375:2 1376:1 1547:1 1915:1 2157:1 2312:2 2314:2 2391:1 2425:1 2449:2 2532:2 2797:2 2896:1 3192:1 3279:1 3355:2 3878:1 3887:1 4164:1 6065:1 8827:1 11723:7 12284:1 12285:1 12286:1 12287:2 12288:1 12289:1 12290:1 12291:2 12292:1 12293:1 12294:1 12295:1 12296:1 #
-0.0014477551018320610181494556556459 1:1 34:1 69:2 123:1 152:3 279:2 282:1 466:1 922:1 938:1 1548:1 1605:1 1630:1 2694:1 3324:1 3800:1 4217:1 8684:1 10095:1 12613:1 12614:1 12615:1 12616:1 #
0.004548175621347276369188517008979 1:1 22:2 27:1 29:1 32:2 42:1 55:1 73:1 123:1 211:1 219:2 241:1 279:1 280:1 282:1 300:1 330:1 448:1 453:1 744:1 1173:2 1809:1 2168:1 2169:1 2170:1 2171:1 2172:1 2173:1 2174:3 2175:2 2176:1 2177:1 2178:1 2179:1 2180:1 2181:1 #
0.004548175621347276369188517008979 1:1 2:6 27:2 29:4 48:1 74:1 78:4 118:1 127:2 158:1 214:1 220:1 221:1 222:1 223:1 224:1 225:2 226:2 227:1 228:1 229:2 230:4 231:2 232:2 233:2 234:2 235:2 236:1 237:1 238:1 239:1 240:1 241:1 242:1 243:1 244:1 245:1 246:1 247:1 #
0.004548175621347276369188517008979 27:2 34:1 44:1 45:2 55:1 64:2 69:1 74:1 92:1 93:2 94:1 101:1 115:1 123:1 128:1 130:1 136:1 247:1 248:1 262:1 263:2 279:8 302:1 378:1 397:1 404:1 471:2 487:1 488:1 733:1 770:1 953:1 1014:1 1073:3 1085:2 1086:1 1087:1 1088:1 1089:1 1090:1 1091:1 1092:1 1093:1 1094:1 1095:1 1096:1 1097:1 1098:1 1099:1 1100:2 1101:1 1102:1 1103:2 1104:2 1105:2 1106:1 1107:1 1108:1 1109:1 1110:1 1111:1 1112:1 1113:1 1114:1 1115:1 1116:1 1117:1 1118:1 1119:1 1120:1 1121:1 1122:1 1123:1 1124:1 1125:1 1126:8 1127:1 1128:1 1129:1 1130:1 1131:1 1132:2 1133:1 1134:1 1135:1 1136:1 1137:1 1138:1 1139:1 1140:1 1141:1 1142:1 #
0.004548175621347276369188517008979 1:3 2:3 4:2 27:2 28:1 39:1 48:3 61:3 136:2 152:1 218:1 284:1 285:2 299:1 404:2 425:1 441:1 482:2 489:2 554:1 594:1 749:1 889:1 890:2 891:2 892:1 893:4 894:1 895:2 896:1 897:1 898:1 899:1 900:1 901:1 902:1 903:1 904:1 905:1 906:1 907:1 908:1 909:1 910:1 911:1 912:1 913:1 914:3 915:3 916:5 917:2 918:2 919:1 920:1 921:1 922:1 923:1 924:1 925:1 #
-0.0010524130413874727488221516580325 34:6 40:2 45:2 121:4 126:1 397:1 904:1 1192:1 1211:1 1230:2 1450:3 2445:1 2451:1 4125:1 4944:1 10073:1 20095:1 26448:1 26974:2 26975:1 26976:1 26977:1 26978:2 26979:1 26980:1 26981:2 26982:1 26983:1 #
-0.0011696576167090910747248244661023 1:2 22:6 27:2 34:1 44:6 127:1 152:1 342:1 404:1 995:2 1122:1 1853:1 1908:1 2431:5 2554:1 2640:1 2912:1 3809:1 3957:1 3973:2 4712:1 8802:1 13203:1 13592:1 14409:1 16040:1 17473:1 28235:2 30205:1 30206:2 30207:2 30208:9 30209:1 30210:1 30211:1 30212:2 30213:3 30214:1 30215:1 30216:2 30217:1 30218:1 30219:1 30220:1 30221:2 #
-0.0018467330618701319894237045105001 1:1 22:26 27:1 29:4 34:1 45:5 49:3 93:1 101:1 211:1 230:2 250:1 279:1 282:1 301:3 350:1 487:1 536:4 775:2 798:1 812:1 1072:2 1083:1 1174:1 1190:2 1338:1 1553:1 1694:1 1831:2 1923:1 2272:1 2312:2 2371:1 2785:1 2931:1 3033:1 3478:1 3491:1 3667:2 3846:1 4797:1 8076:1 8622:1 10449:3 11489:2 12269:1 12332:2 12480:2 18318:1 18401:4 18402:2 22865:1 32141:2 32142:3 32143:1 32144:4 32145:1 32146:2 32147:2 32148:2 32149:2 32150:2 32151:2 32152:1 32153:1 32154:1 32155:1 32156:1 32157:1 32158:1 32159:1 32160:1 32161:1 32162:1 32163:1 32164:1 32165:1 32166:1 #
-0.0023597025335217740489579529850062 1:2 2:1 7:2 10:1 27:1 29:4 47:1 48:2 55:1 77:1 78:2 79:1 101:3 130:1 143:1 235:1 383:2 471:3 544:1 577:1 656:1 956:2 1003:1 1161:1 1251:2 1440:1 1678:1 1823:1 3185:1 3354:1 3504:2 3553:1 4029:1 4220:1 4766:2 5109:1 5345:1 5440:2 5764:1 6562:1 14661:1 23923:1 23924:1 23925:1 23926:1 23927:2 23928:1 23929:4 23930:1 23931:1 23932:1 23933:1 23934:1 23935:1 #
-0.00019411288158565370861284582471029 34:17 101:3 391:5 595:2 728:2 937:2 1006:1 1327:1 1405:1 1427:1 2427:1 3464:2 3470:3 3495:1 4039:7 4462:1 4697:1 8170:1 8565:1 15577:1 15578:2 15579:10 15580:7 15581:1 15582:1 #
0.0022652556469980496267613290228837 3:2 4:1 27:2 28:1 29:1 34:1 48:2 52:1 78:4 107:1 153:2 201:15 208:3 237:1 247:1 250:1 306:1 378:1 441:17 466:3 473:1 488:5 544:1 545:1 546:1 547:5 548:2 549:5 550:1 551:1 552:1 553:2 554:1 555:1 556:1 557:3 558:2 559:13 560:1 561:1 562:1 563:1 564:1 565:1 566:1 567:1 568:1 569:1 570:1 571:1 572:1 573:2 574:1 575:1 576:1 577:3 578:2 579:1 #
-0.00088083949266891967220388659498553 1:3 3:1 27:2 30:1 31:2 32:1 44:2 72:1 136:1 246:1 259:1 284:1 285:2 299:1 333:1 359:1 397:1 437:1 439:2 458:1 569:1 932:1 983:2 1188:1 1419:1 1420:1 1478:1 1503:1 1505:1 1633:1 2242:1 2270:1 2330:1 2393:1 2652:1 2787:1 2959:2 3477:1 3486:1 4089:2 5865:1 5886:2 6167:1 6281:1 6905:1 7818:2 7958:1 8625:1 9986:1 11118:1 13931:1 15474:1 17486:1 17955:1 17956:1 17957:1 17958:1 17959:1 17960:1 17961:3 17962:1 17963:1 17964:1 #
-0.0021495506774615374609438411823703 2:1 10:1 27:1 29:1 30:1 31:1 118:1 229:1 282:1 577:1 721:1 743:1 994:1 2194:1 2628:1 3192:1 3501:1 3667:1 3909:1 7502:1 7503:1 7504:2 7505:1 7506:1 #
-0.00044354704194834028256611002660748 3:3 127:2 130:3 340:4 564:1 577:1 592:1 728:6 757:2 776:1 953:3 1036:1 1244:2 1405:1 1424:1 1530:1 1795:1 1873:1 1905:4 2160:1 2289:1 2725:1 2834:1 2966:1 3169:1 3365:2 3504:1 3522:1 3731:1 3748:1 4560:2 4691:1 5115:3 5132:2 6790:1 8297:1 8312:1 10772:1 12108:2 14045:1 14046:1 14047:1 14048:1 14049:2 14050:1 #
-0.00067052741300472576847085948159588 1:2 27:3 28:1 30:1 34:1 56:1 59:5 125:1 130:1 139:1 166:2 201:5 209:1 241:1 365:4 389:6 430:2 577:3 595:3 602:2 615:1 925:1 1163:1 1480:2 1831:2 1881:5 2184:1 2559:1 2635:1 3285:1 3335:1 3407:1 3469:1 4098:1 4285:1 5088:1 5902:6 6930:1 8297:1 12726:1 13665:1 13666:1 13667:1 13668:2 13669:1 13670:1 13671:3 13672:1 13673:1 13674:1 13675:1 13676:1 13677:1 13678:2 13679:5 13680:1 13681:1 13682:2 13683:1 13684:1 13685:1 13686:1 13687:1 13688:1 13689:1 13690:1 #
0.004548175621347276369188517008979 9:1 27:1 34:1 107:2 123:1 383:1 930:1 1420:1 1473:1 1534:1 1535:1 1536:1 1537:1 1538:1 1539:1 1540:1 1541:1 1542:1 1543:1 1544:1 1545:1 1546:1 #
-0.0023852626222752885618016982505196 2:3 69:2 145:1 225:1 249:1 263:1 278:4 285:2 286:1 288:2 404:1 441:1 468:2 1007:1 1032:1 1173:2 1450:2 1452:1 2157:4 3294:1 3748:1 4253:3 4414:1 5427:2 5757:1 6404:1 6405:1 6406:2 6407:1 6408:1 6409:1 6410:1 6411:1 6412:1 6413:1 6414:1 #
-7.9072046740745772770535271245507e-05 28:1 61:1 73:1 127:1 145:1 247:4 280:1 297:2 544:2 565:1 693:2 737:1 824:1 907:1 908:1 1347:1 1419:1 1427:1 1827:1 1857:2 1880:1 2124:2 2163:3 2201:1 2234:1 2284:1 2292:1 2434:2 2487:1 2602:2 2603:2 3345:1 3383:1 3782:1 3892:1 3973:1 4003:1 4056:1 4201:1 4539:2 4744:2 5381:2 5415:1 5479:3 6126:3 6577:1 6771:1 8107:1 8117:1 8466:1 11327:10 13827:6 13828:2 13829:1 13830:1 13831:1 13832:1 13833:1 13834:1 13835:3 13836:2 13837:1 13838:1 13839:1 13840:1 13841:1 #
-0.004548175621347276369188517008979 1:3 56:2 107:3 152:2 279:1 425:1 1633:1 2139:1 2318:1 2330:1 3757:1 4675:1 8727:1 17899:2 18042:1 18043:1 18044:1 18045:1 18046:1 18047:1 #
-3.4360896636718820989966211021382e-05 235:1 247:2 407:1 438:1 459:2 475:2 742:1 743:1 744:1 824:2 925:1 968:1 983:1 1162:2 1165:1 1431:2 2722:1 3163:1 5765:2 6804:1 6805:7 6806:1 6807:1 6808:1 6809:1 6810:1 6811:1 #
-0.0018478905483152675750385673936194 61:3 123:1 246:1 300:3 1007:1 1880:1 3271:1 3858:1 4095:1 6974:2 9160:1 9161:1 #
0.004548175621347276369188517008979 22:1 27:2 29:1 32:1 44:1 48:1 52:1 71:1 74:1 107:1 130:1 131:1 151:1 152:1 166:1 201:5 211:1 213:1 214:1 217:1 262:3 263:1 302:1 304:1 305:1 307:2 379:1 394:1 404:1 449:1 487:1 556:1 557:1 558:1 559:4 576:1 577:1 638:1 738:1 751:2 824:1 908:1 911:1 983:1 1014:1 1158:1 1159:1 1160:1 1161:1 1162:1 1163:1 1164:1 1165:1 1166:1 1167:1 1168:1 1169:1 1170:1 1171:1 1172:1 1173:1 1174:1 1175:1 1176:1 1177:1 1178:1 1179:1 1180:1 1181:1 1182:1 1183:1 1184:1 1185:1 1186:1 1187:1 #
0.004548175621347276369188517008979 1:2 2:1 22:1 27:2 29:3 34:1 41:1 44:2 59:1 69:1 71:1 93:2 94:1 97:1 139:1 152:1 217:1 218:1 219:2 231:2 246:2 253:1 279:1 303:1 305:1 362:1 386:1 389:1 391:1 404:3 466:1 483:1 594:1 596:1 727:1 728:1 729:1 730:1 897:1 908:1 918:1 986:1 1006:1 1007:1 1008:1 1009:1 1010:1 1011:1 1012:1 1013:1 1014:3 1015:4 1016:1 1017:1 1018:2 1019:1 1020:1 1021:1 1022:1 1023:1 1024:1 1025:1 1026:1 1027:1 1028:1 1029:1 1030:1 1031:1 1032:1 #
0.004548175621347276369188517008979 1:1 2:1 13:4 27:2 29:2 30:1 31:1 34:3 42:1 47:1 136:1 145:1 152:1 235:1 259:1 262:2 289:1 313:1 383:1 468:2 1035:1 1327:2 1347:1 1450:2 1531:1 1614:1 1622:1 1768:1 2182:1 2183:2 2184:1 2185:1 2186:1 2187:1 2188:1 2189:1 2190:1 2191:1 #
-0.00069100990475940121237491409189602 1:2 6:3 13:2 22:19 27:4 34:2 39:1 44:2 52:4 56:1 64:1 101:2 136:3 153:2 246:2 253:1 262:2 297:5 311:4 404:23 441:2 465:1 541:1 907:2 908:5 922:2 961:3 968:5 1061:1 1084:2 1151:2 1157:2 1159:1 1165:2 1166:7 1223:4 1339:1 1366:2 1505:2 1523:2 1548:1 1649:2 1669:1 1706:2 1874:1 1912:1 1920:1 1941:8 1986:5 2048:1 2106:5 2111:2 2162:1 2237:2 2278:2 2443:2 2606:3 2649:5 2980:2 3353:2 3367:1 3371:4 3469:2 3518:1 3561:1 3782:21 4056:2 4206:1 4220:2 4222:1 4248:2 4485:5 4744:1 4775:4 5380:1 5907:1 5984:1 6137:1 6577:4 8079:1 8292:2 8650:1 8867:2 10077:1 11856:1 12124:2 12213:1 12470:1 12638:3 16123:5 16909:1 17381:4 17450:1 17933:1 17936:2 18370:2 19610:1 21242:1 22012:1 22026:4 22027:4 22028:6 22173:2 27217:1 30435:1 30436:1 30437:1 30438:4 30439:1 30440:1 30441:2 30442:2 30443:1 30444:2 30445:1 30446:1 30447:1 30448:1 30449:1 30450:1 30451:1 30452:1 30453:1 30454:1 30455:1 30456:3 30457:1 30458:1 30459:1 30460:1 30461:1 30462:2 30463:2 30464:1 30465:2 30466:1 30467:2 30468:3 30469:5 30470:3 30471:1 30472:1 30473:2 30474:2 30475:2 30476:3 30477:2 30478:3 30479:3 30480:2 30481:1 30482:1 30483:1 30484:1 30485:2 30486:2 30487:1 30488:1 30489:1 30490:1 30491:1 30492:1 30493:1 30494:1 30495:1 30496:1 30497:1 30498:1 #
-0.00050569695355362205384242013650464 1:1 2:3 22:1 27:2 31:1 52:2 73:1 93:10 130:3 207:1 281:1 284:1 297:2 392:1 394:1 404:1 407:1 441:4 470:2 475:1 508:5 518:2 544:1 581:1 824:1 902:3 930:6 942:2 970:2 1327:1 1385:1 1397:2 1519:5 1649:2 1896:1 2263:3 2569:2 2776:6 2934:7 2985:1 3018:1 3253:2 3504:2 3599:1 4003:1 4008:1 4193:1 4398:1 4421:2 4675:1 5484:1 5531:1 5796:1 7102:1 8088:1 8089:1 8118:1 8209:2 8654:1 10800:1 11533:3 12643:2 12660:2 12703:5 13260:1 16381:4 17538:2 18347:1 18371:1 19153:1 19712:4 19713:1 26009:1 26010:2 26011:1 26012:1 26013:1 26014:1 26015:1 26016:2 26017:7 26018:1 26019:4 26020:3 26021:4 26022:1 26023:1 26024:1 26025:1 26026:1 26027:2 26028:1 26029:1 26030:2 26031:1 26032:1 26033:1 26034:1 26035:1 26036:1 26037:1 26038:1 26039:2 26040:2 26041:1 26042:1 26043:1 26044:1 26045:2 26046:1 26047:6 26048:1 #
-0.0010378850730459313923825792613798 2:2 3:7 6:2 22:3 27:1 34:2 47:5 48:1 93:5 118:2 151:2 152:1 211:1 229:1 231:6 235:2 279:1 311:1 363:1 404:2 412:1 466:1 473:1 488:6 510:4 539:1 540:4 545:1 557:1 594:3 597:1 624:2 645:1 743:1 824:3 970:1 1001:1 1059:2 1086:6 1153:2 1346:1 1447:1 1535:2 1637:1 1680:5 1824:8 1878:1 1906:2 1974:1 2588:1 2591:1 2614:3 3287:1 3748:1 13005:4 29834:1 29835:2 29836:2 29837:1 29838:1 29839:1 29840:2 29841:1 29842:1 29843:1 29844:1 29845:1 29846:1 29847:1 29848:1 29849:4 29850:4 29851:1 29852:3 29853:1 29854:6 29855:5 29856:2 29857:1 29858:1 29859:1 29860:1 29861:1 29862:1 29863:1 29864:1 #
0.004548175621347276369188517008979 1:1 34:1 49:1 56:1 107:3 151:1 152:2 153:1 475:1 554:1 576:1 581:1 1007:2 1084:1 1143:1 1144:1 1145:1 1146:1 1147:1 1148:1 1149:1 1150:1 1151:1 1152:1 1153:1 1154:1 1155:2 1156:1 1157:1 #
0.004548175621347276369188517008979 27:1 29:1 34:2 45:1 107:1 139:1 166:1 229:1 241:1 250:1 261:3 270:1 487:1 544:1 634:1 641:1 642:1 643:1 644:3 645:1 646:4 647:1 648:1 649:1 650:1 651:1 652:1 653:1 654:1 655:1 656:1 657:1 #
-0.0042062812828712213206183712088659 1:1 3:1 27:3 29:2 44:3 48:1 59:1 61:2 128:1 151:1 241:1 272:1 299:1 302:1 333:3 336:1 462:1 487:1 597:2 657:1 730:1 908:1 1014:4 1161:1 1630:2 1795:1 1897:1 4703:1 5480:2 8173:1 8190:1 8680:1 11977:1 12637:1 17131:1 17133:1 17141:1 18136:1 18975:2 18976:3 18977:4 18978:1 18979:1 18980:1 18981:1 #
-0.0018910042005972579372274910980423 29:2 300:1 418:2 738:2 1007:1 1018:1 1024:1 1061:3 1162:1 1346:1 2228:1 2254:1 2685:1 5897:1 5898:1 5899:1 5900:1 #
-0.0044147862109842391648006909576907 1:1 3:1 10:1 27:1 29:5 34:1 53:2 99:1 123:1 125:2 130:1 152:1 404:1 541:1 655:1 977:1 982:1 1072:5 1083:1 2198:1 2311:1 2604:1 3858:1 4197:1 5503:1 6164:1 15269:1 15270:1 15271:1 #
-0.00052890117205018889832285333696404 27:3 28:1 31:1 34:2 44:2 53:2 78:4 125:2 149:1 153:1 166:1 250:1 285:1 336:2 338:1 340:1 389:1 477:1 487:1 508:1 590:2 596:6 638:1 728:2 925:1 1010:1 1178:2 1383:1 1489:1 1548:1 1630:1 1914:1 2147:2 2367:1 2424:2 2443:1 2459:1 2494:1 2509:1 2614:1 2651:1 2653:1 2931:1 3355:1 3365:3 3468:1 3579:3 4068:1 4169:2 4217:1 4424:1 4738:2 5420:1 5778:1 5958:1 6001:1 6422:1 6698:1 8371:1 8444:1 8715:1 9540:1 9992:1 10116:1 11399:1 12661:1 12721:1 13809:1 16536:1 18351:1 20052:1 20736:1 26054:1 27365:1 28797:1 28798:2 28799:2 28800:1 28801:2 28802:1 28803:4 28804:1 28805:3 28806:3 28807:1 28808:1 28809:1 28810:1 28811:1 28812:1 28813:1 28814:1 28815:1 28816:2 28817:2 #
-0.00042484219335036705776295629100048 34:2 41:3 246:2 250:1 265:1 289:1 427:1 439:1 450:1 487:1 555:1 898:1 899:1 983:3 1186:3 1314:1 1472:1 1689:1 1880:1 1972:1 2592:1 2778:1 6595:1 7495:1 8444:1 9589:1 13568:1 14150:1 15742:1 20901:1 27521:1 27522:2 27523:1 27524:1 27525:1 27526:1 27527:1 27528:2 27529:1 27530:1 27531:1 27532:1 27533:1 27534:1 27535:1 #
0.0037987502540034654395506574786623 3:2 22:5 27:1 42:1 55:1 57:1 71:2 93:4 94:1 107:1 115:2 166:2 211:1 214:2 250:1 301:2 362:1 378:6 397:3 404:1 498:1 502:12 503:4 505:4 524:1 527:1 530:1 536:3 847:3 1014:1 1072:1 1197:2 1312:2 1447:1 1547:1 1548:1 1549:1 1550:3 1551:1 1552:1 1553:1 1554:1 1555:2 1556:2 1557:2 1558:2 1559:2 1560:1 1561:1 1562:2 1563:2 1564:3 1565:1 1566:1 1567:1 1568:1 1569:1 1570:2 1571:1 1572:2 1573:2 1574:2 1575:2 1576:2 1577:4 1578:1 1579:1 1580:1 1581:1 1582:1 1583:1 1584:1 1585:1 1586:1 1587:1 1588:1 1589:1 1590:1 1591:1 1592:3 1593:1 1594:3 1595:1 1596:1 1597:1 1598:1 1599:1 1600:1 1601:1 1602:1 1603:1 1604:1 #
-0.00084336103694649820674417162180703 1:1 13:7 22:7 27:2 34:3 93:4 97:5 136:2 152:3 224:1 262:5 279:6 288:2 301:3 311:1 330:1 333:8 338:7 404:1 475:1 498:1 502:6 514:2 524:1 527:1 530:1 536:1 541:1 584:6 638:1 738:2 741:2 744:1 798:1 812:1 814:1 823:1 968:1 1014:1 1157:2 1197:1 1447:4 1538:1 1573:2 1576:1 1591:1 1600:2 1630:9 1657:1 1680:1 1743:2 1857:9 2009:1 2041:3 2389:1 2612:4 2895:1 2933:1 3270:3 3335:1 3528:4 3827:1 4003:5 4168:2 5417:1 6579:2 6673:1 6696:3 7760:2 8084:11 12480:1 12492:1 18689:1 18999:1 19000:1 19001:1 19002:1 19003:1 19004:2 19005:1 19006:4 19007:3 19008:3 19009:2 19010:1 19011:2 19012:1 19013:1 19014:1 19015:2 19016:2 19017:1 19018:1 19019:1 19020:1 19021:1 19022:1 19023:1 19024:1 19025:1 19026:1 19027:1 19028:1 19029:2 19030:1 19031:1 19032:2 19033:1 19034:4 19035:4 19036:1 19037:1 19038:1 19039:1 19040:1 19041:3 19042:2 19043:1 19044:1 19045:1 19046:2 #
-0.004548175621347276369188517008979 3:4 6:1 13:2 27:4 29:2 32:1 34:1 45:4 48:1 69:5 93:1 127:1 151:2 247:1 253:1 262:3 279:5 281:1 362:1 363:1 366:1 473:1 488:1 539:2 552:1 567:1 829:1 938:1 983:1 1007:2 1048:1 1086:2 1090:1 1149:1 1157:1 1440:1 1447:2 1538:1 1552:1 1555:1 1630:1 1663:1 1690:1 1872:1 2218:1 2289:1 2632:1 2856:1 2967:1 3280:1 3495:2 3527:1 3873:3 4533:1 5216:1 6167:1 6173:1 6662:2 8962:1 9453:1 9990:1 12477:1 12708:1 13128:1 15170:1 16437:1 19010:1 27648:1 27649:1 27650:1 27651:1 27652:1 27653:1 27654:1 27655:1 27656:1 27657:1 27658:1 27659:1 27660:1 #
-0.0013963173620243727202777650475696 9:2 22:3 24:3 27:4 32:1 61:5 125:1 166:2 211:4 224:2 250:2 270:2 279:15 280:6 336:1 387:2 397:2 418:2 439:1 450:1 567:1 638:2 738:1 904:1 921:1 925:1 939:1 953:2 974:1 983:2 1061:2 1215:1 1312:3 1327:1 1417:1 1473:3 1503:1 1570:2 1572:2 1609:1 1630:11 1637:1 1677:1 1688:1 1696:1 1857:1 1930:1 2051:1 2118:2 2139:1 2157:1 2162:3 2300:1 2316:1 2459:1 2486:1 2590:1 2685:1 2691:1 2809:1 2922:1 2939:1 3192:1 3224:1 3292:1 3327:1 3337:1 3383:1 3477:1 3844:1 3949:1 4304:3 4414:1 4677:1 5286:2 5457:1 5475:2 6534:1 6706:1 6995:1 7576:1 8115:1 8444:1 8480:2 10718:1 11629:1 11932:1 12708:1 15676:1 17012:1 19559:1 19560:1 19561:1 19562:1 19563:1 19564:1 19565:1 19566:1 19567:4 19568:1 19569:1 19570:2 19571:1 19572:2 19573:1 19574:1 19575:1 19576:1 19577:1 19578:1 19579:1 19580:1 #
0.004548175621347276369188517008979 1:1 27:1 29:3 32:1 34:1 42:1 115:1 127:2 143:1 152:1 166:1 247:2 282:1 352:1 389:2 390:2 391:1 392:2 393:1 394:1 395:1 396:1 397:1 398:1 399:1 400:1 401:1 402:1 403:1 404:2 405:1 406:1 407:1 408:1 409:1 410:1 411:1 412:2 413:1 414:1 415:1 416:1 417:1 418:1 419:1 420:1 421:1 #
0.004548175621347276369188517008979 1:2 53:4 56:3 57:1 61:1 107:1 130:1 151:1 213:2 224:1 250:2 279:2 282:2 404:3 405:1 466:3 468:2 469:1 470:1 471:1 472:1 473:1 474:1 475:2 476:1 477:1 478:1 479:1 480:1 481:1 482:1 483:1 484:1 485:1 486:1 #
-0.0017819541099714374284002094128709 1:1 59:1 74:8 126:2 246:1 367:1 392:1 468:2 475:6 594:1 922:5 931:2 1147:1 1419:1 1420:1 1824:1 2182:2 2234:1 2289:1 3060:3 3197:1 3198:1 3199:1 3200:3 3201:2 3202:1 3203:2 3204:2 3205:1 3206:1 3207:1 3208:1 3209:1 3210:1 3211:1 3212:1 3213:2 3214:1 3215:1 3216:1 #
-0.0027869337941248883624978383011239 1:2 2:1 4:2 28:1 29:1 53:2 56:1 74:1 152:1 250:3 404:3 424:1 544:1 585:1 931:1 950:2 961:1 977:1 1007:1 1218:1 1223:1 1419:1 1826:3 2139:1 2151:1 2194:1 2651:2 2677:1 2856:1 3332:1 4448:1 4723:1 4724:1 4725:1 4726:1 4727:1 #
-0.0013603021077794343312444835802921 1:1 3:1 22:2 27:1 56:1 74:4 138:1 153:1 404:5 417:1 428:1 429:1 466:1 475:4 594:3 596:1 907:1 912:1 922:1 931:2 961:1 1142:1 1327:1 1339:1 1789:1 2228:1 2234:1 2606:1 3063:1 3227:1 4116:1 4125:1 4126:2 4127:1 4128:1 4129:1 4130:1 4131:1 4132:1 4133:1 4134:1 4135:1 4136:1 4137:1 4138:1 4139:1 4140:1 4141:1 4142:1 4143:2 4144:5 4145:3 4146:1 4147:1 4148:1 4149:1 4150:1 4151:1 4152:1 4153:1 4154:1 4155:1 4156:1 4157:1 4158:2 4159:1 4160:1 4161:1 4162:1 #
-0.004548175621347276369188517008979 107:1 153:1 250:1 581:1 911:1 953:1 1156:1 1301:1 1405:1 2651:1 3464:1 17598:1 #
-0.003032434502191794310071992768485 3:1 27:1 34:1 53:2 56:1 74:4 217:1 250:2 272:1 394:1 402:1 404:4 417:1 425:2 453:1 475:5 487:1 545:1 594:5 596:1 749:1 911:1 912:1 931:1 1001:1 1089:2 1162:1 1212:1 1327:1 1410:1 1503:1 1547:1 1612:1 2234:1 2610:4 3381:2 3809:1 4116:1 4129:1 4130:1 4131:1 4132:1 4133:1 4134:1 4135:1 4136:1 4137:1 4138:1 4139:1 9829:1 15601:1 18149:1 29614:1 29615:1 29616:1 29617:3 29618:1 29619:1 29620:1 29621:1 29622:1 29623:1 29624:1 29625:1 #
-0.0006377456292491988625731336171043 22:1 27:1 72:1 73:1 150:1 166:1 926:1 962:1 1122:2 1447:1 1612:15 2151:1 2459:1 2768:1 3486:1 3579:1 3870:1 5783:1 8675:1 11002:1 11003:1 11004:2 11005:2 11006:1 11007:1 11008:1 11009:1 11010:1 11011:2 11012:1 #
-0.00087006506322381013760619561381304 1:1 61:1 406:1 420:1 453:1 466:1 994:3 1014:5 1083:1 1505:2 1506:2 1510:2 1704:2 2072:1 2532:2 2812:4 2938:1 2952:2 3366:1 3859:1 12451:5 14359:1 14360:1 14361:1 14362:1 14363:1 14364:1 14365:1 14366:1 #
-0.0028348822678881998443634060436125 2:1 13:1 27:1 47:1 74:1 93:2 139:1 158:1 215:2 259:1 262:1 378:1 383:1 907:1 1188:1 1312:2 1713:4 1802:4 2509:1 8834:1 8835:1 8836:1 8837:5 8838:1 8839:1 8840:1 8841:2 8842:1 8843:1 8844:1 8845:2 #
-0.00068729654393256175287651998928595 2:3 9:1 10:1 22:2 27:1 29:2 77:1 79:2 101:1 247:1 282:1 285:1 402:1 545:1 721:1 1024:3 1440:1 1819:1 2117:1 3998:1 4429:1 7516:1 11831:1 11832:11 11833:4 11834:3 11835:5 11836:1 11837:7 11838:5 11839:3 11840:2 11841:4 11842:1 11843:1 11844:1 11845:1 11846:1 11847:1 #
0.004548175621347276369188517008979 1:1 29:2 32:2 34:1 55:1 74:4 107:2 166:1 174:1 253:2 277:1 279:1 281:1 284:1 290:1 346:1 390:1 392:1 439:1 728:3 743:1 891:2 893:3 908:1 983:1 1150:1 1375:1 1395:2 1396:1 1397:1 1398:1 1399:1 1400:1 1401:1 1402:1 1403:1 1404:1 1405:1 1406:1 1407:1 1408:1 1409:1 1410:2 1411:1 1412:1 1413:1 1414:1 1415:1 1416:1 1417:1 1418:1 1419:2 1420:1 1421:1 1422:1 1423:1 1424:1 1425:1 1426:1 1427:1 1428:1 1429:1 1430:1 #
-0.00059601699398976418914353203604151 1:1 3:1 13:1 27:2 34:1 43:3 64:2 69:1 78:1 139:1 146:2 166:1 252:3 261:4 263:1 284:1 291:1 367:1 488:3 536:1 590:2 596:4 728:3 766:2 1103:1 1166:2 1212:1 1213:1 1375:1 1620:1 1621:1 1798:4 1822:1 1823:1 2170:1 2628:1 3138:3 3233:1 3365:3 3556:2 3576:2 3579:1 3671:1 3827:1 4009:1 4560:1 4602:1 7878:1 8024:1 10186:1 11729:1 16372:1 19377:1 22600:2 30139:1 30140:1 30141:1 30142:1 30143:2 30144:6 30145:2 30146:1 30147:1 30148:1 30149:1 30150:1 30151:1 30152:1 30153:1 30154:1 30155:1 30156:1 30157:3 30158:2 30159:1 30160:1 30161:1 30162:1 30163:1 30164:2 30165:1 30166:1 30167:1 30168:1 30169:1 30170:1 30171:1 30172:1 #
-0.00025316966647865099667921717774277 27:1 34:2 53:2 136:1 225:1 250:1 258:1 259:1 261:1 272:1 406:1 458:1 487:1 508:1 557:3 953:4 1505:1 1553:1 2038:2 2217:1 2246:1 2300:1 2539:2 3371:1 4469:1 5251:1 5291:1 5655:1 8229:1 8480:1 8884:1 10222:1 13063:5 16342:1 21144:1 21145:1 21146:3 21147:2 21148:1 21149:1 21150:1 21151:1 21152:2 21153:1 21154:1 21155:1 21156:1 21157:1 #
-0.0023254406323214818659572689085735 1:2 2:3 3:1 34:3 42:1 152:1 7153:1 7409:2 10802:1 10803:1 10804:1 10805:1 10806:2 10807:1 10808:1 10809:1 10810:1 10811:1 #
0.004548175621347276369188517008979 3:1 13:2 27:1 29:1 34:1 44:1 64:2 69:1 152:1 262:1 263:2 271:2 279:1 362:1 378:1 404:1 541:1 692:1 738:1 1014:1 1029:1 1606:1 1620:2 1621:2 1622:1 1623:1 1624:1 1625:1 1626:1 1627:1 2192:1 2193:1 2194:2 2195:1 2196:1 2197:1 #
0.004548175621347276369188517008979 1:1 13:2 27:1 67:1 74:1 93:1 94:1 107:1 136:1 212:1 217:1 218:1 246:1 247:1 279:2 302:2 305:1 397:2 404:2 475:1 594:1 744:1 749:1 907:1 956:1 957:1 958:1 959:1 960:1 961:1 962:1 963:1 964:4 965:1 966:2 967:1 968:1 969:2 970:1 971:1 972:1 973:1 974:1 975:1 976:1 #
0.004548175621347276369188517008979 1:1 13:2 27:2 41:2 61:1 71:1 101:1 107:1 125:1 136:1 151:2 152:1 218:1 279:5 302:1 303:1 394:1 402:1 404:2 405:1 475:1 482:1 488:1 594:2 727:1 749:1 911:1 927:1 953:1 1339:1 1481:2 1505:1 1612:1 1788:1 1802:1 1920:1 2100:1 2101:1 2102:2 2103:1 2104:1 2105:1 2106:1 2107:1 2108:1 2109:4 2110:3 2111:1 2112:1 2113:1 2114:1 2115:1 2116:1 2117:1 2118:1 2119:1 2120:1 2121:1 2122:1 2123:1 #
-0.0013073805650297707151019643845302 1:1 32:1 74:3 152:1 229:1 428:1 475:1 926:1 956:1 977:1 1162:1 1452:1 1917:1 2115:1 4076:2 6292:1 7217:1 8988:1 12336:1 15405:1 15406:2 15407:1 15408:1 15409:3 15410:1 15411:1 15412:1 15413:1 15414:1 #
-0.0011249206737517652727326167294564 1:2 27:1 30:1 31:1 56:1 107:1 130:1 136:1 139:1 151:2 224:1 250:1 263:6 279:5 282:1 397:1 425:1 460:1 475:1 487:1 545:1 638:1 658:1 824:3 932:1 961:1 995:1 1173:1 1327:1 1344:1 1405:1 1502:1 1503:1 1609:1 1633:1 1678:1 1823:1 1878:1 2001:1 2032:1 2072:2 2198:1 2220:2 2254:1 2315:1 2337:1 2425:1 2765:1 3060:1 3122:1 3156:1 3185:1 3203:1 3339:1 3383:1 3527:1 3553:1 3938:1 4093:1 4304:2 4471:2 5951:1 6122:1 6456:1 6807:7 7215:1 7368:1 8723:1 10041:3 11453:1 11801:1 12451:1 13465:1 13811:1 14240:1 16278:1 16955:1 17157:1 19772:1 24295:1 26838:1 26839:6 26840:1 26841:1 26842:1 26843:2 26844:1 26845:1 26846:1 26847:3 26848:1 26849:1 26850:1 26851:1 26852:1 26853:1 #
-0.00076798776185568718398444243433687 1:3 22:2 27:3 34:7 93:2 101:1 139:1 143:2 155:1 207:1 225:1 241:1 247:1 248:2 279:14 282:2 362:1 392:1 397:4 447:1 458:1 466:1 475:2 483:1 541:1 632:1 653:1 829:2 831:11 908:2 913:1 922:1 926:1 1099:1 1160:1 1166:3 1339:1 1419:1 1420:1 1447:1 1548:1 1590:1 1630:3 1677:1 1788:1 1857:1 1915:1 2121:1 2139:1 2162:1 2393:1 2445:1 2577:3 2651:2 2674:1 2694:2 2836:1 2872:4 3011:1 3279:1 3289:1 3306:1 3476:1 3827:1 4377:1 4414:1 4504:1 5286:1 5591:1 7762:1 8224:2 8646:1 12743:3 13144:1 13145:4 13146:2 13147:1 13148:5 13149:1 13150:4 13151:1 13152:2 13153:2 13154:1 13155:1 13156:1 13157:1 13158:1 13159:1 13160:1 13161:1 13162:1 13163:1 13164:1 13165:1 13166:3 13167:2 13168:4 13169:1 13170:1 13171:2 13172:1 13173:2 13174:3 13175:2 13176:1 13177:1 13178:1 13179:1 13180:1 #
-0.0018168818058896670734198020014105 1:1 2:1 3:1 22:6 27:2 29:2 32:1 34:1 42:1 45:5 59:1 78:7 93:5 152:3 166:4 247:1 284:2 310:3 311:1 333:1 383:1 389:1 391:1 396:1 397:2 404:4 450:1 557:1 602:1 766:6 1014:4 1417:3 1508:1 1822:6 2080:1 2170:1 2237:1 2263:2 2612:1 2614:1 4603:2 5381:1 5417:1 6523:1 8909:1 14287:1 16519:1 16564:3 24280:1 27904:1 29536:1 29537:1 29538:1 29539:1 29540:1 29541:3 29542:1 29543:1 29544:7 29545:1 29546:1 29547:1 29548:2 29549:1 29550:1 29551:1 29552:1 29553:1 29554:6 29555:3 29556:1 29557:1 29558:1 29559:1 29560:1 29561:2 29562:1 29563:1 29564:1 29565:1 29566:1 29567:1 29568:1 29569:1 #
-0.00023703945057732813891937517780661 1:1 3:1 22:18 27:2 28:1 45:9 123:1 136:1 337:1 363:1 437:1 636:1 2198:1 2591:1 2628:1 3565:1 3594:1 12076:1 13056:1 22201:1 22982:1 22983:1 22984:8 22985:3 22986:2 22987:2 #
-0.0028623613424238305083524558369845 1:1 22:3 27:3 29:4 30:1 34:1 59:1 72:2 125:2 145:1 293:1 407:3 437:1 487:2 580:1 986:1 1524:1 3383:1 5765:1 5775:1 6318:1 10408:1 12108:1 18355:2 18356:1 18357:1 18358:1 18359:1 18360:3 18361:3 18362:2 18363:1 18364:1 18365:1 18366:1 18367:1 #
-0.0013711193490667341384620092625823 1:3 22:17 27:2 44:2 45:2 136:1 337:1 352:1 362:2 363:1 365:1 387:1 389:4 570:1 640:1 658:2 743:1 983:1 1032:1 1213:1 1376:1 1523:1 1633:1 1709:1 2179:1 2371:1 5683:3 8906:1 8907:1 8908:1 8909:2 8910:1 8911:1 8912:1 8913:1 8914:1 8915:1 8916:2 8917:2 8918:1 8919:1 8920:1 8921:2 8922:1 8923:1 8924:1 #
0.004548175621347276369188517008979 1:2 27:2 31:1 32:1 44:1 107:3 127:1 136:2 145:1 149:1 152:2 259:2 279:1 286:1 391:1 394:1 397:1 422:1 423:1 424:1 425:1 426:1 427:1 428:1 429:1 430:1 431:1 432:1 433:1 434:1 435:1 436:1 437:1 438:2 439:1 440:2 441:1 442:3 443:2 444:1 445:1 446:1 447:2 448:1 449:1 450:1 451:1 452:1 453:1 454:2 455:1 456:1 457:1 458:1 459:1 460:1 461:1 462:1 463:1 464:1 465:1 466:1 467:1 #
0.004548175621347276369188517008979 3:1 13:1 22:1 27:1 32:1 64:1 71:1 107:3 151:5 152:5 211:1 213:1 217:1 218:1 279:2 305:1 475:5 483:1 493:1 564:1 594:1 741:1 749:2 907:1 922:1 926:1 927:4 928:1 929:1 930:1 931:1 932:1 933:1 934:1 935:1 936:1 937:1 938:5 939:1 940:1 941:1 942:1 943:1 944:1 945:1 946:1 947:1 948:1 949:1 950:1 951:1 952:1 953:1 954:1 955:1 #
-0.00064837843220629247549535723038616 1:1 28:2 41:2 69:1 98:1 101:3 152:8 225:1 248:2 265:1 270:1 272:1 273:7 310:1 388:1 453:1 468:2 475:4 644:6 721:1 733:1 757:1 929:1 1014:2 1162:1 1212:1 1218:1 1219:1 1230:1 1409:1 1450:3 1502:1 1605:1 1917:1 2124:1 2232:2 2255:1 2657:1 2846:1 2919:1 2980:1 3018:2 3060:4 3290:1 3748:1 3800:2 4039:1 4052:1 4110:1 4446:1 4471:2 5132:1 5170:7 5175:1 5176:1 5248:1 6293:1 7762:1 7807:1 8048:1 8074:1 8332:1 8595:1 8670:1 9520:1 10678:1 12719:1 15552:1 18521:1 30678:2 30679:1 30680:3 30681:2 30682:1 30683:1 30684:1 30685:1 30686:1 30687:1 30688:1 30689:1 30690:1 #
-0.00014269430719253978364323420802151 1:1 27:1 34:1 48:1 59:1 136:2 201:2 237:1 284:2 394:1 468:2 537:6 577:5 583:1 602:2 829:1 1032:2 1035:1 1157:2 1186:1 1223:1 1230:2 1294:1 1301:1 1450:1 1658:1 1972:10 2023:1 2236:2 2251:2 2425:1 2485:1 2575:2 2980:3 3527:1 3853:1 4076:1 4266:1 4404:1 4487:1 5075:1 7805:3 8233:3 8235:1 8484:1 10427:4 10840:1 11129:1 11130:1 11131:1 11132:1 11133:1 11134:1 11135:1 11136:1 11137:1 11138:6 11139:1 11140:1 11141:3 11142:3 11143:1 11144:1 11145:1 11146:1 11147:1 11148:1 11149:1 11150:2 11151:1 11152:1 11153:1 11154:1 11155:6 11156:6 11157:1 11158:1 11159:1 11160:1 11161:1 11162:1 11163:1 11164:1 11165:1 11166:1 11167:1 11168:1 11169:1 11170:1 11171:1 11172:1 11173:1 11174:1 11175:1 11176:1 11177:1 11178:1 11179:1 11180:1 11181:1 11182:1 11183:1 11184:1 11185:1 11186:1 11187:1 11188:1 11189:2 11190:1 11191:1 11192:1 11193:1 11194:1 11195:1 #
-0.00079055026143470179342959136548075 28:1 130:1 151:5 152:2 250:1 253:2 255:1 284:1 285:1 297:3 302:3 357:1 454:3 466:2 481:1 594:1 638:2 749:3 983:2 1162:2 1366:1 1609:1 1664:1 1670:1 1794:1 2124:1 2200:1 2230:2 2234:3 2252:4 2486:1 2536:1 2602:2 2603:2 2644:1 2683:1 2701:2 2723:1 2871:1 2897:1 4076:1 4116:1 4704:1 5901:1 6016:1 6344:1 7073:1 9922:1 14059:1 19581:1 21073:1 21276:1 22481:1 22482:2 22483:1 22484:1 22485:1 #
-0.00094526722163274900633672670480223 27:5 31:1 34:1 35:1 72:1 98:1 99:2 136:3 139:1 336:1 338:1 359:1 394:2 404:2 487:1 581:1 776:1 959:2 1264:1 1431:1 1502:1 2162:1 2472:1 2529:2 3909:1 3973:1 3989:1 4615:1 4938:1 5193:1 5196:1 5637:1 6589:1 8790:1 11116:1 11472:1 11553:1 12806:2 16349:1 16746:1 17551:1 17734:2 21917:1 22296:1 22297:1 22298:1 22299:1 22300:1 22301:1 22302:1 22303:1 22304:1 22305:1 22306:1 22307:1 22308:1 22309:1 22310:2 22311:1 22312:1 22313:1 22314:1 22315:1 22316:1 22317:1 22318:2 22319:1 22320:1 22321:1 22322:1 22323:1 22324:1 22325:2 22326:2 22327:2 22328:2 22329:1 22330:1 22331:1 22332:1 22333:1 22334:1 22335:1 22336:1 22337:1 22338:1 22339:1 22340:1 22341:1 22342:1 22343:1 22344:1 22345:1 22346:1 22347:1 22348:1 #
-0.00017782127244237209235874774826414 22:3 27:2 31:1 123:1 246:2 359:1 447:2 487:1 552:1 1061:3 1339:1 1536:2 2147:2 3973:1 4947:2 5190:1 6277:2 6597:1 6695:1 6775:6 8530:3 9581:1 10139:1 13647:1 14786:1 15689:1 26599:5 26600:2 26601:3 26602:1 26603:1 26604:1 26605:1 26606:4 26607:2 26608:1 26609:1 26610:1 26611:1 #
-0.004548175621347276369188517008979 27:2 107:1 123:1 136:1 138:1 976:1 1368:1 6081:1 8634:1 29914:1 29915:1 29916:1 29917:1 29918:1 29919:1 29920:1 29921:1 29922:1 29923:1 #
-0.00062521116345944235340864603145405 3:6 20:1 24:1 27:1 31:1 32:1 34:2 35:2 47:2 48:1 78:1 98:2 106:1 136:1 139:1 152:3 166:5 201:1 235:2 246:1 250:1 259:2 261:1 264:1 284:1 299:1 300:1 352:1 383:4 391:1 392:1 397:1 407:3 441:1 487:2 545:1 634:1 638:1 743:2 995:1 1036:1 1091:1 1202:1 1224:1 1339:1 1400:2 1531:1 1658:4 1795:1 1924:1 2194:1 2229:2 2321:1 2355:1 2362:1 2591:1 2608:2 2774:1 2779:1 2786:2 2811:3 2895:1 2896:2 3306:1 3878:1 4011:1 4165:1 4197:1 4395:1 4448:1 4545:1 4724:1 4864:1 4938:1 4979:1 5085:1 5221:2 5282:1 5665:3 5810:2 5848:6 6449:1 6450:1 6451:1 6452:2 6453:1 6454:1 6455:1 6456:1 6457:1 6458:1 6459:1 6460:2 6461:1 6462:2 6463:1 6464:1 6465:1 6466:1 6467:1 6468:1 6469:1 6470:5 6471:5 6472:4 6473:8 6474:4 6475:1 6476:2 6477:1 6478:1 6479:1 6480:1 #
0.004548175621347276369188517008979 1:1 2:1 3:1 9:1 27:1 28:1 29:2 31:1 48:1 74:3 101:2 107:3 145:1 153:1 207:1 270:1 299:1 308:1 312:8 332:1 333:3 412:3 493:1 544:2 545:1 587:1 594:2 926:1 953:1 969:3 977:1 1000:1 1419:1 1471:1 1473:2 1652:2 1896:1 1897:1 1898:3 1899:1 1900:1 1901:3 1902:1 1903:1 1904:1 1905:3 1906:1 1907:1 1908:1 1909:1 1910:1 1911:1 #
0.0031623743115225108266108655641347 13:6 27:3 31:2 34:3 44:4 48:3 69:3 74:3 94:1 107:1 115:4 136:3 217:1 241:1 259:1 378:3 404:2 475:1 530:1 536:3 585:2 658:1 660:1 911:1 1014:3 1085:1 1429:1 1646:1 1647:1 1648:1 1649:9 1650:3 1651:6 1652:3 1653:2 1654:2 1655:2 1656:3 1657:1 1658:1 1659:1 1660:1 1661:1 1662:1 1663:1 #
-0.0009755272102691534474513956887165 1:2 2:1 27:2 29:2 59:1 69:1 146:1 247:2 275:6 397:1 402:1 404:7 653:1 727:1 743:2 897:1 912:1 932:1 961:2 995:1 1246:1 1437:1 1525:1 1612:2 1630:1 1678:1 1688:1 1824:1 1855:1 2070:1 2117:1 2118:1 2228:1 2230:1 2251:1 2425:1 2443:2 2591:1 2628:2 2648:1 2677:1 2777:2 2841:1 3477:1 3491:1 3858:1 4414:1 4744:1 8190:1 8431:1 8675:1 11419:1 12269:1 12270:1 12271:1 12272:1 12273:2 12274:2 12275:2 12276:3 12277:1 12278:1 12279:1 12280:1 12281:1 12282:1 12283:1 #
-0.0040661925534970300502579654278179 1:1 3:3 27:2 31:1 48:4 74:1 78:2 130:1 131:1 136:2 140:1 201:4 237:1 241:1 253:3 270:1 282:1 352:2 357:1 404:2 420:1 439:3 465:1 559:3 576:2 829:2 918:1 950:1 1188:1 1473:1 1502:1 2575:1 2614:1 2651:1 2726:1 4675:1 4699:2 5904:1 6052:1 6429:2 8575:1 9299:1 13362:2 15270:1 22988:1 22989:2 22990:1 #
-0.0033200417428485176456198768590866 1:1 27:1 48:2 78:3 151:1 152:1 201:4 253:1 341:1 390:1 556:1 557:2 558:1 559:1 576:1 577:3 597:1 932:1 1003:1 1190:5 1327:1 1664:1 1679:1 1878:1 2923:1 3553:2 4968:1 5725:3 6067:2 7252:1 13221:1 15032:1 15645:1 24072:1 24073:1 24074:2 24075:1 24076:1 24077:1 #
-0.0020115125028107184307346599894117 1:2 2:1 27:3 29:1 34:2 44:1 127:1 151:1 330:7 386:1 776:1 969:1 1531:2 2316:1 3844:1 5325:1 8646:1 8917:2 13262:2 21272:1 27704:1 31508:2 31509:5 31510:4 #
-0.00087495007719626412788505032125386 1:3 13:1 27:1 32:1 34:4 42:1 48:3 56:1 69:2 152:1 246:1 262:2 302:4 466:3 581:1 584:2 897:1 956:1 977:1 986:2 1001:1 1146:1 1150:1 1207:1 1339:1 1402:1 1633:1 1831:1 1880:1 1915:3 2116:1 2166:1 2201:1 2463:1 2980:1 3161:1 3240:3 3356:4 3528:4 3566:3 4468:3 5183:2 5535:1 9120:1 9875:1 10098:1 10533:1 10534:2 10535:3 10536:2 10537:1 10538:2 10539:1 10540:1 10541:1 10542:1 10543:1 10544:1 10545:2 10546:1 #
0.004548175621347276369188517008979 1:1 22:5 27:3 44:3 45:1 48:1 74:3 107:3 125:1 130:1 136:1 146:1 151:1 206:3 259:1 279:3 281:1 284:2 331:1 378:4 403:1 404:1 475:2 545:1 577:4 583:1 585:1 776:2 908:1 1014:2 1122:2 1157:1 1200:4 1327:1 1429:1 1453:1 1454:1 1455:1 1456:5 1457:1 1458:4 1459:2 1460:2 1461:1 1462:2 1463:1 1464:1 1465:1 1466:1 1467:1 1468:1 1469:1 1470:1 1471:1 1472:1 1473:1 1474:1 1475:1 1476:1 1477:1 1478:1 1479:1 1480:1 1481:1 1482:1 1483:1 1484:1 1485:1 1486:1 1487:1 1488:1 1489:1 1490:1 1491:1 1492:1 1493:1 1494:1 #
-0.0012311255383618405819662333655629 13:1 27:2 34:1 53:2 59:7 64:1 74:2 125:1 201:2 259:1 336:1 466:1 471:1 488:2 540:1 583:1 907:1 976:1 1568:1 1657:1 1777:1 2521:1 2559:1 2797:1 3378:1 3388:1 3407:1 3748:1 4713:1 4873:1 6935:1 10995:6 11438:2 11443:2 11768:1 11777:1 13105:1 14047:1 14117:1 14865:1 15417:1 17209:1 17217:1 17218:6 26672:1 26673:1 26674:1 26675:1 26676:1 26677:1 26678:7 26679:1 26680:1 26681:1 26682:1 26683:1 26684:1 26685:1 26686:1 #
-0.00028060112837581822810978371407487 1:3 24:1 27:4 34:3 56:1 130:1 253:1 279:8 282:1 286:1 294:3 406:1 422:1 468:2 473:3 475:3 645:1 738:1 831:1 897:1 898:1 899:1 920:1 950:1 974:2 977:4 1006:1 1165:1 1205:1 1244:2 1346:1 1385:1 1607:1 1828:1 2000:1 2001:1 2278:1 2650:1 3018:1 3767:1 3899:3 4125:1 4556:2 4712:2 5364:2 6379:1 7098:1 7580:1 8477:1 11912:1 12040:3 16380:3 16381:1 16382:1 16383:1 16384:1 16385:2 16386:1 16387:1 16388:1 16389:2 16390:1 16391:1 16392:1 16393:1 16394:1 16395:1 16396:1 16397:1 16398:1 16399:1 #
-0.0013342404100665397441438653203249 1:1 4:1 44:1 48:1 56:1 59:1 98:1 131:1 151:2 152:1 156:1 166:1 207:1 220:1 262:1 279:5 282:1 285:1 336:1 352:1 397:1 441:2 466:1 487:1 738:1 898:3 899:3 969:2 1205:1 1230:2 1327:1 1417:1 1450:1 1679:1 1689:1 1795:1 1880:1 2001:3 2072:3 2146:1 2171:2 2182:1 2184:1 2289:1 2307:2 2310:1 2311:1 2312:1 2313:1 2314:1 2315:1 2316:3 2317:2 2318:2 2319:1 2320:1 2321:1 2322:1 2323:1 2324:1 2325:1 2326:1 2327:1 2328:1 2329:1 2330:1 2331:1 2332:1 2333:1 2334:1 2335:1 2336:1 2337:1 2338:1 2339:1 2340:1 2341:3 2342:1 2343:1 2344:1 2345:1 2346:1 2347:1 2348:1 2349:1 2350:1 #
-0.0006821024557642880407209995397011 1:1 3:1 27:3 28:1 39:1 44:2 48:1 61:1 116:1 136:1 138:1 151:1 152:2 246:1 279:1 289:1 333:2 397:2 461:1 829:1 949:1 983:1 1003:1 1032:1 1157:1 1212:1 1327:1 1689:1 1691:1 1697:2 1763:1 1795:1 1821:5 1823:1 1873:1 2170:2 2292:1 2321:1 2438:4 3335:2 3835:1 4089:2 4396:1 4600:3 4667:1 4766:2 4797:1 5189:1 5952:2 6391:1 6595:1 6623:1 8579:1 8642:1 10093:1 10127:3 10812:1 10813:2 10814:1 10815:2 10816:1 10817:1 10818:1 10819:1 10820:1 10821:3 10822:1 10823:1 10824:1 10825:1 10826:1 10827:1 10828:1 10829:2 10830:1 10831:1 10832:1 10833:1 10834:2 10835:1 10836:1 10837:1 10838:1 #
0.0034284009254891213876181854658398 1:1 3:1 6:1 13:3 22:4 27:3 29:1 32:1 34:2 35:1 44:1 61:1 64:6 69:1 78:1 93:3 107:3 152:2 166:2 211:3 214:1 217:1 218:1 224:3 250:1 263:7 271:1 279:2 280:1 301:1 361:1 386:1 397:4 404:7 427:2 487:1 536:1 583:1 602:2 608:2 634:1 638:1 728:2 813:1 926:1 938:1 939:1 1014:1 1033:1 1034:1 1035:2 1036:1 1037:1 1038:1 1039:2 1040:1 1041:1 1042:1 1043:1 1044:1 1045:1 1046:2 1047:1 1048:1 1049:1 1050:1 1051:2 1052:3 1053:2 1054:1 1055:1 1056:1 1057:1 1058:2 1059:1 1060:1 1061:2 1062:1 1063:1 1064:1 1065:1 1066:1 1067:1 1068:1 1069:1 1070:1 1071:1 1072:1 1073:2 1074:1 1075:1 1076:1 1077:1 1078:1 1079:1 1080:1 1081:1 1082:1 1083:1 1084:1 #
-0.00043487838311042601195308132666639 1:1 3:9 6:3 13:4 27:1 47:2 64:11 78:2 99:1 136:1 166:1 215:3 235:2 253:1 263:6 271:8 282:1 284:1 311:3 342:1 352:1 363:3 383:1 392:1 397:1 458:1 473:1 508:2 536:1 541:4 569:1 634:1 658:1 660:2 813:2 821:2 823:3 824:1 949:1 968:1 1019:1 1173:1 1590:1 1612:1 1726:1 1788:2 1968:1 1974:1 2014:1 2051:5 2070:1 2330:1 2445:5 2463:1 2577:5 2578:1 2640:3 2650:3 3060:1 3287:1 3337:2 3673:2 3748:1 3973:8 4301:1 4304:2 4436:1 4455:1 4556:1 4712:2 4871:1 5101:1 5443:1 5511:1 5591:1 6632:1 7975:2 8480:4 8956:2 9412:1 10133:1 11040:2 12476:1 14480:1 14933:1 14935:1 14937:1 15132:1 16130:1 16180:3 19541:1 22357:3 22405:1 23266:3 23578:2 24333:1 25518:3 25519:1 25520:1 25521:1 25522:2 25523:1 25524:2 25525:1 25526:1 25527:1 25528:2 25529:1 25530:1 25531:1 25532:2 25533:2 25534:2 25535:1 25536:1 25537:1 25538:2 25539:1 25540:1 25541:1 25542:1 25543:1 25544:1 25545:1 25546:1 25547:1 25548:1 25549:1 25550:1 25551:3 25552:1 25553:2 25554:1 25555:1 25556:2 25557:2 25558:4 25559:1 25560:2 25561:1 25562:1 25563:1 25564:1 25565:1 25566:2 25567:2 25568:1 25569:1 25570:1 25571:1 25572:1 25573:1 25574:1 25575:1 25576:2 25577:1 25578:1 25579:1 25580:2 25581:1 25582:1 25583:2 25584:1 25585:1 25586:1 25587:1 25588:1 25589:1 25590:1 25591:1 25592:1 25593:1 25594:3 25595:1 25596:1 25597:1 25598:1 25599:1 #
-0.00066567572953696297049369645648653 1:1 3:5 27:2 31:1 44:3 45:1 61:4 78:1 136:2 141:1 153:1 166:10 297:1 359:1 397:14 455:1 471:1 488:1 542:1 545:1 570:2 734:1 821:1 1726:3 1727:1 1796:1 1974:1 2282:2 2353:1 2380:1 2540:1 2608:1 2640:1 2652:2 3486:1 3492:9 3765:2 3767:1 3769:1 4909:1 5036:1 5086:1 5096:2 5189:1 5655:1 6281:1 6312:1 6391:1 6591:1 8319:1 8575:1 8681:1 8702:1 8711:1 11208:1 11516:1 17352:1 22912:1 22913:1 22914:2 22915:1 22916:1 22917:2 22918:1 22919:2 22920:1 22921:2 22922:2 22923:2 22924:2 22925:3 22926:2 22927:3 22928:3 22929:1 22930:1 22931:1 22932:1 22933:1 22934:1 22935:1 22936:1 22937:1 22938:1 22939:1 #
-0.00077692463458202409842812130591483 1:3 3:7 9:1 22:1 27:2 34:2 44:1 56:1 59:1 64:1 69:4 71:1 74:1 93:1 99:6 101:1 107:1 130:1 152:3 211:1 224:1 246:2 248:3 279:1 284:1 306:1 311:5 342:2 363:1 394:1 468:2 473:1 475:1 536:6 563:7 569:7 898:2 899:2 968:1 1014:3 1034:1 1163:1 1327:2 1339:1 1375:2 1396:1 1399:1 1419:1 1420:1 1450:1 1612:3 1633:1 2001:1 2103:1 2146:1 2254:2 2287:1 2511:1 2569:1 2591:1 2606:1 2785:1 2846:2 3018:1 3166:2 3234:1 3312:1 3566:1 3782:1 4093:1 4323:2 4324:1 4471:1 4497:1 5209:1 5591:1 5597:1 5853:7 6054:1 6415:1 6508:2 6678:1 6754:1 6852:11 7088:1 7098:1 7456:7 7646:1 8205:1 8449:2 8982:1 10907:1 11645:2 11787:1 12077:1 15854:1 16928:1 18464:1 18465:1 18466:1 18467:1 18468:1 18469:1 18470:1 18471:1 18472:1 18473:1 18474:1 18475:1 18476:2 18477:1 18478:7 18479:1 18480:2 18481:1 18482:2 18483:2 18484:2 18485:2 18486:2 18487:1 18488:1 18489:1 18490:1 18491:2 18492:1 18493:1 18494:1 18495:2 18496:1 18497:2 18498:1 18499:1 18500:1 18501:1 18502:1 18503:1 18504:1 18505:1 18506:1 18507:1 18508:2 18509:1 18510:1 18511:2 18512:1 18513:1 18514:1 18515:1 18516:1 18517:1 18518:1 18519:1 18520:1 18521:1 18522:2 18523:1 18524:1 18525:1 18526:1 18527:1 18528:1 #
-0.00085011670111516239069227030000775 1:2 2:1 22:4 27:2 34:2 42:1 45:1 48:2 73:1 74:3 77:2 93:1 102:1 136:1 211:1 224:2 235:1 236:1 261:9 279:4 285:1 301:1 302:2 333:9 498:1 502:2 514:1 519:1 524:2 527:1 545:2 566:1 738:1 749:2 758:1 776:1 777:1 802:1 857:1 1001:1 1104:1 1419:1 1441:2 1538:1 1591:1 1637:2 1743:15 1824:1 1923:1 1967:2 2046:1 2268:1 2335:1 2576:1 3222:1 4399:2 4494:1 4744:1 5082:2 5160:1 5201:1 5344:1 5436:8 5458:2 5460:4 5465:2 5608:1 6056:1 6406:1 7409:1 10369:1 10370:1 10371:1 10372:1 10373:2 10374:2 10375:3 10376:1 10377:2 10378:2 10379:1 10380:1 10381:2 10382:1 10383:1 10384:2 10385:2 10386:1 10387:1 10388:1 10389:4 10390:2 10391:1 10392:1 10393:1 10394:1 10395:1 10396:1 10397:1 10398:1 10399:1 10400:1 10401:1 10402:1 #
-0.00045450390993285457808328886564198 27:2 30:1 31:1 45:1 72:3 391:1 394:1 397:1 776:15 904:1 928:1 1878:1 2895:1 4276:2 13845:1 13846:1 13847:2 13848:7 13849:1 13850:2 13851:1 13852:1 13853:1 13854:1 #
-0.0020059951530514109549474532911972 1:1 9:1 22:2 27:1 44:1 93:1 211:1 246:1 298:2 301:1 392:1 473:2 541:1 766:1 802:1 814:1 933:1 1018:1 1081:1 1200:3 1213:1 3248:1 5739:1 14548:1 18348:1 30814:1 30815:1 30816:1 30817:1 30818:1 30819:2 30820:2 30821:2 30822:1 30823:2 30824:1 30825:2 30826:2 30827:1 30828:1 30829:1 30830:1 30831:1 30832:1 30833:1 #
-0.0022754449547686961263792682075291 27:1 29:1 34:1 44:2 48:2 55:2 59:1 74:2 78:2 101:5 130:2 151:1 215:4 282:1 378:1 453:1 487:1 545:1 1419:1 2251:1 2321:1 2427:1 2434:1 3018:1 3828:1 4047:1 4423:1 4871:1 4872:1 4873:1 4874:1 4875:1 4876:1 4877:1 4878:1 4879:1 4880:1 4881:2 4882:1 4883:1 4884:1 #
-0.004446308564558765566432363414151 27:1 44:4 48:1 55:2 127:1 151:1 166:1 227:1 250:1 284:1 570:1 1327:1 1547:1 1821:1 2787:1 4079:3 5946:1 6570:1 18131:1 19936:1 19937:1 19938:1 #
0.0012712587618067630081120089613478 1:1 2:3 13:4 22:1 27:1 29:2 31:1 34:2 44:2 45:1 46:1 49:1 61:4 64:3 66:2 67:2 68:2 69:3 70:2 71:2 72:2 73:4 74:2 75:1 76:1 77:2 78:4 79:2 80:2 81:3 82:2 83:2 84:3 85:2 86:2 87:2 88:2 89:2 90:2 93:2 94:2 95:1 96:1 97:1 98:1 99:1 100:1 101:1 104:1 206:1 207:1 208:1 209:1 210:1 211:1 212:1 213:1 214:1 215:2 216:2 217:2 218:2 219:2 #
-0.0017303528125781435492019921795759 27:2 29:2 41:1 42:1 48:1 145:1 300:2 394:1 402:1 404:2 418:1 487:1 545:1 595:2 638:1 730:1 734:1 744:1 953:1 1061:1 1609:1 1668:1 1726:1 1912:1 2116:1 2157:1 2397:2 3224:1 3270:2 3857:1 4009:2 4455:1 4603:1 5101:1 6963:1 7068:4 12113:2 12517:1 14499:1 14500:1 14501:1 14502:1 14503:1 14504:1 14505:1 14506:1 #
-0.0023974863394196983985839910502591 27:1 31:1 34:1 56:1 107:1 123:1 130:1 146:5 166:1 241:1 545:1 766:1 996:1 1072:1 1099:1 1505:1 1506:1 1508:1 1510:1 1511:1 1512:1 1668:2 1880:1 2162:1 2195:1 2230:1 2592:1 2952:1 3192:1 4009:1 9142:1 9184:1 12397:1 13112:1 15908:1 19875:1 24406:1 24407:1 24408:2 24409:1 24410:1 24411:1 24412:1 24413:1 #
-0.00063933962858078014455942561511392 27:1 34:1 41:1 56:1 101:1 107:1 125:1 214:2 250:3 282:1 409:1 460:1 470:1 555:1 590:1 592:2 638:1 728:1 977:1 995:1 998:1 1084:1 1163:2 1211:1 2201:1 2231:1 2307:1 2601:1 3294:1 3783:2 4207:1 4491:2 4545:1 5765:1 5768:3 7007:1 9047:1 11882:4 14812:1 16745:2 16773:1 19712:4 19713:4 19714:1 19715:2 19716:4 19717:1 19718:3 19719:1 19720:1 19721:1 19722:2 19723:1 19724:1 19725:1 19726:1 19727:1 #
-0.0013021925927600049022192507663931 1:1 27:1 34:1 41:1 42:2 44:1 61:1 69:1 74:1 97:2 128:1 136:1 140:2 151:1 302:1 362:1 404:1 438:1 452:1 475:1 741:1 961:1 1014:1 1153:2 1795:1 1819:1 1824:1 2536:1 2725:2 2818:1 3181:2 4267:1 6930:1 7073:1 13362:1 18849:1 18850:1 18851:1 18852:2 18853:1 18854:1 18855:1 18856:1 #
0.0018600528823404208385305924622344 3:1 9:2 13:5 22:1 27:3 29:1 44:4 45:1 61:1 64:5 74:2 93:1 107:2 115:2 136:1 152:1 153:1 158:1 206:1 211:1 235:1 246:1 249:1 262:2 263:6 290:1 346:1 378:2 386:1 391:6 508:2 536:3 555:1 581:1 692:1 908:1 921:1 1014:4 1035:2 1334:1 1382:1 1429:1 1473:1 1606:1 1620:2 1622:1 1653:1 1697:1 1760:1 1761:1 1762:1 1763:1 1764:1 1765:1 1766:2 1767:1 1768:1 1769:1 1770:1 1771:3 1772:3 1773:1 1774:1 1775:1 1776:1 1777:2 1778:1 1779:1 1780:1 1781:1 1782:1 1783:1 1784:1 1785:1 1786:1 1787:1 1788:1 1789:1 1790:1 1791:2 1792:1 1793:1 #
-4.760425319499204531610569990363e-05 1:1 27:3 28:1 31:1 57:2 59:7 98:1 127:1 136:3 253:1 285:1 341:2 402:1 425:1 466:15 468:2 602:13 728:5 906:1 961:11 1032:3 1129:9 1450:3 1548:1 1620:1 1621:1 1873:1 1883:1 2041:1 2116:1 2444:1 2776:1 2818:2 3049:1 3985:1 4401:7 4909:1 5023:1 5276:1 7206:1 7563:1 8368:3 10163:1 10500:2 10816:2 13595:1 13596:3 13597:12 13598:3 13599:7 13600:4 13601:3 13602:3 13603:3 13604:1 13605:1 13606:1 13607:1 13608:3 13609:6 13610:2 13611:1 #
-0.00052570241323666598489555701334552 6:1 22:4 27:1 34:2 49:3 53:2 69:1 72:1 250:1 262:5 391:3 394:1 402:1 404:1 466:1 489:1 531:1 540:1 545:1 638:1 744:1 798:1 898:1 899:1 977:1 1048:1 1061:4 1251:1 1339:1 1503:1 1539:1 1547:1 1798:1 1856:1 1941:2 2262:2 2426:1 2459:1 3166:1 3224:1 4134:1 5231:2 6089:1 6257:1 6258:1 6259:1 6260:1 6261:1 6262:1 6263:1 6264:1 6265:1 6266:1 6267:1 6268:1 6269:1 6270:1 6271:1 6272:1 6273:3 6274:1 6275:1 6276:1 6277:1 6278:1 6279:1 6280:1 6281:1 6282:1 6283:1 #
-0.0011437817784876317447201321542138 13:1 27:1 30:2 31:1 32:1 34:3 69:1 78:1 130:3 139:1 250:1 253:4 262:4 263:1 281:3 284:2 391:3 394:1 425:1 447:1 449:2 466:1 544:1 553:1 897:1 922:1 1073:3 1339:2 1447:1 1679:1 1689:1 1697:1 1709:1 1826:1 2252:2 2258:2 2895:1 2915:1 3285:1 4078:1 4733:1 5183:1 5951:1 6450:1 8676:1 9120:1 9422:1 25889:1 27324:1 27325:1 27326:1 27327:2 27328:2 27329:2 27330:2 27331:1 27332:2 #
-0.00056732275594371267025961547147972 1:1 4:1 22:2 27:5 39:1 41:1 44:1 48:7 55:1 59:4 73:2 74:3 78:2 130:2 131:1 152:2 201:13 241:1 250:2 253:7 269:1 330:6 361:17 388:1 396:1 441:3 487:1 556:1 557:2 559:4 576:6 577:5 592:4 593:6 602:12 661:1 728:7 908:1 922:5 953:1 961:1 1001:2 1014:4 1094:1 1095:15 1096:1 1400:1 1447:3 1473:1 1474:2 1475:1 1664:5 1740:2 1841:1 1878:1 1881:1 1930:1 1934:1 1938:1 2237:1 2239:2 2300:2 2367:8 2379:2 2427:1 2554:1 2606:2 2896:1 2985:1 3063:1 3064:1 3227:4 3321:9 3553:5 3987:1 4056:1 4127:1 4144:4 4469:1 4575:5 4577:1 4593:1 4715:1 4748:1 6110:2 6549:1 7211:2 7214:1 8297:1 11026:3 11322:1 11374:1 11965:1 13665:1 14751:2 16872:1 18737:2 19227:1 22960:2 23342:4 23343:1 25615:1 27845:2 28101:1 28102:1 28103:1 28104:1 28105:3 28106:4 28107:5 28108:5 28109:1 28110:1 28111:1 28112:1 28113:1 28114:1 28115:3 28116:2 28117:2 28118:2 28119:1 28120:1 28121:1 28122:1 28123:1 28124:1 28125:2 28126:1 28127:1 28128:1 28129:4 28130:1 28131:2 28132:1 28133:1 28134:1 28135:2 28136:1 28137:1 28138:1 28139:1 28140:2 28141:1 28142:1 28143:1 28144:1 28145:1 28146:1 28147:1 28148:1 28149:1 28150:1 28151:6 28152:7 28153:7 28154:1 28155:2 28156:1 28157:2 28158:2 28159:1 28160:2 28161:1 28162:1 28163:1 28164:1 28165:1 28166:1 28167:1 28168:1 28169:1 28170:2 28171:1 28172:1 28173:1 28174:3 28175:4 28176:1 28177:1 28178:1 28179:1 28180:1 28181:1 28182:4 28183:1 28184:1 28185:1 28186:1 28187:1 28188:1 28189:1 28190:1 28191:2 28192:1 28193:1 28194:1 28195:1 28196:1 28197:1 28198:1 28199:1 28200:1 28201:1 28202:1 28203:1 28204:1 28205:1 28206:1 28207:1 #
-0.00031277465899427270897698027951606 3:1 27:3 31:1 32:1 73:1 106:1 130:1 136:2 138:1 237:1 246:1 278:1 336:1 453:1 478:2 581:1 583:3 585:2 728:1 829:1 1085:1 1157:1 1162:1 1215:1 1230:2 1327:1 1658:1 1860:1 2023:2 2427:1 2445:2 2457:1 2674:4 3062:2 3326:2 4675:1 4976:3 5220:1 5491:2 5508:1 5785:1 6185:1 7087:1 7805:1 8955:1 12232:1 12652:1 13144:1 23660:1 23661:1 23662:1 23663:1 23664:2 23665:1 23666:1 23667:1 23668:1 23669:1 23670:1 23671:1 23672:1 23673:2 23674:1 23675:1 23676:1 23677:1 23678:1 23679:1 23680:1 23681:1 23682:1 23683:1 23684:1 23685:1 23686:1 23687:1 23688:1 #
-0.00021709364085172809218440836964703 3:2 4:1 10:1 20:1 27:1 29:2 34:1 48:2 201:1 394:1 425:1 1385:1 1678:1 2228:1 2881:1 3450:1 6405:1 10785:19 12889:4 12890:4 12891:2 12892:1 12893:1 12894:6 12895:5 12896:1 12897:1 12898:6 12899:1 12900:1 12901:7 12902:2 12903:1 12904:1 12905:1 12906:1 12907:2 12908:2 12909:1 12910:2 12911:1 #
-0.0011523519866739016792589467286234 1:2 3:1 6:2 22:8 27:1 48:2 78:2 93:5 123:1 124:1 301:6 352:2 420:1 421:1 443:1 468:2 502:2 528:1 552:2 776:1 1197:1 1200:1 1251:1 1447:1 1450:4 1512:2 1590:2 1743:2 2616:1 4043:1 8119:1 8120:1 8121:1 8122:1 8123:1 8124:1 8125:2 8126:1 8127:1 8128:5 8129:1 8130:1 8131:2 8132:1 8133:2 8134:2 8135:1 8136:1 #
-0.0012668085316578855947788895264239 27:1 56:1 78:1 136:1 248:2 279:5 359:1 438:1 468:2 487:1 584:1 831:1 1339:1 1450:2 1490:1 1547:1 1630:1 1637:1 1649:4 1857:2 2032:2 3504:1 3710:2 3782:1 4193:2 4414:1 4469:1 8169:2 8177:2 8180:2 12001:2 12002:1 18522:1 19931:1 24558:1 24559:4 24560:1 24561:2 24562:1 24563:1 #
-0.00038817804249477341586860301703155 1:2 2:7 27:2 29:2 34:2 36:2 44:3 48:3 155:1 207:1 235:2 390:1 404:2 453:1 466:2 488:7 540:2 1400:1 1410:17 1923:1 2254:1 2356:1 2632:2 2911:2 3138:26 4079:1 6358:1 7252:4 9397:1 9641:2 11414:2 14065:1 26069:9 29179:2 29180:1 29181:1 29182:2 29183:1 #
-0.0022467100788963233551354115036247 27:2 34:2 59:1 201:5 250:1 263:2 285:1 352:1 389:1 396:1 441:2 466:2 490:1 493:1 507:2 602:2 638:1 728:1 829:1 949:4 1409:1 1543:1 1829:2 2640:2 4238:2 6085:1 6387:1 6557:1 7206:1 7366:2 7367:2 7368:1 7369:1 7370:2 7371:1 7372:1 7373:1 7374:1 7375:2 7376:2 7377:1 7378:1 7379:1 7380:1 #
-0.0025359434877565024263335047294277 1:1 27:1 32:1 59:4 61:4 125:1 127:1 246:2 634:1 925:1 1375:1 1405:1 2198:1 2294:1 2589:1 2592:1 2617:1 2683:1 2995:1 3938:1 4856:1 5958:1 8527:1 9822:2 9823:1 9824:1 9825:1 9826:1 9827:1 9828:1 9829:1 #
-0.00197208983697893559805525143247 2:1 27:1 42:1 48:1 56:1 61:2 128:1 136:1 146:1 282:1 383:2 386:1 390:1 404:1 456:1 615:1 829:1 982:1 1344:1 1440:1 1646:1 2170:1 2553:1 2677:2 3424:1 7760:1 10439:2 10440:1 10441:2 10442:2 10443:1 10444:1 10445:1 10446:2 #
-0.00045664639686205646049166340105785 1:1 22:14 27:1 34:1 44:1 53:2 78:8 128:1 130:1 149:1 201:2 207:1 246:1 247:1 249:1 270:1 389:1 396:1 404:1 466:1 488:3 490:2 552:1 557:1 968:1 1014:1 1200:2 1215:1 1251:1 1431:1 1609:1 1795:1 1878:1 2353:1 2559:1 2637:1 2640:5 2774:1 2814:2 3365:1 4593:1 4912:1 4972:1 5247:1 5725:3 5950:1 6081:2 10288:1 16406:3 16526:5 17852:1 23351:1 26712:1 31915:1 31916:1 31917:1 31918:1 31919:1 31920:1 31921:1 31922:1 31923:1 31924:2 31925:1 31926:1 31927:5 31928:1 31929:3 31930:3 31931:1 31932:5 31933:1 31934:2 31935:2 31936:1 31937:1 31938:2 31939:1 31940:1 31941:2 31942:1 31943:1 31944:7 31945:4 31946:6 31947:2 31948:2 31949:1 31950:2 31951:1 #
-0.00021258197441454939062739637467558 1:1 3:1 22:2 27:5 31:2 32:1 35:3 36:1 44:1 56:1 101:1 127:1 130:1 156:1 208:1 241:2 247:1 250:1 252:1 253:2 291:1 300:2 340:1 350:1 386:3 389:1 402:1 438:1 450:1 477:1 487:1 552:1 555:1 569:1 634:1 728:3 937:1 949:1 1014:3 1158:1 1212:1 1606:1 1689:1 1837:1 1885:1 1896:2 2117:1 2206:2 2237:1 2535:1 2563:1 2581:1 2614:1 2636:1 2638:1 2774:3 2931:3 2967:1 3142:1 3321:1 3365:3 4065:1 4068:5 4201:1 4389:1 4538:1 4543:1 4555:2 4908:1 4963:2 5244:1 6375:1 7242:2 7493:1 7889:1 8023:3 8462:1 8848:1 10548:1 10644:6 14046:1 14301:1 15149:1 15150:6 15151:7 15152:2 15153:1 15154:1 15155:1 15156:1 15157:1 15158:1 15159:1 15160:1 15161:1 15162:3 15163:1 15164:3 15165:3 15166:2 15167:1 15168:2 15169:1 15170:1 15171:1 15172:2 15173:2 15174:1 15175:1 15176:1 15177:1 15178:1 #
-0.0003906759592585070956644033302041 1:1 27:1 28:1 30:1 34:2 45:1 53:2 61:1 128:1 130:1 141:1 250:4 281:1 284:1 297:1 346:1 383:1 402:1 404:8 438:1 487:1 545:1 590:1 728:1 737:3 744:1 766:1 790:1 974:1 1081:1 1424:2 1427:1 1490:1 1504:1 1505:3 1506:2 1553:1 1704:1 1795:1 1826:7 2152:1 2160:1 2182:1 2310:1 2319:1 2640:4 2834:2 2934:1 2966:1 3235:1 3477:1 3598:1 4004:2 4043:1 4077:1 4094:1 4323:2 4662:1 4793:1 5032:1 5535:1 5579:1 6001:1 6115:1 6116:1 6681:1 6706:1 6708:1 6882:1 7351:1 7582:1 7885:1 9186:1 10153:1 11642:2 12913:1 13060:1 13397:1 13412:3 16928:1 28896:1 29576:1 29933:1 31769:1 31770:4 31771:3 31772:2 31773:1 31774:1 31775:1 31776:1 31777:2 31778:1 31779:1 31780:1 31781:1 31782:1 31783:1 31784:1 31785:1 31786:1 31787:2 31788:1 #
-0.00018865411040220667732679460382172 1:2 13:1 22:6 27:2 34:5 47:1 59:4 72:3 76:1 99:1 123:1 125:1 130:1 136:1 298:1 302:1 361:3 394:1 402:1 404:1 409:1 458:1 577:1 596:1 738:2 798:1 812:1 813:6 1072:1 1085:1 1181:2 1339:1 1830:1 1849:1 2445:1 2459:1 2521:2 2790:1 2898:1 2900:1 3189:1 3424:1 3748:2 3765:3 3965:1 4949:1 4955:2 4963:1 5183:3 5341:1 5655:4 6293:1 7211:1 7256:1 7905:1 7906:1 7907:2 7908:2 7909:2 7910:1 7911:1 7912:1 7913:1 7914:4 7915:1 7916:1 7917:1 7918:1 7919:1 7920:1 7921:1 7922:1 7923:3 7924:3 7925:3 7926:1 7927:1 7928:1 7929:1 7930:1 7931:1 7932:1 7933:1 7934:1 7935:1 7936:1 7937:1 7938:1 7939:1 7940:1 7941:1 7942:1 7943:1 7944:1 7945:1 7946:1 7947:1 7948:1 7949:1 7950:2 7951:2 7952:1 7953:1 7954:1 #
-0.00060841112530323068156162813480137 13:5 27:5 34:5 59:5 64:6 78:2 138:1 139:1 166:4 250:1 252:1 271:1 284:1 297:1 389:1 391:1 392:1 396:2 475:6 487:1 545:1 557:4 589:1 592:2 593:3 594:2 595:3 602:11 656:1 728:10 744:1 829:1 953:1 995:2 1046:1 1073:1 1225:1 1339:1 1388:1 1417:1 1505:1 1519:1 1553:1 1605:1 1633:1 1678:2 1697:1 1860:1 1873:3 1894:1 1907:1 1918:1 2074:1 2111:1 2234:3 2251:2 2559:7 2576:1 2934:2 3018:7 3060:4 3125:2 3407:1 3985:1 4079:1 4543:1 4744:1 5079:1 6767:1 7211:1 8209:6 8285:2 10598:1 11026:2 12660:5 12675:8 13022:1 13024:1 13159:1 16711:1 18103:1 24519:1 24520:3 24521:1 24522:1 24523:1 24524:3 24525:4 24526:5 24527:1 24528:1 24529:1 24530:1 24531:1 24532:3 24533:1 24534:1 24535:1 24536:1 24537:1 24538:1 24539:2 24540:1 24541:1 24542:1 24543:1 24544:2 24545:8 24546:2 24547:2 24548:2 24549:1 24550:1 #
-0.00041881548216264141790837749468324 6:1 27:2 30:2 59:1 145:2 201:2 217:3 250:1 265:1 271:4 336:1 365:1 391:1 396:2 450:1 455:1 475:2 487:1 544:1 545:1 593:1 594:3 595:2 596:1 602:5 697:1 728:1 743:1 749:1 911:2 950:1 965:1 969:2 1163:1 1405:1 1431:1 1519:2 1568:2 1670:1 1678:1 1683:5 2202:3 2251:2 2255:1 2319:1 2431:1 2559:2 2681:1 2709:1 3122:1 3169:4 3234:1 3294:1 3339:2 3424:1 3464:1 3470:1 3625:1 4095:2 4125:1 4476:3 4485:1 4769:2 5088:1 5540:4 5591:2 5710:1 5711:1 5713:1 8014:1 8250:1 8297:1 8312:1 8408:5 9384:1 10560:2 10993:1 11067:1 11538:1 14133:1 15734:1 16741:1 18599:1 19559:1 21322:1 21648:1 21649:1 21650:1 21651:1 21652:1 21653:2 21654:2 21655:2 21656:1 21657:1 21658:1 21659:1 21660:1 21661:2 21662:2 21663:1 21664:2 21665:2 21666:1 21667:1 21668:1 21669:1 21670:1 21671:1 21672:1 21673:1 21674:1 21675:1 #
-0.00036930020342440549908913371979224 1:3 6:1 13:1 22:2 27:2 64:1 93:2 118:1 125:2 127:2 166:2 211:2 279:4 280:2 288:1 311:1 397:1 466:1 471:1 475:1 508:1 728:1 921:1 965:1 968:1 1061:2 1503:1 1649:1 1831:1 2023:1 2156:1 3018:2 3166:1 3205:1 3446:1 3782:2 4304:3 4352:1 4413:5 4654:1 5801:2 6536:1 8165:1 9558:1 9877:1 9878:2 9879:2 9880:2 9881:2 9882:3 9883:3 9884:3 9885:1 9886:6 9887:1 9888:1 9889:1 9890:1 9891:1 9892:1 9893:4 9894:1 9895:1 9896:1 9897:1 9898:1 9899:1 9900:1 9901:1 9902:1 9903:1 9904:1 9905:1 9906:1 9907:1 9908:1 9909:1 9910:1 9911:1 9912:1 9913:1 9914:1 9915:1 9916:1 9917:1 9918:1 9919:1 9920:1 9921:1 9922:1 #
-0.00040099822858752652348854339514617 1:1 27:1 78:4 136:1 201:4 241:1 246:1 300:1 1880:1 2316:1 2828:1 5334:2 8684:1 9990:4 10467:4 12260:1 15417:4 21748:1 31386:4 31387:1 31388:4 31389:4 31390:4 31391:4 31392:1 31393:1 31394:1 31395:1 31396:1 31397:1 31398:1 31399:1 #
-0.00018188125510855342485336261226792 1:1 22:3 27:2 29:2 123:1 125:1 136:1 146:1 235:1 237:1 259:1 383:2 391:1 456:1 776:1 1213:1 1523:1 1872:1 2621:3 3007:1 3462:3 4561:6 4666:1 4676:1 5292:1 5547:1 6421:1 14604:8 26793:2 28436:1 28437:2 28438:1 28439:6 28440:1 28441:5 28442:6 28443:8 28444:8 28445:2 28446:1 28447:1 28448:1 28449:1 28450:1 28451:1 28452:1 28453:3 28454:1 28455:1 28456:1 28457:1 28458:2 28459:1 28460:1 28461:1 28462:1 28463:1 28464:1 28465:1 28466:1 #
-0.00066203211594711508861110793588978 3:4 27:2 31:1 45:1 78:1 106:1 118:1 123:1 152:3 412:1 555:1 567:2 728:3 737:1 937:1 1157:1 1159:1 1452:1 1527:1 1620:1 1621:1 1689:1 1823:1 2162:1 2427:1 2443:1 2614:2 3248:1 3280:1 5728:3 5729:1 5730:1 5731:1 5732:1 5733:1 5734:2 5735:4 5736:2 5737:1 5738:1 5739:1 5740:1 5741:1 5742:1 5743:1 5744:1 5745:1 5746:1 #
-0.00099028905223684147128559995820751 241:1 247:1 390:1 544:4 1373:1 1679:1 2356:2 2445:1 4232:1 4339:1 9990:1 15940:2 18608:1 27209:1 27848:1 27849:2 27850:1 27851:1 27852:1 27853:1 27854:1 27855:1 #
-0.0004471881607331085195511377605726 1:1 6:3 22:25 27:3 42:1 78:1 97:2 98:1 123:1 136:2 241:1 259:3 275:3 285:1 397:1 454:1 466:1 502:16 514:1 524:1 536:1 566:3 602:1 728:18 775:7 805:1 842:2 974:1 1059:1 1061:4 1156:1 1157:2 1197:2 1418:1 1448:1 1492:1 1520:2 1590:1 1593:2 1620:3 1621:3 1658:1 1743:14 1826:1 1849:1 1856:1 1860:1 2071:1 2170:1 2234:1 2252:1 2254:1 2255:1 2268:1 2454:2 3189:1 3262:1 3556:1 4030:4 5240:1 5617:1 6056:1 6110:1 7217:1 7253:12 7254:8 7255:7 7256:8 7257:2 7258:8 7259:3 7260:8 7261:8 7262:1 7263:2 7264:1 7265:1 7266:1 7267:2 7268:1 7269:1 7270:1 7271:1 7272:1 7273:3 7274:1 7275:3 7276:1 7277:1 7278:1 7279:1 7280:1 7281:1 7282:1 7283:1 7284:1 7285:1 7286:1 7287:1 7288:1 7289:1 7290:1 7291:1 7292:1 7293:2 7294:1 7295:1 7296:1 7297:1 7298:1 7299:1 7300:4 7301:3 7302:1 7303:3 7304:1 7305:3 7306:1 7307:1 7308:1 7309:1 7310:1 7311:1 7312:1 7313:1 7314:1 7315:1 7316:1 7317:1 7318:1 7319:1 7320:1 #
-0.00066882332844806142210097865685725 1:2 3:5 6:1 22:7 27:1 29:1 34:1 41:1 43:4 44:1 45:1 48:1 59:1 106:2 151:1 152:1 201:1 211:1 214:1 248:4 276:1 279:2 280:1 302:1 362:1 389:1 397:8 402:1 404:2 466:3 510:1 553:1 557:2 589:1 592:1 593:7 602:2 608:1 728:3 738:5 824:1 907:1 908:3 925:2 939:1 978:1 1013:1 1081:1 1086:1 1129:1 1164:1 1200:1 1251:2 1339:1 1535:1 1548:1 1568:1 1684:1 1736:2 1800:1 1838:1 1872:1 1885:1 2198:1 2203:1 2237:1 2300:1 2389:1 2443:2 2445:3 2640:3 2651:1 2890:2 3049:2 3169:1 3424:1 3539:2 3636:1 3731:1 3734:2 3938:1 4121:1 4198:1 4236:1 5440:1 5591:5 5853:1 5938:1 6037:2 6187:1 6493:1 6508:1 6770:1 7088:1 7448:1 8534:1 10449:1 11026:2 11481:1 11596:1 12258:1 12635:1 13112:1 15442:1 15689:1 25043:1 25368:3 25369:1 25370:1 25371:1 25372:1 25373:2 25374:2 25375:1 25376:1 25377:1 25378:1 25379:1 25380:4 25381:2 25382:2 25383:1 25384:1 25385:1 25386:1 25387:1 25388:1 25389:1 25390:1 25391:1 25392:1 25393:3 25394:1 25395:1 25396:1 25397:1 25398:1 25399:1 25400:1 25401:1 25402:1 25403:2 25404:1 25405:2 25406:1 25407:2 25408:1 25409:2 25410:1 25411:1 25412:1 25413:1 25414:1 25415:1 25416:1 25417:1 25418:1 25419:1 #
-0.00011247222527787341253904807025776 1:1 2:3 3:2 4:2 6:1 27:1 34:1 48:9 59:1 73:2 74:1 78:4 99:5 136:1 152:2 208:1 253:2 270:1 282:1 284:1 297:1 302:2 389:2 402:1 450:2 455:1 475:8 493:1 545:1 557:1 581:1 583:6 594:5 728:1 904:1 922:2 978:2 1000:1 1150:1 1166:4 1188:2 1193:1 1383:1 1515:1 1548:1 1630:1 1795:1 1821:2 1896:2 1974:1 2170:1 2228:2 2234:1 2460:1 2612:1 2628:1 2648:1 2651:1 2674:1 2697:1 2725:1 2767:1 2777:4 2778:1 2811:1 2814:1 2939:1 2965:1 2980:1 3057:1 3060:10 3198:1 3210:1 3234:2 3235:2 3487:1 3879:3 4003:1 4116:4 4134:1 4170:1 4222:3 4455:1 5213:1 5288:1 5440:1 5493:1 5616:1 5725:1 6187:1 6200:1 6231:1 6234:4 6254:1 6673:1 6689:1 7497:1 7571:4 7878:1 7976:1 8375:1 8787:1 8884:1 9121:1 9954:3 10648:1 11414:1 13005:2 13723:2 17354:1 17598:1 17605:2 18774:2 19230:2 19610:1 19737:1 21375:2 21376:7 21377:7 21378:1 21379:2 21380:11 21381:1 21382:1 21383:4 21384:1 21385:1 21386:1 21387:1 21388:3 21389:1 21390:1 21391:1 21392:2 21393:1 21394:1 21395:3 21396:1 21397:3 21398:3 21399:9 21400:5 21401:4 21402:1 21403:2 21404:2 21405:4 21406:1 21407:4 21408:1 21409:1 21410:3 21411:1 21412:1 21413:1 21414:1 21415:1 21416:1 21417:1 21418:4 21419:14 21420:6 21421:4 21422:2 21423:2 21424:2 21425:1 21426:6 21427:2 21428:2 21429:2 21430:2 21431:4 21432:2 21433:2 21434:2 21435:2 21436:1 21437:2 21438:2 21439:4 21440:2 21441:8 21442:4 21443:2 21444:1 21445:18 21446:1 21447:2 21448:2 21449:2 21450:1 21451:1 21452:2 21453:1 21454:2 21455:2 21456:1 21457:2 21458:5 21459:4 21460:4 21461:1 21462:1 21463:2 21464:2 21465:1 21466:5 21467:2 21468:1 21469:1 #
-0.00023445634769029785084148986840091 2:1 4:1 27:2 29:1 32:4 45:3 48:2 52:1 53:2 59:3 61:1 72:1 73:1 78:5 134:1 155:2 156:1 166:5 249:2 250:1 251:1 291:1 299:1 336:1 338:1 352:4 387:4 389:1 397:2 404:6 429:1 437:1 447:3 458:5 471:2 487:1 536:1 553:1 557:11 563:1 585:2 596:1 602:1 728:5 743:1 937:1 953:1 957:1 958:1 1006:1 1013:1 1032:1 1218:1 1264:2 1376:2 1383:1 1388:2 1477:1 1637:9 1713:1 1831:1 1860:1 1885:1 1912:1 1920:1 2038:2 2047:1 2127:1 2170:1 2237:1 2310:1 2335:1 2362:1 2367:2 2371:1 2628:1 2632:2 2652:1 2764:4 2811:1 2828:1 2923:2 3279:1 3491:1 3534:1 4003:1 4068:1 4253:1 4276:1 4301:2 4497:1 4533:1 4534:1 4535:2 4536:2 4538:4 4539:10 4540:4 4544:1 4800:1 4889:5 5037:1 5223:1 5329:1 5479:1 5873:1 6089:1 6185:1 6390:4 6447:1 6498:1 6536:2 6546:1 7211:1 7296:1 7515:1 8099:1 8173:1 8517:2 10159:1 10532:1 15061:1 15688:1 16102:1 18575:1 18881:1 18907:1 19186:1 20847:1 21827:2 21828:2 21829:2 21830:1 21831:1 21832:12 21833:1 21834:1 21835:3 21836:1 21837:1 21838:2 21839:1 21840:1 21841:1 21842:1 21843:1 21844:1 21845:1 21846:2 21847:2 21848:1 21849:1 21850:1 21851:1 21852:4 21853:3 21854:2 21855:1 21856:2 21857:1 21858:8 21859:1 21860:1 21861:1 21862:1 21863:1 21864:1 21865:1 21866:1 21867:2 21868:4 21869:2 21870:1 21871:1 21872:2 21873:3 21874:1 21875:1 21876:1 21877:1 21878:2 21879:1 21880:1 #
-0.0022489596681843854533711102305915 1:1 2:1 7:2 27:1 74:2 77:2 123:1 136:1 235:2 241:1 300:2 766:1 1441:1 1473:1 1505:1 1506:1 1510:1 1511:1 1512:1 1704:1 2331:1 2952:1 3192:1 18335:2 18336:1 18337:3 18338:1 18339:1 18340:1 18341:1 18342:1 18343:1 18344:1 18345:1 18346:1 18347:1 #
-0.00050512175252145864387531837280676 1:2 3:1 27:2 28:1 77:1 123:1 136:2 270:1 412:2 421:1 1210:3 2282:1 2466:1 2564:1 2606:2 3463:1 5375:1 6738:1 8165:1 8758:1 10104:1 13691:1 14898:3 14899:1 14900:1 14901:1 14902:2 14903:1 14904:1 14905:1 14906:1 14907:1 14908:1 14909:1 14910:1 14911:1 14912:1 14913:2 14914:1 14915:1 14916:1 14917:1 14918:1 14919:1 14920:1 #
-0.0010821113840592476960933421281652 1:2 22:1 27:1 29:1 30:1 31:1 32:1 59:1 72:1 74:3 97:3 118:1 130:1 152:1 156:2 246:1 291:1 394:1 407:1 442:1 597:1 749:1 897:1 977:1 1163:1 1166:1 1327:1 1431:1 1536:1 1555:1 1860:1 2005:2 2170:1 2171:1 2355:1 3488:3 3490:2 5344:1 5535:1 5647:1 10092:1 10093:1 10728:1 10729:1 10730:1 10731:1 10732:1 10733:1 10734:1 10735:1 10736:2 10737:1 10738:1 10739:1 10740:1 10741:1 10742:1 #
-0.00060568753715832621825621018274433 2:1 7:1 27:1 28:1 29:1 30:1 31:1 34:1 77:1 136:1 138:1 139:1 151:1 152:1 250:3 279:1 404:2 475:1 634:1 638:1 656:1 721:1 926:1 1006:1 1441:1 1630:2 1668:1 1680:1 1704:1 1722:1 1795:1 2041:3 2184:1 2206:1 2509:1 2532:1 3060:1 4414:1 5333:1 5958:1 9752:1 10145:1 10532:2 12059:1 12332:1 12334:1 12469:1 12470:2 12471:1 19282:1 19283:1 19284:1 19285:1 19286:1 19287:2 19288:4 19289:1 19290:1 19291:2 19292:1 19293:1 19294:1 19295:1 19296:1 19297:1 19298:1 19299:1 19300:1 19301:2 19302:1 19303:1 19304:1 #
-0.0020142338809569738586335851948661 3:2 29:1 78:1 340:1 487:1 721:1 978:2 1238:2 2700:1 2725:1 3725:1 6293:1 6544:1 6545:1 6546:1 6547:1 6548:1 #
-0.00092666670088282490289066650746008 124:1 247:1 257:2 340:3 463:1 466:1 488:1 542:3 776:1 936:1 937:1 1878:1 2146:1 2338:1 2428:1 2432:1 2648:2 2723:1 3470:1 4217:2 5425:1 5531:2 5742:1 6056:1 8610:3 8852:1 10784:1 10785:1 10786:1 #
-0.00093294302236547610451822265531518 22:2 27:2 130:1 139:1 211:1 279:1 300:1 339:5 387:1 450:1 487:1 1424:1 1630:1 1704:2 2274:1 2318:1 2604:1 3493:1 4356:1 4603:1 4738:2 8970:2 8971:1 8972:1 8973:1 8974:1 8975:1 8976:1 8977:1 8978:1 8979:1 8980:1 8981:1 8982:1 8983:1 8984:1 8985:1 8986:1 8987:1 8988:1 8989:1 8990:1 8991:1 8992:1 #
-0.0015123052491762684068632438538771 367:1 394:1 404:3 577:1 906:1 911:1 2251:1 2363:1 3147:1 3454:1 3470:1 6190:1 6338:2 6493:1 22590:1 22591:1 22592:1 22593:1 22594:1 22595:1 22596:1 22597:1 22598:1 22599:1 #
-0.00067754044475191283706388967189582 1:1 3:6 39:1 48:2 101:2 152:1 207:1 241:1 247:2 299:1 908:1 1014:1 1100:1 1339:2 1374:1 1425:1 1819:1 1915:2 2449:1 2717:6 2798:1 3210:1 3470:1 3561:1 5132:2 6280:1 7088:1 10592:1 10593:1 10594:1 10595:1 10596:1 10597:1 10598:1 10599:1 #
-0.00065517173002733151976340053579406 27:1 28:1 34:1 42:1 44:1 136:1 577:1 1153:1 1480:1 2608:1 2651:1 3147:3 3713:1 5958:1 8472:1 18255:1 #
-0.00059257081373131144548527249327208 3:4 22:4 27:1 28:1 49:1 72:1 78:6 136:1 207:1 246:3 259:2 279:1 285:2 352:1 418:2 487:2 536:9 552:1 733:1 790:1 798:4 812:4 907:1 921:8 928:1 1061:1 1527:1 1845:4 1849:1 2445:1 2463:1 2577:1 2580:5 2581:5 2640:2 2720:1 2745:1 3263:1 3268:1 3748:1 4198:1 4268:1 4304:1 4436:1 4713:1 5085:3 5443:1 5865:1 8328:1 8663:1 15690:1 15691:7 15692:1 15693:1 15694:1 15695:1 15696:1 15697:1 15698:1 15699:1 15700:1 #
-8.9642492404996707228495567143511e-05 1:1 6:2 22:4 27:4 34:2 43:1 48:2 78:5 127:1 136:2 138:1 152:1 166:2 201:1 253:1 259:1 285:1 333:1 336:1 396:2 466:12 539:1 557:6 577:1 589:2 602:16 640:1 728:4 1013:1 1014:1 1018:1 1147:3 1200:1 1214:1 1246:1 1374:1 1474:1 1489:1 1526:1 1543:1 1548:1 1709:1 1873:1 1974:1 2116:1 2237:1 2324:1 2379:1 2640:1 3060:2 3189:1 3337:1 3477:1 3553:1 4616:1 4704:1 4979:3 5005:2 5375:3 6591:1 7092:1 9665:1 10558:3 16355:1 16361:16 22088:3 29784:5 29785:1 29786:3 29787:2 29788:1 29789:1 29790:1 29791:1 29792:1 29793:1 29794:1 29795:2 29796:3 29797:3 29798:2 29799:1 29800:1 29801:1 29802:1 29803:1 29804:1 29805:1 29806:1 29807:2 29808:1 29809:1 29810:1 29811:1 29812:1 29813:1 #
