SVM-light Version V6.02
0 # kernel type
3 # kernel parameter -d 
1 # kernel parameter -g 
1 # kernel parameter -s 
1 # kernel parameter -r 
empty# kernel parameter -u 
29933 # highest feature index 
1560 # number of training documents 
336 # number of support vectors plus 1 
0.99927249 # threshold b, each following line is a SV (starting with alpha*y)
-0.00021289050383343247020359600973904 28:1 104:2 169:1 254:1 369:1 383:1 423:1 485:1 512:1 551:1 939:1 1153:1 1215:1 1326:1 1337:2 1372:2 1400:1 1404:2 1708:1 1972:2 2030:1 2158:1 2386:1 2667:1 2720:1 2762:2 2763:1 2764:2 7434:1 8323:1 16254:1 16261:2 16262:3 16292:1 18633:2 24428:1 24487:2 27153:2 27154:2 27155:1 27156:1 27157:3 27158:1 27159:1 27160:1 27161:1 27162:1 27163:1 27164:1 27165:1 27166:1 27167:1 #
-3.0588397478626909019739504858038e-05 3:1 22:1 39:1 46:1 72:1 80:2 142:1 157:1 165:1 171:1 205:1 300:2 369:2 385:1 503:2 515:1 565:1 594:2 595:3 671:2 697:1 734:2 785:4 809:1 870:1 937:1 965:4 1069:1 1180:4 1246:1 1256:1 1358:1 1386:1 1387:4 1416:1 1426:6 1428:1 1983:1 1998:1 2081:1 2135:1 2306:2 2307:1 2580:1 2810:1 2944:1 3245:1 3531:1 3647:1 3822:1 4584:1 4656:1 4932:1 6130:1 6796:1 8972:1 9341:1 9343:1 9852:1 10055:3 12998:1 20087:2 20675:2 22887:1 24065:1 24066:2 24067:1 24068:2 24069:1 24070:1 24071:1 24072:1 24073:1 24074:1 24075:1 24076:1 24077:9 24078:1 24079:4 24080:3 24081:1 24082:1 24083:1 24084:2 24085:1 24086:2 24087:2 24088:2 24089:1 24090:2 24091:1 24092:1 24093:1 24094:1 24095:1 24096:1 24097:1 24098:1 24099:1 24100:1 24101:3 24102:1 24103:1 24104:1 24105:1 24106:1 24107:2 24108:1 24109:1 24110:1 24111:1 24112:1 24113:1 24114:1 24115:1 24116:1 24117:1 24118:1 24119:1 24120:1 24121:1 24122:1 24123:2 24124:1 #
-0.0023195997264351983328800610451026 103:1 132:1 254:1 379:1 391:1 697:1 740:1 812:1 1779:1 2068:2 2138:1 5816:1 5817:1 #
-0.0006509994089217007329911668378486 3:1 22:1 30:1 43:3 49:1 53:1 62:2 66:2 71:3 90:1 93:1 116:1 123:2 155:4 157:2 164:3 171:2 179:2 184:1 189:2 204:2 205:1 208:1 209:1 287:1 289:1 369:1 387:1 396:1 426:2 431:3 514:3 551:1 565:1 818:1 960:1 965:1 984:2 1177:1 1212:1 1222:1 1242:1 1251:1 1256:1 1304:1 1396:4 1427:1 1625:1 1803:1 1804:1 1830:3 1908:1 2014:1 2027:1 2138:1 2187:1 2194:1 2309:2 2312:1 2321:1 2361:1 2504:1 2638:1 2795:1 2988:1 3004:1 3078:1 3135:1 3482:1 4071:1 4539:5 5639:1 5684:1 5987:1 6002:1 6527:1 6937:1 7759:1 8132:1 11452:1 12089:1 12652:1 14044:1 17994:1 18371:1 19272:1 20579:1 21929:1 24336:1 24337:1 24338:1 24339:1 24340:1 24341:1 24342:1 24343:1 24344:1 24345:1 24346:1 24347:1 24348:1 24349:1 24350:1 24351:1 24352:1 24353:1 24354:2 24355:1 24356:1 24357:1 24358:1 24359:3 24360:1 24361:1 24362:1 24363:1 24364:1 24365:1 24366:1 24367:1 24368:1 24369:1 24370:1 24371:1 24372:1 24373:1 #
-0.0019915366418216391523887676129334 22:1 28:1 45:1 60:1 120:1 165:1 170:1 258:1 369:1 509:1 607:1 615:1 730:1 983:1 2315:1 2569:1 3093:1 7059:1 8535:1 8536:1 8537:1 8538:1 8539:2 8540:1 8541:1 8542:1 8543:1 8544:1 #
0.0049389034675601265964028918631357 1:1 2:2 3:2 4:2 5:1 6:5 7:1 8:4 9:1 10:1 11:1 12:1 13:2 14:1 15:1 16:1 17:2 18:1 19:1 20:1 21:1 #
0.0049389034675601265964028918631357 5:1 22:1 23:2 24:1 25:1 26:1 27:4 28:6 29:1 30:4 31:1 32:1 33:1 34:1 35:1 36:1 37:2 38:2 39:2 40:1 41:2 42:1 43:1 44:1 45:2 46:2 47:1 48:1 49:1 50:1 51:1 52:1 53:1 54:1 55:1 56:1 57:1 58:1 59:1 #
0.0049389034675601265964028918631357 5:1 6:3 22:2 30:1 32:1 41:1 60:1 61:1 62:1 63:7 64:3 65:1 66:2 67:2 68:1 69:2 70:1 71:2 72:1 73:1 74:1 75:1 76:1 77:2 78:1 79:2 80:1 81:1 82:1 83:1 84:1 85:1 86:1 87:1 88:1 89:1 90:1 91:1 92:1 #
0.0049389034675601265964028918631357 6:2 93:1 94:1 95:1 96:1 97:1 98:1 99:1 #
0.0049389034675601265964028918631357 93:1 100:1 101:1 102:1 103:1 104:1 105:1 106:1 107:1 108:1 #
-8.1360135208653769161267488296829e-05 3:61 4:2 22:2 49:63 63:4 97:2 107:1 132:1 135:3 144:2 180:60 273:1 369:2 488:1 512:1 551:1 671:1 679:1 737:1 749:5 816:9 823:1 829:1 848:62 1050:1 1069:1 1396:1 1611:9 1807:1 2011:1 2024:2 2027:1 2068:1 2246:1 2257:3 3122:1 3152:2 4411:1 4412:1 4623:3 7614:2 8304:60 8835:2 11020:60 12918:16 12919:2 12920:1 12921:1 12922:1 12923:1 12924:1 12925:1 12926:1 12927:1 12928:1 12929:1 12930:3 12931:2 12932:4 12933:2 12934:2 12935:2 12936:2 12937:1 12938:1 12939:1 #
-0.00036501179527420363375711520603772 22:1 25:5 28:27 39:1 71:5 79:1 135:27 163:1 170:1 171:1 200:1 264:1 282:4 324:2 369:2 376:5 379:1 423:1 474:2 488:2 512:1 576:2 588:1 600:27 631:2 651:1 680:1 730:1 749:4 789:1 807:1 840:1 848:2 909:4 978:1 1069:1 1243:1 1270:1 1271:1 1288:1 1356:1 1386:1 1530:1 1661:1 1663:2 1664:1 1715:27 1741:4 1984:1 2013:1 2075:1 2088:1 2095:1 2100:2 2243:3 2355:2 2416:4 2432:2 2546:1 2783:1 2913:1 2954:1 3126:2 3127:5 3128:1 3129:1 3130:1 3131:1 3132:1 3133:1 3134:1 3135:1 3136:1 3137:1 3138:2 3139:1 3140:2 3141:6 3142:2 3143:2 3144:1 3145:1 3146:3 3147:1 3148:1 3149:1 3150:1 3151:1 3152:1 3153:1 3154:1 3155:1 3156:1 3157:1 3158:1 3159:1 3160:1 3161:1 3162:3 3163:1 3164:1 3165:1 3166:1 3167:1 3168:1 3169:1 3170:1 3171:1 3172:1 3173:1 3174:6 3175:4 3176:4 3177:11 3178:12 3179:12 3180:6 3181:2 3182:1 3183:1 3184:1 3185:1 3186:1 3187:1 3188:1 3189:1 3190:1 3191:1 3192:1 3193:1 3194:1 3195:1 3196:1 3197:1 3198:1 3199:2 3200:1 3201:1 3202:3 3203:1 3204:1 3205:1 3206:1 3207:1 3208:1 3209:1 3210:1 3211:1 3212:1 3213:1 3214:1 3215:1 3216:1 3217:1 3218:1 3219:1 3220:1 3221:1 3222:2 3223:1 #
-0.0049389034675601265964028918631357 3:1 10:2 22:1 71:1 123:2 171:1 205:1 292:1 322:1 379:1 536:1 574:1 740:1 1096:1 1177:1 1181:1 1621:1 1654:1 1983:1 2883:1 3897:1 3898:1 3899:1 3900:1 3901:1 3902:1 3903:1 3904:1 3905:1 3906:1 3907:1 3908:1 3909:1 #
-0.00092014466722752617788838591650347 22:1 43:1 45:1 46:2 66:1 72:1 148:3 214:1 369:1 615:2 646:2 649:1 785:1 829:1 910:1 1197:1 1212:1 1337:1 1425:1 2092:1 2303:1 2494:1 2504:3 3482:1 3637:1 3658:1 4323:1 4368:1 5622:1 6323:1 7214:1 7729:1 7732:1 9838:1 17752:1 20757:1 26336:7 26337:1 26338:1 26339:2 26340:1 26341:1 26342:1 26343:1 26344:1 26345:1 #
-0.00034151809265033149058676809062263 22:1 28:13 45:4 72:1 79:1 91:1 132:2 165:2 171:1 258:1 369:4 376:1 379:2 393:2 399:2 439:1 488:2 542:1 643:1 733:1 749:3 807:1 839:1 840:3 981:1 986:1 1069:1 1342:1 1356:2 1358:1 1387:1 1499:1 1534:1 1536:1 1715:5 1808:1 1866:11 1983:1 2011:2 2030:1 2061:1 2186:1 2268:1 2355:2 2458:1 2504:1 2876:1 3026:1 3093:5 3149:1 3256:2 3402:1 3660:2 3674:1 3856:1 4001:2 4411:3 4412:1 4653:13 4831:1 5331:1 8160:1 8568:3 8657:2 9315:1 9617:11 9966:1 10016:2 10064:1 10313:1 11951:2 12828:2 15805:3 15806:1 15807:1 15808:2 15809:2 15810:2 15811:1 15812:1 15813:1 15814:2 15815:2 15816:1 15817:2 15818:2 15819:1 15820:1 15821:2 15822:2 15823:1 15824:1 15825:1 15826:1 15827:1 15828:1 15829:1 15830:1 15831:1 15832:1 15833:1 15834:1 15835:4 15836:4 15837:2 15838:1 15839:2 15840:2 15841:2 15842:2 15843:2 15844:1 15845:1 15846:3 15847:1 15848:1 15849:1 15850:4 15851:3 15852:2 15853:3 15854:4 15855:1 15856:1 15857:1 15858:1 15859:1 15860:1 15861:1 15862:2 15863:1 15864:1 15865:1 15866:1 15867:1 15868:1 15869:1 15870:1 15871:1 15872:1 15873:2 15874:1 15875:1 15876:1 15877:1 15878:1 15879:1 15880:1 15881:2 15882:2 15883:2 15884:1 15885:1 15886:1 15887:1 15888:1 15889:1 15890:2 15891:2 15892:2 15893:1 15894:1 15895:1 15896:1 15897:1 15898:3 15899:1 15900:1 15901:1 15902:2 15903:1 15904:1 15905:2 15906:2 15907:1 15908:1 15909:1 15910:1 #
0.0049389034675601265964028918631357 22:2 51:1 72:1 109:1 136:2 181:1 189:2 205:1 233:1 234:2 236:2 237:1 238:1 254:1 256:1 257:1 258:1 271:1 307:1 322:1 443:1 501:1 523:1 562:2 683:2 740:1 876:4 877:2 878:1 879:2 880:2 881:2 882:1 883:1 884:1 885:1 886:1 887:1 888:1 889:1 890:1 891:2 892:2 893:1 894:1 895:1 896:2 897:1 898:1 899:1 900:1 901:1 #
0.0049389034675601265964028918631357 22:1 32:1 369:2 376:2 459:1 785:1 815:1 942:1 943:1 944:3 945:1 946:1 947:2 948:1 949:1 950:1 951:1 952:8 953:2 954:2 955:2 956:1 957:2 958:3 959:4 960:3 961:3 962:1 963:1 964:1 965:2 966:2 967:1 968:1 969:1 970:1 971:1 972:1 973:2 974:1 975:1 976:1 977:1 978:1 979:2 980:1 #
0.0049389034675601265964028918631357 32:1 41:1 104:3 112:2 114:1 123:1 132:3 171:1 244:1 325:1 396:1 476:1 486:1 551:1 568:1 580:1 632:1 633:1 634:1 635:1 636:1 637:1 638:1 639:2 640:1 641:1 642:1 643:1 644:1 645:1 646:2 647:1 648:1 649:1 650:1 651:1 652:1 653:1 654:1 #
0.0049389034675601265964028918631357 22:1 43:3 50:1 116:1 146:1 287:1 429:1 558:1 674:2 675:1 676:2 677:2 678:2 679:1 680:1 681:1 682:1 683:1 684:1 685:1 #
0.0049389034675601265964028918631357 22:2 72:1 79:3 116:1 148:5 257:1 258:1 317:2 318:1 396:2 530:1 646:2 682:2 1096:1 1198:1 1199:1 1200:1 1201:1 1202:1 1203:4 1204:1 1205:1 1206:1 1207:1 1208:2 1209:1 1210:2 1211:1 1212:1 1213:1 1214:1 1215:2 1216:1 1217:1 1218:1 1219:1 1220:1 1221:1 1222:2 1223:1 1224:1 1225:1 1226:2 1227:1 1228:1 1229:1 1230:1 1231:1 1232:1 1233:1 #
-0.0049389034675601265964028918631357 6:5 60:1 88:1 109:1 114:2 123:2 134:1 155:1 206:1 228:1 317:1 322:2 427:1 1536:1 1659:3 1808:1 2208:1 2209:1 2210:1 2211:1 2212:1 2213:1 2214:1 2215:1 2216:1 2217:1 2218:1 2219:1 2220:1 2221:1 #
-0.0018344452763549526797676181288921 6:4 22:2 30:4 38:1 40:1 60:6 84:3 88:5 117:1 123:6 151:1 155:1 157:1 167:1 171:1 223:1 228:3 244:1 273:1 337:2 369:3 376:1 387:1 429:1 488:3 495:1 504:1 612:1 613:1 671:1 686:1 709:3 719:6 723:1 730:4 746:2 792:1 854:1 864:1 906:1 940:4 982:3 984:1 988:1 990:7 991:10 1183:1 1224:1 1269:1 1288:1 1304:1 1376:1 1391:3 1392:1 1396:1 1460:2 1520:1 1584:1 1595:1 1614:3 1662:2 1793:1 1839:1 2217:1 2396:1 2944:1 2981:1 3037:1 3373:1 3606:1 3637:1 3639:5 4191:1 4532:1 5156:1 5287:1 7077:1 7094:1 7754:1 8248:1 13716:1 15428:3 15429:1 15430:1 15431:1 15432:1 15433:1 15434:1 15435:1 15436:1 15437:1 15438:1 15439:1 15440:2 15441:3 15442:1 15443:2 15444:3 15445:3 15446:1 15447:1 15448:4 15449:2 15450:8 15451:4 15452:4 15453:4 15454:4 15455:4 15456:2 15457:1 15458:6 15459:2 15460:2 15461:1 15462:1 15463:1 15464:1 #
-0.0026169611653775316610637258207817 3:5 6:3 22:1 63:3 140:4 148:2 242:2 318:1 337:1 369:2 396:1 558:1 565:1 604:2 732:1 882:2 892:2 966:1 984:1 1005:1 1047:1 1100:1 1132:1 1135:1 1224:1 1393:1 1585:1 1656:1 1804:1 1884:1 1896:1 1933:1 2602:1 2760:1 2773:1 2838:2 3367:3 3482:4 4698:1 4758:1 4872:1 4874:1 4879:1 5084:1 7211:1 7256:3 8123:1 8481:1 8805:1 9806:1 10377:1 10381:2 11061:1 12928:1 13662:1 15758:2 16903:1 18548:1 18549:1 18550:1 18551:1 18552:1 18553:1 18554:1 18555:1 18556:1 18557:1 18558:1 18559:1 18560:1 18561:1 18562:1 18563:1 18564:1 18565:1 18566:1 18567:2 18568:5 18569:1 18570:2 18571:2 18572:1 18573:1 18574:1 18575:1 18576:1 18577:1 18578:1 18579:1 18580:1 18581:1 18582:1 18583:1 18584:1 18585:1 18586:1 18587:1 18588:1 18589:1 18590:1 #
-0.00043379150677248860508775085698119 155:1 157:1 165:1 223:1 369:2 488:1 551:1 558:1 715:3 730:1 993:1 994:1 995:4 1005:1 1138:1 1350:1 1356:1 1451:1 1454:1 1475:1 1531:1 1621:1 2684:2 3402:1 3724:1 4191:1 17915:1 17994:1 20528:1 21473:1 21474:1 21475:1 21476:1 21477:1 21478:1 21479:1 21480:1 21481:3 21482:1 21483:1 21484:1 21485:1 21486:1 21487:1 21488:1 21489:1 #
-0.0049389034675601265964028918631357 6:2 38:1 63:1 72:1 76:1 205:2 399:1 404:1 441:1 502:1 816:1 821:1 1408:1 1447:1 1927:1 2479:1 6451:1 6749:1 6925:1 9610:1 #
0.0023073554149742520925914224250164 22:1 28:6 32:1 38:1 41:1 50:9 65:1 123:2 160:2 168:1 171:4 187:1 214:1 223:1 271:2 287:4 307:2 369:3 376:1 391:1 423:1 429:1 443:1 459:1 507:1 520:1 537:1 539:1 580:1 631:1 680:1 749:4 785:3 829:1 839:4 840:2 888:1 950:1 986:1 1038:1 1045:1 1153:1 1270:1 1328:1 1340:1 1356:1 1396:1 1406:1 1408:1 1431:1 1432:1 1433:1 1434:1 1435:5 1436:1 1437:3 1438:2 1439:1 1440:1 1441:1 1442:1 1443:1 1444:1 1445:1 1446:1 1447:1 1448:1 1449:1 1450:1 1451:1 1452:1 1453:2 1454:1 1455:1 1456:1 1457:1 1458:1 1459:2 1460:1 1461:12 1462:1 1463:2 1464:4 1465:1 1466:2 1467:1 1468:1 1469:1 1470:3 1471:1 1472:1 1473:1 1474:1 1475:2 1476:1 1477:1 1478:2 1479:4 1480:1 1481:1 1482:2 1483:1 1484:2 1485:1 1486:1 1487:1 1488:1 1489:1 1490:1 1491:1 1492:1 1493:1 1494:1 1495:1 1496:1 1497:1 1498:1 1499:1 1500:1 1501:1 1502:4 1503:4 1504:4 1505:4 1506:4 1507:4 1508:4 1509:1 1510:3 1511:1 1512:2 1513:1 1514:1 1515:1 1516:1 1517:1 1518:1 1519:1 1520:1 1521:1 1522:1 1523:1 1524:1 1525:1 #
0.0035164764799863147334835211665904 3:2 109:1 155:1 168:1 171:1 322:1 353:2 369:2 373:2 376:3 396:1 547:1 567:5 630:1 631:1 680:1 723:1 729:1 749:9 789:1 813:1 901:1 926:1 1118:4 1163:1 1172:1 1232:2 1337:1 1405:8 1533:1 1534:1 1535:1 1536:1 1537:1 1538:1 1539:1 1540:1 1541:2 1542:2 1543:2 1544:2 1545:4 1546:4 1547:4 1548:2 1549:2 1550:4 1551:6 1552:2 1553:1 1554:1 1555:13 1556:1 1557:3 1558:2 1559:2 1560:2 1561:2 1562:1 1563:1 1564:1 1565:3 1566:2 1567:4 1568:2 1569:1 1570:1 1571:2 1572:2 1573:1 1574:2 1575:3 1576:2 1577:5 1578:7 1579:3 1580:1 1581:4 1582:5 1583:3 1584:1 1585:2 1586:1 1587:1 1588:1 1589:1 1590:2 1591:1 1592:1 1593:1 1594:1 #
0.0049389034675601265964028918631357 22:1 28:1 104:1 147:1 193:1 194:1 200:1 228:1 246:1 249:1 300:4 309:1 354:1 416:1 429:1 439:1 499:1 570:1 571:1 572:3 573:1 574:1 575:1 576:2 577:1 578:4 579:1 580:2 581:5 582:2 583:1 584:1 585:1 586:1 587:1 588:1 589:3 590:1 591:1 592:1 593:1 594:1 595:1 596:1 597:1 598:1 599:1 600:1 601:1 602:1 603:1 604:1 605:1 606:1 607:2 608:1 609:1 610:1 611:1 612:2 613:1 614:1 615:1 616:1 617:1 618:1 619:1 620:1 #
0.0049389034675601265964028918631357 10:1 22:1 28:1 30:1 90:1 109:1 171:3 205:2 249:1 257:1 265:1 311:1 318:1 369:2 373:1 387:3 424:1 447:2 448:1 449:1 450:1 451:1 452:1 453:1 454:1 455:1 456:1 457:1 458:1 459:1 460:1 461:1 462:1 463:1 464:6 465:1 466:1 467:1 468:1 469:1 470:1 471:3 472:1 473:2 474:2 475:1 476:1 477:1 478:1 479:2 480:1 481:1 482:1 483:1 484:1 485:1 486:1 487:1 488:1 489:5 490:2 491:2 492:1 493:1 494:2 495:1 496:1 497:1 498:1 499:1 500:1 #
0.0049389034675601265964028918631357 3:3 48:2 49:2 93:1 104:4 105:1 123:2 132:1 137:1 148:7 155:2 202:1 249:1 311:1 337:3 367:1 389:2 646:2 665:1 740:2 795:1 796:1 827:1 828:1 829:1 830:1 831:1 832:1 833:2 834:1 835:1 836:3 837:1 838:1 839:2 840:2 841:1 842:1 843:1 844:1 845:1 846:1 847:1 848:1 849:1 850:1 851:1 852:1 853:1 854:1 855:1 856:1 857:1 #
-0.0013222688248680058552969596163962 3:1 5:1 22:1 45:1 63:2 164:1 244:1 300:1 320:1 373:1 379:2 501:1 503:1 504:1 548:1 622:1 697:1 814:1 892:1 906:1 1408:1 1437:1 1480:1 2182:1 2192:1 3333:1 3765:1 3902:1 4738:1 5308:1 7905:1 8288:1 8683:2 16207:1 20706:1 25788:1 25789:1 25790:1 25791:1 #
-0.0011841843360972756794141647063157 30:2 38:1 44:1 68:1 104:1 148:2 171:1 322:1 369:2 383:1 390:2 396:1 443:1 488:2 607:2 625:1 656:1 899:1 939:1 1005:1 1118:1 1506:8 1793:1 2064:1 2950:1 3507:1 4272:1 4303:1 4345:2 8866:4 10045:1 16609:1 16610:1 16611:2 16612:1 29192:1 29193:1 29194:1 29195:1 29196:1 29197:1 29198:1 29199:1 29200:1 29201:1 29202:1 29203:1 29204:1 29205:2 29206:1 29207:1 29208:2 29209:2 29210:1 29211:1 29212:1 29213:2 29214:2 29215:1 29216:1 29217:1 29218:1 29219:1 29220:1 29221:1 29222:1 29223:1 #
-0.00040979384721815157550592334523287 22:1 30:4 57:1 104:3 242:2 287:4 348:1 485:1 503:1 554:1 562:1 594:1 595:1 615:1 801:1 840:1 882:4 936:1 1288:1 1317:1 1372:1 1451:1 1771:2 1803:1 2153:1 2157:1 2330:1 2795:1 2855:1 3232:2 3554:1 3717:3 4345:1 6561:1 6570:1 7447:4 9979:1 18681:1 27168:1 27169:1 27170:1 27171:2 27172:1 27173:1 27174:1 27175:1 #
0.0049389034675601265964028918631357 8:1 22:2 28:1 32:2 41:1 44:1 59:2 65:1 67:1 167:1 249:1 324:1 377:1 378:1 396:1 423:1 439:1 501:1 538:1 539:1 540:1 541:1 542:1 543:1 544:1 545:3 546:1 547:1 548:2 549:1 550:1 551:1 552:1 553:1 554:1 555:1 556:1 557:1 558:1 559:1 560:1 561:1 562:1 563:1 564:1 565:1 566:1 567:1 568:1 569:1 #
-0.0005253152253501891869036377613611 5:4 22:1 28:2 157:3 249:1 307:1 369:1 402:3 558:1 651:1 730:1 787:1 941:1 1041:1 1069:1 1311:1 1446:1 1533:1 1728:1 2024:5 2225:1 2501:1 2965:1 3484:2 4340:1 4403:1 4412:2 6954:1 11745:2 17706:1 29542:1 29705:1 29706:1 29707:1 29708:1 29709:1 29710:1 29711:1 #
0.0033254246233494575563094386438934 6:5 22:1 84:1 155:2 165:2 168:1 223:1 271:1 369:3 429:1 683:2 715:2 730:3 777:4 785:3 956:1 966:1 984:2 987:18 990:14 991:9 993:1 994:1 995:3 997:1 998:1 999:1 1138:1 1163:1 1275:1 1376:1 1396:1 1583:1 1595:1 1596:1 1597:1 1598:1 1599:1 1600:1 1601:1 1602:2 1603:2 1604:1 1605:1 1606:1 1607:1 1608:1 1609:1 1610:1 1611:1 1612:1 1613:2 1614:2 1615:1 1616:1 1617:1 1618:1 #
0.0049389034675601265964028918631357 6:3 22:1 155:1 157:2 337:2 369:1 376:1 628:1 730:2 824:1 840:3 965:1 966:1 987:1 990:3 991:1 995:7 998:1 999:1 1013:2 1262:1 1263:1 1264:1 1265:1 1266:1 1267:1 1268:1 1269:1 1270:1 1271:1 1272:1 1273:1 1274:1 1275:1 1276:1 1277:2 1278:2 1279:1 1280:1 1281:1 1282:1 1283:1 1284:1 1285:1 1286:1 1287:1 1288:1 1289:1 #
0.0049389034675601265964028918631357 6:1 28:1 45:1 46:2 123:3 155:1 369:2 396:4 397:1 404:1 509:2 730:3 863:2 965:1 966:1 995:1 1619:1 1620:1 1621:1 1622:3 1623:1 1624:1 1625:1 1626:1 #
-0.00053790236373825158280870262217377 22:2 40:1 48:1 71:2 132:1 170:1 327:1 378:1 424:2 507:1 521:1 843:1 1119:1 1217:1 1400:1 1494:1 1807:2 1840:1 1927:1 2014:1 2207:1 2307:1 3054:1 3272:1 3453:1 3622:1 4724:3 4865:2 6005:1 6527:1 7757:1 7758:2 8043:1 8206:1 8828:6 8829:1 8830:1 8831:1 8832:1 8833:1 8834:1 8835:1 8836:1 8837:1 8838:1 8839:1 8840:1 8841:1 8842:1 8843:1 8844:1 8845:1 #
-0.0019643857025964700686870845203202 3:3 16:1 22:1 287:1 307:1 337:1 369:1 501:1 503:2 749:1 789:2 1567:1 1639:1 2967:1 3331:1 3483:1 5112:1 8176:3 8177:1 8178:2 8179:1 8180:1 8181:1 8182:1 8183:1 8184:1 8185:1 8186:2 8187:1 8188:1 8189:1 8190:1 8191:1 8192:1 8193:1 8194:1 8195:1 #
-0.00031720461628095369911381484762103 3:3 19:6 31:3 32:1 38:2 40:1 44:5 61:1 63:1 65:1 79:1 88:1 134:1 146:1 147:2 171:4 249:14 254:2 271:3 278:3 292:1 307:1 322:8 323:2 332:1 361:2 387:3 396:2 398:1 399:3 404:1 409:2 420:1 429:1 430:1 443:1 503:1 507:2 509:1 549:1 551:1 553:1 554:1 562:1 563:1 592:1 622:1 636:1 653:1 694:1 759:4 772:2 794:1 811:1 827:2 858:1 905:1 912:2 935:1 942:2 979:1 986:3 1031:1 1045:1 1056:3 1069:1 1088:1 1094:2 1096:2 1167:1 1260:2 1270:1 1305:1 1306:1 1310:1 1338:1 1344:2 1485:1 1577:1 1611:1 1664:3 1791:1 1807:1 1828:2 1897:1 1932:1 1941:2 1961:1 1977:6 1983:1 2007:1 2011:3 2014:4 2090:1 2115:1 2125:1 2211:1 2225:1 2259:1 2281:2 2298:1 2322:1 2419:1 2429:2 2500:1 2507:1 2601:1 2624:1 2634:1 2670:1 2734:1 2828:2 2855:1 2876:1 2879:1 3173:1 3258:1 3362:1 3433:4 3492:1 3531:1 3537:3 3587:6 3647:1 3908:1 4160:1 4341:2 4368:1 4440:1 4546:2 4654:1 4659:2 4795:1 4865:2 4894:1 5026:1 5065:1 5254:1 5275:1 5435:1 5687:2 5716:1 6092:1 6634:2 7103:2 7114:1 7434:1 7545:4 7875:1 8248:1 8826:1 8963:1 9309:1 9320:1 9367:1 9905:1 10783:1 11002:1 11030:1 11039:1 11044:1 11398:1 12422:1 12625:1 12669:1 12816:1 13053:1 13228:1 13457:1 13991:1 14103:2 15158:1 15570:2 15929:1 16325:2 18383:1 19677:1 21710:1 21711:1 21712:6 21713:15 21714:2 21715:2 21716:3 21717:1 21718:1 21719:1 21720:2 21721:1 21722:1 21723:1 21724:1 21725:1 21726:4 21727:1 21728:1 21729:1 21730:1 21731:1 21732:2 21733:1 21734:1 21735:1 21736:1 21737:1 21738:1 21739:1 21740:1 21741:1 21742:1 21743:1 21744:1 21745:1 21746:1 21747:1 21748:1 21749:1 21750:1 21751:1 21752:1 21753:1 21754:1 21755:1 21756:1 21757:1 21758:1 21759:1 21760:1 21761:1 21762:1 21763:1 21764:1 21765:1 21766:1 21767:1 21768:1 21769:1 21770:5 21771:1 21772:1 21773:1 21774:1 21775:1 21776:2 21777:1 21778:1 21779:1 21780:1 21781:2 21782:1 21783:2 21784:1 21785:1 21786:1 21787:1 21788:1 21789:1 21790:1 21791:1 21792:1 21793:1 21794:1 21795:1 21796:1 21797:1 21798:1 21799:1 21800:1 21801:1 21802:1 21803:2 21804:1 21805:1 21806:1 21807:1 #
-0.00042825020721231731989780966429748 3:1 28:1 49:1 50:10 84:1 123:1 337:10 369:2 432:1 459:1 473:1 474:3 488:1 547:1 551:1 562:1 610:1 641:1 671:1 733:4 813:1 848:2 863:1 941:1 1002:1 1027:1 1136:11 1202:11 1204:1 1270:1 1549:1 1716:1 1793:1 1866:1 1884:2 2134:1 2306:1 2413:1 2421:2 2441:3 2530:1 2734:1 3038:1 3380:1 3660:1 4606:1 4653:1 5083:10 5716:10 5817:4 6089:1 6092:1 6910:2 9113:1 12051:1 12375:1 12591:1 12932:1 12933:10 13500:1 14112:1 16898:1 16900:1 17821:10 18203:10 20637:1 24270:1 24271:1 24272:1 24273:2 24274:1 24275:1 24276:11 24277:1 24278:1 24279:1 24280:1 24281:1 24282:1 24283:1 24284:1 24285:1 24286:1 24287:13 24288:1 24289:1 24290:1 24291:1 24292:1 24293:1 24294:1 24295:1 24296:1 24297:1 24298:1 24299:1 24300:1 24301:1 24302:1 24303:1 24304:1 24305:1 24306:1 24307:1 24308:1 24309:1 24310:1 24311:1 24312:1 24313:1 24314:1 #
0.0049389034675601265964028918631357 22:1 32:1 135:3 189:1 289:1 317:1 318:2 319:1 320:1 321:1 322:1 323:2 324:1 325:1 326:1 327:1 328:1 329:1 330:1 331:1 332:1 333:1 334:1 335:1 336:1 337:1 338:1 339:1 340:1 341:1 342:1 343:1 344:1 345:1 #
0.0049389034675601265964028918631357 5:2 22:1 44:1 88:1 361:1 379:1 393:1 394:1 395:1 396:1 397:1 398:1 399:1 400:1 401:1 402:1 403:1 404:1 405:1 406:1 407:1 #
0.0049389034675601265964028918631357 22:2 30:1 44:1 79:1 187:1 277:1 318:1 361:2 459:1 509:1 511:1 552:1 939:1 966:1 1121:1 1179:1 1189:1 1224:1 1234:1 1235:1 1236:1 1237:1 1238:1 1239:1 1240:1 1241:1 1242:1 1243:2 1244:1 1245:1 1246:1 1247:1 1248:1 1249:1 1250:1 1251:1 1252:1 1253:1 1254:1 1255:1 1256:1 1257:1 1258:1 1259:1 1260:1 1261:1 #
0.0049389034675601265964028918631357 28:1 41:1 42:1 43:3 112:2 114:5 132:4 282:1 283:1 284:1 285:4 286:2 287:1 288:3 #
0.0049389034675601265964028918631357 22:1 32:1 116:1 157:1 369:1 370:1 371:1 372:1 373:1 374:1 375:1 376:1 377:1 378:1 379:1 #
-0.0012060283785500496445824980540351 27:2 28:4 45:1 56:1 171:2 189:1 219:1 282:1 301:2 320:1 324:1 369:1 375:2 376:3 387:1 396:1 467:2 471:8 539:1 613:1 680:1 730:2 901:1 1172:1 1179:1 1292:1 1366:1 1797:1 1816:1 1931:1 1932:1 2014:2 2098:1 2332:1 2355:2 2356:2 2573:1 3408:1 3606:1 3664:1 3754:4 4541:2 4567:1 4830:1 4973:2 5354:1 5355:4 5356:1 5357:2 5358:1 5359:1 5360:2 5361:1 5362:2 5363:2 5364:1 5365:1 5366:1 5367:1 5368:1 5369:1 5370:1 5371:1 5372:1 5373:3 5374:1 5375:1 5376:1 5377:1 5378:1 5379:1 5380:1 5381:1 5382:1 5383:2 5384:1 5385:3 5386:1 5387:2 5388:1 5389:1 5390:1 5391:2 5392:2 5393:2 5394:2 5395:2 5396:2 5397:2 5398:2 5399:2 5400:2 #
-0.00012036978332244621290279817937829 15:2 22:1 46:1 109:1 143:1 300:1 369:2 376:9 396:1 488:1 564:1 730:4 839:8 899:1 980:1 984:1 1270:1 1368:1 1396:1 1408:12 1508:8 1513:1 1514:1 1515:1 1533:1 1963:1 1976:1 2399:1 9414:1 26996:1 26997:8 26998:4 26999:4 27000:1 27001:1 27002:1 27003:1 27004:1 27005:1 27006:1 27007:1 27008:2 27009:2 27010:1 27011:1 27012:1 27013:1 27014:1 27015:1 #
0.0049389034675601265964028918631357 3:1 22:1 32:1 34:1 44:1 45:1 46:1 72:1 116:1 164:1 200:1 550:1 944:1 985:1 1020:1 1344:1 1400:1 1411:1 1413:1 1414:1 1415:1 1416:1 1417:2 1418:1 1419:1 1420:1 1421:1 1422:1 1423:3 1424:1 1425:1 1426:1 1427:1 1428:1 1429:1 1430:1 #
0.0049389034675601265964028918631357 22:1 33:2 44:3 189:1 193:1 194:1 333:1 365:3 369:1 373:2 429:1 488:1 558:1 592:1 607:1 686:1 687:2 688:1 689:1 690:1 691:1 692:1 693:1 694:1 695:1 696:1 697:1 698:1 699:1 700:1 701:1 702:1 703:1 704:1 705:1 706:1 707:1 708:2 709:4 710:6 711:5 712:1 713:4 714:2 715:1 716:1 717:1 718:1 719:3 720:1 721:1 722:6 723:6 724:5 725:1 726:1 727:1 728:3 729:1 730:1 731:4 732:2 733:1 734:1 735:1 736:1 737:2 738:2 739:1 740:2 741:1 742:2 743:1 744:3 745:3 746:3 747:2 748:2 749:1 750:1 751:1 752:1 753:1 754:1 755:1 756:1 757:1 758:1 759:1 760:1 761:1 #
-0.00033054134503606385315707671956886 22:2 179:1 351:3 369:1 402:2 488:1 523:3 620:5 740:7 749:2 807:3 1006:6 1170:2 1557:2 1561:2 1567:6 1574:2 1582:3 1665:2 1675:2 1681:1 1832:1 1941:2 1964:1 2246:1 2419:1 3382:4 3476:2 5784:3 7355:1 7719:2 7737:3 8150:1 8726:3 9425:3 10883:3 11890:4 12446:1 16532:1 17207:1 17208:1 17209:1 17210:1 17211:1 17212:1 17213:1 17214:1 17215:2 17216:3 17217:2 17218:3 17219:3 17220:1 17221:1 17222:3 17223:1 17224:3 17225:3 17226:1 17227:1 17228:1 17229:1 17230:1 #
-0.0015559027827060198552466818711082 4:1 8:6 10:1 22:1 36:1 39:1 45:2 71:9 72:1 109:1 117:1 171:3 178:3 184:3 189:4 200:2 204:3 228:2 246:1 249:1 264:1 307:1 320:2 322:1 348:1 369:1 488:1 501:1 600:1 669:1 709:2 741:1 749:1 755:1 785:1 818:2 939:1 944:2 966:6 1038:1 1096:1 1108:6 1153:1 1454:4 1585:1 1621:1 1723:1 1904:1 1983:1 2048:4 2206:1 2271:3 2309:1 2324:1 2361:2 2367:2 2503:3 2638:1 2669:1 2676:1 2856:1 3258:1 3274:1 3281:1 3373:1 3377:1 3434:1 3444:2 3448:1 3476:1 3619:1 3620:4 3621:1 3622:1 3623:3 3624:2 3625:1 3626:4 3627:1 3628:1 3629:1 3630:1 3631:2 3632:1 3633:1 3634:1 3635:1 3636:1 3637:1 3638:1 3639:1 3640:1 3641:1 3642:1 3643:1 3644:3 3645:1 3646:1 3647:1 3648:1 3649:1 3650:1 3651:1 3652:1 3653:1 3654:1 #
-0.00097819068767851752137232335115868 3:1 22:1 37:1 38:1 39:2 44:1 71:1 122:1 171:1 189:2 192:1 212:1 373:1 423:1 429:1 458:1 672:1 712:1 740:1 763:1 785:2 813:1 840:1 843:1 854:1 926:1 941:1 1305:1 1484:2 1505:2 1531:1 1654:1 1830:1 2200:2 2217:1 2225:1 2730:1 2790:1 2916:1 2959:1 3037:1 3636:1 3657:1 4040:1 4174:1 4447:2 5723:1 6002:1 6003:1 6004:1 6005:1 6006:1 6007:1 6008:2 6009:1 6010:1 6011:1 6012:1 6013:1 6014:1 #
-0.00010418993822796277057447789093914 22:1 33:2 90:1 136:1 171:2 208:1 228:1 234:1 238:1 271:1 291:2 369:3 459:1 512:1 550:1 630:3 631:3 724:7 939:1 953:4 974:3 1018:1 1069:1 1635:1 1764:1 1838:1 1977:1 2263:1 2360:2 2829:1 2932:1 2933:4 2940:9 3258:1 3603:1 3647:1 3670:2 3913:7 4408:1 4742:1 4935:1 5610:1 5723:1 6124:1 6913:1 7963:1 8980:1 9266:1 10408:1 11175:1 12453:1 14498:1 16489:7 16490:2 16491:1 16492:1 16493:1 16494:1 16495:1 16496:1 16497:1 16498:1 16499:2 16500:1 16501:1 16502:1 16503:1 16504:3 16505:2 16506:2 16507:5 16508:6 16509:3 16510:1 16511:1 16512:1 16513:1 16514:1 16515:1 16516:1 16517:1 16518:1 16519:1 #
-6.9627792539205110231015360966467e-05 19:1 27:2 28:1 43:3 46:1 79:1 88:1 109:1 144:4 164:2 165:2 171:1 189:2 205:1 301:1 322:1 348:4 361:1 369:1 376:2 474:3 503:1 541:1 562:3 574:1 653:1 712:1 733:1 757:1 785:1 813:3 906:1 926:1 1049:5 1053:1 1096:1 1107:1 1119:1 1163:1 1175:1 1197:1 1288:1 1364:1 1393:3 1396:6 1405:3 1723:1 1919:2 2243:1 2396:1 2441:1 2506:1 2528:1 2574:3 2728:1 3657:1 3963:1 4548:1 4711:1 5287:1 5802:3 5815:1 6485:2 7652:1 8822:1 8906:1 9654:1 9655:3 9656:2 9657:1 9658:1 9659:1 9660:1 9661:1 9662:1 9663:1 9664:1 9665:1 9666:1 9667:1 9668:1 9669:1 9670:1 9671:1 9672:1 9673:1 9674:3 9675:2 9676:1 9677:1 9678:1 9679:1 9680:1 #
0.0019984458390220971937822902475546 3:1 5:1 6:3 15:2 19:2 22:1 32:5 45:1 63:1 79:1 84:2 109:1 140:2 144:2 146:1 148:5 155:1 165:1 171:3 188:1 205:5 244:1 249:3 254:1 264:1 271:2 272:1 289:1 301:2 307:1 322:1 361:1 369:3 376:1 414:1 429:1 444:1 466:1 485:1 488:1 501:1 509:2 550:1 564:1 594:1 595:1 643:2 683:13 712:1 749:2 773:1 785:1 804:1 811:2 886:1 888:1 907:1 926:1 949:1 1076:2 1077:2 1078:2 1079:2 1080:1 1081:2 1082:2 1083:1 1084:5 1085:1 1086:1 1087:2 1088:3 1089:1 1090:1 1091:1 1092:2 1093:2 1094:1 1095:2 1096:3 1097:1 1098:1 1099:1 1100:1 1101:1 1102:1 1103:1 1104:1 1105:1 1106:1 1107:1 1108:1 1109:1 1110:1 1111:2 1112:1 1113:1 1114:1 1115:2 1116:1 1117:1 1118:2 1119:3 1120:1 1121:2 1122:1 1123:1 1124:1 1125:1 1126:1 1127:1 1128:1 1129:1 1130:1 1131:1 1132:1 1133:1 1134:1 1135:1 1136:1 1137:1 1138:1 1139:1 1140:1 1141:1 1142:2 1143:2 1144:1 1145:1 1146:1 1147:3 1148:1 1149:3 1150:1 1151:1 1152:1 1153:1 1154:1 1155:1 1156:1 1157:1 1158:1 1159:1 1160:1 1161:1 1162:1 1163:1 1164:1 1165:1 1166:1 1167:1 1168:1 1169:1 1170:1 1171:1 1172:1 1173:1 1174:1 1175:1 1176:1 #
0.0036614490540072541779892389968154 3:1 6:1 8:6 24:2 28:4 43:2 50:1 60:1 90:2 109:1 163:3 164:1 165:1 169:1 171:1 189:1 254:1 320:1 369:2 396:1 429:1 459:1 470:1 604:1 607:1 681:1 730:1 773:1 840:4 902:1 942:1 965:2 966:1 986:1 1029:1 1270:2 1304:1 1345:2 1346:2 1347:2 1348:1 1349:1 1350:1 1351:1 1352:1 1353:1 1354:1 1355:7 1356:2 1357:2 1358:2 1359:3 1360:1 1361:3 1362:6 1363:3 1364:1 1365:2 1366:2 1367:8 1368:1 1369:3 1370:3 1371:1 1372:1 1373:7 1374:3 1375:1 1376:2 1377:2 1378:1 1379:2 1380:2 1381:1 1382:1 1383:1 1384:1 1385:1 1386:1 1387:2 1388:1 1389:2 1390:1 1391:1 1392:1 1393:1 1394:1 1395:1 1396:2 1397:1 1398:2 1399:1 1400:1 1401:2 1402:1 1403:1 1404:1 #
-0.00088776442845566274665591866011027 4:1 5:3 19:6 22:2 43:17 46:1 50:6 82:1 123:1 155:2 157:4 165:4 171:2 317:4 337:5 365:1 369:1 373:1 396:2 423:1 429:1 460:2 466:1 554:6 615:3 671:1 680:4 715:4 723:1 730:3 749:2 776:1 840:7 898:1 906:1 926:1 966:2 993:1 994:1 995:5 997:1 1192:1 1215:4 1232:1 1271:4 1330:1 1356:1 1372:1 1391:1 1404:1 1408:1 1471:1 1487:1 1491:2 1518:1 1597:1 1608:2 1625:1 1767:1 1803:2 1838:1 2007:1 2257:2 2834:1 3662:2 3664:1 4113:4 4405:2 4784:3 5129:1 5639:1 5820:2 6022:1 6463:1 6465:3 6466:3 7430:3 7435:1 7614:1 7632:2 8206:1 8735:1 10384:3 11479:1 11604:1 15369:1 17049:1 17050:2 17051:5 17052:1 17053:1 17054:1 17055:1 17056:1 17057:1 17058:1 17059:1 17060:1 17061:1 17062:1 17063:2 17064:1 17065:2 17066:2 17067:2 17068:2 17069:1 17070:5 17071:1 17072:1 17073:1 17074:1 17075:1 17076:3 17077:1 17078:1 17079:1 17080:1 17081:1 17082:1 17083:1 #
-0.0011548820728510874461525403944506 3:1 5:3 22:1 24:1 28:7 71:1 146:1 155:1 163:1 369:1 373:5 429:1 488:1 503:1 530:12 538:1 542:1 730:1 769:4 914:1 965:1 966:1 1044:1 1166:4 1232:2 1356:1 1359:1 1386:1 1387:2 1446:1 1838:1 2864:1 3802:1 5053:1 7077:8 7094:4 10409:1 11295:1 16805:1 16807:1 19532:1 24597:1 28761:1 28762:1 28763:8 28764:7 28765:1 28766:1 28767:1 28768:2 28769:6 28770:1 #
-0.00011995966583422177753181364634472 3:2 5:6 6:2 8:1 18:1 24:2 25:1 28:2 29:1 30:1 43:16 56:1 63:2 70:15 71:2 78:6 79:2 110:2 123:5 132:1 136:2 168:2 171:2 187:1 200:1 205:3 211:1 244:2 327:1 348:2 351:1 356:1 361:1 365:1 369:2 376:16 379:2 381:1 387:3 396:1 423:1 429:2 431:1 465:4 472:3 484:5 501:1 502:1 521:2 541:1 564:1 615:9 640:1 650:2 656:1 740:2 749:4 763:1 795:1 813:1 848:1 879:2 886:1 902:1 912:1 945:2 966:1 984:1 1022:1 1027:1 1177:1 1179:1 1184:1 1216:1 1288:1 1366:4 1370:4 1457:1 1483:1 1505:1 1549:2 1618:1 1664:1 1715:2 1790:1 1803:3 1816:1 1849:9 1866:1 1926:6 1928:12 1931:6 1945:2 1961:1 1977:1 1981:1 2035:2 2061:1 2070:2 2105:2 2159:2 2413:1 2421:5 2490:1 2520:1 2523:1 2542:1 2546:1 2780:1 2783:3 2795:1 2837:1 2843:1 2981:2 3157:1 3281:1 3295:1 3363:1 3423:3 3424:18 3457:2 3755:1 3831:1 4094:1 4131:1 4231:1 4300:1 4337:1 4561:1 4562:5 4567:3 4653:1 4663:1 4831:1 4899:1 5018:1 5309:2 5316:2 5419:2 5579:1 5716:1 6396:8 6539:2 6563:1 6628:1 7053:12 7112:2 7114:1 7256:1 7502:1 8350:1 8379:1 9350:2 9355:2 9531:1 9661:1 10016:2 10379:3 10552:1 10592:2 10764:11 10788:1 11022:4 11318:4 11492:2 11810:2 11852:1 11866:2 12249:1 12591:4 12712:1 12920:2 13564:1 14188:3 14360:1 15518:2 15618:2 15953:1 16078:1 16309:3 16557:4 17994:4 19174:2 19284:1 19451:6 19689:2 19781:1 20367:1 20801:1 21013:3 21996:1 23516:1 24123:1 24460:2 24697:2 25315:4 25649:1 26202:1 26209:2 26215:1 26528:2 26529:1 26530:5 26531:1 26532:1 26533:1 26534:17 26535:1 26536:1 26537:1 26538:1 26539:1 26540:3 26541:3 26542:1 26543:1 26544:1 26545:2 26546:3 26547:1 26548:2 26549:6 26550:2 26551:6 26552:2 26553:10 26554:2 26555:2 26556:2 26557:2 26558:2 26559:9 26560:2 26561:3 26562:2 26563:9 26564:2 26565:6 26566:1 26567:2 26568:1 26569:2 26570:1 26571:1 26572:1 26573:1 26574:1 26575:2 26576:1 26577:1 26578:1 26579:2 26580:1 26581:1 26582:1 26583:1 26584:2 26585:1 26586:2 26587:4 26588:2 26589:1 26590:1 26591:1 26592:1 26593:1 26594:1 26595:1 26596:1 26597:1 26598:1 26599:1 26600:1 26601:1 26602:1 26603:1 26604:2 26605:1 26606:1 26607:1 26608:2 26609:3 26610:1 26611:1 26612:2 26613:3 26614:1 26615:3 26616:1 26617:1 26618:1 26619:2 26620:1 26621:1 26622:1 26623:1 26624:1 26625:1 26626:1 26627:1 26628:1 26629:1 26630:1 26631:2 26632:1 26633:1 26634:1 26635:1 26636:1 26637:1 26638:1 26639:2 26640:1 26641:1 26642:1 26643:4 26644:1 26645:1 26646:1 26647:1 26648:1 26649:3 26650:1 26651:1 26652:1 26653:3 26654:1 26655:1 26656:1 26657:1 26658:2 26659:1 26660:2 26661:1 26662:1 26663:8 26664:1 26665:1 26666:1 26667:1 26668:1 26669:1 26670:1 26671:1 26672:1 26673:1 26674:1 26675:1 26676:1 26677:1 26678:6 26679:2 26680:1 26681:1 26682:2 26683:2 26684:2 26685:2 26686:1 26687:1 26688:2 26689:1 26690:1 26691:1 26692:1 26693:2 26694:1 26695:1 26696:1 26697:1 26698:1 26699:2 26700:1 26701:1 26702:1 26703:1 26704:1 26705:1 26706:1 26707:1 26708:2 26709:1 26710:1 26711:1 26712:1 #
-0.0037909731557041275416819470223118 28:6 43:1 53:1 59:1 145:1 168:1 187:2 228:1 244:1 279:1 300:1 301:7 320:1 378:1 429:2 437:1 507:1 539:1 607:1 791:1 815:1 839:1 942:1 1130:1 1136:1 1194:1 1260:1 1386:1 1421:2 1628:2 2153:1 2520:2 3639:2 4045:1 5507:2 5661:1 6788:2 7277:3 8839:1 9007:1 13473:1 13474:2 13475:1 13476:1 13477:1 13478:1 13479:1 13480:1 13481:1 #
-0.00069439134999584842429520836759593 3:1 6:1 22:3 44:1 46:3 135:2 146:1 213:1 307:1 324:1 348:1 393:1 396:1 443:2 507:1 554:1 680:1 769:1 825:1 843:1 985:1 1066:1 1119:1 1169:1 1192:1 1222:1 1515:1 1803:1 1866:1 2204:1 2523:1 2744:3 2829:1 3232:1 3447:1 4408:1 4471:1 4719:1 6742:1 6797:1 7627:1 11389:1 13643:7 13644:1 13645:1 13646:1 13647:1 13648:1 13649:1 13650:1 13651:1 #
0.0049389034675601265964028918631357 3:1 22:2 32:2 44:2 71:4 123:2 205:1 346:1 404:1 574:1 803:4 804:1 805:1 806:1 807:1 808:1 809:1 810:1 811:1 812:1 813:1 814:1 815:1 816:1 817:1 818:1 819:1 820:1 821:1 822:1 #
-0.00020171134484323844445093076860331 15:30 25:1 109:1 171:1 361:3 369:1 376:1 383:2 402:2 466:1 562:1 576:2 651:1 682:3 711:1 785:1 840:1 942:1 980:1 1012:1 1197:1 2011:1 2243:1 2790:1 3266:1 3927:1 4463:1 4857:1 6576:1 9200:2 10723:1 11041:1 15979:1 16168:2 18973:1 20807:1 20808:1 20809:1 20810:1 20811:2 20812:2 20813:2 20814:2 20815:2 20816:2 20817:2 20818:2 20819:2 20820:2 20821:1 20822:1 20823:1 20824:2 #
-0.001346573579533698154786502954039 6:1 22:1 30:1 32:1 44:1 112:6 123:3 146:5 155:1 169:1 171:1 271:3 282:4 292:1 320:1 322:1 333:3 365:3 369:1 393:1 460:1 554:1 562:1 576:2 582:1 622:1 671:1 723:1 732:1 747:1 821:1 829:1 848:3 863:1 985:1 987:2 1020:1 1109:3 1118:1 1119:1 1131:1 1197:1 1356:1 1385:1 1513:2 1654:6 1723:1 1742:2 1867:1 1872:1 2087:1 2287:1 2421:2 2480:1 2537:1 2865:5 3433:2 3444:1 3867:1 4173:1 4712:1 5601:2 6633:1 7470:1 7915:1 10016:1 10481:1 11057:1 11197:2 12257:6 16630:1 16631:1 16632:1 16633:3 16634:1 16635:1 16636:5 16637:4 16638:1 16639:2 16640:1 16641:1 16642:1 16643:1 16644:1 16645:1 16646:1 16647:3 16648:3 16649:3 16650:3 16651:3 16652:3 16653:3 16654:3 16655:3 16656:3 16657:3 16658:1 16659:3 16660:3 16661:3 16662:1 16663:1 #
-0.0011357566102173000024272431218719 22:1 29:1 44:1 45:1 46:5 120:1 123:9 135:1 139:1 165:2 179:1 254:1 325:2 369:1 437:1 536:5 562:1 650:1 712:1 733:1 813:2 983:1 985:1 1113:1 1118:1 1533:1 1702:3 1797:3 1994:1 2021:1 2095:3 2243:1 2246:6 2383:1 2448:1 2634:1 2755:1 2866:1 2901:1 5287:1 6533:3 7471:1 9717:1 16529:1 16530:1 16531:1 16532:1 16533:4 16534:1 16535:1 16536:1 16537:1 16538:1 16539:1 16540:1 16541:1 16542:2 16543:1 16544:1 16545:1 16546:1 16547:2 16548:3 16549:1 16550:1 16551:1 16552:1 16553:1 16554:1 16555:1 #
-0.0049389034675601265964028918631357 32:3 47:1 134:1 300:1 759:1 1260:1 1419:2 4164:1 4389:1 4918:1 11807:1 17625:1 17626:1 17627:1 17628:1 #
-0.00077569255117735790450855803968011 3:1 5:2 11:3 30:1 36:1 47:3 50:3 109:1 132:1 135:2 146:1 167:1 171:4 205:2 208:1 223:1 277:1 322:1 323:1 337:2 348:1 373:1 520:1 565:1 625:2 794:1 815:1 939:1 1328:1 1446:1 1460:1 1533:1 1662:1 1888:1 2061:1 2428:1 2795:1 2845:1 2854:1 3093:1 3199:1 3453:1 3457:1 3587:1 3589:3 3606:2 4389:1 4711:1 4713:1 5125:1 7270:1 8284:1 10061:1 11452:1 14363:1 15385:1 16667:1 17335:1 19298:1 20672:1 22051:1 24501:2 24502:1 24503:2 24504:3 24505:2 24506:2 24507:1 24508:2 24509:2 24510:2 #
0.0049389034675601265964028918631357 28:1 41:1 43:7 84:1 122:1 155:2 902:1 903:3 904:2 905:1 906:2 907:1 908:1 #
-0.00014107922552483958926472507044991 20:2 22:2 46:2 93:1 104:11 135:2 137:3 151:4 165:1 171:2 211:1 320:1 333:1 348:1 369:1 373:4 376:1 423:1 460:1 478:1 485:2 552:1 562:1 568:1 715:1 733:2 749:8 785:1 910:2 1118:3 1359:1 1376:2 1396:1 1405:24 1408:1 1485:4 1497:1 1515:3 1548:4 1551:12 1574:1 1583:1 1663:1 1665:1 1700:2 1729:1 1741:21 1767:6 1770:1 1807:1 1821:4 1838:1 1877:1 1945:1 2057:1 2225:1 2243:3 2317:6 2372:9 2622:1 2790:1 3484:2 3754:3 3802:1 4001:1 4020:1 4049:1 4053:3 4067:9 4070:1 4104:1 4272:2 4424:2 4544:2 4770:2 4935:1 5267:3 5746:1 6275:1 6276:2 6277:2 6278:1 6279:1 6280:1 6281:1 6282:1 6283:1 6284:4 6285:1 6286:1 6287:3 6288:3 6289:3 6290:4 6291:4 6292:4 6293:2 6294:1 6295:1 6296:1 6297:2 6298:2 6299:1 6300:5 6301:1 6302:1 6303:1 6304:1 6305:2 6306:1 6307:2 6308:10 6309:3 6310:1 6311:2 6312:2 6313:2 6314:1 6315:1 6316:1 6317:1 6318:1 6319:1 6320:1 6321:1 6322:1 6323:1 6324:1 6325:1 6326:1 6327:1 6328:1 6329:10 6330:9 6331:8 6332:1 6333:2 6334:2 6335:1 6336:1 6337:1 6338:1 6339:1 6340:1 6341:1 6342:1 6343:1 6344:1 6345:1 6346:1 6347:1 #
-0.0049389034675601265964028918631357 6:3 22:1 46:1 135:2 205:1 307:1 569:1 885:1 1106:1 1202:1 1884:1 2200:1 2212:1 2262:1 2361:1 3152:1 4259:1 6521:1 6899:1 10268:1 12615:1 16345:1 16346:1 #
-0.0021997550192964583810895096149807 22:1 521:3 651:1 711:3 2243:1 3764:2 3815:1 4165:1 10722:1 10723:1 10724:1 #
-0.00012270344567424899145414995960124 22:1 46:2 47:1 129:1 165:6 171:1 182:2 287:6 369:1 373:5 393:2 396:1 449:2 488:1 733:2 789:3 910:2 1232:2 1627:2 1965:1 2566:4 3658:1 5023:4 5567:4 5568:2 5585:2 5586:2 5587:2 5597:2 6750:2 9910:4 20316:2 22968:1 22969:4 22970:4 22971:2 22972:1 22973:1 22974:1 22975:1 22976:1 22977:2 22978:2 22979:1 22980:1 #
-0.00043319677511126510700487091121147 22:1 25:3 27:2 44:1 376:1 387:3 807:1 811:1 886:1 1096:1 1533:1 1886:1 1931:2 2479:1 2660:1 3173:1 3526:1 4543:2 12556:1 12557:1 12558:1 #
0.0049389034675601265964028918631357 3:1 10:5 20:2 22:1 32:1 46:1 47:2 71:1 178:1 187:3 189:1 204:1 244:3 265:1 358:6 361:1 369:2 373:1 381:2 404:1 424:1 470:4 501:1 509:1 510:1 511:1 512:1 513:1 514:3 515:1 516:1 517:1 518:1 519:1 520:1 521:1 522:1 523:1 524:1 525:5 526:1 527:1 528:1 529:1 530:1 531:1 532:1 533:1 534:1 535:1 536:4 537:1 #
-0.0018320878274441774503922264472067 3:1 12:1 22:1 287:4 373:2 843:2 1185:1 1771:1 2864:1 3551:1 3648:1 4371:2 12489:1 14459:3 14460:1 #
-0.0014114642691591908901793672725944 6:2 22:2 30:1 44:1 72:1 84:2 155:1 165:1 169:1 213:2 228:3 271:1 283:2 322:1 323:2 349:1 369:2 373:3 429:1 503:1 551:1 592:1 730:8 749:1 755:1 840:5 901:1 965:1 982:2 984:2 986:1 987:3 990:7 991:4 995:6 998:2 1027:4 1069:1 1096:1 1138:1 1262:1 1263:1 1266:1 1267:1 1270:3 1271:3 1376:2 1396:3 1447:1 1514:1 1600:2 1607:1 1614:4 1728:1 1763:2 1977:1 2360:1 2863:1 3037:1 3122:1 3241:5 3384:2 3758:1 4408:1 4833:12 4857:1 4872:3 4888:1 5062:5 5686:1 6464:1 6465:1 6466:1 6469:4 7614:1 7722:1 8209:1 10729:2 12288:3 15722:1 20441:1 20442:2 20443:1 20444:1 20445:1 20446:1 20447:1 20448:1 20449:1 20450:1 20451:3 20452:1 20453:1 20454:1 20455:2 20456:1 20457:1 20458:1 20459:4 20460:1 20461:1 20462:2 20463:1 20464:2 20465:3 20466:1 20467:3 20468:3 20469:2 20470:1 20471:2 20472:1 20473:1 20474:1 20475:1 #
-0.00012562813463516122550883702402302 13:1 22:1 46:3 68:1 93:1 146:1 157:6 165:8 171:1 223:1 282:4 283:1 318:1 337:6 369:2 415:1 459:1 470:11 501:27 526:1 548:1 715:1 730:8 733:1 888:1 910:2 950:2 965:6 966:2 993:1 995:1 1136:8 1356:3 1386:7 1387:2 1597:1 1632:1 2135:2 2245:1 3285:1 3304:1 3402:2 3864:1 4532:1 4738:1 4870:1 5337:4 5716:1 6583:1 7173:2 7884:1 7886:1 7914:2 7915:6 9472:1 10681:14 14100:1 19329:1 23352:1 23353:1 23354:1 23355:1 23356:1 23357:1 23358:1 23359:4 23360:1 23361:1 23362:3 23363:3 23364:4 23365:5 23366:1 23367:1 23368:1 23369:4 23370:1 23371:1 23372:1 23373:1 23374:1 23375:1 23376:1 23377:1 23378:1 23379:2 #
-0.0010590679671541728453648678609511 22:2 44:1 57:1 66:1 136:2 211:1 233:1 234:2 236:1 249:1 277:1 287:1 322:1 396:2 415:1 507:1 567:1 651:1 886:1 906:1 1530:1 1548:1 1906:1 2128:1 2252:1 2278:1 2360:1 2508:1 2807:1 2876:1 5515:1 5968:1 7964:1 9007:1 17265:1 17919:1 21148:1 25717:1 25718:2 25719:2 25720:1 #
-4.2407297505180581768079173254904e-05 6:1 22:2 28:6 43:1 46:1 63:6 109:2 136:11 144:1 171:8 282:2 289:1 292:1 322:1 323:12 369:3 376:24 402:2 429:1 470:8 509:5 615:2 773:1 886:1 892:1 906:1 980:1 984:1 986:1 1029:4 1032:5 1076:1 1096:1 1163:1 1189:13 1194:1 1270:1 1355:1 1363:1 1370:5 1377:4 1393:95 1396:1 1454:1 1497:1 1618:1 1718:1 1786:16 1929:1 1974:3 2021:1 2064:2 2100:1 2199:2 2281:1 2385:10 2419:2 2441:2 2541:4 2638:1 2701:1 2767:1 3093:2 3144:1 3374:1 3893:1 4457:1 4585:3 4659:1 4973:6 4986:1 6011:1 6091:1 6194:1 6485:2 6545:2 6591:1 8378:4 9023:4 10710:1 11197:1 11866:1 12816:2 13421:5 15239:6 15393:1 15567:2 15670:1 19521:2 19927:1 20346:5 20723:1 20724:1 20725:1 20726:16 20727:1 20728:1 20729:1 20730:1 20731:2 20732:6 20733:1 20734:1 20735:1 20736:1 20737:1 20738:1 20739:1 20740:3 20741:2 20742:1 20743:3 20744:95 20745:2 20746:2 20747:2 20748:4 20749:4 20750:4 20751:1 20752:1 20753:1 20754:1 20755:2 20756:1 20757:1 20758:12 20759:8 20760:4 20761:1 20762:2 20763:1 20764:1 20765:1 20766:4 20767:6 20768:1 20769:9 20770:9 20771:1 20772:2 20773:2 20774:2 20775:2 20776:2 20777:2 20778:1 20779:1 20780:1 20781:1 #
0.0049389034675601265964028918631357 22:1 415:1 440:2 694:1 915:1 1019:1 1020:1 1021:1 1022:1 1023:1 #
0.0049389034675601265964028918631357 3:1 408:1 409:1 410:1 411:1 412:1 413:1 414:1 415:1 416:1 #
0.0049389034675601265964028918631357 8:1 22:1 32:1 59:1 88:1 184:1 404:1 421:1 503:1 887:1 912:1 1022:1 1041:1 1042:1 1043:1 1044:1 1045:1 1046:1 1047:1 1048:1 1049:1 1050:1 1051:1 1052:1 1053:1 1054:1 #
0.0049389034675601265964028918631357 3:1 22:1 28:1 41:1 46:1 274:1 733:1 763:1 909:1 910:1 911:1 912:1 913:1 #
-0.002492229955910974393412660177205 3:1 22:1 28:1 47:1 155:4 184:1 187:1 205:1 223:1 273:1 365:1 369:1 429:1 488:1 509:1 564:2 814:1 936:1 1172:1 1222:4 1227:3 1395:1 1400:1 1526:3 1884:2 2199:1 2200:1 3534:1 3535:1 3536:1 3537:1 3538:1 3539:1 3540:1 #
-0.00030813191599557605577369701066459 32:2 65:1 72:1 133:1 164:1 178:2 208:1 244:2 369:1 379:6 387:2 466:1 484:1 488:1 574:1 804:1 806:1 809:1 815:1 912:2 966:2 1138:1 1163:1 1255:1 1256:1 1366:3 1506:1 1519:1 2000:1 2100:1 2153:1 2199:1 3413:2 3420:7 3457:1 3461:2 4211:1 4241:1 4252:1 4652:1 5125:1 5232:1 7053:1 9164:2 9341:1 9439:7 10379:1 10747:1 11056:1 11655:1 12378:1 12459:1 16944:1 17494:2 22051:1 22136:1 22137:1 22138:1 22139:1 22140:1 22141:1 22142:1 22143:1 22144:1 22145:1 22146:2 22147:1 22148:1 22149:1 22150:1 22151:18 22152:1 22153:1 22154:1 22155:3 22156:3 22157:1 22158:1 22159:3 22160:2 22161:2 22162:2 22163:1 22164:1 22165:1 22166:1 22167:1 22168:1 22169:3 22170:2 22171:1 22172:1 22173:1 22174:1 22175:1 22176:1 22177:1 22178:1 22179:1 #
-0.00014259061418197871472582360929948 3:1 44:1 45:1 46:4 53:1 56:3 116:2 121:2 163:1 171:1 184:1 194:1 249:1 254:1 302:1 369:5 396:1 408:1 444:1 488:5 507:1 562:1 766:9 785:1 893:1 926:1 946:1 1163:1 1226:1 1405:9 1536:1 1840:1 1955:1 1978:1 2060:1 2076:1 2105:1 2173:1 2182:1 2329:1 2810:1 3304:1 3433:1 3553:1 3867:1 3893:1 4136:1 4418:2 5026:1 5162:1 5454:1 6002:1 6507:1 6532:1 8544:1 8661:1 8671:1 8906:2 10524:1 11296:1 11456:1 17106:1 20764:1 21414:1 22692:1 22693:1 22694:1 22695:1 22696:1 22697:1 22698:1 22699:1 22700:1 22701:1 22702:1 22703:1 22704:2 22705:1 22706:2 22707:1 22708:1 22709:2 22710:2 22711:1 22712:1 22713:1 22714:1 22715:1 22716:1 22717:1 22718:6 22719:1 22720:1 22721:1 22722:2 22723:1 #
-0.0012387678235038165636822116155713 28:1 30:1 43:2 60:1 73:1 79:1 109:1 146:1 155:3 171:1 209:1 287:1 322:1 331:1 369:2 376:1 396:1 404:1 569:1 709:4 791:3 840:1 870:1 941:1 1002:1 1053:1 1177:1 1192:4 1261:1 1483:1 1536:1 1624:2 1839:1 2624:1 3137:1 3377:1 3433:1 4330:1 6827:2 18030:1 27082:1 27083:1 27084:1 27085:3 27086:2 27087:3 27088:1 27089:1 #
-0.00026282756883962279459768240919004 3:4 205:4 249:1 333:1 369:2 551:1 785:1 839:1 902:1 939:1 1376:2 1417:1 1497:1 1663:1 1765:1 1771:1 2243:4 3060:2 3487:1 6798:1 7612:3 8203:2 8305:1 13604:1 13605:1 13606:4 13607:3 13608:2 13609:2 13610:2 13611:1 13612:1 13613:1 13614:1 13615:1 13616:1 #
0.0049389034675601265964028918631357 6:1 22:1 84:1 109:1 123:3 260:2 333:1 337:5 353:1 373:1 391:1 621:1 622:1 623:1 624:2 625:1 626:1 627:1 628:1 629:1 630:1 631:1 #
0.0049389034675601265964028918631357 22:1 32:1 43:1 77:2 82:1 169:1 223:1 287:2 376:2 512:1 1069:1 1172:1 1392:2 1405:1 1406:1 1407:2 1408:1 1409:1 1410:1 1411:1 1412:1 #
-0.00067736793425792341926533479679051 22:2 90:1 136:2 234:2 236:2 238:2 256:1 257:4 258:1 300:1 307:1 348:1 369:2 459:1 569:1 614:1 948:1 951:1 952:5 953:1 954:1 957:1 959:2 960:3 961:1 965:1 966:1 967:18 1138:1 1630:1 1635:2 1640:2 1662:1 2271:1 2855:1 2944:1 3232:1 3474:4 4191:1 4595:1 4928:1 4932:1 7317:1 8961:2 8962:1 8963:1 8964:1 8965:1 8966:2 8967:2 8968:3 8969:2 8970:4 8971:4 8972:3 8973:1 8974:1 8975:1 8976:1 8977:1 8978:1 8979:1 8980:1 8981:1 8982:1 8983:1 8984:2 #
-0.0014575631478730467511378821043877 22:1 44:1 53:1 65:1 165:1 169:1 249:1 260:2 271:1 287:1 322:1 337:4 369:1 460:1 556:1 715:1 730:1 796:1 829:1 887:1 914:1 939:1 966:1 993:1 994:1 995:2 1118:1 1138:1 1197:1 1261:1 1271:1 1288:1 1392:1 1451:1 1489:1 1977:1 2329:1 2495:1 3008:1 5479:2 5480:3 6463:1 6931:1 7798:1 8522:1 11404:1 11852:1 16456:1 16457:2 16458:1 16459:1 16460:1 16461:1 16462:1 16463:1 16464:1 #
-0.0010761597434399566581425533584593 19:1 22:2 43:1 81:1 110:1 274:1 369:1 396:1 607:1 840:3 1094:1 1118:1 1362:1 1545:1 1546:2 1550:2 1557:1 1840:1 1916:1 1986:1 2887:1 3507:2 4006:1 4007:1 4009:1 4226:1 4476:1 4973:1 5660:1 7320:1 11632:1 11633:1 11634:1 11635:1 11636:2 11637:1 11638:1 11639:1 11640:1 11641:1 11642:1 11643:2 11644:1 11645:1 11646:1 11647:1 11648:2 11649:2 11650:1 11651:1 #
-0.0017490191121527598298868166892817 44:2 56:1 84:2 205:1 209:1 221:1 246:1 361:1 424:1 441:1 495:1 551:1 600:1 615:1 646:2 697:1 785:1 809:1 886:1 987:1 990:1 1009:1 1327:1 1411:1 1437:1 1497:1 1921:1 1927:1 1968:1 1973:2 2061:2 2127:1 2386:3 2987:2 3589:1 4523:1 4538:1 4653:2 4715:1 5125:1 6674:1 9465:1 10996:1 12643:1 12922:3 23014:2 24764:1 24765:1 24766:1 24767:3 24768:1 24769:1 24770:1 24771:1 24772:1 24773:1 24774:1 24775:1 24776:1 24777:1 24778:1 24779:1 24780:1 24781:1 #
-0.0029468786783184114201616932149363 22:1 148:2 151:1 287:1 337:1 646:2 651:4 764:1 1682:1 1741:1 1986:1 2126:1 2157:1 2287:1 2317:2 2798:1 4303:2 4781:1 5078:2 8707:1 9364:1 18827:1 #
0.0049389034675601265964028918631357 28:1 41:1 79:1 112:2 189:2 291:1 300:1 351:1 404:1 509:1 1179:2 1189:1 1243:1 1526:2 1527:1 1528:1 1529:1 1530:1 1531:1 1532:1 #
0.0049389034675601265964028918631357 3:1 32:5 44:3 53:2 72:2 135:2 142:1 223:1 289:1 317:1 376:1 393:1 404:1 409:1 429:1 503:1 515:1 641:1 740:1 747:1 791:2 813:6 906:2 1170:5 1177:1 1178:3 1179:7 1180:2 1181:4 1182:2 1183:1 1184:3 1185:1 1186:1 1187:3 1188:1 1189:3 1190:1 1191:1 1192:2 1193:2 1194:1 1195:1 1196:1 1197:1 #
-0.0049389034675601265964028918631357 20:1 32:2 72:1 244:1 249:1 404:1 503:1 594:1 595:1 615:1 1260:1 1317:1 1720:1 1830:1 2158:1 2219:1 3377:1 3539:2 7123:1 12780:1 12781:3 12782:1 12783:1 12784:1 12785:1 12786:1 #
-0.00041356539780210973622845416208804 22:2 32:1 43:2 56:1 63:2 168:1 181:1 189:1 205:1 211:1 228:1 277:1 289:1 294:1 369:2 376:3 379:1 387:1 399:2 429:2 492:4 495:1 574:1 613:1 680:2 683:1 698:1 712:1 757:1 885:1 899:1 906:3 980:1 1077:1 1189:5 1215:3 1244:1 1256:1 1350:1 1420:3 1437:1 1497:1 1520:2 1533:2 1534:1 1663:1 1866:1 1892:1 1933:3 1941:1 2144:1 2158:1 2180:1 2184:1 2281:1 2441:2 2447:1 2509:1 2541:1 2570:1 2807:1 3093:1 3407:2 3576:1 4071:1 4862:2 4989:1 5262:1 5658:2 6022:2 6058:5 6674:1 6900:1 7274:2 10964:1 11981:1 13555:1 19546:1 24483:1 24705:1 24706:1 24707:2 24708:2 24709:2 24710:1 24711:1 24712:1 24713:1 24714:1 24715:1 24716:1 24717:1 24718:1 24719:1 24720:1 24721:1 24722:1 24723:1 24724:1 24725:1 24726:1 24727:1 24728:1 24729:1 24730:1 24731:1 24732:1 24733:1 24734:1 24735:1 24736:1 24737:1 24738:1 24739:1 #
-0.0011861758661895400492058971764209 22:1 71:1 129:1 160:2 178:1 204:1 373:1 514:3 524:4 553:1 561:1 694:1 813:2 1024:1 1341:1 1715:2 2304:1 2578:1 3281:2 3754:2 3931:1 5991:2 20307:1 20308:1 20309:1 20310:1 #
-0.00034525353350317599960411785176007 22:1 289:1 369:1 396:1 399:1 406:1 749:1 954:1 1032:1 1066:1 1124:1 1189:3 1534:3 1611:1 1778:1 1830:1 1932:1 2035:1 2140:1 2441:1 2834:1 2868:1 3229:1 3832:1 4111:2 8379:1 12460:1 12461:1 12462:1 12463:1 12464:1 12465:1 12466:1 12467:1 12468:2 12469:2 12470:2 12471:1 12472:1 12473:1 12474:1 12475:1 12476:1 12477:1 12478:1 12479:1 #
-0.00011580135472689774230915793484797 20:1 44:1 72:1 109:1 429:1 650:1 696:1 813:1 863:1 949:1 1892:1 1933:2 2032:1 2305:2 2527:1 2528:1 2529:1 2530:2 2531:1 2532:1 2533:2 2534:2 2535:2 2536:1 2537:1 2538:1 2539:1 2540:1 2541:1 2542:1 2543:1 2544:1 #
0.0049389034675601265964028918631357 6:5 8:1 22:1 31:1 43:2 63:1 76:1 104:5 110:1 123:4 131:1 148:3 155:1 164:1 171:2 184:1 189:2 208:2 285:1 287:1 288:2 501:1 509:1 646:4 651:2 762:1 763:1 764:1 765:1 766:2 767:1 768:1 769:1 770:1 771:2 772:1 773:1 774:1 775:1 776:1 777:1 778:1 779:1 780:1 781:2 782:1 783:2 784:1 785:1 786:1 787:1 788:1 789:1 790:1 791:1 792:1 793:1 794:1 795:1 796:2 797:1 798:2 799:2 800:1 801:1 802:1 #
-0.0016383056958300828455377118331171 22:1 47:2 79:5 136:1 140:1 148:4 211:1 234:1 236:1 238:1 289:1 376:2 387:2 429:1 458:1 564:1 594:1 595:1 646:2 697:1 776:1 939:1 1025:1 1098:1 1172:1 1189:1 1197:1 1204:1 1244:3 1256:1 1447:1 1630:3 1631:3 1635:1 1662:1 1721:1 1947:1 1977:1 2480:1 2834:1 3865:1 4273:1 4337:1 4653:1 4659:1 5685:1 6628:1 6886:1 7010:1 10552:1 11566:1 11895:1 11981:2 13619:1 17733:1 18203:1 18271:1 18272:1 18273:1 18274:1 18275:1 18276:1 18277:1 18278:1 18279:1 18280:2 18281:1 18282:1 18283:1 18284:1 18285:1 #
-0.0026779614476579761961350101273638 6:1 22:2 254:1 327:2 352:1 379:1 423:1 426:1 431:1 512:1 829:1 1521:1 2000:1 2541:1 3457:1 6821:1 10714:1 11889:1 11890:2 11891:1 11892:1 11893:1 11894:1 11895:1 11896:2 11897:1 11898:1 11899:1 #
-0.0029621541098693677726561013230366 3:1 60:1 93:1 148:1 171:1 247:1 418:1 646:2 682:1 686:1 693:1 843:1 900:1 948:1 1197:1 1288:1 1344:1 1368:1 1447:1 1764:2 2209:1 2850:1 3519:1 3520:1 3521:1 3522:1 3523:1 3524:1 3525:1 3526:1 3527:1 3528:1 3529:1 3530:1 3531:1 3532:1 3533:1 #
-0.00052250441142880196723069508024651 6:2 33:1 43:2 109:1 110:3 113:1 120:1 140:6 148:4 209:2 271:1 327:1 361:2 376:1 423:1 500:1 509:1 592:1 613:1 651:1 773:2 791:8 843:1 885:1 910:1 1167:1 1177:1 1194:3 1197:1 1288:2 1289:1 1344:1 1483:1 1566:1 1585:1 1628:4 1983:1 2126:1 2225:1 2243:2 2295:1 2299:2 2510:2 2783:2 3124:4 3258:3 3585:1 3586:1 3902:1 3905:1 3994:1 4857:1 6123:4 6485:1 6614:1 7010:4 7752:2 8389:1 8661:1 10449:1 10723:1 11459:1 11577:2 12249:1 12285:1 12593:1 12594:1 12595:1 12596:1 12597:2 12598:1 12599:1 12600:1 12601:1 12602:4 12603:1 12604:1 12605:1 12606:1 #
0.0049389034675601265964028918631357 3:3 10:1 18:1 22:1 28:1 63:1 71:1 151:1 205:1 242:1 333:3 346:2 347:2 348:1 349:1 350:1 351:1 352:1 353:1 354:1 355:1 356:1 357:1 358:1 359:1 360:1 361:1 362:1 363:1 364:1 365:2 366:1 367:1 368:1 369:1 #
0.0049389034675601265964028918631357 8:1 390:1 493:1 494:2 558:1 818:1 871:1 1037:1 1038:1 1039:1 1040:1 #
0.0049389034675601265964028918631357 13:1 32:1 41:1 61:1 109:1 114:1 246:1 249:2 424:2 501:1 502:1 503:1 504:1 505:1 506:1 507:1 508:1 #
-0.00036781592997760812011748265959454 3:2 132:2 179:2 246:4 249:1 294:1 352:2 402:3 404:1 429:1 562:1 711:1 714:1 733:1 807:1 816:5 906:3 1364:1 1411:1 1417:2 1423:1 1934:3 2147:1 2167:1 2292:3 2527:2 3445:1 3532:1 3930:1 4115:1 4207:1 6269:3 7613:1 7856:1 8296:1 13413:2 16937:1 18211:1 20271:4 20272:3 20273:1 20274:1 20275:1 #
-0.00031937410977580875902359647255935 44:1 109:1 137:1 316:1 404:1 604:1 607:1 788:5 1292:1 1348:1 1521:1 1866:1 2672:1 3027:1 4912:1 5632:1 7305:1 11035:1 13030:1 13031:3 13032:1 13033:2 13034:2 13035:1 13036:1 13037:2 13038:2 13039:1 13040:1 13041:1 13042:1 13043:1 13044:1 #
-0.0049389034675601265964028918631357 28:1 63:2 126:1 509:1 773:1 804:1 1124:1 1595:1 3701:1 15777:1 #
-0.00022477364366358512973685657154732 3:1 4:1 5:2 18:5 22:2 66:1 104:2 213:1 257:2 277:1 348:1 443:1 503:1 551:1 558:1 562:1 697:1 755:1 804:1 1230:8 1408:1 1767:1 1784:1 2126:2 2550:2 2783:1 2990:1 4307:1 8760:2 9301:1 15798:3 15799:1 #
-0.00078960251504745914297861419939295 5:1 22:4 71:1 104:7 107:1 132:1 165:1 205:2 376:2 813:3 1270:1 1738:1 2064:2 2105:1 2522:1 2546:2 2837:1 3575:1 3994:1 4461:1 4625:1 5106:1 5693:3 5815:4 6805:1 7256:1 8155:1 11027:2 11046:3 18633:1 23325:3 25544:1 25545:1 25546:2 25547:1 25548:1 25549:1 25550:1 #
0.0049389034675601265964028918631357 4:1 10:2 30:1 170:2 200:1 328:1 791:2 950:1 1055:1 1056:1 1057:2 1058:2 1059:1 1060:1 1061:1 1062:1 #
0.0049389034675601265964028918631357 6:1 28:1 30:2 96:1 135:1 164:1 165:1 404:1 509:1 514:2 1024:1 1025:1 1026:1 1027:2 1028:1 1029:1 1030:1 1031:1 1032:1 1033:1 1034:1 1035:1 1036:1 #
0.0049389034675601265964028918631357 114:2 123:1 132:1 188:4 249:1 476:2 542:1 551:1 636:1 643:1 651:1 655:1 656:1 657:2 658:4 659:1 660:1 661:1 662:1 663:1 664:1 665:1 666:1 667:1 668:1 669:1 670:1 671:1 672:1 673:1 #
0.0049389034675601265964028918631357 8:1 22:1 28:1 41:1 60:1 188:1 204:2 415:1 443:1 656:1 790:1 871:1 916:1 1063:1 1064:1 1065:1 1066:1 1067:1 1068:1 1069:2 1070:1 1071:1 1072:1 1073:1 1074:1 1075:1 #
-0.0019329061626205733346456350219 112:1 123:2 249:2 365:1 369:1 730:1 926:1 1168:1 1539:1 1620:1 1662:1 3008:1 3537:1 4379:1 4763:1 10164:1 14127:1 14128:2 14129:1 14130:4 14131:1 14132:1 14133:1 #
-0.0012689512069619932662506434084548 6:1 33:1 53:1 66:1 135:1 254:1 257:1 396:1 523:1 740:1 1009:1 1018:1 1212:3 1340:1 1663:1 1927:1 2011:1 2115:1 2316:1 2762:2 3917:1 9506:1 14007:1 22901:1 22902:2 24258:2 24259:1 24260:1 24261:2 24262:1 24263:1 #
-0.0031074211378635664508596203603474 22:1 24:2 123:2 244:1 396:1 592:1 643:1 1365:1 1366:1 1465:1 2281:1 3587:1 4405:1 5129:1 5130:1 #
-0.002921384704435512486009329791159 6:1 10:1 109:1 171:1 271:1 354:4 361:1 369:1 443:1 459:1 501:1 582:1 749:2 755:1 939:1 1408:1 1518:1 2095:1 2344:1 2360:1 3183:2 6756:2 6950:1 7453:1 7758:1 11302:2 13536:1 15434:1 23843:2 24630:1 27638:1 27780:2 27781:1 27782:1 27783:1 27784:1 27785:1 27786:1 27787:1 27788:1 27789:1 27790:1 #
-0.00215809344053358598963798797854 13:2 22:1 79:2 169:1 394:2 801:2 1071:1 1119:1 4580:2 20059:1 20060:1 20061:1 20062:1 #
0.0049389034675601265964028918631357 30:1 104:1 123:2 337:1 476:1 823:1 824:2 825:1 826:1 #
0.0049389034675601265964028918631357 6:2 8:1 22:1 32:1 72:1 93:1 112:1 114:1 125:1 126:1 127:2 128:1 129:1 130:2 131:1 132:4 133:4 134:1 135:2 136:2 137:1 138:1 139:1 140:2 141:1 142:1 143:1 144:1 145:1 146:1 147:1 148:2 149:1 150:1 151:1 152:1 153:1 154:1 155:1 156:1 157:1 158:1 159:1 160:2 161:1 162:1 163:1 164:1 165:1 166:1 167:1 168:1 169:1 170:1 171:1 172:1 #
0.0049389034675601265964028918631357 6:3 19:1 20:1 22:1 28:1 31:1 38:1 41:1 50:5 52:1 84:1 90:1 322:1 369:2 415:1 429:1 558:1 697:2 708:2 709:2 733:1 734:1 755:2 1096:1 1205:1 1290:3 1291:3 1292:1 1293:2 1294:2 1295:1 1296:1 1297:1 1298:2 1299:1 1300:1 1301:1 1302:1 1303:1 1304:2 1305:1 1306:1 1307:1 #
-0.0018420581675710875815127343102517 5:1 22:2 24:7 27:1 28:2 30:1 32:2 41:3 44:1 56:2 61:1 79:1 90:1 135:4 168:1 171:2 205:1 209:3 254:1 286:2 288:1 289:1 320:1 429:1 507:1 509:1 549:1 576:10 594:1 595:1 604:1 613:1 643:1 656:1 772:3 791:1 902:1 924:1 926:1 990:1 1074:1 1124:1 1138:2 1428:1 1495:1 1536:1 1621:1 1973:1 2011:1 2020:1 2021:1 2024:1 2071:4 2135:1 2282:1 2299:1 2520:1 2532:1 4468:1 4709:1 4729:1 4763:1 4865:1 4970:1 6225:1 6563:2 7216:6 7502:3 8350:2 8839:3 9109:2 9680:1 10476:1 12160:1 12420:1 15953:4 22815:1 23659:1 24683:1 26311:9 26312:1 26313:1 26314:1 26315:1 26316:1 26317:1 26318:1 26319:2 26320:4 26321:1 26322:2 26323:1 26324:1 26325:1 26326:1 26327:1 26328:1 26329:1 26330:1 26331:1 26332:1 26333:1 26334:1 26335:1 #
-0.0035853097738728473796443463328387 5:2 6:3 20:1 22:1 28:2 39:1 71:1 72:1 76:1 144:2 157:2 171:1 184:1 260:2 369:1 460:1 551:1 680:2 804:1 813:2 840:2 904:1 1124:1 1163:1 1197:1 1595:1 1716:1 1803:1 1866:1 1868:1 2329:1 4172:1 4298:1 4781:1 5064:2 5219:1 6679:1 11188:1 11963:2 11965:2 11966:1 12953:1 12954:1 12955:1 12956:1 12957:1 12958:1 12959:3 12960:1 12961:1 12962:1 12963:2 12964:1 12965:1 12966:1 12967:1 12968:1 12969:1 12970:2 12971:1 12972:2 12973:1 12974:1 12975:2 12976:1 #
-0.0023337858082713319220202752291016 3:5 22:1 45:1 46:1 53:1 80:1 114:4 164:1 369:1 503:1 613:1 787:1 965:5 1130:2 1356:1 1359:1 1386:5 1871:1 1973:2 2592:1 2605:1 3444:1 5809:2 22796:1 22797:2 22798:4 22799:1 22800:1 22801:1 22802:1 22803:1 22804:1 22805:2 22806:2 22807:1 #
-0.0021388675759254974217959954785329 19:1 106:1 116:1 123:3 133:1 155:1 178:1 246:1 249:1 257:1 322:1 351:1 503:1 551:1 623:1 643:1 686:1 740:2 785:1 823:1 854:1 1400:1 1528:1 1672:1 1796:1 2021:1 2511:1 3314:1 4296:1 5166:1 6675:3 10408:1 10647:1 12378:1 12414:1 15438:1 23425:4 27065:1 27066:1 27067:1 #
0.0049389034675601265964028918631357 22:2 28:2 32:3 41:2 47:1 53:1 59:4 254:1 278:3 301:1 322:1 378:1 503:1 548:1 582:1 604:1 789:1 905:1 946:1 1318:1 1319:1 1320:2 1321:1 1322:1 1323:1 1324:1 1325:1 1326:1 1327:1 1328:2 1329:2 1330:1 1331:1 1332:1 1333:1 1334:2 1335:2 1336:1 1337:1 1338:1 1339:1 1340:1 1341:1 1342:1 1343:1 1344:1 #
-0.0049389034675601265964028918631357 8:1 22:2 28:1 47:1 79:1 93:1 289:1 319:1 715:1 773:1 906:1 926:1 1113:1 1370:1 3924:1 5419:1 9031:1 13068:1 14151:1 29039:1 29040:1 29041:1 29042:1 29043:1 #
-0.004265688429824748828522729127144 22:1 44:1 47:1 104:1 132:2 212:1 291:1 373:1 381:1 493:3 494:2 558:1 651:1 804:1 1056:1 1261:1 1317:1 3363:1 3644:1 3913:3 4653:1 6677:3 6678:1 6679:1 6680:1 #
-0.0011975547807524162570447234799076 22:1 32:1 151:2 214:1 521:1 562:1 652:2 818:4 1419:1 1977:1 2014:1 2114:2 3378:1 3762:1 5110:1 8295:1 8296:1 8297:1 8298:1 8299:1 8300:1 8301:1 8302:1 8303:2 8304:5 8305:2 8306:1 8307:1 #
-0.00076180106487609071212740996514867 22:1 109:1 317:1 325:1 389:1 536:5 558:1 1386:1 1702:1 1794:1 2331:1 2522:1 4368:1 6800:1 8705:1 9804:2 9805:1 9806:1 9807:1 9808:1 9809:1 9810:1 9811:1 #
0.0049389034675601265964028918631357 3:1 4:1 6:2 10:1 22:1 29:1 32:1 189:1 200:1 474:1 656:1 1308:1 1309:1 1310:2 1311:1 1312:1 1313:1 1314:1 1315:1 1316:1 1317:1 #
0.0049389034675601265964028918631357 6:4 18:1 22:1 41:1 60:1 61:1 109:1 110:1 111:3 112:3 113:1 114:2 115:1 116:1 117:1 118:1 119:1 120:1 121:1 122:1 123:1 124:1 #
0.0049389034675601265964028918631357 3:2 22:1 28:2 32:1 41:4 61:1 67:1 289:1 290:2 291:2 292:1 293:1 294:1 295:1 296:1 297:1 298:1 299:1 300:1 301:1 302:1 303:2 304:1 305:1 306:1 307:1 308:1 309:1 310:1 311:1 312:1 313:1 314:1 315:1 316:1 #
0.0049389034675601265964028918631357 22:1 28:3 32:1 38:1 39:1 40:1 41:2 59:1 72:1 88:2 133:1 170:1 287:1 307:1 381:1 389:1 417:1 418:1 419:1 420:2 421:1 422:1 423:4 424:6 425:1 426:1 427:1 428:1 429:1 430:1 431:1 432:1 433:1 434:1 435:1 436:1 437:1 438:1 439:1 440:1 441:1 442:1 443:1 444:1 445:1 446:1 #
0.0049389034675601265964028918631357 8:3 28:2 30:1 41:3 44:1 61:1 69:2 93:1 352:2 380:3 381:2 382:2 383:1 384:1 385:2 386:2 387:1 388:1 389:1 390:1 391:1 392:1 #
-8.9687120057479173280273743174007e-05 3:1 5:5 15:2 22:1 28:2 39:1 120:1 129:1 135:1 144:1 157:19 205:1 287:3 289:1 320:1 348:1 361:2 369:5 376:2 398:6 423:1 460:2 521:1 547:1 567:19 630:15 631:15 651:1 697:1 730:1 749:26 769:1 791:2 807:1 813:3 818:1 840:2 843:1 978:1 1336:3 1404:17 1405:2 1542:1 1550:1 1561:1 1562:1 1564:1 1567:19 1572:1 1574:1 1587:1 1612:1 1656:1 1663:1 1729:1 1741:2 1771:2 1861:1 1866:1 1929:1 1932:1 2035:1 2048:3 2243:1 2315:1 2373:1 2410:2 2493:1 2790:1 3123:1 3124:1 3137:1 3152:1 3331:2 3528:1 3586:1 3757:1 4211:1 4328:1 4424:1 4442:1 4584:1 4647:1 5460:17 5464:1 5818:2 6799:2 6862:18 7002:1 7516:1 7744:14 8473:1 8736:1 9040:1 9083:1 9478:5 10714:1 10960:5 15042:1 16887:1 17468:1 18296:2 19095:1 22898:2 24225:1 24522:19 26291:1 26893:6 26946:1 26947:38 26948:1 26949:2 26950:1 26951:1 26952:1 26953:1 26954:6 26955:6 26956:16 26957:6 26958:6 26959:6 26960:6 26961:2 26962:2 26963:2 26964:1 26965:1 26966:1 26967:1 26968:1 26969:1 26970:1 26971:1 26972:1 26973:1 26974:1 26975:1 26976:1 26977:1 26978:1 26979:1 26980:1 26981:1 26982:1 26983:36 26984:12 26985:6 26986:1 26987:1 26988:1 26989:1 26990:3 26991:2 26992:1 26993:1 26994:1 26995:1 #
-0.0049389034675601265964028918631357 3:1 5:1 41:1 44:1 61:1 277:1 390:1 429:1 503:1 504:1 1311:1 1866:1 1869:1 1873:1 1927:1 2503:2 2848:1 3157:1 3272:1 11507:2 16420:2 16421:1 16422:1 16423:1 16424:1 16425:1 #
-0.00048649314203833579715180457370138 22:2 28:3 86:5 90:1 165:2 169:2 171:1 178:3 204:2 369:1 443:1 562:1 679:1 733:4 755:3 823:1 887:1 910:4 965:2 1138:1 1232:2 1317:1 1356:1 1358:1 1387:2 1808:2 2204:7 4045:1 4541:2 10409:1 10710:5 15483:1 15484:6 15485:4 15486:4 15487:2 15488:2 15489:5 15490:1 15491:2 15492:1 15493:1 15494:1 15495:1 15496:1 15497:1 15498:1 #
-0.00036852780111910427235724641015224 22:1 45:1 46:5 171:1 301:1 323:1 369:2 432:1 459:1 512:1 712:1 733:10 746:2 749:1 811:1 906:2 909:1 910:6 984:1 1069:2 1138:1 1337:1 1386:1 1387:7 1400:1 1405:14 1544:1 1545:2 1546:2 1550:2 1561:1 1567:5 1572:5 1574:1 1580:1 1581:5 1729:2 1838:2 1840:1 2634:1 2854:1 4635:1 4935:1 7627:1 8885:1 9425:2 10165:16 13332:2 15459:2 21272:1 23393:1 25569:1 26492:1 26493:1 26494:1 26495:7 26496:2 26497:5 26498:3 26499:1 26500:2 26501:2 26502:3 26503:2 26504:2 26505:1 26506:1 26507:1 26508:1 26509:5 26510:6 26511:3 26512:3 26513:2 26514:1 26515:1 26516:1 26517:1 26518:1 26519:1 26520:1 26521:1 26522:1 26523:1 26524:1 26525:1 26526:1 26527:1 #
-0.0028797359326827899617118333708277 22:1 28:1 43:2 223:1 244:2 307:1 317:1 1422:1 2150:1 2245:1 2486:1 4498:2 7768:2 10531:1 11750:1 19335:1 19336:1 19337:1 19338:1 19339:1 #
-0.00094837603499877266670370357104503 22:2 24:1 28:8 30:3 80:3 90:1 163:1 165:7 171:2 287:1 327:2 353:1 369:2 460:5 501:1 503:1 730:5 749:2 769:1 785:1 829:1 840:2 843:1 925:2 965:3 1031:1 1197:1 1271:1 1358:1 1359:3 1372:1 1376:1 1386:3 1387:3 1392:1 1446:1 1584:1 1656:1 1998:1 2043:1 2150:1 2157:1 2204:3 2206:1 2344:2 2494:1 2838:2 2902:1 3701:1 3802:6 4122:2 4237:1 5053:1 5639:1 7446:1 7886:2 9613:1 12202:1 13974:3 15138:1 18325:1 18326:3 18327:2 18328:1 18329:1 18330:1 18331:1 18332:1 18333:1 18334:4 18335:5 18336:1 18337:1 18338:1 18339:1 18340:2 18341:2 18342:1 18343:1 18344:1 18345:1 18346:5 18347:1 #
-0.001316432267392220753846054925873 22:1 171:2 184:1 194:1 223:2 404:1 574:1 906:1 990:4 991:4 1055:1 1423:7 1916:2 1955:1 2064:1 2397:1 2418:1 2468:1 3256:1 4173:1 11593:1 11605:1 18267:1 25495:1 26306:1 26307:1 26308:1 26309:1 26310:1 #
-0.0013443536253286935116396660916394 22:1 28:3 30:1 33:1 49:1 53:1 63:1 135:1 287:4 291:1 313:1 369:4 401:1 473:3 512:1 520:3 613:1 680:1 823:1 840:2 904:1 1005:1 1047:1 1138:1 1271:1 1497:1 1871:1 1942:3 1977:1 2109:1 2150:1 2665:1 3237:1 3435:1 3476:1 3724:1 4030:6 4298:1 5064:1 6537:2 7109:1 7110:1 7111:1 7112:1 7113:1 7114:1 7115:1 7116:1 7117:1 7118:1 7119:2 7120:1 7121:1 7122:1 #
-0.0011135972485096299992857193927875 22:2 104:2 112:5 171:3 396:1 526:2 789:1 840:1 1047:2 1096:1 1621:1 1664:1 2421:2 2474:1 2887:1 3059:2 3226:2 3662:1 4113:1 5037:1 6993:1 8822:2 10725:1 10726:1 10727:2 10728:1 10729:1 10730:1 10731:1 10732:1 10733:1 10734:1 10735:2 10736:1 #
0.0049389034675601265964028918631357 3:2 5:4 6:2 8:2 28:5 32:1 39:1 41:5 84:1 109:1 181:2 188:1 249:2 320:1 322:1 373:1 416:1 576:2 682:2 693:1 777:1 914:1 915:1 916:1 917:1 918:1 919:1 920:1 921:1 922:1 923:1 924:1 925:3 926:1 927:1 928:1 929:1 930:3 931:1 932:1 933:1 934:1 935:1 936:1 937:1 938:2 939:1 940:1 941:1 #
-0.00076165804124893625101644367703102 3:1 19:1 22:1 32:2 43:3 66:1 71:3 72:1 81:1 107:1 171:1 189:2 264:1 291:1 300:7 301:1 361:1 369:1 379:3 393:1 613:1 730:1 840:1 937:1 965:2 966:3 1130:1 1180:2 1194:1 1356:2 1359:1 1386:2 1387:2 1446:1 1470:1 1530:2 1682:1 2081:1 2135:1 2170:2 2504:2 2806:1 2838:5 3354:1 3454:4 3833:1 4237:1 4241:1 4615:1 5508:1 6128:1 6129:1 6130:1 6131:1 6132:1 6226:1 6607:2 6939:1 7613:1 8315:4 9995:3 10388:1 11032:1 11514:2 14188:1 15769:2 15796:1 17241:1 17242:1 17243:1 17244:1 17245:1 17246:2 17247:1 17248:1 17249:1 17250:2 17251:1 17252:1 17253:1 17254:1 17255:1 17256:1 17257:1 17258:1 17259:1 17260:1 17261:1 #
-0.0007006826734717022317489032445792 6:2 22:1 43:5 60:1 71:1 79:1 88:1 228:1 249:1 320:2 376:2 517:1 551:1 604:1 607:1 641:1 712:1 873:1 906:1 1245:1 1348:1 1349:1 1454:1 1838:2 2138:1 2225:4 2246:1 2383:1 3229:1 3963:1 4165:5 4379:3 4405:1 4865:1 5110:1 7257:1 8248:1 12576:1 12578:1 17815:1 18617:1 18618:1 18619:1 18620:1 18621:2 18622:1 18623:1 18624:1 18625:1 18626:1 18627:1 18628:1 18629:1 18630:1 18631:2 18632:2 #
-0.00036034072703879202644039470015969 19:1 28:1 144:1 170:3 189:3 244:1 351:7 369:1 376:3 458:5 636:1 749:1 785:1 813:2 818:3 1179:1 1305:1 1314:1 1386:1 1905:1 2321:9 2441:2 3585:1 4548:1 4676:3 5639:1 5684:2 8249:1 13076:1 15518:9 15519:1 15520:1 15521:1 15522:2 15523:1 15524:1 15525:1 15526:1 15527:2 15528:1 15529:1 15530:1 15531:1 15532:4 15533:1 15534:1 15535:2 15536:1 15537:1 15538:3 15539:3 15540:3 15541:3 15542:1 15543:2 15544:3 15545:3 #
-0.00027229296155909952972112852975783 90:1 107:1 369:2 416:1 429:1 749:2 823:1 1018:2 1386:1 1405:7 1547:1 1551:3 1986:1 2954:4 3507:1 4020:1 4475:1 5543:12 8202:1 9781:1 9944:2 9948:2 13128:1 20128:1 22336:1 26379:1 27269:1 27270:1 27271:1 27272:1 27273:2 27274:2 27275:1 27276:1 27277:5 27278:1 27279:1 27280:1 27281:1 27282:1 27283:1 27284:1 27285:1 27286:1 27287:1 27288:1 27289:1 27290:1 #
-0.0004977453054072268102958620517029 22:1 28:4 43:1 47:1 104:9 142:1 146:7 170:1 171:2 200:7 244:1 249:2 282:3 369:1 439:1 485:1 523:1 653:1 665:1 873:4 1344:1 1386:2 1387:4 1718:1 1808:1 1866:4 1931:1 2042:1 2061:1 2135:4 2218:1 2285:1 2329:1 2356:3 2421:1 2638:1 2727:2 2810:3 3056:2 3660:1 4585:1 4732:1 4735:1 4864:1 5165:1 6864:1 6875:1 6914:2 8484:1 9231:2 11286:2 12422:1 19093:1 21950:1 22197:1 22198:3 22199:1 22200:1 22201:1 22202:1 22203:4 22204:2 22205:1 22206:1 22207:1 22208:1 22209:1 22210:2 22211:1 22212:1 22213:1 22214:1 22215:1 22216:1 #
0.0017503202214110291385501527727797 3:1 10:4 28:1 30:1 32:8 44:1 84:9 123:3 291:1 300:1 346:2 365:1 379:1 384:1 396:1 404:1 600:1 613:1 614:1 636:1 641:1 755:1 794:2 808:5 809:2 858:4 859:1 860:1 861:1 862:1 863:1 864:1 865:2 866:1 867:2 868:1 869:1 870:1 871:1 872:1 873:1 874:1 875:1 #
-0.0020655617261667751950737770272326 3:1 6:1 22:2 44:1 57:1 93:1 212:1 213:1 307:1 337:1 376:1 393:1 429:1 501:1 503:1 509:1 643:1 940:2 1069:1 1197:1 1400:1 1494:1 1505:1 1531:1 1663:1 2206:1 2262:1 2317:2 2399:1 2614:1 4071:1 4369:3 5026:1 5928:1 6950:1 7351:1 7352:2 7353:1 7354:1 7355:1 7356:1 7357:1 7358:1 #
-0.0017303094587932986783695987753617 22:1 30:1 43:2 116:1 132:1 249:1 316:1 396:1 402:3 604:1 658:1 813:1 816:1 939:1 1106:1 1188:1 1337:2 1340:1 1432:1 1941:2 1968:1 1997:1 2011:1 2060:1 2901:1 4300:1 12946:1 29574:1 29575:1 29576:1 29577:1 29578:1 29579:1 29580:1 29581:2 29582:1 29583:1 29584:1 #
-0.0013802464767811433322269865087151 6:1 22:1 43:3 44:1 144:1 219:1 307:2 322:2 325:1 396:1 406:1 507:1 562:1 567:1 621:1 697:1 740:1 773:1 813:2 1217:1 1337:1 1417:1 1566:1 1781:1 1789:1 1793:1 1906:2 2014:2 2170:1 2194:1 2305:1 2385:1 2530:1 2739:1 6884:1 7856:2 7880:1 10448:1 10449:1 22079:1 22080:1 22081:2 22082:1 22083:1 22084:1 22085:1 22086:1 #
-0.0049389034675601265964028918631357 41:1 104:2 137:1 244:1 404:1 772:1 949:1 1536:1 1991:1 2206:2 2527:1 2601:1 2965:2 7602:1 7603:1 7604:1 7605:1 7606:1 7607:1 7608:1 #
-0.0045368407573461791426616684930195 43:2 53:1 109:1 144:1 189:1 205:1 318:1 396:1 766:1 791:1 1061:1 2134:1 2488:1 12512:1 #
-0.00032567330359011795355705931598322 22:1 44:1 46:1 109:1 171:1 232:1 271:1 369:3 429:2 466:1 474:11 551:1 554:1 628:1 732:6 749:4 772:1 785:1 950:1 1130:1 1180:2 1356:3 1480:1 2105:1 2622:1 3920:1 4241:1 5156:1 5804:2 9022:1 11445:8 19695:5 20961:1 20962:1 20963:1 20964:1 20965:2 20966:4 20967:3 20968:3 20969:2 20970:1 20971:1 #
-0.0002600716156038799489920443352986 30:1 38:1 43:1 44:1 93:1 109:1 120:1 144:2 189:3 271:1 307:1 347:1 369:1 373:1 376:2 474:1 488:1 521:1 656:1 785:1 791:1 906:3 910:1 1138:1 1194:1 1261:1 1288:1 1340:1 1431:1 1454:1 1630:1 1631:1 2203:1 2468:1 2660:1 3093:1 3257:1 3611:1 4272:1 4292:1 4735:2 4763:1 4944:1 5357:2 5419:1 6269:1 10744:2 17354:1 17355:5 17356:1 17357:1 17358:2 17359:1 17360:1 17361:1 17362:1 17363:1 17364:1 #
-0.0025272665352411476449856486681256 3:1 6:2 18:3 22:1 24:1 28:1 39:1 43:1 53:1 57:2 71:1 88:1 109:1 123:3 135:2 140:2 205:1 244:1 246:2 249:2 257:1 282:1 325:2 334:1 337:1 352:1 376:1 466:1 485:1 542:1 643:1 730:3 740:2 813:1 840:1 1118:4 1217:1 1311:3 1356:1 1428:1 1458:1 1505:2 1715:1 1866:1 1902:1 1916:1 2225:2 2262:1 2305:1 2783:1 3028:1 3256:1 3447:1 4082:1 4625:1 6577:1 9462:1 9584:3 9810:1 10149:1 10150:1 10151:1 10152:1 10153:1 10154:1 10155:1 10156:1 10157:1 10158:1 10159:1 10160:1 10161:1 10162:1 10163:1 10164:1 10165:1 10166:1 #
-0.0011018268442375628649032570649524 22:1 28:2 40:2 46:1 165:1 171:1 228:1 369:1 373:2 423:1 460:3 1022:1 1372:1 2068:1 4075:1 4928:1 5804:1 8883:5 11810:2 12689:3 18580:1 26346:1 26347:1 26348:1 26349:1 26350:1 #
-0.00060813814662926540810516939927766 22:2 28:1 43:3 51:1 76:1 109:1 146:1 167:1 189:2 209:1 271:1 307:1 369:1 379:1 396:1 416:1 552:1 650:1 680:1 773:1 840:1 882:4 887:1 894:2 906:2 979:1 984:1 985:1 1069:1 1096:1 1168:1 1304:2 1370:2 1376:1 1437:1 1623:1 1656:1 2001:1 2287:1 2312:1 2785:1 3232:1 3242:1 3363:2 3910:1 7204:1 11593:1 13998:1 29447:5 29448:1 29449:1 29450:1 29451:1 29452:1 29453:1 29454:3 29455:1 #
-0.00056071872408953494799216388244645 16:3 20:2 22:1 28:1 44:1 46:1 82:10 112:3 165:1 171:1 275:1 369:1 429:1 501:2 554:3 558:1 715:3 730:2 840:2 870:2 966:1 984:1 993:1 995:1 1031:1 1222:1 1232:1 1271:1 1408:1 1487:2 1491:1 1767:2 1872:1 2675:2 3244:2 3462:2 3664:1 3864:1 4758:2 7455:1 7884:1 7885:1 7886:1 7914:2 7915:4 11474:1 11475:1 11476:1 11477:4 11478:1 11479:1 11480:1 11481:3 11482:1 11483:1 11484:3 11485:1 11486:1 11487:1 11488:1 11489:1 11490:2 11491:3 11492:2 11493:1 11494:1 11495:2 11496:2 11497:2 11498:2 11499:1 11500:1 #
-0.001026430714731262940075939837925 22:1 30:1 38:1 44:1 49:1 50:2 221:1 291:2 322:1 369:2 408:1 429:1 514:2 520:4 620:1 730:2 733:2 747:1 785:2 1131:1 1428:1 1801:3 2219:1 2570:1 3033:1 3274:1 3482:1 4095:1 4867:1 5678:2 5790:3 6522:2 8809:2 8835:1 11622:1 11966:1 13277:1 13657:2 17077:2 17711:1 19672:2 22225:2 25649:1 25650:1 25651:1 25652:1 25653:3 25654:1 25655:1 25656:3 25657:2 25658:1 25659:2 25660:1 25661:1 25662:1 25663:1 25664:1 #
-0.00078568715713453756051276588578958 5:3 6:1 22:1 43:1 56:1 63:1 146:3 170:3 184:1 189:1 369:2 376:2 387:3 470:1 488:1 680:1 744:3 749:1 766:5 773:1 858:1 983:2 984:2 1077:1 1109:1 1119:1 1163:1 1189:3 1244:1 1396:1 1515:1 1728:1 1972:1 2055:1 2266:1 2281:1 2428:1 3152:1 3802:3 4895:1 6473:1 8132:1 8143:1 8906:1 10384:1 12540:4 12541:2 12542:1 12543:1 12544:1 12545:1 12546:1 12547:1 12548:1 12549:2 12550:1 12551:1 12552:4 12553:4 12554:4 12555:3 #
-7.989294519943732791368573575852e-05 5:1 35:1 104:4 109:1 137:6 249:1 277:1 297:1 303:1 307:1 325:1 352:1 391:1 396:1 414:1 429:1 501:2 503:1 551:1 602:1 643:1 656:1 839:1 948:3 1106:1 1197:1 1251:1 1328:1 1330:2 1344:1 1404:1 1433:1 1682:2 2048:1 2097:1 2158:4 2175:1 2190:1 2499:1 2826:1 2995:1 3329:1 3446:1 3589:1 4647:1 4720:1 5081:1 8511:1 8683:1 9302:5 9303:1 9304:2 9305:1 9306:1 9307:1 9308:1 9309:1 9310:1 9311:1 9312:1 9313:1 9314:1 9315:1 9316:1 9317:1 9318:1 9319:1 9320:1 9321:1 9322:1 9323:1 9324:1 #
-0.00039108516172598666114229581936002 15:1 22:2 40:2 43:4 53:1 57:1 76:1 77:1 90:1 116:1 135:3 140:6 148:6 242:2 335:1 369:3 509:1 683:1 785:2 791:2 843:7 892:1 1185:1 1288:1 1447:2 1454:3 1627:1 1642:1 1877:2 2159:1 2479:1 2542:1 3038:1 3274:1 3291:1 3383:1 3515:2 4192:1 4262:1 4440:2 4887:1 5062:1 6354:1 6749:1 6786:1 7705:2 9904:3 16557:1 17641:1 20409:1 20410:1 20411:1 20412:1 20413:1 20414:1 20415:4 20416:1 20417:2 20418:1 20419:1 20420:1 20421:1 20422:4 20423:1 20424:1 20425:5 20426:2 20427:1 20428:1 20429:1 20430:1 20431:3 20432:1 20433:1 20434:1 20435:1 20436:1 20437:1 20438:1 20439:1 20440:1 #
-0.0003662443073058879836230439241973 22:2 71:1 111:1 132:3 169:2 170:2 171:1 175:1 317:1 369:3 376:1 423:1 473:1 488:1 509:1 512:1 514:1 829:1 980:1 1002:1 1108:1 1197:1 1243:1 1376:1 1411:1 1460:1 1621:1 2068:3 2475:2 3146:1 3168:1 4354:1 4754:1 5700:1 5712:2 7573:1 9605:1 12298:1 12933:2 15930:1 15931:1 15932:2 15933:3 15934:1 15935:1 15936:1 15937:1 15938:1 15939:1 15940:1 15941:1 15942:1 15943:1 15944:1 15945:1 15946:1 15947:1 15948:1 15949:1 15950:1 15951:1 15952:1 15953:1 15954:1 #
-0.00071658014137630690176122838508377 3:1 28:1 30:1 43:4 63:2 109:1 155:1 167:1 171:1 184:1 284:1 369:2 408:1 423:1 550:1 656:1 777:1 840:1 906:1 984:1 1013:1 1069:1 1118:1 1153:1 1177:1 1271:3 1428:1 1458:1 1487:1 1756:2 1871:1 2011:1 2441:1 2488:1 2495:1 3613:1 3647:1 4868:1 4869:3 4870:2 4871:1 4872:3 4873:1 4874:2 4875:1 4876:1 4877:1 4878:1 4879:1 4880:1 4881:1 4882:1 4883:1 4884:1 4885:1 4886:1 4887:1 4888:1 #
-0.00054325423519285321628802254423363 22:2 107:1 139:1 369:2 466:1 607:1 749:3 886:1 1405:9 1420:1 1551:4 1675:3 1681:2 1682:1 1729:1 1804:1 1807:1 1933:1 2237:1 2246:1 2373:2 2843:2 4020:1 4025:1 4637:1 5065:1 5076:1 5240:1 5341:1 8308:1 8726:2 8739:2 9301:3 9425:3 9431:2 12090:1 12091:1 12092:1 12093:1 12094:1 12095:1 12096:1 12097:1 12098:3 12099:1 12100:1 12101:1 12102:1 12103:1 12104:1 12105:1 12106:1 12107:1 12108:2 12109:1 12110:1 12111:1 12112:1 12113:1 12114:1 12115:1 12116:1 12117:3 12118:3 12119:1 12120:1 12121:1 12122:1 12123:1 12124:2 12125:1 12126:1 12127:1 12128:1 12129:1 12130:1 12131:1 #
-0.0022558300377783476256543515603425 22:2 28:1 79:1 170:1 171:1 187:1 289:1 300:4 318:1 348:1 376:1 387:1 402:1 607:1 613:1 656:1 818:1 1049:1 2100:1 2144:1 2547:2 2573:1 3229:1 3528:1 4665:1 4720:1 6091:1 9231:1 10733:1 12143:1 16776:1 16777:1 16778:1 16779:1 16780:1 16781:2 16782:1 16783:1 16784:1 #
-0.00135939664585833178828133682714 19:1 22:1 30:1 104:2 337:1 393:1 811:1 829:1 873:1 1417:3 2386:2 2925:1 3591:1 3996:1 16595:2 18673:3 18674:2 18675:2 18676:1 18677:1 18678:1 18679:1 18680:1 #
-0.00015548910480322897654896496799637 22:1 104:1 107:1 142:2 271:1 369:1 398:4 420:1 423:1 459:1 466:1 503:1 521:1 567:1 749:14 772:1 788:1 821:1 851:2 1010:1 1118:4 1167:1 1222:2 1256:1 1376:1 1767:1 2207:2 2535:2 2661:2 2837:1 3067:2 3359:1 3647:1 4858:1 7952:1 14452:1 15981:1 20394:1 20553:1 29224:2 29225:1 29226:1 29227:1 29228:1 29229:1 29230:1 29231:1 29232:2 29233:1 29234:1 #
-0.0011353366911773790301487530030045 112:3 167:1 322:1 431:1 785:1 944:1 1256:1 1408:1 1519:1 1776:2 1991:1 2032:1 2103:1 2509:1 2852:1 2940:1 3232:1 3452:2 4722:1 4734:1 4742:1 6945:1 8285:1 8751:2 9621:1 10200:1 24316:1 26005:2 29188:1 29189:2 29190:2 29191:1 #
-0.0049389034675601265964028918631357 22:1 28:1 404:1 423:1 813:1 2173:1 2259:1 2317:1 3281:1 5013:1 5014:1 5015:2 #
-0.00044837717092604335899011513966173 3:1 204:2 264:3 282:2 297:1 361:1 373:1 501:1 558:1 907:1 912:4 921:1 1364:2 1654:2 2047:1 2507:1 3054:1 3373:1 4304:1 6749:1 9403:1 19261:4 19262:2 19263:1 19264:1 19265:1 19266:1 #
-0.0010236624684382118841835529465811 3:1 22:1 43:2 132:1 257:1 271:2 319:1 324:2 376:2 429:1 567:1 614:1 615:1 631:2 785:1 788:1 789:1 825:1 986:1 1131:1 1153:1 1336:1 1337:3 1640:2 1682:1 1861:1 2050:1 2158:1 2292:1 2308:3 3228:1 3460:1 6491:1 7024:1 7474:1 9113:1 12387:1 13063:1 13064:1 13065:1 13066:1 #
-0.00065627147964471689405019372287597 3:1 45:1 165:1 291:1 323:1 423:1 512:1 615:1 697:1 1807:1 1914:1 3611:1 14314:1 16966:2 27708:1 27709:1 27710:1 27711:1 27712:1 #
-0.00022489090246992625996350079198294 111:1 132:1 369:2 376:1 396:1 438:1 501:1 542:1 613:1 643:1 766:1 791:1 813:2 1044:1 1405:2 1431:1 2068:1 3144:1 5141:1 5257:1 5639:6 5939:3 8841:1 9663:1 10359:2 10360:1 10361:1 10362:6 10363:4 10364:1 10365:1 10366:1 #
-0.00075341147382909927528171767363574 25:1 61:1 69:1 179:1 189:1 440:1 604:1 1049:2 1061:1 1069:1 1259:1 1830:1 2156:1 2211:1 2421:1 6869:1 7059:1 11659:1 12257:1 23992:1 23993:1 23994:1 23995:1 23996:1 23997:1 23998:1 23999:1 24000:1 24001:1 24002:1 24003:1 24004:1 24005:1 #
-0.0039878896094227428426037818098848 22:1 28:1 135:1 282:1 466:1 552:1 709:1 840:1 891:1 1047:1 1702:1 2327:1 2348:1 4760:2 4761:1 4762:1 #
-0.00099341883107732027909098082574246 28:1 71:1 146:1 171:1 361:1 369:1 404:1 440:1 562:1 740:2 987:1 1249:2 1797:1 1979:1 2592:1 2827:3 3256:2 3386:2 3701:1 5078:3 7397:1 7398:3 7399:2 7400:1 7401:1 7402:1 7403:1 7404:1 #
-0.0016157123857876978453851357642179 6:1 22:1 53:1 117:1 189:2 369:2 423:1 512:1 562:1 564:1 886:1 915:1 939:1 949:1 956:1 980:1 1106:1 1202:1 1533:2 1628:1 1787:1 2143:1 2152:1 2246:1 2981:1 3647:1 3829:1 3830:1 3831:3 3832:1 3833:1 3834:1 3835:1 3836:1 3837:1 #
-0.00017689469063113342226292723502468 18:1 22:1 28:2 72:1 189:3 369:3 376:1 387:3 398:1 576:2 682:4 749:1 810:2 978:1 1077:2 1109:2 1134:2 1189:5 1350:1 1400:1 1979:1 2266:2 2267:1 2423:1 2441:2 2446:1 2705:1 2834:2 3383:1 3818:1 3973:1 4191:1 4973:2 5428:2 5817:3 6017:1 6018:5 6019:17 6020:2 6021:2 6022:14 6023:1 6024:4 6025:1 6026:1 6027:1 6028:1 6029:1 6030:1 6031:1 6032:1 6033:1 6034:1 6035:1 6036:1 6037:1 6038:1 6039:1 6040:1 6041:1 6042:1 6043:1 6044:1 6045:1 6046:1 6047:1 6048:1 6049:1 6050:1 6051:1 6052:2 6053:1 6054:1 6055:1 6056:1 6057:1 6058:1 6059:1 6060:1 6061:1 6062:1 6063:1 6064:1 6065:1 6066:1 6067:1 6068:1 6069:1 6070:1 6071:1 6072:1 6073:1 6074:1 6075:1 6076:1 6077:1 6078:1 6079:1 6080:1 6081:1 6082:1 6083:1 6084:1 6085:1 6086:1 6087:1 6088:1 6089:1 6090:1 6091:2 6092:1 6093:1 6094:1 6095:1 6096:1 6097:1 6098:1 6099:1 6100:1 6101:1 6102:1 6103:1 6104:1 6105:13 6106:13 6107:1 6108:3 6109:3 6110:1 6111:1 6112:1 6113:1 6114:1 6115:1 6116:1 6117:3 6118:1 6119:1 6120:1 6121:1 6122:1 6123:1 #
-0.00051409647625341367820767102259083 5:1 12:1 22:1 43:3 45:1 52:2 57:1 84:1 107:1 136:4 140:2 144:1 148:7 170:1 171:1 234:4 238:4 258:1 327:2 348:1 369:1 387:1 397:1 429:2 488:1 536:2 551:1 562:2 564:1 640:1 646:6 671:1 680:1 715:10 749:2 767:1 772:1 813:2 840:1 854:1 891:1 901:1 1009:1 1037:1 1045:4 1069:1 1104:1 1107:1 1130:1 1215:1 1305:1 1337:6 1370:6 1404:1 1405:3 1408:1 1451:1 1534:1 1635:4 1682:6 1738:1 1805:1 2011:1 2021:1 2060:1 2190:1 2281:1 2305:3 2385:1 2412:1 2447:2 2527:1 2785:1 3057:1 3297:1 3710:2 4113:1 4203:2 4294:1 4502:4 4538:1 4652:1 4936:3 5684:1 6879:1 8375:2 9478:2 10960:2 13404:1 13405:1 13406:1 13407:1 13408:4 13409:1 13410:1 13411:1 13412:1 13413:1 13414:1 13415:1 13416:1 13417:1 13418:1 13419:2 13420:1 13421:2 13422:1 13423:2 13424:2 13425:1 13426:1 13427:1 13428:1 13429:1 13430:2 13431:1 13432:1 13433:1 13434:2 13435:1 13436:1 13437:1 13438:1 13439:1 13440:1 13441:1 13442:1 13443:1 13444:1 13445:1 13446:1 13447:1 13448:1 13449:2 13450:1 13451:2 13452:1 13453:1 13454:2 13455:1 13456:1 13457:1 13458:1 13459:1 13460:1 13461:1 13462:1 13463:1 13464:1 13465:4 13466:1 13467:1 13468:1 13469:1 13470:3 13471:1 13472:1 #
-0.002010947707898862266834294487694 22:1 112:2 223:1 322:1 328:2 365:1 746:1 886:1 905:1 1239:1 1366:2 1497:1 2207:1 2441:1 2481:1 3027:1 5026:1 5085:1 5122:1 5803:1 5923:1 6269:1 8721:1 17712:1 19810:1 24324:1 24325:1 24326:1 #
-0.0019350236182624702078319822717845 3:1 68:1 86:1 169:1 361:1 740:1 990:3 991:1 1212:2 1386:1 1548:1 1830:1 2383:1 2990:1 4159:1 8907:3 17864:1 24267:1 24268:1 24269:1 #
-0.00096785018912983844345532258302001 19:1 46:1 79:1 109:1 132:2 200:1 322:1 391:1 429:1 437:2 514:1 526:1 785:1 1016:1 1411:1 1480:1 1725:1 1807:1 2035:1 2068:2 2071:1 2413:1 3754:1 7573:2 11020:2 12933:1 14357:1 17734:1 17735:1 17736:1 17737:2 17738:1 17739:1 17740:1 #
-0.0049389034675601265964028918631357 50:1 155:1 1621:1 2963:1 2964:1 #
-0.00060784908286692614434731929407008 16:1 32:1 47:1 254:2 257:1 307:1 369:1 423:1 459:1 552:1 558:1 604:2 690:1 843:1 901:1 939:1 1047:1 1055:1 1096:1 1131:1 1172:1 1194:1 1212:1 1304:1 1317:1 1344:1 1348:2 1489:1 1738:1 1803:1 2030:4 2064:2 2243:1 2305:1 2343:1 2421:1 2546:1 2564:1 2764:1 2902:2 4581:1 4582:1 4583:1 4584:1 4585:1 4586:1 4587:1 4588:2 4589:2 4590:1 4591:1 4592:1 4593:1 4594:1 4595:1 4596:1 4597:1 4598:1 4599:1 4600:1 4601:1 4602:1 4603:1 4604:1 4605:1 4606:1 4607:1 4608:1 #
-0.00054758371138372615577472046766161 30:1 90:1 104:1 170:1 171:1 369:1 404:1 459:1 530:2 562:1 749:3 1665:1 1797:1 2057:1 2999:1 3030:1 4716:1 4808:1 5543:1 6475:2 7084:1 12483:1 16225:1 19509:1 19510:2 19511:1 19512:1 19513:1 19514:1 19515:1 19516:1 19517:1 19518:1 19519:1 #
-0.00027532337553138409901379302091584 24:1 170:1 284:2 322:1 361:1 396:1 440:2 443:1 492:1 547:3 615:1 809:1 987:1 1168:1 1170:1 1177:1 1180:1 1356:1 1386:1 1437:1 1480:3 1725:3 1768:2 1808:4 1973:1 2514:1 2802:1 2803:1 2804:1 2805:1 2806:2 2807:1 2808:1 2809:1 2810:1 2811:1 2812:1 2813:1 2814:1 2815:1 2816:1 2817:1 2818:1 #
-0.00099846239224111099294645121915437 3:1 109:1 142:1 189:1 379:2 431:1 492:1 640:2 815:1 1256:1 1411:1 1497:1 2807:1 3297:1 4516:1 5588:1 6899:1 19766:1 19911:1 19912:1 #
-0.00064992321735320515447426048538659 52:3 66:1 109:1 116:1 136:2 234:2 236:2 238:2 256:2 257:2 258:2 354:1 569:2 582:1 887:1 915:1 985:1 1417:1 1635:2 2141:1 2156:1 2537:1 2864:1 3311:1 13652:1 13653:1 13654:1 13655:1 13656:1 #
-0.0010685533208257148168884853589589 5:1 28:1 71:1 170:1 211:1 287:1 297:1 325:1 352:1 636:1 755:1 810:1 831:3 906:1 946:1 1232:1 1337:1 1480:1 1533:1 1629:1 1663:1 1682:1 1861:1 1892:1 1964:1 2601:1 2602:1 2916:1 2965:1 3075:1 4333:1 4334:2 4335:1 4336:1 4337:1 4338:1 4339:1 4340:1 #
-0.0010075408505481866974079485643756 44:1 85:1 91:1 144:1 200:1 287:1 317:1 347:4 387:1 399:1 458:1 553:1 562:1 671:1 783:1 785:1 1049:2 1177:2 1215:3 1226:1 1244:1 1404:1 1658:1 1952:1 2246:1 2522:1 2547:1 2807:1 2837:1 13714:2 18381:1 18382:1 18383:1 #
-0.0012025443639959378268333711758942 80:1 123:1 155:1 337:3 369:1 488:1 680:1 909:1 1177:1 1365:1 1534:1 4172:1 4528:1 4529:1 4530:1 4531:1 4532:1 4533:1 4534:1 4535:1 4536:1 4537:1 4538:1 4539:1 4540:1 4541:1 4542:1 #
-0.0003601426291125140724189157559465 3:1 22:1 44:1 94:1 104:2 169:1 352:2 429:1 466:1 551:1 1136:1 1168:1 1480:1 1744:1 1793:1 2030:1 2126:2 2257:1 2385:2 3575:1 4210:1 4211:2 4212:1 4213:2 4214:1 4215:1 4216:1 4217:1 4218:1 4219:1 4220:1 4221:2 4222:1 4223:1 4224:1 4225:1 4226:1 4227:1 4228:1 #
-0.00070680003468783642039952042068762 28:1 212:1 249:1 287:1 576:2 594:2 595:2 665:1 804:1 1049:1 1809:2 1810:2 2031:1 2461:1 2462:1 3291:1 3881:1 4226:1 4713:2 5025:1 5166:1 7690:1 7691:1 7692:1 7693:1 7694:1 7695:1 7696:1 #
-4.4335259996893177454526518976863e-05 5:1 15:1 22:1 46:2 72:43 135:1 165:8 171:1 287:1 327:2 369:3 376:1 393:1 429:1 459:1 460:7 466:1 488:1 503:1 530:5 536:1 556:1 567:1 607:2 749:2 818:1 910:2 1138:1 1270:1 1387:1 1392:43 1408:2 1491:2 1557:1 1632:2 1681:7 1682:1 1793:1 1854:1 1916:1 1972:2 1977:1 2048:3 2064:2 2095:5 2292:2 2303:1 2386:1 2393:1 2399:1 2410:1 2423:2 2441:1 2684:2 3331:1 3736:3 4318:1 4323:1 4347:2 4389:1 4411:2 4412:4 4541:1 4795:1 5467:2 5472:1 6485:1 6756:1 6929:3 6930:1 6932:1 6933:1 7090:1 7092:1 7093:1 7097:2 8825:1 11042:1 11302:2 11911:1 15914:2 17326:1 17725:2 19729:2 20138:2 21044:2 23161:1 23162:1 23163:1 23164:1 23165:1 23166:1 23167:1 23168:1 23169:1 23170:1 23171:1 23172:1 23173:1 23174:1 23175:1 23176:1 23177:1 23178:1 23179:1 23180:1 23181:1 23182:1 23183:1 23184:1 23185:1 23186:1 23187:1 23188:1 23189:1 23190:6 23191:3 23192:1 23193:1 23194:1 23195:1 23196:1 23197:1 23198:1 23199:1 23200:1 23201:1 23202:1 23203:1 23204:1 23205:1 23206:1 23207:1 23208:1 23209:1 23210:1 23211:1 23212:1 23213:1 23214:1 23215:1 23216:1 23217:1 23218:1 23219:1 23220:1 23221:1 23222:1 23223:1 23224:1 23225:1 23226:1 23227:1 23228:1 23229:2 23230:1 23231:1 23232:1 23233:1 23234:1 23235:1 23236:1 23237:1 23238:1 23239:1 23240:43 23241:2 23242:35 23243:2 23244:2 23245:2 23246:2 23247:2 23248:2 23249:2 23250:2 23251:2 23252:2 23253:2 23254:1 23255:1 23256:1 23257:1 23258:1 23259:1 23260:1 23261:1 23262:1 23263:1 23264:1 23265:2 23266:1 23267:1 23268:1 23269:2 23270:1 23271:1 23272:1 23273:1 23274:1 23275:1 23276:1 23277:1 23278:1 23279:1 23280:1 23281:1 23282:1 23283:1 23284:1 23285:1 23286:1 23287:1 #
-0.00037760890171301467448800037729484 39:1 70:1 72:1 88:1 146:1 227:1 291:1 404:1 449:2 503:1 633:1 785:1 829:1 1015:1 1107:1 1204:1 1209:1 1330:1 1953:1 2090:2 2138:1 2285:1 2295:1 2660:1 2864:1 3037:1 3758:2 6281:1 7697:1 9685:1 10999:3 11618:1 11619:1 11620:2 11621:1 11622:1 11623:1 11624:1 #
-0.00046773655937896855584734456812157 3:1 42:1 44:1 140:2 148:5 169:1 223:1 244:2 260:2 287:3 307:1 391:1 396:1 414:1 423:1 429:1 530:1 565:1 582:1 696:1 804:2 833:1 887:1 910:2 914:2 941:1 946:1 1261:1 1330:1 1341:1 1410:1 1488:1 1642:2 1656:5 1808:1 1896:1 2030:1 2048:1 2126:1 2262:1 2290:1 2326:1 2343:2 2441:1 2601:1 2834:1 3006:1 3238:2 3549:1 3553:1 3554:1 3701:1 3717:6 3823:2 4120:1 4408:1 4521:1 4716:2 4781:1 4842:2 5411:2 6269:2 7078:1 7437:1 7512:1 7613:1 7905:1 7952:3 8169:1 8231:1 8695:2 8980:1 9614:1 11477:3 12155:2 12160:2 13064:2 13350:1 15251:1 16325:1 20079:1 23409:1 26775:1 27112:3 27439:1 29373:2 29374:2 29375:1 29376:1 29377:2 29378:1 29379:1 29380:1 29381:2 29382:1 29383:1 29384:1 29385:1 29386:1 29387:1 29388:1 29389:1 29390:1 29391:1 29392:1 29393:1 29394:1 29395:2 29396:1 29397:1 29398:1 29399:1 29400:1 29401:1 29402:1 29403:1 29404:1 29405:1 29406:1 29407:1 29408:1 29409:1 29410:4 29411:1 29412:1 29413:1 29414:2 29415:2 29416:1 29417:1 29418:2 29419:1 29420:1 #
-0.0005536603752224647338742169466741 22:2 25:2 30:1 32:1 44:2 69:1 151:1 169:1 179:1 211:1 254:2 280:1 337:1 369:1 396:1 423:2 488:1 506:1 512:2 562:2 613:1 623:2 641:1 646:2 679:1 697:1 809:2 953:1 1096:2 1138:1 1197:1 1419:1 1423:1 1640:2 1659:1 1668:1 1767:2 1784:1 1786:1 2003:1 2057:2 2058:3 2095:1 2212:2 2307:1 2484:1 2546:1 2562:1 2954:1 3334:1 3457:1 3619:1 4027:5 4468:1 4858:1 5179:3 5428:2 5543:1 7729:2 9301:1 9945:1 11507:1 11927:1 12845:1 14104:1 19004:1 20155:1 20156:1 20157:1 20158:2 20282:1 20283:3 21323:1 22045:1 22046:1 22047:1 22048:1 22049:3 22050:2 22051:3 22052:1 22053:2 22054:1 22055:2 22056:1 22057:1 22058:1 22059:1 22060:2 22061:1 22062:1 22063:1 22064:1 22065:2 22066:2 22067:1 22068:1 #
-0.00093619486925392936347428696208794 22:2 68:1 86:1 90:1 116:1 140:2 148:4 209:1 271:1 369:4 562:1 1041:1 1096:1 1392:3 1728:1 1986:1 2057:4 2092:2 2095:1 2100:1 2200:1 3009:1 3123:1 3862:1 4472:1 5240:1 7752:2 10658:2 17014:2 19913:1 23449:2 23450:1 23451:2 23452:1 23453:2 23454:2 23455:2 23456:1 #
-0.0010774227564074876153932258660006 5:2 24:1 136:1 148:2 228:1 234:1 236:1 238:1 256:1 257:1 258:1 319:1 431:1 569:1 643:1 646:2 647:1 767:1 843:1 926:1 1002:1 1395:1 1635:1 1718:1 2048:1 3361:1 3662:1 3701:1 4978:1 7963:1 8453:2 12901:1 21490:1 21491:1 21492:2 21493:1 21494:1 21495:1 21496:1 #
-0.00010931711837910570940448490295793 22:1 66:1 68:1 136:2 140:2 148:2 169:1 171:3 234:2 236:2 238:2 254:1 256:2 257:3 258:2 361:1 369:1 475:4 488:1 503:1 569:2 607:2 613:1 741:1 749:13 831:11 912:1 1069:1 1096:1 1113:1 1192:1 1386:3 1405:11 1417:1 1551:9 1635:2 1675:6 1681:6 1682:1 1689:4 1767:1 2031:1 2126:3 2289:1 2367:3 2372:1 3334:2 3647:1 3983:1 4020:1 4025:1 4318:1 4339:2 5428:1 6868:2 6925:1 7009:1 7547:1 7628:1 7729:1 9485:2 9492:2 10640:1 11927:1 13108:2 16968:1 16969:1 16970:1 16971:1 16972:1 16973:1 16974:2 16975:2 16976:1 16977:1 16978:3 16979:2 16980:3 16981:2 16982:1 16983:2 16984:1 16985:2 16986:1 16987:2 16988:1 16989:4 16990:2 16991:1 16992:1 16993:1 16994:2 16995:1 16996:1 16997:1 16998:1 16999:1 17000:1 17001:1 17002:1 17003:1 17004:1 17005:1 17006:1 17007:1 17008:1 17009:2 17010:1 17011:1 17012:3 17013:1 17014:2 17015:1 17016:1 17017:1 #
-5.6764852408693313649649947461029e-05 22:1 30:5 157:14 179:1 321:2 361:14 369:6 404:1 521:2 652:1 939:1 1069:1 1270:8 1663:8 2098:3 2826:2 3060:2 3124:1 3383:1 3721:7 3776:3 4075:2 4436:1 5149:1 6954:3 7256:4 10442:1 11766:2 13095:1 20874:1 23241:2 28429:1 28430:1 28431:10 28432:8 28433:6 28434:10 28435:1 28436:1 28437:1 28438:1 28439:1 28440:2 28441:1 28442:2 28443:1 28444:1 #
-0.00090568066449413741052926196672956 22:1 44:3 45:1 46:2 135:1 136:4 160:1 194:2 283:1 414:1 501:1 576:2 602:1 646:2 682:1 785:1 1094:1 1261:1 1311:1 1317:1 1356:1 1645:1 1646:1 1796:1 1840:1 1927:1 1955:2 2011:1 2021:1 2103:1 2523:1 3444:1 4082:1 4764:2 4861:1 4862:1 5306:2 5307:1 5308:1 5309:2 5310:1 5311:1 5312:1 5313:1 5314:1 5315:1 5316:1 5317:1 5318:1 5319:1 5320:1 5321:1 5322:1 5323:1 5324:1 5325:1 5326:1 5327:1 5328:1 5329:1 #
-0.0011655062492772249108097248893046 5:2 6:1 22:1 43:2 53:1 351:1 369:2 488:1 501:1 643:1 646:2 697:1 749:1 773:1 785:1 787:1 791:2 1050:1 1363:1 1364:2 1634:1 1728:1 1763:2 1822:1 1886:2 1912:1 2025:1 2190:1 2206:1 2622:1 3551:1 4277:2 4341:1 5181:1 12850:1 13067:1 13068:1 13069:1 13070:1 13071:1 13072:1 13073:1 13074:1 13075:1 13076:1 13077:1 13078:1 13079:1 13080:1 13081:1 13082:1 13083:1 #
-0.00035502119809218616978963023456117 5:3 22:1 28:1 44:2 71:6 104:2 137:1 165:2 200:1 322:1 323:3 414:1 558:2 562:1 592:1 760:1 887:1 1016:1 1212:2 1219:1 1328:1 1454:1 1656:1 2030:1 2064:1 2097:1 2278:1 2309:1 2426:1 2499:1 2564:1 2624:1 2884:2 3258:1 3492:1 3949:1 3956:1 3957:1 3958:2 3959:1 3960:1 3961:1 3962:1 3963:1 3964:1 3965:1 3966:1 3967:2 3968:1 3969:2 3970:1 3971:2 3972:1 3973:5 3974:1 3975:1 3976:1 3977:1 3978:1 3979:1 3980:1 3981:1 3982:1 3983:1 3984:1 3985:1 3986:1 3987:1 #
-0.0009868976347204140662366933511862 5:2 22:1 33:1 68:1 107:1 132:2 140:2 148:1 219:2 376:1 391:2 402:2 562:2 607:1 789:2 818:1 1226:2 1232:3 1497:1 1767:3 2048:1 2097:1 2343:2 2361:1 2441:1 3009:1 6485:1 6944:1 8361:1 11721:3 12446:1 16804:2 20346:1 23801:2 23802:1 23803:1 23804:1 #
-0.001991203493295715023364556017782 22:1 249:3 361:1 369:2 373:1 396:1 404:1 409:1 501:1 614:1 641:2 749:4 953:1 1161:1 1364:1 1621:1 2366:1 3383:1 3862:1 4587:1 9387:1 11651:1 15913:1 19170:1 19171:1 19172:1 19173:2 19174:1 19175:1 #
-1.0245446534031285812328324058562e-05 3:3 5:4 25:1 44:3 45:1 53:1 71:1 85:1 104:1 109:1 137:1 164:2 165:1 167:2 171:1 189:1 202:1 246:1 323:1 325:2 384:1 474:2 485:1 503:3 592:1 671:1 697:1 740:1 785:1 807:1 907:1 937:1 940:1 1172:1 1292:1 1400:1 1497:1 1715:5 1745:1 1786:2 1790:5 1793:1 2138:1 2284:3 2303:2 2541:5 2546:1 2625:1 2669:1 3057:1 3580:1 3930:2 3949:1 4033:1 4357:1 5308:1 6181:1 6598:1 6837:1 8695:1 9989:1 9991:1 12648:1 18247:6 18248:2 18249:2 18250:1 18251:1 18252:2 18253:1 18254:1 18255:1 #
-0.0036066727688275129412587283184166 22:1 66:1 104:6 376:2 568:1 615:2 829:1 2836:1 3949:2 9302:1 #
-0.001359186661735285132218686854344 22:1 45:1 71:2 200:2 249:1 369:1 551:1 669:1 777:1 785:1 990:4 991:4 1197:1 1447:1 1539:1 1705:1 1866:1 2581:1 3949:1 4211:1 18239:1 18240:2 18241:2 18242:1 18243:1 18244:1 #
-0.00015127616511363505122020334248134 22:1 30:1 116:1 121:1 140:1 146:3 148:1 223:1 361:1 369:3 376:1 396:7 488:1 501:2 567:7 749:3 818:1 1013:1 1136:2 1226:1 1392:1 1400:1 1505:4 1562:1 1654:1 1663:2 1682:1 2095:4 2247:3 2448:1 2455:3 2494:3 2564:1 2661:3 3030:1 3507:4 4408:1 4887:2 5428:1 5508:1 7597:3 9146:1 11409:2 13630:1 19810:1 23310:3 26488:1 29672:1 29749:1 29750:5 29751:3 29752:1 29753:2 29754:1 29755:1 29756:1 29757:2 29758:2 29759:2 29760:2 29761:2 29762:3 29763:1 29764:5 29765:1 29766:1 29767:1 29768:1 29769:1 29770:1 29771:1 29772:1 29773:1 29774:1 29775:1 29776:2 29777:1 29778:1 29779:1 29780:1 29781:1 29782:1 29783:1 29784:1 29785:1 #
-0.00041810550269192806429122133415888 3:1 22:1 27:1 29:1 43:4 44:1 46:2 96:1 132:1 155:1 167:1 171:1 189:1 223:1 228:1 287:1 322:2 361:4 369:1 396:2 439:1 443:1 488:1 501:1 552:1 698:1 763:1 840:2 965:1 1092:2 1122:1 1136:1 1168:1 1245:1 1327:1 1446:1 1533:1 1536:1 1645:1 1807:2 1840:2 1869:2 2011:1 2138:1 2170:1 2173:1 2442:1 2508:1 2509:1 2602:1 2834:1 3009:1 3032:1 3232:1 4197:1 5026:1 5286:1 5639:1 6767:1 10016:1 10805:1 21758:1 22598:1 22599:1 22600:1 22601:1 22602:1 22603:1 22604:2 22605:1 22606:1 22607:1 22608:2 22609:2 22610:1 #
-0.0011463979343156163650391254904548 22:1 44:1 104:1 140:2 148:1 171:1 228:1 257:2 287:2 322:1 567:2 604:2 607:3 647:2 680:1 987:1 1304:1 1344:1 1348:2 1349:2 1640:2 1796:1 2954:1 4769:1 4935:1 5252:1 11295:1 12297:1 16597:1 19654:1 21188:1 21189:1 21190:2 21191:2 21192:1 21193:2 21194:2 21195:1 21196:1 #
-0.00077067538631173570975313458220057 22:1 30:2 33:1 90:1 194:1 322:1 369:1 376:2 387:1 396:1 429:1 576:2 680:1 712:1 785:1 813:1 885:1 893:1 979:4 984:1 1040:1 1096:1 1177:1 1336:3 1342:1 1790:1 1791:1 1955:1 2246:1 2321:1 2790:1 3060:1 3131:1 3359:1 3674:1 4436:1 4896:1 5920:1 5921:1 5922:1 5923:2 5924:1 5925:1 5926:1 5927:1 5928:1 5929:1 5930:1 5931:1 #
-0.0015858830714852094161126938587358 63:2 72:1 167:1 264:1 395:1 740:1 1050:1 1530:3 1664:1 1790:2 3383:1 13336:1 13337:1 13338:1 13339:1 #
-0.00015357343970022035431130524862908 22:4 32:1 71:1 72:1 140:2 148:2 151:1 211:1 221:2 228:1 369:1 429:3 443:1 486:2 562:3 697:2 887:1 939:2 1006:1 1096:1 1215:1 1220:1 1230:9 1350:1 1417:13 1908:5 1953:1 1977:1 2081:5 2503:1 2669:1 2982:1 3274:1 3407:1 3445:1 3603:3 4191:1 4258:1 4609:1 6130:1 7001:1 9596:1 10152:1 13405:1 14312:2 14313:1 14314:1 14315:2 14316:1 14317:3 14318:1 14319:1 14320:1 14321:1 14322:1 14323:1 14324:1 14325:1 14326:3 14327:1 14328:1 14329:1 14330:1 14331:1 14332:1 14333:1 14334:1 14335:2 14336:1 14337:1 14338:2 14339:1 14340:1 14341:1 #
-0.00020708747469525500516096538916599 28:2 29:2 39:1 43:2 47:1 63:2 79:1 110:1 117:1 144:1 164:1 171:1 189:2 294:1 322:1 369:1 375:1 376:2 470:1 512:2 680:3 818:1 1037:2 1045:1 1069:1 1140:3 1271:2 1404:1 1533:1 1534:1 1536:1 1628:2 1886:2 2479:3 2527:1 2573:1 2790:2 3071:1 3072:1 3073:1 3074:1 3075:1 3076:1 3077:1 3078:1 3079:1 3080:1 3081:12 3082:1 3083:3 3084:1 3085:1 3086:1 3087:2 3088:2 3089:1 3090:1 3091:1 3092:2 3093:2 3094:2 3095:2 3096:2 3097:2 3098:2 3099:2 3100:5 3101:1 3102:1 3103:1 3104:1 3105:1 3106:1 3107:1 3108:1 3109:1 3110:1 3111:1 3112:2 3113:1 3114:1 3115:1 3116:1 3117:1 3118:1 3119:2 3120:2 3121:1 3122:1 #
-0.0011591749604051269657151168601672 28:1 36:1 71:2 109:2 378:1 409:1 510:1 564:1 620:2 1096:2 1230:1 1241:1 1716:1 2134:1 2255:1 4266:1 7123:3 7124:1 7125:1 7126:1 7127:1 7128:1 #
-0.00041929502152835985409259911271818 5:2 19:1 22:2 66:3 69:1 109:1 142:4 167:1 221:4 249:1 277:1 291:1 367:1 383:1 423:1 551:1 612:1 815:1 886:1 906:1 1212:1 1230:6 2054:1 2550:2 3381:1 3447:1 3603:2 4300:1 5939:1 9252:1 9331:3 9564:1 11508:1 14316:1 15589:1 15590:2 15591:2 15592:1 #
-0.00051841050188290813561381442653442 22:2 116:1 123:1 132:3 157:3 165:1 171:1 283:1 365:1 369:1 376:1 396:1 429:1 440:1 488:1 501:1 508:1 709:1 712:1 730:1 772:1 840:1 1075:1 1460:2 1650:1 1716:1 1830:1 2000:2 2068:3 2100:1 2760:1 2901:1 3551:1 3731:4 3754:1 3994:1 4548:4 5589:1 5597:5 5694:1 5695:2 5696:3 5697:1 5698:1 5699:1 5700:1 5701:2 5702:1 5703:1 5704:1 5705:1 5706:1 5707:1 5708:1 5709:1 #
-1.1951976456290635869497002152784e-05 22:2 24:2 28:4 30:2 32:1 48:1 49:1 79:1 91:1 135:9 157:3 165:1 171:3 323:2 369:1 396:2 423:1 438:1 473:11 509:2 512:1 562:3 680:1 683:1 723:1 730:2 757:1 769:2 807:1 816:4 821:1 840:3 887:1 901:1 906:3 965:3 984:3 985:1 1005:1 1069:1 1136:1 1172:1 1356:1 1358:1 1359:3 1366:2 1386:2 1387:3 1388:3 1391:1 1393:2 1404:1 1419:1 1454:1 1480:1 1491:1 1646:1 1792:1 1807:1 1808:1 1838:2 1973:1 2040:1 2061:4 2135:5 2257:1 2428:1 2494:1 2810:1 2837:1 3026:1 3037:2 3237:6 3302:2 3381:1 3552:1 3915:1 4001:1 4371:1 4541:2 5064:1 5387:2 5428:1 5836:2 6145:1 6412:1 6899:1 7856:1 8220:1 8839:1 9251:4 9901:1 10268:1 11436:1 11963:2 11964:1 11965:1 11966:1 15486:2 16087:1 16403:1 18678:1 19877:1 20721:1 23157:1 25658:1 26009:1 26010:1 26011:14 26012:3 26013:1 26014:1 26015:1 26016:1 26017:1 26018:4 26019:4 26020:3 26021:1 26022:1 26023:3 26024:1 26025:1 26026:1 26027:1 26028:1 26029:1 26030:1 26031:1 26032:1 26033:1 26034:1 26035:1 26036:2 26037:1 26038:1 26039:2 26040:1 26041:1 26042:1 26043:1 26044:1 #
-0.0016035033783404783504222823609098 133:2 249:1 309:1 369:1 373:2 592:1 613:1 631:1 1197:1 1330:1 1362:1 1839:1 2011:1 2671:1 3651:1 4547:1 4857:1 7751:1 10704:2 10705:1 10706:1 10707:1 10708:1 10709:1 10710:2 #
-0.00064565624507842542170038546700539 22:2 132:1 369:1 376:1 429:1 503:1 628:2 642:1 659:1 741:1 785:1 787:1 839:1 939:1 965:1 1096:1 1197:1 1446:1 6468:2 6742:1 10541:1 16534:1 17096:1 20292:1 20293:1 20294:1 20295:1 20296:1 20297:1 20298:2 20299:1 20300:1 20301:1 20302:1 20303:2 20304:3 20305:1 20306:1 #
-0.0008232353141050720995997025397628 3:1 13:1 22:2 104:1 209:1 228:1 323:1 361:1 376:1 550:1 564:1 682:3 1069:1 1172:1 1242:2 1534:2 1715:1 1839:1 1906:1 1907:1 1908:3 1909:1 1910:1 1911:2 1912:1 1913:1 1914:1 1915:1 1916:1 1917:1 1918:1 1919:1 1920:1 1921:1 1922:1 1923:1 1924:1 1925:1 #
-0.00067981987594147345269762761077459 3:2 22:1 24:2 44:1 53:2 67:2 71:1 72:2 90:1 135:9 148:1 155:1 167:1 171:1 178:3 204:3 212:1 249:1 379:1 503:1 523:1 625:3 646:2 653:1 682:2 693:1 785:1 804:1 885:1 887:1 939:1 1020:1 1076:2 1450:1 1757:1 1802:1 1804:1 1859:1 1949:1 3381:1 3822:1 4095:1 5405:1 5793:1 6527:1 6992:1 7828:1 8720:1 13340:1 13341:1 13342:1 13343:1 13344:1 13345:1 13346:1 13347:1 13348:1 13349:1 13350:1 13351:1 13352:1 13353:1 13354:1 13355:1 13356:1 13357:1 13358:1 13359:1 13360:1 13361:1 #
-0.0011855947768438564876580798568284 22:1 53:1 90:1 112:1 137:1 337:1 383:2 396:1 397:1 429:3 431:1 604:1 1288:1 1326:1 1348:1 1446:1 2057:1 2399:1 3245:1 3447:1 5122:2 8717:2 8718:1 8719:1 8720:1 8721:1 #
-0.0007598377168658085453398220998622 5:1 13:1 20:1 22:1 109:1 257:4 279:1 396:1 507:1 681:1 984:1 1170:1 1767:1 1781:1 8753:1 11794:2 12146:1 #
-2.8651747667376209531770250849014e-05 22:1 109:1 148:1 211:1 228:1 236:1 257:1 300:3 322:1 369:1 379:1 387:1 415:1 485:1 550:1 558:1 646:2 647:3 656:1 749:10 914:1 1138:1 1344:1 1354:1 1446:1 1530:2 1640:1 1760:1 1764:1 2057:1 2058:1 2077:1 2079:1 2384:1 2826:1 2913:2 3033:1 3243:1 3474:1 3551:1 4011:1 4549:1 4550:1 4614:1 4739:1 5508:4 5509:1 5510:2 5511:2 5512:2 5513:2 5514:2 5515:1 5516:1 5517:1 5518:1 5519:1 5520:1 5521:1 5522:2 5523:1 5524:1 5525:4 5526:9 5527:4 5528:5 5529:5 5530:5 5531:5 5532:6 5533:5 5534:4 5535:1 5536:1 5537:1 5538:1 5539:1 5540:1 5541:1 5542:1 5543:1 5544:1 5545:2 5546:2 5547:1 5548:1 5549:1 5550:1 5551:1 5552:2 5553:1 5554:1 5555:1 5556:1 5557:1 5558:1 5559:1 #
-0.00070870671396311109898474844825955 28:1 44:1 109:1 327:2 843:1 948:1 984:2 1005:1 1394:1 1417:1 1437:1 1767:1 2494:2 2541:1 3262:1 5710:1 5711:3 5712:1 5713:1 #
-6.3943710866906769202042126742924e-05 22:1 30:1 43:4 52:1 109:2 140:2 155:7 169:1 184:1 189:1 205:1 258:1 271:1 307:1 327:1 369:2 387:4 393:1 399:2 478:1 657:2 709:1 733:1 734:1 749:1 763:1 801:1 804:1 966:4 1005:1 1055:1 1096:1 1201:1 1304:1 1497:1 1536:1 1616:1 1902:1 2011:1 2616:1 3038:1 3271:1 3367:1 3685:1 3825:1 3831:2 4408:1 4862:1 5109:1 5125:1 6578:1 6628:1 12930:1 13458:1 13703:1 17082:1 17336:1 17488:1 21851:5 21852:2 21853:1 21854:2 21855:1 21856:1 21857:1 21858:1 21859:1 21860:1 21861:1 21862:1 21863:1 21864:1 21865:1 21866:1 21867:1 21868:1 21869:1 21870:1 21871:1 21872:1 21873:1 21874:1 21875:1 21876:1 21877:1 21878:1 #
-0.0014954255968144913695183628732366 22:3 43:2 45:1 88:1 144:2 165:1 328:2 337:3 404:1 574:1 791:2 1006:1 1179:1 1876:1 1877:1 1878:1 1879:1 1880:2 1881:1 1882:1 1883:1 1884:3 1885:1 1886:1 1887:1 1888:1 1889:1 #
-0.0003097283179745028477286572510252 22:2 43:1 135:1 155:2 189:3 205:1 307:1 396:1 404:1 443:1 466:1 650:1 791:3 888:1 1049:1 1197:1 1318:1 1781:4 1804:3 1961:1 2282:2 2516:1 3233:2 3310:1 4187:1 8632:1 11452:1 16210:3 16211:1 16212:1 #
-0.00030693224721011158834596543876216 24:4 28:5 30:1 109:1 155:1 163:4 169:1 223:1 228:1 369:2 466:1 488:1 495:3 558:1 576:2 730:8 769:1 843:1 965:1 1005:6 1066:1 1118:1 1358:1 1359:1 1376:1 1386:1 1387:1 1392:2 1536:1 2001:1 2011:1 3539:1 4272:2 4408:1 4547:2 4784:4 4870:1 5053:1 8374:1 8484:1 8701:1 8702:2 8703:1 8704:3 8705:1 8706:2 8707:1 8708:1 8709:4 8710:2 8711:2 8712:2 8713:2 8714:1 8715:1 8716:1 #
-0.0013945876003832594677150913398123 39:1 63:1 109:1 146:1 155:4 171:1 189:1 206:1 322:1 352:2 361:1 914:1 1109:1 1189:1 1941:1 2419:1 2480:1 3925:1 5258:3 5259:1 5260:1 5261:1 5262:1 5263:1 #
