SVM-light Version V6.02
0 # kernel type
3 # kernel parameter -d 
1 # kernel parameter -g 
1 # kernel parameter -s 
1 # kernel parameter -r 
empty# kernel parameter -u 
30675 # highest feature index 
1560 # number of training documents 
347 # number of support vectors plus 1 
1.0403746 # threshold b, each following line is a SV (starting with alpha*y)
-0.00075298884277436224123081220938047 19:1 42:1 225:1 467:2 515:1 772:1 819:1 1064:1 1243:1 3199:1 5656:4 8688:1 8689:1 8690:1 8691:1 8692:1 8693:1 8694:1 8695:1 8696:2 8697:1 8698:1 8699:1 8700:1 8701:1 8702:1 #
-0.0011472708947317968291440548611604 6:3 18:1 19:3 20:1 27:1 65:2 99:2 157:1 164:2 209:1 245:1 327:1 338:1 492:6 571:1 590:1 735:2 824:1 908:1 1026:1 1292:1 1458:1 1574:1 2711:2 2864:4 3181:1 3437:1 3461:1 4160:1 4161:1 4162:1 4163:1 4164:1 4165:1 4166:1 4167:1 4168:2 4169:2 4170:2 4171:1 4172:1 4173:1 4174:2 4175:2 4176:2 4177:2 4178:2 4179:1 4180:1 4181:1 4182:1 4183:1 4184:1 4185:2 4186:1 4187:1 4188:1 4189:1 4190:1 4191:1 4192:1 4193:1 4194:3 4195:2 4196:1 4197:2 4198:2 4199:1 4200:1 #
-0.0003248234402753982959233258753784 18:1 19:1 21:1 36:3 40:2 42:1 57:2 110:1 142:1 277:1 304:2 306:2 326:1 327:1 395:1 429:1 492:2 644:1 665:1 703:1 709:1 840:1 1066:1 1104:1 1164:2 1291:1 1652:1 1653:1 1660:1 1800:1 2676:1 2738:1 3431:1 3432:1 3660:1 3792:1 4115:1 4864:5 5018:1 5447:1 5514:1 9603:1 14255:1 14256:2 14404:1 21946:2 21947:2 22684:1 29180:2 29181:1 29182:1 29183:1 29184:4 29185:1 29186:1 29187:1 29188:1 29189:1 29190:1 29191:4 29192:1 29193:1 29194:1 #
-0.00068801866321599805531583626816428 19:2 21:2 24:1 27:1 36:4 40:2 103:1 112:1 157:2 209:1 221:1 259:2 289:2 299:3 367:2 416:1 435:1 443:1 453:1 496:2 621:1 662:1 735:1 794:1 810:1 841:1 948:3 1265:1 1290:1 1577:1 1729:1 1781:1 2222:1 2266:1 2287:1 2379:1 2384:3 2806:1 3489:1 3647:1 3774:1 4630:1 5161:1 5923:1 6102:1 14318:6 16488:1 20350:1 21338:2 24628:1 30553:1 30554:1 30555:4 30556:9 30557:1 30558:1 30559:1 30560:2 30561:1 30562:1 30563:1 #
-0.0017159067419174436116419135700539 18:1 19:4 21:3 36:4 39:1 40:2 44:1 150:1 157:1 164:1 195:1 239:1 322:1 416:1 435:1 467:1 483:1 493:4 496:1 562:1 571:1 669:1 700:1 764:1 822:1 868:2 873:1 948:2 1064:1 1229:1 1241:1 1254:1 1710:1 2501:1 2727:1 2789:1 2828:1 2876:1 2951:3 2971:1 2976:1 3289:1 3425:2 3431:1 3432:1 4428:1 4455:1 4554:2 4864:1 5099:3 5272:1 6036:1 7309:1 7619:1 8253:2 12888:1 13335:1 16707:1 30564:1 30565:1 30566:1 30567:1 30568:1 30569:1 30570:1 30571:1 30572:1 30573:1 30574:1 #
0.0047264928719941666501735966221531 1:1 2:1 3:2 4:1 5:3 6:1 7:1 8:1 9:1 10:1 11:1 12:1 13:1 14:1 15:2 16:1 17:1 18:1 19:1 20:1 21:1 22:1 23:1 24:1 25:1 26:1 #
0.004034533959702057276386355511022 2:1 18:7 19:8 20:1 21:2 26:2 27:1 36:10 40:1 42:8 95:2 99:2 150:1 157:5 164:1 214:1 246:1 289:1 296:1 304:1 306:1 319:1 324:2 327:2 338:1 376:5 394:1 398:1 492:1 493:2 590:1 612:2 620:11 652:1 697:1 753:4 757:1 948:1 986:1 1057:2 1063:1 1102:1 1103:1 1104:1 1105:5 1106:3 1107:4 1108:4 1109:4 1110:1 1111:2 1112:3 1113:1 1114:2 1115:1 1116:1 1117:1 1118:1 1119:1 1120:1 1121:5 1122:1 1123:1 1124:1 1125:1 1126:1 1127:2 1128:2 1129:2 1130:4 1131:2 1132:1 1133:1 1134:2 1135:2 1136:1 1137:1 1138:2 1139:1 1140:1 1141:1 1142:3 1143:1 1144:1 1145:1 1146:1 1147:1 1148:1 1149:1 1150:1 1151:1 1152:1 1153:1 1154:1 1155:1 1156:1 1157:1 1158:1 1159:1 1160:3 1161:1 1162:1 1163:2 1164:1 1165:1 1166:1 1167:1 1168:1 1169:1 1170:1 1171:1 1172:1 1173:1 #
0.0047264928719941666501735966221531 2:2 5:1 17:3 19:1 21:2 27:2 57:2 81:1 103:2 142:1 151:1 176:1 177:1 178:2 179:1 180:1 181:2 182:1 183:1 184:2 185:1 186:1 187:1 188:3 189:3 190:1 191:1 192:1 193:2 194:3 195:1 196:4 197:2 198:2 199:1 200:1 201:1 202:7 203:2 204:1 205:1 206:1 207:1 208:1 209:1 210:1 211:1 212:1 213:1 214:2 215:1 216:1 217:1 218:1 219:1 220:1 221:1 222:1 223:1 224:1 225:1 226:1 227:1 228:1 229:1 230:1 231:1 232:1 233:1 234:1 235:1 236:2 237:2 238:1 239:1 240:2 241:1 242:1 243:1 244:1 245:1 246:1 247:1 248:1 249:1 250:1 251:1 252:1 253:1 254:1 #
0.0047264928719941666501735966221531 2:1 5:1 19:1 57:2 144:1 255:1 256:1 257:1 258:1 259:2 260:1 261:1 262:2 263:2 264:1 265:1 266:1 267:2 268:1 269:1 270:1 271:2 272:1 273:1 274:1 #
0.0047264928719941666501735966221531 6:7 19:2 21:2 27:1 28:1 36:6 42:3 93:1 95:1 151:1 164:2 275:1 276:4 277:2 278:1 279:1 280:1 281:1 282:4 283:1 284:1 285:1 286:3 287:1 288:1 289:4 290:4 291:4 292:4 293:1 294:1 295:2 296:2 297:1 298:1 299:1 300:4 301:1 302:1 303:1 304:3 305:1 306:2 307:7 308:1 309:3 310:2 311:1 312:1 313:1 314:2 315:1 316:1 317:1 318:1 319:1 #
-0.00064156586992062010488258039231368 59:6 139:1 151:4 183:1 221:1 579:1 629:1 644:2 690:2 757:1 803:1 892:1 967:1 975:1 1206:1 1244:1 1491:1 1745:1 1809:1 2091:1 2094:1 2097:5 2173:2 2336:2 2874:1 3081:6 3185:1 3700:1 4022:1 4126:1 4877:1 5052:1 6400:1 7015:1 7957:2 7958:1 7959:5 7960:1 7961:1 7962:1 7963:1 7964:4 7965:2 7966:1 7967:1 7968:1 7969:1 7970:2 7971:1 7972:1 7973:1 #
-0.0010385704797759183742184019294541 19:2 27:1 152:4 225:8 275:1 423:1 435:1 612:3 687:4 960:23 1065:1 1198:1 1513:1 1677:1 1788:1 1977:4 2099:2 2175:2 2441:1 8700:2 16649:3 16836:1 19066:1 19067:1 19068:1 19069:6 19070:6 19071:1 19072:2 19073:4 19074:1 19075:1 #
-0.00061640840442709309010549389995504 18:11 19:2 21:8 24:1 27:1 36:9 40:6 42:6 84:1 157:1 288:1 289:14 292:26 299:6 354:8 495:1 543:1 677:2 712:1 796:1 977:5 996:1 1157:1 1219:2 1646:1 1699:1 2042:2 2441:1 2458:1 5265:1 5550:8 6475:1 7452:1 8386:1 12170:1 12485:6 13929:4 13961:3 18291:1 18292:3 18293:1 18294:2 18295:5 18296:1 18297:1 18298:2 18299:1 18300:4 18301:4 18302:3 18303:4 18304:4 18305:6 18306:1 18307:2 18308:1 18309:2 18310:1 18311:3 18312:2 #
-0.0024136530862166219284226098551471 2:1 6:2 18:7 19:3 21:4 26:3 27:10 28:2 30:1 33:1 36:22 40:13 42:11 50:2 57:2 63:1 95:9 99:3 110:1 113:1 157:1 162:1 164:8 214:1 239:1 277:3 280:1 288:7 289:4 296:1 299:2 319:2 389:1 398:1 406:2 429:2 459:1 462:2 477:2 493:3 495:2 562:1 564:10 697:1 712:3 736:5 750:1 753:6 757:1 775:1 819:1 832:1 900:3 977:1 1042:3 1112:3 1165:1 1391:3 1412:2 1456:1 1465:2 1573:4 1578:1 1589:1 1662:1 2103:3 2116:1 2479:1 2638:1 3044:2 3131:1 3426:1 4126:2 4185:4 5079:1 5724:4 6329:3 6747:4 7877:1 11131:2 16546:1 18686:1 20261:1 20699:1 21894:3 21895:2 21896:2 21897:3 21898:1 21899:2 21900:2 21901:1 21902:1 21903:2 21904:1 21905:2 21906:1 21907:1 21908:1 21909:1 21910:1 21911:1 21912:4 21913:1 21914:1 21915:1 21916:1 21917:1 21918:1 21919:2 21920:1 21921:1 21922:2 21923:2 21924:2 21925:1 21926:1 21927:1 21928:2 21929:2 21930:2 21931:2 21932:2 21933:2 21934:1 21935:1 21936:1 21937:2 21938:1 21939:1 21940:1 21941:1 21942:2 21943:2 21944:1 21945:1 21946:6 21947:2 21948:2 21949:2 21950:2 21951:2 21952:1 21953:1 21954:1 21955:1 21956:3 21957:1 21958:1 21959:2 21960:3 21961:1 #
-0.00056821713020175311763954040245039 18:10 19:3 21:4 24:2 26:1 27:1 30:1 36:23 42:13 44:1 57:4 82:3 95:1 105:2 126:2 149:1 162:1 169:1 170:1 175:6 178:1 209:3 221:1 239:5 257:1 288:3 384:2 388:3 429:10 492:2 515:1 576:1 588:2 614:1 620:9 626:1 653:2 680:1 780:1 863:1 986:1 996:5 1061:1 1211:2 1242:2 1269:1 1290:1 1378:4 1380:2 1433:1 1435:1 1625:5 1699:6 1765:1 1964:1 1977:2 1989:1 2025:3 2160:2 2204:3 2361:3 2441:2 2638:1 2732:1 2735:2 3402:1 3502:1 3531:1 3639:1 3643:1 3922:1 4061:6 4201:1 4396:1 4614:2 4729:1 4812:2 5556:1 5613:2 5901:1 6182:5 7760:3 8023:1 8567:1 9292:1 9293:1 9297:1 10206:7 10479:1 11585:1 12411:1 13826:1 14942:1 15796:2 18009:2 18265:1 19673:2 21304:1 22001:4 27388:1 27975:2 27976:1 27977:1 27978:1 27979:1 27980:1 27981:1 27982:1 27983:1 27984:1 27985:3 27986:1 27987:1 27988:4 27989:1 27990:2 27991:1 27992:2 27993:1 27994:1 27995:1 27996:2 27997:2 27998:1 27999:1 28000:1 28001:1 28002:1 28003:1 28004:1 28005:1 28006:1 28007:1 28008:1 28009:1 28010:1 28011:1 28012:1 28013:1 28014:1 28015:1 28016:1 28017:1 28018:1 28019:1 28020:1 28021:1 28022:4 28023:1 28024:2 28025:3 28026:1 28027:1 28028:1 28029:1 28030:3 28031:2 28032:7 28033:2 28034:2 28035:2 28036:1 28037:2 28038:1 28039:3 28040:3 28041:3 28042:3 28043:1 28044:1 28045:1 28046:1 28047:1 28048:1 28049:1 28050:1 28051:2 28052:1 28053:4 28054:1 28055:2 28056:1 28057:2 28058:1 28059:1 28060:1 28061:2 28062:1 28063:1 28064:1 28065:1 28066:1 28067:1 28068:9 28069:1 28070:1 28071:5 28072:5 28073:1 28074:3 28075:5 28076:1 28077:1 28078:1 28079:1 28080:1 28081:1 28082:1 28083:1 28084:1 28085:1 28086:1 28087:1 28088:1 28089:1 28090:1 28091:1 28092:1 28093:1 #
0.0047264928719941666501735966221531 2:2 27:1 99:3 103:1 113:1 211:1 321:1 416:2 435:1 437:1 484:4 499:3 611:1 628:2 671:2 699:2 948:1 1064:1 1734:1 1809:1 1810:1 1811:1 1812:1 1813:3 1814:4 1815:2 1816:2 1817:1 1818:2 1819:1 1820:1 1821:1 1822:1 1823:1 1824:1 1825:1 1826:1 #
0.0047264928719941666501735966221531 24:1 27:2 321:1 677:1 803:1 1064:1 1181:1 1513:1 1571:1 1572:1 1573:1 1574:1 1575:1 1576:1 1577:1 1578:1 1579:1 1580:1 1581:1 #
0.0047264928719941666501735966221531 2:1 19:2 21:1 27:1 209:1 315:1 321:2 398:1 484:3 492:1 499:1 502:1 559:1 569:1 570:4 571:1 572:2 573:1 574:1 575:1 576:3 577:1 578:1 579:1 580:1 581:1 582:1 583:1 584:1 585:1 586:1 587:2 588:1 589:1 590:2 591:1 592:1 593:4 594:1 595:1 596:1 597:2 598:1 599:2 600:1 601:1 602:1 603:1 604:1 605:1 606:1 607:1 608:1 609:1 610:1 611:1 612:1 613:1 614:1 615:1 616:3 617:2 618:1 619:1 620:1 621:1 622:1 623:1 624:1 625:1 626:1 627:1 628:1 629:1 630:1 631:1 632:1 633:1 634:1 #
-0.0029656653930683327981265851036596 6:10 19:3 20:1 33:1 40:1 42:5 83:1 95:1 103:1 164:1 205:2 212:2 221:1 239:4 245:1 257:1 265:1 311:8 316:2 325:2 338:1 485:2 493:4 562:1 571:1 677:3 926:4 1150:1 1198:1 1245:2 1292:2 1371:6 1388:3 1417:1 1443:1 1485:3 1494:1 1699:1 1811:1 2195:1 3311:1 4294:1 4518:2 4773:2 6346:1 7716:1 8324:1 8832:2 9067:1 9775:4 29721:3 29722:1 29723:3 29724:9 29725:3 29726:1 29727:1 29728:1 29729:2 29730:2 29731:2 29732:1 29733:1 29734:2 29735:3 29736:1 29737:1 29738:2 29739:1 29740:1 29741:1 29742:1 #
-0.0047264928719941666501735966221531 3:1 6:6 19:1 21:6 42:1 57:3 103:1 209:1 238:2 299:1 351:3 419:1 477:1 492:1 494:2 562:1 612:3 677:3 756:1 780:1 804:3 824:1 1178:2 1949:4 2283:1 2390:1 2414:1 2711:1 4124:1 4125:1 4126:1 4128:3 6494:1 6847:1 7070:1 7988:2 10537:1 10538:3 10539:1 10540:1 10541:1 10542:1 10543:1 10544:1 10545:1 10546:1 #
-0.0026989451873760052398598663359053 3:1 5:4 19:2 21:5 27:1 57:2 188:1 215:1 235:2 238:3 404:1 667:1 669:2 710:2 735:1 847:1 969:1 990:1 1280:3 1292:1 1456:1 1732:1 1871:1 2250:1 3623:1 6284:1 14433:2 14434:2 14435:2 14436:1 14437:1 14438:2 14439:1 #
-0.00022291536444211471350469733199162 19:2 21:31 27:1 139:1 151:18 152:1 188:1 416:2 435:1 488:1 492:2 493:1 710:1 779:1 863:2 874:1 926:1 1168:1 1241:3 1375:1 1378:2 1513:1 1578:1 1712:2 1886:1 1992:2 2327:1 2331:1 2389:1 2493:1 2671:3 2730:1 2828:1 2843:18 2849:1 2853:1 2919:1 2957:1 3354:1 3380:1 3568:1 3968:1 4201:1 4414:1 4587:1 4614:1 4793:1 4811:1 4893:1 5447:2 5523:1 5774:1 6240:1 6754:1 7378:1 10190:1 11221:1 11933:1 13745:1 14724:15 15947:1 16582:1 17079:1 18038:2 18311:2 19321:1 23508:2 26339:1 26340:1 26341:1 26342:1 26343:1 26344:1 26345:1 26346:1 26347:15 26348:15 26349:16 26350:16 26351:15 26352:16 26353:1 26354:1 26355:1 26356:1 26357:1 26358:1 26359:1 26360:1 26361:1 26362:1 26363:1 26364:1 26365:2 26366:3 26367:1 26368:1 26369:1 26370:1 26371:1 26372:1 26373:1 26374:1 26375:1 26376:1 26377:1 26378:1 26379:1 26380:1 26381:1 26382:1 26383:1 26384:1 26385:1 26386:2 26387:1 26388:1 26389:1 26390:41 26391:4 26392:1 26393:1 26394:1 26395:1 26396:1 26397:1 26398:1 26399:1 #
-0.0017713099376359558480287237358652 5:1 6:3 19:2 21:2 37:1 57:1 103:1 215:1 219:1 234:1 235:1 259:1 367:1 394:1 423:1 493:1 497:1 571:1 598:1 752:1 754:2 819:1 820:1 829:1 1186:1 1197:1 1662:1 1780:1 2065:1 2100:1 2477:8 2735:1 3745:1 5476:2 5838:1 6149:2 7558:1 8118:5 8128:1 8608:1 11983:1 14766:1 22623:7 22624:1 22625:1 22626:1 22627:1 22628:1 22629:1 22630:1 22631:1 #
0.0047264928719941666501735966221531 2:1 18:3 19:2 21:2 33:1 36:8 40:8 42:7 57:1 157:1 209:1 215:1 246:1 248:1 263:1 265:1 275:1 277:1 296:1 299:1 325:1 326:1 338:2 399:1 400:1 401:1 402:1 403:2 404:1 405:1 406:1 407:5 408:1 409:1 410:4 411:2 412:2 413:1 414:1 415:1 416:1 417:1 418:1 419:1 420:1 421:1 422:1 423:1 424:1 425:1 426:1 427:1 428:1 429:1 430:1 431:1 432:1 433:1 434:1 435:1 436:1 437:1 438:1 439:1 #
0.0047264928719941666501735966221531 3:1 14:2 19:2 20:1 21:1 27:1 30:1 36:6 40:5 42:4 77:2 99:2 157:1 230:2 239:3 485:2 496:1 498:1 692:1 901:1 1527:3 1605:1 1606:1 1607:1 1608:2 1609:1 1610:1 1611:1 1612:3 1613:2 1614:1 1615:1 1616:1 1617:1 1618:1 1619:1 1620:1 1621:1 1622:1 1623:1 1624:4 1625:5 1626:1 1627:3 1628:1 1629:1 1630:1 1631:1 1632:1 1633:2 1634:5 1635:1 1636:1 1637:1 1638:1 1639:1 1640:1 1641:1 1642:1 1643:1 1644:1 1645:1 #
0.0025698363757459584746922764963983 3:1 6:1 18:3 19:3 21:7 27:3 36:3 40:3 95:1 99:5 157:2 209:1 236:7 265:1 281:1 287:1 289:2 325:1 359:1 416:1 423:2 453:1 486:1 495:1 562:1 571:1 573:1 670:3 685:2 699:1 750:1 772:3 796:1 904:11 944:7 996:2 1126:1 1186:3 1219:2 1290:1 1292:1 1422:1 1456:1 1682:5 1683:3 1684:4 1685:1 1686:1 1687:1 1688:1 1689:1 1690:1 1691:2 1692:3 1693:3 1694:2 1695:1 1696:1 1697:1 1698:4 1699:1 1700:1 1701:1 1702:2 1703:1 1704:1 1705:1 1706:1 1707:1 1708:1 1709:2 1710:2 1711:1 1712:3 1713:1 1714:1 1715:1 1716:1 1717:1 1718:1 1719:1 1720:2 #
-0.00012750558421709907498155234240045 19:1 20:1 30:1 63:4 190:1 325:1 398:1 406:1 423:2 434:1 581:2 662:1 908:1 948:1 1216:1 1341:2 1456:1 2219:1 2249:1 2324:1 3531:1 3703:1 4972:1 5173:2 5660:1 5778:2 5925:1 7960:1 7965:4 7972:4 8949:1 13180:4 14440:1 14441:1 14442:1 14443:1 14444:1 14445:1 14446:1 14447:1 #
-0.00070693201886641457518806186399729 18:2 19:3 21:2 27:3 30:1 36:7 40:6 42:2 81:1 99:1 157:2 172:2 283:1 288:1 398:2 405:6 412:1 424:1 454:1 483:1 493:2 496:9 607:1 750:1 819:1 868:3 936:1 948:2 1113:1 1148:1 1211:1 1442:1 1637:1 1982:1 2381:1 2737:4 2897:1 3242:1 3402:2 4540:1 5118:1 6180:1 6188:1 7986:1 8253:1 10669:1 15009:2 15010:2 15011:1 15012:1 15013:1 15014:2 15015:2 15016:1 15017:1 15018:1 #
0.0047264928719941666501735966221531 6:5 18:2 19:1 24:2 36:1 95:1 103:1 172:1 205:1 221:1 265:1 278:1 299:1 320:1 326:1 376:1 495:1 653:2 690:2 709:1 752:1 820:1 908:1 932:1 1168:1 1206:1 1228:1 1244:1 1246:2 1379:1 1380:2 1381:6 1382:1 1383:1 1384:1 1385:1 1386:1 1387:1 1388:1 1389:1 1390:1 1391:1 1392:1 1393:1 1394:2 1395:2 1396:1 1397:1 1398:1 1399:1 1400:1 1401:1 1402:1 1403:1 1404:1 1405:1 #
0.0047264928719941666501735966221531 19:2 21:1 27:1 30:1 42:1 150:1 215:1 221:1 251:1 295:2 315:1 325:1 327:1 360:1 376:1 423:1 429:3 484:1 486:1 492:2 497:1 579:2 677:7 794:1 795:2 796:1 797:1 798:1 799:1 800:3 801:2 802:1 803:1 804:1 805:1 806:1 807:1 808:2 809:2 810:2 811:1 812:1 813:1 814:1 815:1 816:1 817:1 818:1 819:2 820:1 821:1 822:1 823:1 824:1 825:1 826:2 827:1 828:1 #
0.0047264928719941666501735966221531 2:1 6:7 7:1 19:1 27:2 44:1 81:1 99:1 144:1 212:1 215:1 218:2 221:1 338:1 343:1 413:3 562:1 564:2 669:1 705:1 706:1 810:1 908:3 919:2 1206:2 1272:2 1576:1 1737:2 1738:1 1739:1 1740:2 1741:1 1742:1 1743:1 1744:1 1745:1 1746:1 1747:2 1748:1 1749:1 1750:1 1751:1 1752:1 1753:1 #
0.0047264928719941666501735966221531 3:1 20:1 21:2 27:2 139:1 209:1 220:1 230:1 245:1 311:1 323:1 374:2 628:2 665:1 666:1 667:1 668:7 669:4 670:2 671:1 672:3 673:3 674:1 675:1 676:1 677:1 678:1 679:1 680:2 681:1 682:1 683:1 684:1 685:1 686:1 687:1 688:1 689:1 690:2 691:1 692:1 693:1 694:1 695:1 696:1 697:1 698:1 699:1 700:1 701:1 #
0.0047264928719941666501735966221531 6:1 17:1 19:1 21:1 24:1 40:1 151:2 164:1 209:2 259:1 265:2 275:2 315:1 319:1 347:1 351:7 389:1 467:1 492:3 566:1 1207:2 1367:1 1443:1 1485:2 1486:2 1487:1 1488:1 1489:1 1490:1 1491:1 1492:1 1493:1 1494:1 1495:2 1496:4 1497:1 1498:2 1499:1 1500:1 1501:2 1502:1 1503:1 1504:3 1505:1 1506:1 1507:3 1508:1 1509:1 1510:4 1511:1 1512:1 1513:2 1514:1 1515:1 1516:3 1517:2 1518:1 1519:1 1520:1 1521:1 1522:1 1523:1 1524:1 1525:1 1526:1 1527:1 1528:1 1529:1 1530:1 1531:1 1532:1 #
0.0047264928719941666501735966221531 18:1 19:1 25:1 95:1 152:3 170:2 235:1 453:1 459:1 493:2 677:2 913:1 1365:1 1366:1 1367:2 1368:2 1369:1 1370:1 1371:2 1372:1 1373:1 1374:1 1375:1 1376:1 1377:1 1378:1 #
-0.0002845652981220694269920423735698 27:1 81:1 196:8 297:1 325:1 453:2 454:1 484:1 1224:1 2099:2 2101:1 2443:8 2937:1 4629:2 4634:1 5037:2 5656:1 24081:2 28094:2 #
-0.0017657321153524932911410560976151 3:1 6:1 19:4 20:1 21:6 36:1 40:1 42:4 57:3 103:1 136:1 149:1 157:2 169:1 172:2 238:1 288:3 327:1 343:1 350:2 360:1 361:1 416:1 419:1 429:2 435:2 454:2 497:1 579:1 597:1 645:1 667:1 733:2 1168:1 1292:1 1574:1 1653:1 1764:1 1809:1 3272:1 3311:3 3452:2 4903:1 5079:2 5081:2 5541:1 8086:2 11101:1 16389:1 22951:1 24421:2 24422:1 24423:1 24424:1 24425:1 24426:1 24427:1 24428:1 24429:1 24430:1 24431:4 24432:2 24433:2 24434:4 24435:1 24436:1 24437:1 #
-0.00035118079130206741834616113173695 78:3 85:1 146:1 149:2 184:3 196:9 248:1 251:1 257:1 265:2 275:2 278:1 350:1 371:1 423:1 424:2 435:3 454:2 473:2 493:2 619:1 803:3 860:3 868:1 883:4 885:1 966:1 1106:1 1122:1 1224:1 1228:3 1243:3 1513:1 1647:1 1717:1 1968:1 1973:1 2035:1 2060:5 2208:1 2300:1 2481:1 2579:1 2718:1 2738:1 2828:2 2855:2 2863:1 2871:2 2877:1 2920:1 3140:1 3265:1 3495:3 3836:1 4377:1 4563:1 4690:1 4802:1 4807:5 5016:1 5017:1 5018:1 5019:1 5020:1 5021:1 5022:3 5023:1 5024:1 5025:1 5026:1 5027:2 5028:1 5029:1 5030:2 5031:1 5032:1 5033:1 5034:1 5035:1 5036:1 #
-0.00048410656418141332800117448975641 176:1 211:1 232:1 246:1 275:1 401:1 407:3 566:1 669:1 736:2 822:1 1198:1 1973:2 2572:1 2911:1 2951:1 3502:1 3505:1 4186:1 4630:1 4826:1 5537:1 6428:1 7015:3 23512:1 #
-0.0011407350101136962648717965151945 6:4 19:1 30:1 149:1 209:1 258:1 320:1 343:1 398:1 485:2 492:5 819:1 919:1 936:1 1168:1 1212:1 1336:1 1340:1 1488:1 1964:1 1966:2 1977:1 2250:1 2467:2 2711:1 4419:1 4773:2 4853:1 5925:1 6297:1 9511:2 10293:1 10294:1 10295:1 10296:1 10297:2 10298:1 10299:4 10300:5 10301:1 10302:4 10303:1 10304:1 10305:1 10306:2 10307:1 10308:1 10309:1 10310:1 10311:1 10312:2 10313:1 10314:1 10315:1 #
0.0018119737703823444313622204049352 6:3 18:11 19:4 21:4 24:2 27:3 28:1 29:1 30:1 31:1 32:1 33:1 34:1 35:3 36:15 37:1 38:5 39:8 40:11 41:1 42:9 43:1 44:6 45:3 46:9 47:3 48:3 49:6 50:3 51:1 52:1 53:1 54:1 55:10 56:1 57:2 58:2 59:10 60:2 61:2 62:1 63:1 64:1 65:2 66:1 67:5 68:1 69:1 70:1 71:1 72:2 73:1 74:4 75:1 76:1 77:4 78:1 79:1 80:1 81:1 82:2 83:2 84:1 85:1 86:1 87:1 88:1 89:2 90:1 91:4 92:1 93:1 94:1 95:2 96:1 97:2 98:1 99:4 100:1 101:1 102:1 103:5 104:1 105:4 106:1 107:1 108:1 109:1 110:2 111:1 112:1 113:1 114:1 115:2 116:1 117:1 118:2 119:1 120:1 121:2 122:2 123:2 124:2 125:2 126:2 127:2 128:4 129:4 130:4 131:4 132:4 133:4 134:2 135:1 136:1 137:1 138:1 139:1 140:1 141:1 142:1 143:1 144:1 145:1 146:1 147:1 148:1 149:1 150:1 151:1 152:2 153:1 154:1 155:1 156:1 157:1 158:1 159:1 160:1 161:1 162:1 163:1 164:1 165:1 166:1 167:1 168:1 169:1 170:1 171:1 172:1 173:1 174:1 175:1 #
0.0047264928719941666501735966221531 2:1 19:2 21:6 27:3 36:7 42:1 57:6 95:1 157:1 195:1 209:1 236:3 239:2 304:1 324:3 325:1 327:6 343:1 378:6 538:2 541:1 717:1 722:1 880:1 892:1 904:4 944:1 1064:1 1151:1 1219:1 1220:6 1221:1 1222:4 1223:2 1224:2 1225:1 1226:4 1227:1 1228:1 1229:1 1230:6 1231:1 1232:1 1233:1 1234:1 1235:1 1236:1 1237:1 #
0.0047264928719941666501735966221531 5:1 19:4 21:4 27:2 30:2 36:4 99:1 170:2 209:1 288:4 327:3 385:2 388:2 407:2 429:2 437:1 673:1 693:2 697:1 840:1 1069:1 1456:3 1647:1 1652:2 1653:2 1789:1 1790:1 1791:2 1792:4 1793:1 1794:1 1795:1 1796:2 1797:1 1798:1 1799:1 1800:1 1801:1 1802:2 1803:1 1804:1 1805:1 1806:1 1807:1 1808:1 #
-0.00059250229330664976046261216424682 6:1 19:3 21:1 27:1 36:1 57:1 157:1 172:1 209:4 218:1 238:1 246:1 275:1 350:2 374:1 435:1 448:1 557:1 561:1 680:1 752:1 772:2 820:1 829:1 976:1 1067:1 1114:1 1254:1 1422:1 1435:1 1485:1 1517:1 1776:1 1780:1 1925:2 2291:1 3242:2 3295:3 3540:1 4066:1 4117:1 4647:1 4648:1 4649:3 4650:1 4651:1 4652:1 4653:1 4654:1 4655:1 4656:2 4657:4 4658:1 4659:3 4660:1 4661:1 4662:1 4663:1 4664:2 4665:2 4666:4 4667:2 4668:2 4669:1 4670:2 4671:1 4672:2 4673:1 4674:1 4675:1 4676:1 #
-0.00026569221334644098093252795322883 19:1 25:2 99:3 105:1 125:1 275:2 435:1 485:1 493:7 554:1 556:1 697:1 709:1 841:1 1046:1 2312:1 2616:1 3502:2 4416:6 7950:1 9670:1 9672:1 13184:1 13185:1 13186:1 13187:1 13188:1 13189:1 13190:1 13191:1 13192:1 13193:1 #
0.0047264928719941666501735966221531 6:5 17:1 18:1 19:3 20:1 21:1 25:1 28:1 42:1 50:1 99:2 142:1 157:1 209:1 221:1 245:1 261:1 275:1 278:1 304:2 324:1 325:2 385:1 398:1 416:3 435:1 571:1 590:2 598:1 667:1 710:1 723:1 752:4 807:1 819:1 1064:1 1290:1 1292:1 1439:1 1440:1 1441:1 1442:1 1443:1 1444:1 1445:1 1446:1 1447:2 1448:1 1449:2 1450:2 1451:1 1452:1 1453:1 1454:1 1455:1 1456:2 1457:1 1458:3 1459:1 1460:1 1461:1 1462:1 1463:1 1464:1 1465:1 1466:1 1467:2 1468:1 1469:2 1470:1 1471:1 1472:1 1473:1 1474:1 1475:1 1476:1 1477:1 1478:1 1479:1 1480:2 1481:1 1482:1 1483:1 1484:1 #
-0.00069680179718384252333940320767169 3:1 6:1 8:1 17:2 19:2 21:7 27:1 30:2 36:3 178:1 209:2 221:1 254:1 259:3 295:2 296:3 299:1 315:3 323:1 325:1 327:8 359:1 371:1 374:1 378:2 406:3 416:1 429:3 607:1 613:1 620:1 627:2 644:1 662:2 669:4 703:1 779:1 803:1 804:5 819:2 820:2 824:5 850:2 860:1 892:1 900:1 908:1 976:2 1037:2 1063:2 1064:1 1114:3 1280:1 1325:1 1422:3 1465:1 1575:1 1689:1 1763:1 1764:4 1781:1 1961:1 2044:1 2074:1 2083:1 2204:1 2255:1 2269:1 2299:1 2390:1 2638:1 2980:1 3142:1 3283:3 3389:1 3592:3 3626:1 3656:1 3679:1 3683:1 4055:1 4087:1 4144:1 4335:1 4403:1 4418:1 4702:1 4864:1 4871:3 4938:1 5065:3 5356:1 5403:1 5472:1 5657:1 5957:1 6400:1 6797:1 6822:1 7353:1 7780:1 7980:1 7981:1 7982:1 7983:1 7984:1 7985:5 7986:1 7987:1 7988:2 7989:3 7990:2 7991:2 7992:1 7993:3 7994:1 7995:1 7996:3 7997:1 7998:2 7999:2 8000:1 8001:2 8002:2 8003:2 8004:1 8005:1 8006:1 8007:1 8008:1 8009:1 8010:1 8011:1 8012:2 8013:1 8014:1 8015:1 8016:1 8017:4 8018:2 8019:3 8020:1 8021:1 8022:1 8023:1 8024:1 8025:1 8026:1 8027:1 8028:1 8029:1 8030:1 8031:2 8032:2 8033:1 8034:1 8035:1 8036:1 8037:1 8038:1 8039:1 8040:1 8041:1 8042:1 8043:1 8044:1 8045:1 8046:1 8047:1 8048:1 8049:1 8050:1 8051:1 8052:1 #
0.0047264928719941666501735966221531 19:2 20:1 21:1 27:1 103:2 105:2 147:1 316:2 338:1 360:1 482:1 483:1 484:1 485:2 486:2 487:1 488:2 489:1 490:1 491:1 492:2 493:4 494:1 495:1 496:2 497:1 498:1 499:1 500:1 501:1 502:1 503:1 504:1 505:1 #
0.0047264928719941666501735966221531 27:1 435:1 547:2 571:1 677:1 1064:1 1086:1 1328:1 1329:1 1330:1 1331:4 1332:1 1333:1 1334:1 1335:1 1336:2 1337:1 1338:1 #
0.0047264928719941666501735966221531 2:1 27:1 172:1 265:1 612:1 629:1 675:1 705:3 782:1 843:1 844:2 845:1 846:1 847:1 848:1 849:1 850:1 851:1 852:2 853:2 854:2 855:2 856:2 857:1 858:1 859:1 860:1 861:1 862:1 863:1 864:1 865:1 866:1 867:1 868:1 869:1 #
0.0047264928719941666501735966221531 27:1 103:1 554:2 555:2 556:1 557:1 558:1 559:1 560:1 561:1 562:2 563:1 564:3 565:1 566:1 567:1 568:1 #
-0.0035681832982845996561638290955898 2:1 18:4 19:2 21:2 27:1 36:1 42:2 57:1 95:5 99:7 100:3 103:7 105:5 106:1 157:1 169:3 170:3 209:1 319:1 355:1 378:2 385:1 497:1 538:1 562:1 662:1 667:1 682:1 700:1 731:3 791:1 1121:2 1229:1 1254:1 1894:4 1933:6 2364:2 2858:2 2897:1 3513:1 5955:2 6428:1 7136:1 8768:2 9721:3 10378:1 10551:2 10552:2 10553:1 10554:1 10555:1 10556:1 10557:1 10558:1 10559:2 10560:2 10561:2 10562:2 10563:1 10564:1 10565:1 10566:1 10567:2 10568:1 10569:1 10570:1 10571:1 10572:1 10573:1 #
-0.00039555228793413131421416450983486 3:1 14:1 18:1 19:1 177:2 209:1 235:1 239:1 289:3 324:2 485:1 496:2 498:1 754:1 874:1 977:5 996:4 1070:4 1210:2 1290:1 1624:1 1687:1 1706:1 2103:2 2166:1 2170:1 2214:2 3310:1 3311:4 3643:2 3855:1 4065:1 4724:1 7044:1 8883:1 10652:2 13335:3 17501:2 21304:1 23101:1 29466:2 29467:1 29468:2 29469:1 29470:1 29471:2 29472:2 29473:1 29474:1 29475:1 29476:1 29477:2 29478:1 29479:2 29480:2 29481:1 29482:2 29483:1 29484:1 29485:1 29486:1 29487:1 29488:2 29489:1 29490:1 29491:2 29492:1 29493:1 29494:1 29495:1 29496:1 29497:1 29498:1 #
-0.0047264928719941666501735966221531 3:1 19:2 21:3 215:1 239:1 295:2 320:1 386:1 452:1 455:1 559:1 669:1 728:1 904:2 1636:1 1712:1 4295:1 4540:1 10811:3 10812:1 10813:1 10814:1 10815:1 10816:1 10817:3 #
-0.0047264928719941666501735966221531 19:1 99:3 147:1 277:1 316:1 320:1 799:1 25395:1 25396:1 25397:1 25398:1 25399:1 #
-0.003704765974580915589842167179313 6:1 19:2 49:3 50:2 78:1 151:3 152:2 209:2 221:2 239:1 275:1 316:1 324:2 385:1 435:1 478:1 562:1 662:1 706:1 750:2 840:3 841:1 1234:1 1485:1 1487:1 2676:1 3173:1 3652:3 6312:1 7498:1 8884:1 18092:1 18224:1 18313:1 18314:2 18315:1 18316:1 18317:3 18318:2 18319:1 18320:1 18321:1 18322:1 18323:3 18324:2 #
0.0047264928719941666501735966221531 2:1 6:3 9:1 19:4 21:3 42:3 57:1 99:3 149:1 157:2 211:1 221:1 222:3 239:1 277:4 289:3 299:8 373:2 435:1 470:1 487:1 493:4 584:1 618:1 662:1 669:1 749:1 799:1 811:1 822:1 882:1 901:1 975:1 976:1 977:4 978:3 979:2 980:5 981:2 982:2 983:2 984:1 985:3 986:1 987:2 988:1 989:1 990:1 991:1 992:1 993:5 994:1 995:1 996:1 997:1 998:1 999:1 1000:1 1001:1 1002:2 #
0.0047264928719941666501735966221531 6:4 18:1 19:1 21:2 27:1 36:3 40:3 42:1 77:1 99:3 164:3 238:1 275:1 277:1 338:1 499:1 547:1 633:1 639:1 677:2 757:4 868:1 990:1 1059:1 1060:1 1061:1 1062:1 1063:1 1064:1 1065:1 1066:1 1067:1 1068:1 1069:1 1070:3 1071:6 1072:1 1073:1 1074:1 1075:2 1076:2 1077:2 1078:2 1079:2 1080:2 1081:2 1082:1 1083:1 1084:1 1085:1 1086:1 1087:1 1088:1 1089:1 1090:1 1091:1 1092:1 1093:1 1094:1 1095:1 1096:2 1097:1 1098:1 1099:1 1100:1 1101:1 #
0.0047264928719941666501735966221531 2:1 3:1 19:3 20:1 21:4 27:1 42:2 50:2 81:4 99:1 113:1 126:4 139:1 142:1 170:1 172:1 209:4 214:2 265:1 320:1 343:1 344:3 351:6 359:1 363:1 419:1 454:1 543:1 547:1 559:1 684:3 690:2 735:3 736:4 737:1 738:1 739:1 740:1 741:1 742:1 743:1 744:2 745:2 746:1 747:2 748:2 749:2 750:7 751:2 752:3 753:1 754:1 755:1 756:1 757:1 758:2 759:1 760:1 761:2 762:1 763:1 764:1 765:1 766:1 767:1 768:1 769:1 770:1 771:1 772:1 773:3 774:1 775:3 776:1 777:1 778:1 779:1 780:3 781:1 782:1 783:1 784:1 785:2 786:1 787:1 788:1 789:1 790:1 791:1 792:1 793:1 #
0.0047264928719941666501735966221531 3:1 6:3 19:2 21:1 27:1 40:1 42:1 275:1 316:1 398:1 473:1 486:2 492:1 493:1 562:1 702:1 841:1 1494:1 1709:1 1778:2 1779:1 1780:1 1781:1 1782:2 1783:2 1784:1 1785:1 1786:1 1787:1 1788:1 #
-0.00085735229271344801701276727712298 9:1 17:1 19:2 21:2 24:2 27:1 30:1 42:10 99:1 175:1 205:2 250:6 289:1 320:1 323:1 328:2 351:3 363:1 487:1 561:1 581:2 629:1 735:3 736:6 892:1 956:1 967:1 986:4 1201:1 1254:8 1328:4 1484:1 2233:1 2250:1 2367:4 3167:1 3226:2 4117:1 4772:2 4903:3 5706:4 11927:1 12918:1 13127:4 15162:1 18124:2 29161:1 29162:1 29163:3 29164:3 29165:1 29166:3 29167:2 29168:1 29169:1 29170:1 29171:1 29172:1 29173:1 29174:1 29175:1 29176:1 29177:1 29178:1 29179:1 #
-0.0047264928719941666501735966221531 6:3 18:1 19:3 27:1 42:2 57:4 152:2 172:2 333:2 344:2 347:1 351:3 419:1 492:3 493:1 590:1 613:1 645:1 690:2 727:1 757:1 772:1 1193:2 1844:3 1849:1 2078:3 2624:1 4424:1 4824:1 5161:1 11838:1 21254:2 21255:1 21256:1 21257:1 #
-0.0011565564459442272821076969080423 6:1 15:5 18:2 19:2 21:2 27:1 30:1 33:3 95:1 103:1 164:10 172:1 202:1 221:2 239:8 245:2 264:1 265:3 289:1 311:2 319:1 324:2 338:1 351:3 374:1 467:1 571:1 677:3 723:1 780:1 799:1 819:1 868:1 926:5 1178:1 1212:7 1213:1 1237:4 1254:1 1328:1 1578:1 1849:1 2127:3 2204:1 2241:1 2510:1 2751:1 2828:1 2905:1 2924:2 2926:1 3288:1 4465:1 4568:1 5065:4 5395:2 5658:1 6494:1 6939:1 7058:1 8681:1 8742:2 8934:1 14611:1 14819:1 14995:1 15138:1 15516:1 16561:1 17141:1 21494:1 25105:6 25106:2 25107:4 25108:1 25109:1 25110:2 25111:1 25112:2 25113:1 25114:1 25115:1 25116:1 25117:1 25118:1 25119:1 25120:1 25121:4 25122:1 25123:2 25124:1 25125:3 25126:1 25127:2 25128:2 25129:1 25130:1 25131:1 25132:1 25133:1 25134:1 25135:1 25136:1 25137:1 25138:1 #
-0.00067139259034048768756686165204428 18:1 19:3 27:2 30:1 42:9 139:1 183:1 209:3 215:1 221:1 256:4 275:1 325:1 409:5 620:3 662:1 709:1 780:1 799:1 825:1 936:1 1117:1 1153:1 1288:1 1378:1 1533:1 1578:1 1733:1 1900:1 1942:1 2026:2 2206:1 2311:2 2717:3 2718:2 2719:1 2720:1 2721:5 2722:2 2723:1 2724:2 2725:2 2726:1 2727:1 2728:1 2729:1 2730:2 2731:3 2732:1 2733:2 2734:1 2735:3 2736:1 2737:1 2738:1 2739:1 2740:1 2741:1 2742:2 2743:1 2744:1 2745:1 2746:1 2747:1 2748:1 2749:1 2750:1 2751:1 2752:1 2753:1 2754:1 2755:1 2756:1 2757:1 2758:1 2759:1 2760:1 2761:1 2762:1 2763:1 2764:1 #
-0.00012989561538150591417893620072022 6:5 19:2 20:1 27:1 30:1 42:3 82:9 99:1 113:1 265:1 280:1 282:1 288:2 416:1 488:1 492:9 618:1 628:4 665:1 669:1 723:1 780:7 791:1 1057:1 1168:1 1247:1 1248:1 1328:2 1484:1 1533:1 2028:1 2064:1 2103:1 2312:1 2723:1 3185:1 7035:1 7070:6 7110:6 7249:2 9135:1 9622:1 11131:1 12130:1 14133:1 22526:2 22527:1 22528:1 22529:1 22530:1 22531:26 22532:7 22533:3 22534:11 22535:1 22536:1 22537:1 22538:1 22539:1 22540:1 22541:1 22542:1 22543:1 22544:1 22545:1 22546:1 22547:5 22548:5 22549:5 22550:5 22551:1 22552:2 22553:4 22554:2 22555:2 22556:2 22557:2 22558:1 #
0.0047264928719941666501735966221531 19:2 27:1 30:1 103:4 105:1 137:1 343:1 356:1 359:1 543:2 546:3 547:5 548:2 549:1 551:1 614:3 726:1 727:1 728:1 729:1 730:3 731:1 732:1 733:1 734:2 #
0.0047264928719941666501735966221531 7:2 18:2 19:3 24:2 37:1 103:1 151:3 213:1 221:1 273:1 328:1 336:7 416:1 494:1 497:1 498:1 562:3 579:1 677:4 735:1 811:1 823:1 1064:1 1189:1 1190:5 1191:2 1192:1 1193:1 1194:1 1195:1 1196:1 1197:1 1198:2 1199:1 1200:1 1201:1 1202:1 1203:1 1204:1 1205:1 1206:1 1207:1 1208:1 1209:1 1210:1 1211:2 1212:2 1213:1 1214:1 1215:1 1216:1 1217:1 1218:1 #
-0.0021079975102684320176216203890363 19:1 20:1 27:1 103:2 126:5 137:1 238:1 245:1 253:2 254:1 343:12 398:2 484:2 497:1 499:2 543:3 546:3 547:5 548:2 549:1 551:1 558:1 614:7 618:1 668:6 675:1 699:1 700:3 703:3 729:1 730:3 780:3 782:2 870:2 872:1 949:1 986:4 1012:1 1013:1 1017:2 1240:1 1292:1 1442:1 1781:1 1818:1 1982:1 2197:1 2219:4 2528:1 3890:1 4038:1 4066:1 4099:3 4339:1 4380:1 4846:6 5052:1 5746:1 6204:1 9822:2 12289:6 12765:2 15019:1 16551:1 16613:2 16614:2 16615:1 16616:1 16617:1 16618:1 16619:1 16620:1 16621:1 16622:2 16623:2 16624:1 16625:1 16626:1 #
0.0047264928719941666501735966221531 5:1 19:1 21:3 95:1 99:1 103:5 137:1 307:2 343:4 506:1 507:4 508:1 509:1 510:1 511:1 512:2 513:2 514:1 515:1 516:1 517:6 518:1 519:1 520:1 521:1 522:1 523:1 524:3 525:2 526:1 527:2 528:1 529:1 530:1 531:1 532:1 533:1 534:1 535:2 536:1 537:1 538:1 539:1 540:1 541:1 542:1 543:2 544:1 545:1 546:3 547:4 548:2 549:1 550:1 551:1 552:1 553:1 #
-0.0038724741552374208897191465439391 19:2 21:2 36:2 157:2 209:1 299:2 359:1 395:1 684:2 709:1 810:2 1071:3 2293:1 3475:1 7378:1 8131:1 8132:1 8133:1 8134:2 8135:2 8136:5 8137:1 8138:1 8139:1 #
-0.00027249946928234962785844719412864 19:2 30:1 103:2 126:6 137:1 149:1 150:2 172:3 275:1 343:8 366:1 437:1 543:1 546:3 547:4 548:2 549:1 550:1 551:1 552:1 553:1 618:1 967:1 1094:1 1139:1 1328:2 1391:6 1454:1 1491:2 2219:1 2387:5 2980:1 3391:4 4305:1 5052:1 5085:1 5675:17 6622:1 7061:1 7105:3 7973:1 8703:3 13083:9 13084:7 13085:3 13086:2 13087:1 13088:1 13089:1 13090:1 13091:1 13092:1 13093:1 13094:1 13095:1 13096:1 13097:1 13098:1 13099:1 13100:1 13101:1 13102:1 13103:5 13104:1 13105:1 13106:1 13107:1 13108:1 13109:2 13110:1 13111:1 13112:1 13113:1 13114:1 13115:1 13116:1 13117:1 13118:1 13119:1 13120:1 #
0.0047264928719941666501735966221531 18:2 19:2 21:3 27:1 30:1 36:4 42:3 95:3 99:1 103:1 157:1 169:1 170:1 236:1 239:5 262:1 299:1 385:1 389:1 406:4 429:1 499:1 515:1 541:2 645:2 692:1 1226:1 1414:1 1415:1 1416:1 1417:2 1418:1 1419:1 1420:1 1421:1 1422:1 1423:1 1424:1 1425:1 1426:2 1427:1 1428:2 1429:1 1430:1 1431:1 1432:1 1433:1 1434:1 1435:1 1436:1 1437:1 1438:1 #
0.0047264928719941666501735966221531 19:3 36:2 42:3 85:1 95:1 102:4 103:2 113:1 149:1 157:1 212:1 215:1 316:2 325:1 327:3 372:1 492:1 735:1 819:1 832:2 892:1 1016:3 1159:1 1205:1 1240:1 1247:1 1339:1 1340:1 1341:1 1342:1 1343:1 1344:1 1345:1 1346:3 1347:1 1348:3 1349:3 1350:1 1351:3 1352:1 1353:1 1354:1 1355:1 1356:1 1357:1 1358:2 1359:2 1360:2 1361:1 1362:1 1363:1 1364:1 #
-0.0047264928719941666501735966221531 18:1 19:3 27:1 36:5 103:1 152:1 172:1 235:1 245:1 289:1 323:1 327:6 376:4 494:1 571:1 665:1 677:6 746:1 944:2 970:1 990:1 1604:1 1735:1 1893:1 1992:1 2084:1 2567:1 3392:1 5079:1 5408:1 5553:1 25275:2 25276:1 25277:1 25278:4 25279:1 25280:1 25281:1 25282:1 25283:1 25284:1 25285:1 25286:1 25287:1 #
-0.0019525375172613807124577522955633 3:1 6:1 19:3 27:1 39:1 42:1 95:2 273:3 278:1 374:3 435:1 454:1 470:1 498:1 557:1 561:1 562:1 611:1 671:1 677:5 750:1 757:1 794:1 846:1 908:1 972:1 979:1 1086:1 1168:1 1186:2 1689:1 1816:4 1908:2 1992:1 3473:1 3681:1 3682:1 4123:1 4144:1 4735:1 6547:1 6548:1 6549:1 6550:1 6551:1 6552:1 6553:1 6554:1 6555:1 6556:1 6557:1 6558:2 6559:1 6560:1 6561:1 6562:1 6563:2 6564:1 6565:1 6566:1 6567:1 6568:3 6569:1 6570:3 6571:2 6572:1 6573:3 6574:1 6575:2 6576:1 6577:1 6578:1 6579:1 6580:1 6581:1 6582:1 6583:1 6584:1 #
-0.0003959845066567525178127806562145 16:1 19:3 30:1 103:1 215:1 234:1 289:3 292:2 338:1 373:1 493:1 497:2 557:5 792:2 851:2 853:4 874:2 904:2 967:1 1061:1 1117:1 1168:1 1422:1 1445:1 1737:1 2028:1 2621:3 2867:2 2984:1 3027:1 3473:3 3666:1 3700:3 4626:6 4968:1 5328:1 5371:2 6844:2 8102:1 8700:1 9825:2 9948:1 9949:1 9950:3 9951:2 9952:2 9953:2 9954:2 9955:2 9956:2 9957:2 9958:1 9959:1 9960:3 9961:2 9962:1 9963:2 9964:2 9965:2 9966:3 9967:1 9968:1 9969:1 9970:4 9971:1 9972:3 9973:1 9974:1 9975:3 9976:1 9977:1 9978:1 9979:1 9980:2 9981:1 9982:2 9983:1 #
-0.0020471832702795567104914198353072 19:1 20:1 21:3 27:1 36:5 42:1 103:2 212:1 245:1 292:1 299:1 322:1 327:2 429:3 493:1 497:1 571:1 700:1 757:5 1281:1 1292:1 1574:1 1703:2 1907:1 2027:1 2164:1 2971:1 4040:1 4724:1 5039:1 14413:3 27885:1 27886:1 27887:1 27888:1 27889:2 27890:1 27891:1 27892:1 27893:1 27894:1 27895:1 27896:1 27897:1 27898:2 27899:1 27900:1 27901:1 27902:1 27903:1 27904:1 27905:1 #
-0.00030361994884295313628860824017863 7:1 19:1 30:1 42:8 95:1 103:1 162:3 175:4 202:2 209:2 222:6 275:1 288:1 343:1 373:1 476:1 562:1 571:1 645:4 669:5 705:1 1328:2 1491:3 1815:1 1869:1 1920:1 1990:8 2317:1 3185:2 4123:1 4681:1 4772:1 5750:1 5762:2 6493:2 6711:2 16442:1 18182:1 21261:1 30404:2 30405:1 30406:1 30407:1 30408:1 30409:1 30410:1 30411:1 #
0.0047264928719941666501735966221531 6:2 19:2 21:1 42:1 95:1 103:2 105:1 137:1 209:3 246:1 275:1 278:1 341:1 342:1 343:3 344:1 345:1 346:1 347:1 348:2 349:3 350:2 351:1 352:4 353:1 354:1 355:1 356:2 357:2 358:1 359:1 360:1 361:1 362:1 363:1 364:1 365:1 366:1 367:1 368:2 369:1 370:1 371:1 372:1 #
0.0047264928719941666501735966221531 19:3 21:1 27:1 30:1 36:1 57:1 238:1 239:6 288:1 343:3 515:1 669:2 690:2 795:1 1226:1 1487:2 1857:1 1858:1 1859:1 1860:1 1861:1 1862:1 1863:1 1864:2 1865:1 1866:1 #
-0.0020844920892551591085073425801966 7:3 19:5 20:2 21:10 24:1 27:2 33:1 142:1 209:1 292:1 323:2 338:1 419:1 453:1 454:1 472:3 476:1 571:1 667:1 692:1 700:1 720:1 742:1 819:1 879:1 1085:1 1229:2 1488:1 1493:1 1729:1 1762:1 1964:2 2030:1 2406:3 2711:3 3592:2 4053:1 4690:1 5203:1 6623:1 6883:1 7055:2 7309:1 7833:1 8926:1 9080:3 9331:1 10189:1 12173:1 12678:1 12679:1 12680:1 12681:1 12682:1 12683:1 12684:6 12685:1 12686:1 12687:1 12688:1 12689:1 #
-0.00036774713189208820809592004330568 19:3 36:1 103:4 211:1 288:3 298:1 343:18 359:1 429:2 437:2 484:1 492:2 493:2 543:5 547:2 553:1 556:13 559:11 692:1 723:1 728:1 753:1 899:1 948:1 1009:1 1224:1 1243:1 1251:2 1464:1 1465:1 1578:1 1969:4 1992:1 2219:2 3890:1 4040:2 4592:1 4824:1 4936:3 5122:4 5252:2 5811:1 6109:2 6117:1 6118:1 6119:1 6127:1 6137:1 6799:1 9591:1 11389:1 11390:1 13203:1 14413:2 17016:1 17085:1 20137:2 21090:1 21091:1 21092:1 21093:1 21094:1 21095:1 21096:1 21097:2 21098:6 21099:2 21100:1 21101:1 21102:1 21103:1 21104:1 21105:1 21106:1 21107:1 21108:1 21109:1 21110:1 21111:1 21112:1 21113:1 21114:1 21115:1 21116:1 21117:1 21118:1 21119:1 21120:1 21121:1 21122:1 21123:1 21124:2 21125:2 21126:1 21127:1 21128:1 21129:1 #
-2.04409836104468557084631007148e-06 19:1 21:1 36:1 42:1 44:1 99:2 103:1 169:1 209:1 245:1 256:2 311:1 429:1 435:1 485:3 493:1 566:1 689:1 745:1 753:1 803:1 948:1 1292:1 1433:1 1484:3 1869:2 1969:1 2237:1 2378:3 2622:1 2638:1 2676:1 3602:1 4039:7 5647:5 6109:1 6137:1 7138:1 9732:1 12295:1 23923:3 24805:1 24806:2 24807:4 24808:1 24809:1 24810:1 24811:1 24812:1 24813:1 24814:6 24815:1 24816:1 24817:1 24818:1 24819:1 24820:1 24821:1 24822:1 24823:1 24824:1 #
-0.00047663205666908137377035803439185 6:2 19:2 20:1 27:1 95:2 103:1 147:1 169:1 170:1 209:1 230:1 232:1 288:1 319:1 320:1 343:9 546:7 611:1 699:1 799:1 819:1 1328:2 1433:1 1470:1 1721:1 1895:1 1944:1 2864:4 3411:1 3500:1 4003:1 5030:7 5034:4 7366:10 11828:1 12265:1 16680:1 17377:1 22139:1 22140:1 22141:1 22142:1 22143:1 22144:1 22145:1 22146:1 22147:2 22148:1 22149:1 22150:1 22151:1 22152:8 22153:1 22154:7 22155:1 22156:1 22157:1 22158:1 22159:1 22160:1 22161:1 22162:1 22163:2 22164:1 #
0.0047264928719941666501735966221531 2:1 5:1 6:3 13:2 18:1 19:1 21:1 27:1 265:1 338:1 343:1 428:1 435:1 452:1 493:1 494:1 495:2 662:2 709:1 750:1 772:1 788:1 948:2 986:1 1168:1 1186:1 1209:1 1238:1 1239:1 1240:1 1241:1 1242:4 1243:4 1244:1 1245:2 1246:2 1247:1 1248:1 1249:1 1250:1 1251:1 1252:1 1253:1 1254:1 1255:1 1256:1 1257:1 1258:1 1259:1 1260:1 1261:1 1262:1 1263:1 1264:1 1265:1 1266:1 #
0.0047264928719941666501735966221531 19:1 21:2 27:1 39:1 44:8 81:1 87:1 95:1 149:1 151:2 164:5 261:9 277:1 289:6 305:2 306:1 373:1 424:1 435:2 440:1 441:1 442:1 443:1 444:1 445:1 446:1 447:1 448:1 449:1 450:1 451:1 452:2 453:1 454:1 455:1 456:1 457:1 458:1 459:1 460:1 461:1 462:3 463:2 464:2 465:1 466:1 467:4 468:1 469:1 470:1 471:1 472:1 473:1 474:1 475:1 476:1 477:1 478:1 479:1 480:1 481:1 #
-0.0012865465304204141451516196781313 5:3 27:1 234:1 257:1 486:6 573:2 579:3 1391:1 2363:1 7016:2 9870:1 9871:1 9872:2 9873:2 9874:2 9875:1 #
-0.0012240253701988287361734908387234 19:1 239:5 320:1 324:1 325:1 373:1 435:1 470:1 492:1 662:1 733:3 1228:1 1247:1 1266:1 1573:2 1709:1 2312:1 2672:2 2863:1 3390:1 3968:2 4587:1 5017:1 5394:1 5972:1 5973:1 17636:1 18035:1 21747:2 22426:1 28140:1 28141:1 28142:1 28143:1 28144:1 28145:1 28146:1 #
-0.003467440188893640765077641674452 5:2 18:2 19:3 30:1 99:1 149:1 156:1 209:1 215:1 239:2 289:1 423:1 453:1 570:1 577:1 585:1 662:1 692:1 996:1 1064:1 1604:1 1944:1 3404:1 3769:2 5270:1 6739:1 7558:1 8324:2 8325:1 8326:1 8327:2 8328:1 8329:1 8330:1 8331:2 8332:1 8333:1 8334:2 8335:1 8336:1 8337:1 8338:1 8339:1 #
-4.6044512979561099991383799068245e-06 19:1 30:1 103:1 137:5 275:2 350:10 359:1 419:1 435:1 453:1 492:3 562:1 652:1 699:1 700:2 795:5 846:1 1206:1 1604:1 2234:1 2380:1 2523:2 2926:1 3820:1 4336:1 5094:1 5408:1 6206:2 6207:3 6210:1 6214:33 9416:1 9606:2 11108:3 17607:1 21130:4 21131:1 21132:1 21133:1 21134:1 21135:4 21136:2 21137:2 21138:3 21139:1 21140:1 21141:39 21142:36 21143:5 21144:4 21145:1 21146:1 21147:1 21148:2 21149:2 21150:27 21151:17 21152:6 21153:3 21154:3 21155:3 21156:4 21157:9 21158:1 21159:3 21160:1 21161:1 21162:1 21163:2 21164:2 21165:2 21166:1 #
0.0047264928719941666501735966221531 18:1 19:3 21:3 27:1 36:3 42:1 113:1 142:1 157:1 169:1 170:1 209:1 327:2 373:1 374:1 375:1 376:2 377:5 378:1 379:1 380:1 381:1 382:1 383:1 384:1 385:2 386:2 387:2 388:2 389:1 390:1 391:1 392:1 393:1 394:1 395:1 396:1 397:2 398:1 #
0.0047264928719941666501735966221531 18:1 19:1 21:6 57:1 63:1 103:1 157:1 209:2 319:1 354:1 515:2 584:1 757:1 944:1 1063:1 1671:1 1672:1 1673:1 1674:1 1675:2 1676:1 1677:1 1678:1 1679:1 1680:1 1681:1 #
-0.0022306006401767901684007888718497 8:1 18:6 19:1 21:7 27:1 36:4 39:3 40:7 78:1 157:1 212:1 221:1 245:1 277:1 299:5 324:1 503:1 562:2 775:7 1465:1 1494:1 1708:1 1734:1 2116:1 2128:1 2624:1 4711:3 4740:1 8029:1 8845:1 8846:1 8847:1 8848:1 8849:1 8850:1 #
-6.8857631921605803480487817402889e-05 3:1 6:2 19:1 27:1 37:1 99:1 113:1 149:2 202:1 209:1 210:1 221:1 229:1 238:2 246:1 250:1 265:3 275:1 288:4 338:1 350:1 401:1 424:1 435:3 494:3 566:1 571:1 628:3 639:1 669:5 675:6 680:3 682:1 720:1 735:1 749:1 756:1 757:1 782:2 783:1 794:5 803:1 810:1 820:4 821:1 841:1 870:1 941:1 976:1 986:2 1005:1 1046:1 1186:1 1198:1 1206:2 1454:1 1456:1 1680:41 1710:1 1763:1 1800:3 1822:1 1867:3 1908:2 2006:1 2028:1 2032:6 2038:1 2065:1 2206:1 2224:2 2237:1 2245:2 2264:1 2280:1 2456:1 2475:1 2523:2 2551:1 2715:1 2738:1 2778:4 2788:1 2983:2 3500:1 3565:2 3611:5 3702:3 4077:1 4126:2 4335:1 4478:1 4514:1 4701:1 4798:1 4858:1 5094:4 5097:1 5756:1 6594:1 6688:1 6750:4 6770:1 6990:1 7619:1 7780:1 7978:1 8276:1 8827:1 8929:1 9326:1 9416:7 9649:1 9760:2 10154:1 11820:2 12311:1 13194:2 14341:1 15767:1 15768:1 15769:1 15770:1 15771:1 15772:1 15773:1 15774:5 15775:1 15776:1 15777:1 15778:1 15779:1 15780:1 15781:1 15782:1 15783:2 15784:1 15785:1 15786:1 15787:3 15788:1 15789:1 15790:1 15791:1 15792:1 15793:2 15794:1 15795:2 15796:1 15797:1 15798:1 15799:2 15800:1 15801:1 15802:1 15803:1 15804:1 15805:1 15806:1 15807:1 15808:1 15809:1 15810:2 15811:1 15812:4 15813:4 15814:11 15815:1 15816:1 15817:3 15818:1 15819:1 15820:1 15821:1 15822:1 15823:1 15824:1 15825:1 15826:1 15827:2 15828:1 15829:1 15830:2 15831:2 15832:1 15833:1 15834:1 15835:1 15836:1 15837:1 15838:1 #
-3.5815743111440310792077668100575e-05 18:1 19:4 20:1 27:3 30:2 99:2 105:1 152:2 265:3 278:1 320:1 493:8 757:1 791:1 846:1 1662:1 1764:1 1894:1 1958:1 2204:1 2234:4 2381:2 2764:1 3577:8 5131:6 7326:6 7452:14 7472:7 8590:1 9603:5 12763:1 13694:1 15608:6 15632:1 18226:1 21474:1 22437:1 24221:1 24222:1 24223:2 24224:2 24225:1 24226:2 #
-0.00087434064769231496349471965956468 7:1 18:5 19:1 21:3 36:7 42:3 44:3 57:3 99:1 103:2 152:7 157:1 209:1 215:1 281:1 288:12 299:2 312:3 327:1 335:1 385:4 389:3 429:2 476:1 562:1 571:1 652:11 662:1 723:1 757:1 775:2 852:13 1181:2 1340:1 1417:1 1513:1 1652:1 1653:1 2101:6 3199:1 4144:2 19616:1 19617:1 19618:3 19619:1 19620:1 19621:2 19622:1 19623:3 19624:2 19625:1 19626:1 19627:10 19628:2 19629:1 19630:1 #
-0.0032323891248681809081066962363593 6:2 19:1 21:1 27:2 36:1 57:2 211:1 235:1 299:2 315:2 325:1 338:1 360:1 423:1 429:1 690:2 757:3 772:1 900:1 1064:1 1071:2 1401:1 1574:1 1578:1 2116:1 2250:1 2370:1 5687:1 5688:3 5689:1 5690:1 5691:1 5692:1 #
0.0047264928719941666501735966221531 19:1 20:1 24:1 221:1 265:1 275:1 316:1 320:1 371:1 407:1 559:1 635:1 636:1 637:1 638:1 639:1 640:1 641:1 642:1 643:1 644:1 645:1 646:1 647:1 648:1 649:1 650:1 651:1 652:1 653:2 654:1 655:1 656:1 657:1 658:1 659:1 660:1 661:1 662:1 663:1 664:1 #
0.0047264928719941666501735966221531 36:1 209:1 239:1 288:1 289:1 359:1 485:1 732:1 791:1 870:1 871:2 872:2 873:1 874:1 875:1 876:1 877:1 878:1 #
0.0047264928719941666501735966221531 3:1 19:2 20:1 27:1 42:2 95:1 99:1 102:2 103:2 176:1 419:1 423:1 454:1 487:1 735:1 829:1 830:1 831:2 832:2 833:1 834:1 835:1 836:2 837:1 838:1 839:1 840:1 841:1 842:1 #
0.0047264928719941666501735966221531 2:1 401:1 705:1 1064:1 1454:1 1816:4 1853:1 1854:1 1855:1 1856:1 #
0.0047264928719941666501735966221531 2:1 18:2 19:2 27:1 263:1 323:1 325:1 335:1 423:1 453:1 495:1 617:1 677:2 824:1 892:1 975:1 976:1 1582:1 1583:1 1584:2 1585:2 1586:1 1587:5 1588:1 1589:3 1590:1 1591:1 1592:1 1593:1 1594:1 1595:1 1596:1 1597:1 1598:1 1599:1 1600:1 1601:1 1602:1 1603:1 1604:1 #
-0.00033988966508264342953130054958422 19:2 27:1 30:2 128:3 206:1 221:1 238:5 251:2 265:12 327:1 346:1 420:1 467:1 492:6 669:3 677:12 1046:1 1064:1 1285:1 1301:1 1574:1 1596:1 1869:1 2044:1 2120:1 2340:1 2621:1 2855:4 2864:1 3289:1 3944:3 4428:5 4435:3 4454:5 4480:1 4604:1 5034:3 5965:1 5972:1 5973:1 7935:1 9454:3 10523:13 16135:3 19832:1 19833:1 19834:3 19835:1 19836:3 19837:3 19838:1 19839:3 19840:3 19841:3 19842:1 19843:3 19844:1 19845:1 19846:1 19847:1 19848:1 19849:1 19850:1 19851:1 19852:1 19853:1 19854:1 19855:1 19856:1 19857:1 19858:1 19859:1 19860:1 19861:1 19862:6 19863:6 19864:1 19865:2 #
-0.0012696071789731768440778747475406 19:1 27:1 407:2 677:3 706:1 1375:2 1378:1 1570:1 1578:1 1736:3 4335:1 4531:3 7314:2 8501:1 8502:2 8503:1 8504:1 8505:1 8506:1 #
-0.00036623338751597063521828201437813 110:3 181:1 298:1 423:1 484:2 614:1 629:1 645:1 706:1 782:1 794:3 796:3 872:1 904:1 1244:1 1390:1 1454:1 1641:2 1717:1 2259:1 2378:1 3676:1 4002:1 5098:1 5210:1 5211:1 5212:2 5213:1 5214:1 5215:1 5216:1 5217:1 5218:1 5219:1 5220:1 5221:1 5222:1 5223:1 5224:1 5225:1 #
-0.001104253359233266966812903042694 19:2 24:1 30:2 55:2 209:2 250:1 260:2 261:5 361:1 435:4 452:3 459:2 467:1 470:1 494:1 612:1 667:1 690:2 791:1 795:1 892:1 915:1 1745:1 1762:1 2043:1 2199:1 2441:2 3178:1 3437:1 3811:1 4824:1 5578:1 8101:1 8670:1 11238:1 11239:1 11240:1 11241:3 11242:4 11243:2 11244:2 11245:2 11246:1 11247:2 #
-0.0041800752833284111897871326846143 9:1 17:3 18:2 19:2 21:4 27:1 36:4 42:5 95:2 99:1 144:5 150:1 157:1 170:1 299:1 359:1 378:1 385:1 416:2 429:2 493:1 620:4 752:1 753:1 908:2 1016:2 1048:1 1219:1 1268:1 1350:3 1367:3 1451:1 1732:2 1750:1 1777:2 2248:2 2988:2 3282:1 3500:1 4407:1 7434:1 10062:1 20196:2 20197:1 20198:1 20199:1 20200:5 20201:1 20202:1 20203:1 20204:1 20205:1 20206:1 20207:3 20208:1 20209:1 20210:1 20211:1 20212:1 20213:1 20214:1 20215:1 20216:1 20217:1 #
-0.00035433135608880291390204719803592 19:4 21:1 27:1 30:2 36:7 42:2 44:1 113:1 126:2 169:2 170:1 172:1 191:1 265:1 277:2 296:1 305:2 361:1 385:4 398:1 407:1 416:1 423:1 429:6 437:1 484:2 488:1 558:1 559:1 562:1 564:3 588:3 688:3 709:1 750:2 753:3 783:1 904:1 986:1 1026:2 1087:1 1219:1 1367:1 1433:2 1894:1 1992:1 2127:3 2222:1 2230:3 2357:2 2358:2 2513:4 2517:1 4003:1 5086:2 5089:1 5121:11 5560:1 5929:5 5934:5 10562:1 10941:2 10997:1 10999:1 11156:1 11163:1 12653:1 15908:1 19776:1 19777:1 19778:1 19779:1 19780:1 19781:1 19782:4 19783:1 19784:4 19785:1 19786:1 19787:1 19788:2 19789:3 19790:2 19791:1 19792:2 19793:1 19794:1 19795:1 19796:1 19797:1 19798:1 19799:1 19800:1 19801:1 19802:1 19803:1 19804:1 19805:2 19806:2 19807:4 19808:2 19809:2 19810:1 19811:1 19812:2 19813:1 19814:1 19815:1 19816:1 19817:1 19818:1 #
-0.00024514438110187020472552354988238 5:1 19:1 27:4 82:1 95:57 113:2 142:1 176:1 239:1 247:1 248:1 322:1 324:1 411:1 412:1 416:3 420:1 579:1 757:8 926:1 1179:1 1212:2 1704:3 1709:1 1710:1 1712:1 1729:1 1911:1 1992:1 2369:1 2600:1 2621:1 3431:1 3432:1 3471:4 3472:1 3569:1 3824:1 3891:1 4748:1 4774:1 4776:1 5074:1 5118:1 5121:2 5447:1 5724:1 5726:1 6181:1 6308:1 9746:1 11743:1 12729:1 14570:1 14571:2 14572:1 14573:1 14574:1 14575:1 14576:1 14577:1 14578:1 #
-0.0030828851509834219978001268458456 6:2 19:1 27:1 36:1 42:5 47:1 93:1 99:3 103:5 239:1 282:1 325:1 373:1 435:2 496:2 566:1 612:2 620:2 699:1 863:1 1094:1 1186:2 1212:1 1291:1 1637:3 1646:1 1710:1 1784:1 1989:1 2140:1 2807:1 3242:1 3354:1 3358:1 3916:1 4389:1 4568:1 5161:1 5447:2 7182:1 12238:1 16925:7 24210:1 24211:1 24212:1 24213:1 24214:3 24215:1 24216:1 24217:1 24218:1 24219:1 24220:1 #
0.0047264928719941666501735966221531 3:1 4:1 19:2 21:3 24:2 27:1 164:1 212:6 316:2 323:1 325:1 335:1 419:1 645:1 986:1 1057:1 1064:1 1174:1 1175:3 1176:1 1177:1 1178:1 1179:1 1180:1 1181:1 1182:1 1183:2 1184:2 1185:1 1186:1 1187:2 1188:1 #
0.0047264928719941666501735966221531 2:1 19:2 21:4 24:4 245:1 265:1 325:1 423:1 435:1 515:1 571:1 573:1 752:2 782:1 796:1 820:1 892:1 1064:1 1247:1 1292:1 1362:1 1681:1 1754:1 1755:1 1756:2 1757:1 1758:1 1759:2 1760:1 1761:1 1762:1 1763:1 1764:1 1765:1 1766:1 1767:1 1768:1 1769:1 1770:1 1771:1 1772:1 1773:1 1774:1 1775:1 1776:1 1777:1 #
0.0047264928719941666501735966221531 2:1 21:1 205:1 259:1 343:1 908:1 1308:1 1406:1 1775:1 1852:1 #
0.0047264928719941666501735966221531 6:1 14:1 19:1 20:1 21:1 27:1 199:1 215:1 221:1 239:1 265:1 273:2 320:1 321:1 322:1 323:2 324:1 325:1 326:1 327:2 328:1 329:1 330:1 331:1 332:1 333:1 334:1 335:1 336:1 337:1 338:1 339:1 340:1 #
-0.0016663748051003277484555242793363 150:1 209:1 321:4 333:1 334:2 428:1 705:1 1114:1 1189:1 1809:1 3138:1 6080:1 21130:1 24269:3 #
-0.0011764263812512336555837766383092 19:2 20:1 24:3 27:1 105:1 280:1 325:1 487:1 566:1 680:1 772:1 1057:1 1228:1 6722:1 15846:2 15847:2 15848:2 15849:2 15850:2 15851:2 #
-0.00024659118390268452807034815776888 19:1 27:2 30:1 205:1 218:2 437:1 485:2 493:1 644:1 798:1 829:1 978:6 1057:1 1064:1 1388:1 1660:2 1922:2 2339:1 3523:1 3641:1 5200:2 11776:2 13859:2 29295:2 29296:6 29297:2 29298:2 29299:2 29300:2 29301:2 29302:2 29303:1 29304:2 #
-0.0014274726618332300893954300846644 20:1 184:2 289:2 322:1 782:1 850:1 851:1 852:2 853:2 857:1 858:1 859:1 860:1 861:1 862:1 1911:1 2170:1 2867:2 16715:1 23849:1 29628:1 29629:1 29630:2 29631:2 29632:2 29633:1 29634:1 #
-0.0047264928719941666501735966221531 7:1 19:1 27:1 36:2 103:1 157:1 212:1 288:2 327:2 395:1 429:2 667:1 904:2 1086:1 1198:2 1545:2 1776:1 2035:1 2048:1 2083:1 4514:1 4952:1 13917:1 25259:1 25260:1 25261:1 #
-0.0010879346504651522635487292944845 3:2 4:1 19:3 27:1 44:3 49:1 50:1 151:4 209:1 221:1 245:1 250:2 316:1 423:1 571:1 579:1 620:1 697:1 819:1 977:2 999:1 1456:1 1494:1 1671:1 1781:1 2025:2 3306:8 3307:1 3672:5 5125:1 12754:1 20014:4 20015:1 20016:6 20017:1 20018:1 20019:1 20020:1 20021:1 20022:1 20023:2 20024:1 20025:3 20026:1 #
-0.001000964708829012866919683233391 19:2 21:2 27:2 30:1 36:7 40:5 57:2 103:1 105:1 157:1 164:2 202:1 209:1 276:1 280:3 288:2 361:1 416:1 488:3 618:1 719:1 944:1 1190:1 1341:1 1362:1 1698:1 1712:1 1716:1 1939:1 2253:1 2610:1 2950:2 2964:2 3806:1 4201:1 8253:2 9532:1 10429:1 12774:4 12775:1 12776:1 12777:3 12778:5 12779:1 12780:1 12781:2 12782:5 12783:1 12784:1 12785:1 12786:1 12787:1 12788:1 12789:1 12790:1 #
-0.00017923334845898513311909794332166 6:1 18:1 19:1 30:1 36:1 246:1 289:1 361:1 372:1 419:1 690:2 936:1 1578:1 1682:1 1944:1 2791:2 2792:1 2835:1 3345:1 4540:1 5724:2 5726:2 6391:7 7018:1 7019:1 7020:1 7021:1 7022:1 7023:2 7024:6 7025:1 7026:4 7027:2 7028:2 7029:1 7030:1 7031:1 7032:1 7033:1 7034:1 7035:1 7036:1 7037:1 #
-0.0025864612859344982692677561431083 19:1 21:3 27:1 28:1 36:3 40:1 157:1 288:1 289:1 575:1 577:1 627:2 632:1 1211:1 2240:1 2389:1 4612:2 4812:1 6547:1 7157:2 7978:1 8176:1 10099:1 10805:1 16808:1 16809:2 16810:1 16811:1 16812:1 16813:1 16814:1 16815:1 16816:1 16817:1 16818:1 16819:1 16820:2 16821:1 16822:1 #
0.0047264928719941666501735966221531 2:1 19:1 27:1 99:1 105:1 144:2 152:1 209:1 245:1 338:1 373:1 498:1 559:1 622:1 677:5 700:2 908:1 1186:1 1240:1 1367:2 1381:1 1721:3 1722:1 1723:2 1724:1 1725:1 1726:1 1727:1 1728:1 1729:1 1730:1 1731:1 1732:1 1733:1 1734:1 1735:1 1736:1 #
-0.0037263496651940382006773511136544 8:1 19:1 151:2 200:1 351:5 420:1 485:2 749:1 791:1 821:1 1057:1 1572:1 1573:1 1699:1 1709:2 1913:1 2389:1 3087:1 3118:1 3185:1 3470:1 4419:1 6592:1 6920:1 10814:2 11741:1 11742:1 11743:1 #
-0.00087104438242321198439949148095707 17:1 19:2 24:1 27:2 40:2 149:1 343:2 419:1 492:1 543:2 626:1 648:1 728:1 883:1 916:1 1562:1 1569:1 1672:1 1729:1 1822:2 1964:1 2188:1 2189:1 4216:1 6104:1 6717:1 7434:1 9328:1 11599:1 11631:1 11632:1 11633:1 11634:1 11635:1 11636:1 11637:2 11638:1 11639:1 11640:2 11641:1 11642:1 11643:1 #
-0.00030265111021478719333793749868278 18:1 19:1 25:1 27:1 42:1 57:2 221:1 222:1 359:1 371:1 492:1 562:1 579:1 615:1 635:1 638:2 677:6 705:1 735:1 823:1 840:2 986:1 1181:1 1190:2 1221:1 1571:1 1941:1 2489:1 3149:1 4711:3 5575:1 5620:1 6006:1 6378:1 7205:1 7206:1 7207:1 7208:1 7209:1 7210:1 7211:1 7212:1 7213:1 7214:1 7215:1 7216:1 7217:1 7218:1 7219:1 #
-0.00017507315602124172535143664664048 3:1 18:5 19:4 20:1 21:1 27:1 164:2 188:1 221:1 282:1 316:1 322:1 467:2 492:1 493:1 571:1 796:1 1159:1 1198:1 1240:1 1388:1 1442:1 1517:11 1577:1 1717:1 2017:1 2027:2 2068:1 2199:1 2204:1 2245:3 2406:4 2463:1 2828:2 3073:1 4126:1 4428:2 4454:2 4593:1 4819:1 5272:2 6046:1 8563:2 10735:2 11198:1 11199:1 11200:1 11201:1 11202:1 11203:2 11204:1 11205:1 11206:2 11207:2 11208:2 11209:7 11210:5 11211:5 11212:1 11213:1 11214:2 11215:2 11216:2 11217:1 11218:2 11219:2 11220:1 #
0.0047264928719941666501735966221531 6:1 19:1 164:1 221:1 238:2 292:1 499:2 547:2 620:1 677:1 684:1 706:1 804:1 904:1 1069:1 1227:1 1391:3 1800:1 1827:1 1828:1 1829:1 1830:1 1831:1 1832:1 1833:2 1834:1 1835:1 1836:3 1837:1 1838:2 1839:1 1840:1 1841:1 1842:1 1843:1 1844:1 1845:1 1846:1 1847:1 1848:1 1849:1 1850:1 1851:1 #
0.0047264928719941666501735966221531 2:3 21:2 82:1 103:2 210:1 215:1 484:1 497:2 530:1 607:1 611:1 670:1 731:2 934:1 1064:1 1206:1 1211:1 1267:2 1268:1 1269:1 1270:1 1271:1 1272:1 1273:1 1274:1 1275:1 1276:2 1277:1 1278:1 1279:1 1280:1 1281:1 1282:1 1283:1 1284:1 1285:1 1286:1 1287:1 1288:1 1289:1 #
-0.00021857950351929480363281921295737 9:1 21:3 150:1 209:1 246:1 250:1 323:1 564:6 628:1 668:5 700:1 709:1 783:1 846:1 1169:2 1177:2 1224:1 1671:1 1908:1 2006:1 2222:1 2249:1 2264:1 2300:1 2581:1 2973:1 3380:1 8460:2 8461:1 8462:2 8463:2 8464:1 8465:3 8466:2 8467:1 8468:1 8469:1 8470:1 8471:1 8472:1 8473:1 #
-0.0018443682348629208706675131068664 21:1 230:1 245:1 275:1 288:1 378:2 499:1 558:2 628:1 668:6 674:1 699:1 846:3 872:2 1037:1 1390:1 1908:1 2161:1 2173:2 2264:1 4528:1 5085:1 5098:2 5122:2 5301:1 5560:2 9869:1 12111:1 #
-0.00049652828031977822714759795985628 6:4 19:2 27:1 149:2 208:1 221:2 279:2 288:1 303:1 334:11 419:1 435:1 451:1 498:1 635:1 645:2 662:1 669:1 700:4 706:1 754:2 757:1 796:1 1064:1 1070:1 1106:1 1150:1 1158:1 1198:1 1210:1 1571:1 1641:1 1938:1 2003:1 2127:1 2168:1 2224:1 2249:1 2269:12 2420:1 2854:1 3080:1 3787:1 3999:1 4074:1 4079:1 4701:1 4702:1 4960:7 5122:1 5316:2 5356:2 5520:2 5580:1 5930:1 6138:1 6288:1 6718:1 7595:1 8360:1 8861:1 9481:10 9482:1 9483:1 9484:1 9485:2 9486:1 9487:1 9488:1 9489:1 9490:1 9491:3 9492:1 9493:1 9494:1 9495:1 9496:1 9497:1 9498:1 9499:1 9500:1 9501:1 #
-0.00032469753117597179026265763468473 19:3 20:2 27:2 47:1 281:1 315:1 628:2 653:4 684:3 772:1 975:1 1064:1 1067:1 1292:1 1729:1 1736:1 1894:1 1920:1 2160:1 2264:2 2379:1 2764:1 2920:7 4148:1 4608:1 5371:3 6104:1 8287:3 12045:1 12443:1 12863:1 23389:1 24825:4 24826:3 24827:3 24828:1 24829:1 24830:1 #
-0.0038276300279645562862906871259838 4:1 6:1 19:3 20:1 27:2 113:1 149:1 275:2 279:1 315:1 325:3 372:1 435:1 453:1 467:2 628:1 1292:1 1974:1 2337:1 4518:1 4704:1 4892:1 5773:1 6281:1 6463:1 7837:1 8512:1 10386:1 10517:1 10518:1 10519:1 10520:1 10521:1 10522:1 10523:1 #
0.0047264928719941666501735966221531 2:2 6:1 18:2 19:4 21:1 24:1 27:3 42:1 57:1 152:2 229:1 245:1 265:1 315:1 328:4 351:3 366:1 435:1 662:1 677:1 706:1 723:1 749:1 752:1 907:1 916:6 932:1 944:1 945:1 946:1 947:1 948:1 949:1 950:1 951:4 952:4 953:1 954:1 955:1 956:5 957:1 958:1 959:2 960:10 961:2 962:1 963:1 964:1 965:1 966:1 967:1 968:1 969:1 970:1 971:1 972:1 973:1 974:1 #
0.0047264928719941666501735966221531 2:1 19:3 21:2 30:3 36:3 42:2 57:4 211:2 221:1 236:8 288:7 304:1 325:1 429:2 495:2 702:1 703:1 704:2 705:1 706:1 707:2 708:1 709:1 710:1 711:2 712:4 713:2 714:1 715:1 716:1 717:1 718:1 719:1 720:1 721:2 722:1 723:1 724:1 725:1 #
-0.0018731899324557889450343362014451 6:1 13:8 18:3 19:2 21:3 24:9 27:1 36:7 50:1 90:2 95:2 172:1 200:1 235:1 245:3 251:1 278:2 299:1 323:1 343:2 416:3 429:3 443:1 453:2 495:2 502:2 520:2 571:1 611:1 638:1 648:2 684:1 752:5 803:1 824:2 840:1 904:1 908:1 986:1 1114:1 1273:1 1290:1 1849:1 1977:2 2214:2 2528:1 3140:1 3643:1 4389:1 5371:1 5419:1 7353:1 7827:1 9049:1 10424:1 12724:1 21304:2 22750:1 25937:3 25938:3 25939:1 25940:1 25941:1 25942:3 25943:1 25944:1 25945:1 25946:1 25947:1 25948:1 25949:1 25950:1 25951:1 25952:1 25953:1 25954:2 25955:1 25956:1 25957:1 25958:4 25959:1 25960:1 25961:1 25962:1 25963:3 25964:1 25965:1 25966:2 25967:1 25968:1 25969:1 25970:1 25971:1 25972:2 25973:1 #
-0.0026733679240625390048646803364818 6:3 18:3 19:3 21:1 24:3 27:2 36:5 42:1 50:1 57:3 95:2 99:3 100:4 142:1 157:2 209:1 221:1 280:1 288:1 311:1 327:1 338:1 406:1 415:1 419:1 435:2 453:1 495:1 502:1 612:1 614:6 628:1 804:2 1391:1 1442:1 1704:1 4144:1 5520:1 6920:1 6921:1 6922:2 6923:2 6924:3 6925:1 6926:2 6927:1 6928:1 6929:1 6930:1 6931:1 6932:1 6933:2 6934:2 6935:2 6936:1 6937:1 6938:1 #
-0.00024103778946031462876962991881413 5:1 18:1 19:8 27:2 30:5 36:1 40:1 42:5 44:1 82:2 99:2 164:1 172:1 221:1 315:1 319:1 359:1 459:1 493:11 628:1 705:1 709:1 736:2 1381:5 1578:2 1788:1 1977:3 2264:1 2479:1 2645:12 3471:1 3787:1 3807:1 4123:1 4144:1 5291:22 5436:1 6074:1 6310:1 7760:3 7897:2 11186:1 11191:1 12598:1 15399:1 18548:1 18686:1 18688:7 23874:9 24906:1 25901:1 25902:1 25903:1 25904:2 25905:1 25906:1 25907:1 25908:1 25909:1 25910:2 25911:1 25912:1 25913:1 25914:1 25915:1 25916:1 25917:1 25918:1 25919:1 25920:1 25921:1 25922:1 25923:1 25924:4 25925:1 25926:3 25927:1 25928:2 25929:1 25930:1 25931:1 25932:1 25933:2 25934:1 25935:1 25936:1 #
0.0047264928719941666501735966221531 2:2 205:1 212:4 265:2 334:1 562:1 614:1 645:2 669:1 700:1 1151:1 1177:1 1406:1 1407:1 1408:1 1409:1 1410:1 1411:1 1412:1 1413:1 #
-0.000196754765156153274639067030094 21:2 27:1 28:1 85:1 103:3 146:1 150:4 152:1 178:1 211:1 212:7 226:1 245:1 312:1 359:1 423:1 562:1 623:1 690:2 753:2 875:1 944:1 1061:1 1165:1 1166:1 1198:2 1206:1 1328:4 1387:1 1390:2 1404:1 1451:2 1527:1 1603:1 1687:2 2024:1 2028:1 2219:2 2222:1 2290:1 2482:1 2504:1 2506:1 3081:2 3652:2 4396:4 4920:1 5019:1 5766:1 6175:1 6501:5 7700:1 7701:1 7702:2 7703:1 7704:1 7705:1 7706:1 7707:1 7708:1 7709:1 7710:1 7711:1 7712:1 7713:1 7714:1 7715:1 7716:2 7717:1 7718:1 7719:1 7720:1 7721:1 7722:1 7723:1 7724:1 7725:1 7726:1 7727:1 7728:1 7729:1 7730:1 7731:2 #
-0.0017012536900302170032178716851945 81:1 113:1 149:1 221:2 265:1 277:1 289:2 297:1 315:1 361:1 435:1 596:1 627:1 669:3 731:1 792:1 846:1 872:1 1064:1 1190:1 1206:1 1247:1 1292:1 1641:1 1814:3 1816:5 2215:1 2381:1 2645:1 2732:1 2936:1 3138:1 3412:1 3686:1 3691:1 4774:1 5000:1 6080:2 10915:1 12795:1 26463:1 27962:5 27963:1 27964:3 27965:1 27966:1 27967:1 27968:1 27969:1 27970:1 27971:1 27972:1 27973:1 27974:1 #
-0.0016931702103915814618811941372201 19:2 292:1 325:1 328:1 584:2 645:1 669:1 844:1 956:2 996:1 1064:1 1292:1 1577:1 1869:1 1990:1 2283:1 2369:1 2468:1 2469:1 2470:1 2471:1 2472:1 2473:1 2474:1 2475:1 2476:1 #
-0.0047264928719941666501735966221531 19:1 21:3 30:1 99:1 103:3 113:1 212:3 238:1 245:1 275:1 323:2 343:1 423:1 562:1 573:1 667:1 1263:1 2389:1 3793:1 3819:1 5756:1 6050:1 6607:1 7210:1 8846:1 18938:1 18939:1 #
-0.00089694934086898762525680295354391 6:1 19:2 20:1 27:2 42:2 85:2 151:1 199:1 209:1 733:1 1371:1 1642:1 1992:1 2544:2 2849:2 2918:4 3774:1 3948:2 4014:2 4614:1 8660:1 8662:1 8663:1 9392:1 9393:2 9394:2 9395:4 9396:1 9397:1 9398:1 9399:1 9400:1 9401:1 9402:1 9403:1 9404:1 9405:1 9406:1 9407:1 9408:1 9409:1 9410:1 9411:1 #
-0.0015581337332533308406151695280073 6:1 19:2 21:1 113:1 157:1 175:4 188:1 211:1 265:1 275:1 288:10 321:1 325:1 338:2 361:1 373:1 398:1 416:1 429:1 477:1 495:1 497:1 662:1 669:1 670:1 705:1 712:2 719:1 753:2 802:1 872:2 875:2 883:1 967:1 969:1 1104:1 1201:1 1465:1 1816:1 1869:1 1893:1 2072:1 2104:1 2222:1 2312:1 2477:1 2478:2 2479:1 2480:1 2481:2 2482:1 2483:1 2484:1 2485:1 2486:1 2487:1 2488:1 2489:1 2490:1 2491:1 2492:1 2493:1 2494:1 2495:1 2496:1 2497:2 2498:1 2499:1 2500:1 2501:1 2502:1 2503:1 2504:1 2505:2 2506:1 2507:1 2508:1 #
-0.00038583230287042233341843200378207 19:1 21:3 36:3 99:2 157:1 169:1 170:3 209:1 238:3 244:2 288:6 299:2 327:5 385:1 389:1 429:4 437:2 476:1 571:1 700:2 752:2 975:1 1013:12 1433:1 1458:4 1652:1 1653:1 1894:1 1908:1 2050:1 2592:1 3479:1 5316:1 5969:1 6590:1 11946:2 12460:1 12832:2 14168:1 15963:1 15964:1 15965:1 15966:1 15967:7 15968:1 15969:1 15970:1 15971:2 15972:1 15973:1 15974:2 15975:1 15976:1 15977:1 15978:1 #
-0.0028686157470333879804247345646218 6:4 18:1 19:1 21:1 27:3 28:1 36:1 102:2 103:2 142:1 149:1 157:1 164:1 172:2 208:1 212:1 232:1 242:1 245:1 246:1 280:2 288:3 325:1 327:2 338:1 385:1 454:1 566:1 614:3 710:1 829:1 841:1 908:1 1151:1 1417:2 1749:1 1967:1 2128:1 2140:1 2666:1 2730:2 3172:1 6170:1 7136:2 7159:1 7877:1 8683:1 8884:1 8995:1 8996:1 8997:1 8998:2 8999:1 9000:4 9001:2 9002:1 9003:1 9004:1 9005:1 9006:1 9007:1 9008:1 9009:1 9010:1 #
-0.00091179702154417301921546235021765 9:1 14:1 18:1 19:3 21:2 27:2 36:4 42:2 81:1 95:2 113:2 170:1 288:4 299:1 319:1 320:2 374:1 385:1 429:1 492:1 576:1 588:3 620:3 687:1 752:2 792:1 908:1 977:3 1053:1 1254:1 1391:6 1433:1 1470:1 1589:1 1740:1 1833:2 1842:1 1904:3 2025:2 2456:7 3205:2 3333:1 3358:1 3385:2 3615:1 3762:1 3893:1 4064:1 4785:2 5441:1 5712:1 8516:1 9715:1 17799:1 22741:1 23921:3 23923:1 25280:2 29909:2 29910:1 29911:2 29912:1 29913:2 29914:1 29915:1 29916:1 29917:2 29918:1 29919:1 29920:1 29921:3 29922:1 29923:1 29924:2 29925:1 29926:1 29927:1 29928:1 29929:1 29930:1 29931:1 29932:2 29933:1 29934:1 29935:1 29936:1 29937:1 29938:1 29939:1 29940:2 29941:2 29942:2 29943:1 29944:1 29945:1 29946:1 29947:1 29948:1 29949:1 29950:1 29951:1 29952:1 29953:1 29954:1 29955:1 29956:1 29957:1 29958:1 29959:1 29960:1 #
-0.0017976824112379207690898264004886 3:1 6:1 7:1 19:2 21:1 27:1 28:1 103:3 142:1 209:1 261:4 315:1 325:2 338:1 367:1 472:1 557:3 562:1 611:1 753:1 984:1 1168:1 1193:1 1301:1 1302:2 1680:1 1941:1 2083:1 2100:1 2104:1 2222:1 2364:1 2441:2 2681:1 2682:2 2683:2 2684:1 2685:1 2686:2 2687:1 2688:2 2689:1 2690:1 2691:1 2692:1 2693:1 2694:2 2695:2 2696:1 2697:1 2698:1 2699:1 2700:1 2701:1 2702:1 2703:1 2704:1 2705:1 2706:1 2707:1 2708:1 2709:1 2710:1 2711:1 2712:1 #
-0.00012986113085338050836779755226047 27:1 81:1 113:1 162:8 200:1 215:2 484:4 669:1 674:4 675:2 733:1 735:4 782:7 791:1 992:10 1216:2 1284:1 1328:1 1442:1 1443:1 1636:1 1741:1 1973:1 2224:1 2264:2 2266:1 2936:1 3185:1 4111:1 4478:2 5173:1 5647:2 5776:1 8216:1 8882:1 9487:1 10288:1 10761:1 11455:1 11456:3 11457:1 11458:1 11459:2 11460:1 11461:1 11462:3 11463:1 11464:3 11465:1 11466:1 11467:1 #
-0.00011850918884328550491000231481564 6:1 19:2 27:2 30:1 73:1 162:1 209:1 246:1 265:1 324:3 343:1 416:1 423:2 435:3 487:1 495:2 497:1 566:1 571:1 597:1 692:1 986:1 1008:1 1104:1 1151:1 1179:2 1204:1 1263:1 1445:1 2184:1 2619:2 2732:1 2764:1 3082:1 3472:4 4773:6 6329:1 7234:4 7347:2 14106:1 14107:3 14108:1 14109:1 14110:2 14111:1 14112:2 14113:1 14114:1 14115:1 14116:1 14117:1 14118:1 14119:1 14120:1 14121:1 14122:1 14123:1 14124:1 14125:1 14126:1 14127:1 14128:1 14129:1 14130:1 14131:1 14132:1 14133:1 14134:1 14135:1 14136:1 14137:1 14138:1 14139:1 14140:1 14141:1 14142:1 14143:1 14144:1 14145:1 14146:1 14147:1 #
0.0047264928719941666501735966221531 6:5 19:3 50:2 99:1 149:1 221:1 275:1 304:2 316:1 338:1 373:1 385:1 499:5 598:2 680:1 692:1 819:1 822:1 904:4 944:1 975:1 976:4 990:1 1016:2 1114:1 1219:1 1233:1 1292:1 1295:4 1296:2 1298:1 1299:1 1301:2 1302:1 1456:1 1533:1 1534:1 1535:1 1536:1 1537:1 1538:2 1539:1 1540:1 1541:1 1542:1 1543:1 1544:1 1545:5 1546:1 1547:1 1548:1 1549:1 1550:1 1551:1 1552:1 1553:2 1554:1 1555:1 1556:1 1557:3 1558:1 1559:1 1560:3 1561:1 1562:1 1563:1 1564:1 1565:1 1566:1 1567:1 1568:1 1569:1 1570:1 #
-0.00047133888879984992730312609587884 6:2 19:3 57:6 99:2 164:10 209:1 211:1 275:1 338:1 354:8 389:1 419:3 453:2 562:1 598:2 619:1 677:4 757:1 794:1 803:1 936:1 1087:2 1245:4 1816:1 1842:3 2737:1 3610:2 3652:8 4121:1 4128:1 4873:3 5613:1 6093:1 7562:1 8926:1 10782:1 10900:1 10901:4 10902:6 10903:2 10904:1 10905:1 10906:4 10907:2 10908:2 10909:2 10910:3 10911:3 10912:3 10913:3 10914:3 10915:1 10916:1 10917:1 10918:1 10919:2 10920:2 10921:1 10922:1 10923:1 10924:1 10925:1 10926:1 10927:1 10928:1 10929:2 10930:1 10931:2 10932:1 10933:1 10934:1 10935:1 10936:4 #
-0.0033002183741229307138709270219579 6:1 17:1 18:1 19:1 27:1 40:2 95:1 99:2 114:1 164:1 209:2 259:1 289:1 1064:1 1717:1 2751:1 3744:1 4600:1 5393:3 6768:1 8055:1 10792:2 18915:1 21827:1 24694:1 24695:1 24696:2 24697:1 24698:1 24699:1 24700:1 24701:1 #
-0.0012726058025886439854790221914982 6:1 19:1 27:1 42:2 205:1 273:1 278:1 281:2 320:1 498:1 662:1 677:1 690:2 735:1 1646:1 2140:1 2317:1 2355:1 3181:4 3431:2 3432:2 3893:1 4465:1 5076:1 5077:1 7732:1 7733:1 7734:1 7735:1 7736:1 7737:1 7738:1 7739:1 7740:1 #
-0.0021994010279670255306183612731274 6:1 19:1 172:1 190:1 209:1 221:1 235:1 325:1 328:3 370:1 419:1 427:1 579:1 690:2 709:1 900:2 956:1 1064:1 1689:1 2473:2 2830:1 4335:1 4753:1 20075:1 24266:1 29225:1 29226:1 29227:1 #
-0.00019796316269071411960735196178263 6:1 14:3 18:12 19:3 21:3 24:4 26:1 27:1 28:2 30:1 33:1 36:22 42:7 44:2 57:14 95:4 99:8 151:2 157:1 209:1 221:2 226:4 261:1 288:1 299:10 319:1 327:1 374:1 378:8 398:1 419:1 429:9 437:2 452:1 453:2 492:1 493:7 497:1 564:1 612:1 750:1 752:3 753:18 807:1 883:1 948:2 996:1 1204:4 1219:1 1223:1 1243:1 1250:2 1251:7 1290:17 1435:1 1437:1 1465:2 1513:2 1562:1 1574:1 1625:1 1660:5 1704:1 1710:1 1869:1 1899:1 2127:7 2379:1 2672:1 2856:5 2951:1 2990:1 3494:1 3855:2 3866:3 4389:1 4518:4 4864:2 5083:1 5243:5 5245:2 5364:1 6116:16 6142:1 7456:1 7480:3 9113:1 9237:1 9943:1 11397:4 12194:1 12831:3 12832:5 12837:2 13236:1 14471:1 17488:1 18240:2 19819:1 20089:1 20095:1 20101:1 20102:12 20108:1 20110:1 20112:1 22684:3 22685:1 22686:1 22687:1 22688:3 22689:5 22690:2 22691:1 22692:1 22693:1 22694:1 22695:4 22696:1 22697:1 22698:4 22699:2 22700:1 22701:3 22702:1 22703:3 22704:1 22705:1 22706:1 22707:7 22708:1 22709:4 22710:1 22711:1 22712:1 22713:1 22714:2 22715:1 22716:1 22717:2 22718:1 22719:1 22720:1 22721:2 22722:2 22723:1 22724:1 22725:1 22726:1 22727:1 22728:3 22729:2 22730:1 22731:1 22732:1 22733:6 22734:2 22735:4 22736:1 22737:3 22738:3 22739:1 22740:1 22741:1 22742:1 22743:1 22744:1 22745:1 22746:1 22747:1 22748:1 22749:1 22750:3 22751:8 22752:2 22753:1 22754:1 22755:1 22756:1 22757:1 22758:1 22759:1 22760:1 22761:1 22762:1 22763:1 22764:1 22765:1 22766:1 22767:1 22768:3 22769:1 22770:1 22771:1 22772:1 22773:1 22774:1 22775:1 #
-0.0016928261848741768709480925991784 3:1 19:2 21:2 36:3 40:3 42:4 151:1 157:1 209:1 215:1 221:1 325:1 483:1 487:1 559:1 750:2 791:1 908:1 926:2 1190:1 1485:1 1573:1 1607:1 1944:1 1961:1 2024:1 2194:8 2291:2 2487:1 2734:1 5729:1 7587:1 12708:1 13164:2 13165:1 13166:3 13167:3 13168:1 13169:1 13170:3 13171:1 13172:1 13173:1 13174:1 13175:2 13176:1 13177:1 13178:1 13179:1 #
-0.0021134266794690420750157944240755 5:1 6:2 21:1 39:1 151:1 152:1 255:1 257:1 278:2 416:2 653:2 677:1 798:1 799:1 1168:1 1178:1 1206:1 1378:1 1380:1 1422:1 1709:1 1713:2 1887:1 1888:1 1912:1 2160:3 3221:1 5335:1 8533:1 8534:1 8535:1 8536:1 8537:1 8538:1 8539:1 8540:1 8541:1 8542:1 8543:1 8544:1 #
-0.0013243837272280199312407544809389 6:3 18:4 19:1 27:1 30:1 152:1 195:1 202:4 209:1 292:2 354:5 364:2 472:2 677:1 692:1 1578:2 2078:1 2283:1 5709:1 6847:1 7183:1 10424:1 22028:5 22029:1 22030:1 22031:1 22032:4 22033:2 22034:1 22035:1 22036:1 22037:1 22038:1 22039:1 #
-0.0047264928719941666501735966221531 9:1 19:2 21:1 30:1 210:1 246:1 265:1 275:1 697:1 706:1 1057:1 1104:1 1151:1 1494:1 1800:1 1894:1 3479:1 6494:1 11875:1 24917:1 24918:1 24919:1 24920:1 #
-0.0010452892124285730231225688413588 6:1 17:1 18:1 19:2 30:1 36:1 99:1 149:1 326:1 343:1 373:1 435:1 486:1 651:1 819:1 967:1 978:1 1270:4 1491:1 1709:1 1888:1 2053:1 2089:1 3311:2 3330:1 3537:1 3888:1 6411:1 12370:2 18936:1 19798:2 19802:2 20119:1 21316:4 21320:1 22220:1 30384:4 30385:1 30386:1 30387:2 30388:1 30389:2 30390:1 30391:1 30392:2 30393:1 30394:1 30395:1 30396:1 30397:1 30398:1 30399:1 30400:1 30401:1 30402:1 30403:1 #
0.0047264928719941666501735966221531 2:4 5:1 6:2 18:1 19:3 21:4 36:1 95:5 96:1 98:1 99:3 149:2 164:1 175:1 201:1 245:1 259:2 265:1 275:1 288:2 359:1 398:1 493:1 499:1 680:1 727:1 976:1 1016:2 1198:1 1204:1 1244:1 1290:2 1291:1 1292:2 1293:1 1294:1 1295:4 1296:1 1297:1 1298:1 1299:1 1300:1 1301:1 1302:1 1303:1 1304:1 1305:1 1306:1 1307:1 1308:2 1309:1 1310:1 1311:1 1312:1 1313:1 1314:2 1315:3 1316:1 1317:1 1318:3 1319:1 1320:1 1321:1 1322:1 1323:1 1324:1 1325:1 1326:1 1327:1 #
-0.00030344799867446846331972554189349 6:1 27:1 28:1 201:1 371:1 549:1 559:4 782:1 957:1 1168:1 1206:1 1703:1 1732:1 1826:1 2976:1 3327:1 3664:1 4414:3 4713:1 5172:1 5451:1 9548:1 9549:2 9550:1 9551:1 9552:1 9553:1 9554:1 #
-0.00086282881230707452347578056972566 19:5 27:1 30:2 42:2 50:1 205:1 232:1 320:1 398:1 503:1 733:2 799:1 803:1 819:1 829:1 954:2 1288:1 1368:4 1435:3 1604:1 1642:3 1689:1 1800:1 1925:1 2057:3 2339:1 2732:1 2876:1 3500:1 4073:1 4608:1 4864:1 6718:1 6772:1 9401:4 15554:1 25014:2 25015:1 25016:1 25017:1 25018:1 25019:1 25020:1 25021:1 25022:1 25023:1 25024:1 25025:1 #
-0.0020785011150883199101957465870782 19:2 21:6 27:2 30:1 150:1 209:2 242:1 265:2 273:1 278:1 327:2 367:1 398:1 429:2 437:1 492:1 495:1 566:1 579:2 628:1 630:1 799:1 803:1 824:1 868:1 913:1 1204:1 1222:1 1280:1 1290:1 1362:1 1390:1 1513:2 1733:1 2024:1 2994:1 5212:1 5600:2 5601:3 5602:1 5603:3 5604:1 5605:1 5606:1 5607:1 5608:1 5609:1 5610:1 5611:1 5612:1 5613:1 5614:1 5615:1 5616:3 5617:1 5618:1 5619:1 5620:1 5621:1 5622:2 5623:2 5624:1 5625:1 5626:1 5627:1 5628:1 5629:1 5630:1 5631:1 5632:1 5633:1 5634:1 5635:1 5636:1 5637:1 5638:1 #
-0.00018521439134543569104106308653712 19:2 21:4 27:1 42:6 103:1 137:1 172:2 221:1 361:1 381:1 753:5 754:6 820:1 868:1 899:4 3439:1 3855:5 4003:3 5371:1 5556:1 6031:1 8188:3 18419:1 21636:3 21637:1 21638:2 21639:1 21640:4 21641:6 21642:4 21643:1 21644:1 21645:1 21646:1 21647:1 21648:2 21649:2 #
-0.00014852099043524927160335458165008 3:1 6:4 19:3 30:1 82:4 95:2 276:4 282:1 315:3 373:2 374:2 412:2 419:1 423:1 442:1 485:1 492:10 493:4 662:2 883:1 892:1 915:1 990:1 1570:1 1712:1 2005:1 2250:2 2264:2 2406:1 2426:1 2616:1 2990:4 3431:1 3432:1 3452:6 3703:2 3811:1 5017:2 5164:1 5911:4 6182:2 7309:1 7369:2 7689:1 7804:1 8044:1 8812:2 9346:1 11239:1 12519:1 15168:2 17099:6 19545:1 21340:1 21574:1 21575:4 21576:1 21577:2 21578:1 21579:2 21580:2 21581:4 21582:3 21583:2 21584:3 21585:1 21586:1 21587:1 21588:2 21589:2 21590:2 21591:2 21592:2 21593:4 21594:4 21595:1 21596:2 21597:2 21598:2 21599:2 21600:1 #
-0.0011696972574148797006932110065236 19:2 21:2 36:1 42:2 103:3 126:4 139:1 149:1 170:4 172:1 221:1 303:1 323:1 327:1 373:1 429:1 435:1 499:1 562:1 581:1 628:1 669:2 675:1 687:2 705:1 710:1 780:1 782:1 846:1 967:1 977:1 1292:1 1717:1 1735:1 1816:2 1849:1 1990:2 2075:3 2103:1 2336:1 2347:1 2364:1 2479:1 2744:1 2879:1 3079:1 3408:1 3888:1 4614:1 6735:1 7015:1 7136:1 7950:2 10530:2 12710:1 16771:1 16904:3 16905:2 16906:1 16907:1 16908:5 16909:1 16910:1 16911:2 16912:1 16913:2 16914:1 16915:1 16916:1 16917:1 16918:1 16919:1 16920:1 #
-0.00012139860861940852498723486529997 7:2 19:1 21:1 139:1 142:1 200:1 205:2 209:2 275:1 338:1 359:1 395:1 497:1 684:2 775:1 1286:1 1917:1 2808:2 3203:1 3275:1 3682:1 3830:2 4066:1 4086:1 4615:7 4665:2 4677:1 6050:1 6885:3 14298:4 25469:1 25470:3 25471:1 #
-0.0014554705507525667572410466021893 27:2 82:2 150:1 261:2 307:8 328:3 416:4 488:1 557:4 566:1 611:1 612:1 628:1 669:1 700:1 706:1 819:1 1328:1 1800:1 1893:1 2402:1 2441:1 2579:1 2621:1 4753:1 8213:2 11482:1 24349:1 25354:1 25355:1 25356:1 25357:1 25358:2 25359:2 25360:2 25361:2 25362:1 25363:1 25364:1 25365:1 25366:1 #
-0.00016527356416494651801009363456529 6:1 17:2 19:3 27:3 30:2 40:3 42:1 126:4 139:1 142:1 172:1 176:1 245:1 250:1 265:1 298:3 335:1 338:2 343:19 362:1 407:2 443:1 453:1 484:2 499:1 520:1 546:4 557:9 559:1 564:1 613:1 618:4 620:2 644:1 669:2 680:1 689:1 690:2 706:1 757:1 780:3 796:1 819:1 821:1 868:1 870:1 877:1 956:1 986:2 1013:3 1016:32 1026:4 1177:1 1211:1 1301:2 1414:1 1570:1 1573:2 1637:1 1667:1 1755:9 1775:1 1838:20 1973:1 2103:2 2116:1 2182:1 2222:2 2230:4 2321:1 2361:3 2363:1 2463:1 2482:4 2493:3 2544:2 2567:1 2610:1 2637:25 2720:1 2737:1 2791:1 2879:1 2936:1 3126:4 3384:3 3431:1 3432:1 3502:1 3505:2 3576:2 3578:6 3639:4 3640:3 3641:1 3680:1 3769:1 3782:1 4041:1 4406:2 4529:1 4580:1 4647:1 4708:1 4798:7 4864:1 4937:1 5084:1 5121:11 5300:1 5331:1 5358:3 5372:1 5454:1 5644:3 5740:2 5879:1 6548:3 7562:2 7766:1 8249:2 8409:17 8517:1 8636:2 8651:1 8705:9 8926:1 9144:2 9152:1 9322:1 9373:3 9822:1 9902:2 9969:1 10530:1 11121:2 11469:1 11472:1 11917:1 12765:1 13173:1 15325:1 15829:1 16071:1 16722:1 16723:1 16724:1 16725:1 16726:1 16727:1 16728:2 16729:1 16730:1 16731:1 16732:1 16733:1 16734:1 16735:1 16736:1 16737:1 16738:1 16739:1 16740:1 16741:1 16742:2 16743:2 16744:2 16745:2 16746:2 16747:4 16748:2 16749:2 16750:2 16751:2 16752:1 16753:1 16754:1 16755:1 16756:1 16757:1 16758:4 16759:2 16760:2 16761:2 16762:3 16763:1 16764:1 16765:2 16766:1 16767:1 16768:1 16769:2 16770:2 16771:1 16772:1 16773:1 16774:2 16775:1 16776:1 16777:1 16778:1 16779:1 16780:1 16781:1 #
0.0040348234470596322509550191171002 2:7 9:1 19:1 21:3 36:1 57:3 103:1 151:7 157:1 275:1 288:6 295:1 312:2 327:1 395:1 398:1 429:1 435:1 497:1 750:3 757:4 1086:1 1254:2 1281:5 1292:1 1646:1 1647:1 1648:1 1649:1 1650:1 1651:5 1652:1 1653:1 1654:3 1655:2 1656:4 1657:2 1658:2 1659:2 1660:1 1661:1 1662:1 1663:1 1664:1 1665:2 1666:1 1667:1 1668:1 1669:1 1670:1 #
0.0036283386632580678747561631070084 2:2 6:3 19:5 21:5 36:2 99:7 103:1 113:1 138:1 209:2 221:1 239:1 289:6 296:1 304:1 320:1 324:1 325:1 326:2 328:2 419:1 429:4 463:2 464:2 495:2 562:1 587:1 614:1 653:2 752:1 753:2 807:1 819:1 879:1 880:2 881:1 882:3 883:3 884:1 885:1 886:1 887:3 888:2 889:2 890:2 891:2 892:1 893:2 894:1 895:1 896:2 897:5 898:1 899:1 900:1 901:1 902:2 903:1 904:1 905:1 906:1 907:1 908:1 909:1 910:1 911:1 912:1 913:1 914:1 915:1 916:2 917:1 918:1 919:1 920:1 921:1 922:2 923:2 924:1 925:1 926:1 927:1 928:1 929:1 930:1 931:1 932:1 933:1 934:1 935:1 936:1 937:1 938:1 939:1 940:1 941:1 942:1 943:1 #
-0.00060656380258096377795784537312329 6:7 19:5 21:1 27:2 30:1 57:14 113:1 152:5 172:1 209:3 218:1 242:1 254:1 275:1 303:1 338:1 398:1 435:2 448:1 499:1 645:1 662:2 703:3 705:1 750:1 754:1 782:2 841:2 956:1 1104:1 1169:1 1186:1 1204:1 1206:1 1292:1 1328:1 1442:1 1456:1 1513:4 1733:2 1776:3 1939:1 1992:2 2003:1 2140:1 2269:1 2275:1 2312:1 3515:1 3738:9 4053:2 4124:1 4128:2 4144:3 4327:1 4759:3 5371:1 5613:1 7671:2 7689:1 8648:1 9649:1 9849:1 10387:5 10388:1 10389:4 10390:1 10391:2 10392:2 10393:2 10394:2 10395:3 10396:5 10397:1 10398:1 10399:2 10400:1 10401:2 10402:1 10403:1 10404:1 10405:1 10406:2 10407:5 10408:1 10409:1 10410:1 10411:1 10412:1 10413:1 10414:1 10415:2 10416:2 10417:2 10418:2 10419:1 10420:1 10421:2 10422:1 10423:2 10424:1 10425:1 10426:1 10427:1 10428:1 10429:1 #
-0.0016964037536501791296472685388608 18:3 19:4 21:4 25:2 27:1 36:5 40:2 42:1 99:4 105:5 144:1 157:2 205:3 221:1 245:1 246:1 248:1 275:1 276:1 292:3 299:1 320:1 325:1 327:3 416:2 423:2 437:1 486:1 488:2 588:2 620:1 757:1 772:1 822:1 834:1 861:1 913:1 972:1 977:2 1221:1 1288:1 1328:1 1391:1 1442:1 1578:1 1890:3 2441:1 2627:1 2628:1 2767:1 3311:1 3762:1 4335:2 4403:1 4858:1 7113:1 8253:1 9516:1 10648:1 10762:1 19326:1 19673:1 20042:1 21827:2 21828:2 21829:2 21830:1 21831:1 21832:1 21833:1 21834:1 21835:1 21836:1 21837:1 21838:2 21839:1 21840:1 21841:1 21842:1 21843:1 21844:1 21845:1 21846:1 21847:1 21848:1 21849:1 21850:1 21851:1 21852:1 #
-0.001309989028806212308514433928508 6:1 19:6 21:3 27:4 36:3 40:4 42:2 99:1 113:1 147:1 157:1 172:1 205:1 221:2 277:1 288:1 289:1 315:2 325:1 326:1 338:1 406:1 429:1 467:1 492:2 497:2 772:1 872:1 966:1 976:1 1057:1 1216:1 1713:5 1890:2 2015:3 2260:1 2264:1 2406:1 2681:1 2704:1 2836:2 3393:1 3774:2 4166:1 4170:2 4363:1 4364:1 4480:1 5233:3 5613:2 7182:1 7354:1 7747:1 8309:1 8459:1 9649:1 10328:2 12228:2 12332:1 14592:1 18090:1 19638:1 20031:1 20260:1 21946:1 23574:1 23575:1 23576:2 23577:1 23578:1 23579:1 23580:1 23581:1 23582:1 23583:2 23584:2 23585:1 23586:1 23587:2 23588:2 23589:2 23590:2 23591:2 23592:3 23593:1 23594:1 23595:1 23596:1 23597:1 23598:1 23599:1 23600:1 23601:2 23602:2 23603:1 23604:1 23605:1 23606:1 23607:1 23608:1 #
-0.0013488684162482201655403057927174 17:4 18:2 19:4 27:2 30:1 33:1 99:5 103:2 113:1 209:3 212:1 222:2 257:1 259:1 262:1 265:2 311:1 324:1 420:1 423:1 435:1 570:1 611:1 638:2 662:1 680:1 697:1 704:1 706:2 735:3 798:1 815:1 892:1 1059:1 1150:1 1168:1 1179:1 1198:2 1244:1 1292:2 1325:1 1388:1 1653:1 1709:1 1734:1 1893:1 1917:1 1964:1 1977:1 2068:1 2206:1 2216:1 2237:1 2386:2 2389:1 2441:2 2674:1 3495:2 4087:1 4407:1 4608:1 5065:1 6204:1 6341:2 6442:2 7799:1 8673:1 10382:1 11538:1 11743:1 16113:1 17074:1 21677:1 21678:2 21679:4 21680:1 21681:1 21682:1 21683:1 21684:1 21685:1 21686:1 21687:1 21688:1 21689:1 21690:1 21691:1 21692:1 21693:1 21694:1 21695:1 21696:1 21697:1 21698:1 21699:1 21700:1 21701:1 21702:1 21703:1 21704:1 21705:1 21706:1 #
-0.00033114945706234850996210750118109 15:3 18:1 19:1 20:1 21:3 27:2 36:3 39:3 40:2 99:2 103:1 105:1 151:1 188:6 207:1 209:9 234:1 245:1 250:1 277:1 288:4 289:6 292:5 299:2 320:1 435:1 494:2 699:1 772:1 863:1 900:1 951:1 966:1 1064:1 1212:2 1219:3 1224:1 1707:1 1710:1 1764:2 1873:1 1874:1 2104:1 2480:3 2533:1 2899:1 3802:1 4361:1 4420:1 4852:1 5161:3 5269:3 6295:2 7050:1 7182:1 7696:8 8056:2 8102:1 12475:1 12476:1 12477:1 12478:1 12479:1 12480:1 12481:1 12482:1 12483:1 12484:2 12485:1 12486:1 12487:1 12488:1 12489:1 12490:4 12491:4 12492:1 12493:1 12494:1 12495:1 12496:1 12497:2 12498:10 12499:1 12500:2 12501:1 12502:1 12503:1 12504:1 12505:1 12506:1 12507:1 12508:2 12509:1 #
-0.00012285042476493739354442835676196 3:1 18:1 19:2 21:1 27:1 30:1 36:13 57:10 65:1 157:1 209:1 215:1 262:9 288:9 299:14 311:1 315:1 327:27 378:9 385:9 389:9 413:1 419:1 429:13 554:2 556:1 562:1 571:1 635:1 644:1 662:1 669:2 868:1 892:1 901:9 1228:1 1417:2 1422:1 1729:1 1815:1 2127:3 2199:1 2237:1 3171:2 3431:1 3432:1 3776:1 3784:27 4126:1 4201:1 4202:1 4203:1 4204:16 4205:2 4206:1 4207:1 4208:1 4209:1 4210:1 4211:1 4212:2 4213:1 4214:1 4215:2 4216:2 4217:20 4218:1 4219:2 4220:1 4221:1 4222:9 4223:1 4224:1 4225:1 4226:1 4227:1 4228:1 4229:1 4230:1 4231:1 4232:1 4233:1 4234:1 4235:1 4236:2 4237:1 4238:1 4239:1 4240:2 4241:1 4242:1 4243:1 4244:1 4245:1 4246:1 4247:9 4248:10 4249:1 4250:9 4251:1 4252:1 4253:1 4254:1 4255:1 4256:2 4257:1 4258:1 4259:1 4260:1 4261:1 4262:1 4263:1 4264:1 4265:1 4266:1 4267:1 4268:1 4269:1 4270:2 4271:1 4272:1 4273:1 4274:1 4275:5 4276:1 4277:3 4278:1 4279:1 4280:1 4281:1 4282:1 4283:1 4284:2 4285:1 4286:1 4287:1 4288:2 4289:1 4290:1 4291:1 4292:1 4293:1 4294:1 4295:1 4296:1 4297:1 4298:1 4299:1 4300:1 4301:1 4302:1 4303:1 4304:1 4305:1 4306:1 #
-0.00064054022322004313359788962856101 5:1 19:2 24:1 27:3 40:4 78:1 103:2 105:1 151:3 209:2 230:1 248:1 251:2 277:5 289:6 292:7 320:1 322:1 325:2 384:1 404:1 415:1 484:1 496:1 503:1 562:2 574:2 579:1 662:2 680:1 710:1 735:1 778:1 899:2 904:3 1061:1 1065:1 1114:3 1290:1 1328:1 1388:4 1454:2 1574:2 1596:1 1642:2 1717:1 1759:3 1908:1 1944:1 2062:1 2092:1 2378:1 2888:1 2980:1 2994:1 3651:1 3700:3 4201:1 4812:1 4985:3 6456:1 7038:1 7578:1 8409:1 9347:1 9731:1 9960:3 10986:1 12560:1 13591:1 13618:1 14052:1 14757:1 14758:1 14759:1 14760:1 14761:5 14762:4 14763:2 14764:1 14765:1 14766:1 14767:2 14768:3 14769:2 14770:3 14771:1 14772:9 14773:2 14774:2 14775:2 14776:1 14777:2 14778:1 14779:1 14780:1 14781:2 14782:1 14783:1 14784:1 14785:1 #
-0.00049100480024038824049259499560094 19:1 21:5 36:2 42:1 44:2 57:8 103:3 157:1 209:1 215:1 221:1 238:1 288:4 312:2 327:2 343:1 378:1 423:1 429:1 494:2 648:1 685:1 757:1 794:1 846:1 976:1 1061:1 1234:3 1254:2 1290:1 1493:1 1513:3 1653:1 1800:1 1958:2 1990:1 3632:1 3700:2 3742:1 3785:1 3816:3 3830:2 6050:3 6742:3 7979:1 9083:2 9166:2 9709:12 10339:2 18034:2 18035:1 18036:1 18037:3 18038:10 18039:2 18040:2 18041:2 #
-0.00036467992041555152404191941784006 9:1 19:3 21:4 36:7 40:1 151:6 157:2 207:1 209:4 215:1 250:1 261:6 320:1 322:1 327:1 374:2 398:1 429:7 437:9 441:1 470:1 493:1 515:1 541:1 562:3 579:1 586:1 644:1 662:1 677:3 700:4 735:1 749:1 752:1 753:5 796:1 823:1 1013:2 1052:2 1064:1 1212:1 1265:1 1302:1 1417:1 1539:2 1593:1 1717:1 1908:1 1944:6 1992:1 2050:1 2127:1 2293:1 2363:7 2378:1 2603:1 2711:1 2876:1 3297:1 3784:1 4040:16 4852:1 5276:1 6428:1 6664:1 6665:1 6799:2 8176:1 9483:1 9499:1 11608:1 11609:4 11610:1 11611:1 11612:1 11613:3 11614:6 11615:2 11616:2 11617:4 11618:1 11619:1 11620:1 11621:1 11622:2 11623:1 11624:1 11625:3 11626:1 11627:1 #
-0.0014592874456451220173403005020418 6:2 40:1 90:1 99:1 175:1 222:3 251:1 289:1 314:1 322:1 416:1 496:1 638:1 1064:2 1070:1 1244:1 1281:1 1292:1 1527:1 1677:2 1717:3 1745:1 1889:1 1903:1 1941:2 2364:1 2642:2 2965:1 3473:1 3769:1 4087:1 4305:1 4399:1 6590:2 6816:1 7564:2 9369:1 12945:1 15158:5 15312:1 15958:1 19822:1 25510:2 25511:1 25512:1 25513:1 25514:1 25515:1 25516:1 #
-0.0022993415053199758521507156672214 18:1 19:1 21:1 27:1 36:1 99:3 103:2 164:1 209:1 221:1 235:1 374:2 423:2 484:1 520:1 677:3 709:1 803:1 840:1 841:1 846:1 986:1 1206:3 1290:3 1456:1 1788:1 1973:1 2065:1 2854:1 3072:1 3641:2 4455:1 4605:1 16582:1 29872:1 29873:1 29874:1 29875:1 29876:3 29877:1 #
-0.00037285273620632757712867189070494 17:2 27:1 151:1 184:2 196:2 212:1 215:1 343:1 561:1 750:1 948:3 1000:1 1117:1 1186:1 1241:1 1248:1 1826:1 1869:2 2227:1 2406:1 3010:1 3999:1 4039:1 4040:2 4041:1 4042:1 4043:1 4044:2 4045:1 #
-7.4774041967748855518419159871257e-05 3:1 18:1 19:2 21:2 27:1 36:6 42:6 44:4 78:1 82:9 95:4 99:2 103:6 105:2 126:9 137:1 142:1 150:2 169:2 170:4 209:2 211:2 232:1 261:2 275:1 288:2 289:4 299:5 343:10 378:2 388:2 395:1 398:1 429:4 435:1 484:1 486:1 543:7 546:54 547:11 548:2 549:1 551:2 566:1 612:1 614:66 632:1 638:4 645:1 669:4 684:16 689:1 699:1 728:1 729:2 730:8 753:2 819:3 846:3 904:1 948:2 1013:1 1026:1 1027:1 1028:1 1066:1 1219:1 1433:3 1442:1 1443:1 1470:1 1539:5 1574:1 1654:1 1775:2 1879:4 1969:1 1992:1 2199:1 2204:2 2219:6 2230:7 2264:1 2363:1 2482:2 2533:34 2891:7 2980:1 3272:1 3358:1 3682:1 3888:1 3890:2 4003:8 4380:1 4396:1 4614:1 4903:1 5037:1 5371:1 5436:6 5740:1 6204:3 6358:1 6402:1 6813:1 7238:2 7760:1 7881:1 11165:1 11391:1 11392:1 11400:4 11864:1 12410:2 12795:11 14318:1 14920:1 16339:1 16631:2 16955:2 16956:2 16957:1 16958:1 16959:50 16960:4 16961:2 16962:2 16963:4 16964:4 16965:2 16966:3 16967:5 16968:2 16969:5 16970:2 16971:2 16972:1 16973:5 16974:3 16975:3 16976:1 16977:1 16978:5 16979:2 16980:2 16981:2 16982:1 16983:2 16984:2 16985:2 16986:2 16987:1 16988:2 16989:2 16990:1 16991:2 16992:1 16993:1 16994:1 16995:1 16996:1 16997:1 16998:1 16999:2 17000:2 17001:1 17002:1 17003:1 17004:3 17005:1 17006:1 17007:1 17008:2 17009:1 17010:1 17011:1 17012:1 17013:1 17014:1 17015:1 17016:1 17017:1 17018:1 17019:3 17020:2 17021:8 17022:4 17023:2 17024:9 17025:18 17026:9 17027:4 17028:2 17029:5 17030:1 17031:1 17032:1 17033:2 17034:2 17035:3 17036:2 17037:1 17038:1 17039:1 17040:3 17041:3 17042:2 17043:4 17044:1 17045:2 17046:5 17047:1 17048:3 17049:1 17050:2 17051:1 17052:1 17053:1 17054:1 17055:1 17056:1 17057:6 17058:6 17059:6 17060:1 17061:2 17062:3 17063:1 17064:2 17065:1 17066:1 #
-0.00070646082541457458966321913962361 6:1 19:1 27:1 36:1 103:1 118:1 221:2 361:1 429:1 613:1 622:1 690:2 709:1 753:2 792:1 868:1 944:2 1098:1 1421:1 1464:1 1533:1 1734:1 1780:1 2077:1 2103:1 2723:1 2862:1 3470:1 3680:1 4270:1 4480:1 4846:2 6074:1 6483:1 6580:1 7136:1 17390:1 17490:1 24441:4 24442:1 24443:1 24444:2 24445:2 24446:1 24447:1 24448:1 24449:1 24450:1 24451:1 24452:1 #
-0.00073284504822003905359639741590172 14:1 19:1 20:1 21:5 27:1 172:2 209:2 245:1 296:3 322:1 376:1 416:1 484:1 486:1 496:1 559:1 573:2 710:1 745:1 749:1 796:1 797:6 1010:2 1227:1 1290:1 1328:1 1340:1 1442:1 1451:1 1454:1 1682:5 1683:1 1698:1 1708:1 2006:1 2127:3 2227:1 2624:1 2980:2 2994:2 3276:1 3391:1 3811:1 3855:2 4541:1 4968:2 5118:1 6757:1 8040:1 8659:1 10654:1 11447:1 14205:2 14209:2 18520:1 18521:2 18522:2 18523:1 18524:1 18525:1 18526:1 18527:4 18528:2 18529:4 18530:1 18531:1 18532:2 18533:1 18534:1 18535:1 18536:2 18537:1 18538:1 18539:1 18540:1 18541:1 18542:1 18543:1 18544:1 18545:1 18546:1 18547:1 #
-0.00062824177236508115754892722648606 19:3 27:1 42:1 85:2 144:2 151:1 208:2 221:1 248:1 277:1 288:2 289:1 338:1 398:1 423:2 467:2 470:1 484:1 492:3 498:2 507:1 579:1 626:1 645:1 669:1 680:1 705:3 709:1 745:1 996:1 1046:4 1064:1 1169:2 1198:3 1211:6 1254:1 1284:1 1456:1 1641:1 1987:2 2078:1 2224:1 2764:1 2950:2 3930:1 4690:3 4701:1 5046:1 5740:6 6400:1 6707:1 7201:2 7563:1 8648:1 17249:2 17250:1 17251:1 17252:1 17253:1 17254:1 17255:1 17256:1 17257:1 17258:1 17259:1 17260:1 17261:1 17262:1 17263:1 17264:1 17265:1 17266:1 17267:1 17268:1 17269:1 17270:1 17271:1 17272:1 17273:1 17274:1 17275:1 17276:1 #
-0.00076632925620259391766286860558921 24:4 275:1 276:3 453:1 454:1 484:1 617:1 623:2 639:3 750:1 796:1 850:3 868:1 1005:3 1064:1 1211:1 1391:2 1661:1 1729:2 1879:1 1954:2 1955:2 2047:1 2051:1 2206:1 2283:1 2828:1 3587:1 4364:1 7511:1 12195:2 15278:1 17387:1 25333:1 25334:1 25335:2 25336:1 25337:1 25338:1 25339:1 25340:1 25341:1 25342:1 #
-0.001267180797446011914289543121015 19:2 21:2 99:2 118:1 164:1 230:2 238:1 276:2 289:1 316:2 322:1 323:1 325:1 327:1 343:1 395:1 419:1 435:3 453:1 470:1 488:2 503:4 559:1 588:2 662:1 675:2 710:1 757:1 782:2 1454:2 1654:1 1699:1 1703:2 1707:1 1712:1 1734:1 1865:1 1871:1 1908:1 1978:2 2014:1 2028:1 2303:1 2375:2 2471:1 2978:1 3470:1 3534:1 4022:1 4291:1 4618:1 4812:1 5060:1 5572:1 6201:1 6316:1 6403:1 7061:1 7184:1 16530:1 16534:1 17359:1 19895:1 20455:1 20456:1 20457:1 20458:1 20459:2 20460:1 20461:1 20462:1 20463:1 20464:1 20465:1 20466:1 20467:1 20468:1 20469:1 20470:2 20471:1 20472:1 20473:1 20474:1 20475:1 20476:1 #
-0.0013930390947798120329648163817637 19:1 21:3 28:1 40:1 42:1 78:1 138:1 144:1 149:1 151:1 209:1 230:1 234:1 275:1 588:2 626:1 736:1 759:3 1016:2 1064:1 1203:1 1206:1 1211:3 1328:2 1449:1 1484:1 2025:1 2116:1 2128:1 2361:2 3505:1 5929:1 6939:1 8152:1 8153:1 8154:1 8155:1 8156:1 8157:1 8158:1 8159:1 8160:1 8161:2 8162:1 8163:1 8164:1 #
-0.00056768135460450136302312795777425 3:1 18:2 19:3 21:1 40:1 63:1 136:1 149:3 157:2 265:1 315:1 338:2 373:1 374:1 408:1 454:1 485:1 496:2 571:1 584:1 585:1 612:1 674:1 677:4 686:1 703:1 819:2 944:1 1070:3 1422:1 1442:1 1456:1 1703:4 1709:3 1710:1 1922:2 1924:3 2024:1 2267:1 2405:1 2632:1 3892:1 3900:2 4461:2 4775:1 5488:4 7558:1 7823:1 9532:1 9743:3 10450:1 10536:1 11935:1 14971:1 17298:1 17553:2 17554:1 17555:1 17556:1 17557:1 17558:1 17559:2 17560:3 17561:1 17562:2 17563:1 17564:3 17565:2 17566:1 17567:1 17568:1 17569:1 17570:1 17571:1 17572:1 #
-0.00040364795357820140676505249466288 9:1 19:2 27:1 105:1 172:2 259:2 279:1 311:1 338:1 360:3 364:1 371:1 419:1 455:1 497:4 499:1 562:1 579:2 585:2 700:1 749:1 780:2 811:1 815:3 819:1 820:1 823:1 850:1 908:1 941:1 967:1 970:1 1059:1 1064:2 1066:2 1241:1 1290:1 1391:1 1458:1 1504:3 1660:1 1686:1 1687:1 1732:2 1822:3 1842:1 1893:1 1908:1 1920:1 2009:1 2166:3 2218:1 2558:2 3115:1 3242:1 3470:1 3495:4 3755:1 5930:1 6068:1 6398:1 7214:1 9116:2 10360:1 11760:1 14437:1 14827:1 16107:1 16108:1 16109:1 16110:1 16111:1 16112:1 16113:1 16114:1 16115:2 16116:1 16117:2 16118:1 16119:1 16120:1 16121:1 16122:1 16123:1 16124:1 #
-0.004662940672417128888660453611692 3:1 18:2 19:1 21:2 27:1 99:1 261:1 325:1 677:2 705:1 820:1 1064:1 2140:1 2206:1 3473:1 3855:1 6552:1 14038:1 14039:1 14040:1 14041:1 14042:1 14043:1 14044:1 14045:1 14046:1 14047:1 14048:1 14049:1 #
-0.0021342730182413133070695732129707 6:1 19:1 21:1 27:1 30:1 63:1 205:1 210:1 273:1 274:1 422:1 571:2 677:2 772:1 840:1 900:1 975:1 1064:1 1190:1 1207:1 1671:1 1745:1 4071:1 4144:1 4335:1 4580:1 8683:1 10740:1 19581:1 19582:1 19583:1 19584:1 19585:1 19586:1 19587:1 #
-0.002569979312066047062029783276671 27:1 230:1 265:1 338:1 343:1 371:1 424:1 484:1 556:1 559:1 823:1 904:1 986:2 1814:1 2182:1 2297:1 2303:1 2523:1 3180:1 4950:1 5656:1 7529:2 16100:1 16101:1 #
-0.0010562750056364782289680670501753 6:1 15:2 18:1 19:3 30:1 36:1 40:2 42:3 99:1 142:2 221:1 232:1 250:2 289:6 320:1 326:1 350:1 416:2 492:2 499:1 589:1 614:2 662:1 819:1 1066:2 1142:2 1198:1 1219:1 1224:2 1301:1 1328:1 1391:1 1574:1 1869:5 1879:2 1982:1 2050:1 2485:6 2911:1 3044:1 3071:2 3500:1 4173:2 4174:4 4335:1 5037:1 5052:1 5278:1 5398:1 6687:1 7182:1 12484:1 15356:1 15357:4 15358:1 15359:1 15360:1 15361:1 15362:1 15363:1 15364:1 15365:1 15366:1 15367:1 15368:1 15369:2 15370:1 15371:1 15372:1 15373:1 15374:1 15375:1 15376:1 15377:1 #
-0.0016181648537898305623139449949122 9:1 19:1 21:7 27:2 42:2 157:1 234:1 239:1 245:1 250:1 275:1 282:1 289:2 299:2 315:2 320:1 323:1 324:1 343:1 402:1 412:1 435:3 452:1 493:3 560:1 571:3 579:1 662:1 680:3 687:1 735:1 743:3 900:1 1114:1 1189:1 1391:1 1698:2 1709:2 1713:2 1715:1 1963:1 2965:1 3473:1 3477:1 3703:1 4698:1 5484:1 6327:1 7062:3 8459:1 8860:1 12560:1 16530:1 18489:1 18490:3 18491:1 18492:1 18493:1 18494:1 18495:1 18496:1 #
-0.00084025687818112281858573542336899 5:2 6:2 19:2 21:4 27:1 30:1 36:1 57:1 99:1 103:2 146:1 150:1 172:4 176:1 184:1 196:3 209:2 221:2 250:2 265:2 273:1 275:1 299:1 315:1 373:1 388:2 423:2 429:2 467:2 493:5 498:1 561:1 633:1 645:2 792:1 819:1 936:1 948:1 996:1 1190:1 1251:3 1571:1 1627:1 1944:1 1954:1 1969:1 1973:1 2357:6 2367:1 2558:1 2704:1 2854:1 2856:1 3067:1 3181:1 3347:1 3431:1 3432:1 3655:1 4086:1 4203:1 4802:1 4872:1 4877:5 5245:3 5658:1 5930:1 6458:1 7945:1 8093:1 8227:1 9083:1 11199:1 13281:2 13285:1 13335:1 13808:1 15554:1 16500:2 16501:1 16502:1 16503:1 16504:1 16505:1 16506:3 16507:5 16508:1 16509:1 16510:1 16511:2 16512:1 16513:2 16514:1 16515:1 16516:1 16517:1 16518:2 16519:3 16520:1 16521:1 16522:2 16523:1 16524:1 16525:1 16526:1 16527:1 16528:1 16529:1 16530:1 #
-0.00034944877087774578461321084432711 19:3 27:1 30:1 99:3 151:2 164:3 211:1 239:2 311:1 319:1 351:1 472:1 486:1 488:1 662:2 796:1 840:2 879:1 1228:1 1391:1 1428:1 1487:1 1660:1 1838:1 1964:1 2025:4 2195:1 2204:1 2610:2 2670:1 2672:1 2751:1 2778:1 3336:1 3710:1 3999:6 4150:1 4554:1 4975:1 5419:2 6363:4 6364:1 6365:2 7118:2 8112:1 8567:3 9359:2 9362:1 10200:1 11180:1 11198:1 13314:1 13315:8 14641:1 14642:1 14643:1 14644:1 14645:3 14646:1 14647:1 14648:1 14649:1 14650:1 14651:1 14652:1 14653:1 14654:1 14655:1 14656:1 14657:1 14658:1 14659:1 14660:1 14661:1 14662:1 14663:1 14664:1 14665:1 14666:1 14667:1 14668:1 14669:1 14670:1 14671:1 14672:1 14673:1 14674:1 14675:1 14676:1 14677:1 14678:1 14679:1 14680:1 14681:1 14682:1 14683:1 14684:1 14685:1 14686:1 14687:1 14688:1 #
-0.00022583667416529147413915834530229 3:1 6:1 19:4 20:1 27:1 42:2 170:1 209:3 226:1 245:1 275:2 320:1 325:1 343:1 361:2 385:1 419:2 757:1 780:1 860:2 870:1 997:1 1061:1 1216:1 1445:1 1575:1 1765:1 2024:1 2128:1 2764:1 3242:2 3342:2 3358:1 3865:1 4598:1 5039:3 6202:1 7328:1 7600:2 14341:1 26526:20 26527:2 26528:2 26529:1 26530:1 26531:1 26532:1 26533:3 26534:1 26535:1 26536:1 26537:1 26538:1 26539:1 26540:1 26541:1 26542:1 26543:1 26544:1 26545:1 26546:4 26547:4 26548:1 26549:1 26550:1 26551:1 26552:1 26553:1 26554:1 26555:1 26556:1 26557:1 26558:1 26559:1 26560:1 26561:1 26562:1 26563:1 26564:1 26565:1 26566:1 26567:1 26568:1 #
-0.0012272204697419616947762222025631 6:2 21:1 93:1 99:2 416:2 423:1 618:2 685:1 735:1 796:2 986:1 1150:1 1211:1 1212:1 1292:1 1302:2 1391:1 1982:1 2669:1 2670:4 2671:4 2672:1 2673:1 2674:1 2675:1 2676:1 2677:1 2678:1 2679:1 2680:1 #
-0.0021810458809429942791946466229547 19:1 21:1 57:3 147:1 295:3 735:1 960:2 1649:1 3399:1 4864:1 16485:1 16486:3 16487:1 16488:1 #
-0.00012427225712979332009240629464131 19:2 21:1 24:4 27:2 36:3 40:1 81:1 139:2 157:1 164:2 209:3 211:1 212:1 259:1 261:1 323:1 359:1 371:1 403:1 416:1 423:1 486:1 488:1 490:2 571:1 612:1 687:1 700:1 709:1 710:1 783:4 810:1 823:1 877:1 1150:3 1350:1 1422:1 1456:2 1574:1 1601:1 1637:2 1642:2 1662:1 1682:3 1893:1 1951:1 1958:3 1962:1 1992:2 2125:1 2127:1 2424:1 2479:1 2734:1 3329:1 3821:1 4291:1 4458:2 5310:1 5313:1 6400:1 6547:3 6582:4 8408:1 8639:1 12670:1 14255:15 14611:1 15990:1 16691:1 18224:2 20074:1 23637:1 25590:2 25591:1 25592:1 25593:1 25594:1 25595:1 25596:9 25597:1 25598:1 25599:1 25600:1 25601:1 25602:2 25603:1 25604:1 25605:1 25606:2 25607:1 #
-0.0047264928719941666501735966221531 21:3 36:2 212:1 343:1 374:1 395:1 435:1 703:1 772:1 880:2 1086:1 1465:1 2765:2 #
-0.0021153589954146958911074261067142 19:1 21:2 289:2 292:1 359:1 1694:1 1708:1 1776:1 3264:1 4414:1 4985:4 5636:1 7576:1 7577:1 7578:1 7579:2 7580:2 7581:1 7582:1 7583:1 7584:1 #
-0.0027113040981174836401013106268465 21:4 24:4 99:1 205:1 215:1 239:1 277:2 338:1 416:1 423:1 449:1 612:1 819:1 841:1 846:1 926:1 1186:1 1290:1 1571:1 1660:2 1982:3 2441:1 3138:1 4518:1 6080:1 6082:1 7433:1 #
-0.00021691351342444635140124797878514 3:1 6:1 14:1 19:4 27:1 30:1 65:3 117:1 146:1 155:2 164:1 205:1 221:1 226:1 239:5 316:1 359:1 398:2 492:1 493:3 566:1 652:1 653:3 677:1 697:1 699:1 710:1 1046:1 1212:1 1442:1 1513:1 1533:1 1636:1 1869:1 1971:1 1982:1 2006:2 2160:2 2307:4 2533:1 2610:1 2789:1 2859:1 2863:1 2889:1 2904:1 2920:2 2951:1 2983:1 3029:1 3214:1 3230:1 3245:1 3289:6 3357:1 3494:1 3505:1 3577:1 3578:1 3587:1 3916:1 3968:1 3969:1 4066:1 4426:2 4428:3 4454:4 4511:1 4512:1 4513:1 4514:1 4515:1 4516:1 4517:1 4518:2 4519:1 4520:1 4521:1 4522:1 4523:1 4524:1 4525:1 4526:1 4527:1 4528:1 4529:1 4530:1 4531:1 4532:1 4533:2 4534:2 4535:3 4536:1 4537:8 4538:1 4539:2 4540:1 4541:1 4542:1 4543:1 4544:2 4545:3 4546:1 4547:1 4548:1 4549:1 4550:1 4551:1 4552:1 4553:1 4554:1 4555:1 4556:1 4557:1 4558:1 4559:1 4560:5 4561:2 4562:2 4563:2 4564:2 4565:4 4566:2 4567:2 4568:2 4569:2 4570:1 4571:1 4572:1 4573:1 4574:1 4575:1 4576:1 4577:1 4578:1 4579:1 4580:1 4581:1 4582:1 4583:1 4584:1 4585:1 4586:1 4587:1 4588:1 4589:1 4590:1 4591:1 4592:1 4593:1 4594:1 4595:1 4596:1 4597:1 4598:1 4599:1 4600:2 4601:1 4602:1 4603:1 4604:1 #
-0.00018175218213958122632709080157554 18:3 19:2 27:1 33:2 84:1 164:8 239:4 276:4 292:3 311:1 351:11 437:1 677:2 709:1 733:3 819:1 868:3 873:3 926:3 1061:1 1117:1 1168:3 1174:5 1204:2 1212:2 1213:1 1735:1 1939:3 2245:4 2290:1 2291:1 2426:1 2485:6 2670:2 2828:2 2879:1 2923:1 3237:1 3811:2 4459:2 4464:1 4480:1 4753:1 5017:1 5052:1 5272:1 5756:2 5972:1 5973:1 5977:2 6493:4 7101:5 7545:9 10378:2 11205:1 11444:1 12769:3 17644:1 19326:3 19457:7 19458:2 19459:1 19460:2 19461:1 19462:1 19463:9 19464:4 19465:1 19466:1 19467:1 19468:1 19469:1 19470:1 19471:1 19472:1 19473:1 19474:3 19475:3 19476:6 19477:1 19478:1 19479:2 19480:1 19481:3 19482:1 19483:1 19484:1 19485:3 19486:1 19487:1 19488:1 19489:1 19490:1 19491:1 19492:1 19493:2 #
-0.00017235090797471265674709051118896 3:1 19:4 20:1 24:4 25:1 27:2 151:1 208:1 209:2 210:1 282:3 419:1 454:1 492:3 620:3 735:1 879:1 1709:4 1734:1 1762:1 2676:1 2840:1 2843:3 2849:4 2853:1 2915:1 4428:1 4454:1 4537:1 4564:1 6095:4 8242:1 12733:2 12734:1 12735:3 12736:1 12737:2 12738:1 12739:1 12740:1 12741:3 12742:2 12743:1 12744:1 12745:1 12746:1 12747:1 12748:4 12749:1 12750:1 12751:4 12752:1 12753:1 12754:3 12755:2 12756:2 12757:2 12758:2 12759:1 12760:1 12761:1 #
-0.00019485960196983446567758901935008 18:1 19:1 21:3 27:2 81:1 85:1 105:1 110:1 139:1 150:1 172:1 190:2 205:3 209:1 218:2 221:1 239:4 275:1 282:1 324:2 325:1 367:1 398:2 472:1 492:1 497:3 566:1 571:1 574:1 607:1 614:1 677:2 705:1 819:2 944:1 1253:2 1254:1 1306:1 1442:1 1513:7 1527:1 1964:3 1977:1 2208:3 2274:1 2313:2 2644:1 2704:2 2709:1 3284:1 4090:1 4480:6 4711:5 4735:1 5540:1 6050:1 6310:1 7973:1 8008:4 8207:1 8459:1 8572:3 8573:1 8574:1 8575:1 8576:1 8577:1 8578:1 8579:1 8580:1 8581:1 8582:1 8583:1 8584:1 8585:1 8586:1 8587:1 8588:1 8589:1 8590:2 8591:3 8592:1 8593:1 8594:1 8595:1 8596:2 8597:7 8598:14 8599:7 8600:2 8601:2 8602:1 #
-0.00057401161909480160477903254445664 3:1 19:1 27:1 30:1 40:1 250:1 251:1 265:1 288:1 338:1 398:1 407:1 453:2 484:2 559:1 560:1 653:2 662:1 874:1 948:5 956:7 969:1 1241:1 1637:1 1647:1 1818:1 1893:1 1949:2 1951:1 2160:1 2741:2 2778:3 2911:1 3101:1 3178:1 4468:1 4537:3 4568:1 4623:1 4628:1 4974:2 5173:2 6822:1 7229:1 8370:1 10991:1 11456:1 11674:1 16015:1 16699:1 16782:1 16783:1 16784:1 16785:1 16786:1 16787:1 16788:1 16789:2 16790:2 16791:1 16792:1 16793:1 16794:1 16795:1 16796:1 16797:1 16798:1 #
-0.0012276019714924668070621383009211 19:3 81:1 209:1 275:2 328:1 484:1 697:1 703:1 742:1 810:1 984:1 1057:1 1086:1 1254:3 2173:1 2174:1 2208:1 2450:1 3288:1 4126:1 4774:1 5199:1 5408:1 7548:1 9777:1 11592:1 12638:1 16100:1 23375:1 23376:2 23377:1 23378:1 23379:1 23380:1 23381:1 23382:1 23383:1 23384:1 23385:1 23386:1 23387:1 23388:1 23389:1 23390:1 23391:1 23392:1 23393:1 23394:1 23395:1 23396:1 #
-0.00040942184124845705343875845727553 3:2 19:2 21:1 27:1 30:1 82:2 95:1 103:3 170:2 178:1 215:1 245:2 259:1 265:1 274:2 292:1 338:2 343:5 359:1 374:1 388:1 419:1 424:1 454:1 494:1 543:1 546:1 547:1 549:1 562:1 618:1 662:1 669:4 677:1 689:1 692:1 750:1 819:2 899:1 997:1 1018:1 1086:1 1198:1 1328:1 1422:1 1442:1 1527:1 1701:1 1908:1 2222:1 2224:2 2264:4 2748:1 2980:1 3431:1 3432:1 3502:1 3890:1 4003:1 4186:1 4198:2 4536:1 4701:1 4851:1 4927:1 5094:2 5121:4 5300:1 5428:1 7567:5 7809:1 8216:1 10994:1 11001:4 14862:1 15271:1 15272:1 15273:1 15274:1 15275:1 15276:1 15277:1 15278:1 15279:1 15280:2 15281:1 15282:1 15283:1 15284:1 15285:1 15286:1 15287:1 15288:1 15289:1 #
-0.0015552609435128714968771257431968 105:1 183:1 245:1 265:1 275:1 484:1 499:1 559:1 626:1 735:1 1603:1 2090:1 2363:1 4087:1 6345:2 7199:1 7641:1 8879:1 10091:2 15568:1 21880:1 21881:1 21882:1 21883:1 21884:1 21885:1 21886:1 21887:1 21888:1 #
-0.00012827721495239170681340601376519 17:1 18:5 19:2 21:1 24:1 27:2 28:4 30:2 33:1 36:8 40:5 42:2 44:1 57:4 81:2 82:2 95:4 99:2 139:1 151:7 169:1 208:1 209:1 226:3 238:1 261:5 288:1 354:1 378:4 416:7 419:1 429:3 453:1 493:14 497:1 667:1 669:1 687:1 700:1 705:1 710:1 750:1 752:1 753:6 791:1 795:1 836:6 863:3 948:4 1243:5 1251:4 1273:1 1458:2 1491:1 1687:1 1969:6 1987:1 2116:1 2127:1 2441:1 2621:7 2789:1 2971:1 3666:1 3774:4 3808:3 3809:1 3855:3 5060:2 5242:6 5396:1 5419:1 5543:4 6109:7 6137:3 6142:16 6493:1 6642:1 7434:1 7449:6 7451:8 7477:1 7479:2 7480:12 7486:1 8207:1 11176:1 11397:1 11400:1 11403:3 11996:1 12572:1 12831:1 13236:1 13237:1 20089:1 20095:1 20102:2 20110:1 22690:2 22743:1 24673:3 26400:3 26401:2 26402:2 26403:1 26404:1 26405:1 26406:2 26407:1 26408:1 26409:4 26410:5 26411:1 26412:1 26413:4 26414:1 26415:1 26416:2 26417:1 26418:1 26419:1 26420:1 26421:1 26422:1 26423:1 26424:1 26425:3 26426:1 26427:1 26428:1 26429:1 26430:3 26431:1 26432:1 26433:1 26434:1 #
-0.00016092780100101963499173440830248 3:1 19:4 27:1 30:1 93:1 99:1 147:2 183:1 209:1 215:1 265:6 416:1 419:2 492:5 493:2 494:1 653:2 796:1 798:1 799:1 822:1 841:1 846:1 863:2 868:1 874:1 1177:2 1216:3 1241:1 1271:1 2222:1 2224:1 2253:1 2583:1 2787:1 3067:1 3241:1 3289:1 3425:5 3502:2 3682:1 3855:1 3968:1 4002:1 4126:1 4428:2 4454:2 4675:1 5504:1 5658:2 6240:1 7568:1 8140:1 11774:1 18640:1 19059:1 19061:1 19386:1 19508:1 19509:1 19510:1 19511:2 19512:1 19513:2 19514:1 19515:1 19516:1 19517:1 19518:1 19519:1 19520:1 19521:1 19522:1 19523:1 19524:1 19525:1 19526:1 19527:1 19528:6 19529:3 19530:2 19531:2 19532:2 19533:1 19534:1 19535:1 19536:1 19537:1 19538:1 19539:1 19540:1 19541:1 19542:1 19543:1 #
-0.00049230170562068731581611968906032 19:4 20:1 21:4 27:1 30:4 36:5 40:1 103:1 170:1 209:1 211:1 238:3 245:1 261:2 274:1 299:1 320:1 327:1 343:3 374:1 385:1 398:1 401:1 429:3 484:2 492:1 493:1 494:1 612:1 669:5 680:2 689:1 752:1 753:2 794:3 863:1 1104:1 1219:1 1242:3 1247:1 1456:2 1574:1 1637:1 1652:1 1653:1 2060:1 2070:1 2128:1 2169:1 2214:6 2363:3 2441:1 2607:1 2943:1 3179:1 3502:1 3700:1 4339:1 4972:1 5285:3 5774:1 6214:1 6642:1 11245:2 12795:2 14038:1 16959:2 17017:5 21262:5 21263:1 21264:1 21265:1 21266:1 21267:2 21268:2 21269:1 21270:1 21271:1 21272:1 21273:1 21274:1 21275:2 21276:1 21277:1 21278:1 21279:1 21280:1 21281:2 21282:2 21283:1 21284:1 21285:1 21286:1 21287:1 21288:1 21289:1 21290:1 21291:1 21292:1 21293:1 21294:1 21295:1 21296:1 21297:1 21298:1 21299:4 21300:1 21301:1 21302:2 21303:2 21304:2 21305:1 21306:1 21307:1 #
