SVM-light Version V6.02
0 # kernel type
3 # kernel parameter -d 
1 # kernel parameter -g 
1 # kernel parameter -s 
1 # kernel parameter -r 
empty# kernel parameter -u 
31225 # highest feature index 
1560 # number of training documents 
312 # number of support vectors plus 1 
1.0663841 # threshold b, each following line is a SV (starting with alpha*y)
-0.0021949784392032742168232584134557 13:1 25:1 49:1 94:1 126:1 133:1 137:1 154:1 156:1 157:1 239:1 296:1 308:4 382:1 440:2 537:1 574:2 614:3 757:1 819:1 887:1 1001:1 1318:1 1435:1 1544:1 2009:1 2666:1 2992:3 3963:1 4243:1 4548:1 5195:1 5499:1 5983:1 6187:1 6875:1 14185:1 14260:1 14432:1 21031:1 27547:1 29166:2 29167:1 29168:1 29169:1 29170:1 29171:1 29172:1 #
0.00060893383603699091730782066989036 2:1 3:2 5:1 6:3 13:3 20:1 25:4 29:3 36:3 37:1 38:4 49:3 51:1 61:1 82:1 124:15 152:1 177:1 191:1 211:1 213:4 249:4 274:5 275:1 329:1 330:1 331:1 332:1 333:2 334:1 335:1 336:2 337:1 338:1 339:4 340:1 341:2 342:1 343:1 344:1 345:1 346:2 347:1 348:2 349:4 350:3 351:1 352:2 353:1 354:2 355:2 356:3 357:3 358:3 359:2 360:1 361:3 362:3 363:1 364:4 365:6 366:6 367:1 368:1 369:1 370:1 371:1 372:1 373:1 374:1 375:1 376:1 377:2 378:2 379:2 380:2 381:1 382:2 383:1 384:1 385:1 386:1 387:1 388:1 389:1 390:1 391:1 392:1 393:2 394:1 395:1 396:1 397:1 398:1 399:1 400:1 401:1 402:1 403:1 404:1 405:1 406:2 407:2 408:1 409:1 410:1 411:1 412:1 413:1 414:1 415:2 416:1 417:1 418:1 419:1 420:1 421:1 422:1 423:1 424:1 #
-9.8848101970319283076467017923328e-06 1:1 10:7 20:16 49:5 55:8 148:2 152:7 175:3 194:1 195:4 213:8 256:1 270:1 277:1 286:1 292:18 308:2 355:1 475:1 538:2 575:2 672:1 689:1 699:1 716:1 725:1 734:2 803:1 846:1 881:5 895:1 907:1 990:1 1092:2 1118:2 1470:2 1495:12 1550:2 1715:1 2204:1 2362:1 2415:1 2416:1 2483:1 2666:1 2802:1 2836:1 2985:1 3083:1 3476:7 3816:1 4198:1 4455:1 4460:2 4524:1 4676:16 4677:2 4759:1 5190:1 5983:1 6786:2 7779:1 8214:2 8701:1 9129:1 10601:1 11099:1 11345:1 11525:1 11670:1 12166:1 15833:4 17014:2 23176:1 23177:1 23178:1 23179:1 23180:1 23181:2 23182:3 23183:1 23184:4 23185:1 23186:1 23187:1 23188:1 23189:1 23190:1 23191:4 23192:1 23193:1 23194:1 #
-0.00035017413919835756446613528325429 25:1 49:2 154:1 156:1 157:1 235:1 674:1 757:1 783:1 1104:1 1540:1 1544:1 2333:1 2676:1 2972:1 3540:1 3735:1 5668:2 10265:1 11946:1 13546:1 22184:1 25278:2 25279:1 25280:1 25281:1 25282:1 #
-0.0003537931622553341470642507271549 1:1 2:1 5:1 24:1 25:3 49:2 54:1 59:1 61:3 81:2 82:1 96:1 97:3 115:1 126:2 133:2 154:1 181:1 226:1 235:1 247:1 270:1 286:1 324:1 332:3 385:1 413:2 425:2 454:1 527:1 672:1 716:2 833:1 918:1 1128:2 1342:1 1352:1 1854:1 2148:1 2442:1 2452:1 2667:1 3372:1 3569:1 3747:1 3837:2 4555:2 4862:1 4886:1 5890:1 6026:1 6031:2 6209:4 6699:5 6942:1 7459:1 7620:1 8097:1 8098:1 8099:1 8100:1 8101:3 8102:7 8103:4 8104:4 8105:1 8106:1 8107:3 8108:1 8109:1 8110:3 8111:1 8112:1 8113:1 8114:1 8115:1 8116:1 8117:1 8118:1 8119:1 8120:1 8121:2 8122:1 8123:1 8124:1 #
0.0045033921560961942889833586889381 1:2 2:1 3:2 4:3 5:1 6:3 7:1 8:2 9:1 10:1 11:1 12:1 13:1 14:2 15:3 16:1 17:1 18:1 19:1 20:2 21:1 22:1 23:1 24:2 25:1 26:1 27:1 28:1 29:1 30:1 31:1 32:1 33:1 34:1 35:1 36:3 37:6 38:5 39:1 40:1 41:2 42:2 43:2 44:2 45:5 46:2 47:2 48:1 49:2 50:1 51:1 52:1 53:1 54:1 55:3 56:1 57:1 58:1 59:1 60:2 61:13 62:4 63:1 64:1 65:1 66:1 67:1 68:1 69:1 70:1 71:1 72:1 73:1 74:1 75:1 76:1 77:2 78:4 79:1 80:1 81:1 82:2 83:1 84:1 85:1 86:1 87:2 88:2 89:1 90:1 91:1 92:1 93:1 94:2 95:1 96:1 97:1 98:1 99:1 100:1 101:1 102:1 103:1 #
0.0045033921560961942889833586889381 1:3 50:1 104:1 105:3 106:3 107:3 108:1 109:2 110:1 111:1 112:1 113:1 114:1 115:2 116:1 117:2 118:2 119:1 120:2 121:1 122:1 123:1 124:3 125:2 126:1 127:2 128:1 129:1 130:1 131:1 132:1 133:1 134:1 135:1 136:2 137:4 138:4 139:2 140:4 141:2 142:2 143:1 144:1 145:1 146:1 147:1 148:1 149:2 150:1 151:1 152:1 153:1 154:1 155:1 156:1 157:1 158:1 159:1 160:1 161:1 162:1 163:1 164:1 165:1 166:1 #
0.0045033921560961942889833586889381 5:1 7:1 14:1 24:2 37:1 49:2 50:1 51:1 69:6 94:2 115:1 156:1 157:1 165:1 167:1 168:1 169:1 170:1 171:1 172:1 173:2 174:3 175:1 176:1 177:1 178:1 179:4 180:1 181:2 182:3 183:1 184:1 185:1 186:1 187:1 188:1 189:1 190:1 191:1 192:1 193:1 194:1 195:2 196:1 197:1 198:2 199:2 200:1 201:1 202:1 203:1 204:1 205:1 206:1 207:1 208:1 209:1 210:1 211:2 212:1 213:1 214:1 215:1 216:1 217:1 218:1 219:1 220:1 221:1 222:1 223:1 224:1 225:2 226:3 227:1 228:1 229:1 230:1 231:1 232:1 233:1 234:1 235:1 236:1 237:1 238:2 239:4 240:2 241:2 242:1 243:1 244:1 245:1 246:1 #
0.0045033921560961942889833586889381 3:1 6:4 7:4 8:1 9:1 13:2 15:1 25:2 35:1 37:1 49:4 51:4 55:3 97:1 115:1 134:1 148:3 154:1 182:1 213:2 234:3 247:1 248:1 249:2 250:1 251:1 252:1 253:2 254:1 255:1 256:3 257:1 258:2 259:1 260:3 261:7 262:3 263:3 264:4 265:2 266:2 267:2 268:2 269:1 270:1 271:1 272:1 273:1 274:1 275:1 276:1 277:1 278:1 279:1 280:1 281:1 282:1 283:1 284:2 285:1 286:1 287:1 288:1 289:1 290:1 291:1 292:1 293:1 294:1 295:1 #
0.0045033921560961942889833586889381 3:1 13:1 49:1 134:2 249:1 292:1 296:1 297:1 298:1 299:1 300:1 301:1 302:2 303:1 304:1 305:1 306:2 307:2 308:1 309:1 310:1 311:1 312:1 313:1 314:1 315:1 316:1 317:1 318:1 319:1 320:1 321:1 322:1 323:1 324:1 325:1 326:1 327:1 328:1 #
-0.0012350791261037186510862717625514 7:27 8:3 10:4 20:2 31:1 33:2 35:3 36:3 37:10 49:3 51:22 55:7 59:1 62:6 82:1 87:2 94:13 101:1 117:3 131:1 146:2 148:22 188:1 195:2 213:13 226:4 235:1 255:4 256:2 286:1 287:1 292:8 306:4 308:13 337:2 354:1 358:1 384:1 452:1 456:9 482:2 608:1 616:11 650:2 690:2 698:1 703:2 727:1 778:1 807:1 809:1 819:1 881:3 900:1 912:1 976:5 1007:1 1070:1 1103:1 1104:1 1106:1 1109:4 1115:4 1174:7 1180:1 1321:1 1375:4 1430:2 1485:1 1623:2 1951:1 2013:1 2088:4 2148:1 2204:2 2395:1 2416:2 2452:1 2592:8 2811:7 3153:3 3168:1 3274:3 3298:16 3553:1 3629:1 3661:1 3909:1 3944:1 4288:1 4597:5 5543:1 5853:12 6028:1 6376:1 6945:4 6947:4 7187:2 7529:1 7634:1 7852:9 8978:1 9144:1 9347:1 9356:1 9358:8 9371:3 10903:3 12036:1 13245:6 15015:2 16435:4 19621:1 20610:1 20897:1 23358:4 27054:1 30977:1 30978:1 30979:1 30980:1 30981:2 30982:2 30983:2 30984:1 30985:2 30986:2 30987:2 30988:2 30989:4 30990:3 30991:5 30992:2 30993:2 30994:1 30995:3 30996:1 30997:1 30998:2 30999:1 31000:1 31001:2 31002:1 31003:2 31004:1 31005:1 31006:1 31007:2 31008:1 31009:1 31010:1 31011:1 31012:3 31013:2 31014:2 31015:1 31016:11 31017:1 31018:2 31019:1 31020:1 31021:1 31022:1 31023:1 31024:1 31025:1 31026:1 31027:1 31028:1 31029:2 31030:1 31031:1 31032:3 31033:1 31034:3 31035:1 31036:1 31037:1 31038:1 31039:1 31040:1 31041:1 #
-0.00068132380880241052555773562104946 1:1 16:1 20:2 115:1 119:1 122:1 192:1 193:1 220:4 249:2 280:1 452:1 496:1 619:1 808:1 1014:4 1095:1 1218:1 1348:2 1491:1 1876:3 2013:1 2481:1 3464:1 3472:1 3743:1 4297:2 4358:2 10689:1 11223:1 12038:1 12039:1 12040:2 12041:1 12042:1 12043:1 12044:1 12045:2 12046:2 12047:1 12048:1 12049:1 12050:1 12051:1 #
-0.00036385979422226441245061256957172 1:1 25:2 36:3 49:4 94:2 124:1 154:1 213:1 235:5 270:2 369:1 411:2 413:3 611:1 623:1 650:1 869:5 927:1 1066:1 1098:2 1298:3 1301:3 1691:1 2204:3 2416:1 2752:1 3269:1 3516:2 4363:1 4504:2 4511:3 6110:1 6375:1 7746:2 7882:1 9313:1 10158:4 11593:2 13085:1 15148:4 16385:1 20086:2 20089:5 22825:1 23165:2 25505:1 26524:2 27131:1 27972:1 29187:2 29188:4 29189:1 29190:1 29191:1 29192:1 29193:1 29194:1 29195:1 29196:1 29197:1 29198:1 29199:3 29200:1 29201:1 29202:1 29203:1 29204:1 29205:1 29206:1 29207:1 29208:1 29209:1 29210:1 29211:1 29212:1 #
-0.00062518062624890508374719821915733 1:2 8:2 10:5 25:3 29:4 37:1 38:1 49:3 51:1 69:1 94:1 113:1 124:1 133:1 135:2 140:6 193:1 194:1 211:2 239:57 249:1 253:9 274:1 296:1 308:3 339:9 368:2 387:1 390:2 413:1 432:1 442:1 538:1 572:1 640:1 645:1 757:1 785:2 881:7 977:1 990:1 1002:1 1024:2 1031:3 1066:1 1174:1 1401:1 1418:1 1424:1 1425:2 1427:1 1431:1 1437:4 1440:1 1442:2 1443:1 1444:1 1450:1 1455:1 1478:1 1484:1 1488:1 1516:1 1543:1 1695:1 2366:1 2405:2 2481:1 2496:1 2510:1 2534:1 2703:3 2834:2 2990:1 3187:2 3364:1 3568:1 3627:1 3884:2 4395:2 4674:3 5056:1 5079:1 5187:1 5312:1 5450:1 6566:2 6663:2 6720:1 6721:1 7137:1 7547:1 8741:1 9267:1 10246:2 10440:1 11757:1 12278:2 12782:1 15756:9 16869:2 17007:1 17598:1 18738:1 19585:2 23510:4 23511:1 23512:2 23513:1 23514:1 23515:1 23516:1 23517:2 23518:1 23519:1 23520:1 23521:1 23522:1 23523:1 23524:1 23525:1 23526:1 23527:1 23528:1 23529:1 23530:1 23531:1 23532:1 23533:1 23534:1 23535:1 23536:1 23537:1 23538:1 23539:1 23540:1 23541:1 23542:2 23543:1 23544:9 23545:6 23546:2 23547:4 23548:2 23549:1 23550:1 23551:1 23552:2 23553:2 23554:2 23555:1 23556:2 23557:2 23558:1 23559:1 23560:4 23561:2 23562:2 23563:2 23564:2 23565:1 23566:1 23567:1 23568:1 23569:1 23570:1 23571:1 23572:1 23573:1 23574:1 23575:1 23576:2 23577:1 23578:1 23579:1 23580:1 23581:1 23582:1 23583:1 23584:1 23585:2 23586:1 23587:1 23588:1 23589:1 23590:1 23591:1 23592:1 23593:1 23594:1 23595:2 23596:1 23597:2 23598:2 23599:1 23600:1 23601:1 23602:1 23603:1 23604:1 #
0.00024809426287448820913975056079437 1:2 7:2 13:1 29:1 33:2 34:1 36:7 41:25 42:15 43:9 44:7 45:1 47:86 49:1 51:3 55:3 62:4 94:1 96:1 97:2 98:1 101:1 126:1 147:2 148:5 166:1 180:1 181:1 195:1 199:3 226:8 234:2 270:1 274:1 281:42 282:30 283:21 339:6 342:1 344:1 384:1 413:1 432:5 442:3 524:2 534:4 617:5 706:1 728:3 778:4 827:1 915:1 917:24 924:4 1018:1 1046:2 1049:3 1067:1 1105:3 1145:1 1188:2 1198:2 1326:3 1393:7 1604:2 1623:1 1634:13 1713:2 1721:6 1727:3 1745:10 1778:6 1966:1 2076:1 2113:1 2114:1 2115:1 2116:1 2117:1 2118:1 2119:1 2120:1 2121:1 2122:2 2123:1 2124:1 2125:1 2126:1 2127:1 2128:1 2129:1 2130:2 2131:1 2132:2 2133:1 2135:1 2136:1 2140:2 2141:1 2142:1 2144:1 2145:1 2146:1 2147:2 2156:5 2177:1 2178:2 2179:1 2180:1 2181:1 2182:1 2183:1 2184:8 2185:2 2186:1 2187:2 2188:1 2189:1 2190:1 2191:1 2192:1 2193:1 2194:1 2195:1 2196:1 2197:2 2198:1 2199:1 2200:1 2201:1 2202:1 2203:1 2204:1 2205:1 2206:1 2207:1 2208:1 2209:2 2210:1 2211:1 2212:1 2213:1 2214:3 2215:3 2216:3 2217:8 2218:5 2219:1 2220:2 2221:2 2222:1 2223:1 2224:1 2225:1 2226:1 2227:8 2228:2 2229:1 2230:2 2231:1 2232:1 2233:1 2234:1 2235:5 2236:1 2237:1 2238:3 2239:1 2240:2 2241:3 2242:3 2243:2 2244:1 2245:1 2246:1 2247:1 2248:1 2249:1 2250:1 2251:2 2252:1 2253:1 2254:1 2255:1 2256:1 2257:1 2258:1 2259:1 2260:4 2261:5 2262:1 2263:1 2264:1 2265:1 2266:1 2267:1 2268:1 2269:1 2270:1 2271:1 2272:2 2273:1 2274:2 2275:1 2276:1 2277:2 2278:1 2279:1 2280:1 2281:1 2282:1 2283:1 2284:2 2285:1 2286:1 2287:4 2288:1 2289:1 2290:1 2291:2 2292:2 2293:1 2294:2 2295:1 2296:1 2297:1 2298:1 2299:1 2300:1 2301:1 2302:1 2303:1 2304:1 2305:1 2306:2 2307:1 2308:2 2309:1 2310:1 2311:1 2312:1 2313:1 2314:1 2315:2 2316:1 2317:1 2318:1 2319:1 2320:1 2321:1 2322:1 2323:1 2324:1 #
0.0045033921560961942889833586889381 452:1 455:2 1130:1 1131:1 1132:1 #
0.0045033921560961942889833586889381 51:1 283:1 427:1 428:1 447:1 454:1 499:1 613:1 614:1 691:1 758:1 804:1 902:1 990:1 991:1 1070:1 1178:2 1238:1 1625:1 2325:1 2326:1 2327:1 #
-0.00038817967425515539567348888283504 1:2 3:1 6:2 20:1 49:1 165:1 193:1 239:2 275:1 413:1 425:2 727:3 924:2 1080:1 1417:1 1437:1 1488:1 1603:4 4275:2 4986:2 5034:2 5857:2 12681:1 19313:1 19314:1 #
-0.0012963430361567277165207867639651 1:3 6:2 7:3 8:1 20:2 26:8 38:3 49:3 51:1 69:8 94:2 101:1 124:1 146:1 160:1 177:1 182:7 235:6 286:1 344:1 355:1 372:1 382:1 439:1 452:1 490:1 500:1 514:1 536:4 617:2 700:1 703:1 716:1 757:1 818:5 833:1 835:2 840:1 861:1 884:2 917:1 945:1 1070:1 1080:1 1103:1 1105:3 1119:1 1188:3 1203:2 1220:2 1324:1 1374:1 1380:2 1691:1 2013:1 2190:1 2262:1 2359:1 2715:1 3080:1 3391:1 3408:1 3458:3 3621:4 3627:1 3658:2 3734:4 3815:1 4379:1 4413:3 4720:2 5347:1 5498:1 5545:1 5638:1 6055:1 6269:1 6427:1 8354:1 8987:1 9267:1 9276:1 9342:1 10720:3 11277:1 14326:1 16571:1 16807:1 16808:1 16809:2 16810:1 16811:1 16812:1 16813:1 16814:1 16815:1 16816:1 16817:1 16818:1 16819:1 16820:1 16821:1 16822:3 16823:1 16824:2 16825:1 16826:1 16827:1 16828:1 16829:1 16830:1 16831:1 16832:1 16833:1 16834:1 16835:3 16836:1 16837:2 16838:1 16839:1 16840:1 16841:1 16842:1 16843:2 16844:1 16845:2 16846:1 16847:1 16848:1 16849:1 16850:1 16851:1 16852:1 16853:1 16854:1 16855:1 16856:1 16857:1 #
-0.002014929686342341406263267700183 1:1 6:10 7:7 15:1 17:1 20:1 49:2 51:4 52:1 61:1 94:6 106:1 115:1 133:1 165:1 182:10 251:1 308:1 677:1 869:1 1128:1 1247:2 1270:3 1271:3 1279:3 1386:1 1643:1 1675:2 1691:6 2608:1 2610:3 2992:1 3531:1 4021:1 4170:1 5096:1 5247:2 5408:1 7360:1 7535:1 8157:1 8158:1 8670:1 16571:1 31142:1 31143:1 31144:1 31145:1 31146:1 31147:7 31148:1 31149:1 31150:1 31151:1 31152:1 31153:1 31154:1 31155:1 31156:4 31157:2 31158:2 31159:1 31160:1 31161:1 31162:3 31163:3 31164:1 31165:1 31166:1 31167:1 31168:1 31169:1 31170:1 #
-0.00056046310663413216514999737327685 1:1 6:2 20:1 25:1 49:4 51:4 106:1 116:1 135:1 137:5 138:5 140:5 142:5 146:3 150:1 151:1 152:1 170:2 181:1 195:1 270:1 349:2 388:1 425:1 453:1 471:2 482:1 483:1 505:1 537:1 538:1 652:1 698:2 717:10 728:1 751:1 805:1 831:1 881:1 919:1 974:1 1014:1 1039:1 1086:2 1093:1 1233:1 1326:2 1364:4 1397:1 1400:5 1711:2 1804:1 2205:1 2483:3 2502:1 2534:1 2628:2 2850:1 2995:1 3034:1 3310:1 3393:1 3860:1 4356:1 4598:1 4642:3 4750:2 4784:1 4903:1 5326:2 5557:1 6352:2 6786:2 7041:1 7062:1 7362:1 7417:1 7583:1 7699:2 7852:2 8424:1 8455:1 8485:1 9027:3 10695:1 11030:1 12159:1 12925:1 13577:1 13743:2 13759:1 14549:3 15717:2 16939:1 18286:1 19047:1 21380:1 23644:5 23645:5 23646:2 23647:1 23648:1 23649:2 23650:2 23651:1 23652:1 23653:1 23654:1 23655:1 23656:5 23657:1 23658:1 23659:1 23660:1 23661:1 23662:1 23663:1 23664:1 23665:1 23666:2 23667:1 23668:1 23669:1 23670:3 23671:1 23672:1 23673:1 23674:2 23675:1 23676:1 23677:1 23678:1 23679:1 23680:1 23681:2 23682:1 23683:1 23684:1 23685:2 23686:1 23687:1 23688:1 23689:3 23690:1 23691:1 23692:1 23693:1 23694:1 23695:1 23696:1 23697:1 #
-0.0017567211442418451811109392224353 1:1 22:1 249:1 300:1 845:2 989:1 1085:1 1125:1 1329:1 1348:1 2505:1 3223:1 3899:1 6938:1 7908:2 7909:1 7910:1 7911:1 7912:1 7913:1 7914:1 #
0.0004277818418187977374256281137832 1:1 6:1 7:8 8:3 13:2 14:1 20:1 22:2 25:1 29:3 36:2 37:2 49:3 51:3 62:3 69:1 94:6 111:2 118:2 148:2 160:1 195:1 217:1 220:1 226:3 234:1 235:6 239:8 249:6 252:1 262:1 270:1 279:1 287:1 332:2 336:1 339:1 341:1 357:1 384:2 411:1 413:1 432:4 499:1 501:1 572:1 597:1 613:2 650:2 699:1 733:2 753:1 771:1 778:1 785:8 803:2 822:1 840:1 881:3 917:1 918:1 928:1 945:4 977:5 1017:1 1118:1 1128:1 1153:1 1174:9 1326:4 1343:3 1377:2 1378:1 1383:1 1385:10 1388:5 1393:2 1394:1 1395:1 1396:1 1397:1 1398:1 1399:1 1400:1 1401:1 1402:1 1403:1 1404:2 1405:1 1406:6 1407:1 1408:1 1409:1 1410:2 1411:1 1412:2 1413:1 1414:1 1415:1 1416:1 1417:1 1418:2 1419:1 1420:2 1421:1 1422:6 1423:9 1424:2 1425:3 1426:3 1427:3 1428:1 1429:1 1430:3 1431:1 1432:1 1433:1 1434:1 1435:1 1436:1 1437:7 1438:6 1439:2 1440:2 1441:1 1442:7 1443:2 1444:2 1445:2 1446:2 1447:2 1448:2 1449:2 1450:2 1451:1 1452:1 1453:1 1454:1 1455:1 1456:1 1457:1 1458:2 1459:2 1460:1 1461:1 1462:1 1463:1 1464:1 1465:1 1466:1 1467:1 1468:1 1469:1 1470:1 1471:1 1472:1 1473:1 1474:1 1475:1 1476:1 1477:1 1478:1 1479:1 1480:1 1481:1 1482:1 1483:1 1484:1 1485:1 1486:1 1487:2 1488:2 1489:1 1490:1 1491:1 1492:1 1493:2 1494:1 1495:1 1496:1 1497:1 1498:3 1499:1 1500:1 1501:1 1502:2 1503:1 1504:1 1505:1 1506:1 1507:1 1508:1 1509:1 1510:1 1511:1 1512:1 1513:1 1514:1 1515:1 1516:2 1517:1 1518:3 1519:1 1520:1 1521:1 1522:1 1523:1 1524:2 1525:1 1526:1 1527:1 1528:1 1529:1 1530:1 1531:1 1532:1 1533:1 1534:1 1535:1 1536:1 1537:1 1538:1 1539:1 1540:1 #
0.0045033921560961942889833586889381 1:1 3:1 7:4 10:1 22:1 24:1 25:1 49:1 51:3 69:1 101:1 133:1 135:1 180:1 181:1 193:1 219:1 226:1 239:5 247:1 249:1 252:3 308:1 384:1 538:1 605:1 606:1 617:1 637:1 690:1 716:1 808:1 817:1 856:1 857:1 858:1 859:1 860:3 861:1 862:1 863:1 864:1 865:1 866:1 867:1 868:1 869:2 870:1 871:1 872:1 873:1 874:1 875:1 876:1 877:1 878:1 879:1 880:2 881:2 882:1 883:2 884:1 885:1 886:1 887:1 888:1 889:1 890:1 891:1 892:4 893:3 894:1 #
0.0045033921560961942889833586889381 1:1 8:1 10:1 13:3 20:1 38:1 49:2 69:2 124:2 145:1 188:1 234:1 239:9 247:1 249:1 357:1 358:1 385:1 411:1 413:1 415:1 432:1 457:2 478:1 532:1 537:1 690:1 881:1 918:2 945:1 975:1 989:1 1068:1 1452:1 1453:1 1454:1 1459:1 1541:5 1542:2 1543:1 1544:1 1545:1 1546:1 1547:1 1548:1 1549:1 1550:1 1551:1 1552:2 1553:5 1554:1 1555:1 1556:1 1557:1 1558:1 1559:1 1560:1 1561:1 1562:1 1563:1 1564:1 1565:1 #
0.0045033921560961942889833586889381 1:1 2:1 10:7 20:1 28:1 49:1 51:1 69:2 94:1 126:1 145:1 175:1 188:1 195:1 221:1 279:1 306:1 308:1 372:1 452:1 486:1 490:1 689:1 718:1 727:1 775:2 776:1 796:1 881:3 910:1 1099:2 1219:1 1234:2 1672:1 1674:1 2325:1 2370:1 2473:1 2474:2 2475:2 2476:1 2477:4 2478:1 2479:1 2480:1 2481:1 2482:1 2483:2 2484:1 2485:1 2486:1 2487:1 2488:1 2489:1 2490:1 2491:1 2492:1 2493:1 2494:1 2495:1 2496:1 2497:1 2498:1 2499:1 2500:2 2501:1 2502:1 2503:1 #
0.0045033921560961942889833586889381 1:1 6:1 10:1 25:1 49:3 51:1 87:1 97:3 137:1 148:2 193:2 239:5 249:3 286:1 343:1 355:1 384:3 413:2 506:1 536:1 616:1 645:1 689:1 698:1 807:1 818:3 881:3 977:6 1024:1 1067:1 1078:1 1437:2 2801:6 2802:8 2803:1 2804:1 2805:5 2806:1 2807:1 2808:1 2809:1 2810:1 2811:1 2812:1 2813:1 2814:1 2815:1 2816:1 2817:1 2818:6 2819:2 2820:2 2821:2 2822:1 2823:1 2824:2 2825:1 2826:1 2827:1 2828:1 2829:1 2830:1 2831:1 2832:1 2833:1 2834:2 2835:1 2836:1 2837:1 2838:1 2839:1 2840:1 2841:1 2842:4 2843:1 2844:1 2845:1 2846:1 2847:1 2848:1 2849:1 2850:1 #
-0.0008369353738425406056752886563288 10:4 20:2 49:1 55:1 94:4 124:1 173:1 195:1 199:2 235:3 270:1 286:1 384:1 411:3 413:2 447:1 478:1 487:1 529:1 569:1 650:1 822:2 899:2 1050:9 1067:2 1081:1 1106:4 1536:1 1758:1 2047:1 2175:1 3079:1 3168:2 3594:3 3812:2 4022:2 4023:1 4024:1 4025:1 4026:1 4027:1 4028:8 4029:8 4030:3 4031:7 4032:6 4033:1 4034:1 4035:1 4036:1 4037:1 4038:1 4039:1 4040:1 4041:1 4042:1 4043:3 4044:1 4045:1 4046:1 4047:1 #
-0.00093737537072027647417488127601359 1:2 3:1 6:1 14:1 15:1 22:1 25:2 31:1 38:3 49:3 50:1 52:1 55:7 59:2 69:1 94:3 95:3 124:1 148:1 163:1 181:1 195:2 213:4 217:1 234:1 235:2 239:5 247:1 275:1 283:6 292:1 306:1 308:1 330:1 331:1 342:1 344:5 355:3 357:1 358:1 360:1 428:1 507:2 532:1 537:1 553:1 575:1 606:1 613:1 617:1 650:2 651:1 652:1 690:1 698:1 752:4 757:1 778:5 910:3 945:1 965:1 1099:2 1100:1 1104:1 1118:1 1205:1 1237:2 1244:2 1255:3 1256:1 1264:2 1266:1 1317:1 1691:1 1767:4 1997:1 2349:1 2437:1 2574:1 2629:1 2677:1 2992:1 3034:1 3063:1 3064:2 3138:1 3198:1 3272:1 3345:1 3697:1 3699:1 3702:1 3744:1 3773:2 3811:1 3812:1 4146:1 4346:1 4381:1 4445:2 4546:1 4566:1 4670:2 4794:2 4878:1 5126:1 5375:1 5379:1 5393:1 5395:1 5499:2 5657:1 6564:1 6751:1 7249:1 7347:1 7634:1 7698:1 7856:1 9064:1 9429:1 9573:2 10166:2 10167:1 10168:1 10169:1 10170:2 10171:1 10172:1 10173:1 10174:1 10175:1 10176:1 10177:1 10178:1 10179:1 10180:2 10181:2 10182:1 10183:1 10184:1 10185:1 10186:2 10187:1 10188:1 10189:1 10190:2 10191:2 10192:1 10193:1 10194:1 10195:1 10196:1 10197:1 10198:2 10199:1 10200:2 10201:1 10202:1 10203:1 10204:2 10205:1 10206:1 10207:1 10208:1 10209:1 10210:1 10211:1 10212:1 10213:1 10214:4 10215:1 10216:1 10217:2 10218:1 10219:1 10220:1 10221:2 10222:1 10223:1 10224:1 10225:1 10226:1 10227:1 10228:1 #
-8.1086691245992509368203937647479e-05 49:3 51:1 55:1 87:2 94:1 97:1 115:1 118:1 134:3 136:1 137:1 140:1 148:1 163:1 185:1 211:1 235:1 239:17 240:1 252:2 256:2 261:8 286:1 359:2 384:1 410:3 413:1 432:6 442:1 456:1 481:1 507:1 614:6 616:1 667:6 690:1 778:1 803:4 805:1 814:1 820:1 847:1 856:1 881:11 890:1 943:3 970:1 977:15 989:3 1007:1 1016:2 1070:1 1105:1 1146:1 1189:3 1329:8 1351:1 1366:1 1478:1 1488:2 1530:2 1566:1 1597:1 1717:8 1726:1 2020:1 2025:2 2088:2 2209:2 2332:1 2337:3 2442:1 2613:1 2696:3 2748:1 2838:1 3019:1 3234:1 3815:1 3992:1 4058:1 4080:1 4146:2 4179:1 4380:1 4477:1 4643:2 4865:1 4867:1 4876:1 4985:2 5026:2 5027:2 5120:1 5389:1 5430:1 5576:2 5589:1 5628:1 5846:1 5923:1 7419:1 7529:1 8329:1 8697:4 9454:1 10456:1 10475:1 11359:1 11758:1 11882:1 11891:1 12317:1 16899:1 19192:2 21003:2 21519:1 21584:1 21585:2 21586:2 21587:1 21588:1 21589:1 21590:4 21591:1 21592:3 21593:1 21594:1 21595:1 21596:1 21597:2 21598:1 21599:1 21600:1 21601:1 21602:1 21603:1 21604:1 21605:1 21606:1 21607:1 21608:1 21609:2 21610:1 21611:2 21612:1 21613:1 21614:1 21615:1 21616:1 21617:1 21618:1 21619:1 21620:3 21621:1 21622:1 21623:1 21624:1 21625:1 21626:1 21627:1 21628:1 21629:1 21630:1 21631:1 21632:1 21633:4 21634:2 21635:1 21636:1 21637:1 21638:1 21639:1 21640:1 21641:1 21642:1 21643:1 21644:1 21645:1 21646:1 21647:1 21648:1 21649:1 21650:1 21651:1 21652:1 21653:1 21654:1 21655:1 21656:2 21657:1 21658:1 21659:1 21660:1 21661:1 21662:1 21663:1 21664:2 21665:1 21666:1 21667:1 21668:3 21669:1 21670:1 21671:2 21672:1 21673:2 21674:1 #
-0.00050472071088193996239029681660782 5:1 14:1 22:15 69:8 108:4 160:1 181:3 247:2 249:1 283:2 408:1 553:1 636:1 758:1 805:2 826:1 870:1 897:3 1070:1 1214:2 1326:1 1420:6 1491:1 1640:1 2418:3 2437:2 2502:1 2671:7 2702:1 2863:2 3344:5 3377:1 3458:4 3662:1 3734:1 4062:1 4664:1 4708:1 4720:1 4925:1 4958:1 6469:1 10829:1 10830:1 10831:1 10832:1 10833:1 10834:3 10835:1 10836:1 10837:1 10838:1 10839:1 10840:1 10841:1 10842:1 10843:1 10844:1 10845:1 10846:1 #
0.0025623656208858063519639980398779 1:2 7:3 10:1 13:2 14:1 20:1 37:10 47:3 49:6 50:1 54:1 55:6 94:6 133:2 152:5 154:1 195:2 219:1 234:7 239:1 248:1 249:1 270:1 274:1 283:1 292:2 294:2 357:1 432:3 446:2 455:5 481:2 487:1 574:5 652:1 689:1 717:1 727:1 778:1 788:2 793:1 834:2 927:1 974:1 1035:2 1058:3 1188:1 1352:3 1400:1 1566:2 1567:1 1568:2 1569:1 1570:1 1571:2 1572:1 1573:1 1574:1 1575:1 1576:1 1577:2 1578:2 1579:2 1580:1 1581:2 1582:1 1583:1 1584:1 1585:1 1586:1 1587:1 1588:1 1589:2 1590:2 1591:1 1592:2 1593:2 1594:1 1595:1 1596:1 1597:2 1598:1 1599:1 1600:1 1601:1 1602:1 1603:5 1604:1 1605:1 1606:1 1607:1 1608:1 1609:1 1610:1 1611:1 1612:1 1613:1 1614:1 1615:1 1616:1 1617:1 1618:1 1619:1 1620:1 1621:1 1622:1 #
0.0045033921560961942889833586889381 6:3 7:7 13:1 20:4 25:4 35:2 36:1 37:4 49:2 94:3 109:1 182:2 226:1 255:1 270:1 275:1 279:2 283:2 296:1 298:1 308:1 354:1 358:1 360:4 568:1 652:2 733:1 778:2 974:1 977:2 1364:1 1437:1 1543:1 2515:1 2516:1 2517:1 2518:1 2519:1 2520:1 2521:1 2522:1 2523:1 2524:1 2525:1 2526:1 2527:1 2528:1 2529:1 2530:1 2531:2 2532:1 2533:1 2534:1 2535:1 2536:4 2537:1 2538:1 2539:1 2540:1 2541:1 2542:1 2543:1 2544:1 #
-0.00090197257026517450861913260951042 1:1 3:2 7:2 8:2 15:1 33:1 36:19 44:3 47:18 49:4 217:2 226:10 239:2 281:14 370:2 428:3 455:1 652:1 659:2 677:1 757:2 818:1 827:2 834:1 950:4 974:1 1069:1 1376:2 1440:2 1504:2 1634:14 1637:1 1721:2 1781:1 2076:10 2200:2 2629:1 2881:1 2985:3 2997:1 3079:1 3331:1 3458:1 4161:2 5250:1 5438:1 5457:1 6076:1 7588:3 12234:2 14233:1 14255:2 14261:1 14267:9 15443:2 15445:1 15451:2 15452:1 15455:1 19340:1 20019:1 20020:1 20023:3 20024:2 20029:1 22595:7 22596:2 22597:1 22598:3 22599:1 22600:1 22601:2 22602:2 22603:1 22604:1 22605:1 22606:1 22607:1 22608:1 22609:1 22610:1 22611:2 22612:1 22613:1 22614:1 22615:1 22616:2 22617:1 22618:1 22619:2 22620:2 22621:1 22622:1 22623:3 22624:1 22625:2 22626:3 22627:2 22628:2 22629:2 22630:2 22631:1 22632:2 22633:1 22634:1 22635:1 22636:1 22637:1 22638:2 22639:4 22640:4 22641:2 22642:2 22643:1 22644:1 22645:1 22646:1 22647:1 22648:1 22649:1 22650:1 22651:1 22652:1 22653:1 22654:1 22655:1 22656:1 22657:1 22658:1 22659:1 22660:1 22661:2 22662:1 22663:1 22664:1 22665:1 22666:1 22667:1 #
-0.0015668277661073991106899239156292 3:1 8:7 29:1 36:1 49:1 94:1 106:1 177:2 235:1 239:2 247:1 249:1 270:1 339:1 385:1 419:1 532:1 700:1 851:1 899:1 918:1 945:1 975:1 977:3 1390:2 1401:1 1417:1 1437:1 1488:1 1522:2 1523:2 2375:1 2853:1 4121:1 4868:1 5802:1 6411:1 6497:1 10786:2 10787:6 10788:2 10789:1 10790:1 10791:1 10792:1 10793:1 10794:1 #
-0.0011500125605665178531167303077609 1:1 10:1 14:1 25:1 51:1 55:1 101:1 174:3 175:1 182:3 218:1 332:1 355:1 432:2 456:1 475:2 481:1 499:1 534:1 699:4 708:1 717:1 778:4 796:1 803:2 807:1 833:1 863:3 917:1 1006:1 1105:1 1174:1 1188:1 1754:2 1997:1 2405:1 2613:1 2670:1 3076:1 3231:1 3295:1 3428:1 4103:1 4243:1 5027:1 5183:1 5201:4 5696:1 6394:1 6634:1 8130:1 11831:1 11921:1 16741:1 16742:1 16743:1 16744:1 16745:1 16746:1 #
-7.3067377683687422191063931542487e-05 20:1 49:1 94:1 113:1 133:1 211:5 287:1 413:1 468:1 481:2 514:1 652:1 654:1 851:1 864:1 1050:9 1100:1 1174:2 2805:3 3390:1 3733:1 4028:2 4029:2 4031:2 4033:3 4039:1 4040:1 4041:1 4356:3 5690:1 9505:1 9837:1 13312:1 13313:1 13314:1 13315:1 15064:1 15599:2 19039:1 19040:1 19041:1 19042:1 19043:1 19044:1 19045:2 19046:1 19047:1 19048:1 19049:1 19050:1 19051:1 19052:1 19053:1 19054:1 19055:1 19056:1 19057:1 19058:1 19059:1 19060:1 19061:1 19062:1 19063:1 19064:1 19065:1 19066:1 19067:1 19068:1 19069:1 19070:1 19071:1 19072:1 19073:1 19074:1 19075:1 19076:1 19077:1 #
-0.0015725974049696663219916059617276 1:1 2:1 5:1 8:2 14:1 49:1 59:1 179:1 226:3 286:4 447:1 456:1 478:1 536:1 833:1 1078:1 1232:1 1485:1 2506:1 5197:1 5902:1 6028:1 6697:1 6707:1 6975:1 8099:1 11005:1 11734:1 11735:1 11736:1 11737:1 11738:1 11739:3 11740:1 11741:2 11742:4 11743:1 11744:2 11745:1 11746:1 11747:1 11748:1 11749:1 11750:1 #
9.7393339532094518290299134388732e-05 8:2 13:1 14:1 19:1 22:1 23:1 31:1 41:16 47:60 49:2 101:1 108:1 110:1 115:3 148:1 154:1 181:1 239:1 280:40 323:17 439:1 614:19 659:3 778:5 884:1 917:2 945:1 1046:1 1348:8 1541:1 1638:1 1712:13 1741:2 1749:23 1762:3 1791:6 2067:14 2076:2 2083:2 2086:2 2088:6 2089:1 2093:1 2094:2 2095:2 2096:1 2097:1 2098:2 2099:1 2100:1 2156:1 2629:1 2713:1 2772:3 2868:50 2869:1 2870:2 2871:2 2872:2 2873:1 2874:1 2875:1 2876:1 2877:1 2878:1 2879:1 2880:1 2881:1 2882:1 2883:1 2884:1 2885:1 2886:1 2887:1 2888:1 2889:1 2890:2 2891:2 2892:1 2893:1 2894:1 2895:1 2896:1 2897:1 2898:2 2899:1 2900:1 2901:3 2902:1 2903:2 2904:2 2905:1 2906:1 2907:4 2908:1 2909:1 2910:1 2911:1 2912:2 2913:1 2914:1 2915:2 2916:2 2917:3 2918:3 2919:1 2920:1 2921:5 2922:1 2923:1 2924:3 2925:2 2926:1 2927:1 2928:1 2929:2 2930:1 2931:1 2932:1 2933:1 2934:1 2935:1 2936:12 2937:1 2938:1 2939:4 2940:2 2941:1 2942:2 2943:1 2944:1 2945:1 2946:1 2947:1 2948:1 2949:1 2950:1 2951:4 2952:1 2953:1 2954:1 2955:1 2956:2 2957:1 2958:1 #
0.0045033921560961942889833586889381 7:1 8:1 24:1 38:2 49:1 55:3 101:1 145:1 193:1 195:1 213:2 215:1 226:4 249:3 270:2 487:1 817:1 881:1 899:1 1074:1 1081:2 1082:5 1083:1 1084:1 1085:1 1086:2 1087:2 1088:3 1089:1 1090:1 1091:2 1092:2 1093:2 1094:1 1095:1 1096:1 1097:1 1098:2 1099:1 1100:1 1101:1 1102:1 1103:2 1104:2 1105:2 1106:2 1107:1 1108:2 1109:1 1110:2 1111:1 1112:1 1113:1 1114:1 1115:1 1116:1 1117:1 1118:1 1119:1 1120:1 1121:1 1122:1 1123:1 1124:1 1125:1 1126:1 1127:1 1128:1 1129:1 #
0.0039033364702536336478255751814004 1:1 6:1 13:2 25:3 26:4 36:1 37:6 49:5 54:1 62:3 69:5 94:5 113:1 160:1 180:1 182:1 199:1 234:2 235:1 239:5 286:1 341:7 342:3 344:3 347:1 358:1 384:1 411:1 413:1 432:1 572:1 611:1 623:1 625:1 646:1 650:2 673:1 895:2 897:4 989:1 1225:1 1237:1 1238:2 1239:1 1240:1 1241:1 1242:1 1243:1 1244:4 1245:1 1246:1 1247:1 1248:1 1249:1 1250:1 1251:1 1252:2 1253:2 1254:1 1255:2 1256:1 1257:1 1258:1 1259:2 1260:2 1261:1 1262:1 1263:1 1264:4 1265:1 1266:1 1267:1 1268:1 1269:1 1270:1 1271:1 1272:2 1273:1 1274:1 1275:1 1276:1 1277:1 1278:1 1279:1 1280:1 1281:1 1282:1 1283:1 1284:2 1285:1 1286:1 1287:1 1288:4 1289:1 1290:1 1291:1 1292:1 1293:1 1294:1 1295:1 1296:1 1297:1 1298:3 1299:1 1300:4 1301:5 1302:2 1303:1 1304:1 1305:2 1306:1 1307:2 1308:1 1309:1 1310:1 1311:1 1312:1 1313:1 1314:1 1315:1 1316:1 1317:2 1318:1 1319:1 1320:1 1321:1 1322:1 #
0.0045033921560961942889833586889381 2:1 7:1 8:2 20:2 22:2 36:4 49:3 62:1 94:6 115:1 219:1 235:4 248:1 270:1 308:4 355:2 413:1 507:1 527:1 569:1 574:1 610:1 611:2 612:2 613:1 614:1 615:1 616:1 617:1 618:3 619:1 620:4 621:1 622:1 623:1 624:1 625:1 626:1 627:1 628:1 629:1 630:1 631:2 632:1 633:1 634:1 635:1 636:1 637:1 638:1 639:1 640:1 641:1 642:1 643:1 644:1 645:1 646:1 647:1 648:1 649:1 650:5 651:1 652:1 653:1 654:1 655:1 656:1 657:1 658:3 659:2 660:1 661:1 662:1 663:4 664:1 665:1 666:1 667:1 668:1 669:1 670:1 671:2 672:1 673:1 674:1 675:1 #
-0.0015395332226923806422103080393526 7:1 25:2 36:1 154:1 170:1 213:3 249:1 355:2 478:2 481:1 703:1 778:1 1066:1 1173:1 1758:2 3516:1 6874:2 6876:1 6936:3 15147:2 15148:1 15149:1 15150:1 15151:1 15152:1 15153:1 #
-0.00081919490127237344113952932644906 1:3 2:1 14:1 20:1 24:1 26:2 49:1 101:2 111:2 124:2 163:3 173:1 211:1 225:3 239:3 247:1 256:1 296:1 318:1 352:3 382:1 532:1 572:1 617:1 645:2 655:1 658:6 673:1 690:1 805:1 824:1 831:1 864:2 918:1 970:1 1145:1 1146:1 1372:1 1381:1 1394:1 1492:1 1538:1 1586:1 1637:1 2437:1 2534:3 2665:1 2676:1 2881:1 4103:1 4241:2 4721:1 4868:1 5203:1 5561:1 5562:1 5621:1 6007:1 7286:1 8446:1 8823:1 11456:1 11593:1 11594:1 11595:1 11596:1 11597:1 11598:1 11599:1 11600:1 11601:1 11602:2 11603:1 11604:1 11605:1 11606:1 11607:1 11608:1 11609:2 11610:1 11611:1 11612:1 11613:1 11614:1 11615:1 #
-0.0017386552012398869253989586169951 1:1 25:1 42:2 49:5 50:1 54:1 55:3 94:4 124:5 181:1 188:1 193:1 195:2 213:1 222:1 226:2 233:5 234:14 247:1 249:4 254:4 264:2 270:1 283:2 286:4 292:7 308:6 355:1 359:2 372:4 432:4 446:2 459:1 482:1 501:2 601:1 602:2 605:1 650:11 652:1 700:2 751:3 772:1 833:1 856:1 1058:3 1130:1 1132:1 1174:1 1175:1 1352:2 1707:1 1771:3 2209:2 2551:1 2613:2 2792:1 2990:1 3040:1 3267:1 3501:1 3553:7 4048:1 4336:1 4410:6 4468:1 4666:1 4725:3 4968:6 5395:1 5450:1 5716:1 5748:1 6539:1 7418:2 7980:2 8741:1 10714:4 10715:6 10716:1 10717:1 10718:1 10719:1 10720:1 10721:1 10722:1 10723:1 10724:1 10725:1 10726:1 10727:1 10728:1 10729:1 10730:2 10731:3 10732:2 10733:2 10734:4 10735:1 10736:1 10737:1 10738:1 10739:1 10740:1 10741:1 10742:2 10743:2 10744:1 10745:5 10746:5 10747:1 10748:1 10749:1 10750:1 10751:3 10752:2 10753:1 10754:2 10755:4 10756:1 10757:1 10758:2 10759:1 10760:1 10761:1 10762:1 10763:2 10764:1 10765:2 10766:1 10767:1 10768:1 10769:1 10770:2 10771:1 #
-0.00047715310652807262168512147937349 3:1 6:3 7:2 8:1 16:2 18:2 20:1 22:1 25:1 36:3 37:3 49:1 61:2 94:4 95:1 126:1 127:2 148:4 170:1 177:1 235:1 256:7 270:1 281:2 284:1 355:2 357:4 360:1 387:3 390:2 391:2 392:1 397:1 398:2 399:2 400:1 402:3 411:2 413:1 417:1 443:3 446:3 527:1 534:1 553:4 613:1 650:9 652:1 663:5 670:7 791:2 846:2 883:2 970:8 974:1 989:1 1050:2 1301:4 1316:2 1342:1 1343:1 1435:9 1504:1 1634:3 1711:1 2012:3 2034:2 2172:2 2428:1 2449:1 2483:1 2629:4 3009:1 3213:3 3298:1 3406:1 3506:1 3633:2 3833:2 3892:1 3906:1 4019:1 4152:5 4198:1 4394:1 4661:1 4708:1 5857:1 6053:1 6348:1 6481:1 6590:1 6621:1 7489:1 7583:1 7852:2 7887:2 8251:1 8419:3 8664:1 9837:4 10496:1 11648:3 12721:1 12961:1 13312:4 14213:1 14547:1 16455:4 16602:1 16861:1 17258:3 18053:1 18090:4 19318:1 20335:3 21074:2 22305:1 22860:3 24293:1 24294:1 24998:1 26531:1 28745:4 28748:4 30390:2 30391:1 30392:1 30393:1 30394:1 30395:1 30396:1 30397:1 30398:1 30399:1 30400:1 30401:1 30402:1 30403:1 30404:4 30405:1 30406:1 30407:1 30408:1 30409:2 30410:1 30411:2 30412:4 30413:1 30414:1 30415:3 30416:1 30417:1 30418:1 30419:1 30420:4 30421:1 30422:1 30423:1 30424:1 30425:3 30426:1 30427:1 30428:1 30429:1 30430:1 30431:2 30432:1 30433:1 30434:3 30435:3 30436:3 30437:2 30438:2 30439:1 30440:1 30441:1 30442:1 30443:1 30444:1 30445:1 #
-0.00045458408704015054214997437753709 1:1 3:1 10:1 14:1 20:2 31:1 37:2 49:2 55:9 59:1 62:1 82:2 95:13 96:1 97:3 124:1 195:1 213:5 235:1 247:1 283:1 286:1 442:1 574:2 652:1 674:1 698:15 778:1 820:1 833:1 851:2 878:1 881:1 911:1 912:1 950:7 1024:1 1147:1 1174:2 1188:4 1603:2 2362:2 2483:1 2574:1 3033:1 3244:2 3292:1 3501:1 3602:1 3816:1 3824:1 4039:1 5626:1 5665:1 6671:16 7678:2 7902:1 9308:5 10221:1 10535:4 10540:1 10859:1 12895:1 14384:1 14423:2 14771:2 15313:1 18535:1 30916:1 30917:1 30918:2 30919:1 30920:1 30921:1 30922:3 30923:1 30924:1 30925:2 30926:1 30927:1 30928:1 30929:1 30930:14 30931:1 30932:1 30933:1 30934:1 30935:1 30936:1 30937:1 30938:1 30939:1 30940:1 30941:1 30942:1 30943:1 30944:1 30945:1 30946:1 30947:1 30948:1 30949:1 30950:1 30951:1 30952:1 30953:1 30954:1 30955:1 30956:1 30957:1 30958:1 30959:1 30960:1 30961:1 30962:1 30963:1 30964:1 30965:1 30966:1 30967:1 30968:1 30969:1 30970:1 30971:1 30972:1 30973:1 30974:1 30975:1 30976:1 #
0.0045033921560961942889833586889381 1:2 47:2 49:2 50:1 51:1 94:1 165:1 170:1 219:2 226:1 234:3 270:1 287:1 358:1 452:1 454:1 456:4 481:1 534:1 689:1 757:1 778:1 780:1 791:1 822:1 833:1 856:2 1081:1 1126:1 1207:2 1323:1 1324:1 1325:1 1326:3 1327:1 1328:3 1329:1 1330:2 1331:1 1332:1 1333:1 1334:1 1335:1 1336:1 1337:1 1338:1 1339:4 1340:1 1341:2 1342:1 1343:1 1344:1 1345:1 1346:1 1347:2 1348:1 1349:1 1350:1 1351:2 1352:2 1353:1 1354:1 1355:1 1356:1 1357:1 1358:1 1359:2 1360:1 1361:1 1362:1 1363:1 1364:1 1365:2 1366:2 1367:2 1368:1 1369:2 1370:1 1371:1 1372:1 1373:1 1374:1 1375:1 1376:1 #
0.0045033921560961942889833586889381 1:1 7:2 8:1 13:1 20:1 36:1 49:1 151:5 181:1 213:1 215:1 249:1 287:1 303:1 339:2 432:3 453:1 529:1 572:1 716:1 717:3 736:2 746:1 751:1 1015:4 1016:1 1017:1 1018:1 1019:1 1020:2 1021:1 1022:2 1023:1 1024:3 1025:1 1026:1 1027:1 1028:1 1029:1 1030:1 1031:2 1032:1 1033:1 1034:1 #
-0.00046069444877082349866850852215805 7:1 22:1 42:1 49:1 55:1 137:1 160:7 165:1 239:1 252:1 261:1 283:2 287:1 342:1 384:1 447:1 501:1 614:1 659:1 757:1 832:1 917:1 947:1 1069:1 1504:1 2156:1 2204:1 2492:1 2697:5 2713:1 3277:1 3558:1 3566:1 3580:1 3952:1 4380:1 5179:1 11109:1 14041:1 18253:2 18298:1 18299:1 18300:1 18301:1 18302:1 18303:1 18304:1 18305:1 18306:7 18307:1 18308:1 18309:1 18310:1 18311:1 18312:1 18313:3 18314:1 18315:1 18316:1 18317:2 18318:1 18319:1 18320:1 18321:1 18322:1 18323:1 #
-0.0045033921560961942889833586889381 8:1 13:4 38:2 69:2 127:4 219:1 249:1 270:1 443:2 606:1 800:1 808:1 945:1 1074:1 1470:1 1542:1 2204:1 2206:1 2209:1 3038:1 3225:1 3481:1 4016:1 4058:1 4115:1 4117:1 5431:1 7425:1 8838:1 9429:1 12074:4 13614:1 15158:1 16316:2 17318:1 18249:1 18250:1 18251:1 18252:1 18253:1 18254:1 18255:1 18256:1 18257:1 18258:1 18259:1 18260:1 18261:2 18262:1 18263:1 18264:1 18265:1 18266:1 18267:1 18268:1 #
-0.0018557938028624044925901648284139 1:1 7:7 37:6 49:2 69:1 94:1 181:2 195:2 239:2 270:1 306:1 308:8 415:1 834:5 897:1 911:2 1390:8 1616:2 1635:1 2459:1 3860:1 5199:8 6054:1 6498:1 6499:1 6500:2 6501:3 6502:3 6503:3 6504:3 6505:2 6506:1 6507:3 6508:1 6509:1 6510:1 6511:1 6512:1 6513:1 6514:1 6515:3 6516:1 6517:1 6518:1 6519:1 6520:1 6521:1 6522:1 6523:1 6524:6 6525:2 6526:1 6527:1 6528:1 6529:1 6530:1 6531:3 6532:1 6533:1 6534:2 6535:1 6536:2 6537:2 6538:2 6539:1 6540:1 6541:1 6542:1 6543:1 #
-0.00088815043480035889712081997870996 1:1 37:5 49:5 154:2 170:1 179:1 181:1 239:3 247:1 332:3 503:1 651:2 794:1 805:1 1066:2 1255:1 1271:3 1548:7 1680:1 1778:1 2204:1 2483:1 2965:1 2989:1 3208:1 3234:1 3340:1 3341:1 3440:1 3445:1 3531:1 3590:1 3951:1 3952:2 4271:3 4635:1 5034:1 7203:1 7855:2 7856:1 7857:1 7858:1 7859:3 7860:2 7861:1 7862:2 7863:2 7864:4 7865:6 7866:2 7867:3 7868:2 7869:3 7870:2 7871:1 7872:1 7873:3 7874:3 7875:1 7876:1 7877:1 7878:1 7879:1 7880:1 7881:1 7882:1 7883:1 7884:1 #
-0.0028108548892072909158867943801852 2:1 8:2 15:1 22:1 37:3 52:1 156:1 170:1 180:1 211:3 283:1 428:1 534:1 641:2 689:1 718:1 757:1 758:2 771:1 778:1 870:1 879:1 899:1 947:2 1711:1 2206:1 2360:1 2574:1 2681:2 2715:1 2863:2 3160:1 3376:1 3911:2 4430:1 5283:1 5288:1 6007:1 6070:2 6352:1 6709:2 9077:1 10265:2 10645:1 10814:1 16190:1 19927:1 21061:1 21062:1 21063:1 21064:1 21065:1 21066:2 21067:1 #
0.0045033921560961942889833586889381 1:2 20:1 47:1 49:3 55:4 62:1 145:1 146:4 148:2 174:1 182:3 213:2 215:2 217:2 234:1 258:1 274:4 281:2 286:3 292:1 303:1 308:3 432:1 435:2 438:1 447:1 505:1 614:1 692:1 699:3 718:1 826:2 915:1 994:1 1021:1 1035:1 1036:2 1037:2 1038:1 1039:1 1040:1 1041:1 1042:1 1043:2 1044:2 1045:2 1046:1 1047:1 1048:5 1049:1 1050:7 1051:1 1052:1 1053:3 1054:3 1055:3 1056:3 1057:3 1058:3 1059:2 1060:1 1061:1 1062:4 1063:1 1064:1 1065:1 1066:1 1067:3 1068:1 1069:2 1070:2 1071:1 1072:1 1073:1 1074:1 1075:1 1076:1 1077:2 1078:1 1079:1 1080:1 #
0.0045033921560961942889833586889381 10:1 22:2 31:1 36:3 37:2 38:1 49:4 51:1 94:4 97:1 195:1 235:10 279:1 357:1 360:1 367:1 382:1 397:1 413:1 501:3 575:1 611:4 650:8 654:2 655:3 663:1 670:1 716:1 975:1 1174:2 1301:4 1720:2 2613:1 2614:1 2615:1 2616:2 2617:3 2618:1 2619:2 2620:5 2621:1 2622:1 2623:4 2624:6 2625:1 2626:1 2627:1 2628:2 2629:1 2630:1 2631:1 2632:1 2633:1 2634:2 2635:2 2636:1 2637:1 2638:1 2639:1 2640:1 2641:1 2642:1 2643:2 2644:1 2645:1 2646:3 2647:4 2648:2 2649:1 2650:1 2651:1 2652:1 2653:1 2654:1 2655:1 2656:1 #
0.0045033921560961942889833586889381 1:1 13:3 22:1 49:3 50:1 82:1 102:1 115:1 124:1 134:2 165:1 177:1 213:1 219:1 234:1 240:3 247:1 250:1 270:1 281:1 282:1 283:1 292:1 382:1 413:1 428:1 432:2 524:1 529:1 537:1 568:1 614:1 636:1 691:2 757:1 899:3 974:1 1128:1 1145:1 1352:1 1536:1 1634:4 1691:1 1712:1 1723:1 1749:6 1771:3 1791:1 2020:2 2067:1 2164:1 2204:1 2206:1 2415:1 2474:1 2715:1 2716:1 2717:1 2718:2 2719:1 2720:1 2721:2 2722:1 2723:1 2724:2 2725:2 2726:1 2727:1 2728:1 2729:1 2730:1 2731:3 2732:2 2733:1 2734:5 2735:1 2736:1 2737:1 2738:1 2739:1 2740:1 2741:1 2742:2 2743:1 2744:1 2745:5 2746:1 2747:1 2748:1 2749:1 2750:1 2751:2 2752:1 2753:4 2754:1 2755:1 2756:1 2757:1 2758:1 2759:1 2760:2 2761:1 2762:1 2763:1 2764:1 2765:2 2766:1 2767:1 2768:1 2769:1 2770:1 2771:1 2772:1 2773:1 2774:1 2775:1 2776:1 2777:1 2778:1 2779:1 2780:1 2781:1 2782:1 2783:1 2784:1 2785:1 2786:2 2787:1 2788:1 2789:1 #
0.0045033921560961942889833586889381 1:1 7:1 13:1 24:1 33:1 34:1 49:1 51:1 55:2 62:2 64:1 83:2 94:1 148:1 151:1 234:1 256:2 260:1 262:1 275:1 292:1 358:1 524:1 569:1 778:1 1148:1 1634:1 1804:1 2020:1 2204:1 2441:1 2442:1 2443:1 2444:1 2445:1 2446:3 2447:1 2448:1 2449:3 2450:1 2451:4 2452:2 2453:1 2454:1 2455:1 2456:1 2457:1 2458:1 2459:1 2460:1 2461:1 2462:1 2463:1 2464:1 2465:1 2466:2 2467:4 2468:1 2469:1 2470:1 2471:1 2472:2 #
-0.0001498014404770568448830442287445 1:1 6:1 16:5 20:2 22:1 25:3 33:3 36:10 37:3 42:1 47:7 49:3 50:1 55:4 61:3 62:2 69:2 82:1 83:2 84:2 85:1 86:1 87:2 91:1 92:1 95:4 146:19 148:3 174:3 181:1 213:6 226:4 234:2 239:1 256:1 258:1 281:12 286:1 292:1 380:3 432:1 457:1 501:2 616:1 703:3 716:1 733:1 820:1 918:1 947:2 960:2 977:3 994:6 1024:1 1039:1 1049:2 1058:1 1147:1 1168:1 1174:5 1317:1 1351:1 1352:1 1386:1 1487:1 1488:1 1496:1 1530:2 1634:8 1727:1 1802:1 1807:2 2013:1 2076:1 2148:2 2291:4 2413:1 2441:1 2530:2 2727:1 2990:1 3458:6 3603:3 3615:2 3633:1 3662:1 3993:1 4359:2 4775:1 4886:3 4946:1 5097:1 5189:1 5549:1 5696:1 5704:1 6007:2 7350:1 7643:2 7644:1 7645:1 7646:1 7647:1 7648:1 7649:1 7650:1 7651:2 7652:1 7653:1 7654:4 7655:2 7656:1 7657:3 7658:13 7659:1 7660:1 7661:1 7662:1 7663:1 7664:1 7665:1 7666:1 7667:1 7668:1 7669:1 7670:4 7671:6 7672:6 7673:2 7674:2 7675:2 7676:1 7677:2 7678:2 7679:1 7680:1 7681:1 7682:1 7683:1 7684:1 7685:1 7686:1 #
0.0045033921560961942889833586889381 7:1 14:1 20:1 49:1 106:2 115:1 126:1 133:1 234:1 247:1 249:1 250:1 416:1 432:1 701:1 757:1 824:1 831:1 832:1 833:1 834:3 835:1 836:1 837:1 838:1 839:1 840:1 841:1 842:1 843:1 844:1 845:1 846:2 847:2 848:1 849:1 850:1 851:1 852:1 853:1 854:1 855:1 #
-0.00016720745124006614621206545656662 1:4 49:3 55:4 62:2 115:1 156:1 157:1 179:2 215:1 217:3 250:1 296:1 651:1 840:1 1040:3 1041:5 1045:1 1058:2 1098:2 1128:1 1152:1 1234:1 1378:1 1860:1 2204:1 2372:1 2614:1 3155:1 3846:1 4075:1 4159:6 5560:1 9803:1 10674:1 12624:1 13242:1 23102:1 23103:3 23107:5 28087:1 28088:1 28089:1 28090:1 28091:1 28092:1 28093:3 28094:1 28095:1 28096:1 28097:1 #
-0.0034882846245820266391224340196686 1:2 2:1 3:1 31:1 33:1 34:1 38:1 47:1 49:1 97:2 113:1 134:2 146:1 148:1 179:1 181:1 211:1 219:4 220:1 261:1 281:1 282:2 283:1 432:2 455:5 500:1 671:2 778:2 783:1 989:1 1006:1 1100:1 1162:1 1478:1 1504:1 1713:2 1870:1 2219:2 2725:1 2747:1 3153:1 3788:1 4357:1 4498:1 4865:1 4886:2 4938:1 5146:2 12826:2 13707:1 16189:1 17346:1 26003:1 26004:1 26005:1 26006:1 26007:1 26008:1 26009:2 26010:1 #
-0.0036089094311071399923118718788828 1:2 13:1 248:1 250:8 283:3 428:2 447:1 499:2 534:1 613:1 614:2 786:1 832:3 840:1 902:2 1163:2 1178:1 2800:1 2921:1 3378:1 3977:1 4105:3 5018:1 5899:1 8317:1 15597:1 15598:2 #
-0.00087643205414919176342303241966647 1:1 6:1 124:2 137:1 138:1 140:1 142:1 151:2 173:2 179:2 355:1 475:1 673:1 677:1 788:1 913:1 1237:2 3055:1 3077:1 3363:1 4521:1 5312:1 5313:2 5314:4 5315:2 5316:3 5317:2 5318:1 5319:1 5320:1 5321:1 5322:1 5323:1 5324:1 5325:1 5326:1 5327:1 5328:1 5329:1 #
-0.00088919687615479745153301838200832 1:1 2:1 8:1 20:2 49:1 61:5 62:1 82:2 95:1 96:1 194:1 283:2 286:1 363:1 393:1 413:1 553:1 614:3 617:1 724:1 757:1 779:1 851:1 853:3 950:4 1009:1 1236:1 1352:1 1364:1 2204:1 2540:1 2779:5 3079:1 3244:1 3248:1 3354:1 3685:1 4070:1 4322:1 4359:1 4704:1 4868:1 5536:1 7294:2 7295:1 7296:1 7297:1 7298:2 7299:1 7300:1 7301:1 7302:1 7303:1 7304:1 7305:1 7306:1 7307:1 #
0.0045033921560961942889833586889381 1:2 7:2 24:1 37:3 49:1 51:4 55:1 94:1 173:1 219:2 234:2 254:1 292:4 397:1 425:1 426:2 427:1 428:1 429:2 430:1 431:1 432:1 433:1 434:1 435:1 436:1 437:1 438:1 439:1 440:2 441:1 442:1 443:3 444:1 445:2 446:3 447:1 448:1 449:1 450:1 451:1 452:1 453:1 454:1 #
0.0045033921560961942889833586889381 20:2 25:6 49:1 50:2 52:1 154:1 181:1 193:2 220:1 312:1 453:1 454:1 478:1 505:1 662:1 727:1 778:2 816:2 818:1 925:1 926:1 927:1 928:1 929:1 930:1 931:1 932:1 933:1 934:2 935:1 936:1 937:5 938:5 939:1 940:1 941:1 942:1 943:2 944:1 #
0.0045033921560961942889833586889381 1:1 3:1 8:2 10:1 22:2 49:1 51:1 101:1 124:1 296:1 415:1 487:1 677:1 757:1 1220:1 2167:2 2168:2 2169:1 2170:1 2171:1 2172:1 2173:1 2174:1 2175:1 2176:1 #
0.0045033921560961942889833586889381 3:1 94:1 220:1 247:1 283:2 306:1 427:1 614:1 645:1 778:2 845:1 864:1 2204:1 2333:3 2851:1 2852:1 2853:1 2854:3 2855:1 2856:1 2857:1 2858:1 2859:1 2860:1 2861:2 2862:1 2863:1 2864:2 2865:1 2866:1 2867:1 #
-0.0013898506434842077417873840161633 3:1 6:4 7:16 10:3 49:6 51:14 54:1 55:2 59:2 62:9 94:9 101:1 126:3 177:1 179:1 204:3 220:1 234:5 247:2 258:1 270:1 292:2 296:1 363:1 384:1 389:3 428:1 432:10 438:8 456:1 473:1 482:3 496:1 524:1 553:1 652:1 677:1 679:1 698:2 703:1 716:1 727:1 780:1 809:1 840:1 851:1 856:1 918:1 924:1 986:2 1045:3 1128:1 1145:1 1173:1 1203:1 1326:1 1329:1 1351:1 1354:1 1568:1 2177:1 2242:3 2686:1 2751:2 2757:2 2784:1 2939:3 2998:1 3153:1 3155:1 3168:3 3176:2 3239:2 3393:1 3485:2 3813:1 4102:1 4169:2 4224:1 4225:1 4339:1 4502:1 4596:1 4597:3 5096:1 5405:1 5457:2 5809:15 6451:5 7060:1 9187:1 9580:1 9586:1 11589:1 12622:1 12827:1 18855:1 19192:1 22076:1 24553:1 25867:1 25868:1 25869:1 25870:1 25871:3 25872:2 25873:1 25874:1 25875:1 25876:1 25877:1 25878:1 25879:1 25880:5 25881:2 25882:1 25883:1 25884:1 25885:2 25886:1 25887:2 25888:1 25889:4 25890:1 25891:2 25892:7 25893:1 25894:1 25895:2 25896:1 25897:1 25898:1 25899:2 25900:2 25901:2 25902:2 25903:2 25904:1 25905:1 25906:3 25907:4 25908:1 25909:1 25910:1 25911:1 25912:1 25913:1 25914:1 25915:1 25916:1 25917:1 25918:1 25919:1 25920:1 25921:1 25922:1 25923:1 25924:1 #
-0.0013657514345014807027184344789816 1:1 3:1 5:3 10:2 14:2 24:4 25:2 51:1 77:1 101:1 135:1 154:1 160:1 177:1 181:1 185:6 188:1 192:1 193:1 215:1 251:1 286:1 308:1 332:1 382:1 425:1 536:1 540:4 570:1 576:1 716:1 796:1 809:2 811:1 831:1 845:1 846:1 864:1 889:1 1078:1 1128:1 1148:2 1153:1 1181:1 1343:1 1536:1 1548:1 2206:1 2349:1 2452:1 2665:1 2683:1 2701:1 3341:1 3393:1 3565:1 3745:1 3985:1 4508:1 4555:1 4846:1 5017:1 5282:1 5558:1 5647:1 5899:1 6035:1 7459:1 9347:1 10140:1 10695:1 11469:1 13316:1 13317:1 13318:2 13319:1 13320:1 13321:4 13322:1 13323:2 13324:1 13325:1 13326:1 13327:2 13328:1 13329:1 13330:1 13331:1 13332:1 13333:1 13334:1 #
-0.00057511001962082535128584215300407 10:1 22:1 23:1 49:2 51:1 55:6 59:4 62:5 94:6 95:1 99:1 115:1 134:2 147:1 160:3 175:2 220:2 234:8 258:1 270:1 274:1 292:3 306:1 413:1 432:2 442:1 452:2 535:1 636:1 716:1 847:1 986:2 1234:1 1393:1 1771:6 1790:1 2492:1 2665:1 2802:5 2964:1 3086:2 3153:1 3242:1 3965:1 4380:1 4721:2 4895:1 5384:2 5540:1 5649:1 6278:1 6937:2 7628:2 11065:1 11066:1 11067:2 11068:2 11069:1 11070:5 11071:1 11072:1 11073:1 11074:6 11075:6 11076:1 11077:1 11078:1 11079:1 11080:1 11081:1 11082:1 11083:3 11084:1 11085:1 11086:1 11087:1 11088:1 11089:1 11090:1 11091:2 11092:1 11093:1 11094:1 11095:1 11096:1 11097:1 11098:2 11099:1 11100:6 11101:2 11102:2 11103:1 11104:1 11105:2 11106:2 11107:1 11108:1 11109:4 11110:1 11111:1 11112:1 11113:1 11114:1 11115:2 11116:1 11117:1 11118:1 11119:1 11120:2 11121:1 11122:1 11123:1 11124:1 #
-0.001704875736732042569923639696583 1:1 20:1 42:1 43:2 49:3 275:1 616:1 783:1 1081:1 1144:1 2707:2 2802:7 4607:1 5050:2 5052:1 5053:2 5055:1 10800:1 12662:1 17727:1 17728:2 17729:1 17730:1 17731:1 17732:1 17733:1 #
0.0045033921560961942889833586889381 1:1 3:2 13:1 23:1 35:1 49:2 94:1 115:2 195:1 220:2 235:1 247:1 308:1 332:1 382:1 387:1 455:1 456:1 457:1 458:1 459:2 460:8 461:3 462:1 463:1 464:1 465:4 466:1 467:1 468:1 469:1 470:1 471:1 472:1 473:1 474:1 475:1 476:3 477:2 478:3 479:1 480:4 481:1 482:1 483:1 484:1 485:1 486:1 487:1 488:1 489:1 490:1 491:1 492:1 493:2 494:1 495:1 496:1 497:1 498:1 #
0.0045033921560961942889833586889381 1:2 5:1 6:1 8:1 10:1 23:1 37:3 38:3 45:1 49:1 55:1 62:1 64:1 74:1 75:1 79:1 82:1 88:2 95:1 160:2 173:1 195:1 213:2 249:1 275:1 279:1 283:2 323:1 357:1 384:1 397:1 413:1 501:1 778:2 881:1 945:1 946:1 947:1 948:1 949:1 950:4 951:1 952:1 953:4 954:1 955:3 956:1 957:1 958:1 959:1 960:1 961:1 962:1 963:1 964:1 965:1 966:1 967:1 968:1 969:1 970:1 971:1 972:1 973:1 974:1 975:1 #
-0.00057758442565161943835910784983412 20:1 25:4 37:1 38:1 49:1 115:1 148:1 213:2 247:2 251:1 283:1 292:2 294:1 300:1 347:1 365:1 617:1 620:1 779:1 1128:1 1317:1 1387:1 2992:3 3138:1 3238:2 3355:1 3811:1 4198:1 6707:1 6858:2 8978:1 9064:1 17458:1 22012:1 24771:1 24772:2 24773:1 24774:1 24775:1 24776:1 24777:1 24778:1 24779:2 24780:2 24781:2 24782:1 24783:3 #
-5.0878321992010281001050930882457e-05 1:1 3:2 7:3 20:1 24:1 49:1 52:1 69:1 101:2 116:1 182:1 235:1 239:1 247:1 252:2 365:1 387:1 425:1 583:1 650:1 820:1 860:1 877:1 878:1 883:1 1014:1 1173:1 1218:2 1536:1 1726:1 1772:1 2021:1 2418:1 2682:1 3080:1 3165:1 3416:1 3689:8 3708:1 3811:1 4097:1 4361:1 4949:1 4985:2 5347:1 5361:1 5454:1 6071:1 6110:1 6412:1 9113:1 10314:1 10812:2 13675:1 17458:2 17625:1 17626:1 17627:3 17628:1 17629:6 17630:2 17631:1 17632:1 17633:1 17634:2 17635:1 17636:1 17637:1 17638:1 #
-0.0026602070524609547873262638262304 1:1 25:2 36:1 37:2 38:3 49:2 51:2 126:1 165:1 180:1 355:2 482:1 507:1 615:1 650:1 703:2 812:1 881:7 977:2 1147:1 1301:3 1417:1 1437:1 2649:1 3268:1 3874:1 7852:1 11330:3 19379:4 26427:2 26428:1 26429:1 26430:1 26431:1 26432:1 #
-0.0012285599092308927774569449198339 1:1 8:1 10:1 106:1 115:1 124:1 154:1 247:1 256:1 270:1 368:1 390:1 393:1 428:1 439:1 677:1 765:1 778:11 915:1 989:1 1014:2 1205:1 2020:1 2667:9 2681:1 3614:1 3745:2 4121:2 4297:2 4602:1 4634:1 4867:1 4909:1 5321:1 6935:1 7307:2 8486:1 8493:1 9584:2 10109:1 10110:1 10111:1 10112:3 10113:1 10114:2 10115:1 10116:1 10117:1 10118:1 10119:1 10120:1 #
0.0045033921560961942889833586889381 1:2 13:3 25:1 101:2 124:1 134:1 247:1 250:3 296:1 809:2 823:1 832:1 833:1 838:1 847:2 2613:1 2790:1 2791:1 2792:1 2793:1 2794:1 2795:1 2796:1 2797:1 2798:1 2799:1 2800:1 #
0.0044377822244073437604749976514995 1:1 7:2 8:2 13:1 24:2 44:1 47:2 51:1 97:1 124:2 145:1 161:1 163:2 181:1 233:4 257:1 286:4 308:2 323:1 384:3 427:3 486:1 534:1 614:3 619:1 636:4 641:1 689:1 690:1 703:1 734:2 778:2 779:1 780:1 781:1 782:1 783:2 784:3 785:2 786:8 787:7 788:10 789:1 790:1 791:1 792:2 793:1 794:1 795:2 796:2 797:1 798:1 799:1 800:2 801:4 802:2 803:1 804:2 805:3 806:4 807:1 808:1 809:1 810:2 811:1 812:2 813:3 814:2 815:1 816:1 817:1 818:1 819:1 820:1 821:1 822:1 823:1 824:1 825:1 826:1 827:1 828:1 829:1 830:1 #
0.0045033921560961942889833586889381 6:3 13:1 24:1 36:1 49:1 55:3 148:1 165:1 195:1 239:2 249:1 255:1 256:1 296:1 308:1 359:1 499:2 500:1 501:3 502:1 503:1 504:3 505:1 506:1 507:1 508:1 509:1 510:1 511:1 512:1 513:1 514:1 515:2 516:1 517:1 518:1 519:1 520:1 521:1 522:1 523:1 524:1 525:1 526:1 527:2 528:1 529:1 530:1 531:1 532:1 #
-0.00113912456205250071754331298024 1:3 13:1 49:4 50:2 94:2 101:1 193:2 195:1 296:1 303:1 308:5 501:2 758:1 928:3 999:1 1481:4 2397:1 2799:1 2992:2 3238:1 3590:1 4297:1 4670:1 4710:3 5302:1 7631:1 8190:1 9046:1 12782:1 24857:1 27619:1 27620:1 #
-0.00045613229688331457948105573940722 1:1 3:1 13:1 20:1 49:2 54:1 55:3 62:2 94:10 147:3 221:1 234:11 239:1 275:1 287:8 366:1 384:1 432:2 490:1 529:1 574:1 651:1 990:1 1058:7 1108:10 1409:1 1434:2 1603:7 1771:1 2013:1 2167:1 2677:1 3018:1 3060:1 3175:1 3269:1 3291:7 3302:3 4018:13 4062:1 4152:1 4666:6 5317:1 6640:6 6887:3 7624:2 8666:1 14090:1 19476:1 19477:1 19478:1 19479:1 19480:1 19481:2 19482:1 19483:1 19484:2 19485:1 19486:1 19487:1 19488:1 19489:1 19490:1 19491:6 19492:6 19493:7 19494:4 19495:1 19496:1 19497:1 19498:1 19499:6 19500:1 19501:1 19502:1 19503:1 19504:1 19505:1 19506:1 #
-0.0045033921560961942889833586889381 1:1 3:3 7:3 10:1 15:1 35:1 36:4 51:1 52:1 55:1 101:2 115:2 131:2 193:2 213:1 249:1 258:1 332:1 425:1 455:3 457:1 472:1 507:1 689:1 706:1 871:1 1070:1 1147:1 1175:1 1237:2 1329:1 2230:1 2806:1 3198:1 4300:1 4600:1 8108:1 10168:1 18324:1 18325:1 18326:2 18327:1 18328:1 #
-0.00026922669451426945938510293387935 1:1 6:1 49:2 106:1 195:1 217:1 239:8 275:1 575:2 617:1 623:1 625:5 673:1 788:2 881:2 924:1 1242:1 1244:2 1264:1 1417:3 1437:4 1804:1 3629:2 3860:1 4060:2 4121:1 4564:1 5836:1 6229:1 7732:1 10388:1 11360:1 11782:1 13886:1 13953:1 19562:2 26312:1 27141:1 27142:1 27143:1 27144:1 27145:1 27146:1 27147:1 27148:1 27149:1 27150:1 27151:1 27152:1 27153:1 27154:2 27155:1 27156:1 27157:1 27158:1 27159:1 27160:1 27161:1 27162:1 27163:1 27164:1 27165:1 27166:6 27167:7 27168:1 27169:1 27170:1 27171:1 27172:1 27173:1 27174:1 27175:1 27176:1 27177:1 27178:1 27179:1 27180:1 27181:1 #
-0.0011088777790218965531993111639508 5:1 28:1 49:3 94:1 193:2 195:1 217:1 234:1 279:3 306:1 411:2 413:3 487:2 501:2 511:2 689:2 692:1 884:1 895:2 1317:1 1543:1 1735:2 1771:1 2416:3 3074:6 3093:2 3175:1 7828:2 9040:2 15583:1 15584:6 15585:1 15586:1 15587:1 15588:1 15589:1 15590:1 15591:1 15592:1 15593:1 15594:1 15595:1 15596:1 #
0.0040958497775892112671702882664704 1:2 5:1 13:5 38:1 49:1 69:3 114:1 124:1 126:1 134:1 145:1 165:1 193:1 211:1 255:1 270:1 390:1 428:1 459:1 482:1 490:1 535:1 536:1 537:1 569:2 617:1 650:2 677:1 690:3 698:1 703:1 716:1 733:1 778:11 788:1 812:1 924:1 1069:1 1092:3 1198:7 1199:1 1200:5 1201:1 1202:1 1203:2 1204:2 1205:2 1206:1 1207:1 1208:1 1209:1 1210:2 1211:2 1212:1 1213:1 1214:1 1215:1 1216:1 1217:1 1218:1 1219:1 1220:1 1221:1 1222:2 1223:2 1224:1 1225:1 1226:1 1227:1 1228:1 1229:2 1230:1 1231:1 1232:1 1233:1 1234:3 1235:1 1236:1 #
0.0045033921560961942889833586889381 1:1 8:2 19:1 36:1 37:1 61:1 101:1 113:1 115:1 154:2 179:1 226:1 247:1 248:1 286:1 306:1 452:1 613:1 615:1 706:1 900:1 992:1 993:1 994:1 995:1 996:1 997:1 998:1 999:1 1000:1 1001:1 1002:1 1003:1 1004:1 1005:1 1006:1 1007:1 1008:1 1009:1 1010:1 1011:1 1012:1 1013:1 1014:1 #
0.0045033921560961942889833586889381 1:1 10:1 25:1 29:1 51:1 69:1 113:1 124:1 173:1 177:1 179:1 219:1 220:2 249:2 283:2 308:1 353:1 382:1 645:1 674:1 717:1 807:1 895:1 896:1 897:2 898:1 899:2 900:1 901:1 902:1 903:1 904:2 905:1 906:1 907:1 908:1 909:1 910:1 911:1 912:1 913:1 914:1 915:1 916:1 917:1 918:1 919:1 920:1 921:1 922:1 923:1 924:1 #
0.0045033921560961942889833586889381 13:1 247:1 674:1 833:1 851:1 966:1 1086:1 1178:1 1623:1 1624:1 1625:1 1626:1 1627:1 1628:1 #
-0.0017410056315010143546812004800017 13:1 24:1 29:4 49:1 67:4 115:1 133:1 181:1 194:1 220:1 223:4 292:2 353:5 354:5 428:1 440:2 452:1 499:1 605:1 614:1 641:2 644:1 689:1 706:1 757:1 773:1 915:1 966:1 970:1 1093:2 1128:1 1385:1 1723:1 2346:1 2682:1 3042:2 3055:1 3225:2 3437:1 3659:2 4627:1 5541:1 10692:1 16411:1 16860:3 30225:1 30226:3 30227:5 30228:1 30229:4 30230:1 30231:1 30232:1 30233:1 30234:2 30235:1 #
-0.0028792503807051465260224976105974 1:1 7:2 8:3 24:1 37:1 145:1 226:1 249:1 251:2 252:1 300:1 306:1 365:1 385:1 568:1 796:2 809:1 827:3 840:1 913:1 1009:1 1070:1 1078:1 1117:1 1191:1 1232:1 2628:1 2683:2 2851:1 2997:1 3279:1 3745:2 3899:1 4083:1 4282:1 4469:1 5201:1 6411:2 8099:2 9565:1 15634:1 15635:2 15636:2 15637:1 15638:1 15639:1 15640:1 15641:1 #
-0.0031144705637198878689364534011474 3:1 25:1 51:1 119:1 152:1 154:1 177:1 247:1 296:1 384:1 415:1 608:1 778:2 823:1 829:1 1002:1 1100:1 1128:1 1131:1 1335:1 2204:1 2349:1 2502:1 2818:2 2851:1 2972:1 3785:1 3786:1 3787:1 3788:1 3789:1 3790:1 3791:1 3792:1 3793:2 3794:1 3795:1 3796:1 3797:1 3798:1 3799:1 #
-0.0035912807574274307510775461338426 13:1 17:2 23:1 25:3 247:1 447:1 1077:1 1401:1 3090:1 3238:1 3240:2 4670:1 5498:2 5626:1 29670:1 29671:2 29672:3 29673:3 29674:1 29675:1 #
0.0028595157833552356865802757113215 3:1 7:3 13:2 14:1 20:1 22:1 37:1 49:4 50:1 51:4 94:2 136:1 137:2 138:2 140:2 141:1 142:1 148:2 152:3 195:2 249:1 255:1 360:1 369:1 372:4 385:1 411:1 413:2 453:1 507:1 538:1 572:1 622:1 677:1 989:1 1074:1 1098:3 1099:1 1172:1 1239:1 1603:7 1629:1 1630:1 1631:1 1632:3 1633:6 1634:1 1635:1 1636:1 1637:1 1638:1 1639:1 1640:4 1641:1 1642:1 1643:1 1644:2 1645:6 1646:4 1647:4 1648:3 1649:1 1650:1 1651:1 1652:1 1653:1 1654:1 1655:8 1656:1 1657:1 1658:2 1659:1 1660:1 1661:1 1662:1 1663:1 1664:1 1665:1 1666:3 1667:1 1668:4 1669:1 1670:2 1671:1 1672:4 1673:2 1674:4 1675:1 1676:1 1677:1 1678:1 1679:1 1680:1 1681:2 1682:1 1683:1 1684:3 1685:1 1686:1 1687:1 1688:1 1689:1 1690:1 1691:1 1692:1 1693:1 1694:2 1695:2 1696:1 1697:1 1698:1 1699:1 1700:1 1701:1 1702:1 1703:1 1704:1 1705:1 1706:1 1707:1 1708:2 1709:1 1710:1 #
0.0045033921560961942889833586889381 6:1 24:1 49:1 87:1 148:1 173:1 252:1 262:1 296:1 969:2 1106:1 1218:1 1715:1 2390:2 2407:1 2408:1 2409:1 2410:1 2411:1 2412:1 2413:1 2414:1 2415:1 2416:2 2417:1 #
0.0045033921560961942889833586889381 1:1 7:1 13:1 20:2 36:1 249:1 275:1 432:1 439:1 501:2 676:1 677:2 678:2 679:1 680:1 681:1 682:1 683:1 684:1 685:1 686:1 687:2 688:1 689:1 690:1 #
-0.0012018743875961105001259898727994 10:1 49:1 55:6 195:1 213:1 247:1 481:1 606:1 727:5 757:1 881:1 1402:1 2613:1 3489:1 5048:1 8500:1 11718:1 18794:2 23217:1 23218:1 23219:1 #
-0.00027218923570944463050796935377207 7:1 25:1 38:1 49:1 52:1 119:1 148:1 165:1 226:1 385:1 652:1 1128:1 1334:1 8146:1 15616:4 15617:1 15618:1 15619:1 15620:1 15621:1 15622:1 15623:1 15624:1 15625:1 #
-0.0045033921560961942889833586889381 1:2 13:1 14:1 20:1 37:2 49:1 51:2 55:1 94:1 111:2 113:1 126:3 137:3 138:3 140:1 142:3 148:1 150:3 151:3 152:3 165:1 195:1 213:1 226:4 234:1 384:2 478:1 553:1 652:1 653:1 778:3 779:1 900:1 1024:1 1031:2 1172:1 1691:2 1712:1 1775:1 1777:1 2667:4 2681:4 2802:1 3811:1 4080:1 4867:2 4903:3 5326:3 6743:1 9614:1 11066:1 13794:1 13795:1 13796:1 13797:1 13798:1 13799:1 #
-0.0001437564958423555750311600975877 1:2 2:1 14:2 15:1 20:3 87:1 97:2 113:1 179:1 226:3 292:1 453:1 454:1 504:5 537:1 1014:1 1077:1 1098:1 1139:1 1206:1 1317:1 1327:1 1752:2 1949:3 2715:1 2776:1 3193:1 3194:4 3603:1 3856:1 4356:1 4546:1 4757:1 5368:1 7940:2 8136:1 8137:2 8138:1 8139:1 8140:1 8141:1 8142:2 8143:1 8144:1 8145:1 8146:1 8147:1 8148:1 8149:1 #
0.0045033921560961942889833586889381 7:1 115:1 165:1 249:1 435:1 457:3 507:1 987:1 1081:1 1551:1 2657:2 2658:2 2659:1 2660:1 2661:1 2662:1 2663:1 #
0.0045033921560961942889833586889381 13:1 101:1 111:2 249:1 457:2 499:1 613:1 614:1 778:1 820:1 989:2 1032:1 2014:1 2513:1 2514:1 #
0.0045033921560961942889833586889381 3:4 14:1 22:3 26:1 29:2 42:1 69:1 113:1 194:1 223:1 226:1 247:2 249:4 331:1 427:1 428:4 447:2 452:1 674:1 757:1 758:1 897:1 945:3 1104:1 1129:1 1393:2 1469:2 1711:1 2156:1 2502:1 2691:4 2692:2 2693:1 2694:2 2695:1 2696:1 2697:1 2698:1 2699:1 2700:1 2701:1 2702:2 2703:1 2704:1 2705:1 2706:1 2707:1 2708:1 2709:2 2710:1 2711:1 2712:1 2713:1 2714:1 #
0.0045033921560961942889833586889381 1:1 13:2 14:1 16:1 18:1 109:1 113:1 118:1 248:1 252:1 296:1 393:1 453:1 614:1 834:1 874:1 1146:1 1317:1 1721:1 1777:1 2504:1 2505:1 2506:1 2507:1 2508:1 2509:1 2510:1 2511:1 2512:1 #
-0.0021262844620438476131440985739118 1:1 8:1 13:1 16:2 18:2 20:1 22:4 102:1 179:1 211:1 249:1 283:3 300:1 434:1 507:1 534:2 613:6 615:2 636:1 679:1 809:1 902:2 904:1 1006:1 1081:2 1142:1 1145:2 1162:1 1187:1 1691:1 1720:2 2326:1 2670:1 2679:1 2685:3 2695:1 2792:1 2997:1 3377:1 3568:1 3621:2 4058:1 4083:2 4270:1 4358:1 4551:1 5301:1 5546:1 5610:1 5806:1 6540:1 6698:1 8847:1 8889:1 9188:1 10692:1 11223:2 11801:1 11848:1 18736:1 19012:1 21415:1 23878:1 26376:1 26377:1 26378:3 26379:2 26380:1 #
-0.00066564796039933254914039428840056 1:1 220:1 225:1 247:1 248:1 283:1 287:1 416:1 457:3 484:1 613:1 678:1 706:1 820:1 899:1 1131:1 1145:1 1186:1 1386:1 1720:1 2014:1 2712:1 3288:1 3441:1 4188:1 4766:1 5203:1 6007:1 7414:1 8807:1 9456:1 10153:1 10166:1 11263:1 18735:1 18736:1 20664:1 23202:1 23203:1 23204:1 23205:1 #
-0.0026175436650531396821917073935992 13:1 14:1 20:2 101:1 115:1 118:1 250:1 270:1 277:1 283:1 296:1 384:1 428:1 505:1 532:1 614:2 616:1 636:2 677:3 1104:1 1966:2 2105:1 2184:3 2791:1 2876:2 3084:1 6260:1 7459:1 8249:1 10404:1 13328:1 15427:1 29173:1 29174:1 29175:1 29176:1 29177:2 29178:3 29179:2 29180:1 29181:1 29182:1 29183:1 29184:1 29185:1 29186:1 #
-0.0011377449756426849091645037148623 2:1 8:1 36:1 110:1 115:1 177:1 252:1 270:1 296:1 393:1 425:1 569:1 819:1 1198:3 1234:1 1492:1 2020:1 2502:1 3553:1 3817:4 3826:2 4786:1 5248:1 5249:1 #
-0.00074352287378795110708157301004917 101:1 181:1 248:1 249:1 478:1 499:2 611:2 614:1 617:2 809:2 2670:3 2851:1 3351:1 3735:1 4102:3 4105:1 4848:1 5149:1 16752:1 18736:2 30352:1 30353:1 #
0.0045033921560961942889833586889381 1:1 3:2 14:1 19:1 25:2 49:4 55:2 115:1 116:1 126:2 135:2 152:1 165:1 177:2 188:1 195:4 213:5 247:2 275:1 279:2 292:4 311:1 334:1 355:1 363:1 368:1 382:1 435:1 442:1 453:1 456:1 504:1 532:1 533:1 534:1 535:1 536:1 537:1 538:1 539:3 540:3 541:2 542:2 543:2 544:2 545:2 546:1 547:2 548:1 549:2 550:1 551:2 552:1 553:1 554:2 555:1 556:1 557:2 558:2 559:1 560:2 561:2 562:1 563:2 564:1 565:2 566:2 567:1 568:1 569:1 570:1 571:1 572:1 573:2 574:13 575:1 576:1 577:1 578:1 579:1 580:1 581:1 582:1 583:1 584:1 585:1 586:1 587:1 588:1 589:1 590:1 591:1 592:1 593:1 594:2 595:2 596:1 597:1 598:1 599:1 600:1 601:1 602:2 603:1 604:2 605:1 606:1 607:1 608:1 609:1 #
-0.001738653850473304788432082901295 1:1 16:1 20:4 49:2 62:6 82:2 94:2 101:1 119:1 122:1 193:1 195:2 215:1 220:1 234:1 251:1 306:1 308:2 355:1 538:6 572:2 574:14 644:1 727:1 820:1 861:1 881:1 890:1 994:1 1058:1 1384:1 1578:1 1603:3 1691:1 2483:3 2992:1 3209:1 4097:1 4363:1 4492:2 4946:1 5489:8 6107:1 6132:2 7299:1 8862:1 10064:2 10065:2 10066:1 10067:1 10068:3 10069:3 10070:1 10071:1 10072:1 10073:1 10074:1 10075:1 10076:1 10077:1 10078:1 10079:1 10080:2 10081:1 10082:1 10083:1 10084:1 10085:1 10086:1 #
-0.00060283578929395075212543941844956 1:1 38:1 49:2 94:2 115:1 177:1 188:1 194:1 195:1 213:2 308:5 373:3 439:1 538:5 574:4 650:1 654:1 870:1 1130:1 1140:1 1407:1 1623:1 1778:1 2105:2 2362:2 3095:1 3813:1 8281:1 16950:1 24133:3 24134:1 24135:2 24136:1 24137:1 24138:1 24139:1 24140:1 24141:1 24142:1 24143:1 24144:1 24145:1 24146:1 24147:2 24148:1 24149:1 24150:1 #
-0.00098313270307703545282385082515475 1:1 10:3 22:8 49:1 55:3 59:1 62:1 108:1 152:2 165:1 195:1 233:2 385:1 501:2 574:6 616:1 651:1 753:2 989:2 1113:1 1204:1 1352:1 1771:1 2021:2 2629:1 2671:1 3034:1 3095:1 3194:2 3531:2 3629:1 3679:1 3737:3 7856:1 8806:2 9933:1 12606:1 15387:1 22010:2 22943:1 23896:1 23897:2 23898:1 23899:1 23900:2 23901:7 23902:1 23903:2 23904:1 #
-0.00046965512431291676041789084905531 1:1 49:2 205:2 211:1 287:1 574:3 689:1 703:1 717:1 757:1 928:2 994:1 1050:1 1105:1 1204:1 2613:1 3562:1 4055:1 4988:1 14333:1 19558:1 19559:1 19560:1 19561:1 #
-0.00036651815970018095276750091926488 3:1 32:1 47:4 49:2 50:1 97:2 126:1 148:1 163:1 177:1 180:1 195:1 247:1 275:1 459:1 1069:1 1727:1 1741:1 2320:1 2433:1 2449:1 2979:3 3679:1 4200:1 4418:1 4888:2 6170:7 6171:1 6172:1 6173:1 6174:5 6175:1 6176:1 6177:1 6178:1 6179:1 6180:2 6181:2 6182:2 6183:2 6184:2 6185:1 6186:1 #
0.0045033921560961942889833586889381 1:2 13:1 14:1 106:1 118:1 247:1 249:1 283:1 336:1 453:1 569:1 645:2 778:2 819:1 845:1 897:1 945:1 977:1 1153:1 1189:2 1236:1 1238:1 1377:1 1378:1 1379:1 1380:1 1381:1 1382:1 1383:1 1384:1 1385:3 1386:1 1387:1 1388:2 1389:1 1390:1 1391:1 1392:1 #
0.0045033921560961942889833586889381 1:1 10:2 13:2 38:3 49:2 51:1 54:1 126:1 145:1 170:1 175:1 219:2 300:2 427:1 432:1 452:1 453:1 605:1 691:1 692:1 693:1 694:1 695:1 696:1 697:1 698:3 699:1 700:2 701:1 702:1 703:1 704:2 705:1 706:1 707:1 708:1 709:1 710:1 711:2 712:2 713:1 714:1 715:1 #
-0.0023275970237909148104205048213089 3:2 10:3 16:1 22:2 23:1 49:2 52:2 62:1 94:2 126:1 146:1 181:1 188:2 193:2 213:3 219:4 234:7 249:5 255:1 256:1 281:1 306:1 359:2 382:1 384:4 411:1 427:3 432:5 484:1 489:1 569:1 614:3 617:2 716:1 796:1 805:1 814:1 899:1 918:1 924:2 960:5 999:1 1039:1 1058:2 1070:1 1173:2 1351:1 1352:2 1496:1 1543:2 1771:2 2180:1 2265:1 2727:1 3280:1 3291:1 3393:2 3406:2 3471:1 4049:1 4094:2 4359:2 4477:1 4725:1 4749:5 5091:1 5609:1 8818:1 9777:1 10508:2 12242:1 14816:1 14817:1 14818:3 14819:1 14820:1 14821:3 14822:1 14823:1 14824:2 14825:1 14826:5 14827:2 14828:1 14829:1 14830:1 14831:1 14832:3 14833:1 14834:1 14835:1 14836:1 14837:5 14838:1 14839:1 14840:1 14841:2 14842:1 #
-1.0785892945039684835055286693528e-05 1:1 8:3 14:1 38:1 47:1 49:1 148:1 165:1 175:1 193:1 256:2 281:3 286:1 390:1 413:1 553:2 597:1 778:1 833:10 834:4 974:5 1039:1 1234:8 1634:1 1721:1 1741:1 1870:2 2011:1 2012:2 2334:1 2509:1 2629:1 3355:6 3661:3 3866:3 3899:1 4008:2 4131:1 4171:2 4380:1 5695:1 6032:1 9429:1 9927:1 10350:1 10774:1 11443:6 21319:4 24272:11 27549:1 27550:1 27551:3 27552:2 27553:3 27554:1 27555:1 27556:1 27557:1 27558:1 27559:1 27560:2 27561:2 27562:1 27563:2 27564:1 27565:1 27566:1 27567:1 27568:1 27569:1 27570:1 27571:1 27572:1 27573:1 27574:1 27575:1 27576:1 27577:1 27578:1 27579:1 27580:1 27581:1 #
-0.0016872483695758121440694266013338 1:2 7:1 8:3 24:1 113:1 163:1 251:1 252:1 363:1 453:1 698:2 822:1 846:3 878:1 879:1 897:3 1024:1 1218:1 2013:1 4596:1 7142:2 9075:1 9076:2 9077:1 9078:1 9079:2 9080:1 9081:1 9082:1 9083:1 #
-0.0030877559068484125223696956652475 1:3 50:1 133:1 134:1 170:1 216:1 219:1 220:1 223:1 258:3 283:1 296:1 416:1 427:1 428:1 432:4 569:1 614:1 691:1 778:5 943:1 989:3 1045:1 1754:1 1781:2 1790:1 2337:2 2551:1 3685:2 4868:1 5519:1 10376:1 15191:1 15192:1 15193:2 15194:1 15195:1 15196:1 15197:1 15198:1 #
0.0045033921560961942889833586889381 1:1 3:1 7:1 8:3 13:3 16:1 18:1 22:3 69:2 113:1 179:1 249:4 283:1 294:1 308:1 385:1 484:1 613:1 758:1 879:1 897:4 901:1 907:1 989:3 1006:1 2326:1 2332:1 2546:1 2664:3 2665:2 2666:1 2667:2 2668:2 2669:2 2670:1 2671:1 2672:1 2673:1 2674:1 2675:1 2676:1 2677:1 2678:1 2679:1 2680:1 2681:3 2682:1 2683:1 2684:1 2685:1 2686:1 2687:1 2688:1 2689:1 2690:1 #
-0.0018613198564110772052770936824118 1:3 8:5 16:1 22:3 25:1 69:4 135:1 193:1 249:1 252:2 440:2 443:3 484:1 613:3 614:4 641:2 645:2 778:1 818:3 840:1 897:2 907:2 945:2 1390:1 1756:1 1786:1 2326:1 2806:1 2970:1 3164:1 3234:1 3290:1 3951:1 5695:1 6409:1 7071:4 9084:3 10830:1 11550:1 28948:1 28949:1 28950:3 28951:1 28952:1 28953:1 28954:1 28955:1 28956:1 28957:1 28958:1 28959:1 #
-0.0029632192869057383255437798652565 1:3 8:2 18:2 36:1 47:1 61:1 160:1 161:1 213:1 249:2 294:1 384:1 532:1 613:1 636:1 675:1 706:1 758:2 778:1 800:1 816:1 851:1 899:1 1024:1 1085:1 1162:1 1189:1 1191:3 1343:3 1548:1 1578:1 1714:1 1761:1 1860:1 2217:1 2326:1 2332:1 2669:1 2670:1 2672:1 2682:1 3284:1 3347:1 3406:1 3428:1 3448:1 3988:1 4452:1 4846:1 5014:1 5183:1 5581:1 5858:1 5899:1 7363:1 11469:2 13400:1 15626:1 15627:1 15628:1 15629:1 15630:1 15631:1 15632:1 15633:1 #
-0.0011565641948522438313406990317844 1:1 14:1 49:3 195:3 234:2 249:3 270:1 440:2 459:1 507:1 834:3 1420:1 1495:1 2614:1 2676:1 2703:2 3198:1 3344:3 3677:1 3812:1 4395:1 4710:1 5352:1 5614:1 7313:5 8340:1 8578:2 9627:2 14133:1 16326:1 16415:3 16416:8 16417:2 16418:2 16419:5 16420:2 16421:1 16422:1 16423:2 16424:2 16425:1 16426:1 16427:1 16428:1 16429:1 16430:1 16431:1 #
-0.0045033921560961942889833586889381 1:1 13:1 69:2 126:1 193:1 343:1 481:1 897:3 918:1 989:1 1105:1 1393:1 1542:1 1949:3 3286:1 5420:4 5698:1 8886:1 10698:1 12544:1 #
0.0031916712220572147212793723269897 6:2 7:2 13:1 31:1 49:3 51:1 145:1 152:1 184:1 188:2 195:1 211:1 215:6 216:1 219:1 235:1 249:3 258:6 270:1 308:2 432:1 449:1 459:1 536:1 611:1 644:1 650:1 652:1 698:1 716:2 717:2 718:2 719:2 720:1 721:1 722:10 723:1 724:1 725:1 726:1 727:2 728:2 729:2 730:1 731:1 732:2 733:1 734:1 735:1 736:1 737:1 738:1 739:4 740:2 741:1 742:2 743:2 744:1 745:1 746:1 747:1 748:1 749:1 750:2 751:1 752:1 753:1 754:1 755:5 756:1 757:1 758:1 759:1 760:1 761:4 762:1 763:2 764:1 765:9 766:1 767:1 768:1 769:1 770:1 771:1 772:1 773:1 774:1 775:1 776:1 777:1 #
-0.00092952901942471174122351040836065 1:1 20:2 49:1 52:1 69:3 87:2 124:3 145:1 193:1 239:2 249:1 255:7 387:1 453:1 514:1 575:2 618:1 637:1 652:1 689:1 775:1 809:2 869:1 910:5 977:1 1168:1 1236:1 1261:1 1437:1 1488:1 1758:2 1854:1 2358:1 2417:2 2433:1 2435:5 3408:2 3432:4 3737:2 3919:1 4346:1 4784:1 4868:1 6329:1 6707:1 7117:1 10379:1 10603:1 11295:1 12857:1 15031:1 18519:2 18520:1 18521:1 18522:1 18523:1 18524:1 18525:1 18526:1 18527:1 18528:1 18529:1 18530:1 18531:1 #
-0.00068479777696666993980906257277752 1:2 3:2 51:11 124:1 135:1 151:1 177:1 183:1 221:1 256:2 258:3 270:2 296:1 490:1 529:1 717:2 757:2 809:2 812:2 823:1 864:1 870:2 881:1 884:1 1097:1 1186:1 1772:1 1950:1 2162:1 2473:5 2478:5 2986:1 3095:1 3297:1 3428:1 3546:1 4068:1 4290:1 4368:1 4710:1 4841:1 5018:1 5123:1 5151:1 5271:1 5274:1 5275:1 5614:1 5923:2 6105:3 6225:1 6665:3 6857:1 6922:1 7000:3 7041:1 7738:1 8422:6 8423:1 9946:1 10690:2 11882:1 12566:2 13994:1 16919:1 17693:1 17694:3 17695:1 17696:2 17697:1 17698:1 17699:3 17700:5 17701:1 17702:1 17703:3 17704:1 17705:1 17706:3 17707:1 17708:5 17709:1 17710:1 17711:1 17712:1 17713:1 17714:1 17715:1 17716:2 17717:1 17718:1 17719:1 17720:1 17721:1 17722:1 17723:1 17724:1 17725:1 17726:1 #
-0.0014661434531115108154813997387578 1:1 3:5 6:2 19:1 37:2 49:2 135:1 137:1 181:3 182:1 239:3 247:2 275:1 308:6 385:1 439:1 453:1 454:1 572:2 608:1 617:1 652:1 703:1 714:1 881:1 914:1 918:1 977:1 1247:1 1255:2 1271:1 1279:1 1407:1 1437:5 1438:1 1487:1 2610:1 3155:1 3198:1 3549:1 4137:1 4381:1 4467:1 4468:1 4892:1 6875:1 7232:1 7249:1 8989:1 11428:1 20259:1 20260:1 20261:1 20262:1 20263:1 20264:1 20265:1 20266:1 20267:1 20268:1 20269:1 20270:1 20271:1 20272:1 20273:2 20274:5 20275:1 20276:1 #
0.0045033921560961942889833586889381 1:2 5:1 8:1 13:3 20:1 24:1 25:3 38:1 42:1 55:1 111:1 161:1 170:1 213:1 270:1 283:4 339:2 390:1 447:1 459:1 501:1 534:1 617:1 706:1 716:1 778:6 845:1 924:1 1128:1 1132:2 1133:1 1134:1 1135:1 1136:1 1137:1 1138:1 1139:1 1140:1 1141:1 1142:1 1143:1 1144:1 1145:1 #
0.0045033921560961942889833586889381 1:1 7:3 8:1 13:2 19:1 38:1 94:1 106:1 124:1 173:1 182:1 219:5 226:6 261:1 274:1 277:1 279:1 280:1 292:1 308:2 336:1 370:2 384:2 427:1 439:1 440:4 441:1 443:5 453:1 454:1 478:1 484:2 500:1 513:1 597:2 641:1 685:1 758:1 778:1 792:1 793:1 803:2 896:2 905:1 1006:3 1007:1 1100:2 1106:1 1146:1 1147:1 1148:1 1149:1 1150:1 1151:1 1152:5 1153:1 1154:3 1155:1 1156:1 1157:2 1158:2 1159:1 1160:1 1161:2 1162:3 1163:1 1164:1 1165:1 1166:1 1167:1 1168:1 1169:1 1170:1 1171:1 1172:1 1173:1 1174:1 1175:1 1176:1 1177:1 1178:2 1179:2 1180:1 1181:1 1182:1 1183:3 1184:1 1185:1 1186:1 1187:1 1188:1 1189:1 1190:1 1191:1 1192:1 1193:1 1194:1 1195:1 1196:1 1197:1 #
0.0045033921560961942889833586889381 1:1 6:1 13:4 20:1 31:1 37:4 51:1 52:1 115:1 148:1 226:4 249:1 270:1 354:2 357:1 360:3 384:1 397:1 727:1 781:4 965:1 990:1 1118:1 1237:1 1735:1 1737:1 2418:2 2419:1 2420:1 2421:1 2422:1 2423:1 2424:1 2425:1 2426:1 2427:1 2428:1 2429:1 2430:1 2431:1 2432:1 2433:1 2434:1 2435:1 2436:1 2437:1 2438:1 2439:1 2440:1 #
-0.00025153393062544754550657888358955 1:1 20:2 49:1 55:4 59:1 69:2 94:3 126:1 217:1 235:1 331:1 478:2 616:1 652:1 758:1 787:2 831:2 1067:1 1106:1 1128:1 1148:2 1218:2 1358:1 1434:1 1597:1 1667:1 1772:1 2501:1 2536:13 3269:1 3364:2 3602:4 4395:2 5554:10 5653:1 6242:1 6454:1 15714:3 15715:1 15716:1 15717:1 15718:13 15719:1 15720:2 15721:3 15722:4 15723:3 15724:2 15725:1 15726:1 15727:1 15728:1 15729:1 15730:1 15731:1 15732:1 15733:7 15734:1 15735:7 15736:1 15737:1 15738:1 15739:1 15740:1 15741:1 15742:1 15743:3 15744:1 15745:1 15746:1 15747:1 15748:1 15749:1 15750:1 15751:1 15752:1 15753:1 #
-0.0013004106028226042248568949943888 35:1 49:2 55:2 145:1 195:1 215:1 235:2 277:1 286:2 292:2 336:1 337:2 487:1 703:1 716:1 918:1 1218:1 1318:1 1538:1 1561:1 2499:1 2629:1 2965:1 3076:1 4026:1 4114:2 4363:2 4749:1 6043:1 13533:1 13769:1 13851:1 20583:1 23456:2 23457:1 23458:1 23459:1 23460:1 23461:1 23462:1 23463:1 23464:2 23465:1 23466:1 23467:1 23468:2 23469:1 23470:1 #
-0.0017727141107720385641843829915842 20:1 22:1 25:3 94:1 101:2 124:1 167:1 173:2 177:1 182:1 193:1 235:2 611:1 615:1 778:2 783:1 805:1 814:1 816:1 817:1 822:1 989:1 1141:1 1298:4 1301:5 1348:1 2175:1 2329:1 2457:1 2483:3 2613:1 2712:1 2986:1 3033:1 3391:1 3981:1 4172:1 4279:1 4343:1 4477:4 4533:1 5018:1 5182:2 5271:1 5430:1 6621:2 9849:1 17431:1 17443:1 18738:1 18739:1 20068:1 27815:1 30847:1 30848:1 30849:1 30850:1 30851:1 30852:1 30853:1 30854:1 30855:1 30856:1 30857:1 30858:1 30859:1 #
-0.00023506595395780772658755886084236 1:1 20:2 49:2 87:1 94:3 146:1 148:1 235:1 247:2 256:1 306:1 384:1 636:1 690:2 811:1 845:1 986:1 1174:1 1175:1 1492:1 1638:1 1643:1 2206:1 2333:17 2534:2 2859:4 2959:1 2997:1 3272:1 3627:6 3944:1 4103:1 4526:3 6283:1 6435:1 6725:2 8989:4 9165:2 12081:1 12733:1 16282:1 18006:2 18504:1 29105:1 29106:1 29107:1 29108:1 29109:1 29110:1 29111:1 29112:1 29113:3 29114:6 29115:4 29116:4 29117:3 29118:3 29119:2 29120:2 29121:1 29122:1 #
0.0045033921560961942889833586889381 1:1 7:2 13:4 20:1 49:1 51:2 126:1 193:1 211:1 235:3 249:5 256:2 270:1 283:1 298:1 442:1 452:2 453:1 482:2 529:1 614:1 673:1 706:1 733:1 809:1 976:1 977:2 978:1 979:1 980:1 981:1 982:2 983:1 984:3 985:3 986:3 987:1 988:1 989:2 990:1 991:1 #
-0.0004587410786156647366819394395776 1:2 7:6 20:2 22:1 24:1 28:1 49:1 94:2 97:3 106:1 116:1 124:1 133:1 134:2 148:2 152:1 156:1 157:1 174:1 175:1 179:1 181:3 188:7 199:1 211:1 239:1 251:1 252:1 270:1 286:1 385:1 417:1 459:1 529:1 716:1 734:2 801:1 803:3 879:1 989:3 1050:3 1101:1 1114:1 1173:1 1234:1 1478:2 1529:4 2419:1 2442:1 2565:1 2628:1 2860:1 2887:1 2972:1 2986:1 3034:1 3057:1 3079:1 3084:1 3168:1 3186:2 3239:1 3291:1 3430:1 3458:1 3815:1 3899:1 4037:1 4281:5 4452:1 4548:1 4773:2 5213:1 5317:1 5347:2 5417:2 5773:1 5853:3 5972:3 5977:2 6081:1 7142:3 7203:6 8118:1 8266:1 8642:2 9225:1 9409:2 9849:1 12867:4 12868:4 12869:1 12870:1 12871:1 12872:1 12873:1 12874:1 12875:1 12876:1 12877:1 12878:1 12879:1 12880:1 12881:1 12882:1 12883:1 12884:1 12885:1 12886:1 12887:1 12888:1 12889:1 12890:1 12891:1 12892:1 12893:1 12894:1 12895:1 12896:1 12897:4 12898:1 12899:1 12900:1 12901:2 12902:1 12903:1 12904:2 12905:4 12906:1 12907:1 12908:1 12909:1 12910:1 12911:1 12912:1 12913:1 12914:1 12915:1 12916:1 12917:1 12918:2 12919:1 12920:1 12921:4 12922:2 12923:2 12924:1 12925:1 12926:1 12927:1 12928:1 12929:1 12930:1 12931:1 #
-0.0019039989175067026198895359101471 1:1 3:1 8:1 20:2 36:1 38:2 49:1 51:2 106:1 111:2 113:1 126:1 133:1 146:1 154:1 160:1 179:1 189:1 195:1 256:3 258:1 283:1 292:1 369:1 428:1 440:2 443:5 480:1 481:1 482:1 504:1 537:1 569:1 597:1 690:1 716:1 778:1 803:2 833:1 840:1 872:1 878:1 942:1 974:1 1081:1 1178:4 1206:1 1207:1 1420:1 1536:1 1578:1 1949:1 2513:1 2710:1 2877:1 3019:1 3022:1 3063:1 3193:1 3194:1 3272:1 3735:1 3788:2 3793:1 3818:1 3907:1 4050:1 4546:1 4588:1 4846:1 5231:2 5983:1 6075:1 7687:1 8438:1 9129:1 9130:1 9131:1 9132:1 9133:3 9134:2 9135:1 9136:1 9137:2 9138:1 9139:1 9140:1 9141:1 9142:1 #
-0.0030338301423890822426654434451621 1:1 7:4 14:1 15:1 24:1 49:2 55:1 165:1 195:2 255:1 283:1 418:1 778:1 803:1 809:1 2209:2 2676:1 3155:1 3846:1 4784:1 7576:1 9224:1 9225:1 9226:1 9227:4 9228:2 9229:1 9230:1 9231:1 9232:1 9233:1 #
-0.0018004510263276113195274330536222 1:3 4:3 20:1 24:2 25:4 35:1 38:1 49:2 54:1 82:1 94:5 116:1 148:1 174:1 175:1 181:1 183:2 185:1 199:2 213:6 217:3 218:1 226:5 235:1 239:6 249:1 254:1 270:1 283:2 292:1 355:1 384:1 501:2 539:1 619:1 650:1 651:2 674:1 677:1 708:1 753:1 757:1 758:2 778:3 796:1 831:1 846:1 863:1 881:2 903:1 918:1 924:1 989:1 1001:1 1021:1 1118:1 1234:2 1343:1 1758:1 1781:1 1950:1 2686:1 2779:1 2990:1 3034:6 3035:1 3060:4 3153:1 3340:1 3682:1 4271:1 5788:1 9189:1 10521:3 13577:1 14003:4 16788:1 18535:1 18739:5 21565:1 21566:1 21567:3 21568:1 21569:3 21570:2 21571:1 21572:3 21573:1 21574:1 21575:1 21576:1 21577:1 21578:1 21579:1 21580:1 21581:2 21582:1 21583:1 #
-0.00036719020173188546838152768181374 1:1 3:1 5:2 6:5 10:4 24:2 25:2 38:2 49:8 50:1 69:1 94:1 101:1 148:4 154:1 165:1 170:1 182:1 221:1 235:6 239:6 247:1 270:1 292:2 296:1 342:1 411:1 417:1 447:1 452:2 453:1 553:1 575:3 650:2 652:1 654:3 674:1 700:2 703:1 727:1 809:1 869:1 877:1 900:1 912:1 977:2 989:1 1014:2 1078:2 1098:4 1100:5 1104:1 1128:1 1174:6 1218:2 1220:2 1237:3 1239:1 1242:2 1244:3 1248:1 1255:6 1256:2 1264:1 1271:2 1279:2 1317:2 1492:4 1548:1 1674:1 1691:2 2175:1 2229:1 2338:1 2499:1 2608:2 2610:2 2701:1 2877:1 2959:1 3071:1 3168:4 3355:1 3602:1 3689:3 3743:1 3811:5 3812:1 3849:1 4235:1 4602:1 5126:1 5538:1 6069:1 6919:1 7139:1 7232:2 7453:1 8108:1 8240:1 8816:2 9569:1 11021:1 11496:2 14137:1 14553:1 16941:1 22291:1 22292:1 22293:1 22294:1 22295:1 22296:1 22297:1 22298:2 22299:1 22300:2 22301:2 22302:5 22303:2 22304:4 22305:2 22306:4 22307:4 22308:2 22309:2 22310:2 22311:2 22312:1 22313:1 22314:10 22315:1 22316:1 22317:1 22318:2 22319:1 22320:1 22321:1 22322:1 22323:1 22324:1 22325:2 22326:1 22327:1 22328:2 22329:1 22330:1 22331:1 22332:1 22333:1 22334:1 22335:1 22336:1 22337:1 22338:1 22339:1 22340:7 22341:3 22342:2 22343:1 22344:2 22345:2 22346:2 22347:2 22348:1 22349:1 22350:1 22351:1 22352:1 22353:1 22354:1 22355:1 22356:1 #
-0.00044247251207413078061964073484091 3:1 6:1 7:4 25:5 37:1 49:3 55:1 62:2 94:2 110:2 148:2 156:1 157:1 163:2 177:1 195:3 235:1 239:1 247:1 286:3 287:1 324:1 342:3 393:1 417:1 572:1 890:1 1058:2 1066:1 1139:1 1174:2 1179:1 1204:1 1347:2 1352:5 1391:12 1401:1 1723:1 2320:3 2510:1 2540:1 2685:1 2692:1 2874:1 2990:3 3032:1 3033:1 3370:1 4083:1 4322:2 4543:1 4546:1 4547:1 4786:1 5235:1 5543:1 5773:1 5861:1 8315:3 8485:1 8896:1 8897:1 8898:1 8899:4 8900:2 8901:2 8902:2 8903:3 8904:3 8905:3 8906:2 8907:2 8908:6 8909:6 8910:2 8911:3 8912:12 8913:3 8914:3 8915:3 8916:6 8917:3 8918:3 8919:3 8920:1 8921:1 8922:1 8923:3 8924:1 8925:1 8926:1 8927:1 8928:1 8929:1 8930:2 8931:1 8932:1 8933:1 8934:1 8935:1 8936:1 8937:1 8938:1 8939:1 8940:1 8941:1 8942:3 8943:1 8944:1 8945:1 8946:1 8947:1 8948:1 #
-0.00046104363077739262278403886696765 1:1 14:1 49:2 115:1 195:2 220:2 235:7 270:2 277:1 370:5 384:1 411:3 413:2 442:1 650:2 690:7 818:3 915:1 989:1 994:4 1141:1 2021:2 2415:1 2852:1 3080:2 3291:1 3496:1 3682:2 3689:1 4239:2 4963:2 6110:2 6354:1 6710:2 9721:2 9945:3 10024:2 11703:1 23175:1 26931:2 27982:3 27983:1 27984:1 27985:2 27986:1 27987:1 27988:1 27989:1 27990:1 27991:1 27992:1 #
-0.0003938827299486848511692049790156 1:1 2:1 20:1 22:2 25:2 47:10 49:2 52:1 59:1 61:2 113:3 115:1 148:1 195:1 226:1 270:2 283:2 447:1 501:6 614:1 636:2 690:2 727:2 803:1 807:1 820:1 929:1 1067:1 1083:10 1117:1 1152:1 1174:1 1530:9 1766:1 1791:1 2483:3 2628:1 2713:1 2754:1 3011:2 3379:1 3383:1 3534:1 3568:2 3569:2 3570:1 3571:1 3572:10 3573:10 3574:9 3575:1 3576:1 3577:1 3578:1 3579:2 3580:6 3581:1 3582:1 3583:2 3584:1 3585:1 3586:1 3587:2 3588:1 3589:1 3590:1 3591:1 3592:1 3593:1 3594:1 3595:2 3596:1 3597:1 3598:2 3599:1 3600:1 3601:1 3602:1 3603:1 3604:1 3605:1 #
-0.00092562203171419699197081110142449 1:2 7:2 30:1 37:1 38:1 49:5 50:2 55:1 62:1 81:1 82:1 96:1 97:1 98:1 110:2 115:2 118:1 124:2 160:2 165:1 181:2 192:1 194:1 195:5 234:1 254:1 256:6 275:1 283:1 287:1 324:1 354:2 360:1 435:2 447:1 486:1 496:1 572:1 614:1 619:1 659:1 779:1 797:1 853:1 918:1 951:1 990:2 1014:1 1024:3 1236:1 1264:2 1322:1 1352:1 1504:1 1735:1 1736:1 1778:1 2013:1 2163:1 2449:4 2469:1 2473:1 2784:1 2857:1 2964:1 3268:1 3280:1 3424:4 3506:1 3602:1 3603:1 3613:1 3625:3 4129:1 4439:1 4563:1 5056:1 5116:1 5454:1 6018:1 6241:1 6520:3 7286:1 8485:1 9146:2 9186:1 9951:1 11560:6 12302:1 12651:1 12831:1 12832:1 12833:1 12834:1 12835:1 12836:1 12837:1 12838:1 12839:1 12840:2 12841:1 12842:1 12843:1 12844:2 12845:1 12846:1 12847:1 12848:1 12849:1 12850:1 12851:1 12852:1 12853:1 12854:1 12855:1 12856:1 12857:1 12858:1 12859:1 12860:1 12861:1 12862:1 12863:1 12864:1 12865:1 12866:1 #
-0.0013404596230430845804626471817755 1:2 13:2 20:3 49:2 124:2 127:2 193:1 253:2 308:1 434:1 446:1 450:1 452:1 587:1 613:1 623:1 797:1 1244:2 1666:1 1791:1 2387:1 2690:1 3029:1 3209:1 3602:5 3810:1 4343:1 4358:4 4487:1 4677:1 4846:1 4963:4 5130:3 5285:1 5469:2 5485:3 5486:3 6875:1 7902:1 8321:1 9826:2 10054:1 11802:1 12023:1 13394:1 14319:1 14337:1 14341:1 15200:1 18001:1 26924:1 26925:4 26926:3 26927:1 26928:1 26929:1 26930:1 26931:1 26932:1 26933:1 26934:1 26935:1 26936:1 26937:1 26938:2 26939:1 26940:1 26941:1 26942:1 26943:1 26944:1 26945:1 #
-0.0016825993528666945316107916852388 1:1 6:1 8:2 10:1 16:2 20:5 22:1 25:2 36:3 37:6 49:2 51:2 55:4 69:3 94:2 96:2 97:1 98:1 148:3 180:1 219:1 226:2 234:3 250:1 260:1 262:1 292:2 308:1 332:1 355:1 384:1 385:1 446:1 459:2 500:1 524:1 536:2 597:1 636:1 870:1 881:1 907:1 943:1 947:1 990:1 994:4 1174:1 1291:1 1351:2 1352:2 1354:1 1423:2 1504:1 1720:1 2204:1 2265:1 2425:1 2445:1 2450:1 2531:3 2613:3 2726:1 3458:2 3710:1 4393:1 4564:1 5431:1 7351:2 7658:8 7828:5 7852:4 8175:1 10313:4 10314:1 12772:1 14432:1 26065:1 26066:2 26067:1 26068:1 26069:2 26070:1 26071:1 26072:1 26073:1 26074:1 26075:1 26076:4 26077:1 26078:1 26079:1 26080:1 26081:1 26082:1 26083:2 26084:5 26085:1 26086:1 26087:1 26088:1 26089:1 26090:1 26091:1 26092:2 26093:1 26094:1 #
-6.694760302688703215712173744123e-05 8:7 14:1 41:9 47:73 49:2 51:5 61:1 101:1 118:2 127:2 134:1 163:1 181:2 182:1 195:1 211:1 220:2 239:2 249:2 261:1 281:73 283:1 286:1 365:1 393:1 432:5 443:3 447:1 455:1 537:1 540:1 690:1 716:2 778:1 794:2 818:8 824:1 827:2 833:3 834:2 899:15 1016:1 1046:1 1049:33 1069:1 1140:1 1234:4 1392:1 1504:11 1617:1 1623:24 1634:72 1713:5 1721:22 1726:3 1727:9 1736:7 1738:1 1741:2 1745:79 1746:6 1749:2 1791:4 1843:1 1870:3 1979:1 1980:1 1981:1 1982:1 1983:2 1984:1 1985:1 1986:1 1987:1 1988:1 1990:2 1991:3 1992:2 1993:2 1994:2 1995:3 2007:1 2020:8 2130:2 2140:14 2141:2 2144:2 2147:8 2164:5 2204:1 2206:1 2227:8 2228:4 2229:2 2230:5 2232:2 2629:1 2715:2 2786:2 2881:13 2989:2 2995:5 3242:4 3280:1 3302:1 3480:1 3481:1 3685:1 3710:1 3818:1 3911:1 4016:1 4026:2 4071:1 4080:1 4200:2 4239:1 4363:1 5015:1 5271:1 5275:1 5389:4 5439:2 5441:1 5543:1 5829:1 6017:2 6250:1 6481:1 6697:1 6699:2 6938:16 8128:1 8642:3 8697:4 9803:2 11272:1 11340:1 13246:4 13247:1 14270:2 16273:1 16329:1 17153:1 19043:13 19044:1 22079:2 23013:3 24058:6 25557:2 26557:1 26558:1 26559:1 26560:1 26561:1 26562:1 26563:1 26564:1 26565:1 26566:1 26567:1 26568:2 26569:2 26570:1 26571:1 26572:1 26573:1 26574:1 26575:1 26576:1 26577:2 26578:2 26579:2 26580:2 26581:1 26582:1 26583:1 26584:1 26585:1 26586:1 26587:2 26588:4 26589:2 26590:2 26591:1 26592:1 26593:2 26594:2 26595:1 26596:1 26597:4 26598:4 26599:8 26600:3 26601:1 26602:1 26603:1 26604:1 26605:1 26606:1 26607:1 26608:1 26609:1 26610:9 26611:6 26612:3 26613:4 26614:2 26615:4 26616:2 26617:4 26618:2 26619:15 26620:14 26621:4 26622:4 26623:2 26624:6 26625:2 26626:1 26627:1 26628:1 26629:1 26630:1 26631:1 26632:3 26633:1 26634:1 26635:1 26636:3 26637:1 26638:1 26639:1 26640:1 26641:1 26642:1 26643:1 26644:1 26645:2 26646:2 26647:2 26648:3 26649:2 26650:2 26651:2 26652:2 26653:1 #
-0.0010775228515624395153604808683667 1:1 13:1 38:2 49:1 69:3 111:1 182:4 235:1 344:7 397:1 442:1 481:1 529:8 689:1 725:1 897:1 924:1 1103:1 1188:1 1638:1 1691:1 1735:1 2656:1 2707:1 3168:1 3176:2 3552:1 3621:1 3658:1 3744:1 4094:2 4582:1 4994:1 5285:1 10376:1 11275:1 11276:2 11277:3 11278:5 11279:3 11280:1 11281:1 11282:1 11283:2 11284:1 11285:1 #
-0.001988767737971872638647052866645 1:1 8:1 31:1 36:2 49:2 94:1 126:1 133:2 134:1 152:1 170:1 195:1 213:1 219:3 270:1 292:1 357:1 434:1 537:1 614:1 733:1 778:1 793:4 881:3 884:1 915:1 927:1 989:1 1021:1 1128:1 1364:1 1370:1 2351:1 2390:1 2666:1 2831:1 3040:1 3279:1 3816:1 3944:1 4469:1 5126:1 6539:1 9364:2 10269:2 10973:1 15488:1 15489:1 15490:1 15491:1 15492:2 15493:1 15494:1 15495:2 15496:1 #
-0.00077135252457511587279026521457581 1:1 49:3 115:1 124:1 134:4 256:2 347:1 363:1 383:1 442:1 532:1 568:1 617:1 645:5 658:1 667:1 718:1 775:1 791:3 851:1 1097:2 1131:1 1141:1 1368:1 2588:1 2706:1 3302:2 3481:1 3553:4 3641:1 3743:1 4170:1 4369:1 5889:1 6262:2 7076:1 7541:1 8447:1 11355:1 17819:1 26011:4 26012:1 26013:1 26014:1 #
-0.00062135779647044147352280551999115 1:4 49:2 50:1 124:1 126:2 145:1 211:1 318:1 382:1 432:2 636:2 716:1 778:7 896:2 899:2 1407:1 3237:1 3261:1 3399:1 4750:2 5091:1 12238:2 12273:2 14027:1 14091:8 14092:2 14093:1 14094:3 14095:6 14096:1 14097:2 14098:4 14099:1 14100:2 14101:2 14102:2 14103:2 14104:1 14105:1 14106:1 14107:1 14108:1 14109:1 14110:1 #
-0.00089528237461392382295216618715017 3:2 8:1 15:1 20:4 25:2 33:1 38:1 49:4 69:1 94:3 115:1 118:2 119:1 127:4 167:1 195:4 223:1 235:4 249:1 261:2 287:1 308:2 325:1 332:1 341:1 359:1 387:2 439:1 443:1 444:1 447:1 507:1 529:1 538:1 597:1 611:1 614:1 650:1 670:4 673:1 803:1 890:1 913:1 1006:2 1080:1 1174:1 1357:1 1674:1 1736:1 1860:1 2156:1 2616:1 2625:1 2698:1 2712:1 2729:1 2782:2 2857:1 2874:1 3459:1 3481:2 3543:1 3675:1 3944:1 4108:1 4225:1 4241:1 4542:1 4764:1 4845:1 5203:1 5560:1 5588:1 5660:1 6073:2 6557:2 7507:1 8118:1 8642:4 8978:1 9276:1 9429:1 10813:1 11826:1 13535:1 15148:1 18126:2 18247:1 19681:1 21298:1 26311:1 26312:1 26313:1 26314:3 26315:2 26316:1 26317:2 26318:1 26319:1 26320:1 26321:1 26322:1 26323:1 26324:1 26325:1 26326:1 26327:1 26328:1 26329:1 26330:1 26331:1 26332:1 26333:1 26334:1 26335:1 26336:1 26337:1 26338:1 26339:1 26340:2 26341:1 26342:2 26343:1 26344:2 26345:1 26346:2 26347:3 26348:1 26349:1 26350:1 26351:2 26352:1 26353:1 26354:1 26355:1 26356:1 26357:1 #
-0.00022979650786832521458004363612559 1:1 7:2 14:1 25:3 38:4 49:1 52:1 94:3 133:1 148:4 195:1 235:7 279:2 294:1 372:2 384:1 411:4 413:2 667:2 689:1 877:3 883:3 1100:1 1135:1 1317:2 1504:2 1548:2 1720:2 2013:4 2265:1 3699:1 3811:6 4984:2 6168:1 6944:1 17456:1 17457:1 17458:4 17459:3 17460:4 17461:2 17462:1 17463:2 17464:2 17465:1 #
-0.00031361047568848320630033321698704 7:1 20:2 29:3 38:1 49:2 94:4 140:1 146:1 148:1 195:1 199:4 213:3 235:1 239:1 247:1 255:1 332:1 360:1 501:2 527:1 536:1 650:7 654:1 672:1 716:1 800:1 897:1 910:6 945:1 966:1 990:1 1074:2 1098:5 1104:1 1301:1 1380:1 1385:5 1393:1 1420:4 1430:1 1435:1 1469:1 1651:2 1653:2 1672:1 1674:1 2437:1 2531:1 2629:2 2692:1 3032:4 3298:2 3595:1 3738:2 3742:1 4395:3 4597:2 4839:1 5259:3 6004:1 6052:1 6329:1 6432:1 6495:1 6781:1 7808:1 7887:1 8337:2 8347:1 9350:2 10869:1 12733:1 13449:1 16374:1 16432:6 16433:1 16434:2 16435:11 16436:1 16437:1 16438:1 16439:1 16440:1 16441:1 16442:1 16443:1 16444:2 16445:2 16446:1 16447:1 16448:1 16449:1 16450:1 16451:2 16452:1 16453:1 16454:1 16455:1 16456:2 16457:1 16458:1 16459:1 16460:1 16461:1 16462:1 16463:1 16464:1 16465:1 16466:1 16467:1 16468:1 16469:1 16470:1 16471:1 16472:1 16473:1 16474:2 16475:2 16476:2 16477:4 16478:1 16479:1 16480:1 16481:2 16482:1 16483:1 16484:1 16485:1 16486:1 16487:1 16488:1 16489:1 16490:1 16491:1 16492:1 16493:1 16494:1 16495:1 16496:1 #
-0.0019897977076734113706379947217329 14:1 20:1 49:1 225:1 235:4 247:3 296:1 322:1 384:1 452:1 728:1 819:1 846:1 871:1 1326:2 1403:1 1429:1 1434:1 2326:1 2329:1 3040:1 3578:1 4055:1 4129:1 4198:1 4618:1 5017:1 5288:1 10243:1 10916:1 17869:1 17870:3 17871:1 17872:1 17873:1 17874:1 17875:1 17876:1 17877:1 #
-0.0019583202288438773808199044879075 1:1 13:1 20:1 49:2 194:1 239:1 256:3 334:1 387:1 435:1 455:1 457:1 486:1 503:2 529:1 636:1 718:1 834:1 986:1 1147:1 1843:1 1854:2 2441:2 3001:1 3013:1 3231:1 3234:1 3290:1 3338:2 4449:1 4738:2 5450:2 5660:2 6032:1 9586:1 10799:1 10800:1 10801:1 10802:1 10803:1 10804:1 10805:1 10806:1 #
-0.0012193762763315092040317111354852 1:1 3:1 5:1 24:3 25:4 37:2 49:2 50:1 81:2 82:1 116:1 146:2 154:1 177:1 181:1 247:1 270:1 286:1 330:1 332:1 368:1 413:1 513:1 537:1 539:1 616:2 645:1 689:1 690:3 771:1 796:1 834:1 904:2 907:1 1039:1 1078:1 1081:1 2786:4 3364:1 3627:1 3909:1 3913:1 3998:4 4357:1 4414:2 5408:1 5840:1 6427:1 6487:1 8099:2 8108:1 9358:3 10158:4 11724:1 13671:1 14148:2 18787:3 19340:2 20201:2 20202:1 20203:1 20204:3 20205:2 20206:3 20207:4 20208:2 20209:2 20210:1 20211:1 20212:1 20213:1 20214:1 20215:1 20216:1 20217:2 20218:1 20219:1 20220:4 20221:1 20222:1 20223:1 20224:3 20225:1 20226:1 20227:1 20228:1 20229:1 20230:1 #
-0.00066087612945699408112387729374859 1:2 13:1 14:1 49:2 114:2 115:1 165:1 235:1 256:1 296:1 332:1 354:1 384:2 486:1 616:1 716:1 827:8 896:1 899:1 900:1 989:2 1014:1 1070:1 1128:1 1335:1 1352:2 2401:5 2417:1 2536:6 2538:3 3009:1 3219:1 3463:1 3564:2 3678:1 4177:1 4743:1 4865:1 5829:1 8765:1 9422:1 10748:1 11005:1 11292:3 12477:1 17301:1 17302:1 17303:1 17304:2 17305:2 17306:1 17307:1 17308:1 17309:3 17310:1 17311:1 17312:1 17313:1 17314:1 #
-0.00086194124381201177829969761745588 1:3 6:4 14:1 20:1 23:2 49:3 51:1 52:3 69:6 124:1 133:1 239:5 275:2 296:1 308:1 327:1 332:2 432:1 442:1 482:2 484:1 529:1 651:2 717:1 719:2 734:2 737:1 751:2 803:2 884:2 1091:5 1181:1 1189:1 1193:1 1551:2 2415:2 2614:1 2715:2 2806:1 3269:1 3351:1 3464:1 3640:1 3963:1 4178:1 4281:1 4708:1 5195:2 5454:1 5560:1 5857:1 6155:1 6229:1 7822:2 7831:1 7832:2 7833:1 7834:1 7835:2 7836:1 7837:1 7838:1 7839:1 7840:2 7841:1 7842:3 7843:1 7844:2 7845:1 7846:1 7847:1 7848:1 7849:1 7850:1 7851:1 7852:1 7853:1 7854:1 #
-0.0012993856392303031448837158379206 18:2 22:1 23:1 52:1 69:1 115:3 119:1 122:1 169:1 177:3 193:1 249:1 283:1 382:1 384:1 439:1 553:1 606:1 636:3 677:1 788:1 796:1 871:2 915:1 1074:1 3046:1 3691:1 4358:2 4381:1 4711:1 4984:2 5275:1 6247:1 6262:1 7359:1 7398:1 8017:1 8437:1 8485:1 8982:1 9139:1 9499:1 12643:1 12850:2 21076:1 22713:1 22714:1 22715:1 22716:1 22717:1 22718:1 22719:1 22720:1 22721:1 22722:1 22723:1 22724:1 22725:1 22726:2 22727:2 22728:1 22729:1 #
-0.0010844272375120380356994242987412 10:1 22:1 69:1 133:1 188:2 249:1 439:1 440:2 443:2 453:1 472:1 480:2 614:3 691:1 757:1 974:1 989:1 1176:1 1180:1 1401:1 1721:3 2206:1 2534:1 2997:1 3625:1 4533:4 5266:1 9189:1 9886:1 10285:1 11857:6 11858:1 11859:1 11860:3 11861:1 11862:1 #
-0.0032265930841886593383183168270989 1:1 173:1 175:1 220:1 249:1 256:1 428:1 446:1 447:1 504:1 887:1 918:1 975:1 1080:1 1152:2 1382:1 2666:1 2859:1 4292:1 4953:1 5498:1 6055:1 6470:1 6471:1 6472:1 6473:1 6474:1 6475:1 6476:1 6477:1 6478:1 #
-0.0032679450943580326365001109678587 38:2 42:1 106:1 382:1 442:1 452:1 761:1 835:1 971:1 990:1 1092:1 3032:3 10292:1 21689:1 21690:1 21691:1 #
-0.0014372583158439174947501593138099 1:2 16:3 22:3 154:1 226:1 249:2 296:1 415:1 425:1 447:1 454:1 651:1 678:1 786:1 831:1 923:1 989:1 1080:1 1191:1 1420:2 1716:1 2204:1 2338:1 2346:1 2415:1 2546:1 2995:1 2997:1 3015:1 3441:1 3608:1 3682:1 3745:1 6865:1 13740:1 13995:1 23195:1 23196:1 23197:2 23198:1 23199:1 23200:1 23201:1 #
-0.00072153045818036567592840269114163 1:3 36:1 249:1 283:1 339:1 354:1 440:4 443:1 453:1 454:1 487:1 614:1 771:1 834:1 947:1 977:2 1141:1 1153:1 1236:1 1386:1 1634:1 1635:1 3084:1 3406:1 3481:1 7605:1 7927:1 11535:2 14360:1 18251:1 19572:1 21348:1 22123:1 22124:2 22125:1 22126:2 22127:2 22128:1 22129:1 22130:1 22131:1 22132:1 22133:1 22134:1 #
-0.00081162147222779668868236635503877 1:2 8:1 31:1 32:1 47:1 49:4 134:3 146:1 161:1 220:1 277:1 280:1 281:2 452:1 453:1 454:1 525:1 608:1 671:1 716:1 846:1 974:3 1039:1 1634:1 1741:2 1804:1 1870:4 2088:2 3084:1 3577:1 3692:1 3817:1 4431:1 4512:1 4862:1 5441:1 5858:1 6271:1 6697:1 6871:1 7623:1 10447:1 11975:1 13136:1 13552:1 13608:1 14351:1 15423:1 15837:1 17334:1 17335:1 17336:4 17337:1 17338:1 17339:1 17340:3 17341:1 17342:1 17343:1 17344:1 17345:1 17346:1 17347:1 17348:1 17349:1 17350:1 17351:2 17352:1 17353:1 #
-0.00023326901462355429913222981674892 20:3 49:2 52:1 55:2 106:1 133:1 154:2 170:1 181:1 220:1 247:1 270:1 275:1 303:1 507:1 677:2 819:2 918:1 977:3 1478:1 1492:1 1623:1 1674:2 1680:1 2020:2 2170:1 2390:6 2481:1 2752:1 3163:3 3506:1 3661:1 3812:2 3814:1 4098:1 4443:4 4745:1 6411:1 8314:1 10793:1 11334:2 13351:1 17203:1 17204:3 17205:2 17206:2 17207:1 17208:1 17209:1 17210:1 17211:1 17212:1 17213:3 17214:1 17215:1 #
-0.0045033921560961942889833586889381 1:1 49:1 87:1 220:1 226:5 416:1 425:1 778:1 986:1 6052:1 7257:1 7258:1 7259:1 7260:1 7261:1 #
-0.00050352890859852361595677683325789 1:1 20:3 25:2 38:1 42:1 49:4 51:2 87:2 94:2 133:1 152:2 181:2 194:1 195:2 213:10 219:3 235:2 256:5 257:1 261:1 275:1 281:1 355:4 382:1 384:1 413:2 428:2 501:3 513:1 532:1 611:1 615:2 636:1 689:2 778:2 832:1 852:2 896:1 987:1 1301:2 1387:1 1543:2 1570:1 2020:3 2022:1 2167:1 2170:1 2204:1 2502:1 2510:9 2613:3 2864:1 3038:1 3063:1 3280:1 3287:3 3516:1 3614:3 3807:1 3808:1 3951:1 4680:1 5051:1 5061:1 5079:1 6187:1 6922:1 7033:3 7852:2 8118:1 9584:1 11223:5 11380:1 16532:1 18459:1 22803:1 22804:1 22805:1 22806:1 22807:1 22808:1 22809:1 22810:2 22811:4 22812:2 22813:2 22814:1 22815:1 22816:1 22817:1 22818:1 22819:1 22820:3 22821:2 22822:1 22823:1 22824:1 22825:1 22826:1 22827:1 22828:1 #
-2.8577189595252222071740041964283e-05 11:2 49:4 59:2 94:2 113:1 114:2 126:1 211:1 270:1 277:1 384:1 493:1 507:1 614:1 616:2 645:1 652:1 722:2 734:3 807:1 826:1 827:1 915:1 969:2 1024:1 1097:1 1118:1 1145:1 1174:1 2823:1 3042:1 3153:1 3302:1 3562:1 3818:1 4026:1 4479:1 4713:1 4728:2 4730:2 4767:1 5213:1 5431:1 6242:1 6939:2 10869:1 11442:1 12020:10 12021:2 12022:2 12023:2 12024:1 12025:1 12026:1 12027:2 12028:1 12029:1 12030:1 #
-0.0034232438405556514168792681118703 1:1 10:2 22:1 25:2 36:1 37:3 49:1 55:2 94:2 113:1 126:1 170:1 247:1 308:1 355:1 532:1 650:1 698:1 881:2 1002:1 1215:1 1329:1 1778:1 2167:1 2170:1 2334:1 2782:1 3289:1 3476:2 7565:1 15008:1 17460:1 27249:1 27250:3 27251:3 27252:3 27253:1 27254:1 27255:1 27256:1 27257:1 27258:1 #
0.0011611517167481252843508343630674 3:2 13:5 20:2 25:4 38:2 94:7 126:1 127:2 133:1 134:3 154:2 170:1 174:1 179:1 181:3 187:1 219:1 223:1 226:2 249:5 254:1 290:1 308:3 435:1 443:3 447:1 501:1 532:1 534:2 597:1 614:1 617:2 677:1 689:2 717:2 757:1 760:1 800:1 809:1 820:1 822:1 835:1 863:3 903:4 945:1 1023:1 1067:1 1081:1 1086:1 1088:2 1101:2 1110:7 1214:1 1326:1 1357:1 1403:1 1470:4 1495:2 1498:1 1537:1 1548:1 2047:1 2163:1 2328:1 2329:1 2330:4 2331:1 2332:1 2333:2 2334:2 2335:2 2336:2 2337:3 2338:1 2339:2 2340:1 2341:1 2342:2 2343:1 2344:1 2345:1 2346:2 2347:1 2348:2 2349:1 2350:1 2351:1 2352:1 2353:1 2354:1 2355:1 2356:2 2357:2 2358:3 2359:2 2360:1 2361:1 2362:4 2363:4 2364:1 2365:1 2366:2 2367:3 2368:1 2369:1 2370:2 2371:1 2372:1 2373:1 2374:3 2375:3 2376:1 2377:2 2378:1 2379:1 2380:1 2381:1 2382:1 2383:1 2384:1 2385:1 2386:1 2387:1 2388:1 2389:1 2390:1 2391:1 2392:1 2393:1 2394:1 2395:1 2396:1 2397:1 2398:1 2399:1 2400:1 2401:1 2402:1 2403:1 2404:1 2405:1 2406:1 #
-0.00090234904494335783572966924737102 4:1 6:1 7:3 10:2 49:7 50:2 94:3 154:2 172:1 174:8 177:2 181:1 182:3 187:3 188:1 211:1 234:4 235:5 239:9 254:1 270:1 283:1 292:4 385:1 387:2 411:2 413:5 432:2 483:1 500:1 537:1 572:5 720:2 737:7 833:1 847:2 870:2 881:4 970:2 1088:2 1097:1 1102:2 1234:2 1496:5 1548:1 1754:1 2362:3 2366:1 2613:1 2710:1 2779:2 3899:1 4286:2 4430:1 5384:3 5405:1 5452:1 5496:2 5993:1 6071:1 6229:1 9200:1 9275:2 10581:1 10697:4 12448:2 14665:2 14666:2 14667:1 14668:1 14669:1 14670:1 14671:2 14672:2 14673:1 14674:1 14675:1 14676:1 14677:2 14678:1 14679:1 14680:4 14681:2 14682:2 14683:1 14684:1 14685:1 14686:1 14687:1 14688:1 14689:1 14690:4 14691:1 14692:1 14693:1 14694:1 14695:1 14696:1 14697:1 14698:1 14699:1 14700:1 14701:1 14702:1 14703:1 14704:1 14705:2 14706:2 14707:2 14708:1 14709:1 14710:1 14711:1 14712:1 14713:1 14714:1 14715:1 #
-8.9932685469932136987890325396933e-05 8:1 10:1 25:2 36:1 37:2 38:1 49:2 82:2 87:10 113:1 145:1 146:3 251:2 256:10 270:1 279:1 384:2 432:1 446:2 690:2 736:10 835:1 1078:1 1174:1 1691:1 1721:1 2088:1 2418:1 2437:1 2715:1 2879:1 2959:7 3035:1 3391:1 3557:1 3621:4 3627:1 3630:1 3632:1 3995:2 4098:1 4281:1 4421:1 4680:3 5238:1 6283:2 6427:1 8642:2 11277:1 12733:2 16282:1 16490:1 16690:1 17590:1 20751:1 21160:7 28638:2 28639:1 28640:1 28641:1 28642:1 28643:1 28644:1 28645:1 28646:1 28647:3 28648:2 28649:3 28650:3 28651:1 28652:1 28653:1 28654:3 28655:1 28656:1 28657:2 28658:1 28659:1 28660:2 28661:1 28662:1 28663:1 28664:1 28665:1 28666:1 #
-0.00024348710045948382548440525052769 1:5 3:2 22:3 49:4 52:1 55:9 62:1 69:8 94:1 101:6 113:1 115:1 133:2 148:1 154:1 160:1 170:1 181:3 193:1 205:7 215:3 217:1 225:1 239:26 283:1 308:1 332:6 343:1 344:3 411:2 413:8 442:5 487:1 536:1 597:1 610:2 619:1 651:2 706:1 716:1 717:8 727:1 737:2 771:1 791:3 796:1 826:1 856:1 884:1 897:10 899:1 910:6 918:1 1017:1 1067:1 1189:1 1393:1 1401:1 1404:1 1711:1 1717:1 2180:1 2416:5 2606:1 2671:1 2685:1 2689:1 3162:1 3234:1 3286:1 3291:1 3340:1 3462:1 3476:1 3566:1 3594:3 3627:2 3685:1 3692:2 3735:1 3814:1 3924:3 3942:3 3995:1 4058:2 4097:1 4376:1 4759:7 4767:2 5061:1 5384:1 5457:1 5695:1 5698:7 5798:1 5828:1 5858:1 5902:1 6225:1 6370:1 6621:1 6638:1 6827:1 6858:1 7375:1 7434:1 7565:2 7822:1 8281:1 8308:1 8549:3 9690:1 9691:1 9692:1 9693:3 9694:5 9695:4 9696:3 9697:1 9698:1 9699:1 9700:1 9701:2 9702:1 9703:1 9704:1 9705:1 9706:1 9707:2 9708:1 9709:1 9710:1 9711:1 9712:1 9713:1 9714:1 9715:2 9716:2 9717:2 9718:1 9719:1 9720:1 9721:1 9722:1 9723:2 9724:1 9725:1 9726:1 9727:1 9728:2 9729:2 9730:2 9731:2 9732:2 9733:2 9734:1 9735:1 9736:1 9737:2 9738:1 9739:2 9740:7 9741:3 9742:1 9743:1 9744:1 9745:1 9746:1 9747:1 9748:1 9749:1 9750:1 9751:1 9752:1 9753:1 9754:1 9755:2 9756:2 9757:1 9758:1 9759:1 9760:1 9761:1 9762:1 9763:1 9764:1 9765:1 9766:1 9767:1 9768:1 9769:1 9770:1 9771:1 9772:1 9773:1 9774:1 #
-0.00079089786388084927504227295003147 1:2 7:1 10:6 23:1 25:3 28:1 37:1 38:1 49:4 61:1 82:1 87:1 94:3 113:1 115:1 124:1 163:2 215:1 235:1 239:3 249:1 256:4 274:1 283:1 292:2 306:1 308:2 354:2 357:1 384:1 413:4 419:5 435:1 455:9 484:1 514:1 529:1 553:1 572:1 652:1 796:1 802:1 805:3 834:1 977:6 1077:1 1078:1 1080:1 1097:1 1198:3 1364:2 1437:2 1443:1 1452:1 1453:1 1456:1 1556:1 1617:1 1691:5 1843:1 2148:1 2206:1 2360:1 2419:1 2437:1 3280:1 3562:1 3569:1 3811:1 3944:1 4356:1 4399:2 4749:1 6242:1 6621:1 7665:1 9803:1 10268:1 11069:1 14202:1 16568:1 19964:1 19965:1 19966:2 19967:1 19968:1 19969:2 19970:1 19971:1 19972:1 19973:1 19974:1 19975:6 19976:1 19977:1 19978:1 19979:1 19980:1 19981:1 19982:1 19983:2 19984:2 19985:1 19986:1 19987:2 19988:2 19989:1 19990:1 19991:1 #
-0.00075285470849749923372140614219461 1:1 3:2 6:2 13:1 14:1 20:1 49:3 50:3 69:1 94:2 101:1 133:1 148:5 152:1 195:3 211:1 221:3 235:1 239:2 247:1 256:1 287:1 308:1 347:4 367:3 575:4 597:1 617:1 696:1 783:1 925:1 977:2 1014:1 1050:3 1077:2 1098:5 1174:1 1417:2 1492:1 2022:4 2483:1 3033:1 3046:1 3501:3 3876:1 4346:2 5517:1 6007:4 6621:1 6638:1 6642:1 7349:4 7350:4 7358:1 7583:1 7828:2 10475:1 17456:1 18624:1 19421:1 27681:3 27682:1 27683:2 27684:1 27685:1 27686:1 27687:1 27688:1 27689:2 27690:1 27691:1 27692:1 27693:3 27694:1 27695:1 27696:1 27697:1 27698:1 27699:1 27700:1 #
-0.00015306886039608678007524489306235 1:1 7:1 10:1 26:1 38:1 49:4 69:1 119:1 122:1 154:1 235:2 239:2 270:1 281:10 283:1 372:1 384:1 569:1 572:1 596:1 689:1 696:1 703:1 716:1 737:1 778:2 803:1 804:1 834:4 969:1 1178:3 1188:2 1238:1 1597:3 1616:2 1617:4 1843:2 1980:3 1981:3 2360:1 2715:1 3268:1 3286:1 3355:2 3496:1 3621:1 3627:1 4127:1 4487:1 4912:1 5056:3 5983:1 7366:1 8314:1 9832:1 16482:4 21598:1 22287:1 25287:1 25288:2 25289:5 25290:2 25291:15 25292:6 25293:3 25294:13 25295:6 25296:3 25297:3 25298:5 25299:3 25300:3 25301:2 25302:4 25303:8 25304:4 25305:2 25306:2 25307:4 25308:4 25309:2 25310:2 25311:1 25312:2 25313:2 25314:4 25315:2 25316:2 25317:2 25318:2 25319:1 25320:1 25321:1 25322:2 25323:2 25324:1 25325:2 25326:1 25327:1 25328:1 25329:1 25330:1 25331:1 25332:2 25333:1 25334:1 25335:1 25336:1 25337:6 25338:1 25339:3 25340:1 25341:3 25342:1 25343:4 25344:1 25345:3 25346:1 25347:1 25348:1 25349:1 25350:2 25351:1 25352:1 25353:1 25354:1 25355:1 25356:1 25357:1 25358:1 25359:1 25360:1 25361:1 25362:1 25363:1 #
-5.3852259858545914515768476826807e-05 1:2 7:1 8:3 16:26 22:4 24:1 25:5 26:1 37:2 47:46 49:3 51:16 55:1 97:3 160:2 165:1 195:1 234:1 270:1 280:4 342:1 344:1 432:2 446:3 616:2 796:1 824:1 851:2 900:1 989:1 994:1 1049:1 1105:14 1188:1 1352:1 1386:1 1656:1 1727:13 2147:4 2227:10 2234:4 3079:2 3288:1 3633:10 4358:1 4359:5 4680:4 5802:1 6007:2 6686:1 7658:2 8139:1 8551:4 10148:1 10313:1 10474:50 10475:2 10481:1 10482:2 10487:2 10488:2 10489:2 10490:2 10491:4 10492:2 10493:2 10494:2 10495:2 10496:2 10497:2 10498:2 11469:1 12373:5 16276:1 17196:2 19152:1 21185:1 21186:1 21187:1 21188:1 21189:1 21190:1 21191:1 21192:1 21193:1 21194:1 21195:1 21196:2 21197:2 21198:2 21199:2 21200:2 21201:1 21202:1 21203:1 21204:1 21205:1 21206:1 21207:1 21208:4 21209:4 21210:2 21211:2 21212:1 21213:1 21214:1 #
-0.0011718867589541241778366975623271 1:2 7:6 10:4 19:1 25:2 49:3 59:2 69:2 133:1 175:1 195:2 221:1 239:5 247:1 270:1 308:1 343:3 347:1 413:1 447:1 645:1 658:1 672:1 734:2 845:1 989:1 1006:1 1128:1 1188:7 1401:1 1496:1 1604:1 1758:1 1771:1 2013:1 2242:1 2613:3 3278:1 3815:1 4596:1 5051:1 5437:1 5670:2 5823:1 7459:1 7471:1 9183:1 13577:1 15805:1 16010:1 16106:1 16658:1 22158:1 29213:1 29214:1 29215:1 29216:1 29217:1 29218:1 29219:1 29220:3 29221:1 29222:1 29223:1 29224:1 29225:2 29226:1 29227:1 #
-7.8331092700161233303816910034101e-05 1:1 20:1 25:4 37:1 49:1 116:1 152:4 163:1 213:3 235:2 239:1 446:1 527:3 569:1 575:5 640:2 650:9 651:1 818:1 851:1 943:4 989:1 1014:2 1237:1 1244:1 1420:8 3506:1 3516:2 3695:1 3697:3 3702:2 3813:2 4963:1 5145:1 5187:3 5198:1 5254:1 5324:1 5588:1 5614:8 7204:2 7205:1 7208:1 7209:1 7256:2 7291:1 7632:1 7634:1 7698:1 7699:1 7701:2 7785:1 8314:1 8825:1 8828:6 9205:1 11196:4 11197:4 14130:1 15107:3 15115:3 15116:1 15117:1 16120:1 16121:1 16122:1 16123:1 16124:1 16125:2 16126:3 16127:1 16128:1 16129:1 16130:1 16131:3 16132:2 16133:1 16134:2 16135:1 16136:2 16137:1 16138:1 16139:1 16140:2 16141:1 16142:1 16143:1 16144:1 16145:1 16146:1 16147:1 16148:3 16149:1 16150:1 16151:1 16152:1 #
-0.00054297404131900290236850681324654 3:1 14:2 15:1 20:1 38:5 49:2 52:1 96:1 97:1 106:2 110:2 111:1 145:1 154:1 168:1 177:3 181:1 239:1 247:1 256:1 270:1 274:1 330:1 382:1 413:1 532:1 610:1 690:1 796:1 856:1 896:1 975:1 977:3 989:1 1077:1 1080:1 1128:1 1218:2 1242:1 1244:2 1247:1 1255:2 1256:1 1264:2 1271:1 1279:1 1366:1 1372:1 1488:1 1504:1 2204:1 2677:1 3406:1 3410:1 3527:1 3697:3 3721:1 3812:1 3849:1 4097:2 4129:1 4403:1 4459:1 4598:1 4744:1 4786:2 4859:1 5105:1 5126:1 5145:1 5472:1 6876:3 6936:3 7127:2 7204:2 7237:1 7256:2 7291:3 7453:2 7693:1 7699:2 7725:1 7727:1 9103:1 9164:1 9635:1 10702:1 11136:1 12003:1 12763:1 14247:1 16741:1 26325:1 29031:1 29032:1 29033:1 29034:1 29035:1 29036:1 29037:1 29038:1 29039:1 29040:1 29041:1 29042:1 29043:1 29044:1 29045:1 29046:1 29047:1 29048:1 29049:1 29050:1 29051:1 29052:1 29053:1 29054:1 #
