SVM-light Version V6.02
0 # kernel type
3 # kernel parameter -d 
1 # kernel parameter -g 
1 # kernel parameter -s 
1 # kernel parameter -r 
empty# kernel parameter -u 
32198 # highest feature index 
1557 # number of training documents 
271 # number of support vectors plus 1 
1.045826 # threshold b, each following line is a SV (starting with alpha*y)
-6.8610458065466900273894623740745e-05 1:1 4:1 15:7 18:1 34:1 82:1 95:1 112:9 113:1 121:1 153:1 169:4 174:3 224:2 229:1 236:2 242:2 263:1 272:3 284:1 300:1 354:2 355:3 399:1 411:1 412:1 449:1 467:1 470:2 521:5 527:1 530:1 609:2 613:1 614:3 615:3 616:1 621:2 630:18 649:1 651:1 675:1 691:2 692:1 725:5 754:1 776:1 797:3 821:1 829:4 859:2 917:1 996:8 1076:1 1080:1 1084:2 1086:1 1087:3 1090:1 1094:22 1108:6 1111:2 1114:1 1120:3 1143:1 1145:2 1151:2 1209:1 1327:2 1368:3 1502:3 1600:1 1725:4 1751:1 1756:1 1910:1 2057:1 2061:1 2066:1 2195:7 2216:1 2226:1 2279:1 2303:3 2304:1 2313:1 2323:1 2326:1 2412:1 2454:1 2561:1 3128:2 3139:5 3190:3 3195:2 3196:2 3205:5 3216:2 3324:1 3389:1 3601:1 3944:1 3977:5 4001:1 4061:1 4108:4 4127:2 4128:3 4129:3 4689:1 4823:1 4828:2 5065:5 5098:1 5563:1 5639:2 5862:4 5863:1 5864:1 6014:2 6387:1 6777:2 6783:1 6816:3 7255:1 7301:1 8361:1 8406:1 8543:2 9564:1 9627:3 9636:2 10303:4 11085:1 11160:1 11203:1 12125:1 13146:1 15804:1 16003:1 16092:6 16393:1 16558:1 17657:2 17863:3 18569:1 22607:1 23781:7 23782:2 23783:1 23784:1 23785:1 23786:3 23787:1 23788:1 23789:1 23790:1 23791:1 23792:1 23793:1 23794:1 23795:1 23796:1 23797:1 23798:1 23799:1 23800:1 23801:1 23802:1 23803:3 23804:2 23805:1 23806:1 23807:1 23808:1 23809:1 23810:2 23811:1 23812:1 23813:1 23814:1 23815:1 23816:1 23817:1 23818:1 23819:1 23820:1 23821:1 23822:1 23823:1 23824:2 23825:1 23826:7 23827:2 23828:7 23829:1 23830:7 23831:7 23832:3 23833:5 23834:14 23835:5 23836:5 23837:5 23838:5 23839:1 23840:5 23841:5 23842:5 23843:1 23844:1 23845:1 23846:6 23847:1 23848:1 23849:1 23850:1 23851:1 23852:1 23853:19 23854:1 23855:2 23856:1 23857:1 23858:1 23859:3 23860:1 23861:2 23862:1 23863:1 23864:1 23865:1 23866:1 23867:1 23868:1 23869:1 23870:2 23871:1 23872:1 23873:1 23874:1 23875:1 23876:1 23877:1 23878:1 23879:1 23880:2 23881:2 23882:6 23883:21 23884:2 23885:2 23886:1 23887:2 23888:1 23889:1 23890:1 23891:1 23892:1 23893:1 23894:1 23895:1 23896:4 23897:3 23898:4 23899:3 23900:3 23901:3 23902:1 23903:1 23904:1 23905:1 23906:1 23907:1 23908:1 #
0.0046557034836236348140925400684864 1:2 2:1 3:3 4:2 5:2 6:5 7:1 8:1 9:3 10:5 11:1 12:1 13:1 14:1 15:4 16:1 17:1 18:1 19:1 20:1 21:1 22:1 23:1 24:1 25:1 26:1 27:1 28:1 29:1 30:1 31:1 32:1 33:2 34:1 35:1 36:1 37:1 38:1 39:1 40:1 41:1 #
-0.00023986710569056496865358862891071 5:27 9:1 10:21 15:3 19:5 27:2 29:5 113:3 114:1 123:3 130:4 142:1 150:21 153:1 172:6 180:6 191:7 206:1 246:5 258:1 263:1 268:1 271:15 274:1 278:2 317:1 326:10 329:3 352:1 355:2 364:5 384:2 386:3 394:1 404:1 422:1 501:12 521:9 523:3 545:2 555:7 570:1 664:1 668:1 669:4 694:1 707:1 708:1 716:3 776:2 787:11 788:17 789:27 794:1 805:4 807:3 868:3 869:4 883:1 935:3 1007:11 1010:2 1287:1 1298:15 1331:2 1352:1 1394:8 1431:1 1449:6 1464:4 1466:6 1470:1 1471:7 1486:1 1743:1 1789:3 1914:2 1941:2 2159:3 2161:3 2202:1 2633:4 2797:7 2806:1 3005:1 3128:7 3268:1 3343:1 3563:1 3582:1 3628:1 3631:1 3639:31 3890:1 3995:3 4033:4 4220:1 4407:6 4583:1 5600:1 5639:5 5788:1 5838:6 5839:1 6291:2 6387:2 6418:2 6435:1 6585:1 6742:4 7260:2 7694:1 7695:1 7696:1 7697:1 8361:2 8973:1 9794:5 9889:16 9896:7 9936:4 9953:6 9959:1 10443:1 10624:2 10993:3 11764:2 11998:3 12443:1 13408:1 14152:1 16649:2 16913:1 17032:1 18419:1 20243:1 22381:4 22382:4 22383:3 22384:1 22385:2 22386:3 22387:5 22388:3 22389:4 22390:3 22391:1 22392:2 22393:1 22394:6 22395:7 22396:15 22397:8 22398:3 22399:4 22400:3 22401:3 22402:3 22403:1 22404:1 22405:1 22406:1 22407:1 22408:1 22409:1 22410:1 22411:1 22412:4 22413:3 22414:3 22415:2 22416:3 22417:1 22418:4 22419:2 22420:1 22421:2 22422:2 22423:1 22424:1 22425:1 22426:1 22427:1 22428:2 22429:2 22430:1 22431:5 22432:1 22433:2 22434:1 22435:1 22436:2 22437:1 22438:6 22439:1 22440:1 22441:1 22442:1 22443:2 22444:1 22445:1 22446:1 22447:2 22448:1 22449:2 22450:1 22451:1 22452:1 22453:2 22454:1 22455:2 22456:1 22457:5 22458:1 22459:2 22460:1 22461:1 22462:1 22463:1 22464:1 22465:1 22466:1 22467:1 22468:1 22469:1 22470:1 22471:1 22472:1 22473:1 22474:1 22475:2 22476:1 22477:1 22478:1 22479:1 22480:1 22481:2 22482:2 22483:1 22484:1 22485:1 22486:1 22487:1 22488:1 22489:2 22490:1 22491:5 22492:1 22493:1 22494:1 22495:1 22496:1 22497:2 22498:1 22499:1 22500:1 22501:1 22502:1 22503:1 22504:1 22505:1 22506:1 22507:17 22508:1 22509:1 22510:1 22511:4 22512:1 22513:1 22514:2 22515:1 22516:1 22517:1 22518:1 22519:2 22520:2 22521:1 22522:1 #
-0.0046557034836236348140925400684864 1:1 9:1 82:1 113:1 161:1 164:6 172:2 173:1 249:2 268:1 271:1 278:1 325:1 329:3 428:5 573:2 651:2 788:2 789:1 805:1 869:2 883:2 1471:1 3000:1 3731:1 3890:1 5093:1 5349:4 5408:1 8060:1 14291:1 15832:1 20054:1 28329:1 31698:2 31699:1 31700:1 31701:1 31702:1 31703:1 31704:1 31705:1 31706:1 31707:1 #
-0.0001533737298731888750325663695051 3:2 6:19 7:1 15:4 113:1 114:1 121:1 130:2 140:1 142:2 143:2 146:1 150:41 172:4 173:4 220:1 231:1 233:2 258:1 285:3 286:1 319:2 341:1 355:2 401:1 404:1 450:1 472:5 473:1 494:3 574:1 588:3 816:3 868:2 869:5 1154:7 1192:4 1294:1 1400:1 1551:1 1619:6 1745:1 1834:3 2059:1 2161:2 2162:2 2279:1 2304:2 2322:1 2370:1 2445:17 2462:1 2553:1 2788:1 3062:1 3152:1 3319:1 3396:1 3518:26 3521:1 3573:6 3832:2 3923:1 3936:1 4010:1 4035:1 4445:3 4511:1 5031:9 5131:4 5446:1 5453:1 5503:1 5708:1 6201:2 6512:1 8550:1 9359:1 9521:1 9566:11 9814:3 9948:1 10148:1 12501:1 12505:6 15832:1 19073:1 20123:4 20199:1 21644:2 23768:2 26293:46 26294:8 26295:5 26296:1 26297:1 26298:9 26299:6 26300:3 26301:1 26302:1 26303:2 26304:1 26305:1 26306:1 26307:1 26308:1 26309:1 26310:2 26311:1 26312:1 26313:6 26314:4 26315:3 26316:3 26317:2 26318:1 26319:1 26320:1 26321:1 26322:1 26323:1 26324:1 26325:1 26326:2 26327:1 26328:1 26329:1 26330:1 26331:1 26332:1 26333:12 26334:1 26335:1 26336:2 26337:1 26338:2 26339:1 26340:1 26341:1 26342:3 26343:1 26344:1 26345:1 26346:1 26347:1 26348:4 26349:1 26350:1 26351:1 26352:1 26353:2 26354:1 26355:1 26356:1 26357:1 26358:1 26359:1 26360:1 26361:1 26362:1 26363:1 26364:1 26365:1 26366:1 26367:4 26368:8 26369:4 26370:1 26371:2 26372:1 26373:1 26374:3 26375:1 26376:1 26377:1 26378:1 #
-0.00044014905081955611352781398970535 1:1 3:2 19:2 69:1 70:1 76:1 82:1 108:1 112:1 113:3 114:1 130:3 142:2 143:2 153:1 173:1 278:4 306:5 327:2 427:1 437:1 450:1 493:1 805:1 883:1 897:1 914:1 935:1 936:1 974:1 1054:2 1327:1 1356:1 1376:1 1471:2 1714:1 1786:1 1836:1 2150:1 2284:4 2357:1 2371:4 2475:1 2755:1 2765:1 3518:2 3739:1 4388:1 4908:1 7275:1 11580:1 11798:1 12322:2 12329:1 12330:1 14742:2 18198:1 24178:4 24179:5 24180:1 24181:1 24182:1 24183:1 24184:1 24185:1 24186:1 24187:1 24188:1 24189:1 24190:1 24191:1 #
0.0046557034836236348140925400684864 130:2 131:2 340:1 341:1 402:1 415:1 418:1 591:1 1401:2 1402:1 1403:1 1404:1 1405:1 1406:1 1407:1 1408:1 1409:1 1410:1 1411:1 1412:1 #
0.0046557034836236348140925400684864 1:1 74:1 84:1 154:1 297:1 471:1 482:1 494:1 527:2 821:1 1066:1 1067:1 1068:2 1069:1 1070:2 1071:1 1072:1 1073:1 #
0.0046557034836236348140925400684864 18:1 113:1 116:1 130:1 328:1 344:2 404:2 447:1 454:1 468:1 816:1 935:1 1576:1 2018:1 2204:1 2205:1 2206:1 2207:1 2208:1 2209:1 2210:1 2211:1 2212:1 2213:1 #
0.0046557034836236348140925400684864 7:1 31:1 77:1 231:1 288:1 317:1 421:1 521:1 981:1 1197:1 1352:1 1559:1 1798:1 1799:1 1800:1 1801:1 1802:1 1803:1 1804:1 1805:1 1806:1 1807:1 1808:1 1809:1 #
0.0046557034836236348140925400684864 1:1 31:1 63:1 64:1 76:1 77:3 82:1 108:3 112:2 113:3 172:1 173:4 174:5 242:1 258:1 272:1 291:1 319:2 329:3 355:3 358:1 399:1 432:2 437:2 450:1 545:1 630:6 633:1 634:1 643:2 648:1 754:2 797:3 883:4 914:1 915:1 916:1 917:1 918:5 919:7 920:1 921:2 922:1 923:2 924:2 925:1 926:1 927:1 928:1 929:1 930:2 931:2 932:1 933:1 934:1 935:1 936:1 937:1 938:1 939:1 940:1 941:1 942:1 943:1 944:1 945:1 946:1 947:1 948:1 949:2 950:1 951:1 952:1 953:2 954:1 955:2 956:1 957:1 958:1 959:1 960:1 961:1 962:1 963:1 964:1 965:1 966:1 967:1 968:1 969:1 970:1 #
-0.0025263541645503899933655755916107 1:1 6:1 10:9 15:3 18:1 30:1 34:1 72:1 113:2 117:4 123:3 185:1 218:1 219:1 231:1 257:1 269:2 286:2 317:2 346:1 376:1 386:1 430:3 470:1 471:4 580:1 675:1 788:1 825:1 1163:1 1167:1 1212:1 1445:1 2633:1 3149:2 3463:1 3809:2 4069:1 4765:1 5494:2 6930:1 7300:1 7533:1 9733:1 12080:1 18349:1 19746:1 21214:1 25095:1 25096:1 25547:1 25548:1 25926:1 25927:2 25928:2 25929:3 25930:2 25931:2 25932:1 25933:1 25934:1 25935:1 25936:1 25937:1 25938:1 25939:1 25940:1 25941:1 25942:1 25943:1 25944:1 25945:2 25946:1 25947:1 25948:1 25949:1 25950:1 25951:1 25952:1 25953:1 25954:1 25955:1 25956:1 25957:1 #
-0.0018347668532866492820815329523043 5:2 10:5 15:4 18:2 74:1 77:1 116:1 117:1 188:2 192:1 257:1 365:1 376:3 386:1 402:1 453:1 463:2 521:1 597:2 794:1 821:2 1000:1 1327:1 1482:4 1629:1 1886:1 2303:1 2631:1 2882:2 3863:2 4787:2 4823:2 6170:1 6773:2 10644:1 12906:1 19746:2 21300:1 21301:1 21302:2 21303:1 21304:1 #
-0.0046557034836236348140925400684864 1:2 2:2 3:1 6:1 9:6 10:1 30:2 31:1 41:1 74:1 77:1 127:1 152:1 158:2 173:1 185:2 210:1 223:1 226:1 242:3 257:1 297:1 305:2 308:1 324:2 328:1 355:2 363:1 447:1 450:2 460:1 471:1 472:1 574:2 575:1 653:1 694:2 774:1 821:1 868:1 899:1 1183:1 1229:1 1294:2 1352:1 1395:1 1451:1 1486:1 1495:1 1551:2 2236:1 2301:1 2346:1 2425:1 2443:1 2523:1 2563:2 2602:1 2607:1 2729:2 2784:1 2957:1 2981:2 3048:1 3268:1 3691:1 3936:1 4175:1 4206:2 4665:1 4867:1 5079:1 5676:1 8357:1 8358:1 8359:3 8360:2 8361:2 8362:1 8363:1 8364:1 8365:1 8366:1 8367:1 8368:2 8369:1 8370:1 8371:1 8372:1 8373:1 8374:1 8375:1 8376:1 8377:1 #
-0.0046557034836236348140925400684864 1:2 6:1 9:8 15:1 18:2 31:1 74:2 113:2 114:1 160:1 173:1 231:1 258:1 278:2 284:1 285:2 464:1 514:1 545:3 570:1 788:1 804:3 813:1 830:1 942:1 961:1 964:1 1014:1 1137:1 1304:1 1458:1 1504:1 1555:1 1650:2 1653:2 1663:2 1670:2 1687:1 2064:1 2299:1 2633:1 3864:1 4796:1 5071:1 8038:1 8424:1 12804:1 16160:1 16161:1 16162:1 16163:1 16164:2 16165:2 16166:1 16167:1 16168:1 16169:1 16170:2 16171:1 16172:2 16173:1 16174:1 16175:1 16176:1 16177:2 16178:1 16179:1 16180:1 16181:1 16182:1 16183:1 16184:1 16185:1 16186:1 16187:1 16188:1 16189:1 #
-0.0021682828510368856028689421577837 1:1 9:1 10:2 15:6 18:2 19:1 27:2 30:1 63:2 74:4 113:1 128:1 130:1 142:3 143:1 160:1 161:1 170:1 185:1 207:1 268:1 313:1 347:1 354:2 355:2 398:2 399:1 487:4 506:1 563:1 575:1 580:1 655:1 668:1 706:2 707:2 709:2 711:1 722:1 750:1 771:1 776:1 797:1 816:1 899:1 1071:1 1330:1 1331:1 1376:1 1630:1 1753:1 1764:1 1995:1 2059:1 2213:1 2307:1 2913:1 3090:1 3318:2 3440:1 4028:1 4109:2 4176:2 4494:1 5494:1 5532:3 5592:1 5738:1 7775:1 8510:1 8857:1 9221:1 10309:1 11564:1 14715:1 17339:1 18794:2 20156:1 20157:2 20158:2 20159:1 20160:1 20161:1 20162:1 20163:1 20164:1 20165:1 20166:1 20167:1 20168:1 20169:1 20170:1 20171:1 20172:1 #
0.00085827160219810124958811359263677 1:1 6:6 7:1 9:3 15:1 29:1 30:5 31:3 112:1 113:2 130:1 150:23 169:2 172:5 173:5 191:1 210:1 226:1 271:5 278:6 302:1 310:1 328:1 336:2 404:2 464:1 472:4 501:1 521:1 523:3 530:4 545:1 787:1 789:5 795:1 813:2 830:1 869:3 876:1 945:1 1007:4 1065:4 1394:6 1431:3 1471:1 1527:1 1540:2 1555:3 1657:1 1661:1 1668:1 1790:4 1858:4 1866:1 1867:4 2068:1 2069:7 2070:1 2071:1 2072:3 2073:1 2074:1 2075:3 2076:3 2077:4 2078:1 2079:2 2080:1 2081:1 2082:4 2083:1 2084:1 2085:3 2086:3 2087:1 2088:2 2089:1 2090:2 2091:1 2092:2 2093:1 2094:4 2095:2 2096:2 2097:2 2098:1 2099:1 2100:1 2101:1 2102:4 2103:1 2104:3 2105:1 2106:1 2107:1 2108:1 2109:1 2110:1 2111:3 2112:1 2113:1 2114:1 2115:2 2116:1 2117:1 2118:2 2119:6 2120:1 2121:1 2122:2 2123:4 2124:1 2125:1 2126:1 2127:1 2128:2 2129:1 2130:1 2131:1 2132:1 2133:2 2134:4 2135:2 2136:2 2137:1 2138:1 2139:2 2140:3 2141:2 2142:1 2143:3 2144:1 2145:1 2146:1 2147:1 2148:1 2149:1 2150:1 2151:1 2152:1 2153:1 2154:1 2155:1 2156:1 2157:1 2158:1 2159:3 2160:13 2161:2 2162:1 2163:2 2164:16 2165:2 2166:1 2167:2 2168:1 2169:1 2170:1 2171:1 2172:1 2173:5 2174:2 2175:1 2176:2 2177:2 2178:1 2179:6 2180:1 2181:1 2182:4 2183:1 2184:1 2185:1 2186:1 2187:4 2188:4 2189:2 2190:2 2191:1 2192:1 2193:1 2194:4 2195:4 2196:1 2197:1 2198:3 2199:3 2200:1 2201:1 2202:1 #
2.5441674366674284229897576303792e-05 9:8 18:6 27:2 63:3 74:5 79:80 112:3 113:3 121:1 140:1 160:2 161:1 169:7 173:13 174:32 191:3 210:1 224:1 231:1 255:2 268:1 271:2 272:23 278:1 285:2 289:1 310:2 317:10 319:1 347:1 399:1 420:1 427:2 479:1 487:1 497:2 545:24 553:8 580:1 596:1 655:4 729:17 755:7 788:18 789:1 794:1 797:2 805:3 807:3 830:1 869:1 883:4 896:1 899:1 942:1 945:11 1080:1 1191:1 1192:2 1299:15 1327:9 1364:1 1412:1 1471:2 1481:1 1539:1 1551:1 1619:1 1629:1 1631:1 1638:1 1668:1 1768:1 1829:2 1839:1 1840:2 1841:1 1842:1 1843:1 1844:7 1845:6 1846:3 1847:1 1848:1 1849:1 1850:1 1851:1 1852:2 1853:7 1854:7 1855:2 1856:2 1857:6 1858:14 1859:2 1860:1 1861:3 1862:3 1863:2 1864:1 1865:1 1866:1 1867:3 1868:1 1869:1 1870:1 1871:1 1872:1 1873:3 1874:1 1875:1 1876:1 1877:1 1878:1 1879:1 1880:1 1881:1 1882:1 1883:3 1884:1 1885:1 1886:2 1887:2 1888:1 1889:1 1890:1 1891:1 1892:1 1893:1 1894:1 1895:1 1896:1 1897:2 1898:1 1899:2 1900:1 1901:1 1902:1 1903:1 1904:1 1905:1 1906:1 1907:1 1908:1 1909:1 1910:1 1911:1 1912:1 1913:1 1914:1 1915:1 1916:1 1917:1 1918:1 1919:1 1920:1 1921:1 1922:1 1923:2 1924:3 1925:1 1926:1 1927:1 1928:3 1929:3 1930:2 1931:1 1932:1 1933:13 1934:1 1935:2 1936:1 1937:2 1938:1 1939:1 1940:1 1941:1 1942:9 1943:1 1944:17 1945:3 1946:5 1947:1 1948:1 1949:1 1950:1 1951:2 1952:2 1953:1 1954:1 1955:1 1956:1 1957:1 1958:1 1959:1 1960:2 1961:5 1962:5 1963:3 1964:5 1965:1 1966:1 1967:13 1968:9 1969:3 1970:2 1971:2 1972:2 1973:2 1974:5 1975:4 1976:4 1977:4 1978:5 1979:4 1980:4 1981:4 1982:5 1983:4 1984:4 1985:4 1986:5 1987:4 1988:4 1989:4 1990:1 1991:1 1992:1 1993:1 1994:1 1995:1 1996:1 1997:1 1998:2 1999:3 2000:1 2001:5 2002:1 2003:1 2004:3 2005:3 2006:1 2007:1 2008:1 2009:1 2010:1 2011:1 2012:1 2013:3 2014:3 2015:2 2016:1 2017:1 2018:1 2019:1 2020:3 2021:2 2022:4 2023:1 2024:1 2025:1 2026:4 2027:4 2028:4 2029:1 2030:1 2031:1 2032:1 2033:3 2034:2 2035:7 2036:2 2037:2 2038:2 2039:1 2040:1 2041:3 2042:1 2043:1 2044:1 2045:1 2046:1 2047:2 2048:1 2049:1 #
0.0036618281517559565438335589249164 1:1 9:2 31:1 74:2 112:7 113:2 127:1 130:1 172:9 173:8 182:1 227:1 236:1 271:6 278:3 290:2 329:1 399:1 502:1 521:1 530:3 545:2 571:1 695:3 709:1 781:1 785:1 786:1 787:2 788:4 789:3 790:1 791:2 792:2 793:1 794:4 795:1 796:4 797:2 798:2 799:2 800:1 801:1 808:1 809:1 810:1 821:1 823:1 1640:1 1641:1 1642:1 1643:1 1644:1 1645:1 1646:1 1647:1 1648:1 1649:1 1650:2 1651:1 1652:1 1653:1 1654:1 1655:2 1656:2 1657:1 1658:1 1659:1 1660:1 1661:1 1662:2 1663:1 1664:1 1665:1 1666:1 1667:1 1668:1 1669:1 1670:1 1671:1 1672:1 1673:1 1674:1 1675:1 1676:1 #
0.0032176424078290280852976401604337 9:1 18:4 19:8 75:1 112:19 113:1 122:1 172:1 173:1 231:1 257:1 278:1 324:13 325:4 371:4 437:1 530:1 545:1 553:3 586:1 629:3 797:2 805:1 883:1 914:1 1191:1 1352:1 1395:1 1555:1 1707:1 1708:1 1709:1 1710:1 1711:1 1712:3 1713:17 1714:1 1715:1 1716:1 1717:1 1718:1 1719:6 1720:6 1721:1 1722:5 1723:1 1724:1 1725:1 1726:2 1727:2 1728:1 1729:1 1730:2 1731:1 1732:1 1733:1 1734:4 1735:1 1736:1 1737:1 1738:1 1739:1 1740:1 #
0.0046557034836236348140925400684864 1:1 7:1 9:1 74:2 113:1 127:1 130:1 172:4 173:3 182:1 192:1 236:1 271:2 278:3 290:5 399:1 521:1 530:3 571:1 582:1 675:1 695:2 781:1 782:1 783:1 784:1 785:1 786:1 787:2 788:2 789:1 790:1 791:2 792:3 793:1 794:3 795:1 796:3 797:2 798:2 799:2 800:1 801:4 802:2 803:1 804:2 805:2 806:2 807:2 808:1 809:1 810:1 811:1 #
-0.0014569031018769539823770609032749 18:4 113:1 130:3 153:1 154:1 297:1 300:1 310:2 328:4 340:1 355:1 493:2 578:2 675:1 691:2 794:4 817:1 1412:1 1414:1 1509:1 1523:5 1592:1 1608:1 2355:2 2420:1 2882:1 3067:1 3313:4 4229:1 4475:4 7448:1 7558:1 10624:2 10952:1 10953:1 10954:2 10955:4 10956:2 10957:1 10958:1 10959:1 10960:1 10961:1 #
-0.00087559282560189632526465031148177 1:3 5:4 15:1 27:1 341:1 401:1 478:1 578:2 776:1 825:1 834:1 1056:1 1059:1 1450:3 1619:1 1843:2 2303:2 2931:1 3947:1 7032:1 10505:2 22331:1 30579:2 30580:1 30581:1 30582:1 #
-0.00046134949869352105244341144540954 1:1 5:2 15:1 130:1 341:1 578:3 913:1 1497:1 1557:1 1696:1 1765:1 1832:1 2410:2 2432:1 7395:1 21305:1 21306:1 21307:1 #
0.0046557034836236348140925400684864 9:8 74:2 113:2 114:2 116:2 174:1 220:1 231:1 252:1 258:2 285:2 302:1 358:1 379:1 570:2 596:1 651:2 655:6 1390:2 1401:1 1451:1 1761:1 1762:2 1763:1 1764:1 1765:7 1766:1 1767:1 1768:1 1769:4 1770:2 1771:1 1772:2 1773:1 1774:1 1775:2 1776:1 1777:1 1778:1 1779:1 1780:1 1781:2 1782:1 1783:1 #
0.0046557034836236348140925400684864 3:1 6:1 9:3 10:3 15:1 18:2 25:1 27:1 77:1 122:1 153:2 177:1 220:1 253:1 257:1 274:1 305:2 306:1 307:1 308:1 309:1 310:1 311:1 312:1 313:2 314:2 315:2 316:2 317:2 318:1 319:1 320:1 321:1 322:1 323:1 324:1 325:1 326:1 327:2 328:1 329:1 330:1 331:1 332:2 333:1 334:1 335:1 336:1 337:1 338:1 339:1 340:1 341:1 342:1 343:1 #
0.0046557034836236348140925400684864 5:1 6:1 9:4 10:9 15:3 19:2 27:1 113:1 121:1 143:1 164:1 177:1 185:1 218:1 231:2 236:9 263:1 272:2 274:2 285:1 326:1 344:1 345:1 346:1 347:1 348:2 349:1 350:1 351:1 352:1 353:1 354:1 355:1 356:3 357:1 358:1 359:1 360:2 361:3 362:1 363:2 364:1 365:1 366:1 367:1 368:1 369:1 370:1 371:1 372:1 373:1 374:1 375:1 376:1 377:1 378:1 379:6 380:2 381:1 382:1 383:3 384:1 385:1 386:2 387:1 388:2 389:1 390:1 391:1 392:1 393:1 394:1 395:1 396:1 397:1 398:1 399:2 400:1 401:1 402:1 403:1 #
0.0046557034836236348140925400684864 1:2 5:1 15:3 18:4 158:1 164:3 180:2 218:1 223:1 253:1 297:1 329:1 335:1 425:1 471:2 661:2 662:1 663:1 664:1 665:1 666:1 667:1 668:1 669:1 670:1 671:1 672:1 673:1 674:1 #
0.0046557034836236348140925400684864 1:3 3:3 9:1 18:2 145:1 146:1 182:1 229:1 258:1 328:2 355:4 370:1 447:1 823:1 1053:1 1054:2 1055:1 1056:1 1057:2 1058:1 1059:1 1060:1 1061:1 1062:1 1063:1 1064:1 1065:1 #
-0.0015375959561664137315722955534625 1:1 15:1 18:20 31:3 70:2 74:1 75:1 95:4 113:3 116:3 130:1 139:1 146:1 160:1 172:9 173:15 177:1 223:1 234:1 257:1 263:3 268:1 284:2 285:1 324:3 423:2 450:1 462:1 493:1 501:1 521:4 545:3 657:1 668:1 675:3 694:1 695:8 810:1 817:1 834:3 934:1 1024:4 1223:1 1303:1 1359:1 1364:2 1507:1 1673:1 1713:5 1749:1 1853:8 1887:1 2059:1 2226:1 2329:1 2355:4 2370:1 2377:7 2386:1 2534:2 2601:1 2633:1 2782:2 2957:10 2965:2 2999:1 3096:2 3268:1 3283:1 3343:1 3381:2 3382:1 3430:4 3639:9 3863:1 3914:1 3964:3 4044:1 4188:1 4514:1 4730:1 5244:1 5398:1 5896:2 5930:2 6325:1 6511:1 7128:1 7260:4 7781:1 7782:6 7783:2 7784:1 7785:1 7786:1 7787:1 7788:1 7789:1 7790:1 7791:1 7792:1 7793:1 7794:1 7795:1 7796:1 7797:1 7798:1 7799:1 7800:1 7801:1 7802:1 7803:1 7804:1 7805:1 7806:1 7807:1 7808:1 7809:1 7810:1 7811:1 7812:1 7813:1 7814:1 7815:1 7816:1 7817:1 7818:1 7819:2 7820:1 7821:1 7822:1 7823:2 7824:2 7825:2 7826:1 7827:1 7828:1 7829:1 7830:4 7831:1 7832:1 7833:2 7834:1 7835:1 7836:1 7837:1 7838:1 7839:1 7840:1 7841:1 7842:1 7843:1 7844:1 7845:1 7846:1 7847:1 7848:1 7849:1 7850:1 7851:1 7852:1 #
-0.0018204777241551211002662524762741 1:2 17:1 18:3 19:2 69:3 70:1 74:10 113:2 139:3 172:8 173:4 220:1 224:2 242:3 263:1 274:1 313:1 318:1 319:1 327:3 347:2 355:1 383:1 427:8 430:3 450:3 493:3 545:2 563:6 573:2 596:1 658:1 662:1 663:1 794:3 861:1 1024:1 1352:1 1423:1 1555:1 1614:1 1629:1 1668:1 1768:1 1929:1 2311:2 2965:3 3071:2 3384:1 3430:1 3706:1 4754:1 4787:1 5497:1 5543:1 5639:1 5757:1 6862:1 7788:1 8145:1 10122:5 10123:1 10124:1 10125:1 10126:1 10127:1 10128:1 10129:1 10130:2 10131:1 10132:3 10133:2 10134:3 10135:1 10136:1 10137:9 10138:3 10139:2 10140:1 10141:2 10142:2 10143:3 10144:1 10145:1 10146:1 10147:1 10148:1 10149:2 10150:1 10151:1 10152:1 10153:1 10154:1 10155:1 10156:1 10157:1 10158:1 #
-0.0005520246236552897632979264308517 1:1 112:1 113:2 263:1 278:10 310:1 439:1 530:7 573:1 580:1 582:1 789:1 830:1 942:1 945:1 1341:1 1883:1 1925:1 2358:1 2462:1 2534:1 3657:1 4151:1 5318:3 5579:10 5642:1 9357:1 10240:1 10241:1 10242:1 10243:2 10244:2 10245:13 10246:1 10247:3 10248:1 10249:1 10250:1 10251:1 10252:1 10253:1 10254:2 10255:1 10256:1 10257:1 10258:1 10259:1 10260:1 10261:1 10262:1 10263:1 10264:1 10265:1 10266:1 10267:1 10268:1 10269:1 #
-0.00017310317000617900132057591644497 1:2 19:39 41:1 69:6 77:1 112:1 113:5 142:1 153:2 185:1 231:1 242:1 285:1 306:1 322:1 344:1 376:2 411:1 432:3 479:1 495:1 521:9 609:2 613:1 614:1 615:3 621:2 630:11 649:2 750:1 754:1 761:1 816:2 955:1 996:1 1018:5 1076:2 1077:3 1079:1 1087:3 1091:1 1094:11 1095:1 1108:5 1114:1 1115:1 1120:4 1143:2 1145:1 1153:2 1303:1 1364:1 1401:1 1540:1 1725:3 2018:1 2170:2 2216:1 2346:6 2352:1 2465:1 2667:1 2680:1 2876:1 2878:1 3030:1 3088:1 3231:1 3282:1 3453:1 3755:2 3757:1 3850:1 4069:1 4070:1 4071:1 4151:1 4388:2 6216:18 6221:2 6275:1 6457:1 6784:1 7083:1 8299:1 8305:1 9219:1 9221:1 10383:3 11295:1 12511:1 14064:1 14356:1 14370:12 14387:2 14388:4 14393:2 14394:32 15804:1 16003:1 16094:1 16393:1 16688:1 16711:1 18583:1 22706:1 22707:1 22708:1 22709:2 22710:2 22711:1 22712:1 22713:1 22714:1 22715:1 22716:1 22717:1 22718:1 22719:1 22720:1 22721:1 22722:1 22723:1 22724:1 22725:1 22726:1 22727:1 22728:1 22729:1 22730:1 22731:1 22732:1 22733:1 22734:1 22735:1 22736:1 22737:1 22738:1 22739:8 22740:1 22741:3 22742:1 22743:8 22744:24 22745:24 22746:8 22747:8 22748:8 22749:8 22750:1 22751:1 22752:2 22753:1 22754:1 22755:1 22756:1 22757:1 22758:1 22759:1 22760:1 22761:1 22762:1 22763:1 22764:1 22765:1 22766:2 22767:1 22768:1 22769:1 22770:1 22771:1 22772:1 22773:1 22774:1 22775:1 22776:1 22777:1 22778:1 22779:1 22780:1 22781:1 22782:1 22783:1 22784:1 #
-0.0023892317400795522359946421175891 1:1 69:1 84:2 113:1 130:1 172:5 173:3 284:2 310:1 327:1 545:2 663:2 788:2 807:1 830:1 1054:2 1156:1 1344:4 1555:1 1751:1 1829:3 2216:1 3890:2 5281:1 5301:1 5302:1 5303:1 28325:1 28326:1 28327:1 28328:1 28329:1 28330:2 28331:1 28332:1 28333:1 28334:1 #
0.0046557034836236348140925400684864 18:1 29:1 31:1 76:1 108:1 112:4 113:1 121:1 169:2 180:1 182:1 206:1 231:1 242:1 258:1 355:1 409:1 422:1 427:1 570:1 609:2 621:2 630:5 631:1 637:1 643:2 644:1 648:1 649:2 754:1 816:1 955:4 961:1 968:2 1074:1 1075:1 1076:1 1077:1 1078:1 1079:1 1080:1 1081:1 1082:1 1083:1 1084:2 1085:1 1086:1 1087:2 1088:2 1089:1 1090:1 1091:1 1092:1 1093:1 1094:6 1095:2 1096:1 1097:1 1098:1 1099:1 1100:1 1101:1 1102:1 1103:1 1104:1 1105:1 1106:3 1107:1 1108:1 1109:1 1110:1 1111:1 1112:1 1113:1 1114:1 1115:1 1116:1 1117:1 1118:1 1119:1 1120:2 1121:1 1122:1 1123:1 1124:1 1125:1 1126:1 1127:1 1128:1 1129:1 1130:1 1131:2 1132:1 1133:1 1134:1 1135:1 1136:1 1137:1 1138:1 1139:1 1140:1 1141:2 1142:1 1143:1 1144:1 1145:1 1146:1 1147:1 1148:1 1149:1 1150:1 1151:1 1152:1 1153:1 1154:1 #
0.0046557034836236348140925400684864 7:1 18:2 23:3 27:2 34:1 74:3 108:2 112:5 113:1 116:1 142:1 143:1 160:1 161:1 164:10 172:1 173:1 180:3 189:2 192:3 198:1 228:1 229:1 233:2 249:4 253:1 268:1 376:1 399:1 401:2 404:1 408:1 409:2 416:1 425:1 437:4 450:1 496:1 501:1 563:6 574:1 657:1 776:2 794:5 816:1 824:1 899:6 978:4 1108:2 1481:1 1502:2 1595:1 1619:1 1825:1 2214:4 2215:1 2216:1 2217:2 2218:1 2219:1 2220:1 2221:1 2222:2 2223:1 2224:1 2225:1 2226:1 2227:1 2228:1 2229:1 2230:1 2231:1 2232:1 2233:1 2234:3 2235:1 2236:1 2237:1 2238:2 2239:2 2240:1 2241:4 2242:1 2243:1 2244:1 2245:2 2246:1 2247:1 2248:1 2249:1 2250:1 #
0.00081900233602243046465707365655362 1:1 9:5 10:7 15:3 18:6 19:5 29:5 82:1 112:3 113:1 116:1 121:1 129:1 130:1 169:6 174:8 182:2 233:1 236:1 257:1 271:2 272:4 317:3 326:1 371:3 375:2 383:9 399:4 423:1 472:1 487:10 545:1 570:1 597:2 612:3 664:1 675:1 676:1 677:2 678:1 679:1 680:2 681:2 682:2 683:2 684:1 685:1 686:1 687:1 688:1 689:1 690:1 691:1 692:4 693:2 694:1 695:2 696:1 697:1 698:1 699:1 700:1 701:1 702:1 703:1 704:1 705:1 706:1 707:1 708:1 709:3 710:1 711:1 712:1 713:1 714:1 715:3 716:2 717:2 718:7 719:3 720:3 721:1 722:2 723:4 724:8 725:3 726:4 727:1 728:1 729:1 730:5 731:1 732:1 733:1 734:1 735:1 736:1 737:3 738:1 739:1 740:1 741:1 742:1 743:1 744:1 745:1 746:1 747:1 748:1 749:1 750:2 751:1 752:2 753:4 754:1 755:1 756:5 757:1 758:1 759:1 760:2 761:2 762:1 763:2 764:1 765:1 766:2 767:2 768:1 769:2 770:1 771:1 772:1 773:1 774:1 775:1 776:1 777:1 778:1 779:1 780:1 #
0.0038955480169511691804218322943143 1:2 2:1 6:4 9:1 18:6 19:6 74:1 76:1 77:1 82:1 108:8 112:4 113:1 115:1 117:1 121:1 139:2 146:1 153:2 160:1 164:10 165:1 192:1 257:1 285:1 310:1 318:1 324:3 325:1 327:1 341:1 355:2 384:1 399:1 464:5 470:1 492:1 553:1 563:1 629:2 663:2 665:1 805:1 820:1 821:1 869:1 883:4 1054:2 1293:2 1298:7 1299:1 1300:1 1301:1 1302:1 1303:2 1304:1 1305:1 1306:1 1307:1 1308:1 1309:2 1310:1 1311:1 1312:1 1313:3 1314:1 1315:1 1316:1 1317:2 1318:2 1319:1 1320:1 1321:1 1322:1 1323:1 1324:1 1325:1 1326:2 1327:1 1328:1 1329:1 1330:1 1331:1 1332:1 1333:1 1334:1 1335:1 1336:1 1337:1 1338:1 1339:1 1340:1 1341:3 1342:2 1343:2 1344:2 1345:2 1346:2 1347:5 1348:2 1349:1 1350:3 1351:2 1352:1 1353:1 1354:1 1355:3 1356:1 1357:1 1358:1 1359:1 1360:1 1361:1 #
0.0046557034836236348140925400684864 9:1 18:2 76:1 77:1 108:2 112:3 113:2 130:1 172:1 206:1 226:1 231:1 408:1 427:1 430:1 437:1 441:1 590:1 591:1 592:1 593:1 594:1 595:1 596:1 597:1 598:1 599:2 600:1 601:1 602:2 603:1 604:1 605:1 606:1 607:1 608:1 609:2 610:1 611:2 612:1 613:1 614:5 615:1 616:2 617:1 618:1 619:1 620:1 621:2 622:1 623:1 624:1 625:1 626:1 627:1 628:1 629:1 630:2 631:1 632:1 633:1 634:2 635:1 636:2 637:2 638:1 639:1 640:1 641:1 642:1 643:1 644:1 645:1 646:1 647:1 648:1 649:1 #
-0.00065001917509169033094346135115416 7:1 18:3 146:2 153:2 180:2 206:2 284:1 361:3 521:1 536:2 583:1 651:2 663:1 816:1 934:1 978:1 984:4 1059:1 1154:1 1363:2 1389:1 1447:1 1553:1 1814:3 2059:1 2198:1 2372:1 2454:1 2593:1 2773:1 3005:1 3048:5 3265:2 3324:1 4577:1 4823:2 5503:2 8288:1 9691:1 9692:4 9693:1 9694:1 9695:1 #
-3.3959446049403865450222461674912e-05 1:1 7:1 113:1 153:1 174:1 223:1 242:1 272:1 355:3 368:1 399:2 472:1 482:1 545:1 612:3 629:1 669:2 696:1 697:1 698:1 699:1 700:1 701:1 702:1 703:1 797:2 821:1 1059:1 1169:1 1710:1 1770:1 3135:1 4508:1 4832:1 8022:1 8378:1 9519:1 10762:1 15501:1 15502:1 15503:1 16477:1 19352:1 21131:2 25594:1 26638:1 30844:1 30845:2 30846:1 30847:3 30848:1 30849:1 30850:1 30851:1 30852:1 30853:1 30854:1 30855:1 30856:1 30857:1 #
-0.00073139395291556838843427534868624 4:2 27:2 112:9 113:3 129:2 142:1 143:1 268:3 286:1 371:4 630:15 673:1 678:1 679:1 680:1 681:1 996:1 1094:15 1095:3 1772:1 2398:1 3218:2 3977:1 4634:1 5776:1 6309:2 8635:1 9626:1 10396:3 10926:1 25236:1 28571:1 28572:1 28573:2 28574:4 28575:1 28576:1 28577:9 28578:1 28579:1 #
-0.00019262929586557502904808902854938 7:1 146:1 249:3 336:1 573:4 691:3 890:2 2098:1 2846:1 3056:1 4044:1 4464:1 6681:1 8768:1 16803:1 16804:1 16805:1 16806:1 16807:1 16808:1 #
0.0036025737332056129505475361440858 1:1 9:3 15:1 16:1 18:3 19:2 113:3 140:1 154:1 165:1 172:3 173:2 174:1 191:1 278:2 399:2 464:1 530:1 545:8 590:1 783:1 788:8 794:2 797:4 805:2 825:1 826:1 827:1 828:1 829:1 830:2 831:1 832:1 833:1 834:4 835:5 836:3 837:2 838:1 839:1 840:6 841:1 842:2 843:2 844:2 845:1 846:3 847:2 848:1 849:1 850:3 851:5 852:3 853:4 854:4 855:2 856:2 857:2 858:2 859:2 860:5 861:2 862:5 863:1 864:2 865:1 866:1 867:1 868:2 869:2 870:1 871:1 872:1 873:1 874:1 875:1 876:1 877:1 878:1 879:1 880:2 881:3 882:2 883:3 884:2 885:1 886:1 887:1 888:1 889:1 890:4 891:1 892:1 893:1 894:1 895:1 896:1 897:1 898:1 #
0.0046557034836236348140925400684864 1:2 3:3 4:1 6:1 9:4 18:2 113:2 140:1 173:7 234:1 285:1 471:2 475:2 675:1 690:1 788:1 825:1 913:1 935:2 1054:3 1814:1 1815:1 1816:1 1817:2 1818:2 1819:1 1820:1 1821:1 1822:1 1823:1 1824:2 1825:1 1826:1 1827:1 1828:1 1829:1 1830:1 1831:1 1832:1 1833:1 1834:1 1835:1 1836:1 1837:1 1838:1 #
0.0046557034836236348140925400684864 9:3 18:5 74:8 130:1 142:1 143:1 146:1 172:1 173:1 182:2 185:1 192:1 219:1 220:1 401:1 404:1 463:1 668:4 782:2 794:1 809:1 820:3 1042:1 1300:1 1495:1 1497:1 1506:1 1609:1 1629:1 1741:1 1742:1 1743:1 1744:1 1745:1 1746:1 1747:1 1748:1 1749:1 1750:1 1751:1 1752:1 1753:1 1754:1 1755:1 1756:1 1757:1 1758:1 1759:1 1760:1 #
0.0046557034836236348140925400684864 1:1 5:2 9:2 15:1 18:2 19:1 76:1 77:2 82:1 108:1 112:2 113:3 114:2 150:1 172:3 173:2 223:1 268:1 272:1 305:1 335:1 341:1 355:1 402:1 415:1 418:2 430:1 432:2 437:2 464:1 501:2 521:2 706:1 718:1 776:1 788:1 789:1 810:1 825:1 876:1 883:2 938:1 1449:3 1450:2 1451:1 1452:1 1453:3 1454:1 1455:2 1456:1 1457:1 1458:1 1459:1 1460:1 1461:1 1462:1 1463:1 1464:4 1465:1 1466:7 1467:2 1468:2 1469:2 1470:2 1471:2 1472:1 1473:1 1474:2 1475:2 1476:1 1477:1 1478:1 1479:1 1480:1 1481:1 1482:1 1483:1 1484:1 #
-0.00044092377256213180101648840825135 18:1 23:2 29:1 112:3 113:3 142:1 180:2 197:1 268:3 305:1 318:1 323:1 344:1 355:2 399:21 427:13 430:1 447:7 494:1 497:7 501:2 504:8 512:1 530:2 537:1 656:1 664:2 691:2 776:1 787:4 789:4 794:1 797:15 869:1 945:1 1024:2 1035:4 1077:1 1303:1 1352:2 1471:3 1481:4 1509:1 1512:4 1539:3 1833:1 2236:1 2241:26 2475:2 2479:2 2557:9 3573:10 3804:1 3814:2 3863:1 4005:1 4445:1 4534:1 4692:2 4757:2 4760:1 5275:9 6435:1 6617:3 7469:1 10579:1 10580:1 10581:1 10582:1 10583:4 10584:1 10585:1 10586:1 10587:4 10588:4 10589:3 10590:6 10591:5 10592:5 10593:1 10594:1 10595:3 10596:3 10597:3 10598:1 10599:1 10600:1 10601:1 10602:1 10603:1 10604:1 10605:1 10606:1 10607:2 10608:1 #
-3.2566453735478578085903167416149e-05 1:1 18:1 27:1 113:2 116:1 122:1 123:1 169:2 242:2 257:1 268:1 272:2 291:1 308:2 375:1 379:1 545:1 613:4 614:18 615:1 616:1 729:1 797:1 917:1 928:1 974:1 993:3 996:4 1031:1 1460:2 1725:3 1966:2 2017:1 2018:2 2226:2 2530:1 2561:1 2631:1 2878:1 2882:2 3139:5 3260:3 3273:1 3389:1 3657:1 4144:1 4169:1 4653:1 4756:1 4900:1 5001:4 5075:1 5658:1 5715:2 6570:1 6783:1 6784:1 8296:5 8305:1 8320:1 8915:1 9627:4 9693:1 10289:2 10290:1 10291:1 10292:1 10293:1 10294:1 10295:1 10296:1 10297:1 10298:1 10299:2 10300:1 10301:1 10302:1 10303:1 10304:1 10305:1 10306:1 10307:2 #
-0.00025410429793255759041772923190194 1:1 5:2 7:1 15:5 18:2 19:2 27:2 34:4 63:5 68:1 72:2 74:1 77:1 95:5 112:1 113:2 115:1 117:1 121:1 128:1 130:3 139:1 140:1 142:1 160:1 162:2 169:23 174:3 180:1 218:1 222:1 236:1 242:6 258:1 271:3 272:2 278:2 291:3 329:1 345:2 347:1 351:1 355:2 379:2 383:1 389:1 399:2 418:1 443:1 471:1 496:1 545:1 596:1 612:10 655:1 673:1 691:1 696:3 697:3 698:3 699:3 700:3 701:3 702:2 703:2 709:3 776:2 787:1 788:3 789:3 797:1 816:3 820:1 945:1 994:1 997:1 1007:2 1077:1 1094:1 1154:2 1169:1 1179:1 1330:2 1377:1 1394:1 1395:1 1423:6 1431:1 1470:1 1471:1 1555:2 1600:1 1619:1 1745:1 1764:1 1789:2 1815:1 1843:6 1922:2 1965:1 2018:1 2045:1 2069:30 2096:1 2210:1 2226:4 2279:4 2346:4 2454:1 2633:6 2638:1 2706:1 2780:1 2791:1 3068:1 3205:2 3263:3 3279:2 3321:1 3456:4 3516:1 3582:1 3592:2 3858:1 4036:1 4045:1 4405:6 4472:1 4510:1 4534:1 4670:1 4731:1 4855:1 4923:3 4929:1 5177:1 5497:8 5504:1 5567:1 5607:1 5708:1 6674:1 6724:1 7293:1 7397:1 7695:1 7775:1 8817:1 9143:2 9375:1 9464:1 9530:2 9794:1 10090:1 10303:2 10467:2 11989:3 12125:1 12443:2 12575:1 12613:1 12731:1 13622:3 14068:1 16361:4 16625:1 16626:1 17058:1 17208:3 17834:2 18375:2 18412:1 18585:1 18872:1 19282:1 20714:1 21034:1 21507:2 22790:1 23013:1 23816:1 24738:1 26220:1 26221:2 26410:1 26411:1 26412:1 26413:1 26414:5 26415:1 26416:1 26417:2 26418:1 26419:1 26420:1 26421:1 26422:1 26423:1 26424:2 26425:1 26426:1 26427:2 26428:3 26429:1 26430:1 26431:1 26432:1 26433:1 26434:1 26435:1 26436:1 26437:1 26438:2 26439:1 26440:1 26441:1 26442:1 26443:1 26444:1 26445:1 26446:1 26447:1 26448:3 26449:1 26450:1 26451:1 26452:1 26453:2 26454:1 26455:1 26456:1 26457:2 26458:3 26459:1 26460:1 26461:1 26462:1 26463:1 26464:1 26465:1 26466:1 26467:1 26468:2 26469:1 26470:4 26471:4 26472:1 26473:1 26474:1 26475:3 26476:1 26477:1 26478:1 26479:1 26480:1 26481:1 26482:2 26483:1 26484:1 26485:1 26486:1 26487:1 26488:1 26489:3 26490:1 26491:1 26492:1 26493:1 26494:1 26495:4 26496:1 26497:1 26498:1 26499:1 26500:1 26501:1 26502:1 26503:1 26504:1 26505:1 26506:1 26507:1 26508:1 26509:2 26510:1 26511:1 #
-0.003074750307336434305971462066509 1:4 9:1 10:1 18:6 19:3 27:1 34:2 63:1 69:2 74:1 75:1 76:1 82:1 108:1 112:2 113:1 114:1 116:3 160:1 164:10 172:4 173:4 182:2 185:1 192:3 253:4 272:3 285:2 308:1 310:1 325:4 327:3 329:3 355:2 399:2 402:1 409:2 416:1 428:2 430:2 432:3 443:1 447:1 450:1 488:1 501:1 527:1 530:4 545:1 563:4 572:1 575:1 595:1 596:1 656:3 660:1 664:1 709:1 710:3 787:2 797:1 821:3 899:4 934:1 935:1 1054:4 1063:5 1229:1 1285:2 1359:1 1377:1 1451:1 1496:1 1506:1 1555:1 1560:1 1678:4 1803:1 1840:3 2018:1 2210:1 2226:1 2284:2 2351:1 2355:1 2370:4 2420:1 2461:1 2706:1 3389:2 3494:1 3582:1 3634:2 4426:1 4452:1 4550:2 5095:1 5249:1 5960:1 6290:1 6346:4 7506:1 7899:1 8810:1 9329:1 12598:1 20337:1 20338:1 20339:3 20340:5 20341:5 20342:5 20343:1 20344:1 20345:1 20346:1 20347:1 20348:1 20349:1 20350:1 20351:2 20352:6 20353:2 20354:1 20355:2 20356:1 20357:1 20358:1 20359:1 20360:1 #
-0.0020927374263231229671589073149107 1:2 6:3 113:2 148:1 156:1 164:14 165:1 198:1 268:1 271:1 278:1 336:1 497:3 521:1 573:1 595:1 788:2 789:2 805:1 807:1 830:1 869:2 1359:1 1539:1 1555:8 1752:1 1883:1 2818:3 3000:1 3343:1 3501:1 3889:3 3890:1 3891:1 4002:1 4003:1 4157:1 4404:1 4796:1 5349:4 5740:1 6408:2 7725:2 8060:1 9921:2 19012:3 20030:2 20031:1 20032:1 20033:2 20034:3 20035:1 20036:1 20037:1 20038:1 20039:1 20040:1 20041:1 20042:1 20043:1 20044:1 20045:1 20046:1 20047:1 20048:3 20049:1 20050:1 20051:1 20052:1 20053:1 20054:1 20055:1 20056:1 20057:1 20058:1 20059:1 20060:1 20061:1 20062:1 20063:1 20064:1 20065:1 20066:1 20067:1 20068:1 20069:1 20070:1 20071:1 20072:1 20073:1 20074:1 #
0.0046557034836236348140925400684864 1:2 108:1 113:4 130:1 154:1 164:1 172:2 192:2 223:1 253:1 268:3 319:1 355:5 416:1 437:1 512:1 861:1 927:1 942:1 1557:1 1620:1 1677:1 1678:1 1679:1 1680:1 1681:2 1682:1 1683:1 1684:1 1685:2 1686:2 1687:1 1688:1 1689:1 1690:3 1691:1 1692:2 1693:1 1694:1 1695:1 1696:1 1697:1 1698:1 1699:1 1700:1 1701:1 1702:2 1703:1 1704:1 1705:1 1706:1 #
0.0046557034836236348140925400684864 1:1 18:5 19:1 34:1 74:1 76:1 77:2 108:2 112:2 113:4 164:2 172:5 173:1 182:1 226:1 231:1 242:4 268:1 294:1 358:1 401:1 404:1 405:2 406:1 407:1 408:1 409:2 410:1 411:1 412:1 413:1 414:1 415:2 416:1 417:2 418:2 419:1 420:1 421:3 422:1 423:1 424:1 425:1 426:1 427:1 428:1 429:1 430:4 431:2 432:2 433:1 434:1 435:1 436:1 437:1 438:1 439:1 440:1 441:1 442:1 443:1 444:1 445:1 446:1 447:1 448:1 449:1 450:1 451:1 452:1 453:1 454:1 455:1 456:1 457:1 458:1 459:1 460:1 #
0.0046557034836236348140925400684864 1:1 7:1 9:2 27:1 31:1 113:3 116:1 160:1 173:2 185:3 220:1 231:1 284:1 285:1 387:1 614:1 630:3 633:1 637:1 643:4 644:1 646:1 648:1 767:1 813:1 824:1 943:1 961:1 980:1 1094:2 1137:1 1363:1 1440:1 2064:1 2236:1 2251:1 2252:2 2253:1 2254:1 2255:1 2256:1 2257:1 2258:1 2259:1 2260:1 2261:1 2262:1 2263:1 2264:1 2265:1 2266:2 2267:2 2268:1 2269:1 2270:1 2271:1 2272:1 2273:1 2274:1 #
-0.0046557034836236348140925400684864 1:1 9:5 70:1 113:1 173:3 174:1 268:1 271:1 324:2 329:2 355:1 430:1 545:2 587:1 840:2 841:1 858:1 859:1 860:1 868:2 1476:1 1481:2 1526:1 1533:1 1809:1 2633:1 3334:1 5059:1 6109:1 9256:1 17379:1 17380:3 17381:1 17382:1 17383:1 17384:1 17385:2 17386:1 17387:1 17388:1 #
-0.0020452404303521296187462485960395 1:1 19:1 76:1 77:3 85:2 86:2 108:1 112:9 113:2 130:1 160:2 161:1 172:5 223:1 226:1 258:1 268:1 310:1 324:5 355:1 370:1 406:1 408:2 415:1 431:1 432:2 437:5 609:2 621:2 630:2 631:1 633:1 637:2 643:3 644:1 645:1 648:1 649:2 776:1 794:1 1094:2 1127:1 1129:1 1145:2 1151:3 1306:2 1352:1 1377:2 1400:1 2239:2 2282:1 2355:1 2371:2 2373:10 2782:1 2889:1 3196:1 5561:1 5862:1 5863:1 5864:1 8853:1 13485:1 13650:1 14100:1 14101:1 14102:1 14103:1 14104:1 14105:1 14106:1 14107:1 14108:2 14109:1 14110:1 14111:1 14112:1 14113:1 14114:1 14115:1 14116:1 14117:1 14118:1 14119:1 14120:1 14121:1 14122:1 14123:1 14124:1 14125:1 14126:1 14127:1 14128:1 14129:1 14130:1 14131:1 #
-0.0046557034836236348140925400684864 1:1 9:3 15:2 18:2 82:2 122:1 123:1 142:1 143:1 153:1 161:1 172:1 173:1 223:1 231:1 328:4 329:2 349:1 453:1 461:1 463:4 498:1 552:1 580:1 655:2 657:1 712:3 750:1 868:1 957:1 1641:1 1710:1 1756:1 1898:1 2424:1 3582:1 3947:1 5022:1 5748:1 6901:1 8133:1 9419:1 10952:1 21779:1 24156:1 24157:1 24158:1 24159:1 24160:1 #
-0.0019207836688814061178176562094677 1:2 3:2 18:4 21:1 113:3 142:2 153:1 172:1 173:5 192:2 206:1 218:1 268:2 284:2 300:2 305:1 329:1 430:1 470:1 574:1 588:1 695:3 776:1 820:1 897:1 935:1 1229:1 1287:1 1299:1 1397:1 1629:1 1715:1 2052:1 2249:1 2514:1 2653:2 3094:1 3096:1 3268:1 3281:1 3384:1 3581:1 3748:2 4144:1 6506:2 6550:2 27487:1 30519:1 31499:1 31500:1 31501:1 31502:1 31503:1 31504:2 31505:2 31506:1 31507:1 31508:1 31509:1 31510:1 31511:1 31512:1 31513:1 31514:1 31515:1 #
0.0035285964290945686337719333636187 1:1 3:1 9:6 18:1 74:2 112:3 113:1 114:1 116:2 130:8 142:1 164:4 172:1 174:1 210:3 227:1 242:2 258:1 261:1 269:1 271:3 272:5 274:1 278:5 285:1 296:1 317:4 329:1 380:1 402:1 497:1 507:1 508:1 509:1 510:4 511:1 512:1 513:1 514:1 515:1 516:1 517:1 518:1 519:1 520:1 521:1 522:1 523:1 524:1 525:1 526:1 527:1 528:1 529:1 530:1 531:1 532:1 533:1 534:1 535:1 536:1 537:1 538:3 539:1 540:3 541:1 542:1 543:1 544:1 545:3 546:1 547:1 548:2 549:1 550:1 551:1 552:1 553:1 554:1 555:1 556:1 557:1 558:1 559:1 560:2 561:2 562:1 563:1 564:1 565:3 566:1 567:2 568:1 569:1 570:1 571:1 #
0.0042927804942201781834842932994434 1:2 10:2 18:3 19:1 29:1 113:1 121:1 142:2 143:1 153:1 174:3 222:1 252:1 324:1 336:1 355:1 393:1 399:1 427:1 470:2 530:1 596:2 613:1 788:1 836:1 897:1 982:1 983:1 984:1 985:9 986:2 987:1 988:1 989:1 990:1 991:1 992:1 993:8 994:1 995:1 996:1 997:1 998:1 999:3 1000:1 1001:1 1002:1 1003:1 1004:1 1005:1 1006:2 1007:4 1008:6 1009:2 1010:4 1011:1 1012:1 1013:6 1014:5 1015:5 1016:1 1017:4 1018:1 1019:1 1020:1 1021:2 1022:1 1023:1 1024:1 1025:1 1026:1 1027:1 1028:1 1029:1 1030:1 1031:1 1032:2 1033:2 1034:1 1035:1 1036:2 1037:2 1038:1 1039:1 1040:1 1041:1 1042:3 1043:1 1044:1 1045:4 1046:1 1047:1 1048:1 1049:2 1050:1 1051:1 1052:1 #
-0.0005569197359097282414713836473652 1:1 7:1 28:5 84:1 112:2 113:1 123:1 130:6 152:1 174:13 180:1 213:1 215:1 224:1 258:1 285:2 341:1 354:1 355:2 368:1 375:1 399:5 439:1 463:2 501:1 512:1 545:2 574:1 580:1 595:1 668:1 706:1 788:1 789:1 794:4 797:1 813:1 816:1 829:5 836:2 896:1 897:3 945:1 982:1 984:1 987:1 999:1 1002:1 1004:1 1007:1 1008:15 1009:2 1010:1 1015:20 1016:1 1023:2 1031:3 1032:6 1037:1 1190:4 1209:1 1221:1 1222:1 1223:1 1341:2 1359:1 1368:1 1371:1 1471:1 1706:1 2059:1 2064:1 2069:1 2250:1 2303:6 2422:1 2429:1 2633:1 2726:1 3151:1 3257:3 3453:1 3563:4 3856:1 3999:1 4044:2 4098:1 4240:1 4920:1 5225:2 5235:5 5400:2 5639:5 6080:1 6098:4 7179:1 7336:1 7395:1 7485:1 8820:3 8826:1 8973:1 10624:3 11760:1 16652:1 21497:1 26662:1 26663:1 26664:7 26665:1 26666:1 26667:1 26668:1 26669:1 26670:1 26671:2 26672:8 26673:2 26674:11 26675:8 26676:1 26677:2 26678:2 26679:1 26680:14 26681:4 26682:2 26683:1 26684:13 26685:2 26686:2 26687:2 26688:1 26689:2 26690:9 26691:3 26692:1 26693:3 26694:2 26695:5 26696:6 26697:4 26698:4 26699:3 26700:2 26701:9 26702:1 26703:2 26704:1 26705:1 26706:1 26707:2 26708:3 26709:3 26710:1 26711:1 26712:5 26713:2 26714:1 26715:2 26716:2 26717:1 26718:1 26719:1 26720:1 26721:5 26722:1 26723:1 26724:1 26725:1 26726:1 26727:1 26728:4 26729:1 26730:2 26731:1 26732:1 26733:4 26734:1 26735:1 26736:1 26737:1 26738:1 26739:1 26740:1 26741:1 26742:1 26743:1 26744:1 26745:1 26746:1 26747:1 26748:1 #
-0.00089458997105857761961145158124964 1:2 18:1 27:2 30:1 64:1 74:2 113:1 123:1 165:1 230:1 258:1 268:1 272:4 402:1 899:1 928:1 974:1 1363:3 1414:1 2346:1 2352:1 3068:2 4752:2 5068:1 5069:2 5070:1 5071:1 5072:1 5073:1 5074:1 5075:1 #
-0.0013419510648226902656265924207446 2:2 10:1 18:8 19:5 76:1 77:11 81:1 112:7 113:1 130:1 160:1 164:2 207:1 223:1 282:1 355:1 423:1 428:1 429:2 431:2 432:12 437:2 767:2 1000:2 1065:1 1094:4 1108:2 1293:1 1352:1 1389:3 1423:5 1557:2 1613:1 2239:2 3864:1 4056:2 14119:2 14334:1 14335:1 14336:1 14337:1 14338:2 14339:8 14340:2 14341:8 14342:10 14343:2 14344:1 14345:2 14346:2 14347:2 14348:2 14349:2 14350:2 14351:2 14352:2 14353:2 #
-0.00094937490695245520255785010022009 1:3 9:5 18:6 30:5 31:1 33:1 74:1 112:16 113:4 117:1 133:1 146:1 209:1 210:1 257:1 258:2 268:1 271:9 288:3 319:1 329:1 377:5 403:1 404:1 412:1 464:1 510:6 521:2 545:7 570:2 621:2 631:1 633:1 634:2 637:1 643:3 644:1 648:1 649:1 657:1 660:1 671:1 672:1 695:3 788:10 794:6 797:1 804:2 823:1 834:3 859:1 945:1 961:1 1153:6 1377:1 1415:1 1502:4 1549:1 1619:1 1664:1 1914:8 2164:2 2191:2 2195:1 2207:3 2548:2 2598:1 2709:1 2710:1 2806:1 2972:2 3281:1 3369:1 3639:6 3850:2 4044:1 4658:2 4831:2 5375:3 5470:1 5678:1 5733:1 6170:1 6519:1 6585:2 7042:1 7730:1 7817:2 7917:1 7921:1 9424:16 13808:1 14045:1 14046:1 15478:2 15832:3 19405:1 20328:1 20554:1 21330:1 21847:1 21848:2 21849:3 21850:1 21851:1 21852:1 21853:1 21854:1 21855:2 21856:2 21857:5 21858:1 21859:6 21860:1 21861:1 21862:2 21863:2 21864:2 21865:1 21866:1 21867:2 21868:1 21869:1 21870:1 21871:1 21872:1 21873:1 21874:2 21875:1 21876:2 21877:1 21878:1 21879:1 21880:2 21881:1 21882:1 21883:1 21884:1 21885:2 21886:1 21887:1 21888:1 21889:1 21890:1 21891:1 21892:1 21893:6 21894:1 21895:2 21896:1 21897:1 21898:3 21899:1 21900:1 21901:1 21902:1 21903:1 21904:1 21905:1 21906:1 21907:1 21908:1 21909:1 21910:1 21911:1 21912:1 21913:1 21914:2 21915:1 21916:1 21917:1 21918:1 21919:1 21920:1 21921:1 21922:1 21923:1 21924:1 21925:1 21926:1 21927:1 21928:2 21929:1 21930:1 21931:1 21932:1 21933:1 21934:1 21935:1 21936:1 21937:1 21938:1 #
-0.0021064686980893864397257342346848 31:2 63:1 112:3 113:1 121:1 130:1 169:1 226:1 258:1 272:2 284:1 285:1 407:1 482:1 609:1 621:2 631:2 643:2 648:2 816:1 913:1 1108:1 1407:1 1440:2 1767:1 2410:1 3190:1 3205:1 3524:1 3525:1 3526:1 3527:1 3528:1 3529:2 3530:1 3531:2 3532:2 3533:2 3534:1 3535:1 3536:1 3537:1 3538:1 3539:1 3540:1 3541:1 #
0.0046557034836236348140925400684864 3:1 5:4 9:2 15:1 108:1 182:1 231:1 253:4 286:1 310:1 327:1 328:2 329:1 336:1 340:1 403:2 461:2 463:1 572:1 573:1 574:2 575:1 576:1 577:1 578:1 579:1 580:1 581:1 582:1 583:1 584:1 585:1 586:1 587:1 588:1 589:1 #
0.0046557034836236348140925400684864 1:1 9:2 15:1 285:1 329:1 450:1 650:1 651:1 652:1 653:1 654:1 655:1 656:1 657:1 658:1 659:1 660:1 #
0.0046557034836236348140925400684864 1:1 5:2 9:1 15:1 18:1 19:1 29:1 121:1 123:1 152:1 328:3 371:1 423:1 463:1 573:1 596:1 691:1 861:2 1745:1 2059:1 2300:2 2301:2 2302:2 2303:1 2304:1 #
0.0046557034836236348140925400684864 1:1 6:1 9:1 113:1 123:1 169:3 220:1 482:1 821:1 899:1 900:1 901:1 902:1 903:1 904:1 905:1 906:1 907:1 908:1 909:1 910:1 911:1 912:1 913:1 #
-0.0013364704234052932237120092651139 18:2 23:1 29:3 123:3 130:1 145:1 146:1 153:1 219:1 233:2 236:1 297:1 355:2 1077:1 1191:1 1287:2 1303:1 1304:1 1397:2 1414:2 1522:1 1639:1 1810:1 2304:1 2352:1 3664:1 4556:1 4761:1 6001:1 6619:1 6958:1 9752:1 #
-0.00064056074448286205638009027651947 18:3 19:2 27:1 70:1 75:1 76:1 82:1 86:1 108:4 112:8 113:2 114:1 115:2 130:4 139:2 143:1 152:2 157:1 160:1 164:2 220:1 224:1 231:1 258:1 268:1 272:1 274:1 285:1 305:2 325:4 329:4 355:1 399:1 409:1 418:1 430:1 470:1 501:1 521:1 574:1 665:1 750:1 886:1 913:1 980:1 983:1 1070:1 1082:1 1329:1 1395:1 1451:1 1495:1 2373:1 2479:1 2561:1 2572:1 2750:1 3005:1 3168:1 3178:1 3443:1 3657:1 4890:1 7899:1 9682:1 9817:1 9848:1 10443:1 11295:1 11620:1 15803:1 16477:1 19353:1 20893:1 20914:1 23662:1 28502:1 28503:1 28504:1 28505:1 28506:1 28507:3 28508:1 28509:1 28510:1 28511:1 28512:1 28513:1 28514:1 28515:1 28516:1 28517:1 28518:1 28519:1 28520:1 #
-0.00057923694824536927847069556207771 19:10 22:1 27:1 29:5 113:2 231:1 271:2 336:2 402:1 521:4 523:3 545:1 555:6 595:3 769:1 787:1 789:8 830:2 831:1 883:2 1007:8 1010:2 1287:1 1352:1 1412:3 1431:2 1449:3 1466:3 1471:1 1475:1 1527:1 1540:2 1789:8 1791:4 2061:1 2806:2 3056:1 3239:2 3244:1 3520:1 3936:1 4169:2 5049:1 6213:1 6291:1 7694:2 7695:2 7696:2 7697:2 7952:1 8739:1 9357:2 9896:2 9923:3 9936:2 10993:2 13204:6 16193:1 18419:1 19432:1 22408:1 25073:1 27358:1 27359:1 27360:3 27361:1 27362:3 27363:1 27364:3 27365:1 27366:1 27367:4 27368:10 27369:1 27370:1 27371:2 27372:2 27373:2 27374:1 27375:1 27376:1 27377:1 27378:1 27379:1 27380:1 27381:1 27382:1 27383:1 27384:1 27385:1 27386:1 27387:1 27388:1 27389:1 27390:1 27391:3 27392:1 27393:1 #
-0.0041768995659880493731552775216187 1:1 9:5 10:3 15:1 18:1 63:1 113:1 116:1 130:3 131:2 142:1 219:1 222:1 253:2 257:1 274:6 285:1 305:1 322:1 329:2 394:1 425:1 487:1 552:1 771:1 1080:1 1163:1 1331:8 1359:1 1389:1 1451:1 1629:1 2279:1 2315:1 2316:1 2329:1 2551:2 2593:1 2638:1 2782:1 3403:1 3730:1 3909:1 4144:1 4368:2 5100:1 5532:1 6122:1 7142:1 7184:1 8311:1 10575:1 11564:1 12359:1 17639:1 17909:1 18249:1 20157:3 20158:2 23533:1 23688:1 27505:1 29844:1 29845:1 29846:1 29847:1 29848:1 29849:1 29850:1 29851:1 29852:1 29853:1 29854:1 #
-0.00064422216881844561811587546173996 1:1 2:1 112:2 113:4 161:1 180:8 258:2 263:3 272:1 290:1 291:6 297:1 319:2 336:3 344:1 368:1 369:12 387:9 399:8 439:2 545:14 665:6 788:12 797:11 816:4 883:14 986:2 994:1 1341:3 1540:1 1604:1 1765:5 1825:1 1922:2 1940:1 2051:4 2061:1 2227:1 2251:1 3081:1 3269:1 3430:7 3436:2 3648:1 3842:1 4456:1 5186:1 5549:1 5655:2 5705:7 6107:2 6768:4 8745:1 12857:1 13068:1 13210:3 17005:5 18853:2 19779:2 24495:1 24496:1 24497:11 24498:1 24499:15 24500:1 24501:2 24502:1 24503:1 24504:4 24505:5 24506:1 24507:2 24508:2 24509:1 24510:1 24511:2 24512:1 24513:4 24514:1 24515:3 24516:1 24517:4 24518:6 24519:6 24520:1 24521:1 24522:2 24523:1 24524:2 24525:1 24526:3 24527:1 24528:1 24529:3 24530:3 24531:1 24532:2 #
-4.7114485757845354994399061920873e-05 113:3 126:1 130:5 139:2 142:2 146:2 154:1 159:2 160:6 170:1 180:1 218:2 231:1 268:3 272:2 310:3 361:3 376:1 379:1 425:16 453:1 472:1 495:2 496:1 530:1 562:21 574:1 620:2 829:2 834:1 883:3 934:3 1156:1 1210:1 1221:2 1397:2 1407:2 1508:1 1522:1 1619:3 1771:1 1779:1 1858:2 1898:1 1900:1 1937:1 1963:1 2059:1 2159:1 2210:2 2223:1 2280:1 2304:2 2676:1 2848:2 2908:1 3006:1 3094:1 3280:1 3400:1 3440:1 3453:2 3581:1 3914:2 3923:2 3962:1 4941:4 5434:6 5489:1 5537:2 5549:2 5598:1 5705:1 6021:1 6043:3 7209:1 7210:1 7251:1 8371:1 9814:2 10443:3 11595:1 14526:2 14677:1 14682:1 14685:1 14688:1 14689:1 14695:1 14700:1 14707:1 14708:1 17107:2 19231:1 21701:1 24485:4 24486:3 26753:7 27993:2 27994:1 27995:2 27996:6 27997:1 27998:1 27999:1 28000:1 28001:1 28002:2 28003:2 28004:2 28005:2 28006:1 28007:3 28008:1 28009:1 28010:1 28011:1 28012:2 28013:1 28014:1 28015:12 28016:1 28017:2 28018:2 28019:2 28020:3 28021:2 28022:1 28023:1 28024:1 28025:1 28026:1 28027:1 28028:1 28029:2 28030:1 28031:1 28032:1 28033:1 28034:1 28035:1 28036:1 28037:1 28038:1 28039:1 28040:1 28041:1 28042:1 28043:1 28044:1 28045:1 28046:1 28047:1 28048:1 28049:1 28050:1 28051:1 28052:1 28053:1 28054:1 28055:1 28056:1 28057:1 28058:1 28059:1 28060:1 28061:1 28062:1 28063:1 28064:1 28065:1 28066:1 28067:1 28068:1 28069:1 28070:1 28071:2 28072:1 28073:1 28074:1 28075:1 28076:1 28077:1 28078:2 28079:3 28080:1 28081:2 28082:1 28083:1 28084:2 28085:4 28086:6 28087:1 28088:3 28089:1 28090:1 28091:1 28092:1 28093:2 28094:2 28095:1 28096:2 28097:1 28098:1 28099:1 #
-0.00044199369545846372078767849700398 112:57 113:1 179:1 192:42 278:1 297:1 317:17 355:1 361:1 426:1 783:1 834:1 836:7 1217:1 1293:1 1471:1 1593:1 1619:1 1845:1 2066:1 2223:1 2844:2 2972:1 3090:1 3404:1 3679:1 3851:1 3865:1 4381:1 4921:1 6201:1 6847:15 6849:1 6888:1 7081:1 7082:1 7083:1 7084:1 7085:8 7086:1 7087:1 7088:1 7089:2 7090:14 7091:1 7092:1 7093:1 7094:1 7095:1 7096:1 7097:1 7098:1 7099:1 #
0.0020134844518766119303432304832313 1:1 3:1 4:1 7:1 15:3 16:1 18:9 27:1 70:2 113:2 117:3 121:1 130:2 154:1 165:1 180:1 206:1 213:1 215:1 253:1 255:1 268:1 317:1 324:5 325:4 347:1 355:1 361:1 368:1 375:2 387:6 421:5 423:7 427:2 447:1 461:2 463:3 560:1 562:1 668:1 679:1 680:3 681:2 687:1 709:2 716:1 810:1 820:1 868:1 869:2 942:1 1003:2 1004:2 1014:2 1015:1 1065:1 1155:1 1156:1 1157:2 1158:2 1159:1 1160:1 1161:1 1162:1 1163:1 1164:2 1165:2 1166:2 1167:1 1168:1 1169:4 1170:1 1171:2 1172:1 1173:6 1174:1 1175:1 1176:1 1177:1 1178:1 1179:1 1180:3 1181:1 1182:1 1183:1 1184:1 1185:1 1186:5 1187:1 1188:3 1189:1 1190:1 1191:1 1192:1 1193:1 1194:1 1195:4 1196:1 1197:1 1198:1 1199:4 1200:1 1201:1 1202:1 1203:1 1204:1 1205:1 1206:18 1207:2 1208:2 1209:1 1210:2 1211:2 1212:2 1213:1 1214:1 1215:1 1216:1 1217:1 1218:1 1219:3 1220:3 1221:3 1222:3 1223:3 1224:3 1225:2 1226:1 1227:2 1228:1 1229:1 1230:7 1231:1 1232:1 1233:6 1234:1 1235:1 1236:1 1237:1 1238:1 1239:1 1240:2 1241:1 1242:1 1243:1 1244:2 1245:2 1246:2 1247:2 1248:2 1249:1 1250:1 1251:1 1252:1 1253:2 1254:1 1255:1 1256:1 1257:1 1258:3 1259:1 1260:1 1261:1 1262:1 1263:1 1264:1 1265:1 1266:1 1267:1 1268:1 1269:1 1270:1 1271:1 1272:1 1273:1 1274:1 1275:1 1276:1 1277:2 1278:1 1279:1 1280:1 #
-0.00036315812271735996383942302045966 1:1 7:1 18:2 19:1 29:2 188:2 197:1 305:1 317:2 324:4 986:4 1001:1 1197:5 1751:1 1768:3 2195:1 2534:1 2790:2 3453:1 5413:1 10952:1 11760:2 17711:1 17712:1 17713:1 17714:1 17715:1 17716:1 17717:1 17718:1 #
-0.0011158938116137674754352326900175 1:1 7:1 19:1 69:1 70:1 84:1 113:1 130:2 172:1 173:1 229:1 272:1 278:2 305:1 325:1 327:1 336:1 691:1 935:1 1054:1 1223:2 1293:2 1344:1 1348:1 1352:1 1385:1 1407:1 2250:1 2315:1 2316:1 2335:1 3890:1 5674:1 9829:1 9830:1 9831:1 9832:1 9833:1 9834:1 9835:2 9836:2 9837:3 9838:3 9839:3 9840:2 9841:1 9842:1 9843:1 9844:1 9845:2 9846:1 9847:1 9848:1 9849:4 9850:1 9851:1 9852:1 9853:1 9854:1 #
-0.0022029790568897024589933852922741 23:1 74:3 114:1 297:1 426:1 1840:1 2391:1 2392:1 2393:1 2394:3 2395:2 2396:1 2397:1 #
-0.0046557034836236348140925400684864 1:2 9:1 33:1 74:3 108:1 165:1 213:1 227:1 562:1 574:1 897:1 1502:1 7453:1 9797:1 16772:1 16773:1 16774:1 #
-0.00057456108732814462417004541805454 1:1 74:5 153:1 177:1 185:1 220:1 231:1 239:2 300:1 306:7 501:1 668:1 816:1 896:1 998:1 1007:1 1382:2 1502:1 2098:5 2358:1 2370:1 3008:1 3272:1 3494:6 4656:1 4698:3 6672:1 7088:1 12388:1 17204:1 20643:1 22772:3 24931:1 24932:2 24933:4 24934:1 #
0.0046557034836236348140925400684864 9:2 18:1 75:1 84:1 154:1 170:1 173:3 305:1 318:1 355:9 496:1 873:6 1076:1 1281:1 1282:1 1283:1 1284:3 1285:1 1286:6 1287:1 1288:1 1289:1 1290:1 1291:1 1292:1 1293:1 1294:2 1295:1 1296:1 1297:1 #
-0.0033401229119846857426590069906069 1:1 10:2 15:2 18:2 35:1 131:4 162:2 164:8 177:1 182:1 258:1 294:1 326:1 347:3 354:1 355:8 364:4 386:2 470:1 471:3 481:1 494:1 496:1 545:1 575:1 656:1 820:1 883:1 914:2 1163:1 1481:2 1485:1 1604:2 1620:1 1629:1 1815:1 1843:2 1885:1 2203:1 2279:1 2328:1 2405:1 2553:3 2554:2 3812:1 3816:4 4158:1 4550:1 5532:1 5699:1 5987:1 6469:1 7260:3 7471:1 10303:1 11267:1 11268:4 11269:1 11270:1 11271:1 11272:1 11273:3 11274:1 11275:1 11276:1 11277:1 11278:2 11279:1 11280:1 11281:1 11282:1 11283:1 11284:1 11285:2 11286:1 11287:1 11288:1 #
-0.00052057732076548821325417959471338 1:3 113:1 121:1 355:2 375:4 672:4 729:1 788:7 890:1 1299:1 1887:2 1930:1 2224:3 2315:1 2316:1 3791:3 3797:1 4405:1 4756:3 6080:1 6726:1 7338:1 13111:1 13112:1 13113:2 13114:2 13115:1 13116:1 13117:1 13118:1 13119:1 13120:1 13121:1 13122:1 13123:1 13124:1 13125:1 13126:1 13127:1 #
-0.00053278526741915271502242346102207 1:1 11:3 64:1 75:1 95:4 113:1 121:1 143:1 152:3 174:13 187:2 272:2 317:3 347:1 375:4 383:2 399:1 464:1 501:1 545:1 596:1 676:1 709:2 729:2 868:1 883:2 945:1 998:1 1078:2 1336:1 1507:1 1749:1 1965:1 2302:1 2844:10 3102:2 3329:3 3396:1 3665:1 3931:1 3947:1 4027:1 4395:1 5249:2 6191:1 6242:1 6846:1 7420:1 9004:5 9227:1 9557:1 10201:1 11301:1 11332:1 11507:1 11739:3 14871:1 16316:1 18843:3 19413:2 19416:2 19422:1 21075:1 21076:2 21077:2 21078:1 21079:1 21080:2 21081:1 21082:1 21083:1 21084:1 21085:1 21086:1 21087:1 21088:1 21089:1 21090:1 21091:1 21092:1 21093:1 21094:1 21095:1 21096:1 21097:1 21098:1 21099:1 21100:2 21101:1 21102:1 21103:1 21104:1 21105:2 21106:1 21107:1 21108:1 21109:1 21110:1 21111:1 21112:1 21113:2 21114:1 21115:1 21116:1 21117:1 21118:1 21119:1 21120:1 21121:1 21122:1 21123:1 21124:1 21125:1 21126:1 21127:1 21128:1 21129:2 21130:1 21131:1 21132:1 21133:1 21134:1 21135:1 21136:2 21137:1 21138:1 21139:1 21140:1 21141:2 21142:5 21143:1 21144:2 21145:3 21146:1 21147:1 21148:2 21149:1 21150:1 21151:1 21152:1 21153:1 21154:1 21155:1 21156:1 21157:1 21158:3 21159:1 21160:1 21161:1 21162:1 21163:1 21164:1 21165:1 21166:1 #
-0.00041473922951413264882669640343238 1:1 2:1 7:1 19:5 69:1 82:3 113:1 134:1 139:2 146:1 147:1 183:1 192:2 258:1 268:1 272:1 278:3 296:3 344:1 379:1 574:1 694:1 816:2 824:2 883:3 927:1 1054:2 1077:1 1276:1 1293:1 1352:1 1359:2 1394:1 1401:1 1471:2 1481:1 1540:1 1593:1 1600:1 1604:1 1638:1 1748:1 1867:2 2315:1 2316:1 2323:1 2467:1 2479:1 2632:5 3273:1 3513:1 3890:1 4068:1 4288:1 4656:1 4801:1 4887:4 4888:1 4889:1 4890:1 4891:1 4892:1 4893:1 4894:1 4895:1 4896:1 4897:1 4898:1 4899:1 4900:1 4901:1 4902:1 4903:1 4904:1 4905:1 4906:1 4907:4 4908:3 4909:6 4910:1 4911:1 4912:1 4913:1 4914:1 4915:1 4916:1 4917:1 4918:1 4919:3 4920:1 4921:1 4922:1 #
-0.0038309239369746640561931183555089 1:1 6:2 18:1 286:1 355:2 379:1 383:2 402:1 509:1 510:1 680:1 709:1 828:1 869:2 883:1 1227:1 2788:1 5981:1 19466:1 #
0.0046557034836236348140925400684864 1:2 9:1 121:1 152:1 205:1 206:2 207:1 208:1 209:1 210:1 211:1 212:1 213:1 214:1 215:1 216:1 217:1 218:1 219:1 220:1 #
-0.0046557034836236348140925400684864 1:1 9:4 17:1 18:1 63:3 108:4 182:2 258:1 310:2 311:1 322:1 501:3 563:1 572:1 657:1 821:2 859:2 896:1 1058:1 2305:1 2306:1 2307:4 2308:2 2309:3 2310:3 2311:1 2312:1 2313:1 #
-0.0026874476788869661007808087305193 3:1 6:1 9:3 18:3 27:1 31:1 34:1 74:1 79:1 86:1 108:4 113:6 116:1 122:1 130:1 172:1 173:1 227:1 253:5 268:1 271:1 272:2 274:1 284:1 302:1 317:1 329:1 335:1 344:1 358:1 399:1 401:1 402:1 415:1 418:1 437:1 441:2 450:1 455:1 508:1 521:1 545:2 632:1 663:1 668:1 691:1 695:2 782:1 794:1 797:1 830:1 834:1 877:2 979:2 980:1 1079:1 1306:1 1513:1 1548:2 1858:2 2203:1 2220:1 2277:1 2312:1 2328:1 2436:1 2572:1 2616:1 2849:1 2873:2 2878:1 3135:2 3427:1 3606:1 3612:1 5318:2 5393:1 7209:1 9579:1 9627:1 9648:1 11026:1 11027:2 11028:2 11029:2 11030:1 11031:1 11032:1 11033:1 11034:1 11035:1 11036:1 11037:1 11038:1 11039:1 11040:1 11041:1 11042:1 11043:1 11044:1 11045:1 11046:1 11047:1 11048:1 11049:1 11050:1 11051:1 11052:1 11053:4 11054:4 11055:2 11056:2 11057:2 11058:1 11059:1 11060:2 11061:1 11062:1 11063:1 11064:1 11065:1 11066:1 11067:1 11068:1 11069:1 11070:1 11071:1 11072:1 #
-0.0025011592639008549225632105361683 2:1 18:2 27:1 79:1 113:1 173:4 258:1 272:1 284:2 291:1 346:1 430:1 563:3 788:1 873:1 914:1 1229:1 1609:1 1847:1 1887:1 1936:1 2398:1 2534:1 2849:1 3339:1 6055:1 7260:1 8132:1 10355:1 10369:1 30314:1 30315:1 30316:1 30317:1 30318:1 30319:1 30320:1 30321:1 30322:1 #
0.0046557034836236348140925400684864 1:3 7:2 9:1 15:1 18:3 95:2 115:1 127:1 142:1 150:1 151:5 152:2 153:2 154:1 155:1 156:1 157:2 158:1 159:1 160:2 161:1 162:4 163:1 164:2 165:2 166:1 167:1 168:1 169:2 170:1 171:1 172:1 173:1 174:1 175:1 176:1 177:1 178:1 179:1 180:1 181:1 182:1 183:1 184:1 185:1 186:1 187:1 188:1 189:1 190:1 191:1 192:1 193:1 194:1 195:1 196:1 197:1 198:1 199:1 200:1 201:1 202:1 203:1 204:1 #
-0.0015034470466664406635565187642101 1:1 18:6 38:1 75:1 95:2 142:3 143:3 152:1 172:1 319:1 368:1 387:4 423:1 597:1 914:1 1298:1 1481:1 1555:1 1560:2 1696:6 1925:1 1940:1 2727:1 2873:1 3660:1 4184:1 5700:1 8518:2 9719:1 14871:1 18667:1 18668:2 18669:1 18670:1 18671:1 18672:1 18673:1 18674:2 18675:1 18676:1 18677:1 18678:1 #
-0.00037925326272971365869704496454062 1:1 3:14 5:1 7:3 84:2 114:1 115:4 156:2 186:1 219:1 224:1 233:1 258:1 274:1 285:1 301:1 305:2 356:8 446:3 485:1 496:1 578:3 580:1 657:1 662:1 664:1 716:1 834:1 935:5 1063:1 1064:2 1197:1 1371:1 1372:1 1393:1 1412:1 1504:1 1641:1 1696:1 1749:1 1751:1 1958:3 2063:3 2159:2 2198:1 2282:1 2303:1 2424:1 2429:2 2549:2 2553:1 2900:1 2937:1 3014:2 3112:2 3176:1 3189:1 3273:1 3274:1 3357:1 3619:3 3693:1 3999:2 4219:1 4522:2 5100:1 5716:2 5731:1 5747:2 6022:1 6053:1 6477:1 6488:2 6505:1 6885:1 7458:2 7535:1 9218:1 10303:1 10645:1 11385:1 13594:3 14373:1 16607:1 17279:1 18466:1 21324:2 28634:1 28933:1 28934:1 28935:1 28936:1 28937:1 28938:1 28939:2 28940:1 28941:1 28942:1 28943:1 28944:1 28945:1 28946:1 28947:1 28948:1 28949:1 28950:1 28951:1 28952:1 #
-0.00048643333889480944165484288532753 6:1 14:1 15:2 18:7 19:5 30:1 95:1 117:3 130:1 146:1 154:1 156:1 162:2 227:1 258:2 274:2 278:3 305:1 335:2 336:1 344:1 347:1 353:1 404:1 439:1 501:1 510:3 545:3 560:3 574:3 580:1 597:1 663:1 805:1 810:1 819:1 869:4 897:1 913:1 914:1 915:1 957:2 1077:1 1179:2 1212:1 1218:2 1371:1 1385:1 1387:1 1504:1 1555:1 1748:1 1749:1 1754:2 1768:2 1834:3 1846:1 2205:1 2352:3 2375:1 2424:1 2560:1 2605:1 2638:2 2940:1 3090:1 3218:1 3992:1 4384:1 5071:1 5748:1 6102:1 6103:1 6104:1 6105:1 6106:1 6107:1 6108:1 6109:1 6110:1 6111:1 6112:1 6113:1 #
-0.0021720214692077521867474843020318 1:1 74:1 75:1 77:1 108:1 112:3 113:1 142:1 154:1 164:1 192:1 222:1 355:1 437:2 480:1 563:1 637:2 643:1 821:1 1764:1 2308:1 3667:1 5795:1 6234:1 9234:1 17311:1 18464:1 18465:1 18466:1 18467:1 18468:2 18469:1 18470:1 18471:1 18472:1 #
-0.0034596634792174664647934623218362 3:2 9:3 18:5 63:1 74:1 143:1 160:1 162:2 231:1 245:1 257:1 258:1 274:2 344:1 355:1 379:5 383:1 443:3 444:1 446:1 555:1 574:1 588:1 657:3 690:1 710:4 899:1 1001:1 1179:2 1444:1 1502:2 1559:1 1772:1 1846:1 2313:1 2389:1 2419:1 2444:1 3104:1 3257:1 3665:1 4452:1 4657:1 4695:1 5019:3 5020:1 5021:2 5022:1 5023:1 5024:1 5025:1 5026:2 5027:1 5028:1 5029:1 5030:1 5031:1 5032:1 5033:1 5034:1 5035:1 5036:1 5037:1 5038:1 #
0.0046557034836236348140925400684864 1:1 5:1 9:1 10:1 15:1 258:1 341:1 354:1 978:1 1810:1 1811:2 1812:1 1813:1 #
0.0046557034836236348140925400684864 1:2 9:4 27:1 146:1 242:2 305:1 317:1 387:1 450:1 496:1 497:1 537:1 573:3 580:1 612:1 660:1 691:2 781:2 788:1 794:1 816:1 823:1 896:1 974:1 984:1 997:1 1287:1 1303:1 1362:1 1363:6 1364:4 1365:1 1366:3 1367:3 1368:1 1369:1 1370:1 1371:1 1372:1 1373:1 1374:1 1375:1 1376:1 1377:1 1378:1 1379:1 1380:1 1381:1 1382:1 1383:1 1384:1 1385:1 1386:1 1387:1 1388:1 1389:2 1390:1 1391:1 1392:1 1393:1 1394:1 1395:1 1396:1 1397:1 1398:1 1399:1 1400:1 #
-0.0024020432862219072596421387544297 112:5 113:3 130:1 165:1 221:1 229:1 236:8 268:2 285:1 286:1 317:1 344:1 361:3 379:1 402:1 437:4 442:1 530:1 553:1 675:1 816:1 817:1 899:1 986:1 1327:2 1738:2 1786:1 1825:1 1917:1 2653:1 3134:1 4045:1 5743:1 9454:1 10904:1 11754:1 14121:1 26170:2 26171:2 26172:1 26173:1 26174:1 26175:1 26176:1 26177:1 26178:1 #
-0.0011437591641679674663717447558042 1:3 7:1 27:1 74:2 75:1 112:2 113:2 121:2 130:4 139:1 206:2 252:1 311:1 318:1 418:3 574:1 580:1 596:2 824:1 861:1 869:1 872:2 934:1 984:1 1359:1 1363:4 1447:1 1485:1 1486:1 1756:1 1963:1 2365:1 2470:1 2561:1 2593:1 2780:1 2972:1 3155:1 3182:1 3453:1 3957:1 4395:1 4396:2 4397:1 4398:2 4399:2 4400:2 4401:1 4402:1 4403:1 4404:1 4405:1 4406:1 4407:1 4408:1 4409:1 4410:1 4411:1 4412:1 4413:1 4414:1 4415:1 4416:1 4417:1 4418:1 4419:1 #
-0.0046557034836236348140925400684864 1:1 7:1 10:2 129:1 152:1 236:3 253:2 283:1 573:1 2530:1 2561:1 3999:2 10308:1 10309:1 10310:1 10311:1 10312:1 10313:1 10314:1 #
-0.00031209383900251421416205399594901 7:1 10:1 159:3 165:1 192:3 233:1 253:2 257:1 285:1 369:1 370:1 401:1 404:7 446:1 450:2 455:5 573:1 580:2 653:1 669:1 1058:1 1363:3 1501:1 1682:1 1741:1 1751:2 1764:1 1840:1 2210:1 2216:1 2323:1 2981:1 3047:1 3223:1 3279:1 3287:2 3402:1 3654:1 3832:1 3964:1 3987:3 3989:1 4199:2 4201:2 4202:2 4203:1 4204:1 4205:2 4206:1 4207:1 4208:1 4209:1 4210:1 4211:1 4212:1 4213:1 4214:1 4215:1 4216:1 4217:1 4218:1 4219:1 4220:1 4221:1 4222:1 4223:1 4224:1 4225:1 4226:1 4227:1 4228:1 4229:1 #
0.0046557034836236348140925400684864 1:1 18:2 108:1 113:1 154:1 164:3 182:4 185:1 278:1 284:1 302:1 317:1 335:1 364:1 425:1 501:1 563:1 986:2 1826:1 1833:1 2050:1 2051:1 2052:1 2053:1 2054:1 2055:1 2056:1 2057:1 2058:1 #
0.0046557034836236348140925400684864 9:2 16:1 18:2 35:1 63:2 74:2 173:1 227:2 231:1 355:1 2203:1 #
-0.00021949543283415528854493614652199 1:1 5:68 6:3 8:1 9:4 15:17 18:2 19:10 29:3 35:1 70:10 74:1 112:10 113:5 114:3 129:1 130:7 139:2 145:1 146:2 150:58 172:11 173:7 180:2 191:3 192:1 206:2 224:1 258:1 268:4 271:17 278:6 290:6 310:2 325:2 327:8 355:1 370:1 386:8 404:2 430:1 450:3 453:1 471:2 473:1 501:5 521:7 523:1 545:5 555:2 578:1 627:1 663:1 665:2 668:3 669:9 776:1 787:2 788:14 789:10 820:1 859:1 869:4 942:2 968:1 1007:1 1010:2 1017:1 1051:2 1077:1 1227:2 1374:1 1394:7 1412:1 1419:6 1431:2 1449:6 1466:4 1470:1 1471:4 1507:2 1539:3 1549:1 1555:11 1619:1 1787:4 1789:3 1790:3 1791:2 1865:2 1885:1 1887:1 1956:2 2057:1 2061:1 2159:2 2161:9 2216:1 2448:1 2633:19 2653:3 2676:1 2710:1 2821:1 3005:1 3012:4 3072:1 3128:9 3276:1 3450:1 3518:6 3639:15 3660:2 3804:1 3865:1 3890:3 3956:1 4033:8 4099:1 4409:2 4856:1 5294:2 5306:1 5417:1 5497:4 5600:5 5639:2 5788:1 6585:1 7395:1 7469:1 7694:1 7695:1 7696:1 7697:2 7951:2 7985:1 8399:1 8603:1 8808:2 9152:1 9153:1 9154:1 9155:2 9161:1 9162:6 9163:6 9169:1 9175:5 9178:1 9184:3 9194:2 9199:1 9203:1 9526:2 9794:1 9889:10 9896:4 9936:4 10443:2 10993:7 11764:1 11988:6 12128:7 12745:7 13253:2 13272:2 14152:2 14739:2 16626:1 17720:1 19434:3 20245:1 22408:3 22412:4 22438:2 22507:69 22560:1 24108:2 24109:1 25045:2 25051:1 25116:2 25189:2 25190:2 25191:2 25192:12 25193:2 25194:2 25195:2 25196:2 25719:1 25720:1 25732:2 25759:1 25760:1 25761:11 25762:9 25763:3 25764:3 25765:5 25766:8 25767:1 25768:1 25769:1 25770:1 25771:1 25772:1 25773:2 25774:1 25775:2 25776:1 25777:1 25778:1 25779:1 25780:1 25781:1 25782:1 25783:1 25784:1 25785:1 25786:1 25787:1 25788:1 25789:1 25790:1 25791:1 25792:4 25793:1 25794:1 25795:1 25796:1 25797:1 25798:1 25799:1 25800:1 25801:1 25802:1 25803:1 25804:3 25805:4 25806:4 25807:1 25808:1 25809:5 25810:1 25811:1 25812:1 25813:1 25814:1 25815:1 25816:1 25817:1 25818:1 25819:1 25820:1 25821:1 25822:1 25823:1 25824:1 25825:1 25826:1 25827:1 25828:1 25829:1 25830:1 25831:1 25832:1 25833:1 25834:1 25835:1 25836:1 25837:1 25838:2 25839:2 25840:2 25841:2 25842:2 25843:2 25844:2 25845:2 25846:4 25847:2 25848:2 25849:2 25850:2 25851:2 25852:2 25853:2 25854:2 25855:2 25856:2 25857:1 25858:1 25859:1 25860:3 25861:1 25862:1 25863:1 25864:2 25865:2 25866:1 25867:1 25868:1 25869:2 25870:1 25871:1 25872:2 25873:1 25874:1 25875:2 25876:1 25877:1 25878:1 25879:1 25880:5 25881:5 25882:2 25883:8 25884:2 25885:1 25886:2 25887:2 25888:1 25889:1 25890:1 25891:1 25892:1 25893:1 25894:4 25895:2 25896:2 25897:1 25898:2 25899:1 25900:1 25901:3 25902:1 25903:1 25904:1 25905:1 25906:1 25907:1 25908:1 25909:1 25910:1 25911:1 25912:4 25913:1 25914:1 25915:1 25916:1 25917:1 25918:1 25919:2 25920:1 25921:1 25922:1 25923:1 25924:1 25925:1 #
-0.00055653186545036683642584396380926 1:1 6:1 15:1 30:9 38:1 121:2 130:2 143:1 173:3 233:1 290:7 310:8 452:1 567:3 680:1 806:1 872:3 1499:4 1745:1 1810:1 1832:1 1858:1 1929:3 1940:3 2246:1 2280:1 2553:1 2782:3 2841:1 4379:1 4523:1 4536:2 5187:3 7275:1 10212:1 10636:1 11597:1 13174:1 13663:1 25636:1 27174:1 27175:1 27176:1 27177:1 27178:1 27179:1 27180:1 27181:2 27182:1 27183:4 27184:2 27185:1 27186:1 27187:1 27188:1 27189:1 27190:1 27191:3 27192:1 27193:1 27194:1 27195:1 #
-0.0046557034836236348140925400684864 1:1 9:1 18:2 27:1 113:1 114:1 130:1 146:1 161:1 164:3 182:1 191:1 227:2 229:1 271:1 290:1 329:1 402:1 418:1 521:3 523:1 530:1 545:2 563:1 582:1 787:1 816:1 826:1 830:1 883:1 1016:1 1212:1 1368:1 1394:1 1395:1 1474:2 1756:1 1865:1 2064:2 2115:1 2561:1 3433:1 3665:1 3666:1 3804:1 4453:1 6773:4 8218:1 10507:1 13079:1 14051:1 18872:1 21194:2 27206:2 27207:1 27208:1 27209:1 27210:1 27211:1 27212:1 27213:1 27214:1 27215:1 27216:1 27217:1 #
0.0046557034836236348140925400684864 9:1 15:1 18:1 19:4 113:2 172:5 268:2 284:1 402:1 788:4 1077:1 1539:3 1784:1 1785:1 1786:1 1787:6 1788:4 1789:4 1790:4 1791:6 1792:5 1793:2 1794:1 1795:1 1796:1 1797:1 #
0.0046557034836236348140925400684864 3:2 9:1 14:1 30:1 115:2 173:1 210:2 286:1 314:1 328:1 335:2 364:3 575:1 1058:1 1191:1 1630:1 1815:1 2059:1 2060:1 2061:1 2062:2 2063:1 2064:2 2065:1 2066:1 2067:1 #
0.0046557034836236348140925400684864 2:1 7:1 9:2 10:4 19:1 74:3 114:1 130:2 143:2 173:1 182:1 223:1 258:1 284:1 328:7 337:1 404:1 446:1 476:1 477:3 478:1 479:4 480:2 481:2 482:1 483:1 484:1 485:1 486:1 487:1 488:2 489:1 490:1 491:1 492:1 493:1 494:1 495:1 496:1 497:1 498:1 499:1 500:1 501:1 502:1 503:1 504:1 505:1 506:1 #
-0.0046557034836236348140925400684864 1:1 9:1 10:1 15:1 29:1 160:2 219:1 233:1 354:1 660:1 1445:2 9818:2 9819:1 9820:1 #
-0.00055339251698089113751938272756092 1:1 10:2 19:6 75:1 113:3 114:1 146:1 152:1 268:2 297:1 354:1 361:7 426:1 439:1 463:1 467:2 545:1 553:3 783:3 914:1 983:1 1298:4 1551:1 2170:1 3559:1 3947:1 5184:1 10538:1 18254:2 18300:2 18301:3 24685:1 27337:5 27338:1 27339:2 27340:1 27341:1 27342:1 27343:1 27344:1 27345:1 27346:1 27347:1 27348:2 27349:1 27350:3 27351:1 27352:1 27353:1 #
-0.0046557034836236348140925400684864 6:1 18:1 165:1 182:1 231:1 328:2 363:1 494:1 1751:1 2280:1 2419:1 3150:2 #
0.0046557034836236348140925400684864 1:2 9:4 30:1 31:1 74:3 113:2 130:2 227:2 242:2 258:2 268:1 272:1 285:1 291:1 300:1 317:4 402:1 418:1 509:1 511:3 512:2 545:1 556:1 557:1 558:2 794:2 942:1 1058:1 1462:1 2275:1 2276:1 2277:1 2278:1 2279:1 2280:1 #
0.0043092621266749651237626395072766 6:1 9:3 18:2 31:1 113:1 164:2 192:2 213:1 215:1 231:3 232:1 233:2 234:1 235:14 236:4 237:3 238:2 239:2 240:1 241:2 242:1 243:1 244:1 245:1 246:4 247:1 248:1 249:1 250:1 251:1 252:1 253:1 254:1 255:2 256:2 257:1 258:1 259:1 260:1 261:1 262:1 263:1 264:1 265:1 266:1 267:1 268:1 269:1 270:1 271:1 272:1 273:1 274:1 275:1 276:1 277:1 278:1 279:1 280:1 281:1 282:1 283:1 284:1 285:1 286:1 287:1 288:1 289:1 290:2 291:1 292:1 293:1 294:1 295:1 296:1 297:1 298:1 299:1 300:2 301:1 302:1 303:1 304:1 #
-0.0011116397560691322014131410256255 1:2 9:1 15:1 18:2 19:1 25:1 74:2 113:3 114:1 122:1 131:2 142:1 154:1 209:1 227:2 231:1 257:1 278:1 377:1 379:1 496:1 570:4 596:1 782:1 813:1 1194:1 1292:1 1914:1 2465:1 2673:1 3419:1 3815:1 3947:1 4098:1 4831:1 5216:1 5363:1 5387:2 5431:1 7730:1 7917:1 7921:1 9424:3 13535:1 21881:1 31215:1 31216:1 31217:1 31218:1 31219:1 31220:2 31221:1 31222:1 31223:1 31224:2 31225:1 31226:3 31227:1 31228:2 31229:4 31230:1 31231:1 31232:1 31233:1 31234:6 31235:1 31236:3 31237:1 31238:1 31239:2 31240:2 31241:1 31242:2 31243:1 31244:1 31245:1 31246:1 31247:2 31248:1 31249:1 31250:1 31251:1 31252:1 31253:1 31254:1 31255:1 31256:1 31257:1 31258:1 31259:1 31260:1 31261:1 31262:1 31263:1 31264:1 31265:1 31266:3 31267:1 31268:1 31269:1 31270:1 31271:1 31272:1 31273:2 31274:1 31275:1 31276:1 #
-0.00020634660429098440463137331679633 1:1 63:1 113:3 114:1 142:1 143:1 165:1 169:1 174:5 184:1 192:1 231:1 236:4 252:2 257:1 268:2 272:7 285:1 291:1 300:5 317:5 347:1 353:1 355:4 420:1 509:1 563:2 580:1 655:1 673:1 769:1 776:2 824:1 826:2 917:1 921:1 1154:1 1205:1 1330:1 1629:1 1764:1 2098:1 2467:1 2530:1 3265:2 3690:1 3835:1 4466:2 4537:1 5071:1 5594:1 5639:2 5674:1 6031:15 8674:3 9139:6 9150:1 9714:1 9794:2 13570:1 19370:1 20168:1 25994:5 28196:1 28962:2 28963:2 28964:2 28965:1 28966:1 28967:3 28968:1 28969:1 28970:1 28971:1 28972:1 28973:1 28974:1 28975:1 28976:1 28977:1 28978:1 28979:1 28980:1 28981:1 #
-0.0037315764234760622798658946663863 1:2 2:1 9:6 18:1 108:11 113:3 114:1 131:2 160:1 185:1 242:2 253:1 274:1 284:5 285:1 286:1 297:1 379:1 389:1 402:1 404:3 485:1 501:1 660:1 663:4 794:1 979:3 1078:1 1629:2 2064:2 2210:1 3071:1 3135:5 3170:1 3369:1 3402:1 3935:1 4069:1 4452:1 4855:1 5413:1 6619:2 7442:1 9018:1 9019:1 9020:3 9021:2 9022:1 9023:4 9024:1 9025:6 9026:1 9027:1 9028:1 9029:1 9030:1 #
-0.00044940934182155809839889770707089 1:1 7:1 113:1 114:1 121:1 169:3 174:3 188:1 234:1 236:1 272:3 300:1 317:1 344:1 355:1 443:1 462:1 464:1 552:1 706:2 797:2 829:1 945:1 1368:1 2017:2 2615:3 2631:1 2635:1 3006:1 3750:5 4002:1 4383:1 4870:2 5607:1 6038:1 8915:3 9379:1 9998:8 11587:1 12043:2 13051:1 14313:1 21383:1 21384:1 21385:1 21386:1 21387:4 21388:6 21389:1 21390:1 21391:2 21392:1 21393:3 21394:1 21395:1 21396:1 21397:1 21398:1 21399:1 21400:1 21401:1 21402:1 #
0.0046557034836236348140925400684864 1:1 9:2 15:1 108:1 115:1 173:1 310:1 576:1 971:1 972:1 973:1 974:1 975:1 976:1 977:1 978:1 979:1 980:1 981:1 #
0.0046557034836236348140925400684864 1:1 9:2 35:1 74:2 115:1 116:1 121:1 221:1 222:1 223:1 224:1 225:1 226:1 227:1 228:1 229:1 230:1 #
0.0046557034836236348140925400684864 9:2 18:1 152:2 153:1 253:1 328:1 376:1 402:1 461:2 462:1 463:2 464:1 465:1 466:1 467:1 468:1 469:1 470:1 471:1 472:1 473:1 474:1 475:1 #
-6.2148635627380402978413298509253e-05 8:1 115:1 116:1 146:1 210:1 231:1 512:1 1001:1 1197:1 2461:1 2959:1 3168:1 3404:1 4430:1 4578:1 4823:1 5503:1 7455:1 9458:1 10732:1 11236:1 11441:1 12862:1 13241:1 19716:1 19717:3 19718:1 19719:1 #
-0.00035246911237822993413423833253262 3:7 122:1 146:1 153:1 157:1 220:1 231:1 258:1 285:1 291:1 327:1 404:1 425:1 587:1 656:1 816:1 825:1 913:1 1054:2 1077:1 1450:1 2329:1 2358:4 2729:1 2849:1 2986:2 3012:1 3046:1 3287:2 3294:2 3427:1 3516:1 4660:1 5582:1 5956:1 6244:1 6619:1 8734:3 10369:1 13534:1 13800:1 27786:1 27787:1 27788:1 27789:1 #
-0.0021131630365070980595576521920975 1:1 9:1 15:1 18:1 36:2 127:1 153:1 219:1 286:1 305:1 821:3 1063:1 2236:1 2304:2 3491:1 3512:1 3567:1 3984:2 4245:2 4367:1 6200:1 6967:1 8327:1 15845:1 19293:1 29442:1 29443:1 29444:2 29445:1 #
-0.0042304535438457560939107260367109 7:1 9:1 18:1 43:1 51:1 74:1 75:1 84:1 108:3 112:5 113:1 130:1 153:1 170:1 172:2 173:4 257:1 258:1 310:1 317:1 319:1 324:4 327:2 408:1 409:1 437:2 576:1 608:1 609:2 613:2 614:1 621:2 630:1 649:1 679:2 681:2 716:1 725:1 817:1 972:1 1084:1 1094:2 1145:2 1478:1 2018:1 2301:1 3196:1 3400:1 3936:1 5862:1 6083:1 6949:1 7412:1 7979:1 8346:1 14119:1 17657:1 18198:1 19225:1 30647:1 30648:1 30649:1 30650:2 30651:1 30652:1 30653:1 30654:1 30655:1 30656:1 30657:1 30658:1 30659:1 30660:2 30661:1 30662:1 30663:1 30664:2 30665:1 30666:1 30667:1 30668:1 30669:1 30670:1 30671:2 30672:2 30673:1 30674:1 30675:1 30676:1 30677:1 30678:1 30679:1 30680:1 30681:1 30682:1 30683:1 30684:1 30685:1 30686:1 30687:1 30688:1 30689:1 30690:1 30691:1 30692:1 30693:1 30694:1 30695:1 #
-0.0046557034836236348140925400684864 9:2 30:1 86:1 108:1 127:2 188:1 327:2 576:1 587:1 1815:1 2209:1 2210:1 2251:1 2959:1 3600:1 5090:1 11807:1 16677:1 #
-9.0717714658231240099257874920369e-05 19:24 27:1 82:4 113:2 165:1 257:1 268:1 286:1 375:1 580:1 664:1 679:1 680:1 681:1 927:8 983:1 1054:1 1429:2 1481:8 1557:1 1764:1 1925:1 1987:4 2706:2 3055:1 3165:1 3559:1 4045:2 4632:4 4667:1 4756:1 4909:1 4921:3 6828:1 7445:1 10493:4 11183:1 11564:1 12058:1 15147:1 16835:1 23646:1 27890:2 30165:3 30166:2 30167:2 30168:1 30169:3 30170:2 30171:32 30172:1 30173:4 30174:4 30175:4 30176:4 30177:1 30178:4 30179:4 30180:20 30181:4 30182:12 30183:12 30184:1 30185:1 30186:1 30187:2 30188:2 30189:1 #
0.0046557034836236348140925400684864 1:1 9:4 10:2 15:1 227:1 253:1 310:1 562:1 665:1 712:1 868:1 1330:1 1352:1 1618:2 1619:1 1620:1 1621:1 1622:1 1623:1 1624:1 1625:1 1626:1 1627:1 1628:1 1629:1 1630:1 1631:1 1632:1 1633:1 1634:1 1635:1 1636:1 1637:1 1638:1 1639:1 #
0.0046557034836236348140925400684864 1:1 6:1 9:2 164:1 182:4 185:1 208:4 284:1 355:1 404:1 471:1 472:1 812:1 813:2 814:2 815:1 816:2 817:1 818:1 819:1 820:1 821:1 822:1 823:1 824:1 #
0.0046557034836236348140925400684864 1:1 9:4 33:2 74:2 108:1 114:1 115:1 116:1 117:1 118:1 119:1 120:1 121:1 122:1 123:1 124:1 125:2 126:2 127:2 128:1 129:1 130:1 131:2 132:1 133:1 134:1 135:1 136:1 137:1 138:1 139:1 140:1 141:1 142:1 143:1 144:1 145:2 146:1 147:1 148:1 149:1 #
-0.0015484095899962273777672461250177 1:1 2:1 9:1 15:5 18:1 31:3 77:3 114:1 142:1 152:1 153:1 182:3 206:1 208:1 231:1 284:1 285:1 301:1 328:2 347:2 355:1 361:1 463:6 496:1 498:1 651:1 660:1 673:1 675:1 712:2 773:1 774:1 816:4 825:1 861:1 1171:2 1179:1 1193:1 1389:1 1390:1 1451:1 1481:1 1888:2 2251:1 2357:1 2398:1 2438:1 2549:2 2560:1 2974:1 3384:1 3631:1 3679:1 4766:1 4787:3 4825:1 5100:1 6359:1 6930:1 10068:1 10069:1 10070:6 10071:1 10072:1 10073:1 10074:3 10075:2 10076:2 10077:1 10078:1 10079:1 10080:1 10081:1 10082:1 10083:1 10084:2 10085:1 10086:1 10087:1 10088:1 10089:1 10090:1 10091:1 10092:1 #
-0.00092969443560682470638345531455116 1:1 6:1 10:1 18:1 77:3 112:10 113:1 117:2 268:1 306:1 326:1 336:2 364:1 365:1 368:2 371:1 376:3 377:2 399:1 427:1 467:4 472:2 553:3 659:1 709:1 752:1 794:7 1169:6 3977:1 7529:1 8553:6 9835:2 11332:1 12080:1 14473:1 14474:1 14475:1 14476:1 14477:1 14478:1 14479:1 14480:3 14481:1 14482:1 14483:1 14484:1 14485:1 14486:1 14487:1 14488:2 14489:2 #
-0.00062116414431719914595458886807933 1:1 76:1 112:8 113:2 130:1 157:1 355:1 408:1 437:2 574:1 643:5 692:1 824:1 1078:1 1327:1 1576:2 1696:1 2210:1 2958:1 3668:5 3823:1 4580:1 5734:1 7142:1 9543:1 16607:1 17640:1 22366:1 22367:1 22368:5 22369:1 22370:1 22371:1 22372:1 22373:1 22374:1 22375:1 22376:1 22377:1 22378:1 22379:1 22380:1 #
-0.0041276729004922300264590617757676 1:1 7:1 9:3 18:3 27:1 31:1 113:1 164:1 185:2 198:1 234:1 253:1 268:1 271:1 300:1 307:1 368:1 375:1 496:1 563:1 572:1 679:1 680:1 681:1 821:2 827:2 935:1 1064:1 1169:1 1279:1 1384:2 1481:1 1555:1 1559:2 1751:1 1833:1 1995:1 2332:1 3170:1 3581:2 3657:1 3664:1 4007:1 4240:1 6358:1 7448:1 7506:6 9684:1 10088:1 10240:1 10645:1 20438:1 26079:2 26080:1 26081:1 26082:1 #
-0.00075144055872761043087665333573 1:1 3:3 4:2 115:3 185:1 496:1 508:1 513:1 1382:1 1571:1 2479:2 4188:1 5100:2 7858:1 12236:2 12237:1 12238:1 12239:1 #
-0.0033703696044071387166729536488674 3:1 9:1 15:1 115:2 122:1 258:1 297:1 313:1 356:1 463:1 563:1 825:1 876:1 1063:1 1481:1 1619:1 2370:1 4445:1 5728:1 6201:1 6773:1 11617:1 12555:1 24272:1 28876:1 28877:1 28878:1 #
-2.8950861886490568549660379327193e-05 1:3 2:1 7:1 38:1 112:2 113:1 249:2 271:4 278:3 306:5 512:1 521:4 548:2 573:1 729:6 787:2 788:13 789:3 816:1 824:1 836:8 945:2 1002:1 1192:1 1299:8 1414:1 1593:2 1756:1 1937:1 1959:10 2096:1 2386:2 2564:1 3033:1 3231:1 3604:1 3611:3 3931:1 4151:5 4206:4 4453:1 4583:2 4932:2 5408:1 6046:8 7230:5 7525:11 8790:2 8792:2 8808:5 14639:2 16214:3 19656:1 21574:7 22155:3 22156:2 22157:3 22158:7 22159:4 22160:1 22161:1 22162:2 22163:2 22164:1 22165:3 22166:1 22167:1 22168:1 22169:1 22170:1 22171:1 22172:3 22173:2 22174:1 22175:1 22176:2 22177:1 22178:1 22179:2 22180:1 22181:1 22182:1 22183:1 22184:2 22185:1 22186:1 22187:1 22188:1 22189:1 22190:1 22191:2 22192:2 22193:1 22194:1 22195:1 22196:1 #
0.0046557034836236348140925400684864 1:2 2:2 9:1 15:3 18:5 19:2 31:1 77:1 113:2 164:4 172:1 173:2 177:1 189:1 220:1 227:2 248:1 272:5 278:2 404:1 450:1 461:1 509:1 547:1 570:2 580:1 630:1 631:1 633:1 643:2 644:1 648:1 668:2 811:1 816:1 883:2 899:1 1014:4 1074:1 1108:2 1382:1 1413:1 1414:1 1415:1 1416:1 1417:1 1418:7 1419:7 1420:1 1421:1 1422:1 1423:2 1424:1 1425:1 1426:1 1427:1 1428:1 1429:1 1430:2 1431:1 1432:1 1433:1 1434:1 1435:1 1436:1 1437:1 1438:1 1439:1 1440:1 1441:1 1442:1 1443:1 1444:1 1445:1 1446:1 1447:1 1448:1 #
-0.0014803696078209700303512930119609 3:3 4:1 16:1 146:1 151:3 222:1 231:1 263:1 274:1 310:1 401:1 448:3 471:1 596:1 657:1 774:2 827:1 935:2 1070:1 1080:1 1156:1 1630:1 1765:5 1770:3 3017:1 3923:1 4209:1 4455:1 4461:1 5571:1 6696:1 6831:1 7463:2 8391:1 9221:1 23713:1 30131:3 30132:1 #
-0.00053215374262472608934970708105539 1:1 113:1 192:2 272:2 283:1 379:2 383:1 384:1 387:1 399:2 420:1 471:1 551:1 660:1 665:1 788:4 795:1 797:2 1197:1 1299:6 1400:1 1419:5 1710:1 1768:2 1944:4 2553:1 2651:5 4144:1 4158:1 6817:1 8608:1 9827:2 22652:1 26119:3 26591:1 28155:1 28156:1 28157:8 28158:1 28159:1 28160:3 28161:2 28162:1 28163:1 28164:1 28165:1 28166:1 28167:1 28168:1 28169:1 28170:1 28171:1 28172:1 28173:1 28174:1 28175:1 28176:1 28177:1 28178:1 28179:1 28180:1 28181:1 28182:1 #
-0.0014935948283685464982317725457506 1:2 6:1 27:1 64:2 74:2 113:3 123:1 128:1 146:1 153:1 228:1 242:1 258:1 272:1 355:2 494:5 511:5 521:4 573:1 580:1 614:3 618:1 621:1 630:7 655:1 675:1 701:3 754:1 769:1 826:1 942:1 955:4 968:1 1091:1 1094:4 1095:1 1097:1 1100:1 1104:1 1105:1 1106:3 1107:1 1112:1 1114:1 1115:1 1116:1 1117:1 1118:1 1120:3 1399:1 1771:1 1810:1 1840:1 1843:1 1848:3 2098:5 3225:1 4002:1 4168:3 6929:1 8299:1 11551:1 12593:1 12773:1 14568:1 14573:1 17652:2 17674:1 18584:1 21054:1 21520:1 24734:1 24735:1 24736:1 24737:2 24738:1 24739:1 24740:1 24741:1 24742:1 24743:1 24744:1 24745:1 24746:1 24747:1 24748:1 24749:1 24750:1 24751:1 24752:1 24753:1 24754:1 24755:1 24756:1 24757:1 24758:1 24759:1 24760:1 24761:1 #
-0.00038294720366684165645254633858485 1:1 15:2 95:1 112:2 113:1 121:1 130:1 146:2 169:2 177:1 344:1 355:2 410:1 411:1 412:1 413:1 443:1 470:1 609:1 612:3 621:1 630:3 665:1 696:1 697:1 698:1 699:1 700:1 701:2 702:1 703:1 876:1 921:2 1077:1 1084:1 1086:2 1094:1 1613:1 2667:1 3008:2 3190:2 3192:2 3196:1 3205:2 4219:1 5862:1 6545:10 6777:3 7979:1 11557:1 11564:1 15999:1 16207:1 17657:1 19305:3 23586:2 26419:1 26420:1 26638:1 26639:1 26640:1 26641:1 26642:2 26643:2 26644:1 26645:1 26646:2 26647:1 26648:1 26649:1 26650:1 26651:1 26652:1 26653:1 26654:1 26655:1 26656:1 26657:2 26658:1 26659:1 26660:1 26661:1 #
-0.0046557034836236348140925400684864 9:3 15:1 18:1 27:1 113:2 160:2 189:1 224:1 230:1 231:1 258:1 294:1 296:1 303:1 344:1 355:1 379:2 580:1 1359:1 1495:1 1555:2 1898:1 2070:1 2419:1 2593:1 3071:1 3420:1 3436:2 3450:2 4530:1 10062:1 12804:2 19129:2 19130:1 19131:2 19132:1 19133:1 19134:1 19135:1 19136:1 19137:1 19138:1 19139:1 19140:1 #
0.0046557034836236348140925400684864 1:1 6:1 9:4 27:1 30:1 74:3 113:1 117:1 121:1 143:1 164:5 223:1 292:1 355:1 883:2 1489:1 1502:1 1556:3 1598:1 2038:1 2050:1 2281:1 2282:1 2283:1 2284:2 2285:1 2286:1 2287:1 2288:1 2289:1 2290:1 2291:1 2292:1 2293:1 2294:1 2295:2 2296:1 2297:1 2298:1 2299:1 #
-0.00065958311338283821031319709149443 1:2 5:8 6:1 15:1 18:1 19:17 29:5 82:1 113:1 115:2 160:1 192:1 271:2 274:1 310:1 319:1 324:9 355:1 427:2 501:1 521:1 523:1 555:2 578:1 669:6 787:2 788:9 789:5 794:3 816:1 834:2 984:1 1007:2 1010:2 1024:1 1197:1 1300:2 1412:1 1431:1 1444:1 1449:2 1466:9 1470:1 1475:1 1481:1 1539:11 1555:6 1557:1 1719:1 1720:1 1787:12 1789:17 1790:11 1791:3 1834:5 2071:1 2215:1 2355:2 2371:4 2567:2 2633:3 2757:1 2806:1 2818:5 2882:1 3012:1 3128:1 3272:1 3491:1 3582:1 3636:1 3639:6 4033:3 4737:1 5180:2 5272:1 5497:1 5788:1 6080:1 7694:1 7695:1 7696:1 7697:1 7725:5 7761:3 7949:3 8386:1 9889:5 9890:1 9891:1 9892:1 9893:1 9894:1 9895:1 9896:1 9897:6 9898:6 9899:5 9900:5 9901:3 9902:3 9903:3 9904:3 9905:3 9906:8 9907:3 9908:3 9909:3 9910:4 9911:4 9912:3 9913:4 9914:3 9915:4 9916:4 9917:3 9918:3 9919:3 9920:3 9921:5 9922:2 9923:1 9924:1 9925:1 9926:1 9927:1 9928:1 9929:1 9930:1 9931:1 9932:1 9933:1 9934:1 9935:1 9936:1 9937:2 9938:2 9939:1 9940:6 9941:1 9942:1 9943:1 9944:1 9945:4 9946:2 9947:1 9948:1 9949:1 9950:1 9951:1 9952:1 9953:1 9954:2 9955:2 9956:4 9957:2 9958:2 9959:2 #
-0.00049778126633954404393900272651763 1:1 18:4 113:2 258:1 272:1 325:1 376:1 439:1 545:1 695:1 776:1 883:6 1077:1 1205:1 1327:1 1510:1 1600:1 1710:1 1898:1 1960:1 2398:1 2534:2 2765:1 2957:2 3118:1 3436:1 3521:1 3603:1 4144:1 4428:1 4519:1 5471:1 6715:1 7445:1 9009:1 11763:1 12615:1 14357:1 31305:1 31306:1 31307:1 31308:1 31309:1 31310:2 31311:2 31312:1 31313:1 31314:2 31315:1 #
-0.0012081010500519830108689944836442 1:1 4:1 19:8 113:3 114:1 115:4 355:1 384:2 418:2 428:1 432:2 437:1 446:1 510:1 553:1 834:1 883:1 986:1 1352:2 1412:4 1638:1 1764:1 1925:1 1937:1 2236:1 2556:1 3014:1 3396:1 3533:4 4175:1 4580:1 5749:1 6200:2 6394:1 6395:1 6396:1 6397:4 6398:1 6399:1 6400:1 6401:1 6402:1 6403:1 6404:1 6405:1 6406:1 6407:1 6408:1 6409:1 6410:1 6411:1 #
-0.00012602479818246434891022833557628 1:1 15:4 30:1 34:2 74:2 114:1 117:1 185:2 224:1 231:1 284:3 285:1 291:1 364:1 402:1 471:1 712:1 978:1 1298:2 1329:1 1330:2 1753:1 2038:3 2063:1 2069:1 2070:1 2315:1 2316:1 2410:1 2580:1 3634:1 4018:1 4158:1 4481:1 5322:1 5363:1 6092:4 6093:1 6094:1 6095:1 6096:1 6097:1 6098:1 6099:1 6100:1 6101:1 #
-0.00036367889992821651095125656816265 113:1 192:1 297:1 496:1 596:8 1765:10 4617:1 17730:1 17731:1 17732:2 17733:1 17734:1 #
-0.00026726730221053596192604118186864 1:1 18:1 19:12 31:1 41:1 69:6 82:3 113:3 121:1 142:1 153:2 154:1 156:1 162:2 177:1 192:2 217:2 231:1 249:2 252:11 253:1 278:9 284:1 285:1 300:1 301:1 305:1 310:2 317:3 347:1 355:1 367:1 379:3 422:2 432:1 471:1 472:6 549:2 571:1 573:1 587:3 596:1 663:1 668:1 689:1 816:2 853:1 883:1 957:1 986:1 997:1 1054:2 1074:1 1179:4 1293:4 1327:2 1352:2 1373:1 1401:2 1412:2 1429:1 1471:1 1508:1 1649:2 1725:2 1816:1 1825:1 1837:1 1929:1 2053:1 2065:3 2066:3 2227:1 2243:1 2304:1 2316:1 2370:2 2411:2 2423:1 2448:1 2530:1 2593:1 2640:5 2641:1 2707:2 2762:1 2765:1 2776:1 2781:1 2889:3 3100:1 3150:1 3287:4 3295:1 3304:9 3318:1 3382:1 3492:1 3541:1 3705:1 3797:1 3923:1 4010:1 4155:1 4223:5 4227:1 4387:1 4388:4 4392:1 4573:1 4787:2 4906:2 5098:3 6702:1 6741:1 6747:1 6885:2 7047:1 8081:1 8849:1 8872:1 9079:2 9529:1 9732:1 9733:1 10017:1 10707:1 11140:16 12910:1 13836:2 13992:1 14061:1 14580:1 15881:1 18497:1 18714:2 19402:2 19721:1 21218:1 25651:1 29701:1 29702:2 29703:1 29704:1 29705:3 29706:1 29707:12 29708:9 29709:9 29710:4 29711:8 29712:4 29713:4 29714:7 29715:2 29716:2 29717:2 29718:1 29719:3 29720:1 29721:1 29722:1 29723:1 29724:1 29725:1 29726:1 29727:1 29728:1 29729:1 29730:2 29731:1 29732:1 29733:1 #
-0.0003318306389369516588676300994365 1:2 18:2 21:1 29:1 31:1 74:10 113:2 114:1 121:1 123:1 154:1 160:1 170:1 192:1 257:1 285:1 291:1 297:1 305:1 344:1 427:1 439:1 446:1 498:1 501:1 563:1 574:1 709:1 897:1 899:1 1024:1 1075:1 1077:1 1169:1 1212:1 1292:1 1306:1 1502:3 1553:1 1768:1 1815:1 2045:1 2226:1 2243:1 2307:1 2313:1 2330:2 2423:1 2476:1 2534:1 2593:1 2677:1 2782:1 2893:1 3257:5 3391:1 4760:1 4853:2 5032:1 5700:1 6617:1 7136:1 8156:1 8550:1 11586:1 14357:1 19490:1 19491:1 19492:1 19493:5 19494:1 19495:3 19496:2 19497:1 19498:1 19499:1 #
-0.00014512703536961974403428354829515 1:1 28:1 74:6 113:2 121:1 129:1 192:2 258:1 263:2 268:1 319:2 361:1 501:2 669:3 675:2 690:1 1070:3 1249:2 1363:1 1431:1 1649:1 1743:1 1745:2 2355:5 4032:3 4470:1 5183:2 6910:1 7485:3 19369:1 19614:1 19615:1 19616:1 19617:2 19618:1 19619:1 19620:1 19621:2 19622:1 19623:2 19624:2 19625:1 19626:2 19627:1 19628:2 19629:1 19630:1 19631:1 #
-0.0013477532128303643717964765968986 3:1 74:5 157:1 162:2 310:1 352:1 401:1 504:1 580:1 1182:1 1218:1 1371:1 1395:1 1741:1 1765:1 2045:1 2606:2 3014:1 3268:1 3398:1 3750:1 3816:2 3851:1 4160:1 5471:1 6501:3 6957:2 6980:1 9502:1 14621:2 14622:2 14623:1 14624:1 14625:1 14626:1 #
-0.001042535328801253617994615474629 1:2 9:4 10:1 15:5 18:4 27:2 34:2 77:3 113:3 117:1 130:3 137:1 157:1 162:2 172:1 173:1 188:1 212:1 231:1 233:1 234:1 248:1 253:1 258:1 262:2 268:3 278:1 284:1 285:1 288:1 313:1 317:1 324:2 326:6 327:2 344:1 347:5 354:1 355:1 364:3 379:1 384:2 423:1 497:1 503:1 512:2 545:1 551:1 575:1 590:1 595:2 665:1 669:1 788:1 810:1 816:1 876:1 1058:1 1156:2 1179:5 1190:1 1209:1 1226:1 1303:2 1401:1 1481:3 1551:1 1749:2 1752:1 1755:2 1756:1 1768:2 1815:1 1858:1 1917:1 2059:1 2243:1 2315:2 2316:2 2370:2 2551:4 2600:2 2602:1 2605:1 2706:1 2844:1 2872:1 3033:1 3268:2 3272:1 3384:1 3631:1 3797:1 4151:1 4453:1 4796:1 5031:1 5183:1 5214:1 5393:1 5428:1 5460:1 5699:1 5734:2 6726:5 6794:1 6978:1 7142:1 8396:2 8736:1 8745:2 8943:1 9104:1 9519:1 9521:1 12080:1 12501:1 12916:1 16118:1 16537:2 18546:1 19562:1 21578:1 21584:1 21586:1 22336:1 23626:1 25298:1 28484:1 28828:3 28829:1 28830:1 28831:2 28832:1 28833:1 28834:1 28835:2 28836:2 28837:3 28838:1 28839:1 28840:4 28841:6 28842:2 28843:2 28844:1 28845:1 28846:2 28847:1 28848:1 28849:1 28850:1 28851:1 28852:1 28853:1 28854:2 28855:1 28856:1 28857:1 28858:1 28859:1 28860:1 28861:1 28862:1 28863:1 28864:1 28865:1 28866:1 28867:1 28868:1 28869:1 28870:1 28871:1 28872:1 28873:1 28874:1 28875:1 #
-0.00062050372111822741944681114389937 112:2 113:2 139:1 219:2 229:2 231:1 278:4 355:1 364:4 365:1 404:4 450:3 530:2 824:1 871:1 914:2 945:2 1364:1 1373:1 1459:2 1710:2 2021:2 2051:1 2061:3 2063:1 2222:1 2337:2 2603:1 2750:5 3072:1 3396:1 4156:1 5025:1 5676:1 5684:1 6732:1 12377:1 12910:1 18853:1 20643:2 28424:2 28425:1 28426:2 28427:2 28428:4 28429:1 28430:2 28431:2 28432:1 28433:1 28434:1 28435:1 28436:1 28437:1 28438:1 28439:2 28440:2 28441:1 #
-0.00092368536181227029260853989001134 3:1 4:1 18:2 112:1 113:1 121:1 169:1 174:1 185:3 220:1 236:4 268:1 272:1 347:1 355:3 399:1 402:2 480:1 482:3 530:1 570:3 694:1 913:1 945:2 1197:1 1255:1 1481:1 2064:1 2326:1 2514:1 2882:1 3135:1 3750:4 3890:1 4109:1 4426:1 7103:1 7109:2 7593:1 7594:1 7595:1 7596:2 7597:1 7598:1 7599:1 7600:1 7601:6 7602:1 7603:1 #
-0.0024318264139184218863842801283681 1:2 9:1 18:2 69:2 116:2 129:1 146:1 172:1 233:1 272:1 297:1 317:1 324:3 341:1 423:1 443:1 449:1 463:4 491:1 651:1 657:2 781:1 783:1 899:1 1163:1 1363:1 1431:1 1497:1 1810:1 2374:2 2962:2 3679:1 4102:1 4388:2 4449:2 4617:2 7042:1 9015:1 9246:3 16119:2 16120:1 16121:1 #
-0.001590906395845294264354552460361 1:1 27:1 74:1 95:5 113:1 121:1 161:1 165:1 184:1 185:1 206:1 227:1 272:4 296:1 355:3 361:1 364:4 389:1 418:1 510:1 570:3 582:1 668:1 794:1 797:1 817:1 868:1 1287:1 1299:1 1419:2 1504:1 1609:1 1751:1 1885:1 2057:1 2066:1 2347:1 2373:1 3750:2 11564:1 16687:1 19234:1 19305:1 20471:1 29026:1 29027:1 29028:1 29029:1 29030:1 29031:1 29032:2 #
0.0018357370652838879334506350105016 1:1 7:1 9:10 42:1 43:2 44:1 45:1 46:1 47:1 48:2 49:1 50:1 51:2 52:1 53:1 54:1 55:1 56:1 57:1 58:1 59:1 60:1 61:1 62:1 63:2 64:2 65:1 66:1 67:1 68:1 69:1 70:2 71:1 72:1 73:1 74:1 75:1 76:1 77:2 78:7 79:1 80:5 81:1 82:2 83:2 84:1 85:1 86:1 87:1 88:1 89:5 90:5 91:2 92:2 93:2 94:1 95:5 96:5 97:5 98:1 99:1 100:1 101:1 102:2 103:1 104:1 105:1 106:3 107:3 108:3 109:3 110:3 111:3 112:1 113:1 #
-0.00041654786163797924945784156847139 19:7 27:1 31:2 77:1 112:7 113:4 130:1 146:1 164:1 192:2 226:1 242:3 258:1 268:3 271:5 278:1 306:1 317:3 344:2 426:2 439:1 477:1 496:1 510:1 521:1 545:2 580:1 630:5 643:1 644:1 788:1 809:1 826:1 834:4 840:1 841:1 853:2 862:1 897:1 942:1 955:1 1077:3 1094:3 1108:1 1145:1 1148:1 1153:1 1431:1 1471:1 1481:2 1548:1 1768:1 2045:1 2165:1 2365:1 2429:1 2593:1 2633:1 3334:2 3451:8 3455:5 3490:1 3564:1 4410:1 4470:1 5393:1 7099:1 7260:1 8285:1 8551:1 9125:1 9239:1 9256:2 9260:1 9578:1 9579:1 9580:4 9581:1 9582:3 9583:4 9584:2 9585:2 9586:1 9587:5 9588:1 9589:2 9590:2 9591:2 9592:2 9593:3 9594:2 9595:1 9596:2 9597:1 9598:1 9599:1 9600:1 9601:1 9602:1 9603:1 9604:1 9605:1 9606:1 9607:1 9608:1 9609:1 9610:1 9611:1 9612:1 9613:1 9614:1 9615:1 9616:1 9617:1 9618:1 9619:1 9620:1 #
-0.00069180812725289965187808194357899 1:1 7:1 23:2 27:2 64:3 95:1 113:4 121:1 130:1 143:1 147:2 154:1 157:1 165:1 174:2 185:2 213:1 233:2 258:1 268:1 272:4 296:4 305:1 306:1 344:2 358:1 384:1 399:1 401:1 439:1 450:3 464:1 562:1 567:3 655:8 668:3 669:1 756:1 776:1 797:1 814:1 816:2 820:1 831:1 876:1 883:2 984:2 1055:1 1077:3 1086:2 1087:1 1171:2 1377:2 1389:2 1394:1 1445:1 1451:1 1476:1 1495:1 1752:1 1762:7 1765:7 1772:1 1840:1 1914:1 1922:1 2210:1 2212:1 2315:2 2316:2 2386:1 2409:1 2443:2 2527:2 2597:1 2726:1 2791:1 3068:2 3215:1 3270:1 3427:1 3458:1 3546:1 3604:3 3835:1 3964:2 4801:1 5209:2 5466:1 5896:1 8503:2 8754:1 9403:3 9786:1 9814:1 9819:1 11361:1 12378:1 12444:2 12930:2 14228:1 18072:2 18096:2 18960:1 28305:1 28442:1 28443:4 28444:2 28445:1 28446:1 28447:1 28448:2 28449:1 28450:1 28451:1 28452:1 28453:1 28454:2 28455:2 28456:1 28457:3 28458:2 28459:1 28460:1 28461:2 28462:3 28463:4 28464:3 28465:1 28466:1 28467:1 28468:1 28469:1 28470:1 28471:1 28472:1 28473:1 28474:1 28475:1 28476:1 28477:1 28478:2 28479:1 28480:1 28481:1 28482:1 28483:1 28484:1 28485:1 28486:1 28487:1 28488:1 28489:1 28490:1 28491:1 28492:1 28493:1 28494:2 28495:1 28496:1 28497:1 28498:1 28499:1 28500:1 28501:1 #
-0.0014567329303752348315659226329899 1:1 63:1 74:2 113:3 154:1 231:1 501:1 545:1 614:5 630:2 761:1 794:6 797:1 916:1 917:1 928:1 942:1 996:1 1001:1 1094:1 1108:2 1434:1 1759:1 1963:2 2226:1 2458:1 2567:1 2667:2 2838:1 3219:1 3562:1 3944:1 4825:1 4981:1 5003:1 8284:2 8285:2 8286:2 8287:1 8288:1 8289:1 8290:2 8291:1 8292:1 8293:1 8294:1 8295:1 8296:1 8297:1 8298:1 8299:1 8300:1 8301:3 8302:1 8303:1 8304:1 8305:2 8306:1 8307:1 8308:1 8309:1 8310:1 8311:1 8312:1 #
-0.00092511318553017908745961239702638 70:3 112:1 113:1 126:1 130:2 146:1 156:1 174:6 211:1 291:2 296:2 317:3 329:1 335:1 347:1 355:1 418:3 426:1 428:1 491:1 530:1 729:1 750:5 755:1 761:1 883:2 890:1 895:1 997:1 1169:1 1197:1 1352:1 1418:1 1419:3 1423:1 1815:1 1924:4 2302:1 2530:1 2534:2 3239:3 4171:1 4444:1 4583:1 4756:1 5178:3 12907:1 16515:1 16516:1 16517:1 16518:1 16519:2 16520:1 16521:1 16522:5 16523:1 16524:2 16525:1 16526:1 16527:2 16528:1 16529:3 16530:1 16531:1 16532:1 16533:1 16534:1 16535:1 16536:1 16537:1 #
-0.0046557034836236348140925400684864 9:1 231:1 826:1 1485:1 1555:1 1781:1 3182:1 4028:2 18696:1 18697:1 18698:1 #
-0.0028328978068405865492485062873129 1:2 3:3 9:1 18:2 84:1 224:1 233:1 253:1 263:2 310:2 596:1 695:1 794:1 1055:2 1397:1 1741:1 1810:1 2432:1 3170:1 3427:1 3472:1 3612:1 4726:1 5276:1 5334:1 5708:1 6673:1 9085:1 14199:1 14206:1 19165:3 19166:1 19167:1 #
-0.0044495505699308456060148131427923 1:1 9:1 310:1 401:1 899:1 1609:1 2784:1 3128:1 4494:1 4712:1 7506:1 9733:1 10790:2 17744:1 #
-7.0212703467481624923333949350734e-05 63:1 69:2 75:1 112:1 113:1 121:1 130:2 131:2 153:1 158:1 169:3 174:6 229:1 231:2 236:2 242:1 258:1 272:7 306:1 319:1 355:1 361:2 399:1 521:3 530:2 545:4 574:1 614:7 655:2 688:2 706:2 724:4 729:3 755:2 776:1 797:3 829:10 945:4 1171:4 1227:1 1382:3 1486:1 1540:1 1743:5 1937:1 2106:2 2466:1 2467:1 2593:1 2742:4 2745:1 3614:1 3784:1 3835:1 3935:1 6114:5 6934:1 6939:1 8769:1 9530:1 10334:2 10754:1 10771:5 10944:1 13050:1 13141:1 16870:2 19657:1 20166:2 21386:1 22914:1 23544:1 23546:2 23704:2 26253:1 29218:1 29219:1 29220:1 29221:1 29222:1 29223:1 29224:2 29225:5 29226:3 29227:1 29228:4 29229:15 29230:11 29231:8 29232:3 29233:1 29234:1 29235:1 29236:1 29237:1 29238:3 29239:1 29240:1 29241:1 29242:3 29243:2 29244:3 29245:1 29246:3 29247:1 29248:2 29249:3 29250:2 29251:3 29252:3 29253:2 29254:1 29255:4 29256:1 29257:2 29258:2 29259:1 29260:6 29261:1 29262:1 29263:2 29264:2 29265:2 29266:2 29267:1 29268:1 29269:1 29270:1 29271:1 29272:1 29273:1 29274:2 29275:1 29276:1 29277:1 29278:4 29279:2 29280:2 29281:3 29282:2 29283:1 29284:1 29285:1 29286:1 29287:1 29288:1 29289:1 29290:1 #
-4.9658251437303355677391203393256e-05 3:1 6:1 8:2 15:1 18:18 19:10 23:2 30:1 63:2 64:1 72:4 82:4 86:3 112:25 113:6 116:1 152:1 173:2 192:1 198:5 217:1 218:1 219:2 231:1 242:8 248:3 253:19 255:1 301:1 324:2 327:1 347:1 375:1 379:10 384:1 430:1 450:4 479:5 483:1 494:1 509:3 512:1 530:3 549:3 638:1 655:1 675:1 691:1 692:1 709:1 797:1 820:2 897:1 934:1 945:2 964:1 1002:2 1010:2 1054:1 1169:1 1209:1 1240:10 1268:1 1376:1 1397:11 1415:1 1451:1 1470:2 1507:4 1638:10 1764:3 1765:1 1883:1 1914:1 2022:2 2064:3 2094:1 2150:2 2220:1 2284:4 2347:2 2370:3 2438:1 2441:1 2563:4 2578:2 2633:2 2653:3 2781:1 2991:1 3072:1 3088:1 3239:5 3283:3 3313:1 3343:1 3369:2 3388:1 3430:2 3441:1 3450:1 3585:1 3757:1 3977:6 4036:2 4151:1 4167:1 4267:2 4383:1 4412:1 4445:1 4582:13 4592:17 5176:1 5465:1 5536:1 5537:1 6087:2 6123:1 6334:1 6401:2 6634:2 6817:1 6824:1 7194:13 7460:2 7533:1 7566:10 7610:1 8373:1 8782:3 9189:1 9459:1 9719:1 9732:1 10002:5 10320:3 10636:1 10747:1 11121:2 11123:1 11441:1 11672:2 12148:1 12663:2 12745:2 12991:2 13001:1 13043:1 13044:4 13085:2 13166:1 13917:1 13923:23 14059:4 14580:1 15412:1 17257:2 17431:5 17467:1 18082:13 20766:2 20767:5 20768:8 20769:1 20770:1 20771:1 20772:1 20773:1 20774:1 20775:1 20776:1 20777:1 20778:1 20779:1 20780:1 20781:1 20782:1 20783:1 20784:1 20785:1 20786:1 20787:1 20788:1 20789:1 20790:1 20791:2 20792:2 20793:2 20794:1 20795:1 20796:1 20797:1 20798:1 20799:1 20800:1 20801:1 20802:1 20803:1 20804:1 20805:1 20806:1 20807:2 20808:1 20809:1 20810:1 20811:1 20812:1 20813:3 20814:1 20815:1 20816:1 20817:1 20818:1 20819:2 20820:1 20821:1 20822:1 20823:2 20824:1 20825:1 20826:1 20827:1 20828:1 20829:1 20830:2 20831:2 20832:1 20833:1 20834:1 20835:1 20836:1 20837:1 20838:2 20839:1 20840:1 20841:1 20842:1 20843:1 20844:1 20845:1 20846:1 20847:1 20848:1 20849:2 20850:2 20851:2 20852:2 20853:2 20854:1 20855:1 20856:1 20857:1 20858:1 20859:1 20860:13 20861:13 20862:13 20863:1 20864:1 20865:1 20866:1 20867:1 20868:1 20869:1 20870:1 20871:1 20872:1 20873:1 20874:2 20875:12 20876:1 20877:1 20878:3 20879:3 20880:10 20881:10 20882:3 20883:2 20884:2 20885:2 20886:2 20887:1 20888:2 20889:2 20890:2 20891:2 20892:2 20893:2 20894:2 20895:4 20896:2 20897:1 20898:1 20899:1 20900:2 20901:2 20902:1 20903:1 20904:1 20905:1 20906:1 20907:1 20908:1 20909:1 20910:1 20911:1 #
-0.00041989631121074186183989018772422 1:1 31:4 112:7 113:2 169:1 174:2 263:3 317:4 387:3 420:1 432:4 612:2 637:6 643:7 644:1 645:1 648:1 729:1 943:1 945:1 1094:1 1218:1 1600:1 1696:1 1719:1 1858:1 1925:2 2288:1 2353:1 2595:6 3270:1 3530:1 3531:1 4044:6 4144:1 4444:1 5547:1 6216:6 6221:2 7210:1 9539:1 12710:1 13429:1 14370:6 19177:1 25521:1 31577:5 31578:1 31579:1 31580:1 31581:3 31582:3 31583:3 31584:3 31585:3 31586:3 31587:1 31588:1 31589:1 31590:1 31591:1 #
-0.00019577887254671185270939182121452 1:3 7:1 95:1 113:3 114:1 142:1 143:1 153:3 154:1 165:1 258:1 278:8 296:2 356:1 651:1 660:1 689:1 819:1 998:1 1015:1 1178:1 1376:2 1600:2 2250:1 2410:1 2594:1 2631:16 2635:1 2998:2 3056:3 3067:1 3693:1 3834:2 3835:1 3836:1 3837:11 3838:6 3839:2 3840:1 3841:1 3842:1 3843:1 3844:1 3845:2 3846:1 3847:1 3848:1 3849:1 3850:1 3851:1 3852:1 3853:1 3854:1 3855:1 3856:1 3857:1 3858:1 3859:1 #
-0.0019349043511253227051183145590585 6:3 75:1 355:2 402:1 404:1 1390:3 3443:1 4014:1 4949:1 19477:4 #
-0.00055868964384478197668371102224683 1:2 6:3 7:2 153:2 220:1 301:1 305:1 317:3 355:1 361:1 442:1 473:1 651:1 691:1 816:1 824:1 897:1 1016:1 1080:1 1415:2 1609:1 1815:1 1963:1 2038:3 2222:1 2304:1 2429:1 2432:1 2462:1 2593:1 2633:1 2991:1 3067:1 3106:1 3214:1 3215:3 3216:2 3217:2 3218:1 3219:1 3220:1 3221:1 3222:1 3223:1 3224:1 3225:1 3226:1 3227:1 3228:1 #
-0.0012710890327995651334636040274972 1:3 18:5 113:3 122:1 130:1 131:4 172:5 297:1 361:1 379:1 404:3 587:1 872:1 1444:1 1629:1 1768:2 1925:1 1995:1 2170:1 2534:1 2940:1 3614:1 4795:1 9579:1 9598:1 9600:6 11166:1 12376:3 15885:1 21018:2 21019:3 21020:1 21021:3 21022:1 21023:1 21024:1 #
-0.0003756206744225800775796586528088 1:3 2:1 16:1 18:1 113:7 114:2 115:1 121:1 122:2 143:1 161:1 172:2 173:2 174:2 268:3 272:6 284:1 285:2 317:1 318:1 335:1 352:1 383:2 399:3 450:2 545:1 655:3 709:1 776:3 896:1 1229:1 1287:1 1299:1 1330:1 1476:1 1477:1 1786:1 3279:1 5079:9 5130:1 5596:2 5740:1 5790:1 5958:3 6107:2 6185:1 8749:1 12378:4 13146:2 13516:2 14008:2 14009:1 14010:1 14011:1 14012:2 14013:1 14014:2 14015:2 14016:2 14017:2 14018:2 14019:1 14020:3 14021:2 14022:1 14023:1 14024:1 14025:1 14026:1 14027:2 #
-0.00016780794225414565404297384532128 1:2 7:1 77:2 112:12 113:4 117:4 121:1 154:1 180:4 185:4 268:1 272:6 319:1 355:2 399:14 408:2 437:16 596:2 691:2 754:2 760:2 763:2 797:2 897:1 917:2 1094:2 1114:2 1154:4 1169:1 1179:4 1222:2 1502:1 1619:2 1638:11 2352:1 2367:1 2372:2 2465:2 2940:2 3090:1 3100:1 3190:2 3205:2 3384:1 3390:4 3528:2 4175:2 4580:2 5709:18 5761:1 8086:6 9766:4 11562:2 12148:1 17575:1 17576:7 17577:4 17578:1 17579:3 17580:3 17581:1 17582:1 17583:1 17584:1 17585:2 17586:2 17587:1 17588:1 17589:2 17590:2 17591:2 17592:6 17593:4 17594:4 17595:4 17596:4 17597:4 17598:4 17599:4 17600:2 17601:6 17602:4 17603:2 17604:2 17605:4 17606:2 17607:2 17608:2 17609:1 17610:2 17611:2 17612:2 17613:1 17614:4 17615:4 17616:2 17617:2 17618:2 17619:1 17620:1 17621:1 17622:1 17623:1 #
-0.0017945379990231729097627244584601 1:1 64:2 112:1 113:2 121:1 154:1 164:1 174:1 242:1 257:1 355:2 401:1 630:1 637:1 643:1 675:1 816:1 942:1 1131:1 1395:1 1434:1 1522:1 1557:2 1608:1 1780:1 1858:1 3613:1 4326:2 5745:1 6619:1 9272:1 11790:1 12166:1 12167:1 13149:1 16488:1 17332:1 18736:1 23598:2 25411:2 25519:1 31127:1 31128:1 31129:1 31130:1 31131:1 31132:1 31133:1 #
-0.0025959161498363505539421769441333 1:1 31:1 74:3 75:1 108:1 113:1 114:1 142:1 169:1 272:1 355:1 376:2 553:1 596:1 630:3 691:1 829:1 1076:2 1079:1 1094:1 2302:1 2448:1 2667:1 2838:1 3205:1 3345:1 3528:1 5071:2 6786:1 7774:1 8285:1 8286:1 18092:1 25226:1 25227:1 25228:1 25229:1 25230:1 25231:1 25232:1 25233:1 25234:1 #
-0.00046953514207504561291106615072977 1:2 3:1 18:5 19:5 27:1 113:3 126:1 142:1 143:1 153:1 161:1 164:2 165:1 223:1 249:1 252:3 258:1 306:1 310:3 315:1 317:7 322:1 379:1 426:1 427:2 450:6 694:1 817:2 876:1 942:1 945:1 1156:1 1192:1 1285:1 1412:1 1747:2 1925:2 2059:1 2061:1 2076:1 2195:1 2336:3 2400:2 2601:1 2638:1 2750:2 2908:1 3178:2 3457:1 4069:1 4344:3 4853:5 5048:1 6234:1 6519:1 6824:1 7300:2 8641:2 9085:1 9150:2 9521:1 10707:2 10790:1 13480:2 14221:4 16564:1 24005:1 25603:1 27127:2 29736:1 29737:1 29738:1 29739:1 29740:1 29741:1 29742:1 29743:1 29744:1 29745:1 29746:1 29747:1 29748:1 29749:1 29750:3 29751:2 29752:2 29753:1 29754:1 29755:1 29756:2 29757:1 29758:1 29759:1 29760:1 #
-1.4221776095954773145007415946495e-05 1:2 4:2 21:1 27:2 31:1 41:1 113:6 114:2 137:18 142:1 157:1 160:1 180:1 187:6 192:2 228:1 231:2 252:1 258:2 268:2 272:1 274:4 285:1 288:1 300:1 301:2 308:1 309:1 317:17 318:1 329:2 334:1 355:3 361:2 379:1 450:1 464:24 483:1 545:2 562:1 563:1 573:2 597:2 657:1 709:3 772:5 789:2 794:1 816:1 820:1 825:1 935:1 945:2 984:1 1064:1 1077:3 1197:1 1210:2 1263:2 1299:6 1341:7 1481:3 1497:4 1522:3 1615:1 1629:1 1641:7 1749:1 1751:1 1768:2 1887:1 1924:2 1925:1 1967:1 1968:1 2022:1 2037:2 2045:1 2059:1 2159:1 2205:2 2236:1 2290:1 2303:7 2345:1 2367:1 2382:1 2447:1 2476:1 2616:2 2640:2 2756:1 2933:22 2971:1 2972:1 3017:1 3170:1 3547:1 3645:1 3654:1 3865:2 3866:8 3890:1 4099:1 4103:1 4154:1 4178:1 4340:1 4362:3 4657:2 4687:1 4897:1 5044:4 5207:1 5266:1 5393:2 5571:3 5728:1 5734:1 5752:1 5788:1 6038:1 6360:1 6488:1 6623:1 6832:1 7032:9 7300:1 8305:6 8611:1 8782:1 8934:2 9119:1 9236:1 9357:1 10505:4 12863:1 12867:1 13172:21 13519:6 14062:1 14651:2 15588:1 16277:1 16490:2 18559:1 18599:1 19664:1 21232:1 21736:9 23948:1 23949:2 23950:3 23951:1 23952:1 23953:1 23954:1 23955:1 23956:4 23957:1 23958:1 23959:1 23960:22 23961:1 23962:1 23963:1 23964:1 23965:1 23966:5 23967:2 23968:1 23969:1 23970:1 23971:1 23972:1 23973:1 23974:1 23975:1 23976:1 23977:1 23978:1 23979:1 23980:1 23981:1 23982:1 23983:1 23984:1 23985:1 23986:1 23987:1 23988:1 23989:2 23990:1 23991:1 23992:1 23993:1 23994:1 23995:1 23996:1 23997:1 23998:2 23999:4 24000:2 24001:2 24002:1 24003:1 24004:1 24005:1 24006:1 24007:1 24008:2 24009:2 24010:2 24011:2 24012:2 24013:21 24014:21 24015:42 24016:21 24017:21 24018:3 24019:4 24020:1 #
-0.0011273909376483136259711193005728 1:1 9:1 15:2 19:1 34:1 74:2 128:1 182:1 188:2 253:1 322:1 325:1 513:5 587:1 663:1 1327:2 1389:1 1391:1 1401:2 1481:2 1485:1 1486:1 1600:1 1768:5 2419:1 2420:1 2421:1 2422:2 2423:2 2424:1 2425:1 #
-0.0018835601406573146236744786818917 1:1 6:1 220:1 668:2 998:1 1387:1 1401:1 1449:2 1709:1 1963:1 2059:1 3182:1 3494:1 3797:1 5065:1 8809:1 8810:1 #
-0.0013687020289637149596251308736328 1:2 9:1 31:2 108:1 116:1 165:1 220:1 319:1 595:1 829:1 1024:1 1087:1 1156:1 1481:1 1751:1 1853:1 2467:1 2471:1 2841:1 3170:1 3909:1 4326:1 4454:1 5274:1 6192:1 6193:1 6194:1 6195:2 6196:2 6197:1 6198:1 #
-0.0025523901649876471094124941174641 1:1 15:1 18:2 113:2 117:1 130:1 154:1 170:1 173:2 268:1 463:1 506:1 576:1 788:1 1223:1 1867:1 2207:1 5294:1 7833:1 12744:2 16251:1 17926:1 28006:1 30820:1 30821:1 30822:1 30823:1 30824:1 30825:2 30826:1 #
-0.00031280594645444052045307747889069 1:2 3:2 6:6 13:1 27:1 30:2 41:1 77:1 114:1 145:1 153:1 157:1 285:3 311:3 317:1 327:1 355:1 404:1 652:1 826:2 829:1 834:4 978:1 1054:2 1058:1 1059:1 1065:1 1071:1 1415:2 1482:2 1485:2 1486:2 1744:1 1814:5 2075:1 2195:2 2425:1 2443:1 2572:1 2960:2 3059:1 3403:1 3404:1 3451:3 3509:1 3820:1 3957:1 4681:1 4730:1 5428:1 6098:1 7510:1 8971:1 8972:1 8973:1 8974:2 8975:1 8976:2 8977:1 8978:1 8979:1 8980:1 8981:1 8982:1 8983:1 8984:1 8985:1 #
