SVM-light Version V6.02
0 # kernel type
3 # kernel parameter -d 
1 # kernel parameter -g 
1 # kernel parameter -s 
1 # kernel parameter -r 
empty# kernel parameter -u 
31468 # highest feature index 
1558 # number of training documents 
368 # number of support vectors plus 1 
1.00728 # threshold b, each following line is a SV (starting with alpha*y)
-0.00054419942327755817072787447585824 1:1 120:1 169:4 176:1 235:1 315:1 387:1 503:1 505:1 1252:2 1351:2 1824:2 2081:1 2169:1 2245:1 3247:1 3530:1 4728:1 5387:1 5486:1 6339:1 6363:1 7076:1 9058:1 11315:5 11316:1 11317:1 11318:2 11319:4 11320:1 11321:1 11322:1 11323:1 11324:1 11325:1 11326:1 11327:1 #
0.0045294029028946566906022042076074 1:2 2:1 3:1 4:1 5:3 6:3 7:3 8:4 9:2 10:1 11:1 12:1 13:1 14:2 15:2 16:1 17:1 18:1 19:1 20:1 21:1 22:5 23:1 24:1 25:2 26:2 27:1 28:1 29:1 30:2 31:1 32:1 33:1 34:1 35:1 36:1 37:1 38:1 39:1 40:1 41:1 42:1 43:1 44:1 45:1 46:1 47:1 48:1 #
-0.0043970163353365980182796413089363 162:1 595:2 616:1 684:1 1412:1 5047:2 5048:2 5049:1 #
-1.2415526312800157843945283997478e-05 1:1 120:1 159:2 184:2 315:2 596:2 813:2 862:3 874:1 1310:1 1329:2 1595:4 1985:1 2283:2 2491:1 6339:1 7364:1 10052:1 20809:1 20810:4 20811:6 20812:1 20813:1 20814:1 #
-0.00011663261948345818720500222109848 1:2 6:1 22:6 43:6 50:2 74:2 120:3 132:1 201:1 211:1 213:2 266:2 369:1 387:4 418:6 420:1 424:1 489:1 525:1 532:3 584:1 593:1 684:1 722:3 723:5 738:1 841:6 870:1 920:1 993:3 995:1 1019:10 1157:1 1469:3 1725:1 1763:1 1771:1 1772:11 1831:1 2031:1 2129:1 2350:4 2516:1 2928:1 3247:1 3348:1 3829:1 3859:1 4570:1 4755:1 5167:2 5964:1 6329:1 6411:1 7453:1 10235:1 11984:1 14556:1 16330:1 18297:1 18314:1 20391:1 21658:1 21659:16 21660:2 21661:1 21662:1 21663:1 21664:1 21665:1 21666:1 21667:1 21668:5 21669:1 21670:1 21671:1 21672:1 21673:1 21674:1 #
-0.00076359995074945985135683734768008 1:4 2:1 7:7 58:1 99:1 120:1 193:1 200:1 206:1 321:2 366:1 368:1 373:1 408:1 481:1 596:1 676:1 708:3 728:4 976:1 1435:1 1469:6 1875:1 1909:1 2268:1 2365:1 2758:1 2886:1 2901:1 2990:1 3484:1 3548:1 4800:1 5734:3 5776:1 7288:1 7338:1 7616:1 7998:1 8933:1 10099:1 19050:1 22118:1 22119:2 22120:1 22121:1 22122:1 22123:4 22124:2 22125:2 22126:2 22127:3 22128:2 22129:1 22130:1 22131:1 22132:1 22133:1 22134:1 22135:1 22136:1 22137:1 22138:1 22139:1 #
-0.00043428559403988360168233362479384 1:6 6:1 7:4 20:1 40:1 51:1 120:1 188:1 201:1 229:1 365:1 405:1 424:1 427:1 482:1 532:1 571:1 577:1 601:1 625:1 778:1 782:1 789:1 812:1 813:1 915:1 1103:1 1177:1 1272:2 1323:1 1446:1 1449:1 1667:2 1681:1 1755:3 1797:2 1916:1 2084:1 3022:1 3408:1 3661:1 3832:1 4180:1 5339:3 6950:3 6971:2 9338:1 10056:1 10338:4 10339:4 10340:2 10341:3 10342:2 10343:2 10344:1 10345:1 10346:1 10347:1 10348:1 10349:2 10350:1 #
0.0045294029028946566906022042076074 9:1 46:1 120:1 128:1 132:5 159:1 181:3 213:1 306:1 355:1 356:2 362:1 410:1 465:1 485:4 601:1 616:1 689:1 705:1 746:1 825:2 833:1 912:1 952:3 999:1 1000:1 1001:1 1002:5 1003:1 1004:1 1005:1 1006:1 1007:1 1008:1 1009:2 1010:3 1011:2 1012:1 1013:1 1014:1 1015:1 1016:1 1017:3 1018:1 1019:4 1020:3 1021:1 1022:1 1023:1 1024:1 1025:1 1026:3 1027:2 1028:1 1029:1 1030:1 1031:1 1032:1 1033:1 1034:2 1035:1 1036:1 1037:1 1038:2 1039:2 1040:1 1041:2 1042:2 1043:2 1044:2 1045:1 1046:1 1047:1 1048:1 1049:1 1050:1 1051:1 1052:1 1053:1 1054:1 1055:1 1056:1 #
0.0045294029028946566906022042076074 1:1 10:2 120:2 121:4 122:1 123:1 124:1 125:1 126:1 127:1 128:1 129:1 130:1 131:1 132:2 133:1 134:1 135:1 136:1 137:1 138:1 139:1 140:1 141:1 142:1 143:1 144:1 145:1 146:1 147:2 148:1 149:2 150:2 151:1 152:1 #
0.0045294029028946566906022042076074 16:1 103:1 121:2 132:2 193:1 209:2 350:1 421:1 427:1 485:1 644:1 677:1 715:1 813:1 847:1 952:1 986:3 1000:1 1140:1 1141:1 1142:2 1143:4 1144:1 1145:2 1146:1 1147:1 1148:1 1149:1 1150:1 1151:1 1152:1 1153:1 1154:1 1155:1 1156:1 1157:1 1158:2 1159:1 1160:1 1161:1 1162:1 1163:1 1164:1 1165:1 1166:1 1167:1 1168:1 1169:1 #
0.0045294029028946566906022042076074 7:1 9:1 20:1 39:1 102:1 129:1 132:2 140:1 191:2 229:1 355:2 368:1 412:5 421:1 424:1 494:1 525:1 536:2 548:1 600:1 601:1 672:1 673:1 674:1 675:1 676:1 677:1 678:1 679:1 680:1 681:1 682:1 683:1 684:1 685:1 686:2 687:1 688:1 689:3 690:1 691:1 692:1 693:1 694:1 695:2 696:1 697:1 698:1 699:3 700:1 701:1 702:1 703:1 704:1 705:1 706:1 707:2 708:3 709:2 710:1 711:1 712:1 713:1 714:1 715:1 716:1 717:1 718:1 719:1 #
0.0045294029028946566906022042076074 132:1 382:1 485:1 536:1 595:1 598:1 616:1 617:1 632:2 852:1 853:2 854:1 855:1 856:1 857:1 858:1 859:1 #
-0.00037687748377921662795708712678788 1:1 7:1 27:1 76:4 79:1 120:1 121:20 132:2 147:1 164:1 169:4 200:2 211:1 214:3 221:1 226:4 235:3 268:1 284:6 320:1 374:2 410:1 414:1 431:6 432:8 433:1 434:1 435:6 436:1 437:1 438:2 465:11 473:2 532:1 553:2 689:1 699:2 725:4 778:1 832:3 874:8 918:1 936:1 977:1 1010:1 1121:1 1131:1 1142:1 1252:2 1256:7 1266:4 1268:2 1290:1 1351:2 1477:1 1500:1 1593:1 1595:2 1690:1 1765:1 1772:1 1875:2 1934:1 2077:1 2087:2 2182:1 2320:1 2873:4 2893:4 3446:1 3521:1 3569:1 3597:1 3829:2 3849:1 4145:1 4273:1 4624:2 4740:3 5058:1 5421:1 5575:2 6439:1 7757:4 7760:1 7776:2 7791:4 7792:4 7793:2 8282:1 9051:1 9442:1 9486:1 9492:2 9494:1 9620:2 10493:2 10501:4 10521:1 12798:2 13217:3 13460:1 13643:1 13699:3 14254:1 14259:1 17527:1 17837:5 17838:2 17839:2 17840:5 17841:1 17842:2 17843:1 17844:1 17845:1 17846:1 17847:1 17848:3 17849:1 17850:1 17851:1 17852:1 17853:1 17854:13 17855:3 17856:10 17857:2 17858:1 17859:3 17860:1 17861:1 17862:1 17863:1 17864:1 17865:1 17866:1 17867:1 17868:1 17869:2 17870:2 17871:3 17872:2 17873:2 17874:1 17875:2 17876:1 17877:2 17878:1 17879:1 17880:1 17881:1 17882:1 17883:1 17884:1 17885:1 17886:1 17887:1 17888:1 17889:1 17890:1 17891:2 17892:2 17893:2 17894:1 17895:1 17896:1 17897:1 17898:1 17899:1 17900:1 17901:1 17902:1 17903:1 17904:1 17905:1 17906:1 17907:1 17908:1 17909:1 17910:1 17911:1 17912:1 17913:1 #
-0.00042087606617899911637739607250808 1:1 25:1 42:1 114:1 120:1 121:14 129:2 132:1 143:1 148:1 209:1 213:1 214:1 221:2 320:1 355:1 396:1 432:1 554:2 572:1 637:3 975:1 977:1 1266:1 1351:1 1587:1 2029:3 2611:1 3027:1 3456:1 3942:6 4511:1 5532:1 7599:1 10180:1 14055:6 14056:1 14057:1 14058:2 14059:1 14060:6 14061:3 14062:2 14063:2 14064:3 14065:1 14066:1 14067:1 14068:1 14069:1 14070:1 14071:1 14072:1 14073:1 14074:1 14075:1 14076:1 14077:1 14078:1 14079:1 14080:1 14081:1 14082:1 14083:1 14084:1 14085:1 14086:2 14087:1 14088:3 14089:8 14090:1 14091:1 14092:1 14093:1 14094:1 14095:1 14096:1 14097:1 14098:1 14099:1 14100:1 14101:1 14102:1 14103:1 14104:1 14105:1 14106:1 14107:1 14108:2 14109:1 14110:1 14111:1 14112:1 14113:1 14114:1 14115:1 14116:1 #
0.0045294029028946566906022042076074 9:1 51:1 132:1 382:1 616:1 731:1 777:1 813:1 896:1 1123:1 1124:1 1125:1 1126:1 1127:2 1128:1 1129:1 1130:1 1131:1 1132:1 1133:1 1134:1 1135:1 1136:1 1137:1 1138:1 1139:1 #
-0.0045294029028946566906022042076074 9:1 260:1 627:1 734:1 993:1 1406:1 2673:1 3358:1 3606:1 5928:2 5929:1 5930:1 5931:1 5932:1 5933:1 #
-0.001498402127109375349400810506495 3:3 5:6 30:1 37:1 73:1 129:1 148:1 317:1 465:1 548:1 920:1 1233:3 1234:2 1411:1 1446:1 1449:1 1911:1 2276:1 2719:1 2875:1 3348:1 3484:1 3586:1 5277:1 5278:1 5279:3 5280:2 5281:1 5282:1 5283:1 5284:1 5285:1 5286:1 5287:1 5288:1 5289:1 5290:1 5291:1 5292:1 5293:1 5294:1 5295:1 5296:1 #
0.0045294029028946566906022042076074 1:1 7:7 120:1 132:3 140:1 160:1 213:1 266:2 320:4 412:1 606:1 689:1 699:1 913:1 1305:1 1306:2 1307:1 1308:2 1309:1 1310:1 1311:1 1312:1 1313:1 1314:1 1315:1 1316:1 1317:1 1318:2 1319:1 1320:1 1321:2 1322:1 1323:1 #
0.0045294029028946566906022042076074 1:4 7:4 16:2 20:1 51:1 53:1 96:1 123:1 158:3 159:1 160:1 179:1 180:1 186:2 191:1 200:1 287:1 345:1 501:2 523:1 524:1 525:1 526:3 527:1 528:1 529:1 530:1 531:1 532:1 533:1 534:1 535:1 536:1 537:1 538:1 539:1 540:2 541:4 542:4 543:2 544:4 545:2 546:2 547:2 548:1 549:1 550:2 551:1 552:1 553:1 554:2 555:1 556:1 557:1 558:1 559:1 560:1 561:1 562:1 563:1 564:2 565:1 566:1 567:1 568:1 #
0.0045294029028946566906022042076074 1:2 7:2 26:1 36:1 51:4 103:1 120:2 132:1 159:1 179:1 186:2 200:1 213:2 223:1 396:1 489:1 572:1 596:1 681:1 689:1 699:1 701:1 720:1 721:1 722:1 723:2 724:1 725:11 726:1 727:1 728:3 729:1 730:2 731:2 732:1 733:1 734:1 735:1 736:1 737:1 738:1 739:1 740:1 741:1 742:1 743:1 744:1 745:1 #
0.0045294029028946566906022042076074 1:3 7:3 9:2 49:3 50:1 51:1 52:3 53:2 54:1 55:1 56:1 57:1 58:1 59:1 60:1 61:1 62:2 63:1 64:2 65:2 66:2 67:1 68:1 69:1 70:1 71:1 72:1 73:2 74:1 75:1 76:1 77:1 78:1 79:1 80:1 81:1 82:1 83:1 84:1 85:1 86:1 87:1 #
0.0045294029028946566906022042076074 1:3 9:4 16:1 27:1 37:1 59:1 120:8 121:1 169:3 181:2 199:1 200:2 291:2 292:3 293:1 294:1 295:1 296:1 297:1 298:1 299:1 300:1 301:1 302:6 303:1 304:3 305:1 306:2 307:1 308:1 309:1 310:1 311:1 312:1 313:2 314:1 315:1 316:1 317:1 318:1 319:1 320:2 321:1 322:1 323:1 324:1 325:1 326:1 327:1 328:1 329:2 330:1 331:1 332:1 333:1 334:1 335:1 336:1 337:1 338:1 339:2 340:1 341:1 342:1 343:1 344:1 345:2 346:1 347:1 348:1 349:1 350:1 351:1 352:2 353:3 354:2 355:2 356:2 357:1 358:1 359:1 360:1 361:1 362:1 363:1 364:1 365:1 366:1 367:1 368:3 369:1 370:1 371:1 372:2 373:1 374:1 375:1 376:1 377:1 378:1 379:1 380:1 381:1 382:1 383:1 384:1 385:1 #
-0.0010976494413256542102136359417841 23:2 132:1 179:1 183:1 525:1 616:1 622:1 783:1 795:1 1278:2 1513:1 2004:1 2229:1 2888:1 8145:1 8249:1 13222:1 17498:1 17499:1 17500:1 17501:1 #
-0.0012061033520656954266120353125302 1:1 7:3 50:1 57:1 186:1 200:2 321:2 419:2 524:2 614:1 681:1 728:2 813:1 819:1 1779:2 1974:1 2147:1 2391:1 2715:1 3490:1 3491:1 8077:1 11969:1 15496:2 #
-0.00079015598510398066083026957784341 2:1 7:2 53:1 120:3 132:2 166:2 271:1 306:4 403:2 406:2 503:2 540:2 541:4 542:4 545:2 546:2 725:4 734:2 752:4 753:2 754:2 886:1 950:2 1018:1 1044:5 1157:1 1336:3 1398:1 1500:1 1947:1 2105:1 2154:2 2181:1 2182:1 2767:1 2773:1 3682:1 3795:2 3902:1 4342:6 4669:1 7776:1 9390:2 10634:1 18007:2 30992:1 31094:1 31095:2 31096:1 31097:2 31098:1 31099:1 31100:3 31101:1 31102:1 31103:1 31104:1 31105:1 31106:1 31107:1 #
-8.4259768006884645689740735013951e-07 1:1 7:1 16:5 57:1 120:1 136:18 166:1 194:1 205:1 211:1 227:1 235:4 238:4 239:1 251:31 266:2 347:18 350:1 443:2 478:1 493:3 503:1 541:1 542:1 544:1 546:1 622:1 688:2 739:1 753:1 754:1 936:4 942:2 1057:1 1924:1 2029:2 2202:1 2720:1 2824:2 3284:1 3285:1 3300:1 4180:2 5950:1 6318:1 6908:1 6936:1 7064:1 7208:1 7423:5 10330:2 10334:2 11111:13 17463:1 18450:1 29480:1 29715:1 29716:1 29717:1 29718:16 29719:1 29720:1 29721:1 29722:1 29723:2 29724:1 29725:1 29726:1 29727:1 29728:1 29729:1 29730:1 29731:1 29732:2 29733:1 29734:1 29735:3 29736:1 29737:1 29738:1 29739:1 29740:1 29741:1 29742:1 29743:1 29744:1 29745:1 29746:1 29747:1 29748:1 29749:1 29750:1 29751:1 29752:1 29753:1 29754:1 29755:1 29756:1 29757:1 29758:1 29759:1 29760:1 29761:2 29762:1 29763:2 29764:1 29765:1 29766:1 29767:1 29768:1 29769:1 #
-0.00097283871086228013071867115613145 120:1 132:1 159:3 223:4 266:1 271:2 292:1 306:1 412:1 427:1 454:1 485:1 556:1 571:1 600:5 628:1 679:1 689:5 699:1 874:1 1000:1 1020:1 1030:1 1179:1 1193:1 1195:1 1630:1 1930:1 1973:1 2074:1 2077:1 2099:1 2474:1 3917:1 4303:1 6260:2 7072:4 12960:1 21320:1 24874:1 24875:1 24876:1 24877:1 24878:1 24879:1 24880:1 24881:1 24882:1 24883:1 24884:1 24885:1 24886:1 24887:1 24888:1 #
0.0045294029028946566906022042076074 1:1 9:3 12:1 74:1 76:1 120:3 121:5 126:2 169:6 199:1 200:1 208:2 209:6 210:1 211:1 212:1 213:1 214:4 215:2 216:1 217:1 218:1 219:4 220:3 221:1 222:3 223:7 224:1 225:1 226:4 227:1 228:1 229:4 230:1 231:1 232:1 233:2 234:2 235:1 236:1 237:1 238:8 239:4 240:4 241:3 242:1 243:2 244:3 245:2 246:2 247:1 248:1 249:1 250:1 251:4 252:1 253:1 254:1 255:1 256:2 257:1 258:1 259:1 260:1 261:1 262:1 263:1 264:1 265:1 266:1 267:1 268:1 269:1 270:1 271:2 272:2 273:1 274:1 275:2 276:1 277:1 278:4 279:1 280:1 281:1 282:1 283:1 284:1 285:1 286:1 287:1 288:1 289:1 290:1 #
0.0045294029028946566906022042076074 1:1 7:2 72:1 112:1 120:1 121:1 129:2 132:1 186:2 421:1 478:1 479:3 480:1 481:1 482:1 483:1 484:1 485:1 486:1 487:1 488:1 489:1 490:1 491:1 492:1 493:1 494:2 495:1 496:1 497:1 498:1 499:2 500:1 501:1 502:1 503:1 504:1 505:1 506:1 507:2 508:1 509:1 510:1 511:1 512:1 513:1 514:1 515:1 516:1 517:1 518:1 519:1 520:1 521:1 522:1 #
0.0045294029028946566906022042076074 1:2 9:1 112:1 120:4 149:1 150:1 160:1 183:1 186:2 188:1 206:2 306:1 706:1 1051:1 1170:1 1203:1 1204:2 1205:3 1206:1 1207:1 1208:1 1209:1 1210:1 1211:1 1212:1 1213:1 1214:4 1215:2 1216:4 1217:2 1218:4 1219:2 1220:1 1221:1 1222:1 1223:1 1224:1 1225:1 1226:1 1227:1 1228:1 1229:1 1230:1 #
0.0045294029028946566906022042076074 1:2 9:1 72:1 132:1 229:4 731:1 894:1 898:2 910:1 976:1 1143:1 1433:1 1434:1 1435:1 1436:1 1437:1 1438:1 1439:1 1440:1 1441:2 1442:1 1443:1 1444:1 1445:1 1446:1 1447:2 1448:2 1449:1 1450:1 1451:1 1452:1 1453:1 1454:1 #
-0.0027467681314569613280907045549384 9:1 12:1 85:1 87:1 130:1 131:1 145:1 159:1 191:1 200:1 204:2 229:2 331:1 362:1 443:2 487:1 532:1 548:1 644:1 648:1 731:1 986:1 1400:1 1934:2 2688:1 2692:1 3361:1 3437:1 3462:2 3703:3 5283:1 7337:1 7651:1 10278:1 14660:1 14661:3 14662:1 #
-0.00056002650372372541828780434514101 1:1 10:1 51:1 71:1 120:2 181:1 229:6 235:1 532:1 538:1 699:1 746:1 920:1 1081:1 1355:1 1934:1 2320:1 2595:2 11185:1 11421:2 13537:1 14784:2 14785:2 14786:2 14787:1 14788:1 #
-0.00042587162010834816354767906609879 1:1 51:4 102:2 154:1 185:1 186:5 481:2 571:1 813:1 920:1 1038:1 1054:1 1089:5 1366:1 1484:1 1652:1 1990:3 1992:6 2351:1 2479:1 5091:1 8700:1 10245:2 14007:2 14682:1 18495:8 18496:4 18497:1 18498:1 18499:1 #
-0.00035156566910348558893661952140519 1:1 132:2 166:1 321:1 350:1 356:2 424:1 485:1 590:1 694:1 1018:1 1073:1 1081:1 1104:2 1308:1 1358:1 1397:2 1596:1 1936:1 2050:1 2079:1 2391:1 2876:1 3208:1 3585:1 3586:1 3587:1 3588:1 3589:1 3590:1 3591:1 3592:1 3593:1 3594:1 3595:1 #
-0.0004607121138939909211519607712404 120:1 132:1 429:1 456:1 1045:1 1306:16 1323:1 1351:3 1940:1 1947:1 2182:1 4923:1 5682:1 6183:1 6186:1 13128:1 15738:1 16353:1 16354:1 #
0.0045294029028946566906022042076074 3:1 5:1 9:1 120:2 148:1 159:1 161:1 166:2 169:3 221:1 417:1 435:1 496:1 532:1 540:1 541:2 542:2 545:1 546:1 554:2 627:1 705:1 738:1 746:1 747:1 748:1 749:4 750:1 751:2 752:2 753:1 754:1 755:1 756:1 757:1 758:1 759:1 760:1 761:1 762:1 763:2 764:1 765:1 766:1 767:1 768:1 769:1 770:1 771:1 772:1 #
0.0045294029028946566906022042076074 50:1 162:1 166:1 402:1 415:1 530:1 540:1 541:2 542:2 545:1 546:1 750:1 752:2 753:1 754:1 755:1 785:1 1193:1 1194:1 1195:1 1196:2 1197:1 1198:1 1199:1 1200:1 1201:1 1202:2 #
0.0045294029028946566906022042076074 1:2 13:5 20:1 57:3 85:1 87:1 105:1 158:1 160:1 166:7 168:2 315:1 334:3 413:1 503:1 540:1 541:2 542:2 717:1 723:1 752:1 783:2 976:1 1370:1 1371:1 1372:2 1373:1 1374:3 1375:2 1376:1 1377:1 1378:1 1379:1 1380:5 1381:1 1382:4 1383:1 1384:1 1385:1 1386:1 1387:1 1388:1 1389:1 1390:2 1391:1 1392:1 1393:1 1394:1 1395:1 1396:1 1397:1 1398:1 1399:1 1400:1 1401:1 1402:2 1403:2 1404:1 1405:1 #
0.0045294029028946566906022042076074 540:1 541:2 542:2 545:1 546:1 616:1 699:1 750:1 752:2 809:1 810:1 811:1 812:1 813:1 814:1 815:2 816:2 817:1 818:1 #
0.0045294029028946566906022042076074 1:1 9:4 43:1 74:1 112:1 120:1 129:1 162:1 166:1 169:1 181:1 431:1 432:1 540:1 541:2 542:2 545:1 546:1 631:1 731:2 750:1 752:2 753:1 754:1 755:1 780:1 832:1 862:2 920:3 1143:1 1152:1 1163:1 1170:1 1191:1 1244:1 1245:1 1246:2 1247:1 1248:1 1249:1 1250:1 1251:1 1252:4 1253:1 1254:1 1255:1 1256:1 1257:1 1258:4 1259:1 1260:1 1261:1 1262:1 1263:1 1264:1 1265:1 1266:1 1267:1 1268:1 1269:1 1270:1 1271:1 1272:1 1273:1 1274:1 1275:1 #
-2.2168471689755995244260761145583e-05 1:1 72:3 149:1 159:1 200:1 554:1 560:4 601:1 603:1 651:2 793:1 917:1 1081:1 1106:4 1144:2 1158:3 1409:1 1500:1 1594:1 1779:1 1906:1 1966:1 1967:1 1968:1 1969:1 1970:2 1971:1 1972:2 1973:1 1974:1 #
-0.003960887371486418624677572353221 74:2 103:1 166:1 169:1 179:1 185:1 202:2 212:1 219:1 225:1 296:1 317:1 412:1 473:1 480:1 540:2 541:4 542:4 545:2 546:2 750:2 752:4 753:1 754:1 755:1 1201:1 1273:1 1434:1 1610:1 1958:1 2181:1 2979:1 3521:1 4727:1 6404:1 7372:1 9062:1 12202:1 16711:1 29989:1 29990:2 29991:1 29992:1 29993:1 29994:2 29995:1 29996:1 29997:1 #
-0.00023363308014259014599132979750351 1:2 78:1 123:1 166:6 525:1 530:1 541:3 542:2 546:2 549:1 555:1 606:1 723:1 752:3 753:2 754:2 874:1 1326:1 1469:1 1509:1 1975:1 1981:1 2320:1 2670:1 2977:1 3068:2 3401:1 3403:2 3805:1 7209:1 7921:2 8181:1 10486:1 12961:1 24205:1 24206:1 24207:1 24208:1 24209:1 #
-0.00092577585817749737280568655961588 1:1 12:4 27:1 36:3 44:2 46:1 85:1 132:1 158:1 166:4 178:1 229:1 304:2 315:1 365:1 412:1 503:1 525:2 541:5 542:5 546:5 594:1 601:1 689:1 723:6 752:5 753:4 754:4 756:1 798:1 812:1 820:1 878:1 894:1 976:1 1013:2 1027:1 1306:2 1345:1 1446:2 1464:1 1528:2 1557:1 1568:1 1765:2 1917:1 1977:1 2020:1 2084:2 2129:3 2222:1 2282:1 2312:1 2381:2 2437:1 2680:1 3068:4 3206:1 3248:1 3915:1 3963:1 4223:1 4977:1 5572:1 5582:5 6403:1 6522:1 7161:1 7597:1 7652:1 8826:1 9761:1 10822:1 11799:1 12943:2 12944:1 12945:1 12946:1 12947:1 12948:2 12949:2 12950:1 12951:1 12952:1 12953:1 12954:1 12955:1 12956:2 12957:1 12958:1 12959:1 12960:1 12961:3 12962:1 12963:1 12964:2 12965:1 12966:1 12967:1 12968:1 12969:1 12970:1 12971:1 12972:1 12973:1 12974:1 12975:1 12976:1 12977:1 12978:1 12979:1 #
-0.00163563970607789074644677906889 1:2 71:1 120:2 132:2 161:1 169:1 213:1 214:1 219:1 233:1 367:2 426:1 432:1 584:1 595:1 677:1 705:1 778:1 789:1 832:1 920:1 922:2 1170:1 1428:1 1645:2 1825:1 3673:1 4533:1 5110:1 9157:1 11285:1 12147:1 13276:1 22838:1 22839:1 22840:1 22841:1 22842:1 22843:1 22844:1 22845:1 22846:1 22847:1 22848:1 22849:1 #
0.001384989402613187679108586181087 1:2 9:8 16:1 57:1 85:1 120:7 132:1 133:1 181:1 201:1 211:1 227:1 229:5 247:1 260:2 261:2 271:1 304:2 396:1 406:5 443:2 623:3 624:1 635:1 648:1 660:3 717:1 746:1 810:1 832:1 927:2 928:1 929:1 930:1 931:1 932:1 933:1 934:1 935:1 936:1 937:2 938:1 939:2 940:1 941:1 942:1 943:1 944:1 945:1 946:1 947:3 948:1 949:1 950:1 951:1 952:1 953:6 954:1 955:2 956:1 957:1 958:1 959:2 960:1 961:3 962:6 963:4 964:1 965:2 966:3 967:2 968:2 969:3 970:3 971:3 972:2 973:2 974:2 975:1 976:1 977:4 978:1 979:2 980:1 981:1 982:1 983:1 984:4 985:4 986:2 987:2 988:1 989:1 990:2 991:3 992:1 993:1 994:1 995:1 996:1 997:1 998:1 #
0.0045294029028946566906022042076074 1:2 7:3 50:2 51:2 57:1 321:1 349:1 396:1 406:1 530:1 548:1 598:4 599:1 600:2 601:2 602:1 603:1 604:1 605:2 606:2 607:3 608:1 609:1 610:1 611:1 612:3 613:1 614:1 615:1 616:1 617:1 618:1 619:1 620:1 #
0.0045294029028946566906022042076074 1:2 9:1 13:1 93:2 120:1 132:1 159:1 406:1 412:2 421:1 449:2 662:1 978:1 1142:1 1235:1 1248:2 1272:1 1306:1 1348:1 1349:1 1350:1 1351:2 1352:1 1353:1 1354:1 1355:1 1356:1 1357:1 1358:1 1359:1 1360:1 1361:2 1362:1 1363:1 1364:1 1365:1 1366:1 1367:1 1368:1 1369:1 #
-0.00051075231409858270602980523378278 120:1 132:2 169:3 176:1 184:1 188:1 214:7 221:4 268:1 284:1 331:1 396:1 424:4 431:1 479:2 503:1 532:4 725:6 731:18 832:1 952:5 1164:1 1177:1 1196:2 1363:1 1509:2 1796:1 2003:1 2060:1 2154:1 2245:1 2899:1 3419:1 4290:1 5283:1 6177:1 7354:2 8075:1 8431:4 9582:2 10501:1 17839:2 20205:1 21713:1 23130:1 26748:1 26749:1 26750:1 26751:2 26752:2 26753:1 26754:1 26755:1 26756:1 26757:1 26758:7 26759:1 26760:2 26761:2 26762:3 26763:1 26764:3 26765:3 26766:1 26767:1 26768:1 26769:4 26770:2 26771:6 26772:2 26773:8 26774:1 26775:2 26776:2 26777:3 26778:1 26779:1 26780:1 #
-0.00030158844773959424733975054344626 1:3 2:1 5:1 10:1 13:5 20:2 91:2 120:2 132:1 159:1 163:2 169:8 194:2 204:5 213:1 214:5 221:1 223:9 225:2 244:4 260:3 268:1 271:3 275:1 309:3 320:1 331:1 373:1 459:1 580:1 597:1 635:1 725:7 922:3 1129:1 1146:1 1163:2 1190:1 1391:1 1415:1 1530:1 1621:1 1788:3 1814:1 1973:1 2008:1 2169:4 2245:2 2335:2 2474:2 4091:1 5233:1 5327:1 6055:2 6465:1 8380:1 9555:2 10784:1 11747:1 12524:1 13397:1 13439:1 19955:17 22314:1 27713:1 27714:4 27715:3 27716:1 27717:1 27718:1 27719:1 27720:1 27721:1 27722:3 27723:4 27724:2 27725:4 27726:1 27727:1 27728:1 27729:2 27730:1 27731:1 27732:2 27733:2 27734:2 27735:1 27736:1 27737:1 27738:1 27739:2 27740:2 27741:2 27742:1 27743:1 #
-0.00038653461821602981031420487312289 1:1 7:9 24:1 42:1 50:4 51:2 87:1 120:2 121:1 132:2 140:1 186:1 191:1 200:1 201:6 213:1 292:3 315:2 321:2 331:2 362:1 454:1 510:1 603:1 617:1 701:1 725:2 734:1 746:1 922:2 1020:1 1026:1 1066:4 1568:1 1613:1 1743:1 1764:5 1849:2 1933:5 1944:1 1974:1 2031:1 2038:2 2360:1 2582:4 3012:1 3559:1 3844:9 3867:1 4531:2 4597:2 5021:2 5025:1 6655:1 7999:3 8280:1 11571:1 11875:1 11876:1 11877:1 11878:1 11879:4 11880:1 11881:1 11882:4 11883:2 11884:2 11885:1 11886:1 11887:4 11888:1 11889:2 11890:1 11891:1 11892:1 11893:1 11894:1 11895:1 11896:1 #
-0.0005485612799591767533777253440519 1:1 7:6 19:2 20:1 50:1 78:1 129:2 132:1 223:1 396:1 492:1 681:1 686:1 689:1 759:1 784:1 978:2 1000:1 1272:1 1768:1 1790:1 1936:1 1973:1 2456:1 3022:1 3030:1 3039:4 3726:1 4464:1 5296:1 7601:1 9559:1 10359:1 11454:1 13337:1 28737:1 28738:4 28739:3 28740:1 28741:1 28742:1 28743:1 #
-0.00069731752040516669158276563678101 7:2 44:1 50:1 51:1 57:1 129:3 198:1 235:1 427:1 479:1 496:1 598:3 605:2 780:1 854:1 996:1 1172:1 1188:2 1367:1 1438:1 1466:1 1796:2 3024:1 4950:1 6230:1 13105:3 13106:1 13107:1 13108:1 13109:1 #
0.0045294029028946566906022042076074 1:1 12:4 44:1 129:1 162:1 200:1 243:1 399:1 496:1 604:1 698:1 720:1 723:1 773:1 774:1 775:1 776:1 777:2 778:1 779:1 780:2 781:1 782:2 783:2 784:1 785:1 786:1 787:1 788:1 789:1 790:1 791:3 792:1 793:1 794:1 795:1 796:1 797:1 798:1 799:1 800:1 801:1 802:1 803:1 804:1 805:1 806:1 807:1 808:1 #
0.0045294029028946566906022042076074 105:1 163:2 540:2 541:2 542:2 544:2 549:1 699:1 734:1 750:1 790:1 875:1 876:2 877:2 878:1 879:1 880:1 881:1 882:1 #
0.0045294029028946566906022042076074 43:1 76:1 202:1 487:2 496:1 689:1 914:1 1081:1 1121:1 1187:1 1188:1 1189:1 1190:1 1191:1 1192:1 #
0.0045294029028946566906022042076074 150:1 156:1 159:2 186:1 486:1 556:1 1238:1 1239:1 1240:1 1241:1 1242:1 1243:1 #
0.0045294029028946566906022042076074 1:1 406:1 407:1 408:3 409:1 410:1 411:1 #
-0.0045294029028946566906022042076074 1:1 9:2 128:1 159:2 167:2 181:1 202:3 396:2 412:1 424:2 530:1 598:2 993:1 1385:1 1973:1 2473:1 2474:3 2475:1 2476:1 2477:1 2478:1 2479:1 2480:1 #
-0.00021327155797855177525937375726528 1:2 99:1 120:1 183:1 209:1 213:1 238:20 251:38 263:10 266:12 355:1 402:2 442:2 635:2 706:1 810:1 832:1 847:9 889:3 946:2 1044:3 1045:1 1484:1 1499:1 1950:1 2172:5 2673:1 2692:2 2722:2 2799:1 3274:4 3275:1 3367:1 3758:3 3943:1 4171:1 4180:1 4451:1 4453:1 4456:9 4463:1 5644:2 6908:2 11556:1 15401:1 19210:1 20949:3 20950:1 20951:1 20952:1 20953:1 20954:1 20955:1 20956:1 20957:1 20958:1 20959:1 20960:2 20961:1 20962:9 20963:1 20964:1 20965:1 20966:1 20967:1 20968:1 20969:1 20970:1 20971:1 20972:1 20973:1 20974:1 20975:1 20976:1 20977:1 20978:1 20979:1 20980:1 20981:1 20982:1 20983:1 20984:1 20985:1 20986:1 20987:1 20988:1 20989:1 20990:1 #
-0.00041788834322474695780191833449635 1:1 99:1 120:1 148:1 166:1 209:3 396:1 544:3 1104:1 1876:1 2142:3 2195:3 3518:1 4624:1 5125:1 5937:3 7111:1 7906:1 17517:1 17518:3 17519:2 17520:3 17521:1 17522:1 17523:3 17524:3 17525:3 17526:2 17527:3 17528:1 17529:1 17530:1 17531:1 17532:1 17533:1 17534:1 17535:1 17536:1 #
-0.00026107485777070307342642707659763 1:2 103:2 120:1 132:1 160:2 194:1 284:1 331:1 426:1 465:2 487:1 572:1 593:2 688:1 833:3 841:8 912:3 993:1 1336:1 1569:1 1615:3 1763:1 1936:1 2412:1 2873:1 3241:1 3703:2 8724:1 12547:1 13816:1 14828:1 14829:1 14830:4 14831:1 14832:1 14833:1 14834:2 14835:1 14836:1 14837:1 #
-0.0045294029028946566906022042076074 1:1 16:1 17:1 208:1 209:1 632:1 652:2 13439:1 24245:1 26727:1 #
-0.00025898870588065284669906929160277 82:1 209:1 554:3 688:1 750:1 1470:1 1849:2 2957:2 9817:1 10052:1 11162:1 19213:1 26169:1 26170:1 26171:1 26172:1 26173:1 26174:2 26175:1 26176:1 26177:1 #
-5.4890321673904680758755009195582e-05 1:2 31:1 42:1 75:3 120:3 161:1 169:1 181:1 209:4 212:1 396:1 424:1 456:1 569:1 635:1 642:2 651:1 681:1 717:2 839:2 933:1 1105:1 1270:1 1363:1 1370:1 1594:1 1610:1 1651:1 1690:1 1728:1 1774:1 2052:1 2095:1 2142:1 2595:1 2605:1 2774:1 3206:1 3352:2 3597:1 3673:1 3703:1 3987:3 4679:1 4901:1 4904:1 5492:1 6950:1 6985:1 9133:2 12009:1 12188:1 12386:1 21018:1 26004:1 27177:1 27178:1 27179:1 27180:2 27181:1 27182:1 27183:2 27184:1 27185:1 27186:1 27187:1 27188:1 27189:1 27190:5 27191:3 27192:1 27193:1 27194:1 27195:1 27196:1 27197:1 #
0.0045294029028946566906022042076074 1:3 7:1 9:1 36:1 50:2 62:2 66:3 132:2 159:2 194:1 208:1 291:1 355:1 537:1 677:1 686:1 731:2 813:2 874:1 894:2 896:3 1276:1 1287:1 1306:1 1324:1 1325:1 1326:1 1327:1 1328:1 1329:1 1330:1 1331:1 1332:1 1333:1 1334:1 1335:1 1336:1 1337:1 1338:1 1339:1 1340:1 1341:1 1342:1 1343:1 1344:1 1345:1 1346:1 1347:1 #
0.0045294029028946566906022042076074 1:1 7:2 44:1 51:1 73:1 199:1 212:1 273:1 584:1 748:1 1057:1 1058:1 1059:1 1060:1 1061:1 1062:1 #
0.0045294029028946566906022042076074 1:1 3:1 7:1 57:1 114:1 132:1 203:1 209:1 386:1 387:2 388:1 389:1 390:2 391:2 392:1 393:1 394:1 395:1 396:1 397:1 398:1 399:1 400:1 401:1 402:1 403:1 404:1 405:1 406:1 #
-0.00086725742751236531945246976960107 1:2 17:1 40:1 74:1 99:1 132:4 177:2 186:1 206:1 284:1 382:5 505:1 593:1 617:1 652:2 705:1 715:1 737:1 783:4 813:1 843:6 896:2 912:2 1323:2 1358:1 1393:1 1414:2 1422:1 1480:1 1500:1 1541:1 1560:2 1568:1 1569:3 1648:1 1663:1 1807:3 1834:1 2774:1 2876:2 2994:2 3022:1 3367:1 3442:1 3594:2 3943:1 4728:1 4842:1 4961:1 6437:2 6802:2 8534:1 9393:1 10736:1 13287:3 13577:1 13578:1 13579:1 13580:4 13581:1 13582:2 13583:1 13584:2 13585:1 13586:1 13587:1 13588:1 13589:1 13590:1 13591:1 13592:1 13593:1 13594:1 13595:1 #
0.0045294029028946566906022042076074 108:1 109:1 110:1 111:1 112:1 113:1 114:1 115:1 116:1 117:1 118:1 119:1 120:1 #
-0.0045294029028946566906022042076074 7:1 9:1 16:1 83:2 96:1 601:2 616:1 993:1 1084:1 1971:1 4047:2 8315:1 8316:1 #
0.0045294029028946566906022042076074 1:1 9:2 22:1 71:1 118:1 120:1 132:1 150:1 166:3 229:1 382:1 396:1 621:1 622:1 623:1 624:1 625:1 626:1 627:1 628:1 629:1 630:1 631:1 632:1 633:1 634:1 635:1 636:1 637:2 638:1 639:1 640:1 641:1 642:1 643:1 644:1 645:1 646:1 647:1 648:1 649:1 650:1 651:1 652:2 653:1 654:1 655:1 656:1 657:1 658:1 659:1 660:3 661:1 662:1 663:1 664:1 665:1 666:1 667:1 668:1 669:1 670:1 671:1 #
0.0045294029028946566906022042076074 1:2 9:1 22:1 50:1 103:1 120:1 132:1 424:1 532:1 689:1 819:1 820:1 821:1 822:1 823:1 824:1 825:1 826:1 827:1 828:1 829:1 830:1 831:1 832:1 833:2 834:1 835:1 836:1 837:1 838:1 839:1 840:1 841:1 #
-0.0045294029028946566906022042076074 1:1 9:1 487:1 644:2 1019:1 1027:1 1110:1 2040:2 2692:1 16579:1 16580:1 #
-0.0040945937959906957698263951783701 1:1 7:3 26:1 50:1 140:1 485:4 492:1 510:1 689:1 1354:2 3867:1 3925:1 3926:1 3927:1 #
-6.765491544889274999662401310907e-06 1:1 17:1 20:1 120:1 132:1 159:1 219:1 229:1 261:1 266:1 287:3 317:1 335:1 402:1 413:2 479:1 503:1 553:2 612:1 996:1 1043:1 1080:1 2510:1 2511:2 2512:1 2513:1 2514:1 2515:1 2516:1 2517:1 2518:1 2519:1 2520:10 2521:1 2522:10 2523:1 2524:10 2525:10 2526:10 2527:1 2528:1 2529:1 2530:1 2531:1 2532:1 2533:1 2534:1 2535:1 2536:1 2537:1 2538:1 2539:1 2540:1 2541:1 2542:1 2543:1 2544:1 2545:1 2546:1 2547:1 2548:1 2549:1 2550:1 2551:1 2552:1 2553:1 2554:1 2555:1 2556:1 2557:1 2558:1 2559:1 #
-0.0015510927545246944690704449243412 1:2 60:1 148:1 182:1 412:1 580:1 599:1 623:1 725:3 832:1 1521:1 2166:1 9729:3 11083:1 11654:3 15869:1 16426:1 20991:2 20992:1 20993:1 20994:2 20995:1 20996:2 20997:1 20998:1 20999:1 21000:1 21001:1 21002:1 21003:1 21004:1 #
-0.00063761116618930543161608559543652 1:1 62:2 66:1 171:1 832:1 1085:1 1372:3 1652:1 1851:1 1852:1 3295:1 3333:1 8564:2 8565:1 8566:1 8567:1 8568:1 8569:1 8570:1 8571:1 8572:1 #
0.0045294029028946566906022042076074 1:1 7:1 76:1 123:1 496:1 777:1 976:1 1071:1 1072:1 1073:2 1074:1 1075:1 1076:1 1077:1 1078:1 1079:1 1080:1 1081:1 1082:1 1083:1 1084:1 #
0.0045294029028946566906022042076074 20:1 23:1 51:1 133:1 417:1 421:1 1129:1 1170:2 1171:1 1172:1 1173:1 1174:1 1175:1 1176:2 #
0.0045294029028946566906022042076074 1:1 13:1 159:2 418:2 580:1 616:1 1143:1 1177:1 1178:1 1179:1 1180:1 1181:2 1182:1 1183:1 1184:1 1185:1 1186:1 #
0.0045294029028946566906022042076074 1:1 9:1 406:1 412:1 920:1 1231:1 1232:1 1233:1 1234:1 1235:1 1236:1 1237:1 #
0.0045294029028946566906022042076074 13:2 148:1 159:1 188:1 412:2 413:2 414:2 415:2 416:1 417:1 418:1 419:1 420:1 #
-2.7147904577063308641932115605755e-07 148:1 159:2 368:1 652:1 840:1 976:2 1043:1 1272:1 5167:3 11654:3 17228:1 17229:1 17230:1 #
-0.00065038725939468161607592833206581 1:3 46:1 56:1 57:1 58:1 76:1 132:1 211:1 260:1 369:2 398:1 412:1 563:2 572:1 651:1 680:1 792:1 1170:5 1172:4 1446:1 1449:1 1634:1 1970:2 2589:1 3252:2 3268:1 3295:1 4071:1 4426:5 4692:1 10735:1 13109:1 13421:1 15382:1 24023:2 24024:1 24025:2 24026:2 24027:1 24028:1 24029:2 24030:2 24031:2 24032:1 24033:1 24034:1 #
0.0045294029028946566906022042076074 1:2 7:1 9:1 87:1 364:1 487:1 488:1 832:1 842:1 843:1 844:1 845:1 846:2 847:1 848:1 849:1 850:1 851:1 #
-0.00016897272119249499996128383028093 1:1 13:2 14:1 17:1 20:1 25:1 36:1 44:1 128:1 129:2 132:2 181:1 201:1 205:1 217:1 220:1 229:1 244:3 260:2 261:12 266:7 365:1 412:1 413:1 418:1 478:1 494:1 525:1 528:1 549:1 580:1 653:1 661:1 699:1 725:1 744:1 813:1 846:1 946:7 947:7 986:7 1043:1 1147:1 1148:1 1149:1 1150:1 1151:1 1152:1 1168:1 1228:1 1302:1 1389:2 1521:6 1705:1 1877:1 2203:3 2336:1 2852:1 2875:1 3273:2 3278:2 3283:1 4483:1 4628:1 4717:1 7854:1 7875:3 7877:1 8520:1 13983:1 14756:1 15136:1 15142:1 15630:2 23972:2 24334:1 24335:1 24336:1 24355:1 29787:1 29788:1 29789:1 29790:2 29791:1 29792:1 29793:2 29794:1 29795:1 29796:3 29797:1 29798:1 29799:3 29800:1 29801:1 29802:1 29803:1 29804:1 29805:1 29806:1 29807:1 29808:1 29809:1 29810:5 #
-0.00082457221133341569805491610978265 7:2 169:3 176:2 201:1 421:2 487:3 572:1 914:3 1084:1 1152:4 1381:1 2136:2 2182:1 2435:1 2582:1 2645:1 2646:1 2647:1 2648:2 2649:1 2650:1 2651:1 2652:2 2653:1 2654:1 2655:4 2656:6 2657:1 2658:1 2659:1 2660:1 2661:1 2662:1 2663:1 #
-0.0045294029028946566906022042076074 1:1 6:1 9:2 19:2 53:1 103:1 120:2 132:1 179:1 181:1 213:1 229:1 284:1 365:1 392:1 394:1 406:2 424:1 532:1 572:1 653:1 717:1 734:1 839:1 903:1 996:1 1142:1 1216:2 1262:1 2473:1 4692:1 5025:1 5091:1 6332:1 7791:1 13327:1 16840:1 17744:1 22088:1 22089:1 22090:1 22091:1 22092:1 22093:3 22094:1 22095:1 22096:1 22097:1 22098:1 22099:4 22100:1 22101:1 22102:1 22103:1 22104:1 22105:1 22106:1 22107:1 22108:1 22109:1 22110:1 22111:1 22112:1 22113:1 22114:1 22115:1 22116:1 22117:1 #
-0.00037400338639280715806109678389646 1:1 10:1 50:1 73:1 83:1 132:1 154:2 159:1 166:1 198:1 199:1 243:1 396:1 402:3 412:1 549:1 645:3 689:1 1043:2 1104:3 1278:1 1295:1 1471:1 1779:1 2182:1 2347:2 2473:1 2581:1 2788:1 3309:1 7045:1 11986:1 12304:1 12305:2 12306:1 12307:1 12308:1 12309:1 12310:1 12311:3 12312:1 12313:1 12314:1 12315:1 #
-0.0014177359114190941045963167965738 1:1 109:1 112:1 120:1 123:1 132:1 159:1 507:1 601:1 616:1 684:1 715:3 759:1 1120:1 1318:1 1348:1 1744:1 2195:2 3572:1 5658:1 5717:2 15602:1 15603:1 15604:1 15605:1 #
0.0045294029028946566906022042076074 9:1 36:1 120:2 129:1 169:1 181:1 186:1 406:1 412:1 432:2 433:2 434:2 435:2 436:2 437:2 438:2 494:1 814:1 832:1 860:1 861:1 862:1 863:1 864:1 865:1 866:2 867:2 868:1 869:1 870:1 871:1 872:1 873:1 874:1 #
0.0045294029028946566906022042076074 1:1 9:2 201:1 271:1 564:1 617:1 681:1 715:2 917:1 918:1 919:1 920:2 921:1 922:1 923:1 924:1 925:1 926:1 #
0.0045294029028946566906022042076074 1:1 9:1 19:1 132:1 194:1 206:1 211:1 589:2 590:2 591:1 592:1 593:1 594:1 595:1 596:1 597:1 #
-0.00084677276020827738078899926676968 1:2 23:1 57:1 85:1 87:1 129:1 149:1 169:2 203:1 211:1 345:1 387:1 389:1 394:1 396:1 408:1 479:1 597:1 612:1 681:1 689:2 777:1 847:2 851:1 1168:1 1652:1 1948:1 1949:1 1950:1 1951:1 1952:2 1953:2 1954:1 1955:1 1956:1 1957:1 1958:1 1959:1 #
-5.5563214355878218046747019087661e-06 7:2 120:2 129:1 132:1 159:1 166:1 186:6 200:1 221:1 271:1 284:6 345:1 364:1 420:1 421:1 432:5 479:2 489:6 503:2 541:1 542:1 546:1 711:6 728:1 734:2 752:1 753:1 754:1 1011:1 1045:5 1142:4 1351:2 1410:5 1749:1 1850:1 1933:1 2358:8 3068:1 3403:1 3544:2 3854:1 4923:3 5018:1 5137:1 5682:8 6135:1 6252:2 11185:1 13616:2 13761:1 14571:1 15738:1 15739:1 15740:1 15741:1 15742:1 15743:2 15744:3 15745:1 15746:1 15747:1 15748:1 15749:1 15750:1 15751:3 15752:3 15753:1 15754:1 15755:1 15756:3 15757:1 15758:1 15759:1 15760:2 15761:2 15762:1 15763:2 15764:4 15765:1 15766:1 15767:1 15768:1 15769:1 15770:3 15771:4 15772:2 15773:1 15774:1 15775:1 15776:2 15777:1 15778:1 15779:1 15780:1 15781:1 15782:1 15783:1 15784:1 15785:1 15786:1 15787:1 15788:1 15789:1 15790:1 15791:1 15792:1 15793:1 15794:1 15795:1 #
-0.00053160277870790983729271106383862 1:1 50:1 200:2 296:1 421:1 606:1 677:1 686:1 805:1 1423:1 1693:1 2141:4 2335:1 2390:1 3214:1 5185:2 6361:2 7961:1 9559:2 25695:4 25713:1 25714:1 25715:1 25716:1 #
-0.0045294029028946566906022042076074 1:2 9:1 115:1 129:1 132:3 208:1 211:1 369:1 408:1 485:1 596:1 597:1 782:1 854:1 894:1 993:1 1174:1 1446:1 1466:1 1467:1 1468:1 1469:1 1470:1 1471:1 1472:1 1473:1 1474:1 1475:1 1476:1 1477:1 1478:1 #
0.0045294029028946566906022042076074 1:1 7:3 9:2 40:3 120:1 155:1 202:1 213:1 430:1 691:1 778:1 839:1 884:1 1043:4 1108:1 1212:1 1287:2 1288:1 1289:1 1290:1 1291:1 1292:3 1293:3 1294:1 1295:1 1296:1 1297:1 1298:1 1299:1 1300:1 1301:1 1302:1 1303:1 1304:1 #
0.0045294029028946566906022042076074 1:1 7:2 9:1 50:1 162:1 198:1 412:1 415:1 869:1 1063:1 1064:1 1065:1 1066:1 1067:1 1068:1 1069:1 1070:1 #
0.0045294029028946566906022042076074 9:1 26:1 162:2 306:1 396:1 415:1 496:1 561:1 569:1 570:1 571:1 572:1 573:1 574:1 575:1 576:1 577:2 578:1 579:1 580:1 581:1 582:1 583:1 584:1 585:1 586:1 587:1 588:1 #
-0.003527063472946980610123191013372 1:1 7:1 9:3 50:1 120:4 133:1 140:1 179:1 180:1 181:1 186:1 199:2 306:3 362:2 390:1 396:1 403:2 406:1 421:1 510:1 532:1 561:1 644:2 734:1 773:1 825:1 888:1 920:1 975:1 976:1 1044:4 1991:1 2023:4 2100:1 3275:1 3277:1 3348:1 3758:1 4977:1 5644:1 6206:1 6329:1 7164:1 11421:1 13008:2 14660:8 16007:2 16780:1 21142:1 23108:1 26311:2 26312:3 26313:1 26314:2 26315:1 26316:1 26317:1 26318:1 26319:1 26320:1 26321:1 26322:1 26323:1 26324:1 26325:1 26326:1 26327:1 26328:1 26329:1 26330:1 26331:1 26332:1 #
-0.0033874733122641986597656238444642 1:1 7:3 9:1 40:1 52:1 72:1 98:1 112:1 120:1 121:1 132:1 147:1 151:1 159:1 169:2 321:1 396:2 429:1 532:1 616:1 734:1 778:1 798:1 874:1 1580:1 1640:1 3017:1 3192:5 4815:1 5910:1 8314:1 8316:1 8547:3 8548:1 8549:1 8550:1 8551:1 8552:1 8553:1 8554:1 8555:1 8556:1 8557:1 8558:1 8559:1 8560:1 8561:1 8562:1 8563:1 #
-0.0045294029028946566906022042076074 1:2 7:4 364:1 412:1 677:1 1509:1 1949:1 2088:2 3490:2 3491:1 3492:1 3493:1 #
-0.0021538493430237563158735625279405 1:1 7:1 43:1 421:1 689:1 777:1 780:1 784:1 825:1 1021:1 1273:1 1465:1 1939:1 2257:1 2676:1 2982:1 3035:1 3548:1 3805:1 3831:1 4662:1 5738:1 11266:1 11559:1 23212:1 23213:1 23214:1 #
0.0045294029028946566906022042076074 9:1 37:1 153:2 162:1 163:1 179:1 180:1 181:1 182:1 183:1 184:1 185:2 186:2 187:1 188:1 189:1 190:1 191:1 192:1 193:1 194:1 195:1 196:1 197:1 198:1 199:1 #
-0.0017328697442359117762700204679049 66:2 99:1 559:1 699:1 706:1 898:2 1172:1 1283:1 1414:1 1780:1 2123:1 2589:1 3237:1 3238:1 3239:1 3240:1 3241:1 3242:1 3243:1 3244:1 3245:1 #
-0.0001356937492216892090970276063544 179:1 180:1 181:1 410:2 427:1 706:1 806:1 813:1 1106:1 1509:1 2153:1 4539:4 6071:1 6072:1 6073:1 6074:1 6075:1 6076:1 6077:1 #
-0.0025855900053815277124524829588381 20:1 186:1 722:1 738:1 841:1 893:1 3259:1 4791:1 6435:1 13103:1 13104:1 #
-0.00040367200705426623582455780692158 44:1 181:1 211:1 271:1 415:1 616:1 756:1 3348:1 3454:1 10562:1 10563:1 10564:1 10565:1 #
-0.0020127376549435539374033332649105 1:3 20:1 46:1 66:2 82:1 87:1 132:1 162:3 191:1 205:1 382:3 415:1 421:1 489:2 572:1 585:2 592:1 597:1 673:1 679:1 681:3 684:1 689:2 698:1 699:2 790:1 793:1 798:1 874:1 894:2 898:2 913:1 1023:1 1127:1 1168:1 1172:3 1849:1 1861:1 1871:2 1949:1 1967:1 2391:1 2473:1 2475:1 3597:1 3915:1 4607:2 4807:1 4977:1 6522:1 6741:2 7662:1 8094:1 8676:1 10102:1 10174:1 10859:1 13965:1 13966:1 13967:1 13968:1 13969:1 13970:1 13971:1 13972:1 13973:1 13974:1 13975:1 13976:1 13977:1 13978:1 13979:1 13980:1 13981:1 13982:1 13983:1 13984:1 13985:1 13986:1 13987:1 13988:1 13989:1 13990:1 13991:1 #
0.0045294029028946566906022042076074 1:1 9:1 76:1 160:1 417:1 482:1 677:1 996:1 1121:1 1406:1 1407:2 1408:2 1409:2 1410:3 #
0.0045294029028946566906022042076074 1:1 9:2 16:1 26:1 200:1 201:1 202:1 203:2 204:1 205:1 206:1 207:1 #
0.0045294029028946566906022042076074 1:1 7:1 9:2 88:1 89:4 90:1 91:2 92:2 93:1 94:1 95:1 96:1 97:1 98:1 99:1 100:1 101:1 102:1 103:1 104:1 105:1 106:1 107:1 #
0.0045294029028946566906022042076074 1:1 9:2 17:1 102:1 132:1 160:1 182:1 364:2 430:1 782:1 898:2 966:1 1057:1 1085:2 1086:2 1087:1 1088:1 1089:2 1090:1 1091:1 1092:1 1093:1 1094:2 1095:1 1096:1 1097:1 1098:1 1099:1 1100:1 1101:1 1102:1 #
-0.0038748768033883972290720709708012 9:1 16:1 31:2 50:1 129:2 148:1 183:1 200:1 220:1 233:1 530:2 711:1 734:1 782:1 921:1 1376:2 1438:1 1532:1 1548:2 1593:1 1843:1 2606:1 2875:1 3021:1 3055:1 3214:1 3831:1 4295:1 4468:1 8050:1 13113:1 14679:1 14680:1 14681:3 14682:1 14683:1 14684:1 14685:1 14686:1 #
-0.0031037823465687817275915350023752 9:1 120:1 159:1 201:1 221:1 421:1 532:1 677:1 706:1 741:3 2595:1 4490:1 5575:1 16014:5 16015:1 16016:1 16017:1 16018:1 16019:3 16020:1 16021:1 16022:1 16023:2 16024:1 16025:1 #
-0.001735296051560978247349509295816 1:1 26:1 76:1 106:1 159:2 204:1 244:1 260:1 293:3 387:2 412:2 418:2 443:3 482:1 541:1 542:1 544:1 546:1 624:1 689:1 699:1 806:1 986:1 1080:2 1163:1 1834:1 2332:1 3301:2 3403:1 13291:1 13292:1 13293:1 13294:1 13295:1 13296:1 13297:1 13298:1 13299:1 #
-0.003485006470210114028901449145792 9:1 10:1 76:1 120:1 128:1 132:3 261:2 320:1 485:1 532:1 699:1 750:1 813:1 1038:1 1111:1 1163:1 1201:1 2080:1 2100:1 2188:1 2778:2 2788:1 2885:4 2952:1 3255:1 3597:1 4948:1 7899:1 10700:1 10805:1 15035:1 18592:1 18593:1 18594:1 18595:1 18596:2 18597:1 18598:1 18599:1 #
-0.00027308576965995800481940003479053 1:1 85:1 87:1 132:2 229:2 355:1 373:1 616:1 679:1 717:1 783:1 813:1 851:1 1051:2 1208:1 1306:1 1318:1 1509:1 1587:2 1632:1 1893:1 1924:1 2292:1 2875:1 3437:1 3470:1 3530:1 4157:1 4448:1 6334:1 6335:1 6336:1 6337:1 6338:1 #
0.0045294029028946566906022042076074 9:2 66:1 96:1 115:1 149:2 150:1 186:1 229:1 364:1 505:1 530:1 715:1 777:1 874:1 898:2 975:1 1024:1 1030:1 1103:1 1104:1 1105:1 1106:1 1107:1 1108:1 1109:2 1110:2 1111:1 1112:2 1113:1 1114:1 1115:1 1116:1 1117:1 1118:1 1119:1 1120:1 1121:1 1122:1 #
0.0045294029028946566906022042076074 1:1 5:1 9:2 20:1 93:1 148:1 169:1 176:2 219:4 402:1 479:1 594:2 595:1 706:1 746:1 1142:1 1180:1 1315:1 1411:2 1412:1 1413:1 1414:1 1415:2 1416:1 1417:2 1418:1 1419:1 1420:1 1421:1 1422:2 1423:1 1424:1 1425:1 1426:1 1427:1 1428:1 1429:1 1430:1 1431:1 1432:1 #
0.0045294029028946566906022042076074 1:1 9:2 43:1 132:1 288:1 532:2 536:1 537:1 595:1 894:1 896:1 988:1 1044:1 1081:1 1170:3 1172:1 1173:1 1203:1 1276:3 1277:1 1278:1 1279:1 1280:1 1281:1 1282:2 1283:1 1284:1 1285:1 1286:1 #
0.0045294029028946566906022042076074 3:3 9:2 31:1 36:1 50:1 51:2 120:1 132:1 140:1 162:4 304:1 415:4 421:1 487:1 530:2 570:1 572:3 593:1 616:1 728:1 731:2 793:1 834:1 883:1 884:1 885:2 886:3 887:1 888:4 889:2 890:1 891:1 892:1 893:1 894:1 895:1 896:1 897:1 898:2 899:2 900:1 901:1 902:1 903:1 904:1 905:1 906:2 907:1 908:1 909:1 910:1 911:1 912:1 913:1 914:1 915:1 916:1 #
0.0045294029028946566906022042076074 1:1 9:5 46:1 85:1 140:1 153:2 154:1 155:3 156:1 157:1 158:2 159:2 160:1 161:1 162:3 163:3 164:2 165:1 166:1 167:1 168:1 169:1 170:1 171:1 172:1 173:1 174:1 175:1 176:1 177:1 178:1 179:1 180:1 #
-5.7301669564895483968518241635337e-05 1:4 10:1 19:1 39:22 46:1 79:5 112:1 120:5 128:1 132:1 157:2 160:2 169:1 172:1 186:6 202:2 213:2 214:21 221:16 225:2 266:1 271:13 304:1 315:12 320:3 334:84 356:2 362:1 365:2 388:1 394:2 412:1 429:2 503:1 532:1 541:2 542:2 546:2 566:3 600:2 651:1 703:7 715:18 752:2 893:2 952:7 996:2 1030:1 1218:1 1323:1 1380:3 1381:4 1477:1 1509:2 1728:1 1764:1 1768:3 1805:1 1807:17 1834:1 1871:1 1891:6 1902:2 1944:3 2009:1 2023:1 2050:2 2143:2 2154:3 2169:2 2273:12 2282:1 2317:1 2582:3 2595:10 2758:2 2766:1 2786:1 3022:1 3070:1 3300:1 3348:1 3367:2 3453:3 4966:1 4967:1 5392:2 5448:4 5582:2 6049:1 6574:2 6629:2 6750:1 6866:15 7095:1 7130:4 7414:1 7791:1 8090:4 8834:2 9396:2 9517:1 10423:2 10435:1 11262:1 11429:1 12547:1 12878:1 16141:2 16177:1 17557:1 18053:1 18297:4 18913:2 19380:1 22188:2 22502:1 23528:5 24567:1 26826:2 27895:1 27896:1 27897:4 27898:4 27899:1 27900:1 27901:1 27902:1 27903:2 27904:1 27905:1 27906:2 27907:1 27908:1 27909:1 27910:1 27911:1 27912:1 27913:1 27914:1 27915:2 27916:1 27917:2 27918:1 27919:2 27920:2 27921:16 27922:3 27923:1 27924:1 27925:2 27926:1 27927:2 27928:3 27929:8 27930:1 27931:2 27932:1 27933:3 27934:1 27935:2 27936:1 27937:8 27938:1 27939:1 27940:1 27941:1 27942:1 27943:1 27944:1 27945:1 27946:1 27947:1 27948:1 27949:1 27950:1 27951:4 27952:1 27953:3 27954:1 27955:1 27956:1 27957:1 27958:1 27959:1 27960:1 27961:1 27962:1 27963:3 27964:2 27965:2 27966:1 27967:1 27968:2 27969:2 27970:2 27971:2 27972:2 27973:1 27974:1 27975:1 27976:1 27977:1 27978:1 27979:1 27980:1 #
-0.00012536183134129825957753245901927 10:3 20:2 54:1 62:11 66:1 74:2 120:4 132:3 213:1 221:1 292:1 320:2 367:1 368:29 375:6 376:4 396:1 406:1 421:1 424:1 432:2 454:1 505:1 532:1 681:1 699:1 731:1 734:1 737:1 783:10 801:1 806:1 888:1 898:2 902:1 919:1 1014:2 1140:1 1142:8 1168:1 1272:1 1308:6 1351:2 1353:1 1410:1 1412:2 1477:1 1648:1 1790:1 1938:1 2020:2 2059:4 2182:1 2212:1 2244:1 2393:15 2880:1 3429:1 3814:1 4071:1 4923:1 5137:1 5682:1 5707:1 6251:1 6292:2 7491:2 7492:1 7583:1 8749:7 10245:1 10561:2 10611:2 10737:1 12556:1 12894:9 13792:1 14150:1 14571:1 14938:1 14939:1 14940:4 14941:8 14942:4 14943:9 14944:15 14945:5 14946:6 14947:2 14948:3 14949:1 14950:1 14951:1 14952:1 14953:1 14954:1 14955:1 14956:1 14957:1 14958:1 14959:1 14960:1 14961:1 14962:1 14963:1 14964:1 14965:1 14966:1 14967:1 14968:2 14969:1 14970:3 14971:3 14972:1 14973:1 14974:1 14975:1 14976:2 14977:1 14978:1 14979:1 14980:2 14981:1 14982:4 14983:1 14984:1 14985:1 14986:1 14987:7 14988:2 14989:1 #
-0.0016516799352770338525642213056699 1:1 5:1 9:2 74:3 120:4 121:5 159:4 169:2 182:1 203:2 212:1 213:2 214:7 221:1 229:1 233:1 256:2 266:1 267:1 268:2 274:1 284:1 388:1 396:1 404:1 406:1 412:2 413:1 422:4 429:1 443:1 479:2 554:2 561:1 746:1 797:1 832:1 975:2 1057:1 1121:1 1142:1 1351:1 1379:1 1389:2 1548:1 1927:1 2511:1 2731:1 2873:1 3325:1 4071:1 4487:1 4826:1 4964:2 5206:2 6404:1 7428:9 8520:4 10824:3 12681:1 18355:3 18356:1 18357:1 18358:1 18359:1 18360:1 18361:1 18362:1 18363:1 18364:4 18365:1 18366:1 18367:2 18368:1 18369:2 18370:2 18371:1 18372:1 #
-0.00044130774316085511497012583426169 7:2 24:1 71:2 120:1 121:1 132:1 166:15 188:1 211:1 213:1 223:4 225:2 275:5 345:1 373:4 387:2 402:2 413:1 415:2 421:1 423:2 459:4 487:1 553:1 597:1 725:1 912:1 1000:1 1020:4 1266:1 1400:1 1587:1 1599:1 2169:2 2284:1 2582:2 2710:2 2777:1 3391:1 3568:2 3742:1 3762:1 4171:1 5233:2 5393:1 5414:2 5964:1 6465:2 6679:2 8591:2 8592:7 8593:9 8594:1 8595:1 8596:2 8597:1 8598:2 8599:2 8600:2 8601:1 8602:2 8603:2 8604:1 8605:1 8606:1 8607:1 8608:1 8609:1 8610:2 8611:1 8612:1 8613:1 8614:2 8615:1 8616:8 8617:1 8618:1 8619:2 8620:1 8621:1 8622:1 8623:1 8624:1 8625:1 8626:1 8627:1 8628:1 #
-0.0008716728264497637527000173385261 1:1 7:3 50:2 51:1 57:1 91:2 112:1 120:1 148:1 163:1 211:2 306:1 396:1 413:2 606:1 744:1 839:1 920:7 936:2 1275:1 1290:1 1877:3 1906:1 2004:3 2041:1 2262:1 3047:1 4013:2 4487:1 7436:1 8224:2 15381:2 15382:2 15383:1 15384:1 15385:1 15386:1 15387:1 #
-0.0001660620896256129446627580747986 1:3 44:1 60:1 62:2 79:4 120:1 121:3 132:10 145:1 154:1 188:1 203:4 213:1 233:2 266:1 317:1 389:1 406:2 524:2 593:1 715:1 827:1 862:7 884:1 906:2 920:7 927:1 1023:1 1045:6 1081:1 1191:1 1203:1 1236:1 1273:1 1610:1 1621:3 1652:2 1722:1 1780:1 1782:1 1796:1 1940:1 1973:4 2014:1 2174:1 2181:2 2321:2 2347:1 2450:3 3222:1 3285:1 3314:2 4044:1 4091:1 4192:1 4652:2 5097:1 5116:1 5674:1 8072:1 11396:1 12347:3 12547:2 13182:1 15197:3 15813:2 15814:3 15815:3 15816:2 15817:1 15818:1 15819:1 15820:1 15821:2 15822:2 15823:1 15824:1 15825:1 15826:1 15827:3 #
-0.0019188685405866717868100801425157 149:2 169:2 424:1 586:1 801:1 1099:2 1747:1 2245:1 2917:1 3602:1 3691:1 4472:1 4594:1 7587:1 10586:1 28779:1 28780:2 28781:1 #
-0.0005047694619622022883451140096156 7:1 51:7 57:8 71:2 120:2 132:1 166:1 186:4 200:1 213:2 221:2 284:1 345:1 356:2 379:1 426:1 485:1 560:2 635:1 689:1 715:2 754:1 1045:1 1163:2 1216:1 1377:1 1764:1 1795:2 1933:2 1961:1 2258:6 3005:1 3212:4 3437:1 3454:1 3518:3 3749:3 4035:1 4673:1 5167:1 5359:1 5766:1 7617:1 19066:1 23511:3 24772:1 24773:1 24774:1 24775:1 24776:1 24777:1 24778:1 24779:1 24780:1 24781:1 24782:1 24783:1 24784:1 24785:1 24786:1 24787:1 24788:1 24789:1 24790:3 24791:7 24792:1 24793:1 24794:1 #
-9.1060029250689827635262263427762e-05 1:1 10:1 12:2 17:1 71:1 79:1 85:1 102:1 120:3 123:1 132:3 150:7 159:1 181:2 200:2 201:2 208:1 211:1 212:3 213:2 221:3 235:1 261:1 266:2 284:3 309:2 320:22 335:1 357:1 364:3 365:1 374:2 378:8 396:2 419:2 422:3 442:1 443:1 479:3 480:2 487:1 492:1 509:2 601:2 635:2 637:5 651:2 689:1 717:1 723:3 734:1 746:1 780:1 915:1 1045:1 1122:1 1163:1 1228:1 1248:1 1395:1 1423:1 1514:1 1801:1 1936:1 2040:1 2050:1 2809:1 3030:1 3055:1 3059:1 3352:5 4373:1 4430:1 5030:1 5143:1 5532:1 5698:1 6063:1 6438:1 6813:1 6814:1 7134:9 7791:1 7934:1 8455:1 10807:1 10950:1 11083:2 12197:1 12399:1 12727:1 13109:1 17789:5 18127:6 24494:1 25045:2 25046:4 25047:4 25048:1 25049:1 25050:1 25051:8 25052:1 25053:1 25054:1 25055:1 25056:1 25057:1 25058:1 25059:1 25060:1 25061:1 25062:2 25063:1 25064:1 25065:1 25066:1 25067:1 25068:1 25069:2 25070:1 25071:1 25072:3 25073:1 25074:1 25075:1 25076:1 25077:1 25078:1 25079:1 25080:1 25081:5 25082:3 25083:1 25084:1 25085:2 25086:7 25087:2 25088:2 25089:4 25090:2 25091:3 25092:2 25093:1 25094:4 25095:1 25096:4 25097:1 25098:1 25099:1 25100:1 25101:1 25102:1 25103:1 25104:1 25105:1 25106:1 25107:1 25108:1 25109:1 25110:1 25111:3 25112:2 25113:1 25114:1 25115:2 25116:1 25117:1 25118:1 25119:1 25120:1 #
-0.00010676461482357868211859330820346 13:5 112:1 120:2 132:1 204:1 213:1 221:1 244:2 260:1 320:2 421:1 487:3 503:1 532:1 773:1 1063:5 1351:1 2021:13 2024:1 4488:1 7575:3 8567:2 12523:1 12980:5 12993:9 13062:1 14417:5 16809:1 17063:2 24401:2 24402:2 24403:1 24404:2 24405:2 24406:2 24407:1 24408:6 24409:2 24410:1 24411:1 24412:1 24413:1 24414:1 24415:1 24416:1 24417:1 24418:1 24419:1 24420:2 24421:1 24422:1 24423:1 24424:1 24425:1 24426:1 24427:1 24428:1 24429:2 24430:1 24431:1 24432:3 24433:1 24434:2 24435:1 24436:7 24437:1 24438:1 24439:1 24440:1 24441:2 24442:2 24443:2 24444:2 24445:2 #
-0.00083320431436450235248430962187172 1:2 66:3 67:1 71:1 120:1 158:4 213:1 317:1 479:4 494:1 580:1 679:1 813:1 838:1 898:2 918:1 995:2 996:1 1011:2 1110:6 1181:2 2077:1 2336:3 2351:1 2759:1 2771:2 2901:1 3348:1 3919:2 3965:1 3966:1 3967:6 3968:5 3969:1 3970:2 3971:1 3972:1 3973:1 3974:1 3975:1 3976:1 3977:1 3978:1 3979:1 3980:1 3981:2 3982:1 3983:1 3984:2 3985:2 3986:1 3987:1 3988:1 3989:1 3990:1 3991:1 3992:1 3993:1 #
-0.00129890246398682183623374264414 1:3 20:2 120:2 169:1 181:1 200:1 212:1 223:3 320:3 396:1 494:3 530:1 706:1 1214:2 1425:1 1470:1 1471:1 1579:1 2241:1 2247:1 2354:1 2420:1 3673:1 3694:1 5654:2 7024:4 7025:1 7026:1 7027:1 7028:3 7029:3 7030:1 7031:1 7032:1 7033:1 7034:1 7035:1 #
-0.0008939118354486310117842928768539 1:1 40:2 42:1 120:3 186:3 217:2 229:5 266:1 355:5 396:1 400:1 412:1 617:1 632:3 644:1 705:1 706:1 734:1 839:1 920:5 936:2 965:1 975:1 1043:3 1174:1 1175:3 1363:2 1375:1 1407:1 1470:2 1504:1 1505:1 1747:1 1771:1 1796:1 1821:1 2171:1 2281:1 2393:2 2474:2 3138:2 3249:1 3273:2 3278:2 3283:2 3462:1 3943:1 6355:1 6828:2 7453:3 7616:1 10730:1 12430:1 13466:1 14122:1 14123:1 14209:1 15395:1 15828:1 15829:1 15830:1 15831:1 15832:1 15833:1 15834:1 15835:1 15836:1 15837:1 15838:1 15839:1 #
-0.001138262881750854316892374029635 1:5 7:7 45:9 51:3 96:3 120:6 169:2 223:5 266:4 387:3 406:2 834:2 839:1 1131:1 1214:2 1216:3 1235:1 1270:1 1352:1 1407:1 1621:1 1789:1 1876:1 1935:2 2311:2 2312:1 2313:1 2314:1 2315:1 2316:1 2317:2 2318:3 2319:2 2320:3 2321:3 2322:2 2323:2 2324:1 #
-0.00033628005141749054427227627606101 1:1 13:4 19:1 20:1 91:5 120:1 132:1 169:1 213:1 214:2 225:2 304:2 402:4 418:1 421:1 426:1 427:2 432:2 541:2 542:2 546:2 572:1 596:1 684:1 723:1 752:2 813:1 839:1 874:1 1111:1 1361:1 1389:1 1390:1 1415:1 1944:4 2680:1 2887:2 3236:1 3303:1 3403:2 3844:1 4189:1 4783:1 5025:1 5030:1 5233:1 6463:1 6465:2 7647:2 8520:1 9856:1 12512:1 17365:3 17366:2 21609:1 21950:2 27722:2 28291:1 28292:1 28293:2 28294:1 28295:2 28296:1 28297:1 28298:1 28299:1 28300:1 28301:1 28302:1 28303:1 28304:1 28305:1 28306:1 28307:1 28308:1 28309:1 #
-0.0023127994588763201196102148315958 1:1 9:3 10:1 16:1 20:2 44:2 74:2 88:3 102:2 109:2 121:1 128:1 129:2 132:4 145:1 198:1 233:1 235:3 315:1 333:1 361:1 365:1 394:3 396:1 420:1 421:1 496:1 532:2 585:1 681:2 689:2 734:1 789:1 798:1 894:1 915:1 966:2 996:1 1089:5 1106:1 1111:1 1127:1 1172:3 1248:1 1276:1 1298:2 1306:1 1459:1 1565:1 1594:1 1648:1 1859:1 1864:1 1944:1 1981:1 2136:1 2144:1 2182:1 2240:1 2450:1 2488:1 2515:1 2643:2 2677:1 2688:1 2710:1 2893:1 3232:1 3332:1 3452:2 3516:1 3569:1 3987:1 4162:1 4171:1 4668:2 5610:1 5656:1 5668:2 6315:1 7050:1 7251:1 7253:1 7372:3 7428:1 7573:1 10865:2 12198:1 13898:1 15681:1 16049:2 16251:1 16252:1 16253:2 16254:1 16255:2 16256:1 16257:1 16258:1 16259:1 16260:1 16261:1 16262:1 16263:1 #
-0.0010739612390780314734456402092633 1:2 2:1 7:2 24:1 36:1 51:2 72:1 74:1 120:1 324:1 362:1 377:1 378:1 410:2 480:1 510:1 570:1 684:1 728:3 845:1 886:1 1289:1 1315:1 2193:7 2611:1 4005:1 4095:1 4602:1 5956:1 9509:1 15460:2 15461:1 15462:1 15463:1 15464:1 15465:1 #
-0.0010290809263487656326913066706652 1:2 3:1 9:1 39:4 58:2 73:2 85:1 96:1 102:1 103:1 162:1 178:1 201:1 219:1 271:1 317:1 331:2 362:1 396:1 402:2 415:1 432:1 489:1 493:1 560:1 715:2 798:1 832:5 912:1 975:1 1129:1 1352:4 1366:1 1569:2 1647:1 1713:1 1789:1 1834:2 1944:1 2020:1 2040:1 2060:1 2169:1 2276:1 2588:2 2589:1 2782:1 3056:1 3192:1 3360:2 3516:1 3684:1 3703:1 3713:1 4043:1 5091:1 6079:1 6135:1 6741:1 7321:1 7386:1 10397:1 13155:4 21725:1 22350:1 23539:3 23540:1 23541:1 23542:3 23543:1 23544:1 23545:1 23546:1 #
-0.0020358932685415080318658276326005 132:1 162:1 271:1 362:1 415:1 421:1 508:1 541:1 553:1 559:1 731:1 809:1 894:1 1052:1 1142:1 1218:2 1247:1 1306:1 1398:1 1587:1 1627:1 1957:1 2292:4 3246:1 3247:1 3248:1 3249:1 3250:1 3251:1 3252:1 3253:1 3254:1 3255:1 3256:1 3257:1 3258:2 3259:1 3260:1 3261:1 #
-0.00033967402490065986327832936453319 1:1 7:5 24:2 50:1 51:1 57:1 88:1 120:1 136:3 148:1 194:1 229:1 266:1 271:1 321:1 373:1 394:1 403:1 479:1 510:2 601:1 637:1 802:1 885:1 919:1 1103:1 1109:2 1377:1 1906:1 2582:1 2595:1 2982:1 3297:1 3966:1 4749:1 5136:1 6654:1 7888:1 10387:2 10389:1 12033:1 12034:1 12035:1 12036:1 12037:1 12038:1 12039:1 12040:1 12041:1 12042:1 12043:1 12044:1 12045:1 12046:1 12047:1 12048:1 #
-0.0019653388886100419535862826592165 1:2 7:3 128:1 300:1 324:1 356:2 415:1 485:1 572:6 593:3 616:1 1057:1 1272:2 1632:1 1851:1 1852:1 2876:1 3337:1 3605:1 4232:1 5086:1 5087:1 5088:1 5089:1 5090:2 5091:1 5092:1 5093:1 #
-7.4774635416538720936174833298082e-05 10:1 12:1 40:3 57:1 59:21 102:7 112:2 120:2 132:1 159:6 177:1 199:1 205:1 208:26 221:7 223:2 350:1 443:2 510:1 536:1 549:1 553:3 562:1 577:2 616:1 617:1 679:1 840:1 894:1 936:2 1000:1 1091:1 1201:1 1235:1 1248:1 1615:1 1671:1 1771:1 2074:13 2291:1 2644:1 2737:3 2777:1 2833:2 3652:1 3685:1 3694:1 4097:2 4481:1 4555:2 8282:1 8653:2 9555:1 9972:1 10235:1 10876:1 11651:3 16670:1 20461:1 22061:1 23182:1 24882:1 30545:1 30546:3 30547:4 30548:11 30549:6 30550:3 30551:1 30552:5 30553:1 30554:1 30555:1 30556:1 30557:1 30558:1 30559:1 30560:2 30561:2 30562:1 30563:1 30564:1 30565:3 30566:3 30567:1 30568:1 30569:2 30570:1 30571:1 30572:1 30573:2 30574:1 30575:3 30576:1 30577:1 30578:1 30579:2 30580:2 30581:1 30582:1 30583:1 30584:2 30585:1 30586:4 30587:1 30588:1 30589:1 30590:1 30591:1 30592:1 30593:1 30594:1 #
-0.0045294029028946566906022042076074 1:1 13:2 20:1 85:1 104:1 166:3 178:1 412:2 418:1 734:1 745:1 752:1 1163:1 1168:1 1248:1 1391:1 1944:1 7255:1 9739:1 9740:1 9741:1 #
-0.001701256926581026914999106303128 1:1 132:2 350:1 454:2 485:1 571:2 590:2 601:1 699:1 859:1 904:1 910:1 1051:1 1079:1 1170:2 1203:1 1455:3 1456:3 1457:1 1458:1 1459:1 1460:1 1461:1 1462:1 1463:1 1464:2 1465:1 #
0.00060118615263154105959192419206261 9:10 16:1 57:1 79:1 120:1 169:3 213:1 214:1 235:6 412:1 421:1 422:2 423:1 424:2 425:1 426:1 427:1 428:1 429:1 430:1 431:1 432:2 433:1 434:1 435:1 436:1 437:1 438:1 439:1 440:5 441:6 442:5 443:4 444:1 445:4 446:2 447:2 448:2 449:2 450:1 451:1 452:1 453:1 454:2 455:1 456:5 457:1 458:6 459:6 460:1 461:1 462:1 463:1 464:1 465:1 466:1 467:1 468:1 469:1 470:1 471:1 472:1 473:2 474:2 475:1 476:1 477:1 #
-0.00033687528366073101523253674471903 9:1 39:1 74:5 120:4 121:1 123:1 140:1 148:1 160:1 169:2 194:2 200:2 212:2 213:3 214:6 219:2 221:1 229:1 235:5 261:1 271:3 309:1 324:2 345:1 355:1 363:2 389:1 394:1 406:1 554:1 635:2 684:1 699:1 725:2 731:1 756:1 834:1 849:1 903:1 936:1 970:1 1094:4 1112:1 1290:3 1351:3 1411:1 1530:1 1548:2 1927:3 2320:1 2692:1 2799:1 2852:1 2875:1 3274:1 3361:1 3541:1 3671:1 3758:1 3831:1 4189:1 4204:1 4514:1 4515:1 4624:1 4779:1 4801:2 5030:1 5644:1 6558:1 7185:1 8155:1 9828:2 9829:1 9830:1 9831:1 9832:1 9833:1 9834:1 9835:2 9836:1 9837:2 9838:1 9839:1 9840:1 9841:1 9842:1 9843:1 9844:1 9845:1 9846:1 9847:1 9848:1 9849:1 9850:1 9851:1 9852:1 9853:1 9854:1 9855:1 #
-0.00065801161692847381402826645313553 1:1 7:1 62:2 66:3 102:1 112:1 120:3 148:1 163:3 169:1 200:1 204:3 235:2 271:2 304:1 432:1 594:2 625:1 627:2 652:2 725:8 731:1 796:1 798:1 862:1 866:1 920:1 922:3 1043:2 1131:2 1191:1 1237:1 1270:1 1355:1 1485:1 1779:3 1981:1 2165:1 2353:1 2595:1 2692:5 2709:1 2711:1 2799:1 3078:1 3268:2 3281:2 3287:1 3348:1 3942:1 4725:1 4967:1 5126:1 5131:1 5229:1 6329:1 6465:1 9533:1 11383:1 11384:1 11385:1 11386:2 11387:2 11388:1 11389:1 11390:5 11391:1 11392:1 11393:1 11394:1 11395:1 11396:1 11397:1 11398:1 11399:1 11400:1 11401:2 11402:1 11403:2 11404:1 11405:1 11406:1 11407:2 11408:1 11409:1 11410:1 11411:2 11412:1 11413:2 11414:1 11415:1 11416:1 11417:1 #
-7.7113930966263191223858397549407e-05 7:18 20:1 38:1 57:1 73:1 74:8 85:1 120:3 132:7 145:1 163:1 186:12 188:16 200:6 208:1 213:1 221:1 223:3 233:1 235:1 266:1 287:1 320:5 335:1 347:3 368:1 396:1 429:10 465:2 481:6 489:1 503:1 509:3 510:3 524:1 549:2 563:8 564:8 580:1 586:1 604:3 652:1 688:2 697:1 699:1 715:3 720:1 734:2 759:2 778:2 780:1 789:1 813:1 827:1 851:1 909:2 915:2 975:1 993:1 1000:2 1090:8 1118:1 1142:1 1163:1 1168:1 1248:2 1500:1 1505:3 1514:1 1621:2 1626:1 1636:1 1690:2 1871:1 1876:14 1944:1 1957:1 2132:1 2136:5 2181:1 2254:1 2259:1 2479:1 2584:2 2595:1 2777:11 2833:1 2893:1 2987:2 3003:7 3012:1 3030:1 3248:1 3285:2 3348:1 3352:9 3454:1 3524:1 3569:1 3606:1 4102:1 4208:1 4432:1 4708:1 5137:1 5147:1 5167:1 5389:1 6173:1 6814:1 7068:1 8250:1 8342:1 9084:1 9190:2 9324:2 9520:1 9611:1 10054:1 10810:3 10839:1 11763:3 11904:2 11969:6 12115:1 12368:5 12539:1 13466:1 13596:1 13597:1 13598:1 13599:1 13600:1 13601:1 13602:1 13603:5 13604:6 13605:5 13606:4 13607:2 13608:6 13609:1 13610:2 13611:1 13612:1 13613:5 13614:5 13615:1 13616:1 13617:1 13618:1 13619:2 13620:1 13621:4 13622:1 13623:1 13624:3 13625:2 13626:2 13627:2 13628:1 13629:3 13630:1 13631:1 13632:1 13633:1 13634:1 13635:1 13636:1 13637:1 13638:1 13639:7 13640:1 13641:1 13642:8 13643:6 13644:3 13645:1 13646:1 13647:1 13648:1 13649:1 13650:1 13651:1 13652:1 #
-0.00050938415934188223214984514441994 1:1 10:1 44:1 57:2 120:5 128:1 148:1 169:3 176:1 185:3 304:1 410:1 412:1 435:1 485:1 642:2 705:1 978:1 1164:1 1214:1 1504:1 1814:1 2084:1 2240:1 2282:1 2894:5 2935:1 3198:1 4635:1 5572:1 6094:1 7095:1 8962:1 9038:1 10409:1 10494:3 13255:2 16427:1 24035:2 24036:1 24037:1 24038:1 24039:1 24040:2 24041:1 24042:1 24043:2 24044:1 24045:2 24046:1 24047:1 24048:1 #
-0.00040095227185120467993870163603276 7:1 24:2 36:1 51:4 62:2 66:1 120:2 132:1 193:1 266:2 304:1 315:1 368:2 373:1 396:1 406:1 409:1 487:1 503:1 569:1 584:1 600:1 625:1 715:1 728:1 809:1 810:2 833:1 885:4 898:2 905:1 975:1 1045:1 1054:2 1081:1 1121:1 1478:1 1559:2 1755:2 1879:1 1949:1 2129:1 2241:1 2982:1 3030:1 3136:1 3158:2 3159:2 4759:5 4977:2 5025:1 8645:1 9546:1 9559:1 9761:1 10291:1 11392:1 11905:6 11906:2 11907:1 11908:1 11909:1 11910:2 11911:2 11912:1 11913:1 11914:1 11915:1 11916:4 11917:5 11918:1 11919:1 11920:1 11921:1 11922:2 11923:1 11924:1 11925:1 11926:1 11927:2 11928:1 11929:1 11930:4 11931:1 11932:1 11933:1 11934:1 11935:1 11936:1 11937:1 11938:1 11939:1 11940:2 11941:1 11942:1 11943:1 11944:1 11945:2 11946:2 11947:1 11948:1 11949:1 11950:1 11951:1 11952:1 11953:1 11954:1 11955:1 11956:1 11957:1 11958:2 11959:1 11960:1 11961:1 11962:1 11963:1 11964:1 11965:1 11966:1 11967:1 11968:1 11969:1 11970:1 #
-0.0011724252198819196894158389810059 1:2 20:1 38:2 50:1 91:4 93:2 104:1 120:1 140:1 166:2 199:1 204:1 213:1 238:4 239:1 240:1 244:2 251:4 255:1 260:1 266:4 271:1 387:1 479:2 553:1 635:1 752:1 779:1 813:1 862:1 889:1 893:1 920:1 970:1 1112:1 1934:1 2850:1 3289:1 3454:1 5041:1 5398:1 5402:1 6871:1 6908:1 7081:1 7348:1 7423:1 8774:1 11399:3 11860:1 11863:1 18765:1 21282:1 21283:1 21284:1 21285:1 21286:2 21287:1 21288:1 21289:1 21290:1 21291:1 21292:1 21293:1 21294:1 21295:1 21296:1 21297:1 21298:1 21299:1 21300:1 21301:1 21302:1 21303:1 21304:2 21305:1 21306:1 21307:1 21308:1 21309:1 21310:1 21311:1 21312:1 #
-0.00029403455261655688218053184002088 1:3 5:1 57:1 120:1 223:3 273:1 320:1 331:2 364:2 419:1 454:1 485:1 487:1 593:1 681:1 721:1 731:7 915:2 1214:1 1216:1 1425:2 1780:1 1796:2 2154:3 2169:3 2172:1 2245:1 2261:1 2643:1 3249:1 3351:1 3626:1 3781:1 4928:2 5327:1 7029:1 7032:1 7506:1 8124:1 8462:1 8830:1 13345:1 15833:1 15958:6 21120:1 21121:1 21122:2 #
-0.0022280924532292996700921783315152 1:2 74:1 132:2 166:1 229:1 368:1 422:1 540:1 541:2 542:2 545:1 546:1 723:1 738:1 750:2 752:2 753:1 754:1 755:1 1376:1 2079:1 2212:2 3068:1 4600:1 8130:1 9372:1 9374:1 9439:1 22546:1 28323:1 30500:1 31434:2 31435:2 31436:1 31437:1 #
-0.0017715982708671189783250499161227 1:1 132:1 206:2 412:1 482:1 596:1 783:3 1262:1 1940:2 2231:2 2560:1 2561:1 2562:1 2563:1 2564:1 2565:1 2566:1 2567:1 2568:1 2569:1 #
-0.00062415962303763905701103897882831 1:3 10:1 20:2 26:1 36:1 51:1 128:1 153:5 320:2 321:1 331:1 368:2 532:1 600:1 632:1 640:1 750:2 756:1 893:1 977:1 996:1 1044:1 1354:1 1375:1 1412:1 1521:1 1621:1 1633:3 1971:1 2692:1 3068:1 3957:2 5532:1 6216:1 7597:1 7852:2 17183:1 18673:1 20639:2 20640:2 20641:1 20642:1 20643:1 #
-0.00071016544228155189209805708827616 1:1 10:1 43:1 74:2 120:1 123:1 128:1 140:1 145:2 159:1 183:2 198:1 209:6 271:3 287:1 293:1 362:1 364:1 402:2 586:1 635:4 637:7 725:2 810:1 847:5 952:2 1000:1 1164:1 1400:1 1484:1 1504:4 1779:1 2142:1 2172:3 2719:1 2720:1 2721:3 2722:2 2723:1 2724:1 2725:3 2726:2 2727:2 2728:1 2729:1 2730:1 2731:2 2732:1 2733:1 2734:1 2735:1 2736:1 2737:1 #
-0.0010644280617802821375245114765562 1:2 10:1 120:2 132:2 140:1 146:1 181:1 233:2 432:1 480:1 651:2 701:1 725:4 832:2 866:1 1106:1 1142:3 1157:1 1227:2 1275:1 1326:1 1370:1 1778:1 1851:1 2029:2 2057:1 2194:1 3009:2 4076:1 6465:1 7757:1 9435:1 10790:2 10870:1 11389:1 11399:1 20754:2 27294:1 27295:1 27296:1 27297:1 27298:1 27299:1 27300:1 27301:1 27302:1 27303:1 27304:1 27305:1 27306:1 27307:1 27308:2 27309:1 27310:1 27311:1 #
-0.00077659077930682866679201747928118 1:1 7:1 57:3 58:1 120:3 129:2 169:1 209:3 219:4 221:1 223:2 331:1 435:1 506:2 627:2 766:1 996:1 1084:1 1385:1 1500:2 1621:2 1834:1 1909:3 2050:1 2248:1 2875:1 3367:1 3559:1 4917:1 4918:1 4919:1 4920:1 4921:2 4922:1 4923:1 4924:1 4925:3 4926:6 4927:3 4928:3 4929:1 #
-0.0014009200164166310184632457946918 1:1 50:1 87:1 120:1 178:1 186:1 212:1 220:2 243:3 306:2 355:2 424:1 503:1 510:2 950:1 1038:1 1081:1 2935:1 4647:1 4648:1 4649:1 4650:1 4651:1 4652:1 4653:1 4654:1 4655:1 4656:1 4657:3 4658:2 4659:2 4660:1 #
-0.00072864140769263001373712285158035 1:1 66:1 117:2 120:3 132:2 143:2 159:1 160:1 166:2 173:1 198:1 229:4 284:1 287:3 304:3 355:2 406:1 483:3 541:2 542:2 546:2 549:1 558:1 752:2 753:2 754:2 898:1 1728:1 1911:1 2169:2 2245:3 2255:1 3068:2 3403:2 3652:2 4054:2 4448:1 5739:1 6135:2 8235:1 8494:1 10345:1 14060:1 15466:1 15467:1 15468:2 15469:2 15470:2 15471:1 15472:2 15473:1 15474:1 15475:1 15476:1 15477:1 15478:1 15479:1 15480:1 15481:1 15482:2 15483:1 15484:2 15485:1 15486:1 15487:1 15488:1 15489:1 15490:1 15491:1 15492:1 15493:1 15494:1 15495:1 #
-0.00011174078220502018114670267356914 1:2 7:7 26:2 36:1 50:1 51:9 57:1 79:2 87:1 120:4 121:8 129:2 132:5 145:1 163:1 168:1 186:14 187:1 188:1 200:4 201:1 202:2 221:9 223:1 266:21 271:2 284:4 304:1 315:3 320:1 321:1 331:1 347:3 355:3 358:1 362:1 387:4 394:1 400:1 412:1 415:3 432:5 483:2 492:1 494:1 503:1 524:1 563:2 594:1 596:1 603:1 604:2 617:1 635:2 637:3 681:2 689:1 692:1 703:1 728:1 731:6 734:1 838:2 851:1 885:1 903:2 923:4 975:1 993:1 1120:1 1142:1 1157:1 1172:1 1179:1 1190:1 1266:3 1298:1 1306:1 1351:5 1410:8 1464:10 1495:1 1587:1 1645:1 1681:1 1747:1 1807:2 1834:1 1876:1 1939:1 1957:1 1958:1 1970:3 1973:1 1975:2 2351:1 2448:1 2582:2 2605:1 2719:1 2736:1 2917:1 3039:6 3352:5 3438:1 3485:2 3534:1 3606:1 3681:3 3820:1 3849:1 3942:1 4402:3 4691:1 4693:1 4740:1 4801:1 5010:2 5136:3 5143:12 5167:1 5298:1 5682:1 6079:4 6123:2 6124:1 6227:1 6287:1 6411:1 6439:1 6571:1 6572:1 6573:1 6574:1 6575:1 6576:1 6577:1 6578:1 6579:2 6580:2 6581:1 6582:2 6583:1 6584:2 6585:1 6586:2 6587:3 6588:1 6589:3 6590:5 6591:1 6592:1 6593:1 6594:1 6595:2 6596:1 6597:2 6598:1 6599:3 6600:1 6601:1 6602:6 6603:1 6604:1 6605:1 6606:2 6607:1 6608:3 6609:2 6610:1 6611:1 6612:1 6613:3 6614:1 6615:1 6616:1 6617:1 6618:1 6619:1 6620:1 6621:1 6622:1 6623:1 6624:1 6625:1 6626:1 6627:1 6628:1 6629:1 6630:1 6631:1 6632:3 6633:1 6634:1 6635:1 6636:1 6637:2 6638:2 6639:1 6640:3 6641:5 6642:3 6643:7 6644:1 6645:1 6646:1 6647:2 6648:2 6649:1 6650:1 6651:1 6652:2 6653:1 6654:1 6655:2 6656:1 6657:1 6658:1 6659:1 6660:1 6661:1 6662:1 6663:21 6664:2 6665:1 6666:1 6667:1 6668:1 6669:1 6670:1 6671:1 6672:4 6673:1 6674:4 6675:19 6676:19 6677:2 6678:3 6679:3 6680:3 6681:3 6682:2 6683:2 6684:2 6685:2 6686:2 6687:3 6688:4 6689:1 6690:1 6691:1 6692:1 6693:1 6694:1 6695:1 6696:1 6697:1 6698:1 6699:1 6700:1 6701:1 6702:2 6703:1 6704:1 6705:1 6706:1 6707:1 6708:1 6709:1 6710:1 6711:1 6712:1 6713:1 6714:1 6715:1 6716:1 6717:4 6718:1 6719:1 6720:1 6721:1 6722:2 6723:1 6724:1 6725:1 6726:1 #
-0.00027646240428897935273444552706223 2:1 120:1 129:1 132:1 181:4 427:1 505:1 612:2 720:1 1140:1 1270:2 1355:1 1831:1 2682:1 2893:2 2922:3 3068:1 3534:1 3682:3 7147:2 7148:2 10566:1 10567:2 10568:3 10569:5 10570:1 10571:4 10572:8 10573:2 10574:1 #
-0.00049037865337090422775817577516477 1:1 5:1 36:1 57:5 96:1 120:1 132:2 143:1 209:1 221:2 271:2 412:1 421:1 635:1 737:1 798:1 915:1 952:6 978:1 1218:1 1370:1 1958:1 2060:1 2227:1 2450:1 2719:1 7249:1 7510:1 7598:1 9816:3 10052:1 12727:1 15991:1 16042:1 18187:1 25608:1 25609:2 25610:1 25611:2 25612:1 25613:1 25614:1 25615:1 25616:1 25617:2 25618:1 #
-0.0015963642432306117228957287323965 1:1 55:1 233:1 501:1 540:1 541:2 542:2 681:1 750:1 752:1 917:1 920:2 1082:1 1404:1 1405:1 2336:1 2619:1 3400:4 3911:1 4074:1 4245:2 5261:1 5444:1 9898:1 9902:1 10634:2 21914:1 22063:2 22064:1 22065:2 #
-0.0010279572047575433017818635761387 1:2 9:1 42:1 74:1 120:1 169:4 176:1 177:1 198:1 202:1 203:1 214:1 225:1 271:2 362:2 412:1 429:3 432:1 454:2 530:1 627:2 681:1 706:2 825:1 1163:1 1314:1 1351:2 1398:2 1633:1 1796:2 2182:1 2245:2 2351:1 2667:1 2751:1 3042:1 3428:1 3572:3 4917:1 5682:2 6252:2 6307:1 8373:1 8925:1 10085:1 15840:3 15841:1 15842:1 15843:1 15844:1 15845:1 15846:1 15847:1 15848:1 15849:1 15850:1 15851:1 15852:1 15853:1 15854:3 15855:1 15856:1 #
-0.0011308705536071128085195969248389 10:1 51:2 132:1 162:2 300:3 315:1 362:1 415:2 421:2 465:2 487:1 746:1 813:1 888:1 904:1 1045:3 1089:4 1168:1 1278:1 1936:1 1938:1 2145:1 2524:3 3826:2 3862:1 4533:1 4702:1 6079:1 6231:1 10437:1 12423:1 13333:2 13334:4 13335:2 13336:1 13337:1 #
-0.00062876871037586374527800225919805 1:2 7:2 20:1 51:3 132:2 166:1 426:1 579:1 597:1 694:1 778:1 1104:1 1108:1 1157:2 1615:1 1768:2 1776:1 1778:1 1913:1 2084:1 2880:3 2951:1 4293:1 4490:1 4951:1 5668:1 11071:2 12371:1 15931:1 15932:1 15933:1 15934:1 15935:1 15936:1 15937:1 15938:1 15939:1 #
-0.00029953444546148053724207716008721 1:1 7:6 112:1 120:2 163:1 186:3 292:3 331:1 362:1 396:1 402:1 510:1 596:1 635:1 677:1 681:1 919:1 1045:1 1142:1 1363:1 1425:2 1509:1 1764:3 1821:1 1840:1 1849:1 1933:2 2031:1 2169:1 2434:1 2891:1 2928:1 3867:3 5335:1 5414:1 5494:1 5950:1 7664:1 8273:1 8280:2 11893:1 14580:2 14658:1 15194:1 16168:3 19015:1 19016:1 19017:1 19018:1 19019:2 19020:3 19021:1 19022:1 19023:1 19024:1 19025:1 19026:1 19027:1 19028:1 19029:1 19030:1 19031:1 19032:1 19033:2 19034:1 19035:4 19036:2 19037:1 19038:1 19039:2 19040:1 19041:1 19042:1 19043:1 19044:1 #
-0.0026817025388224989893015681730049 1:2 7:2 23:1 120:1 132:1 186:2 320:1 331:1 485:1 780:1 1309:1 1541:1 1835:1 1836:1 1837:1 1838:1 1839:1 1840:1 1841:1 1842:1 1843:1 1844:1 1845:1 1846:1 1847:1 1848:1 1849:2 #
-4.6463331576283247489455446865847e-05 1:3 115:3 132:1 178:1 210:1 391:1 412:1 505:1 616:1 681:2 686:1 717:1 723:1 1052:1 1104:3 1306:1 1763:1 1950:1 2150:2 2161:2 2248:1 2262:1 2263:1 2264:1 2265:1 2266:1 2267:1 2268:1 2269:1 2270:1 2271:1 2272:1 2273:1 2274:1 2275:1 #
-0.0018097196721550187076266169583505 1:1 120:1 132:1 186:2 188:1 213:1 562:1 577:1 688:1 689:1 793:1 813:1 819:1 888:1 976:1 1168:1 1409:1 1530:1 1875:3 2125:1 3337:1 3454:2 4171:1 8540:1 12194:1 13746:2 13747:1 13748:1 13749:1 13750:1 #
-0.00041340698398975079695324974515813 1:1 7:2 24:1 50:1 51:5 57:1 85:2 87:1 159:1 205:1 235:1 271:1 345:2 356:2 532:1 560:1 740:1 851:1 885:2 905:1 996:1 1057:1 1248:1 1417:2 1477:2 1796:1 1876:2 2165:1 2282:1 2316:1 2584:1 2777:2 3344:1 3484:1 3726:1 3987:1 4245:1 4567:1 12497:8 13155:1 24898:1 24899:6 24900:5 24901:1 24902:2 24903:1 #
-0.00035087160056939688907926000460691 1:3 10:1 17:2 46:1 57:1 80:1 93:3 120:1 158:2 164:1 205:1 304:1 321:1 396:1 402:6 689:1 881:1 920:4 993:1 1131:1 1290:4 1323:1 1471:1 1521:2 1596:1 1641:1 1779:1 2353:1 2589:1 2737:2 2983:1 3022:1 5748:1 6327:1 6760:1 7539:1 9553:1 13359:3 13991:1 15734:1 19885:1 19886:1 19887:1 #
-0.00036422978218816540576033280451895 1:1 7:1 120:2 319:1 320:1 321:1 323:1 324:1 421:1 456:5 568:1 635:1 740:1 846:5 2059:1 2258:2 2643:1 2935:1 3285:1 3695:1 3871:1 4071:1 4537:1 5689:1 6996:1 7210:1 8120:1 12603:1 19478:1 23583:1 23584:1 23585:1 23586:1 23587:1 23588:1 23589:2 23590:1 23591:1 #
-0.00074747214371519805561905336332984 1:2 13:2 20:1 89:1 105:1 106:3 120:1 128:1 132:1 166:7 206:1 553:1 616:1 759:2 1056:1 1169:1 1361:2 1372:4 1389:1 1390:1 2095:2 2203:1 2468:1 2643:1 2887:2 2980:1 4679:1 5506:1 7255:2 8520:1 8567:8 11203:1 11217:1 12980:1 12981:1 12982:1 12983:1 12984:1 12985:1 12986:1 12987:1 12988:1 12989:1 12990:1 12991:1 12992:1 12993:5 12994:1 12995:2 12996:1 12997:1 12998:1 12999:1 #
-0.00022914233922245502619169377211961 50:4 74:3 120:1 121:2 143:1 194:7 200:2 211:1 223:2 275:2 331:1 413:1 421:1 485:1 560:1 635:1 637:1 731:1 845:1 1019:1 1057:3 1157:1 1227:1 1746:1 1779:1 1821:1 2374:3 2582:1 3344:1 3578:1 3713:1 3745:6 4012:1 4569:4 6115:1 8098:3 8591:1 12908:2 23182:1 23592:1 23593:5 23594:2 23595:1 23596:1 23597:2 23598:1 23599:1 23600:1 23601:2 23602:2 23603:1 23604:2 23605:2 23606:1 23607:1 23608:1 #
-0.0044430125340574038589336325344448 1:1 30:1 51:2 148:1 544:1 601:1 709:1 1103:1 1713:1 2359:1 4209:1 7050:1 14768:1 #
-0.00029324138186754135186606884388993 103:2 182:3 183:2 186:1 199:1 235:1 243:1 260:1 261:1 271:1 355:1 364:1 382:1 396:1 427:1 487:1 553:2 746:1 894:1 912:1 917:1 952:3 977:5 986:3 1148:1 1149:1 1150:1 1151:1 1152:1 1153:1 1154:1 1397:1 1471:1 2080:1 2165:1 2692:1 2799:1 2803:1 2988:1 3030:1 3518:1 3742:1 5283:1 5398:1 6814:1 8092:1 8552:1 10437:1 10947:1 12865:3 13628:2 14346:1 14870:1 21468:1 25136:2 26781:1 26782:1 26783:1 26784:3 26785:1 26786:1 26787:1 26788:1 26789:1 26790:1 26791:1 26792:1 #
-0.00022829234522764053081159141278533 1:1 2:1 120:3 148:1 288:1 306:1 355:3 532:1 567:1 635:1 699:1 739:1 952:2 1329:1 1677:1 1826:1 6385:2 6403:1 9390:1 13132:5 13133:1 13134:1 13135:1 13136:5 13137:1 13138:1 13139:1 13140:1 13141:1 13142:1 13143:1 13144:1 13145:1 13146:1 13147:1 13148:1 13149:1 13150:1 13151:1 #
-0.00039541440729759698164552661481252 1:2 120:2 121:5 169:2 214:2 268:1 315:4 358:1 616:1 681:1 834:1 1218:1 1434:1 1789:1 1820:1 2063:1 2153:1 4650:3 5696:7 6219:1 12373:1 12374:1 12375:1 12376:3 12377:1 12378:1 12379:1 12380:1 12381:3 12382:1 12383:1 12384:1 12385:1 12386:1 12387:1 #
-0.00068043583363324084724299556370397 1:3 39:2 42:1 44:1 115:1 120:1 166:3 213:1 219:1 406:1 616:1 681:1 872:1 1351:1 1557:1 1973:1 2090:1 2145:1 3911:1 5102:1 6912:1 6913:1 6914:1 6915:1 6916:1 6917:2 6918:1 #
-0.001121226728159419603128577058726 1:1 121:2 185:1 414:2 723:1 1106:1 1218:2 1283:1 1508:1 1855:1 2004:1 3665:1 3809:1 4776:1 7513:1 8585:1 10786:2 16126:1 18184:1 19144:1 22559:3 #
-0.00046698906112564036747364371038316 1:1 66:1 120:2 132:1 148:1 160:1 200:1 266:1 271:1 320:1 429:1 564:3 604:1 681:1 898:2 924:1 978:1 1027:1 1345:1 1477:1 1978:1 2582:1 3352:1 3534:1 3965:1 4157:1 4158:1 4976:1 5102:1 7836:1 8176:1 11081:1 11984:1 13613:1 25709:1 28759:1 28760:1 28761:1 28762:1 28763:2 28764:1 28765:2 28766:1 28767:1 28768:1 28769:2 28770:1 28771:2 28772:1 28773:1 28774:1 28775:1 28776:1 #
-0.0017949783759697687975098734369794 1:1 7:1 51:2 120:3 148:1 159:1 213:3 304:1 728:1 1168:1 1860:1 2611:1 3925:1 4971:1 16677:3 #
-0.0014663653661362934486900311270574 43:1 54:1 76:1 85:1 120:2 161:1 164:2 191:1 365:1 421:1 445:1 705:2 862:1 1187:1 1521:1 1911:1 2928:1 5141:2 21149:1 21150:1 21151:1 21152:1 21153:1 21154:1 #
-0.00018171809366421273561863214407452 1:1 112:1 120:3 235:1 374:7 566:8 616:1 839:1 918:3 1057:2 1163:1 1248:1 1409:3 1595:2 1771:1 1849:1 1998:4 2032:2 2168:2 3887:1 4040:1 7257:1 17075:1 18211:1 18212:1 18213:1 18214:1 18215:2 18216:1 18217:1 18218:1 18219:1 18220:1 18221:1 18222:3 18223:1 18224:1 #
-0.00082820512607307487495250652997925 1:1 5:1 57:1 123:1 203:1 229:3 355:1 364:4 402:1 443:1 487:1 553:1 594:1 701:2 717:1 782:1 1045:1 1103:1 1287:1 1499:2 1509:1 1595:1 1632:1 1949:1 2737:1 4054:4 4555:1 6813:1 8373:1 9530:1 10201:1 14060:1 15919:1 16264:1 16265:1 #
-5.1562446004457533252872403206624e-05 1:5 2:2 5:2 7:1 27:2 39:1 46:1 62:6 74:1 83:1 120:1 160:1 164:1 211:2 213:1 225:1 288:2 292:1 304:1 331:1 356:4 368:1 394:1 396:3 424:1 454:1 472:1 479:1 485:5 487:1 571:1 593:5 681:1 699:1 723:1 750:2 764:1 801:1 810:1 812:2 890:1 899:1 906:7 910:2 913:4 914:1 917:1 1069:1 1081:1 1120:1 1248:1 1358:1 1419:1 1459:1 1569:1 1626:1 1634:2 1642:2 1646:7 1648:1 1772:4 1893:1 1936:1 1957:1 1992:1 2100:1 2154:2 2248:1 2267:1 2364:1 2365:1 2437:4 2590:2 2634:1 2739:1 2774:1 2783:1 2880:1 2923:1 3042:2 3065:2 3388:2 3437:1 3814:1 3859:1 3916:1 4043:1 4078:1 4254:2 4697:1 4704:2 4763:1 4770:2 5353:2 5674:1 6215:5 6530:1 6985:1 7399:1 7437:1 7668:1 8182:1 8188:1 8529:2 8540:1 9083:1 9390:2 11333:1 11392:8 12239:4 12240:1 12241:1 12242:1 12243:1 12244:1 12245:1 12246:1 12247:1 12248:2 12249:1 12250:1 12251:12 12252:2 12253:1 12254:7 12255:2 12256:3 12257:1 12258:1 12259:1 12260:1 12261:5 12262:1 12263:2 12264:2 12265:1 12266:1 12267:1 12268:1 12269:1 12270:1 12271:1 12272:1 12273:1 12274:1 12275:1 12276:1 12277:1 12278:1 12279:1 12280:1 12281:1 12282:1 12283:1 12284:7 12285:1 12286:1 12287:1 12288:1 12289:1 12290:1 12291:1 12292:1 12293:1 12294:1 12295:1 #
-0.00053449464570503549699226342184488 1:2 78:1 128:1 200:1 208:1 211:1 223:1 427:1 488:1 571:2 586:1 601:3 607:2 699:1 723:1 780:1 896:1 927:2 1229:1 1236:1 1414:1 1909:1 1964:1 2159:1 2204:1 2359:2 2390:2 2766:1 3021:1 3518:1 3729:1 3946:1 7946:1 19763:1 19764:1 19765:1 19766:1 19767:1 19768:1 19769:1 19770:1 19771:1 #
-0.00051184781048929672321590178540873 1:2 115:1 120:2 132:3 210:1 260:1 410:1 412:1 532:1 796:1 1043:1 1104:1 1131:1 1990:1 2564:1 2607:1 4177:4 6201:1 7260:2 24457:1 28027:2 28028:2 28029:2 #
-0.00050180482118125212948056557138443 1:2 2:1 7:2 22:1 44:1 51:1 57:1 120:2 128:1 184:5 185:1 214:1 229:1 266:1 321:1 331:1 369:1 398:1 481:1 572:1 593:1 597:1 612:2 731:1 885:1 910:1 977:1 1069:2 1163:1 1416:1 1587:1 1834:1 1990:1 2219:1 2647:1 2926:1 2935:1 3055:1 4603:1 4992:2 5862:1 7064:1 7507:1 7584:1 7677:1 8535:2 9371:1 19440:1 19454:1 20831:2 25293:1 25581:1 25582:1 25583:1 25584:1 25585:2 25586:1 25587:1 25588:1 25589:1 25590:1 25591:1 25592:1 25593:1 25594:1 25595:1 25596:1 25597:1 #
-0.00021585763911466328193039521110563 1:1 50:1 71:1 76:1 102:1 129:1 140:1 162:1 200:2 204:3 235:2 306:3 351:1 404:2 415:1 424:1 699:1 706:1 725:3 813:1 874:3 918:1 922:1 936:2 975:1 1298:1 1621:1 1796:1 1924:1 2029:1 2128:1 2751:1 3674:1 4432:1 5912:1 6183:1 6329:1 8072:3 9549:1 9550:1 9551:1 9552:1 9553:1 9554:1 9555:1 9556:1 #
-0.00018220676920082905909069326266803 1:1 19:1 71:1 102:1 112:2 120:2 132:1 179:1 244:5 260:7 261:6 266:2 320:2 347:1 401:1 406:1 544:5 564:2 594:3 715:1 874:1 889:5 939:1 946:1 952:1 986:1 1080:3 1105:1 1106:1 1423:1 1446:1 1831:1 1981:1 1990:2 2692:1 2693:1 2694:1 2695:1 2696:1 2697:1 2698:1 2699:1 2700:1 2701:1 2702:1 2703:2 2704:2 2705:1 2706:1 2707:1 2708:1 2709:1 2710:3 2711:5 2712:5 2713:5 2714:1 2715:1 2716:1 2717:1 2718:1 #
-0.00048070593475119322360300522234411 1:1 7:6 20:1 44:3 51:2 62:2 66:2 72:3 82:3 83:1 120:3 121:4 123:1 129:4 132:9 156:6 159:2 164:1 168:1 186:2 191:1 193:1 202:1 223:5 233:1 243:1 271:1 315:2 331:1 357:1 364:2 365:1 367:1 392:2 396:1 412:2 421:1 427:1 447:2 465:1 505:1 509:1 532:1 541:2 553:1 577:1 596:1 598:19 613:4 614:2 653:3 681:1 685:1 688:1 689:1 699:2 715:1 731:1 734:1 746:1 778:2 798:3 813:2 825:1 841:1 846:1 874:3 881:1 885:1 900:1 908:1 931:1 932:1 995:1 1073:1 1092:3 1111:1 1123:1 1152:2 1163:2 1205:5 1206:1 1272:1 1285:1 1287:1 1315:1 1326:1 1419:1 1435:4 1446:1 1484:2 1530:2 1572:1 1645:1 1652:1 1681:1 1690:1 1728:1 1774:1 1779:3 1782:1 1831:1 1834:2 1851:1 1852:1 1884:1 1944:1 1967:1 2030:1 2061:1 2154:7 2170:1 2181:1 2244:2 2268:1 2276:1 2336:1 2351:2 2381:1 2434:4 2438:2 2466:1 2507:1 2563:1 2566:1 2582:1 2643:1 2722:1 2751:1 2758:2 2916:1 2922:1 3012:1 3222:1 3413:1 3451:1 3454:1 3597:1 3729:1 3818:1 3902:1 3944:1 4076:1 4227:2 4297:1 4319:1 4325:4 4468:1 4681:2 4740:1 4780:1 5003:1 5046:1 5110:2 5359:1 5738:1 5755:1 5961:1 5964:1 6750:1 6828:1 6953:1 7340:2 7391:1 7395:1 7402:1 8114:1 8115:1 8116:1 8117:1 8118:2 8119:1 8120:5 8121:3 8122:1 8123:1 8124:7 8125:7 8126:2 8127:1 8128:2 8129:1 8130:1 8131:1 8132:1 8133:2 8134:5 8135:1 8136:1 8137:1 8138:1 8139:1 8140:1 8141:1 8142:1 8143:1 8144:1 8145:1 8146:1 8147:1 8148:1 8149:1 8150:1 8151:1 8152:1 8153:1 8154:1 8155:1 8156:1 8157:2 8158:1 8159:1 8160:1 8161:1 8162:2 8163:1 8164:1 8165:1 8166:1 8167:1 8168:1 8169:1 8170:1 8171:1 8172:1 8173:1 8174:1 8175:1 8176:1 8177:1 8178:1 8179:1 8180:1 8181:2 8182:1 8183:1 8184:1 8185:1 8186:1 8187:1 8188:1 8189:1 8190:2 8191:2 8192:1 8193:1 8194:1 8195:1 8196:1 8197:1 8198:1 8199:1 8200:1 8201:1 8202:1 8203:1 8204:1 8205:1 8206:1 8207:1 8208:1 8209:2 8210:1 8211:1 8212:1 8213:1 8214:1 8215:1 8216:1 8217:1 8218:1 8219:1 #
-0.00051233072498577884434228790766497 1:1 3:8 7:3 51:1 73:1 120:1 132:1 213:1 271:2 288:1 331:2 387:1 532:1 586:2 813:1 1044:6 1336:1 1400:2 1681:1 2993:2 4016:2 4821:3 7538:1 7934:1 19123:1 28501:1 28502:3 28503:1 28504:1 28505:1 28506:1 #
-3.9922547916669692152392967532393e-05 1:3 10:1 37:1 44:1 120:5 179:1 271:1 287:2 320:3 335:3 351:2 365:1 406:1 420:1 424:1 494:4 514:1 538:1 594:1 715:1 734:1 764:1 839:1 846:1 894:1 975:1 996:1 1049:1 1089:1 1579:1 1998:1 2784:1 2987:1 3012:1 3553:1 3586:3 4047:1 4078:1 4211:2 4346:1 4984:2 5102:1 6921:1 7776:5 7925:2 8732:1 9517:2 9864:1 12030:1 12554:1 16049:1 16527:1 20505:1 20506:1 20507:1 20508:1 20509:1 20510:2 20511:5 20512:1 20513:1 20514:2 20515:1 20516:1 20517:1 20518:1 20519:1 20520:2 20521:1 20522:1 20523:1 20524:1 20525:1 20526:1 20527:1 20528:1 20529:1 20530:1 20531:1 20532:1 #
-0.0026137694321162721795837047267241 1:1 71:1 120:1 132:1 159:1 229:1 309:1 541:2 542:2 546:2 585:1 705:1 834:1 1044:1 5574:1 5575:1 5576:1 5577:2 5578:1 5579:2 5580:1 5581:1 5582:1 5583:1 5584:1 5585:1 #
-0.0021314352875614651916524877606207 1:1 50:1 88:1 99:1 206:1 211:1 382:1 731:1 810:1 894:2 1082:1 1507:1 1508:1 2426:1 4373:1 7089:1 8552:1 13241:1 13242:1 13243:1 13244:1 #
-0.00030957294880729172318820086040603 1:1 160:1 204:1 394:1 482:1 549:1 553:2 1380:3 1877:1 2336:1 2347:3 5261:6 5950:4 6329:1 23472:2 23473:1 #
-0.0003575092985325045930392051651836 1:1 7:1 19:1 25:1 120:1 126:1 200:3 273:1 345:1 347:1 604:1 612:1 862:1 1764:1 1975:1 2276:1 3285:3 3431:1 5335:1 8927:4 10615:3 17615:1 26799:3 26800:2 28559:1 28560:1 28561:3 28562:3 28563:1 28564:1 28565:2 28566:1 28567:2 28568:2 28569:1 28570:1 28571:1 28572:1 28573:1 #
-0.0010363829803794459994553678328089 1:1 50:1 62:2 66:1 115:2 296:1 411:1 556:1 603:1 696:2 782:3 1104:2 1168:1 1174:1 1191:2 1196:1 1280:1 1317:1 1568:1 1666:1 2125:1 2173:1 2174:2 2175:1 2176:1 2177:1 2178:2 2179:1 2180:1 #
-0.0026095347686399990305705642867906 7:1 88:1 96:1 166:2 168:1 271:1 544:2 706:1 996:1 1248:1 1348:1 7208:1 24117:1 29648:1 #
-1.7868324562673824489359916678488e-05 1:1 7:3 12:1 19:1 42:2 53:1 66:2 71:1 74:1 123:1 129:1 166:1 200:3 287:1 333:1 367:1 400:1 412:1 418:1 427:1 473:1 492:2 525:1 590:1 688:1 699:1 723:1 825:1 898:2 1066:1 1080:1 1131:1 1177:1 1218:1 1298:1 1376:1 1435:1 1492:2 1528:1 1532:1 1573:1 1595:1 1606:3 1645:1 1692:1 1784:4 2079:1 2084:6 2129:1 2203:1 2234:1 2382:1 2719:1 2751:2 2775:3 2919:1 2977:1 3183:1 3248:1 3357:1 3597:1 4143:1 4175:1 4756:1 4966:1 4973:1 6168:1 7294:1 8569:1 10745:1 11801:1 12385:1 13664:1 14397:1 16255:1 16934:1 18382:1 20711:1 26273:1 26274:1 26275:1 26276:1 26277:1 26278:1 26279:1 26280:3 26281:1 26282:2 26283:1 26284:1 26285:1 26286:1 26287:1 #
-0.00066286939269645376356793198269202 79:1 112:1 120:1 132:1 198:1 229:2 287:2 320:1 355:2 485:1 501:1 635:1 681:1 699:1 952:3 986:1 995:1 1336:1 1826:1 3309:1 3742:1 6135:1 6385:1 6437:1 6565:1 7697:1 7699:1 10052:1 11284:1 15716:1 16427:1 17935:1 17936:2 17937:1 17938:1 17939:1 17940:2 17941:2 17942:1 17943:1 17944:1 17945:1 17946:2 17947:1 17948:1 17949:1 17950:1 17951:2 17952:1 17953:1 17954:1 17955:2 17956:1 17957:2 #
-0.00026723904353664760169193015393319 1:1 2:2 3:1 19:1 36:1 51:1 83:1 112:1 120:3 121:5 132:1 169:11 176:2 200:4 201:2 203:1 208:1 212:1 214:6 221:3 225:2 268:2 271:1 362:1 363:3 396:1 406:1 414:6 415:4 419:4 432:3 721:1 723:3 778:1 813:1 832:2 914:1 975:1 1172:3 1218:1 1400:1 1434:2 1534:2 1789:6 1904:1 1990:1 2169:1 2468:1 2588:3 2607:2 2876:1 2936:1 3030:1 3389:1 3654:2 4035:1 4431:1 4776:3 5572:2 6226:2 8432:1 10563:1 13539:1 15419:2 17365:2 20831:1 20997:1 23018:3 24659:1 25016:4 25017:2 25018:1 25019:1 25020:1 25021:6 25022:1 25023:1 25024:1 25025:1 25026:3 25027:1 25028:1 25029:1 25030:2 25031:2 25032:3 25033:1 25034:1 25035:1 25036:1 25037:1 25038:1 #
-0.00058139787001842979392157717555278 19:1 58:1 62:2 66:1 120:1 132:1 162:1 169:5 212:1 214:4 268:1 288:2 362:1 406:2 415:1 424:1 453:2 541:1 542:1 546:1 556:1 570:1 752:1 789:1 975:1 1118:1 1377:1 1379:1 1422:1 2123:2 2875:1 2917:1 3403:1 5119:1 5764:1 8093:1 8094:1 8095:1 8096:3 8097:1 8098:9 8099:1 8100:3 8101:3 8102:1 8103:1 8104:1 8105:1 8106:1 8107:1 8108:1 8109:1 8110:1 8111:3 8112:1 8113:1 #
-0.00018803705083959029818047037352358 1:3 7:4 10:1 50:1 51:1 57:1 120:2 128:1 186:2 317:1 331:2 373:1 406:1 410:1 597:1 705:1 710:3 746:1 1052:2 1152:1 1157:3 1469:1 1593:2 1594:3 1595:1 1596:1 1597:1 1598:6 1599:1 1600:1 1601:1 1602:1 1603:1 1604:2 1605:2 1606:2 1607:2 1608:2 1609:1 1610:2 1611:1 1612:1 1613:1 1614:1 1615:1 1616:1 1617:1 1618:1 1619:1 1620:1 1621:1 1622:1 1623:1 #
-0.0016687074621621138768856607015323 1:2 20:1 120:1 128:1 132:1 148:1 166:1 183:1 220:1 412:1 418:1 540:1 541:2 542:2 545:1 546:1 750:1 752:2 753:1 754:1 755:1 783:1 886:1 1157:3 1218:1 1290:2 1532:3 1548:1 1622:1 1843:1 1849:1 3334:1 6229:1 10292:1 11539:1 30906:1 30907:2 30908:1 30909:1 30910:1 30911:1 30912:1 #
-0.0002781508186644317216426602890067 1:1 2:1 13:4 74:2 120:1 205:1 213:1 221:1 223:1 287:1 331:1 412:2 487:1 503:1 532:1 722:1 936:1 952:1 975:1 1425:2 1782:1 2922:2 2987:1 3208:1 3348:1 3594:1 4403:1 4672:3 5025:1 8843:1 10445:4 12520:1 15644:2 20202:1 28088:2 28089:3 28090:1 28091:2 28092:1 28093:1 #
-0.001119016416499236596382438335695 1:2 57:1 132:1 162:1 169:1 181:1 204:1 267:1 364:1 402:1 443:1 480:1 482:2 584:1 652:1 920:1 975:1 1191:1 1411:2 1413:1 1713:1 1720:1 1771:1 1958:1 2023:1 2029:1 2158:1 2610:1 3351:1 4543:1 4679:1 6197:1 12003:1 12004:2 12005:1 12006:1 12007:1 #
-0.0021089742271318727764861655771256 1:1 430:1 898:2 1089:1 2177:1 4740:1 4741:1 4742:1 4743:1 4744:1 4745:1 4746:1 4747:1 4748:1 #
-0.0013334191032587459219138636967728 1:1 2:1 12:1 199:1 200:2 273:1 331:1 406:1 487:1 505:1 553:1 584:1 731:1 1106:1 3942:1 3943:1 3944:1 3945:1 3946:1 3947:1 3948:1 #
-0.0022229651850320455985787759800587 1:1 120:1 160:1 790:1 813:1 939:1 1043:1 1129:1 1270:1 1389:1 2901:1 3192:1 7570:1 7571:1 7572:1 7573:1 7574:1 7575:1 7576:1 #
-0.0013891369318131388185810770607986 1:1 7:2 10:1 24:2 36:1 39:1 43:1 51:1 420:1 572:1 601:1 616:1 731:1 777:1 778:1 780:1 813:1 832:1 1318:1 1354:1 1389:1 1438:2 1917:1 2479:1 2875:1 3419:1 4672:1 4679:1 4732:1 7707:1 11654:1 11968:1 17182:2 17183:1 17184:1 17185:1 17186:1 #
-0.00038194992988742679619965092463474 13:2 99:1 120:1 123:3 129:1 184:2 186:2 188:2 200:1 221:1 271:1 273:1 320:1 404:1 421:1 429:4 541:1 542:1 546:1 623:1 624:1 746:1 750:1 752:1 952:4 1030:3 1104:2 1584:1 1621:1 1796:2 1826:1 1877:1 2267:1 3367:1 3403:1 3431:1 5710:6 5950:1 7697:1 7699:1 7708:1 7824:2 9706:1 11257:5 11273:1 11303:4 11974:2 12368:2 14204:1 14559:1 15136:1 18137:1 20839:1 21006:2 21007:1 21008:1 21009:1 21010:1 21011:1 21012:1 21013:1 21014:1 21015:3 21016:1 21017:1 21018:1 21019:1 21020:1 21021:1 21022:1 #
-0.00034281565591744747557509387370089 1:2 120:1 186:1 194:1 396:2 418:1 541:3 681:1 1229:1 1621:1 3325:1 3516:1 4432:1 6374:1 17566:8 17636:1 17673:2 17674:1 17675:2 17676:2 23158:1 23159:3 23160:1 23161:1 23162:1 23163:1 23164:1 23165:1 23166:1 23167:1 23168:1 23169:1 23170:1 #
-0.00050263131825477064696522377929 2:1 31:1 46:1 73:1 99:1 103:1 162:1 166:1 200:1 201:3 212:4 219:2 356:2 406:1 415:1 421:1 422:1 427:5 530:1 568:2 731:1 744:1 782:1 960:1 1082:1 1104:1 1106:4 1743:1 1857:1 1904:1 2022:1 2332:3 2894:1 3198:1 3352:3 4232:1 6115:1 7251:1 8111:1 15687:1 20884:1 20885:1 20886:1 20887:1 #
-0.00016504929837871999101679698629397 1:2 5:1 83:1 120:2 132:1 140:1 163:1 169:1 199:1 211:1 213:1 243:2 260:6 365:1 412:5 414:2 478:1 532:2 569:1 584:1 734:1 851:1 936:1 978:1 1190:6 1229:2 1235:5 1323:1 1944:1 1958:1 2182:5 2980:1 4180:6 4472:1 7163:1 7727:1 7828:1 9396:1 9436:1 9911:2 12645:1 13794:1 13795:1 13796:1 13797:1 13798:1 13799:1 13800:1 13801:1 13802:1 13803:1 13804:1 13805:2 13806:1 13807:1 13808:1 13809:1 13810:2 13811:1 13812:1 13813:1 13814:2 13815:1 13816:1 13817:1 #
-0.00052641213864601445627383613512507 1:1 7:3 10:1 20:1 50:2 51:5 83:1 96:1 129:1 159:2 355:1 362:1 427:1 530:3 560:1 561:1 572:1 597:1 612:1 681:1 689:1 699:1 701:1 715:1 734:1 993:1 1051:1 1069:1 1121:1 1201:1 1370:1 1395:1 1414:2 1434:1 1438:1 1548:1 1769:1 2286:1 2479:1 2582:1 2727:1 2777:1 2875:1 2916:1 3055:1 3268:1 3454:1 3465:1 3599:1 3945:2 7735:1 9135:1 12205:1 20175:1 20176:1 20177:1 20178:1 20179:1 20180:1 20181:1 20182:1 20183:1 20184:1 20185:1 20186:1 20187:1 20188:1 20189:1 20190:1 #
-0.00042028538801423169848914263013739 10:1 76:1 120:1 238:10 251:16 266:1 368:1 424:1 532:2 651:1 684:1 988:1 1038:1 1690:1 1768:1 1851:1 1852:1 1970:1 2202:1 2282:1 2875:1 3278:1 3352:1 3367:1 3559:1 3756:1 4056:1 4076:1 4448:1 4761:1 6869:1 6871:1 6908:1 10322:1 10323:1 10324:1 10325:1 10326:1 10327:2 10328:2 10329:1 10330:2 10331:1 10332:1 10333:1 10334:2 10335:4 10336:4 10337:1 #
-8.7612663646479934168032066565956e-05 1:3 5:2 57:8 120:2 136:1 148:1 153:2 154:2 183:1 209:4 213:1 233:2 324:1 391:1 423:1 426:1 652:1 676:2 717:1 825:1 862:1 874:1 888:2 893:2 1165:2 1290:3 1650:1 1681:1 1796:1 1909:3 1961:2 1994:1 1996:1 2150:2 2161:1 2257:1 2263:1 2751:1 3031:1 3050:1 3222:1 3309:1 3544:1 4467:1 5353:1 5738:1 6329:18 6814:1 8365:1 9590:1 23790:1 23791:1 23792:1 23793:1 23794:1 23795:1 23796:2 23797:1 23798:1 23799:1 23800:1 23801:1 23802:2 23803:1 23804:1 23805:1 23806:1 23807:1 23808:2 23809:1 23810:1 23811:1 #
-0.00067835449569795050472897912641201 1:1 5:1 30:3 81:2 306:2 321:1 355:1 424:1 548:1 778:1 833:1 1038:4 1082:1 3268:1 3301:1 4202:1 4672:1 5910:2 14659:1 23150:1 #
-0.00070967436774662555950404785320984 1:2 501:1 601:1 717:2 1000:1 1014:1 1871:1 4972:1 5021:1 7490:1 9743:1 19060:1 26405:1 26406:1 26407:1 26408:1 26409:1 26410:1 26411:1 26412:1 26413:1 26414:1 26415:1 26416:1 26417:1 #
-0.00040700802887576212297712774379477 7:1 19:1 36:1 143:1 200:3 368:1 414:2 482:1 570:2 699:1 722:2 723:2 1633:1 1893:2 1981:1 2095:1 2179:1 2268:1 2685:1 5351:1 13664:1 #
-0.0013610259287198409137303878324587 1:3 120:1 179:1 180:1 223:1 350:1 364:1 489:1 568:1 739:1 793:1 846:1 996:1 1230:1 1509:1 2136:1 3206:1 3352:2 6927:1 13656:1 23185:1 23186:1 23187:1 23188:1 23189:1 #
-0.0014277770134706389663914460896876 7:2 39:1 93:1 140:1 406:1 427:1 698:1 723:1 778:1 1104:1 1280:1 1400:1 1565:1 2276:1 2928:1 3181:1 3388:1 3389:1 3390:1 3391:1 3392:1 3393:1 3394:1 #
-0.00073855688118303953505761061393287 1:2 102:1 143:1 166:2 181:1 201:1 396:1 438:1 541:2 542:2 544:2 546:2 624:1 689:1 699:1 705:1 720:1 753:2 754:2 796:1 936:2 1168:1 1169:1 1911:1 3068:2 3403:1 5582:1 7035:1 13926:1 13927:1 13928:1 13929:1 13930:1 13931:1 13932:1 13933:1 #
-0.00045155176926099931545427468293497 120:2 121:2 219:2 221:1 223:2 289:1 435:1 492:1 506:1 509:1 762:1 1084:2 1164:1 1504:1 1627:1 1647:2 2050:1 2142:1 2204:1 2248:1 3314:1 3367:1 3613:1 4091:1 4929:1 5029:1 5030:3 5031:1 5032:1 5033:3 5034:6 5035:1 5036:1 5037:1 5038:1 5039:1 5040:1 5041:1 5042:1 5043:1 5044:1 5045:1 5046:1 #
-0.00031035668644649911122532226492865 1:1 19:1 25:1 31:1 57:1 120:2 173:1 229:1 266:2 293:3 406:2 412:1 420:1 487:4 558:2 616:1 715:3 839:1 933:1 1000:1 1051:1 1057:6 1713:1 2029:1 2588:1 4516:2 5532:1 #
-0.00088181895828753908972430508583784 1:1 102:2 120:1 159:3 169:3 204:1 235:4 238:2 239:3 251:2 266:3 320:1 333:1 438:1 449:2 482:1 507:1 628:1 651:1 715:1 734:1 939:1 946:1 986:2 987:1 1168:1 1323:1 2595:1 3047:1 3281:1 5183:1 6385:2 6871:1 6908:1 10334:2 18349:1 18350:1 18351:1 18352:1 #
-0.0010124136064491118334324193384077 1:1 120:1 129:1 186:1 188:1 333:2 406:1 530:1 616:1 705:1 959:2 1248:1 1486:1 2491:1 2566:1 5296:1 8089:1 10605:2 15497:3 15498:1 15499:2 15500:1 #
-0.0018632595677320600707771447446248 1:1 132:2 208:1 209:1 363:1 977:2 4180:1 4600:1 9140:1 12296:1 12379:1 30678:1 30679:1 30680:1 #
-0.00031992681298849743156201275162687 5:1 10:1 12:4 40:1 43:3 120:5 129:1 132:5 176:2 179:1 199:1 213:2 331:6 373:2 406:1 421:1 488:2 593:1 595:1 601:1 616:1 839:1 975:1 982:1 1060:2 1170:13 1172:2 1278:2 1306:1 1438:2 1587:2 1646:2 1748:3 1763:1 1796:4 1957:2 2043:1 2182:2 2727:1 2757:1 2758:1 2957:10 3208:2 3485:1 4008:2 4554:2 4669:2 4672:2 5245:2 7172:1 7337:1 7372:1 10200:1 10844:1 10903:2 10983:1 10984:4 10985:2 10986:1 10987:1 10988:1 10989:1 10990:1 10991:1 10992:1 10993:1 10994:1 10995:1 10996:1 10997:1 10998:1 10999:1 11000:1 11001:1 11002:1 11003:1 11004:1 11005:4 11006:1 11007:5 11008:2 11009:2 11010:2 11011:2 11012:1 11013:3 11014:4 11015:2 11016:2 11017:2 11018:2 11019:2 11020:6 11021:1 11022:1 11023:1 11024:1 #
-9.4050527471140112360965812587921e-05 1:1 7:1 43:10 46:1 74:1 85:1 120:1 128:1 129:1 177:1 373:2 387:1 406:1 485:1 627:1 644:4 646:4 672:1 731:23 813:1 829:1 832:5 1157:2 1172:15 1305:1 1329:1 1397:1 1528:4 1578:1 1580:5 1587:1 1613:1 1663:15 1772:1 1784:1 1789:1 2182:4 2292:1 2312:1 2381:2 2656:2 2936:8 3208:1 3310:1 3417:7 3559:1 3817:1 3902:1 4342:1 4371:3 4643:1 6079:1 7296:1 7297:5 7298:1 7299:2 7300:1 7301:1 7302:1 7303:2 7304:1 7305:1 7306:3 7307:2 7308:2 7309:1 7310:1 7311:3 7312:3 7313:1 7314:1 7315:1 7316:1 7317:1 7318:1 7319:1 7320:2 7321:2 7322:12 7323:2 7324:1 7325:1 7326:1 7327:4 7328:1 7329:1 7330:2 7331:1 7332:2 7333:3 7334:1 7335:1 7336:1 7337:1 7338:1 7339:1 7340:1 7341:1 #
-5.5464088258593944745413611974172e-05 1:2 6:1 7:1 10:1 20:5 40:1 45:2 46:1 51:2 57:1 62:6 74:2 143:1 159:1 168:1 315:1 368:1 373:4 483:1 485:1 487:1 570:1 583:1 584:2 597:1 601:2 681:1 694:6 699:1 701:1 703:2 778:1 798:1 806:1 813:1 825:1 862:1 885:1 899:1 906:10 1069:1 1106:1 1235:1 1272:1 1306:2 1387:1 1446:1 1449:1 1471:1 1516:1 1519:1 1528:1 1775:1 1779:2 1797:1 1858:1 1936:2 1938:1 1944:1 1964:1 2080:1 2129:2 2140:1 2154:1 2181:3 2228:4 2351:1 2392:1 2437:3 2582:1 2966:2 3221:1 3295:1 3437:1 3456:1 3694:1 3743:2 3844:1 3957:4 4033:1 4966:1 5283:1 6980:1 7138:1 7206:1 7532:1 7925:1 10295:2 10485:1 11767:1 12743:1 12879:1 12880:1 12881:1 12882:1 12883:1 12884:2 12885:3 12886:1 12887:1 12888:1 12889:1 12890:2 12891:1 12892:1 12893:1 12894:2 12895:1 12896:3 12897:2 12898:2 12899:2 12900:2 12901:2 12902:3 12903:1 12904:1 12905:1 12906:2 12907:2 12908:1 12909:1 12910:1 12911:1 12912:1 12913:1 12914:1 12915:1 12916:1 12917:1 12918:1 12919:1 #
-0.00083005248506064178634633599074277 1:1 7:1 19:1 22:3 50:1 73:2 120:2 132:2 186:1 387:1 487:3 616:1 723:1 778:1 832:1 839:2 1065:1 1142:2 1593:1 1641:1 1783:2 1857:2 1877:1 2087:1 2169:1 2283:1 2719:1 3005:1 3334:1 3530:1 3572:2 3703:1 4143:2 4306:1 4669:1 5021:2 5167:1 5355:1 8607:3 12695:3 13537:1 13632:1 15869:1 22579:4 22580:1 22581:1 22582:1 22583:1 22584:1 22585:1 22586:1 22587:1 22588:1 #
-0.00093782943510727935759047069197436 1:1 7:3 50:1 51:1 66:5 85:1 129:2 211:1 356:2 367:1 368:1 373:1 408:1 479:1 485:1 503:1 532:1 597:1 681:1 694:1 703:1 898:2 1336:1 1375:1 1664:2 2215:1 3351:1 3367:1 3521:1 3598:1 4821:1 5130:1 5493:2 7904:2 13670:1 16254:2 18600:1 20945:1 27275:1 27276:1 27277:2 27278:2 27279:1 27280:2 27281:1 27282:1 27283:1 27284:1 27285:1 27286:1 27287:1 27288:1 27289:1 27290:1 27291:1 27292:1 27293:1 #
-0.0018498373010862535943676920879852 1:1 102:1 103:1 166:2 169:1 229:1 541:1 542:1 544:1 546:1 616:1 753:1 754:1 1043:1 1446:1 1768:1 3068:1 3359:1 3403:1 3467:1 9613:1 12920:1 18673:1 21018:1 23132:1 29437:1 29438:1 29439:1 29440:1 29441:1 29442:1 #
-0.0017317849689076584163843763874979 1:1 102:1 132:1 163:1 267:1 596:1 660:2 681:1 689:1 723:1 936:1 1235:1 1782:1 1814:1 2336:1 3400:1 9800:1 9801:1 #
-0.00032721408589262898896493636513583 1:1 19:1 20:1 26:3 103:1 132:5 156:2 164:1 188:1 229:2 365:1 419:1 443:1 645:1 689:2 692:1 832:1 993:1 1002:1 1033:1 1036:1 1081:1 1193:1 1201:2 1235:1 1278:1 1355:1 1429:1 1871:2 1904:1 2021:1 2059:1 2099:1 2244:1 2332:1 2503:3 2505:2 2749:1 2914:1 2988:1 3065:1 3247:1 3818:1 3831:1 3832:1 3929:1 4464:1 7163:1 7386:1 7733:1 11969:1 16254:4 22319:1 26747:1 27981:2 27982:1 27983:1 27984:1 27985:1 27986:1 27987:1 27988:1 27989:1 27990:2 27991:2 27992:2 27993:1 27994:1 27995:1 27996:1 27997:1 27998:1 27999:1 28000:1 28001:1 28002:1 28003:1 #
-0.0029099982740298691204217096384355 1:1 7:1 76:1 96:1 176:1 185:1 229:2 355:1 403:1 560:1 651:1 1110:1 2145:1 2610:1 21005:1 #
-0.00069731533511657164611796666520149 1:1 7:1 10:1 27:2 120:1 132:4 213:1 223:1 284:1 320:1 419:1 483:1 489:1 596:1 597:1 694:1 699:1 728:1 813:1 913:1 959:1 1027:1 1121:2 1664:1 2067:2 2099:1 2241:1 2365:2 3248:1 3617:2 3844:1 3845:1 3846:2 3847:2 3848:2 3849:1 3850:2 3851:1 3852:1 3853:1 3854:1 3855:1 3856:1 3857:1 #
-0.00048777131263806589684881021007357 7:2 46:1 173:4 198:1 203:1 229:7 317:1 362:1 363:1 485:1 541:1 569:1 689:1 734:1 862:1 1168:1 1169:1 1248:1 1363:2 1755:2 2283:1 2762:1 2990:1 3361:1 4171:1 4232:1 4761:1 4762:1 4763:1 4764:1 4765:1 4766:1 4767:1 4768:1 4769:1 4770:1 4771:1 #
-0.00023195233977145384243225001430488 19:1 20:1 96:1 120:6 162:1 191:1 194:4 203:2 213:1 271:3 362:1 382:3 389:2 396:2 415:1 419:2 432:5 487:1 530:1 600:3 681:1 699:1 725:6 734:1 862:1 910:1 1051:1 1052:1 1351:3 1633:2 1637:4 1775:1 1780:1 1789:1 1807:3 2060:1 2181:1 2320:1 2588:1 2688:1 2780:1 2901:1 2935:2 3333:1 3359:1 3544:1 4102:1 4227:1 4597:1 4662:1 5018:1 5486:3 5654:1 5655:1 5656:1 5657:1 5658:1 5659:1 5660:1 5661:1 5662:1 5663:2 5664:1 5665:2 5666:3 5667:1 5668:1 5669:1 5670:2 5671:1 5672:1 5673:1 5674:1 5675:2 5676:2 5677:2 5678:1 5679:2 5680:1 5681:1 5682:1 5683:1 5684:1 5685:1 5686:1 5687:1 5688:1 5689:3 5690:1 5691:1 5692:1 5693:2 5694:1 5695:1 5696:1 5697:1 5698:1 5699:1 5700:1 5701:1 5702:1 5703:1 5704:1 5705:1 5706:1 5707:1 5708:1 5709:1 #
-0.00039734924455473401424740464982222 2:1 10:1 79:2 120:2 121:8 129:3 132:1 149:1 169:1 200:1 211:1 221:2 284:1 315:1 318:1 320:2 421:1 428:1 492:1 530:2 612:1 635:1 637:1 778:1 796:1 1026:1 1351:2 1363:1 1410:2 1464:1 1580:1 1682:1 1728:1 1775:1 1832:1 1834:1 1906:2 1981:1 2171:1 2268:1 2491:1 2715:2 3022:3 3024:1 3208:1 3247:1 3249:1 3348:1 3454:1 3519:1 3681:2 3695:1 4071:1 6396:1 10119:1 10781:1 11001:1 20591:1 21675:2 25520:1 30835:3 30836:2 30837:1 30838:1 30839:1 30840:1 30841:1 30842:1 #
-0.00076011250381002426045745634652917 1:1 42:1 57:3 83:2 166:1 373:1 482:1 540:1 541:2 542:2 545:1 546:1 570:1 750:1 752:2 753:1 754:1 755:1 782:2 1082:1 1106:2 1177:1 1352:2 1748:1 2231:1 2391:1 2977:1 3388:1 4754:1 7253:1 8403:1 8676:1 9399:1 17044:1 31438:1 31439:1 31440:1 31441:1 31442:2 31443:1 31444:1 31445:1 31446:2 #
-0.0015043955156979272377165690599554 1:1 20:1 128:1 140:1 160:1 161:1 364:1 560:1 580:1 688:1 720:1 874:1 1045:2 1091:1 1505:2 1755:1 1990:1 5353:1 6200:1 7083:1 #
-0.0010559816922392183113910135716651 27:1 120:2 223:2 334:1 746:1 832:1 1079:1 1179:1 2002:1 2183:1 2382:2 4691:1 10039:1 11185:1 12936:2 12937:1 #
-0.00011672243878060570602354234504006 1:1 7:8 17:1 40:2 57:1 120:1 132:1 143:1 186:8 202:1 211:1 221:1 292:5 309:2 333:1 356:2 362:1 396:1 419:3 424:1 454:2 485:1 510:2 572:1 600:2 684:1 723:3 778:2 788:1 813:1 927:1 1045:1 1082:1 1216:1 1593:1 1673:3 1681:1 1764:7 1797:1 1858:1 1909:1 1933:1 2031:1 2038:1 2095:2 2141:1 2182:1 2279:1 2292:1 2435:2 2437:1 2582:4 2607:1 2738:1 2965:1 3367:1 3559:1 3685:1 3866:1 3867:10 4273:1 4842:1 5297:3 5298:1 5299:1 5300:1 5301:1 5302:1 5303:8 5304:1 5305:1 5306:1 5307:2 5308:4 5309:1 5310:1 5311:1 5312:1 5313:1 5314:1 5315:1 5316:1 5317:1 5318:1 5319:2 5320:1 5321:1 5322:1 5323:1 5324:1 5325:1 5326:1 5327:1 5328:1 5329:1 5330:4 5331:1 5332:1 5333:2 5334:1 5335:1 5336:2 5337:1 5338:1 5339:1 5340:1 5341:2 5342:1 5343:2 5344:1 5345:1 5346:1 5347:1 5348:1 5349:1 5350:1 5351:1 5352:1 #
-9.3078493833097697592038333169739e-05 1:3 7:2 10:1 30:1 44:1 45:1 51:1 76:1 83:1 120:1 132:1 182:1 184:1 235:1 292:1 296:1 306:5 331:1 368:5 379:2 396:6 397:1 410:1 414:3 427:3 492:2 503:3 530:4 532:2 561:1 593:2 595:3 601:1 612:1 632:1 723:1 750:3 754:1 773:1 778:1 780:1 783:1 793:1 797:1 812:1 819:1 854:2 860:1 874:1 878:2 913:1 975:1 988:1 993:1 1012:1 1065:1 1089:3 1094:1 1140:1 1142:1 1170:15 1172:4 1278:1 1306:1 1323:1 1409:1 1519:1 1568:1 1641:1 1664:1 1713:1 1768:1 1769:1 1851:3 1852:3 1864:3 1951:1 2018:1 2040:2 2095:1 2162:1 2214:1 2215:1 2221:1 2228:1 2365:5 2656:1 2753:1 2852:2 2875:1 3058:2 3068:1 3208:1 3268:1 3439:1 3447:1 3518:1 3627:1 3814:1 3882:1 4301:1 4426:2 4531:2 4682:1 4704:1 4744:1 4754:2 4799:1 4821:1 5010:1 5102:1 5127:2 5232:2 5376:2 5492:3 5494:1 6185:1 6355:1 6482:1 7208:1 7286:2 7499:1 7649:1 7900:1 8834:2 9063:1 9241:1 9554:2 9555:2 10494:2 10990:1 10991:1 10995:1 10996:1 11043:3 11212:2 11364:1 11635:1 11694:5 13420:1 20668:2 20669:1 20670:4 20671:1 20672:1 20673:1 20674:1 20675:1 20676:2 20677:1 20678:1 20679:1 20680:1 20681:4 20682:1 20683:1 20684:1 20685:1 20686:1 20687:1 20688:1 20689:2 20690:1 20691:1 20692:1 20693:1 20694:3 20695:1 20696:1 20697:1 20698:2 20699:1 20700:1 20701:1 20702:1 20703:1 20704:1 20705:1 20706:1 20707:2 20708:1 20709:3 20710:1 20711:1 20712:1 20713:1 20714:2 20715:1 20716:1 #
-0.0029856232260387642780952166532416 3:1 368:2 854:1 1061:1 1081:1 1662:1 2468:1 5478:1 5479:1 #
-0.00023168416324148926829264161231237 1:1 120:4 160:1 185:1 223:6 225:1 304:1 320:1 740:1 806:1 832:1 912:1 919:1 1090:1 1214:1 1216:1 1504:1 1958:1 2279:1 3074:1 3358:1 5950:8 6963:1 7029:1 13150:1 15441:1 15445:3 20128:2 21266:2 21267:1 21268:1 21269:7 21270:2 21271:1 21272:1 21273:1 21274:1 21275:1 21276:1 21277:1 21278:1 21279:1 21280:1 21281:1 #
-0.00067289764241890539023249750982814 1:1 74:1 121:1 145:1 219:2 243:1 287:1 530:1 734:1 783:1 1043:1 1615:1 1652:1 2165:1 2351:1 2692:1 5966:1 8476:1 10106:2 10107:1 10108:1 10109:1 10110:1 10111:1 10112:1 #
-0.00020267900832798214547612880576111 7:1 50:1 79:1 120:1 121:3 143:1 147:3 159:11 198:1 199:1 213:1 266:1 315:3 374:7 432:1 435:1 509:1 584:2 593:3 724:1 738:1 778:3 813:1 885:1 910:2 977:1 996:1 1010:2 1106:4 1329:1 1410:3 1593:1 1595:6 1621:1 1807:2 2374:2 2582:1 3613:3 3621:1 4791:1 4926:8 5351:9 6437:1 12287:2 12691:1 12692:1 16288:1 19938:1 19939:3 19940:3 19941:1 19942:1 19943:4 19944:1 19945:1 19946:2 19947:2 19948:3 19949:1 19950:1 19951:1 19952:1 19953:1 19954:1 19955:1 19956:1 19957:1 19958:1 19959:2 19960:2 19961:1 19962:1 19963:1 19964:3 19965:1 19966:1 19967:1 19968:1 19969:1 19970:1 19971:1 19972:1 19973:1 #
-0.00032589716706709292125265786665977 16:1 120:2 132:1 159:6 169:1 221:1 347:3 413:1 435:2 506:1 563:3 936:1 952:3 1052:1 1256:2 1814:1 1824:1 1970:2 2338:3 2345:3 2685:1 3681:2 4643:1 4791:2 4919:1 5041:1 6465:1 7209:1 9338:1 10813:1 12446:1 12448:2 12686:2 12724:1 14312:1 14887:3 16551:4 19610:1 20318:2 22542:3 24360:1 28719:1 30613:1 30614:1 30615:1 30616:1 30617:1 30618:3 30619:1 30620:4 30621:2 30622:3 30623:3 30624:1 30625:1 30626:2 30627:2 #
-0.0027111644086015621556151611315499 1:1 7:2 159:1 164:1 200:2 347:1 564:1 596:2 832:1 924:1 1652:1 3395:1 #
-5.4068059990613982681434412924659e-05 120:3 121:1 132:1 454:2 923:2 1045:1 1163:1 1168:1 1410:7 1509:1 1821:1 1834:1 2125:1 2281:1 2491:1 2581:1 3442:6 3673:1 3701:1 4020:1 5143:4 6038:1 6120:1 6121:1 6122:2 6123:1 6124:2 6125:1 6126:1 6127:1 6128:1 6129:5 6130:1 6131:1 6132:1 #
-6.7721119366880201543082429260778e-05 5:1 120:1 160:1 169:2 212:3 223:1 235:1 273:10 351:1 379:3 396:1 421:1 423:1 489:1 530:1 532:1 642:1 699:1 706:1 789:1 838:1 870:1 922:3 1210:2 1214:1 1276:1 1379:1 1621:1 1641:1 1645:1 1768:2 1801:2 1849:1 1864:1 1978:1 2125:1 2165:1 2231:7 2578:2 2977:1 3212:1 3809:1 4043:1 4554:1 4787:1 4980:1 5026:1 5127:1 5330:2 6181:1 6239:1 6436:2 6536:2 6537:1 6538:1 6539:2 6540:1 6541:1 6542:1 6543:1 6544:1 6545:1 6546:1 6547:1 6548:2 6549:1 6550:4 6551:4 6552:1 6553:1 6554:1 6555:1 6556:2 6557:1 6558:1 #
-0.00059361584320656763952978041132269 115:1 120:2 449:4 651:1 1105:1 1131:1 2573:2 3576:1 7095:1 17615:3 23812:1 #
-0.00035192175275552170076592828351636 1:1 14:1 200:1 412:1 548:1 549:1 553:1 689:1 703:1 1052:3 1235:3 1390:1 1917:1 2084:2 2155:1 2982:1 2988:4 2993:1 3636:1 4071:1 7206:1 7409:1 7759:2 10437:1 13217:1 13218:1 13219:2 13220:1 13221:1 13222:1 #
-0.00092274765075571712862056994453042 1:1 129:1 208:1 209:1 211:1 229:1 243:1 472:1 555:1 684:1 717:1 725:1 806:1 832:1 1043:1 1104:1 1165:1 1528:1 1728:1 1739:1 1740:1 1741:1 1742:1 1743:1 1744:1 1745:1 1746:1 1747:1 1748:1 1749:1 1750:1 1751:1 1752:1 #
