SVM-light Version V6.02
0 # kernel type
3 # kernel parameter -d 
1 # kernel parameter -g 
1 # kernel parameter -s 
1 # kernel parameter -r 
empty# kernel parameter -u 
30984 # highest feature index 
1560 # number of training documents 
352 # number of support vectors plus 1 
1.0046453 # threshold b, each following line is a SV (starting with alpha*y)
-0.0013664284936789710105803363759946 6:1 8:1 20:2 23:1 136:2 242:1 265:1 268:1 333:1 347:1 351:1 508:1 590:1 631:1 656:1 705:1 841:1 879:1 964:1 1182:1 2115:1 2613:1 3091:2 4184:1 4999:1 5619:1 6161:1 6360:1 9431:1 16619:1 16621:1 17014:1 17015:1 17016:1 17017:1 17018:1 17019:1 17020:1 17021:1 17022:1 17023:1 #
-0.00022075694220426899045187085768305 191:1 293:1 407:1 409:2 516:1 847:1 964:2 1310:1 1670:1 1694:1 1740:1 2861:1 3457:1 3732:1 3972:1 6794:1 8554:1 8555:1 8556:1 8557:1 8558:1 8559:1 8560:1 8561:1 8562:2 8563:1 8564:1 8565:1 8566:2 8567:2 8568:2 8569:1 #
-0.00011071713662004045285874864745779 7:14 8:3 24:3 25:2 39:2 50:1 65:1 67:1 126:3 134:18 138:5 147:1 165:1 176:1 185:1 187:1 196:1 200:2 206:1 240:1 271:2 293:6 297:1 305:2 307:2 327:2 333:2 351:2 475:4 481:1 482:2 494:1 510:1 524:1 525:1 544:2 562:1 578:11 582:1 603:1 655:1 674:1 702:1 940:4 948:1 993:1 1020:3 1050:2 1064:1 1139:1 1220:2 1268:1 1343:3 1354:1 1366:1 1427:6 1521:1 1530:1 1535:1 1605:1 1674:2 1742:1 1806:1 1816:1 1942:1 2002:2 2283:1 2335:1 2345:4 2387:1 2409:1 2428:1 2741:1 2848:1 2969:2 2974:2 3054:1 3199:2 3226:1 3232:4 3238:4 3420:1 3451:3 3460:1 3541:1 3658:1 3782:2 4090:1 4165:1 4385:7 4415:1 4552:2 4859:1 5361:2 5422:1 5501:1 5783:1 6193:3 6195:1 6417:1 6673:1 7254:2 7281:9 7591:4 7689:1 7717:3 8023:4 8640:2 9938:3 9942:8 9980:1 10511:1 10585:1 11032:2 11914:1 11965:1 13113:1 13172:1 14066:1 14185:1 14806:4 15365:1 15541:1 16744:1 17922:1 17999:1 19959:1 20663:1 20794:8 22717:5 24163:2 24460:1 25308:1 28512:1 28513:1 28514:4 28515:1 28516:1 28517:1 28518:4 28519:6 28520:1 28521:1 28522:1 28523:1 28524:1 28525:1 28526:1 28527:1 28528:1 28529:1 28530:1 28531:1 28532:1 28533:1 28534:1 28535:1 28536:1 28537:1 28538:1 28539:1 28540:1 28541:1 28542:2 28543:1 28544:8 28545:2 28546:2 28547:1 28548:1 28549:1 #
-0.0045072072395564728025663114863164 6:3 8:1 13:3 25:1 45:1 191:1 371:1 556:1 1076:2 1122:1 4869:1 #
-0.00014954302540581108243479546704435 8:1 33:1 134:4 138:1 139:1 146:1 152:1 240:1 274:1 740:3 1192:1 1220:2 1269:2 1769:2 1864:1 2131:2 2399:1 3097:1 3098:1 3099:1 3100:3 3101:1 3102:1 3103:1 3104:1 3105:1 3106:1 3107:1 3108:1 3109:1 3110:1 3111:1 3112:1 3113:1 3114:1 3115:1 #
0.0048190263134562632413304683609567 1:1 2:2 3:2 4:3 5:1 6:1 7:2 8:1 9:2 10:1 11:2 12:1 13:1 14:1 15:1 16:1 17:1 18:1 19:1 20:3 21:1 22:1 23:1 24:2 25:1 26:2 27:1 28:1 29:1 30:1 31:1 32:1 #
0.0048190263134562632413304683609567 8:1 27:3 33:1 34:3 35:2 36:1 37:2 38:1 39:1 40:1 41:1 42:1 43:1 44:1 45:1 46:1 47:1 48:1 49:1 50:1 51:1 52:1 #
0.0048190263134562632413304683609567 4:1 7:1 8:1 21:1 27:4 33:1 39:1 53:1 54:1 55:2 56:4 57:1 58:1 59:1 60:1 61:2 62:1 63:1 64:2 65:3 66:1 67:1 68:1 69:1 70:1 71:1 72:1 73:1 74:1 75:1 76:1 77:1 78:1 79:1 80:1 81:1 #
0.0048190263134562632413304683609567 2:1 8:1 24:1 27:1 33:1 62:1 70:1 82:1 83:5 84:1 85:1 86:1 87:5 88:1 89:2 90:1 91:1 92:1 93:1 94:4 95:1 96:1 97:1 98:1 99:1 100:1 101:1 102:1 103:1 104:1 105:1 106:2 107:1 108:1 109:1 110:1 111:1 112:1 113:1 114:1 115:1 116:1 117:1 118:4 119:5 120:1 121:1 122:1 123:1 124:1 125:1 126:1 127:6 128:2 129:3 130:1 131:1 132:2 133:1 134:1 135:2 136:2 137:1 138:1 139:1 140:1 #
0.0048190263134562632413304683609567 8:1 27:1 39:1 59:3 65:2 74:1 139:1 141:1 142:2 143:1 144:1 145:1 146:1 147:1 148:2 149:1 150:1 151:1 152:1 153:1 154:1 155:1 156:1 157:1 158:1 159:1 160:1 161:1 162:1 163:1 164:1 165:1 166:1 167:1 168:1 169:1 170:1 171:1 172:1 173:1 174:1 175:1 176:1 177:1 178:1 179:1 180:1 181:1 182:1 183:1 184:1 #
-0.0003033486470679758574900408696351 8:2 21:1 24:2 65:2 94:2 116:1 139:1 156:1 179:1 203:4 232:1 235:1 259:2 305:1 307:1 321:2 333:3 352:4 407:2 408:4 409:4 411:2 412:2 413:2 414:2 415:2 416:2 449:1 457:1 489:1 524:1 551:2 582:1 592:2 655:1 663:2 702:1 928:1 937:1 964:2 1119:1 1254:1 1312:4 1541:1 1617:1 1717:1 1748:1 1795:1 1911:1 2002:3 2404:1 2422:1 2425:1 2758:1 2766:1 2967:2 2993:1 3468:2 3658:1 3899:1 4164:1 4242:1 4248:5 4485:1 4921:4 4978:1 6265:3 6274:2 6275:3 6464:1 6716:1 6868:1 6884:1 7447:2 8069:1 9143:1 9452:1 12070:1 14187:1 16128:1 16231:1 23026:3 26589:1 30475:1 30476:2 30477:1 30478:2 30479:1 30480:3 30481:1 30482:1 30483:1 30484:1 30485:1 30486:1 30487:1 30488:5 30489:1 30490:1 30491:1 30492:1 30493:1 30494:1 30495:1 30496:1 30497:1 30498:1 30499:1 30500:1 30501:1 30502:1 30503:1 30504:1 30505:1 30506:1 #
-0.0013655125082729744224324663903758 6:1 8:1 21:1 78:1 114:2 147:1 148:1 305:2 519:1 534:1 589:1 601:1 679:2 702:1 1157:1 1238:1 1885:2 2591:1 3623:1 3682:2 3740:1 6464:1 13003:1 16885:1 20636:1 21912:1 21913:1 21914:2 21915:1 21916:1 21917:1 21918:1 21919:1 #
0.0048190263134562632413304683609567 24:1 70:1 99:1 114:1 136:2 138:3 155:1 156:1 189:1 190:1 232:2 283:1 285:1 295:1 305:1 322:3 371:4 373:1 406:2 437:1 570:1 571:2 608:1 667:2 679:1 871:1 1016:1 1017:1 1018:2 1019:1 1020:1 1021:1 1022:1 1023:2 1024:1 1025:2 1026:1 1027:1 1028:1 1029:1 1030:1 1031:1 1032:1 1033:1 1034:1 1035:1 1036:1 1037:1 1038:1 1039:1 1040:1 #
0.0048190263134562632413304683609567 25:1 38:1 167:1 240:1 268:1 285:1 297:1 301:1 305:1 321:1 351:1 363:1 566:1 769:1 909:1 938:1 939:1 940:2 941:2 942:1 943:1 944:1 945:1 946:1 947:1 948:1 949:1 950:1 951:1 952:1 953:1 #
0.0048190263134562632413304683609567 6:1 8:2 22:2 23:1 27:1 74:1 126:2 138:3 139:1 151:1 271:2 304:1 305:1 344:1 373:2 428:1 655:1 694:1 702:1 703:1 704:1 705:1 706:1 707:1 708:2 709:1 710:2 711:1 712:1 713:1 714:1 715:1 716:1 717:1 718:1 719:1 720:5 721:2 722:1 723:1 724:1 725:1 726:1 727:1 728:1 729:1 730:1 731:1 732:1 733:1 734:1 735:1 #
0.0048190263134562632413304683609567 6:2 71:1 265:1 338:1 339:1 340:1 341:1 342:2 343:1 344:1 345:2 346:1 347:1 348:1 349:1 350:1 351:1 #
-0.0048190263134562632413304683609567 1:2 22:1 27:2 59:1 74:1 87:4 89:5 114:6 138:2 139:1 189:1 222:1 242:1 305:1 306:2 322:1 323:3 324:4 326:1 333:1 334:1 363:1 375:1 437:1 456:3 548:1 549:1 639:1 655:1 666:2 669:1 751:1 811:1 871:1 940:2 964:1 1061:1 1100:1 1123:1 1124:2 1125:2 1126:2 1127:2 1708:2 1762:1 2021:1 2293:1 2349:1 2617:6 2618:1 2619:1 2620:1 2621:2 2622:1 2623:2 2624:1 2625:1 2626:2 2627:1 2628:1 2629:1 2630:1 2631:1 2632:1 2633:1 2634:1 2635:1 2636:1 #
-0.0010849362923628085454003100451814 7:1 37:1 48:2 57:1 67:6 80:1 91:2 107:1 114:1 138:1 140:1 171:1 172:2 176:1 190:1 212:4 272:1 316:1 351:1 361:1 363:1 398:1 422:1 435:2 513:1 519:2 539:1 574:1 592:1 776:1 952:1 953:1 976:1 1019:1 1496:2 1544:1 1545:1 1546:1 1547:1 1548:1 1549:2 1550:1 1551:1 1552:1 1553:1 1554:2 1555:1 1556:2 1557:1 1558:1 1559:1 1560:1 1561:1 1562:1 1563:1 1564:1 1565:1 1566:1 1567:1 1568:1 1569:1 1570:1 1571:2 1572:1 1573:1 1574:1 1575:1 1576:1 1577:1 1578:1 1579:1 1580:1 1581:1 1582:1 1583:1 1584:1 1585:1 1586:1 1587:1 #
-0.00081913701078595811937849147099655 7:3 8:1 24:3 39:1 50:1 65:5 69:1 74:2 139:1 199:1 250:1 269:1 280:1 319:1 328:1 333:1 388:1 418:1 428:2 487:1 674:1 797:1 879:1 1050:1 1231:1 1268:1 1305:1 1618:1 1776:5 2021:1 2311:1 2398:1 2445:1 3088:1 3672:1 5428:4 6763:1 10580:1 11029:1 26208:1 26209:1 26210:1 26211:1 26212:1 #
-0.0018286011460009034355206347655098 8:2 23:1 37:5 39:1 41:1 49:2 59:3 65:1 78:1 136:2 139:1 141:1 143:2 148:2 176:2 178:1 187:1 265:1 287:2 335:1 336:3 428:1 458:2 470:1 489:1 497:2 501:1 551:2 556:2 575:3 594:1 616:4 750:1 935:3 987:10 1037:1 1071:1 1272:1 1402:1 1532:1 2011:1 3466:1 3613:1 3795:3 4149:1 4258:2 4998:1 5087:1 5486:1 6032:1 6033:1 6034:2 6035:1 6036:1 6037:1 6038:1 6039:1 6040:1 6041:1 6042:1 6043:1 6044:1 #
-0.0018895728112112539394396026892764 1:1 6:1 65:1 70:1 83:2 87:2 106:2 114:2 138:1 148:2 149:2 152:2 158:1 172:1 203:2 250:3 285:5 295:2 305:8 442:1 457:1 519:1 574:1 576:1 579:2 592:1 601:1 715:1 1020:1 1210:1 1294:1 1428:1 1838:2 1939:1 2233:2 2758:1 2940:2 3322:1 6034:3 6490:1 9058:1 9818:1 10593:1 11022:1 13757:1 17759:1 25346:1 25347:3 25348:2 25349:1 25350:1 25351:1 25352:1 25353:1 #
-9.1721853698427377780087732528358e-05 8:1 126:1 129:7 138:1 200:2 206:1 283:2 334:1 335:1 426:1 435:1 505:2 571:7 575:1 702:1 980:1 1077:1 1182:2 1196:1 1617:1 1623:1 1820:1 2192:1 2280:3 2425:1 2436:1 2438:1 3118:1 3451:1 3618:2 3742:1 4016:1 4107:1 5206:1 5343:1 5561:3 5633:2 7480:1 8951:1 14756:5 16903:1 26100:3 26101:2 26102:1 26103:1 26104:4 26105:1 26106:2 26107:1 26108:1 26109:2 26110:1 26111:1 26112:1 26113:1 #
-0.0001704281755104947030429046739286 8:1 25:1 33:1 50:2 71:1 78:1 99:1 138:1 268:1 283:1 307:1 335:1 347:1 365:1 371:1 565:1 594:1 818:1 826:1 833:1 1023:8 1027:3 1090:1 1312:2 1493:1 1907:1 2270:2 2528:2 2763:1 4184:1 4787:1 5347:1 5757:1 7669:1 7680:1 11408:8 11409:2 11410:1 11411:2 11412:3 11413:2 11414:1 11415:4 11416:6 11417:1 11418:3 11419:1 11420:2 11421:1 11422:1 #
-0.00025791847410883638434808684536392 6:2 7:1 8:2 25:1 61:1 99:1 107:1 138:1 171:1 265:1 274:1 280:1 318:1 327:1 351:1 371:5 516:1 519:1 534:2 562:1 565:1 574:1 592:1 656:1 680:3 971:1 980:3 1141:2 1359:1 1493:1 1541:1 1551:1 1584:3 1638:1 1779:1 1797:3 1896:1 1945:1 1989:3 2001:5 2063:1 2198:1 2293:1 2578:1 2756:1 2879:1 2968:1 3068:1 3822:1 4178:1 4559:2 4607:3 5717:1 6144:3 7120:1 11674:2 14346:1 14608:1 16338:1 20238:1 22853:1 22854:1 22855:1 22856:3 22857:1 22858:4 22859:1 22860:1 22861:1 #
-0.00079812036313232556910407522465789 20:1 58:6 70:1 104:1 108:1 116:1 136:4 152:1 179:1 222:1 232:1 253:2 273:1 287:1 316:2 406:1 496:2 534:2 815:3 950:2 972:2 1040:1 1249:1 1544:1 1740:1 1762:1 1844:1 2432:1 2587:1 3163:2 3243:1 3877:1 4048:2 4767:1 8181:1 13488:1 13882:2 15447:1 16393:1 17076:4 20370:1 20371:1 21968:1 21969:6 21970:1 21971:1 21972:1 21973:1 21974:1 21975:1 #
-0.00060053492429765654037759903260962 8:1 37:3 57:2 91:4 118:4 123:1 159:4 190:2 397:1 658:1 717:1 1035:1 1076:1 1119:1 1290:2 1324:1 1363:1 1418:1 1482:1 1493:2 1590:1 1661:1 2084:1 2088:1 2314:1 2512:1 2840:3 3113:1 3310:1 3535:1 3992:1 4228:1 4842:1 11727:1 12115:1 14791:4 26127:1 29464:1 29465:1 29466:3 29467:1 #
0.0048190263134562632413304683609567 1:2 23:1 24:1 87:1 89:2 136:1 185:1 189:1 240:1 246:1 250:2 305:2 316:1 317:1 318:1 319:1 320:1 321:1 322:1 323:2 324:3 325:1 326:1 327:1 328:1 329:1 330:1 331:1 332:1 333:1 334:1 335:1 336:1 337:1 #
0.0048190263134562632413304683609567 8:1 64:1 71:1 74:2 75:1 250:3 285:3 305:2 333:1 334:1 701:1 736:1 874:2 875:2 876:2 877:1 878:1 879:1 880:1 881:2 882:1 883:1 884:1 #
0.0048190263134562632413304683609567 1:1 4:1 22:1 24:1 35:1 65:1 67:1 74:1 126:1 138:1 176:1 186:1 212:1 250:3 263:1 268:1 273:1 352:2 381:1 382:1 383:2 384:2 385:1 386:1 387:1 388:1 389:1 390:1 391:1 392:1 393:1 394:1 395:1 396:1 397:2 398:5 399:2 400:1 401:1 402:1 403:1 404:1 405:1 406:1 407:1 408:2 409:2 410:2 411:1 412:1 413:1 414:1 415:1 416:1 #
0.0048190263134562632413304683609567 7:1 8:2 24:3 34:3 65:2 106:1 115:1 128:1 134:2 138:2 189:1 203:2 283:1 321:1 444:4 702:1 940:1 948:1 1246:1 1247:2 1248:2 1249:1 1250:1 1251:3 1252:1 1253:1 1254:2 1255:2 1256:1 1257:1 1258:1 1259:2 1260:1 1261:1 1262:1 1263:1 1264:1 1265:1 1266:1 #
0.0048190263134562632413304683609567 1:1 8:1 24:1 57:1 64:2 65:2 79:1 154:1 167:1 189:1 250:2 259:1 352:4 407:2 408:4 409:4 411:2 412:2 413:2 414:2 415:2 416:2 589:1 873:1 881:1 946:1 964:2 1019:1 1095:1 1220:1 1221:1 1222:1 1223:1 1224:1 1225:1 1226:1 1227:2 1228:2 1229:2 #
0.0048190263134562632413304683609567 8:2 23:1 27:3 35:1 39:1 59:3 138:1 167:1 300:1 301:1 302:1 303:1 304:1 305:3 306:2 307:1 308:1 309:1 310:1 311:2 312:2 313:1 314:1 315:1 #
-0.00084878937713462894020660653993104 7:2 8:2 24:3 31:1 39:1 138:1 147:1 160:1 219:1 328:1 352:4 407:2 408:4 409:4 411:2 412:2 413:2 414:2 415:2 416:2 516:1 594:1 669:1 964:2 976:1 1087:1 1231:1 1299:1 1345:1 1541:1 1551:1 1717:1 1773:1 1989:3 2043:1 2314:1 2436:1 2581:1 3000:1 3062:1 3630:1 3710:1 3957:1 5086:1 6802:1 9962:2 10529:1 10663:1 16016:1 16251:1 16252:1 18943:5 30878:2 30879:2 30880:1 30881:2 30882:1 30883:1 30884:1 30885:1 30886:1 30887:2 #
-0.0014472192166769329291220458344469 8:2 19:2 114:1 126:2 138:2 351:2 352:4 407:2 408:4 409:4 411:2 412:2 413:2 414:2 415:2 416:2 486:4 590:1 844:1 946:1 964:2 980:2 1568:1 1866:1 1881:2 1989:1 2233:1 2401:1 3496:2 5185:2 11434:2 22323:1 22881:1 27699:2 30683:1 30684:2 30685:1 30686:1 30687:1 30688:1 30689:1 30690:2 30691:1 30692:1 #
-0.0014421995008856102436778368058867 7:1 8:2 33:2 61:1 104:1 134:1 138:1 263:1 271:5 352:4 382:2 407:2 408:4 409:4 411:2 412:2 463:2 689:2 714:3 848:1 879:1 964:2 1044:1 1216:1 1323:1 1810:1 2134:1 2219:1 2343:1 2344:1 2438:1 2459:1 2684:1 3330:1 3492:1 4388:1 4804:1 4967:1 5436:1 6716:1 7282:1 7375:1 10113:1 12149:2 12441:1 13180:1 14192:2 14222:1 14528:1 15679:1 17817:1 18459:1 18765:1 18881:1 30076:1 30077:1 30078:1 30079:1 30080:1 30081:2 30082:1 30083:1 30084:1 30085:1 30086:1 30087:1 30088:1 30089:1 30090:2 30091:1 30092:1 30093:1 30094:1 30095:1 30096:1 30097:1 30098:2 30099:2 30100:1 30101:1 30102:2 30103:1 30104:1 30105:1 30106:1 #
-0.00091184612874042067845459236252736 8:1 33:1 259:2 260:1 352:2 380:1 408:2 409:2 412:2 413:2 414:2 415:2 576:1 735:1 948:1 976:1 2032:1 2225:1 2338:2 21085:1 21086:1 21087:1 21088:1 21089:1 21090:1 #
0.0048190263134562632413304683609567 24:1 37:1 65:1 78:2 87:1 116:1 167:1 190:1 321:1 497:1 516:1 517:1 518:1 519:1 520:1 521:1 522:1 523:1 524:1 525:1 526:1 527:1 528:1 529:1 530:1 531:1 532:1 533:1 534:1 535:1 536:1 537:1 538:1 539:1 540:1 541:1 542:1 543:1 544:1 545:1 546:1 #
0.0048190263134562632413304683609567 7:2 8:5 22:1 23:1 24:1 27:2 34:3 37:4 39:1 57:1 99:2 114:3 126:2 136:1 138:3 184:1 189:1 200:2 206:5 232:1 242:1 244:1 246:1 265:1 287:2 312:1 317:1 321:1 322:1 325:1 326:1 335:2 373:1 428:1 458:1 471:1 491:1 519:1 555:1 556:2 592:3 597:2 616:3 619:1 634:1 658:1 659:2 660:1 661:2 662:1 663:2 664:1 665:1 666:1 667:1 668:1 669:1 670:1 671:1 672:1 673:1 674:1 675:1 676:1 677:1 678:1 679:1 680:1 681:1 682:2 683:1 684:1 685:2 686:2 687:1 688:1 689:1 690:1 691:1 692:1 693:1 694:1 695:1 696:1 697:1 698:1 699:2 700:1 701:1 #
0.0048190263134562632413304683609567 6:1 27:1 37:2 41:1 114:1 181:2 218:1 290:1 291:1 292:1 293:1 294:1 295:1 296:1 297:1 298:1 299:1 #
0.0048190263134562632413304683609567 7:4 40:1 59:1 186:1 189:1 305:1 429:1 470:1 494:1 551:1 750:1 751:1 752:1 753:2 754:1 755:1 756:1 757:1 758:1 759:1 #
-0.0029901466686551702450769241181661 7:2 20:2 23:1 24:2 65:4 250:6 261:1 279:1 305:1 307:1 316:1 350:1 355:1 363:4 390:2 501:1 516:1 528:1 590:1 626:1 659:1 672:1 703:1 774:1 875:1 931:1 980:1 1172:1 1189:1 1404:1 1575:1 1585:1 1617:2 1638:1 1726:1 1738:1 2087:1 2290:1 2477:1 2586:2 2587:1 2588:1 2589:1 2590:1 2591:1 2592:1 2593:2 2594:1 2595:1 2596:1 2597:1 2598:1 2599:1 2600:1 2601:1 2602:1 2603:1 2604:1 2605:2 2606:1 2607:1 2608:1 2609:1 2610:1 2611:1 2612:1 2613:1 2614:1 2615:1 2616:1 #
-0.0043506448519098047181263844151999 24:1 39:1 65:3 99:1 107:1 115:1 138:1 139:1 172:1 181:2 250:4 269:1 305:2 333:1 382:1 385:2 428:1 493:1 779:1 857:1 982:1 1050:1 1070:3 1077:1 1268:1 1717:1 1939:1 2465:2 2489:1 3062:1 4286:1 4825:1 4826:1 4827:1 4828:1 4829:1 4830:3 4831:1 4832:1 4833:1 4834:1 4835:1 4836:2 4837:1 4838:1 #
-0.0014451918368573737298105053028507 7:2 8:2 20:1 61:1 115:1 136:1 144:1 176:1 179:1 187:1 316:1 325:1 345:1 363:1 380:1 384:3 385:1 556:3 575:2 655:1 656:1 745:1 826:1 934:1 946:1 1114:1 1306:1 1312:1 1355:1 1410:1 1487:1 1628:2 2001:2 2438:1 3118:1 3465:1 4347:1 5508:1 6270:1 6388:4 7791:1 7792:1 7793:1 7794:1 7795:1 #
-0.00074853551692935407346068954481666 4:1 7:2 9:1 13:2 22:2 38:1 45:1 176:1 305:1 435:1 436:1 528:1 634:2 763:1 1883:1 2077:1 2865:1 4996:1 7317:1 7453:1 7728:1 12090:1 17613:2 17614:1 17615:1 17616:1 17617:1 17618:1 17619:1 17620:1 #
-0.00091708535677760875080843927520391 7:2 8:4 22:1 35:3 45:1 51:1 138:2 148:2 157:1 176:1 212:1 268:2 279:1 373:1 513:1 873:1 891:1 940:2 976:1 980:1 987:2 1374:1 1877:1 2011:1 2441:1 2784:1 3777:1 4149:1 4287:1 5269:1 5513:2 6000:1 6002:1 6100:1 15226:1 17904:1 18698:1 19405:2 19406:1 19407:1 19408:1 19409:2 19410:1 19411:1 19412:1 19413:2 19414:1 19415:1 19416:1 19417:1 19418:1 19419:1 19420:1 19421:1 19422:1 19423:1 19424:1 #
0.0048190263134562632413304683609567 37:1 58:1 59:1 67:2 71:1 143:1 154:1 253:1 278:1 322:1 333:1 338:1 385:2 407:1 408:2 409:2 411:1 412:1 430:1 437:1 454:1 493:1 534:1 551:1 574:1 589:1 592:1 594:1 626:1 634:1 693:1 847:2 890:1 926:2 964:1 1137:1 1138:1 1139:2 1140:1 1141:1 1142:1 1143:1 1144:1 1145:1 1146:1 1147:1 1148:1 1149:1 1150:1 1151:2 1152:1 1153:1 1154:1 1155:2 1156:1 1157:1 #
0.0048190263134562632413304683609567 6:1 8:1 27:2 108:1 114:1 123:1 167:1 190:1 350:1 407:1 408:2 409:2 411:1 412:1 413:1 414:1 415:1 416:1 842:1 843:2 844:1 845:2 846:2 847:2 #
0.0048190263134562632413304683609567 8:2 24:1 65:1 73:1 134:1 151:1 176:1 191:1 242:1 306:2 324:1 384:2 390:1 556:1 629:1 848:2 849:1 850:2 851:1 852:1 853:1 854:2 855:1 856:1 857:1 858:1 #
0.0048190263134562632413304683609567 8:1 25:1 67:1 72:3 126:1 138:1 312:1 331:2 361:1 371:2 437:2 438:2 439:1 440:1 441:1 442:1 443:1 444:1 #
-0.00018502022424773760782973353045122 1:1 37:3 47:3 67:6 138:2 333:1 385:1 433:1 580:3 604:2 931:3 1054:1 1214:13 1427:1 1697:6 2144:1 2227:1 2325:5 2886:3 3474:4 3563:4 3673:1 4409:3 4847:3 5310:5 5735:3 9334:1 12373:1 12696:2 16777:5 16778:4 16779:1 16780:2 16781:1 16782:1 16783:1 16784:1 16785:1 16786:3 16787:3 16788:3 16789:2 16790:1 16791:1 #
-0.0012963351161398039591843289741746 8:2 64:1 67:1 107:1 114:1 184:1 185:1 232:1 265:1 344:1 345:1 350:1 555:1 592:1 594:1 663:1 701:1 717:2 747:1 940:4 1150:2 1646:3 1654:1 1655:1 3196:1 5084:1 5948:1 9585:1 10267:1 11832:1 17165:1 17166:2 17167:1 17168:1 17169:1 17170:1 17171:1 17172:2 17173:2 17174:2 17175:2 17176:2 17177:2 17178:1 17179:1 17180:1 17181:1 17182:1 17183:1 17184:1 #
-0.0048190263134562632413304683609567 6:1 8:1 27:1 45:1 87:1 94:1 114:1 265:1 333:1 437:1 454:1 522:1 1191:1 1307:1 1795:1 2579:1 2753:1 2754:1 2755:1 2756:1 2757:1 2758:2 2759:1 2760:1 2761:1 2762:1 2763:1 #
-0.00093897889587646777165980127577427 8:1 37:2 67:2 165:1 287:2 319:1 321:1 701:1 761:2 762:1 775:3 909:1 1092:1 2190:3 6006:1 6429:3 6430:2 6431:1 6432:1 6433:1 6434:1 6435:1 #
-0.0048190263134562632413304683609567 41:4 45:1 59:2 61:1 67:1 200:2 244:1 295:1 1741:1 2758:1 4547:1 5513:1 6006:1 6034:1 6325:1 8167:1 11952:1 13285:1 22973:3 22974:1 22975:1 22976:1 22977:1 22978:1 22979:1 #
0.0048190263134562632413304683609567 4:1 7:1 8:1 25:1 37:1 59:2 65:5 108:1 116:1 189:1 262:1 268:2 322:1 325:1 336:1 351:1 361:1 363:1 445:2 446:3 447:1 448:1 449:1 450:1 451:1 452:1 453:1 454:1 455:1 456:1 457:1 458:2 459:1 460:1 461:1 462:1 463:1 464:1 465:1 #
0.0048190263134562632413304683609567 6:1 7:1 8:2 41:1 61:1 80:2 85:1 136:1 173:1 305:2 324:2 331:1 334:1 351:1 363:1 368:1 373:1 522:1 575:1 582:1 865:1 866:1 867:1 868:1 869:1 870:3 871:1 872:1 873:1 #
0.0048190263134562632413304683609567 7:2 23:2 64:1 65:3 67:2 71:2 78:2 136:1 305:1 363:1 534:1 702:1 735:1 866:1 876:1 954:1 955:1 956:1 957:1 958:2 959:2 960:1 961:1 962:2 963:1 #
0.0048190263134562632413304683609567 8:1 24:1 27:1 65:1 136:1 167:1 242:1 250:1 305:1 371:1 373:1 435:1 460:1 1267:1 1268:1 1269:1 1270:1 1271:1 1272:1 1273:1 1274:1 #
0.00061387115793418785443524843259411 2:1 6:2 7:7 8:1 20:1 22:3 24:7 27:5 33:1 34:1 36:2 37:2 41:1 50:1 65:7 78:2 80:2 91:1 99:1 108:2 116:1 139:1 157:1 159:1 189:2 224:1 233:1 236:1 263:1 287:5 305:2 355:1 357:1 385:7 418:1 428:1 486:1 501:2 531:1 534:1 555:5 561:2 566:1 674:1 699:1 702:2 740:1 761:6 762:5 774:1 775:1 776:1 777:1 778:1 779:1 780:1 781:1 782:1 783:1 784:1 785:1 786:2 787:1 788:1 789:1 790:1 791:1 792:1 793:1 794:1 795:1 796:1 797:1 798:1 799:6 800:1 801:1 802:2 803:3 804:1 805:1 806:1 807:1 808:1 809:1 810:1 811:1 812:1 813:1 814:1 815:2 816:1 817:1 818:1 819:1 820:1 821:1 822:2 823:1 824:1 825:1 826:1 827:1 828:1 829:2 830:1 831:1 832:1 833:1 834:1 835:1 836:1 837:1 838:1 839:1 840:1 841:1 #
-0.0048190263134562632413304683609567 21:1 23:2 65:3 154:1 246:1 287:2 319:1 519:1 555:1 622:1 659:1 693:1 696:1 889:1 948:1 1366:1 1514:1 1566:1 1846:1 1925:1 1926:1 1927:2 1928:1 1929:1 1930:1 1931:2 1932:1 1933:1 1934:1 #
-0.0023379818972715260029515693673829 71:4 72:2 157:1 176:1 190:2 278:1 351:1 655:1 949:1 993:1 1493:1 1499:2 1865:1 2425:1 2441:1 2692:1 3962:1 4223:1 4314:1 5594:1 9018:1 9019:2 #
-7.395211315177141280473305240406e-05 8:2 24:1 58:5 65:4 114:2 141:2 212:1 274:1 283:1 287:1 293:1 328:1 335:1 376:2 435:1 574:2 592:1 624:3 693:2 714:1 784:1 785:1 787:1 840:1 861:3 1035:4 1257:1 1285:1 1351:2 1352:1 1823:1 1860:1 1934:2 2047:1 2303:1 2578:1 2978:2 3289:1 3613:1 3731:1 4338:1 4412:1 4514:1 4525:1 4764:1 5071:1 6121:1 7787:1 10367:3 11771:1 11917:1 13349:1 16606:1 16607:1 16608:1 16609:1 16610:1 16611:1 16612:1 16613:1 16614:1 16615:1 #
-0.0003694936150831939938692094482775 7:2 23:1 37:4 58:1 73:2 96:2 129:2 141:1 144:1 171:1 176:3 177:1 191:1 203:2 206:2 219:1 238:1 265:2 335:1 355:1 366:1 372:1 388:2 534:1 591:1 658:1 674:1 770:1 774:1 825:1 953:1 1099:1 1106:1 1162:1 1192:1 1299:1 1305:1 2198:2 2372:1 2441:1 2790:1 2813:1 2926:1 2954:1 3226:1 3497:1 3549:1 3746:1 3805:1 5038:1 5092:1 5589:1 5594:3 5692:7 5720:1 6034:1 6176:1 6891:1 12532:1 13747:3 13748:1 13749:2 13750:2 13751:1 13752:1 13753:1 13754:1 13755:1 13756:1 13757:1 13758:2 13759:1 13760:1 13761:1 13762:1 13763:1 13764:1 #
-0.00018731596762287260646111242134992 7:4 8:1 71:3 138:1 271:1 293:2 297:2 350:1 426:1 594:1 659:1 798:2 1392:1 1907:1 2325:1 2473:1 2640:1 3128:1 3980:1 5619:1 18374:1 22841:1 28476:2 28477:1 28478:1 28479:1 28480:2 28481:1 28482:1 #
0.0048190263134562632413304683609567 27:1 107:1 232:1 248:1 249:1 250:2 251:1 252:2 253:1 254:1 255:1 256:1 257:1 258:1 259:1 260:1 261:1 262:1 263:1 264:1 265:1 266:1 #
0.0048190263134562632413304683609567 10:1 34:1 37:1 59:1 263:1 940:2 1275:1 1276:1 1277:1 1278:1 1279:1 1280:1 1281:1 #
0.0048190263134562632413304683609567 23:1 114:1 167:2 189:1 246:1 250:2 265:1 316:1 319:1 329:1 341:1 355:1 437:1 451:1 489:1 534:1 582:1 748:1 803:1 843:1 900:1 901:1 902:1 903:1 904:1 905:1 906:1 907:1 908:1 909:2 910:1 911:1 912:1 913:1 914:1 915:1 916:1 917:1 #
0.0048190263134562632413304683609567 27:1 33:1 87:1 110:1 136:1 167:1 333:1 363:2 489:1 590:1 760:2 761:1 762:1 763:2 764:1 765:1 766:1 767:1 768:1 769:1 770:1 771:1 772:1 773:1 #
0.0048190263134562632413304683609567 1:1 27:1 33:1 59:1 80:1 147:2 148:3 167:1 219:1 246:1 250:3 274:1 369:1 370:2 371:1 372:1 373:1 374:1 375:1 376:1 377:1 378:1 379:1 380:1 #
-0.0031907011270650483675259678761904 1:1 37:1 64:1 151:1 250:1 418:1 524:1 927:1 2002:1 4779:1 5029:1 10812:1 10813:1 10814:1 10815:1 10816:1 #
-0.00043099046321450014190510002798362 4:1 7:1 8:2 24:1 50:3 80:2 107:1 126:1 136:1 138:1 139:1 176:1 190:2 287:1 336:2 574:2 592:3 634:1 717:1 839:1 918:1 927:1 1192:1 1272:1 1305:1 1418:1 1426:1 1454:1 1741:1 2249:1 2494:1 2731:1 2964:1 3180:4 3382:2 3942:1 4161:1 4233:1 4293:1 4472:1 5292:1 6080:1 6336:2 6560:2 7768:2 8162:1 8530:1 16782:1 16994:1 18123:5 21638:2 30935:1 30936:1 30937:1 30938:1 30939:1 30940:1 30941:1 30942:1 30943:1 30944:1 30945:1 30946:1 30947:1 30948:1 30949:2 #
-0.0040750081157229387993079505747573 321:1 361:2 371:1 388:1 405:1 1141:1 1572:1 1758:1 2270:1 2583:1 2613:1 7808:1 12984:1 13005:1 #
-0.0022689364075226996567136161786493 8:1 78:2 437:1 459:1 903:1 1312:1 2438:1 3468:1 5525:1 18157:1 22806:1 22807:1 22808:1 #
-0.0012152311994731224750049269900387 6:1 25:1 116:1 136:1 157:1 246:3 268:2 283:1 293:1 321:1 497:1 516:1 548:1 549:1 714:1 837:1 938:1 940:2 949:1 950:1 1064:1 1316:1 1504:1 1647:1 1688:1 2223:2 2283:1 2319:1 2321:1 2456:1 2461:1 2609:1 2841:1 2912:1 3153:2 4076:2 4093:1 4531:1 6336:1 6887:1 7372:1 11629:1 11691:1 11900:1 12105:2 17932:1 19244:1 24092:1 24093:1 24094:1 24095:1 24096:1 24097:1 24098:1 24099:1 24100:1 24101:1 24102:1 24103:2 24104:1 24105:1 24106:1 #
0.0048190263134562632413304683609567 7:4 8:1 24:1 27:2 34:2 41:1 89:1 136:1 138:1 157:1 167:1 176:1 190:1 200:2 206:1 250:1 265:1 283:2 306:1 333:1 334:1 351:1 373:2 418:1 466:1 467:1 468:1 469:1 470:1 471:1 472:1 473:1 474:1 475:3 476:2 477:1 478:1 479:1 480:1 481:1 482:1 483:1 484:1 485:1 486:1 487:1 488:1 489:1 490:1 491:1 492:1 493:1 494:1 #
0.0048190263134562632413304683609567 6:2 7:4 8:1 23:1 24:2 25:1 27:1 34:2 59:1 65:2 71:1 78:1 116:1 157:1 172:1 189:1 268:1 295:1 346:1 352:1 353:2 354:4 355:1 356:1 357:1 358:2 359:2 360:1 361:1 362:1 363:1 364:1 365:1 366:1 367:1 368:1 #
0.0048190263134562632413304683609567 7:1 8:1 23:1 24:3 27:1 37:2 49:3 59:2 65:1 79:1 114:1 115:2 125:1 138:2 143:1 167:1 322:1 347:1 373:1 375:1 460:1 471:1 547:1 548:1 549:1 550:1 551:1 552:1 553:1 554:1 555:1 556:1 557:2 558:3 559:1 560:1 561:1 562:3 563:3 564:1 565:1 566:1 567:1 568:1 569:1 570:1 571:1 572:1 573:1 574:2 575:1 576:1 577:1 578:1 579:1 580:1 581:1 582:1 583:1 584:2 585:1 586:1 #
0.0048190263134562632413304683609567 7:1 33:1 62:1 65:1 67:1 70:2 74:1 108:1 114:1 189:4 267:1 268:3 269:3 270:1 271:1 272:1 273:2 274:2 275:1 276:1 277:1 278:1 279:1 280:1 281:1 282:1 283:1 284:1 285:1 286:1 287:1 288:1 289:1 #
0.0048190263134562632413304683609567 8:1 22:2 24:1 35:1 39:1 89:2 126:1 138:1 242:1 306:2 371:1 391:1 397:2 398:4 400:3 417:1 418:1 419:2 420:1 421:1 422:1 423:1 424:1 425:1 426:1 427:1 428:2 429:1 430:1 431:1 432:1 433:1 434:1 435:1 436:1 #
-0.00060902695376960098300189727638099 1:1 6:1 8:1 24:1 65:7 114:1 138:3 172:1 271:2 295:1 315:2 333:2 335:1 376:2 452:1 454:2 489:1 579:1 588:1 785:3 1209:4 1278:1 2115:1 2294:1 2364:1 3184:1 4317:2 4510:2 5174:1 5175:1 5502:2 6251:1 8279:1 8280:1 8502:2 10121:1 10265:1 10267:2 14315:1 15369:3 15479:1 16894:4 19899:1 21959:1 23873:1 24052:1 26038:4 26039:1 26040:9 26041:2 26042:1 26043:8 26044:1 26045:1 26046:3 26047:4 26048:1 26049:1 26050:1 26051:1 26052:1 26053:1 26054:1 26055:1 26056:2 26057:1 26058:1 26059:1 26060:1 26061:1 26062:1 26063:2 26064:1 26065:1 26066:1 26067:1 26068:1 26069:1 26070:1 26071:4 26072:3 26073:2 26074:1 26075:1 #
-0.0048190263134562632413304683609567 8:1 23:1 35:1 59:6 97:1 222:1 268:1 274:1 285:2 305:3 327:1 334:1 566:1 594:1 631:1 787:1 1075:1 1108:1 1885:1 2591:1 2940:1 3731:1 3792:3 3795:1 4788:1 4995:1 8139:3 8140:1 8141:1 8142:1 8143:1 8144:1 8145:1 8146:1 8147:1 8148:1 8149:1 #
-0.0048190263134562632413304683609567 1:1 7:1 8:1 9:1 18:1 22:1 24:2 26:1 27:2 37:4 148:1 149:1 176:2 197:2 212:2 222:1 242:2 305:1 321:1 363:2 442:3 493:1 519:1 571:1 582:1 658:1 674:2 702:1 705:1 735:1 761:1 762:1 918:1 1047:1 1285:1 1435:1 2198:1 3118:1 3242:2 3243:1 3344:1 3544:1 3654:2 4788:2 4907:1 5659:1 5983:1 13376:1 13618:1 19721:1 19722:1 19723:1 19724:1 19725:1 19726:2 19727:1 #
-0.0017137416872491130492850430755425 8:1 24:5 62:1 65:2 71:1 107:1 195:1 222:1 246:1 250:1 283:1 287:1 435:1 508:1 548:1 549:1 702:1 710:2 874:1 1028:1 1114:2 1269:1 1273:1 1551:1 1750:1 1767:3 1896:1 2001:1 2048:1 2945:1 3310:1 4101:1 13335:1 14241:1 18608:1 18609:1 18610:1 18611:1 18612:1 18613:1 #
0.0048190263134562632413304683609567 8:2 23:1 34:2 60:1 61:2 72:1 126:1 138:1 173:1 278:1 305:1 321:1 331:1 406:2 433:1 512:1 592:1 753:1 934:2 956:1 988:1 1016:1 1025:1 1080:1 1081:2 1082:1 1083:2 1084:1 1085:1 1086:1 1087:2 1088:1 1089:1 1090:1 1091:1 1092:1 1093:1 1094:1 #
0.0048190263134562632413304683609567 27:2 72:1 293:2 297:1 331:1 528:1 855:1 1157:1 1158:1 1159:1 1160:2 1161:2 1162:2 1163:1 1164:1 1165:1 #
0.0048190263134562632413304683609567 24:1 27:1 63:1 154:1 250:1 331:1 428:1 442:1 532:1 753:2 785:1 1239:1 1240:1 1241:1 1242:2 1243:1 1244:1 1245:1 #
0.0048190263134562632413304683609567 8:1 27:1 114:1 167:1 373:1 859:1 860:1 861:1 862:1 863:1 864:1 #
0.0048190263134562632413304683609567 8:1 24:1 27:1 35:1 39:2 50:1 59:1 72:1 79:1 136:1 189:1 319:1 321:2 363:1 428:1 438:1 465:1 492:1 495:1 496:1 497:1 498:2 499:2 500:1 501:1 502:1 503:1 504:1 505:1 506:2 507:1 508:1 509:1 510:1 511:1 512:1 513:1 514:1 515:1 #
-0.0042827930079504372001819589854676 8:1 136:1 321:2 325:1 333:1 428:2 442:1 946:1 993:1 1942:1 2249:1 3296:1 3297:1 3298:1 3299:1 3300:1 #
-0.0009545842012017132427112442449868 6:1 8:2 23:1 297:1 506:1 531:1 1991:1 2069:1 3615:1 7256:1 7257:1 7258:1 7259:1 7260:1 7261:1 7262:1 7263:1 #
-0.0048190263134562632413304683609567 8:2 33:1 35:1 39:1 49:1 283:1 429:1 551:1 562:1 757:1 1023:1 1027:1 3623:1 5619:1 14685:1 23708:1 #
-0.0004503865351401715360138422461489 39:1 139:1 157:1 252:5 263:1 321:1 335:1 485:1 506:1 557:1 818:2 1016:1 1035:1 1041:1 1414:5 1522:1 1620:1 2032:1 2077:1 2529:1 2731:1 3162:1 3244:1 3466:1 4775:1 5361:1 6038:1 6559:1 6896:1 6897:1 6898:1 6899:1 6900:1 6901:1 6902:3 6903:1 6904:1 #
-0.00042156714008442883624000474540594 268:1 557:1 688:1 1922:1 2756:1 3308:1 6323:1 9483:1 13779:1 21888:1 22965:2 #
0.0048190263134562632413304683609567 8:1 24:4 34:1 59:1 65:1 114:1 136:1 139:1 156:1 157:1 158:1 189:1 242:1 250:1 287:1 324:1 345:1 365:1 371:2 433:1 442:1 556:1 667:1 668:1 669:1 1230:1 1231:1 1232:1 1233:1 1234:1 1235:1 1236:1 1237:1 1238:1 #
0.0048190263134562632413304683609567 8:1 24:1 27:1 34:1 39:1 65:1 84:4 89:2 293:1 305:1 321:1 324:1 371:1 377:1 659:1 683:1 1050:1 1136:1 #
0.0048190263134562632413304683609567 8:1 20:1 24:3 27:1 41:1 85:1 167:1 175:1 322:1 1095:2 1096:1 1097:1 1098:1 1099:1 1100:1 1101:1 1102:1 1103:1 1104:1 #
0.0048190263134562632413304683609567 8:2 23:1 33:1 39:3 41:2 61:1 62:1 87:1 89:3 136:3 167:1 176:2 242:2 324:3 501:1 556:1 606:1 736:1 806:1 946:2 1041:1 1042:1 1043:1 1044:1 1045:1 1046:1 1047:1 1048:2 1049:1 1050:1 1051:1 1052:1 1053:1 1054:1 1055:1 #
0.0048190263134562632413304683609567 8:2 27:1 70:1 134:1 138:1 154:1 189:2 321:1 327:1 333:1 388:1 442:1 508:1 509:1 673:1 736:1 737:4 738:1 739:1 740:2 741:1 742:1 743:1 744:1 745:1 746:1 747:1 748:1 749:1 #
-0.0023047402228845003530066648522734 20:1 24:4 62:1 65:1 67:1 72:2 134:2 138:1 181:1 250:1 433:3 442:2 444:1 544:1 576:1 586:1 592:1 797:1 1427:1 1717:1 2431:1 2465:1 2587:1 3962:1 4014:1 4925:1 13206:1 22653:1 22654:1 22655:2 22656:1 22657:1 22658:1 22659:1 22660:1 22661:1 22662:1 22663:1 22664:1 22665:1 22666:1 #
-0.0015185932613503323740378192496792 8:1 20:1 24:3 65:1 79:1 89:1 106:1 107:1 119:1 157:1 161:1 359:3 501:1 519:1 534:1 656:1 773:1 960:1 987:1 1191:2 1605:1 2465:1 2668:1 2764:1 4401:3 4514:1 4836:1 5650:1 5978:1 6010:1 6508:1 6714:2 7279:1 11691:3 12501:1 15279:1 16698:1 21052:1 21053:1 21054:1 21055:1 #
-0.00096709335094586181338915942262702 62:2 70:1 138:1 154:3 274:1 278:2 297:2 634:2 737:3 872:1 1044:1 2047:3 2270:3 2931:1 3655:1 5609:1 7307:2 10675:1 11539:6 13058:1 28847:2 28848:4 28849:1 28850:1 28851:2 28852:1 28853:1 #
-0.0010424403690055242168582827488876 8:2 24:1 65:2 107:1 234:1 293:1 435:1 562:1 797:1 820:1 946:1 1069:1 1070:1 1160:1 1222:1 1906:1 2993:2 5269:1 7580:1 10529:1 13562:1 13770:3 13771:1 13772:1 13773:2 13774:1 13775:2 13776:1 13777:1 13778:1 #
-0.00048724240479967786260351303440075 7:1 8:1 20:1 24:2 37:1 138:1 250:1 265:1 274:1 316:1 335:1 345:1 433:1 442:1 444:3 458:1 630:1 634:1 655:1 1103:1 1300:1 1781:1 1795:1 1920:1 2047:1 2085:1 2209:4 2798:1 2919:1 3973:1 5305:1 14671:1 14672:1 14673:7 14674:1 14675:1 14676:1 14677:1 14678:1 14679:2 14680:1 14681:1 14682:1 14683:1 14684:1 14685:1 14686:1 14687:1 #
0.0048190263134562632413304683609567 8:1 27:1 65:2 87:2 89:2 106:1 118:2 119:1 167:1 242:1 287:1 324:1 534:1 587:1 588:1 589:1 590:1 591:1 #
-0.0048190263134562632413304683609567 8:1 24:1 65:3 74:1 136:1 250:4 319:1 1157:1 1363:1 1776:4 4185:1 5428:3 #
-0.0023662942668395054758578854858797 6:4 8:2 24:1 31:1 34:1 35:4 39:1 45:1 51:1 59:1 65:2 70:2 97:1 104:4 176:1 219:2 275:1 283:1 371:6 486:1 501:1 502:1 506:1 515:1 534:1 674:1 688:1 702:1 704:1 708:1 711:1 918:3 935:1 987:6 1090:1 1106:1 1196:1 1307:1 1410:1 1430:1 1513:1 1629:1 1688:1 1726:1 1776:1 1941:1 2387:1 2441:2 3671:1 3782:1 4101:1 4475:1 4869:4 4967:1 5014:1 5269:1 5575:1 5873:1 8418:1 9825:1 10911:1 11647:1 12977:1 14122:1 23630:1 28913:1 28914:1 28915:1 28916:1 28917:1 28918:1 28919:1 28920:1 28921:1 #
-0.0030757939273677423371033956556175 7:1 8:2 23:1 65:2 73:2 136:1 209:1 250:1 287:1 314:1 363:1 449:1 928:1 1312:1 1750:2 1753:1 2946:1 4485:1 4839:1 5119:1 5234:2 5661:1 14875:2 14885:1 17430:2 22666:1 22752:2 22753:2 22754:1 22755:1 22756:1 #
-0.00038256116936284071273349782771334 8:2 61:1 64:2 251:1 268:1 365:1 508:2 512:2 629:4 775:1 785:1 872:1 874:2 948:1 950:1 1161:1 1257:1 1321:1 1418:1 1421:1 1478:2 1504:1 1541:1 1582:1 1607:1 1758:1 1769:1 2019:2 2228:1 2463:1 3068:1 4839:1 5269:1 7580:1 11733:2 12659:1 21855:1 21856:1 21857:1 21858:1 21859:1 21860:1 21861:1 21862:1 #
-0.0013158429276106217882535975860492 8:2 16:1 50:1 58:2 65:3 73:1 319:1 369:1 528:1 582:1 590:1 655:1 738:1 866:1 937:1 1932:1 3242:2 3468:2 4385:3 4514:1 9001:1 20384:1 #
0.0048190263134562632413304683609567 2:4 7:1 8:2 27:3 67:5 87:8 89:2 115:1 203:2 232:1 263:3 322:1 324:1 327:1 333:1 365:1 385:2 506:1 571:1 594:2 639:1 940:2 1108:1 1113:2 1114:1 1115:1 1116:2 1117:3 1118:1 1119:1 1120:2 1121:2 1122:2 1123:1 1124:1 1125:1 1126:2 1127:2 1128:1 1129:1 1130:1 1131:1 1132:1 1133:1 1134:1 1135:1 #
0.0048190263134562632413304683609567 8:1 27:2 31:1 59:2 65:1 148:1 167:4 176:1 287:1 305:1 373:1 519:1 586:1 885:1 886:1 887:1 888:1 889:4 890:1 891:1 892:1 893:4 894:1 895:1 896:1 897:1 898:1 899:1 #
-0.00043253056705743440912836916822926 64:1 99:1 199:1 203:4 206:10 222:1 592:1 676:1 879:1 1119:1 1701:1 1702:1 1703:2 1704:2 1705:4 1706:2 1707:1 1708:3 1709:1 1710:1 1711:1 1712:1 1713:1 1714:1 1715:1 1716:1 1717:1 1718:1 1719:1 #
-0.00024184890755237577241246182957468 8:1 71:1 126:1 138:1 203:7 206:3 232:1 273:2 281:1 315:1 629:2 771:1 1196:1 1238:1 1478:2 1493:1 1497:1 1498:2 1742:2 2088:1 2991:1 3056:1 4175:1 4869:1 5176:1 5561:1 6424:1 8097:1 8470:1 10551:1 10883:4 14637:3 17975:1 22464:1 22465:1 22466:1 22467:1 22468:1 22469:1 22470:1 #
-0.0039748720681666641074691881385661 6:1 8:2 20:1 23:3 67:1 80:1 139:1 242:3 250:1 274:1 285:1 288:2 295:1 305:3 363:1 371:1 506:2 522:1 544:1 566:2 704:1 861:1 941:2 1114:1 1397:1 1741:1 2376:2 2454:1 2597:1 3501:1 3782:1 4137:1 4259:1 5951:1 8683:1 8688:1 11647:1 21029:1 22791:1 22792:1 22793:1 22794:1 #
-0.00061807791177992843934668742988947 1:1 8:1 126:1 138:2 139:1 219:1 265:1 268:1 321:2 333:2 345:1 397:5 571:1 896:1 1035:1 1163:1 1418:1 1698:2 1816:2 2144:1 2164:1 2679:1 2747:1 3807:3 3980:2 6942:1 7638:3 8249:1 9281:1 9557:1 10417:3 13234:1 13762:1 18302:2 18303:1 18304:1 18305:1 18306:1 18307:1 18308:1 #
-0.00079967944438752392929958823231118 143:1 148:1 149:1 352:1 408:1 409:1 412:1 414:1 590:1 700:1 742:1 1797:1 2029:1 2338:1 2450:1 4779:1 4925:1 25712:1 27519:1 27520:1 27521:1 #
0.0048190263134562632413304683609567 20:2 23:1 24:1 34:4 35:1 40:1 61:1 65:1 67:1 87:1 106:2 148:3 165:1 167:1 186:1 189:1 219:1 222:1 242:1 274:1 316:2 318:1 321:1 327:2 371:6 429:2 534:1 548:1 549:1 582:2 717:1 757:4 871:2 956:1 987:1 988:1 989:1 990:1 991:1 992:1 993:1 994:1 995:1 996:1 997:2 998:1 999:1 1000:1 1001:1 1002:1 1003:1 1004:1 1005:1 1006:1 1007:1 1008:2 1009:1 1010:1 1011:1 1012:1 1013:1 1014:1 1015:1 #
0.0048190263134562632413304683609567 2:1 8:3 25:1 27:1 34:1 59:1 65:1 67:1 136:3 139:1 167:1 179:1 190:1 242:2 322:1 331:3 371:2 439:1 496:1 872:1 980:1 1048:1 1053:1 1105:1 1106:1 1107:1 1108:1 1109:1 1110:1 1111:1 1112:1 #
0.0048190263134562632413304683609567 6:2 8:2 27:3 35:1 37:2 65:4 83:1 138:1 189:3 217:1 220:2 225:1 226:1 227:1 250:1 265:1 335:2 338:1 470:1 519:1 555:1 679:1 859:1 1040:1 1050:1 1077:1 1166:1 1167:1 1168:1 1169:1 1170:1 1171:1 1172:1 1173:1 1174:1 1175:1 1176:1 1177:1 1178:1 1179:1 1180:1 1181:1 1182:1 1183:1 1184:1 1185:1 1186:1 #
0.0010272503076450300620037214827107 2:1 6:1 7:1 8:1 27:2 34:4 65:3 71:1 73:1 87:1 89:1 106:1 119:1 132:1 154:2 167:1 222:1 246:1 250:5 252:1 253:3 265:1 331:4 345:1 351:1 352:2 371:1 407:1 408:2 409:2 411:1 412:1 439:1 494:4 548:1 549:1 551:1 848:1 869:1 871:4 956:2 964:1 993:1 1056:1 1093:1 1097:1 1187:2 1188:1 1189:2 1190:2 1191:1 1192:1 1193:1 1194:1 1195:1 1196:1 1197:1 1198:1 1199:1 1200:1 1201:1 1202:1 1203:1 1204:1 1205:1 1206:1 1207:1 1208:1 1209:4 1210:1 1211:2 1212:1 1213:1 1214:1 1215:1 1216:1 1217:1 1218:1 1219:1 #
-0.00058151376771102894491782819841319 6:2 8:2 34:5 59:1 126:1 138:3 212:1 235:1 239:1 271:2 283:1 293:1 314:1 321:1 334:1 335:1 355:1 363:1 371:1 393:3 426:2 461:1 548:2 549:2 557:1 558:14 565:1 579:3 674:2 701:1 705:1 763:3 769:1 784:1 875:1 876:2 894:1 918:1 927:4 946:1 948:2 971:1 976:1 980:4 1090:1 1095:1 1101:1 1139:1 1188:1 1251:2 1285:1 1330:8 1438:1 1485:1 1616:1 1774:1 1791:1 1941:1 1948:1 1974:3 2063:12 2374:1 2734:1 2784:1 2807:1 2820:2 2847:21 2912:1 3205:1 3310:1 3346:1 3593:1 3832:1 3956:1 4764:1 5516:1 6695:1 6870:1 6887:1 6939:1 8705:1 8706:1 8707:1 8708:1 8709:1 8710:1 8711:1 8712:1 8713:2 8714:1 8715:1 8716:2 8717:1 8718:1 8719:3 8720:1 8721:5 8722:5 8723:1 8724:1 8725:1 8726:1 8727:1 8728:1 8729:1 8730:1 8731:1 8732:1 8733:1 8734:1 8735:1 8736:1 8737:1 8738:1 8739:1 8740:1 8741:1 8742:1 8743:1 8744:1 8745:1 8746:1 8747:1 8748:1 8749:1 8750:1 8751:1 8752:1 8753:1 8754:1 8755:1 8756:1 8757:1 8758:1 8759:1 8760:1 8761:2 8762:1 8763:1 8764:1 8765:1 8766:1 8767:1 8768:1 8769:1 8770:1 8771:1 8772:1 8773:1 8774:1 8775:1 8776:1 8777:1 8778:1 8779:1 8780:1 8781:1 8782:1 #
-0.0022305411049242771133471752165178 6:1 7:1 8:1 24:2 50:1 99:2 108:1 138:1 157:1 263:2 271:2 285:2 297:1 331:5 406:1 415:1 590:1 591:1 594:1 679:1 715:3 718:2 734:2 894:1 1040:1 1050:3 1427:1 1584:1 2213:3 2325:3 3754:1 3776:4 3872:1 7449:1 7650:1 10757:1 10758:1 10759:1 10760:1 10761:1 10762:1 10763:1 10764:2 10765:1 10766:1 10767:1 10768:1 10769:1 10770:1 10771:2 10772:2 10773:1 10774:1 10775:1 10776:1 #
-0.00071391490253791989751414037712607 8:1 50:2 107:1 121:1 138:1 156:1 176:1 321:1 345:1 347:1 351:2 353:4 371:1 377:3 426:1 523:1 704:1 763:1 903:2 1182:2 1944:1 2024:1 2734:1 2937:2 3091:2 3096:2 4189:1 7086:1 7586:4 17879:1 17880:1 17881:1 #
-0.0012680312882305149520950626751414 8:1 46:1 71:3 87:2 115:1 157:2 219:1 428:1 591:1 935:1 1054:1 1108:5 1324:2 1418:1 1423:3 1741:1 1758:1 2587:1 3457:1 5021:2 6247:1 8565:1 8569:1 17185:1 26539:3 28558:2 28559:1 28560:1 28561:1 28562:2 28563:2 28564:2 28565:1 28566:1 #
0.0048190263134562632413304683609567 6:1 8:1 9:1 27:3 34:1 37:1 99:1 154:1 167:3 172:1 282:1 293:1 305:1 334:1 350:1 566:1 822:1 918:1 919:1 920:1 921:3 922:1 923:1 924:1 925:1 926:1 927:2 928:1 929:1 930:1 931:1 932:1 933:1 934:1 935:1 936:1 937:1 #
-0.0028381643198771419264736515231107 24:1 29:1 33:1 39:2 67:1 136:1 138:1 142:2 285:1 305:5 371:1 385:1 556:1 701:1 705:1 797:1 809:1 931:1 1092:1 2758:1 3468:1 7443:1 7444:1 7445:1 7446:1 7447:1 7448:1 7449:1 #
-0.00015507108276418765397536292383052 6:1 8:2 24:2 61:1 96:1 114:6 136:3 138:3 151:1 196:1 217:1 251:10 287:1 319:1 347:1 371:1 385:2 393:1 428:1 452:1 487:1 516:1 534:1 558:1 655:1 659:2 714:1 740:1 796:2 842:1 866:1 871:1 927:2 976:1 1031:1 1044:2 1076:1 1096:4 1238:1 1551:1 1617:1 2270:1 2280:4 2431:1 2597:2 2968:1 2973:1 3654:1 3793:1 4181:1 4256:1 5094:1 5234:1 6161:2 6565:1 9028:1 9376:1 9895:1 13240:1 13513:1 15148:1 15352:2 16709:2 22142:1 22323:1 26077:1 28610:1 28611:2 28612:3 28613:1 28614:1 28615:2 28616:1 28617:1 28618:1 28619:1 28620:1 28621:1 28622:1 28623:1 28624:1 28625:1 28626:2 28627:1 28628:2 28629:1 28630:1 28631:1 28632:1 28633:1 28634:1 28635:1 28636:1 28637:1 28638:1 28639:1 #
-0.00021358716059428344978717018154413 8:1 24:1 39:3 126:1 138:2 152:2 153:5 165:2 271:2 278:2 294:1 370:2 522:1 556:4 558:1 738:1 927:2 1013:2 1251:7 1319:1 1759:3 1801:1 1848:1 2120:1 2136:2 2154:1 2270:1 2280:1 2473:1 2687:3 2840:1 3260:1 3620:1 4200:8 4388:2 7197:1 7205:1 7209:7 7211:6 7217:1 9700:2 10950:1 12432:2 12433:1 12434:1 12435:1 12436:1 12437:5 12438:1 12439:1 12440:1 12441:1 12442:1 12443:4 12444:1 12445:1 12446:1 12447:1 12448:1 12449:1 12450:1 12451:1 12452:1 12453:1 12454:2 12455:1 12456:2 12457:1 12458:1 12459:1 12460:1 12461:1 12462:1 12463:1 12464:1 #
-0.00089646792186091764711997065262494 7:1 8:1 67:3 169:1 200:2 328:1 377:1 385:3 408:1 524:1 555:1 586:1 770:4 836:1 931:2 1435:1 1738:3 1942:4 1949:1 2518:1 3118:1 3135:1 3451:2 3454:2 4415:1 4525:2 9452:1 11760:2 11761:1 11762:3 11763:1 11764:1 11765:1 11766:1 11767:1 11768:1 #
-0.00027208335071977521974970204432509 24:3 67:1 107:1 138:3 321:1 380:1 406:1 444:3 1347:2 1615:1 1877:1 1942:1 2590:3 2692:1 4852:1 5349:2 5868:1 6888:1 8522:1 11012:1 11013:2 11014:1 11015:2 11016:1 11017:1 11018:1 11019:1 11020:1 #
-0.00044569536503770857804179739147799 1:1 7:1 8:2 20:2 37:1 79:1 87:3 99:4 108:1 126:1 138:1 153:1 156:1 165:1 176:1 268:1 293:5 319:1 334:1 422:1 426:2 489:1 526:1 571:1 576:2 673:1 701:1 822:4 927:1 950:1 992:2 1094:1 1157:1 1160:7 1188:1 1190:1 1197:1 1257:1 1354:2 1414:1 1418:1 1491:1 1721:1 1881:1 1978:2 2045:2 2084:1 2088:2 2196:2 2209:1 2270:1 2463:1 2492:1 2543:1 2662:1 3169:1 3615:1 3618:7 4764:1 4867:2 5103:1 5143:6 5329:1 6428:1 8932:1 13887:1 16975:4 17127:2 17128:13 17129:1 17130:1 17131:1 17132:1 17133:1 17134:1 17135:1 17136:1 17137:1 17138:1 17139:1 17140:1 17141:2 #
-0.0022643594780027477032791072275586 6:1 7:1 8:2 24:3 32:1 65:2 85:1 232:1 267:1 285:1 299:1 305:1 594:1 703:1 748:1 785:3 1270:1 1299:1 1607:1 2790:1 3404:1 3429:2 3773:1 3832:1 4531:1 8691:1 9737:1 10589:1 11914:1 15145:1 17728:2 28509:1 28510:1 28511:1 #
-0.00027942542114649726245345640052165 7:2 8:1 71:1 138:1 154:1 385:2 492:2 524:5 594:1 853:1 1182:2 2136:4 3260:3 3280:1 3330:2 4117:1 5175:1 5436:1 6249:1 6250:1 6251:1 6252:1 6253:2 6254:1 6255:1 6256:1 6257:3 6258:1 6259:1 6260:1 6261:1 6262:1 6263:2 6264:1 #
-0.0016898085291767888684033582791244 7:2 8:1 114:1 138:2 147:2 319:1 373:2 551:1 571:2 880:1 946:1 1418:1 1659:1 2934:1 3003:1 3054:1 3444:2 3753:1 4993:1 5216:1 5370:2 5536:1 5555:1 6047:1 6436:1 6437:1 6438:1 6439:2 6440:2 6441:2 6442:2 6443:1 6444:1 6445:1 6446:2 6447:2 6448:2 6449:1 6450:1 6451:1 6452:1 6453:1 6454:1 6455:1 6456:1 6457:1 6458:1 #
0.0048190263134562632413304683609567 8:2 24:2 27:5 59:1 65:1 67:2 114:2 136:1 148:1 250:6 265:1 335:4 336:2 345:1 355:2 385:2 460:1 461:3 471:1 525:1 534:1 591:1 671:1 770:1 813:1 833:1 875:1 940:2 1056:2 1057:2 1058:2 1059:1 1060:1 1061:1 1062:1 1063:1 1064:1 1065:1 1066:1 1067:1 1068:1 1069:1 1070:1 1071:1 1072:1 1073:2 1074:1 1075:1 1076:1 1077:1 1078:1 1079:1 #
-0.0010161071379572461387957860168285 20:4 37:3 57:1 79:1 96:1 114:4 143:1 148:1 176:2 235:1 283:1 293:2 335:6 345:2 363:1 456:1 486:1 493:1 520:7 534:4 551:1 556:1 574:1 850:2 940:2 1056:1 1251:2 1272:1 1303:1 1312:1 1461:4 1496:1 1741:1 2233:1 2273:1 2597:1 3121:1 3710:1 4661:1 5292:2 6551:1 6888:1 7508:1 8866:1 9452:1 10248:2 10265:1 16713:1 18756:1 21560:1 24291:1 28132:1 28133:1 28134:5 28135:2 28136:2 28137:1 28138:1 28139:1 28140:1 28141:1 28142:1 #
-0.0011294509083903860741093794217704 1:1 6:2 7:1 20:1 22:11 23:2 24:5 37:2 65:3 67:3 136:3 138:1 146:1 148:2 149:1 156:1 157:2 165:1 185:2 196:1 199:1 200:2 203:2 206:1 207:2 222:5 240:1 253:2 265:1 287:5 307:1 493:1 503:1 516:1 528:1 565:1 573:1 592:1 594:2 634:1 701:1 760:1 761:3 762:2 818:1 823:2 870:1 907:2 918:1 940:2 980:1 1134:2 1148:1 1216:1 1251:1 1366:1 1427:1 1428:1 1493:1 1532:1 1661:1 1692:2 1855:1 1864:1 2021:1 2085:1 2219:2 2249:1 2298:2 2321:1 2419:1 2428:1 2435:1 2513:2 2700:2 2938:1 2993:2 3082:1 3455:1 3457:1 3497:1 3587:1 3620:1 3740:1 3751:2 3971:1 3972:1 5021:1 5090:1 5125:1 6047:1 6319:1 7053:2 8418:1 9366:1 9939:1 12261:1 13232:1 16235:1 16236:1 16237:1 16238:2 16239:1 16240:1 16241:1 16242:1 16243:2 16244:1 16245:4 16246:1 16247:1 16248:1 16249:1 16250:1 16251:1 16252:1 16253:1 16254:1 16255:1 16256:1 16257:1 16258:2 16259:1 16260:1 16261:2 16262:1 #
-0.00066699365837570698169883831596394 1:1 7:2 8:1 39:1 49:1 59:1 62:1 67:11 92:1 134:1 138:4 147:2 179:1 222:1 253:3 265:1 274:2 287:1 304:1 307:1 314:2 334:2 351:1 393:2 426:2 454:1 480:1 486:2 491:2 497:1 505:2 510:1 523:1 565:1 574:1 579:1 594:1 634:1 655:1 740:3 890:3 946:1 980:1 1370:1 1452:6 1595:3 1646:2 1674:1 1738:1 1865:2 2043:1 2363:1 2940:1 3465:3 3541:1 3727:9 3731:1 4184:1 4300:8 4598:3 4638:2 5207:1 5561:2 6006:1 6106:1 6539:1 7031:1 7348:2 9064:1 18118:1 18703:1 19728:1 19729:1 19730:1 19731:4 19732:1 19733:2 19734:1 19735:3 19736:3 19737:2 19738:1 19739:1 19740:1 19741:1 19742:1 19743:3 19744:1 19745:1 19746:1 19747:1 19748:2 19749:2 19750:2 19751:2 19752:2 19753:2 19754:2 19755:2 19756:1 19757:1 19758:1 19759:1 19760:1 19761:1 19762:2 19763:1 19764:1 #
-0.0002040190186046130210034688090559 1:2 8:1 37:1 40:4 50:4 67:3 74:1 91:1 99:3 138:3 154:1 157:2 176:1 200:2 265:3 274:1 279:1 283:2 297:1 335:1 345:3 347:1 352:1 363:2 377:1 418:2 428:3 442:4 461:40 486:1 494:1 522:1 556:3 592:1 594:8 601:1 642:1 659:7 679:3 770:1 796:3 813:2 839:1 841:1 847:1 861:1 966:3 1019:1 1076:1 1090:2 1216:1 1261:3 1300:1 1507:3 1566:1 1578:2 1639:1 1949:1 2088:1 2241:2 2300:1 2321:2 2325:2 2363:1 2459:3 2603:1 2700:1 2717:1 2721:1 2937:1 3174:2 3201:2 3318:1 3319:1 3397:1 3466:2 3585:1 3958:1 4048:1 4146:1 4242:1 4278:1 4288:2 4472:1 4482:1 4561:5 4748:1 4914:2 4964:1 5345:2 5428:1 5495:1 5561:1 5841:1 6409:1 6464:1 6507:1 6546:2 7440:1 7577:1 7878:1 7904:1 8610:1 9386:2 12373:1 13579:1 13776:1 14315:1 14885:1 16590:1 17966:1 18361:1 18596:1 22657:1 22679:1 22752:1 22980:1 22981:1 22982:1 22983:2 22984:1 22985:1 22986:1 22987:1 22988:2 22989:2 22990:2 22991:2 22992:2 22993:1 22994:1 22995:1 22996:2 22997:2 22998:1 22999:1 23000:1 23001:1 23002:1 23003:1 23004:1 23005:1 23006:1 23007:1 23008:1 23009:1 23010:1 23011:1 23012:1 23013:1 23014:1 23015:1 23016:1 23017:1 23018:1 23019:1 23020:2 23021:2 23022:1 23023:1 23024:1 23025:1 23026:1 23027:1 23028:1 23029:1 23030:1 23031:1 23032:1 23033:1 23034:1 23035:1 23036:1 23037:1 23038:1 23039:1 23040:1 23041:1 23042:1 23043:1 23044:1 23045:1 23046:1 23047:1 23048:1 23049:1 23050:1 23051:1 23052:1 23053:1 23054:1 23055:1 23056:1 23057:1 23058:1 23059:1 23060:1 23061:1 23062:1 23063:1 23064:1 23065:1 23066:1 23067:1 23068:1 23069:1 23070:1 23071:1 23072:1 23073:1 23074:1 23075:1 23076:1 23077:1 23078:1 23079:1 23080:1 23081:1 23082:1 23083:1 23084:2 23085:1 23086:1 23087:4 23088:1 23089:1 23090:1 23091:1 23092:1 23093:1 23094:1 23095:2 23096:1 23097:1 23098:1 23099:1 23100:2 23101:1 23102:2 23103:2 23104:4 23105:3 23106:2 23107:1 23108:1 23109:4 23110:1 23111:2 23112:1 23113:1 23114:1 23115:1 23116:1 23117:1 23118:2 23119:1 23120:1 23121:1 23122:1 23123:1 23124:1 23125:1 #
-0.0011883446778444652688205840362912 7:1 8:2 39:1 136:1 351:1 582:1 1139:1 1323:1 1496:3 1509:1 2473:3 4608:1 6866:1 10060:2 13866:1 13867:1 13868:1 13869:1 13870:1 #
-0.00095226721394495530709917163747491 8:2 33:1 126:2 138:2 139:1 154:1 489:1 496:1 508:1 1031:1 1681:1 1698:1 1877:1 2409:1 3446:1 4559:1 4894:1 5392:1 13575:1 13921:1 14857:1 18350:5 18884:1 18885:1 18886:2 18887:1 #
-0.001737930305249291281985413171185 8:1 33:1 126:1 138:1 293:3 297:1 327:3 2089:3 7799:1 25396:2 25397:1 25398:1 25399:1 #
-0.001089208938296961325098433093217 8:3 70:1 148:1 149:1 176:1 199:1 265:1 489:1 494:1 556:1 674:1 699:1 1498:1 1575:1 1742:1 2290:1 3783:1 4192:1 4789:1 4972:1 7587:1 8704:1 8978:1 9436:1 9825:1 14705:1 25066:1 25067:1 25068:1 25069:1 #
-2.1625560745771827753699406704513e-05 1:1 45:1 49:1 59:1 61:1 83:4 126:1 138:2 149:5 203:4 211:1 265:3 285:4 287:1 349:3 380:1 454:1 489:1 497:1 499:4 570:1 594:2 656:1 667:1 679:2 848:1 1324:1 1625:1 1920:1 1940:3 2213:1 2331:1 2463:1 2552:1 3746:1 3791:1 3792:2 3793:3 3794:3 3795:2 3796:1 3797:1 3798:3 3799:1 3800:1 3801:1 3802:1 3803:1 3804:1 3805:1 3806:1 3807:1 3808:1 3809:1 3810:1 3811:1 3812:1 3813:1 3814:1 3815:2 3816:1 3817:1 3818:1 3819:1 3820:1 3821:1 3822:1 3823:1 3824:1 3825:1 3826:1 3827:1 3828:4 3829:4 3830:4 3831:1 3832:1 3833:4 3834:3 3835:1 3836:1 3837:1 3838:1 3839:1 3840:1 3841:1 3842:1 3843:1 3844:1 3845:1 3846:1 3847:1 3848:2 3849:1 3850:1 3851:2 3852:1 3853:1 3854:1 3855:2 3856:2 3857:1 3858:1 3859:1 3860:2 3861:1 3862:1 3863:2 3864:2 3865:1 3866:2 3867:2 3868:1 3869:2 3870:1 3871:1 3872:1 #
-0.0011280678662331593796464002110724 8:2 62:1 70:2 99:2 134:1 136:1 138:1 281:2 350:1 351:1 562:1 656:1 702:1 1551:1 1778:1 2454:1 4066:1 4164:1 4373:3 4607:1 6637:1 9754:1 9758:1 11668:1 16298:2 16299:1 16300:1 16301:2 16302:1 16303:1 16304:1 16305:1 16306:1 #
-0.0011572765914996756796140342515855 8:1 24:1 65:1 67:1 132:1 138:1 146:1 148:1 149:2 154:1 211:1 325:1 327:1 351:1 361:1 454:1 485:1 501:2 516:1 594:1 798:1 833:1 926:1 931:1 1002:1 1012:1 1016:1 1094:1 1139:1 1254:1 1402:2 1510:2 1801:1 2201:1 2526:3 2554:1 2967:1 4607:2 5350:1 5530:1 5876:1 6270:1 15367:3 16689:1 16690:1 16691:1 16692:2 16693:1 16694:1 16695:1 16696:1 16697:1 16698:1 16699:1 16700:1 16701:1 16702:1 16703:1 16704:1 16705:1 16706:1 #
-0.0032100601192944556473707340416013 107:1 371:3 508:1 857:1 1161:2 1584:1 1989:2 2417:1 2515:2 2784:1 2917:2 2919:1 3446:1 6151:1 14577:1 17957:1 17958:1 #
-0.0045305104189082281637701576926247 7:2 8:1 24:1 65:1 74:1 250:3 268:1 390:2 406:1 418:1 428:2 494:1 513:1 590:1 608:1 702:1 785:1 818:1 875:1 1119:2 1189:1 1324:1 1451:1 1493:2 1946:1 2072:1 2088:1 3339:1 4258:1 7613:1 9028:1 10145:1 14972:1 14973:1 14974:1 #
-0.00058686450169996725277632432238306 8:3 31:1 126:1 136:2 138:1 203:2 219:1 221:2 287:1 426:1 700:1 714:1 762:1 1202:1 1283:2 1323:1 1807:1 2417:3 2419:1 2790:1 3000:2 3030:1 3523:1 4973:1 9875:1 13755:1 19799:1 23797:1 23798:1 23799:1 23800:1 23801:1 23802:1 23803:1 23804:1 23805:1 23806:1 23807:2 23808:2 23809:1 #
-0.0017810099289888780757507014129715 8:1 25:1 48:1 126:1 134:1 138:1 206:1 257:1 268:1 273:1 321:1 355:1 470:1 629:1 688:1 848:2 948:1 964:1 992:1 1209:1 1275:1 2115:1 2287:1 3619:1 5436:1 5948:1 6250:1 6256:1 6691:2 8458:1 9861:2 9862:1 9863:1 9864:1 9865:1 9866:1 9867:1 9868:1 9869:1 9870:1 9871:1 9872:2 9873:1 9874:1 9875:1 9876:1 9877:1 #
-0.00018613428624530880465919036037548 8:1 21:1 37:2 114:1 115:5 138:1 187:1 259:1 283:2 333:1 408:3 409:3 412:3 413:1 414:1 415:1 426:1 570:1 574:6 590:1 668:1 779:1 824:1 847:3 934:1 952:1 980:1 995:1 1020:1 1023:1 1027:1 1119:1 1122:1 1192:1 1319:2 1320:1 1344:1 1750:3 2338:2 2351:1 3540:1 3654:1 3961:1 4181:1 5022:1 5582:2 5672:1 5795:2 6047:1 6551:1 6560:1 6888:1 7340:1 9817:1 9893:1 10081:3 10911:1 13878:1 20327:1 22231:3 26630:1 26631:1 26632:1 26633:3 26634:3 26635:2 26636:1 26637:1 26638:1 26639:2 26640:1 26641:1 26642:1 26643:1 26644:1 26645:1 26646:1 26647:1 26648:1 #
-0.00099002952538479569062623841801951 8:3 25:1 118:2 186:1 199:1 259:1 265:1 385:1 408:2 409:2 412:2 413:2 414:2 415:2 480:1 694:1 700:1 705:1 964:1 1019:2 1070:1 1119:1 1305:1 1344:2 1718:1 1838:1 2225:1 2300:2 2404:2 3688:2 3947:1 4794:1 4795:2 4797:1 5384:2 5983:1 10813:1 20331:2 26190:1 26442:1 26443:2 26444:1 26445:1 26446:1 26447:1 26448:1 26449:1 26450:1 26451:1 26452:1 #
-0.0022242161664893528999487060104912 8:1 20:1 23:1 31:1 92:1 161:1 253:1 334:2 352:2 407:1 408:2 409:2 411:1 412:1 413:1 414:1 415:1 416:1 485:1 534:1 543:1 575:1 655:1 683:1 693:1 964:1 1620:1 2364:1 2460:1 4317:1 4383:1 5210:1 6438:1 6716:1 6745:1 7031:1 7187:1 8392:1 9473:1 9803:1 15603:1 22469:1 27596:1 29786:3 29787:1 29788:1 29789:2 #
-0.00066305585128852346545047513615145 8:1 24:2 61:1 65:1 99:1 134:1 138:1 172:1 250:2 335:1 346:2 351:1 442:1 457:1 475:2 561:1 634:2 656:1 704:1 821:2 874:2 909:1 965:1 1347:1 1454:1 1496:2 1555:2 1633:1 1936:1 2414:1 2769:6 3466:1 3604:1 3938:1 4103:1 6426:1 6802:1 7523:4 7951:3 15887:1 15893:1 23193:1 25594:2 25887:2 25888:2 25889:1 25890:1 25891:2 25892:2 25893:1 25894:1 25895:1 25896:1 25897:1 #
-0.00035865749048330394744762972258911 7:3 8:1 33:1 58:1 94:2 96:2 99:1 114:2 126:1 138:1 139:1 152:1 232:1 333:1 335:1 361:1 419:1 556:1 558:1 570:2 574:2 598:1 626:1 667:2 841:1 842:1 876:1 946:1 948:1 1061:2 1272:1 1312:1 1426:5 1587:1 1940:1 2088:1 3382:4 4149:1 4547:1 5619:1 5622:1 6510:1 6682:2 6704:1 9960:1 10267:1 10757:1 11582:1 12290:1 15362:3 15369:1 18209:2 18210:1 18211:1 18212:2 18213:2 18214:2 18215:1 18216:1 18217:1 18218:1 18219:1 #
-0.00084789031852702703533075645481176 7:2 23:1 58:1 72:1 73:1 115:1 136:1 138:1 143:2 154:1 265:1 283:1 316:1 321:1 345:1 363:1 465:1 475:6 516:1 993:1 1028:1 1222:1 1303:2 1414:1 2417:1 3468:1 4184:1 4229:1 4248:2 6820:2 7183:1 8395:1 9185:1 11958:1 12770:4 30919:1 30920:1 30921:4 30922:1 30923:1 30924:3 30925:1 30926:1 30927:1 30928:1 30929:1 30930:1 30931:1 30932:1 30933:1 30934:1 #
-0.0023907047870715359902393792879138 1:1 7:1 8:1 24:1 37:3 39:1 70:1 114:1 268:1 346:1 363:1 460:1 539:1 570:2 574:2 590:1 934:1 976:1 1092:1 1319:1 3633:1 5366:2 5432:2 #
-0.00087475951458883130854027321277044 6:1 18:1 129:2 165:1 176:1 242:1 317:1 321:1 325:1 327:2 335:1 393:1 437:4 501:1 511:1 519:1 673:1 999:1 1189:1 1332:5 1426:2 1487:1 1707:1 1844:1 1941:1 2177:1 2795:2 3615:1 5115:1 7310:1 8535:1 9608:1 9889:1 10403:1 11578:5 11691:2 11750:1 13750:1 27182:1 27183:1 27184:1 27185:1 27186:1 27187:1 #
-0.0038443726631733291659864804046265 7:1 8:1 33:1 39:1 64:4 138:1 1542:1 3530:1 3533:1 4114:1 16600:1 16601:1 16602:1 16603:1 #
-0.0042986913557516680250980556365903 24:4 61:1 65:2 104:1 232:1 283:2 336:1 377:2 1318:2 3062:1 3067:1 3956:1 4859:1 6866:1 9305:1 #
-0.0038922830900527016946555125542773 8:1 23:1 24:1 57:1 58:1 65:3 94:1 132:1 250:2 305:1 442:1 486:2 809:1 866:1 1318:1 1698:1 2404:3 2993:1 3654:1 8040:1 9733:1 #
-0.00052015073207772313454433366075591 39:1 94:1 99:1 139:1 154:1 157:1 176:2 203:2 206:3 232:1 265:3 319:1 334:1 345:1 371:1 505:1 519:1 565:2 950:2 1071:1 1163:1 1209:3 1216:1 1608:1 1797:1 1861:2 1898:2 1948:1 2233:1 2417:1 3359:2 3429:2 3547:1 3620:1 4142:1 4479:3 5869:2 11006:1 15570:2 19770:2 24052:1 24361:1 24362:1 24363:1 24364:1 24365:1 24366:1 24367:1 24368:1 #
-0.00049870642699862658027420980744182 7:2 8:2 58:1 72:1 79:1 83:4 114:1 126:1 138:2 154:2 191:1 197:4 265:1 268:1 285:4 345:1 371:1 393:1 426:1 444:2 460:1 480:1 556:1 573:2 582:2 592:1 594:1 660:1 668:1 740:1 762:1 812:1 822:1 823:1 940:2 964:1 1052:1 1106:1 1285:1 1504:1 1738:1 1795:1 1845:1 1911:3 1978:1 2191:2 2454:1 2552:1 2623:2 2774:1 3468:1 3497:1 3568:1 4385:1 4415:1 4468:1 7447:1 9672:2 9737:1 11088:1 11443:1 17904:2 19607:1 19608:2 19609:1 19610:1 19611:1 19612:1 19613:1 19614:1 19615:2 19616:1 19617:1 19618:1 19619:1 19620:1 19621:1 19622:1 19623:1 19624:1 19625:3 19626:2 19627:1 19628:1 19629:1 19630:1 19631:1 19632:1 19633:2 19634:2 19635:4 19636:1 19637:1 19638:1 19639:1 19640:1 19641:1 19642:1 19643:1 #
-0.0014585573342508590614224894821405 8:1 24:3 43:1 67:1 79:1 136:1 138:2 351:1 428:1 434:1 555:1 582:1 940:2 946:1 948:1 1427:1 2419:1 2623:1 3118:1 6109:1 7508:2 14630:1 14631:2 14632:2 14633:3 14634:1 14635:1 14636:1 #
-3.6637821681540321786148262095395e-05 7:1 8:1 25:1 34:1 64:3 138:1 176:1 251:2 433:3 460:5 558:2 631:1 821:1 822:1 874:1 980:2 1139:1 1161:1 1323:2 1324:2 1330:2 1356:1 1438:2 1551:2 1582:1 1779:2 2019:1 2085:1 2179:2 2902:2 3468:2 3542:1 4135:1 4383:2 4526:1 5080:6 6390:5 6669:2 6670:2 8432:1 8452:2 8521:1 8606:3 9314:1 10008:1 10732:2 11494:1 11496:1 12589:1 16307:2 16308:1 16309:1 16310:1 16311:1 16312:2 16313:1 16314:1 16315:1 16316:1 16317:1 16318:1 16319:1 16320:1 16321:1 16322:1 16323:2 16324:1 16325:1 16326:1 16327:1 16328:1 16329:1 16330:1 16331:1 #
-0.0006486857165401974838550569479878 7:4 8:1 99:1 114:3 138:1 172:1 358:1 393:1 414:2 497:1 565:1 737:2 910:1 915:1 1293:2 1344:1 1479:1 2294:1 2308:2 3163:1 3622:1 4132:1 6154:2 6741:1 15265:1 17185:1 17186:1 17187:1 17188:1 17189:1 17190:1 17191:1 17192:1 17193:1 17194:1 17195:1 17196:1 #
-0.0020945507653232957670508262992826 7:2 8:1 23:1 87:2 157:1 176:1 265:1 285:1 295:1 345:1 460:2 573:1 576:1 796:1 875:1 918:1 948:1 1414:1 1551:1 1590:1 1617:1 1816:1 2190:1 2191:1 2192:1 2193:3 2194:1 2195:2 2196:1 2197:1 2198:1 2199:1 2200:1 2201:1 2202:1 2203:1 2204:1 2205:1 2206:1 #
-0.00055842258291561024542010160942596 7:1 8:3 20:1 23:1 24:2 39:1 99:1 114:1 139:1 155:1 156:1 186:1 250:2 265:1 278:1 287:1 305:1 314:1 327:1 334:1 351:1 363:1 405:1 428:1 435:1 551:1 592:2 608:2 663:1 680:5 798:2 875:1 911:1 930:1 934:1 948:1 966:1 1040:1 1076:1 1078:1 1105:1 1243:1 1269:1 1319:1 1410:1 1541:1 1628:1 1638:1 1685:2 2048:1 2363:2 2614:1 2938:3 3302:1 4009:1 4382:3 5053:1 5502:1 5593:1 6532:1 8847:1 9749:1 12307:1 12368:2 15125:1 15126:1 15127:1 15128:1 15129:1 15130:2 15131:2 15132:2 15133:1 15134:1 15135:1 15136:1 15137:3 15138:1 15139:1 15140:2 15141:2 15142:1 15143:1 #
-0.00032292090328929804691343585787422 7:1 8:3 23:1 24:1 85:1 138:5 156:1 222:2 240:1 265:1 442:1 508:1 516:1 522:1 603:2 616:1 667:1 775:2 776:1 801:4 889:1 890:1 894:1 971:2 1019:2 1054:1 1247:9 1251:10 1270:2 1418:1 1504:3 1527:1 2472:1 2613:1 3186:1 3253:2 3732:2 4810:1 7047:2 9889:1 18990:3 21707:5 27182:1 28092:1 28093:2 28094:3 28095:2 28096:1 28097:1 #
-0.0015718391944139421985415783211693 8:1 25:1 57:1 134:3 190:1 209:1 282:1 316:1 334:1 346:1 350:1 371:1 377:1 452:1 506:1 693:1 761:2 769:1 856:1 1050:1 1315:1 2088:1 3070:1 3367:1 4115:1 4317:1 6247:1 6390:1 9353:1 29387:1 29890:1 29891:1 29892:1 29893:1 #
-0.00072949967825473166493921439723636 1:1 8:1 64:2 79:1 104:1 126:1 136:3 138:2 156:1 176:2 199:1 333:3 334:1 385:1 699:1 869:1 874:1 1190:2 1216:3 1231:1 1273:1 1323:2 1454:1 1457:3 1458:3 1461:1 2209:1 2228:1 2432:1 4034:1 4331:1 5812:1 5813:1 6638:3 6884:1 7151:1 7153:1 8703:1 11832:1 14507:3 14705:2 15926:1 16517:1 17870:1 17871:2 17872:1 17873:1 17874:1 17875:1 17876:1 17877:1 17878:1 #
-0.0010508878335064627661948888359689 8:2 26:1 321:1 328:1 422:1 438:5 735:1 1042:1 1077:1 1079:2 1182:1 1366:1 1461:1 1535:2 1801:1 2182:1 2631:1 3971:1 4839:1 5361:1 7638:2 11807:1 12532:1 14233:1 14234:1 14235:2 14236:2 #
-0.00094944950887369914272612136940666 4:3 7:1 16:1 28:1 33:1 45:1 57:1 61:1 139:1 176:2 238:2 239:1 246:2 265:1 268:1 275:1 278:1 317:1 321:1 333:1 346:2 457:1 471:1 516:1 519:1 534:2 551:1 594:1 674:2 694:1 875:1 918:1 948:1 1042:1 1080:1 1101:1 1403:1 1414:1 1476:1 1486:1 2162:1 2364:2 2605:1 4248:1 4595:1 4769:2 5035:2 5174:1 5175:1 6551:2 6621:1 8162:1 8600:1 12560:1 17631:1 21056:1 21057:1 21058:1 21059:1 21060:2 21061:1 21062:3 21063:1 21064:1 #
-0.0012906619505868037380696966565097 7:1 8:1 26:1 57:1 58:1 165:1 176:1 333:1 361:1 371:2 393:2 558:1 824:1 965:1 1202:2 1403:1 1807:1 2011:1 5207:1 5273:1 6861:1 7136:1 7638:1 8781:1 9955:3 9956:1 9957:1 9958:1 9959:1 9960:1 9961:1 #
-0.00097064565161018563719391716304585 7:4 8:1 24:5 37:3 47:1 57:1 99:1 126:1 138:2 145:3 148:3 149:1 200:2 203:2 271:1 319:2 437:2 438:1 575:1 604:5 631:1 634:2 669:1 889:1 940:3 992:1 1083:1 1096:3 1182:2 1266:1 1376:1 1936:1 2011:1 2088:1 2118:1 2155:2 3091:1 3241:1 3451:1 3976:1 5179:1 6401:1 6496:2 6500:1 8097:1 9058:1 10647:1 11765:2 12010:1 14494:1 15145:1 16287:1 23645:1 23646:1 23647:1 23648:1 23649:1 23650:1 23651:1 23652:1 23653:1 23654:1 23655:1 23656:1 23657:1 23658:1 #
-0.00029197665266129062397112980953295 8:1 29:1 99:1 107:1 136:1 143:1 219:1 339:1 519:1 557:1 806:1 1119:1 1154:1 2172:1 2528:1 2974:3 3460:2 3671:1 4920:1 6268:1 9952:1 10146:1 10147:4 10148:1 10149:1 10150:1 10151:1 10152:1 10153:1 #
-8.8150512739886723707037619046645e-05 7:3 23:1 37:5 116:1 123:1 132:5 138:4 156:1 159:1 190:6 224:1 293:2 325:4 334:1 519:5 574:2 582:1 631:1 890:3 918:2 971:1 976:1 1172:1 1343:6 1352:1 1354:1 1595:2 1779:3 2001:1 2242:1 2269:1 2403:1 2725:2 3179:1 3453:1 3474:1 4087:1 4412:1 4428:2 4508:1 5771:1 6198:2 6281:1 6305:1 6903:2 7603:1 10304:1 11443:2 11575:1 11757:1 12157:1 12857:1 14139:1 14140:5 14141:1 14142:1 14143:1 14144:1 14145:1 14146:1 14147:1 14148:1 14149:1 14150:1 14151:1 14152:1 14153:1 14154:1 14155:2 14156:1 14157:1 14158:1 14159:1 14160:1 14161:1 14162:2 14163:1 14164:1 14165:1 14166:1 14167:1 14168:1 14169:1 14170:1 14171:1 14172:1 14173:1 14174:1 14175:1 14176:2 14177:3 14178:1 14179:1 14180:1 14181:1 14182:1 14183:2 14184:1 #
-0.00019876339789744580741764901077318 20:2 37:1 107:1 144:1 190:1 203:6 206:3 274:2 316:1 321:1 334:1 351:1 358:2 361:1 414:11 429:2 457:1 510:1 516:1 571:2 683:2 748:1 757:4 915:1 926:1 928:1 953:1 964:1 980:1 1035:1 1155:2 1157:1 1318:1 1366:1 1534:2 1535:1 1571:1 1638:1 1748:1 1857:1 1939:2 2409:1 2450:1 2731:1 4425:1 5487:3 5495:1 7332:1 9786:1 9787:5 9788:1 9789:2 9790:3 9791:2 9792:2 9793:1 9794:1 9795:1 9796:1 9797:2 9798:1 9799:1 9800:2 9801:1 9802:1 9803:1 9804:1 9805:1 9806:1 9807:1 9808:1 9809:1 9810:1 9811:1 9812:2 9813:2 9814:1 9815:1 9816:1 9817:1 9818:1 #
-0.00080361828798231613787267368920197 8:1 25:1 99:1 108:1 138:1 155:1 268:1 505:2 556:1 946:1 1106:1 1638:1 2071:1 2853:2 2880:1 5795:3 20846:1 20847:1 20848:1 20849:1 #
-0.00059320091469102084139747299573742 1:1 7:2 8:1 104:1 129:1 136:2 156:1 325:1 363:2 516:1 1478:2 1696:1 1944:1 2115:2 4073:1 4548:1 5934:1 7151:2 7153:2 8167:1 8168:1 8169:1 8170:1 8171:1 8172:1 8173:1 8174:1 8175:1 8176:1 #
-0.00052087847025283776428161708338394 7:3 8:1 67:3 99:2 138:1 601:1 1249:2 1278:2 1355:6 1756:3 2088:1 2450:1 2597:1 2783:1 3457:3 4149:1 4848:1 6375:1 8163:4 8164:1 8165:1 8166:2 #
-0.00015990744513134184652362879131005 1:1 7:2 24:1 33:1 126:3 138:3 268:1 509:6 589:1 715:2 875:1 1016:1 1050:1 1262:1 1282:1 1283:1 1293:2 1404:6 1425:1 1644:1 2249:1 2280:1 3619:2 3980:1 4392:1 5485:1 6438:2 6960:1 8669:1 9002:4 9831:1 11055:4 14581:1 18260:1 18261:1 18262:1 18263:1 18264:1 18265:1 18266:1 18267:1 18268:1 18269:1 18270:1 18271:1 18272:1 18273:2 18274:1 18275:1 18276:1 18277:1 #
-0.00010368731266267511357918873482475 1:1 22:11 23:1 24:3 57:1 72:1 114:2 132:11 138:3 186:1 219:1 317:1 327:1 335:1 393:1 426:2 435:1 544:2 558:1 638:1 673:1 705:1 922:1 976:1 1079:1 1190:2 1237:1 1273:1 1294:1 1330:1 1345:2 1425:1 1472:1 1569:2 1618:2 1624:1 1907:1 2475:1 2820:1 2823:1 2968:1 4015:1 4149:1 4150:12 4151:2 4256:1 4764:1 5208:1 5736:1 6549:1 6951:1 7121:1 10911:1 11343:9 11350:1 12212:1 17024:3 21322:3 21323:1 21324:1 21325:1 21326:1 21327:1 21328:1 21329:4 21330:1 21331:4 21332:2 21333:1 21334:1 21335:1 21336:1 21337:1 21338:1 21339:3 21340:1 21341:1 21342:1 21343:1 21344:1 21345:1 21346:1 21347:1 #
-0.00036177663793525465700876009300657 6:2 7:3 8:2 24:6 55:7 57:1 94:3 114:4 118:1 127:1 138:1 156:1 191:1 203:2 206:3 212:1 232:3 250:1 251:1 253:1 271:3 292:1 305:11 344:2 371:2 385:3 415:3 430:1 433:1 442:1 505:2 551:3 556:1 598:3 629:1 663:1 667:1 668:1 708:1 823:1 940:4 972:2 980:1 1141:1 1223:1 1272:1 1285:1 1427:1 1428:2 1666:5 1821:1 2164:8 3088:1 3121:1 3238:1 3422:1 3980:14 3993:1 4048:1 4149:1 4340:1 5948:1 6002:2 6047:1 6539:2 6939:1 7244:1 7605:1 9227:3 11643:1 11650:6 12294:1 12823:1 12824:1 16333:1 17141:1 23032:1 28228:1 28229:1 28230:1 28231:8 28232:1 28233:1 28234:1 28235:3 28236:1 28237:1 28238:2 28239:1 28240:1 28241:3 28242:1 28243:1 28244:1 28245:1 28246:1 28247:1 28248:1 28249:2 28250:1 28251:1 28252:1 28253:1 28254:1 28255:1 28256:1 28257:1 28258:1 #
-0.00024173007813187394094041338110657 7:1 8:1 24:1 58:2 71:1 83:1 99:1 108:7 138:2 139:1 158:1 165:1 176:1 190:1 196:1 217:1 250:1 283:1 334:1 345:1 364:1 406:1 418:3 426:2 435:1 489:1 531:1 556:1 557:1 558:1 573:1 592:1 674:1 927:2 976:1 995:1 1028:3 1030:2 1249:1 1273:1 1429:3 1496:1 1649:1 1861:2 1936:1 1978:3 2076:1 2213:1 2366:2 2461:2 2557:1 2623:1 2790:1 3570:1 4215:1 4233:1 4358:1 5102:1 5329:1 5783:1 6173:3 6633:1 8496:1 10030:1 16334:2 19765:1 19766:1 19767:1 19768:1 19769:1 19770:1 19771:1 19772:1 19773:1 19774:2 19775:1 19776:1 19777:2 19778:1 19779:3 19780:1 19781:1 19782:1 19783:1 19784:1 19785:1 19786:1 19787:2 19788:2 19789:5 19790:2 19791:2 19792:1 19793:1 19794:1 19795:1 #
-0.00027523948287578350576157437679115 1:1 8:1 24:3 37:1 99:1 126:2 136:1 138:2 172:1 242:1 245:1 265:1 267:1 293:3 457:2 460:1 480:1 544:2 571:1 833:2 876:1 925:1 926:1 931:2 991:1 1054:1 1139:1 1257:1 1312:1 1507:5 1510:2 1617:1 1717:1 1740:1 1865:2 2269:2 2512:1 2774:1 3376:1 4307:1 4331:2 4384:1 4799:1 4848:1 6504:1 6560:1 7332:1 8785:1 11504:1 11988:1 14127:1 15618:1 17794:4 21559:5 21560:1 21561:1 21562:2 21563:1 21564:1 21565:1 21566:1 21567:1 21568:1 #
-0.0007859734593787953433469128938782 7:2 8:2 20:1 23:3 58:2 79:1 99:1 100:1 134:2 157:1 176:1 179:1 212:1 219:2 222:1 246:1 252:2 261:1 263:1 274:1 316:1 321:1 327:1 334:1 363:1 369:1 398:2 435:1 464:1 492:1 493:2 497:1 516:1 534:3 588:1 740:2 748:1 856:3 869:1 874:2 946:1 976:1 995:1 999:1 1071:1 1081:1 1122:1 1451:1 1472:1 1551:1 1575:1 1731:1 1738:1 1760:1 2250:1 2463:1 2465:1 2623:1 2790:1 2797:1 3030:1 3098:1 4181:1 4526:2 4779:1 5337:1 6746:2 6903:1 7229:1 9745:1 11027:1 11032:2 12297:1 18641:4 18642:1 18643:1 18644:1 18645:1 18646:1 18647:1 18648:1 18649:1 18650:1 #
-0.0048190263134562632413304683609567 1:1 39:1 136:1 555:1 931:1 3619:1 26584:1 26585:1 26586:1 #
-0.00019948373555324670292412947425476 8:1 24:7 39:1 50:1 138:3 147:2 176:2 179:5 219:1 305:2 307:1 316:1 385:6 390:1 510:1 565:1 615:3 708:1 742:1 809:1 909:7 934:1 953:1 1076:1 1090:1 1246:1 1272:1 1305:1 1418:1 1435:1 1643:1 1644:1 1645:1 1646:2 1647:1 1648:1 1649:1 1650:1 1651:1 1652:2 1653:1 1654:5 1655:1 1656:1 1657:1 1658:1 1659:1 1660:1 1661:1 1662:1 1663:1 1664:1 1665:1 1666:1 1667:1 1668:1 1669:1 1670:1 1671:1 1672:1 1673:4 1674:1 1675:1 1676:1 1677:1 1678:1 1679:1 1680:1 1681:1 1682:1 1683:1 1684:1 1685:2 1686:1 1687:1 #
-0.00097658386888211149400029764677811 6:3 8:1 136:2 186:1 190:1 199:1 212:1 219:1 259:2 265:1 285:1 323:1 345:1 352:2 365:1 408:2 409:2 412:2 413:2 414:2 415:2 489:1 543:1 603:1 682:1 688:1 821:1 994:1 1040:1 1182:3 1366:1 1541:1 2115:1 2314:1 2338:2 2366:1 2745:1 3030:1 3971:1 4383:1 4401:1 4754:1 4943:1 5764:1 6161:1 6187:1 8659:1 11050:1 14718:1 25307:1 25308:1 25309:1 25310:2 25311:2 25312:2 25313:1 25314:1 25315:1 25316:1 25317:1 25318:2 25319:1 25320:1 25321:1 25322:1 25323:1 25324:1 25325:1 25326:1 #
-0.00047049103711416023418379062093209 8:1 23:1 24:1 37:2 39:1 58:4 116:1 126:1 138:2 250:6 265:1 283:1 335:2 359:1 363:1 375:1 454:1 486:1 519:6 551:1 659:6 702:1 716:1 1096:5 1231:2 1312:2 1425:1 1661:1 2280:1 3081:1 3243:1 3742:1 3966:1 4997:1 5878:2 5887:3 5899:2 5905:1 6507:1 7436:2 7757:2 8450:1 10796:1 10835:1 14070:1 23076:1 27159:1 27160:1 27161:3 27162:1 27163:3 27164:5 27165:1 27166:1 27167:4 27168:1 27169:1 27170:2 27171:1 27172:1 27173:1 27174:1 #
-0.00057555490055650787746543972644986 6:1 8:1 33:1 65:4 99:1 138:1 179:1 219:1 271:3 285:1 297:1 305:1 371:1 494:2 551:1 761:3 762:3 867:1 907:2 1270:1 1280:1 1447:1 1692:5 1920:1 1942:1 2192:2 2441:1 3163:1 3501:3 5782:1 6047:1 12090:1 23193:2 28809:1 28810:1 28811:1 28812:1 28813:1 28814:1 28815:1 28816:1 28817:1 28818:1 28819:2 28820:2 28821:1 28822:2 28823:2 28824:2 28825:1 28826:2 #
-0.0013863154097011557569496531527875 8:1 24:2 37:2 67:1 147:1 181:1 293:2 321:1 333:1 460:1 461:2 592:1 680:1 767:1 841:1 948:1 1273:1 1319:2 1480:1 1989:1 2853:2 2946:1 3611:2 4242:1 20255:1 20256:2 20257:1 20258:1 20259:1 #
-0.00021345624878909102398356900653908 7:1 8:1 22:1 25:1 55:1 64:2 115:1 132:8 138:2 147:4 156:1 179:1 206:4 393:2 422:2 459:1 512:1 519:2 528:1 558:2 619:1 634:1 980:4 1062:10 1101:1 1269:1 1330:1 1496:1 1688:2 1779:1 2001:1 2273:1 2366:1 2492:3 3201:1 3577:1 4089:1 4584:1 5710:1 5750:1 5818:6 6336:1 6390:1 7605:1 8056:1 9514:1 16115:1 21265:1 25358:1 25359:1 25360:1 25361:6 25362:1 25363:1 25364:1 25365:3 25366:1 25367:1 25368:1 25369:1 25370:1 25371:1 25372:1 25373:1 25374:1 25375:1 25376:1 25377:1 25378:1 25379:1 #
-0.0011078089977540246397619272400448 7:1 8:2 25:1 139:1 280:6 883:1 1615:1 14058:1 25753:1 25754:1 25755:1 25756:1 25757:1 25758:1 #
-0.0014948541965884708671713498873146 4:1 8:2 16:1 37:2 138:1 283:1 318:1 319:1 398:1 539:3 821:1 918:1 946:1 1050:1 1054:1 2198:1 4427:1 4559:1 5094:3 30876:1 30877:1 #
-0.00098474250069350232304754566570182 8:2 33:1 99:2 108:3 154:1 246:1 251:3 257:1 259:2 263:3 352:2 358:2 363:2 408:3 409:2 412:2 413:2 414:3 415:2 418:1 522:1 523:2 548:1 549:1 589:1 608:1 735:1 844:1 937:1 993:1 1037:1 1106:1 1188:1 1312:1 1344:1 1750:1 1797:1 2280:2 2338:1 2425:2 3732:1 4142:1 5034:1 5037:1 5206:2 6716:1 6995:1 8452:1 13227:2 19899:1 19900:1 19901:1 19902:3 19903:1 19904:1 19905:1 19906:1 #
-0.0048190263134562632413304683609567 8:1 24:1 59:1 65:1 107:1 283:1 297:1 439:1 486:1 956:2 987:1 2021:1 12009:1 #
-0.00049994257306442725641293378657792 6:1 8:1 24:3 33:1 58:2 61:1 80:1 165:1 240:1 267:1 283:1 321:1 551:2 571:1 579:3 601:1 663:2 701:1 737:1 866:1 1054:1 1162:1 1794:1 1861:1 1898:1 2434:2 2438:1 4425:1 6537:1 7227:1 7228:1 #
-0.00013185435240408940492026768076528 8:1 19:1 20:1 24:5 43:1 47:1 50:1 58:1 67:5 138:4 165:1 172:1 179:1 186:1 195:1 219:1 235:1 240:1 295:1 327:1 363:1 382:1 385:5 388:1 397:1 426:1 435:1 516:1 526:2 534:1 544:1 573:1 579:1 679:1 698:1 701:1 704:1 770:3 864:1 946:1 976:1 993:1 1020:2 1042:1 1313:1 1638:1 1646:2 1688:4 1738:1 1848:1 1871:1 1949:3 2008:1 2192:1 2201:1 2321:1 2409:1 2425:1 2774:1 2807:1 3205:1 3744:1 3745:2 3746:1 3747:1 3748:7 3749:1 3750:1 3751:1 3752:1 3753:2 3754:2 3755:1 3756:1 3757:1 3758:1 3759:1 3760:1 3761:1 3762:1 3763:1 3764:1 3765:1 3766:1 3767:1 3768:1 3769:1 3770:1 3771:1 3772:1 3773:1 3774:1 3775:1 3776:1 3777:1 3778:1 3779:1 3780:1 3781:1 3782:1 3783:1 3784:1 3785:1 3786:1 3787:1 3788:1 3789:1 3790:1 #
-0.0013119927206797870038873510267763 7:1 8:1 18:1 24:2 65:1 316:1 428:1 444:1 673:1 697:1 850:1 919:1 1054:1 1364:1 1629:1 2029:1 2249:1 2428:1 2450:1 2596:1 2614:1 3611:1 3732:1 4916:1 5018:1 5226:1 5227:1 5516:1 6695:1 10529:1 12297:1 22752:1 25898:2 #
-0.00025088149001063628695459839512694 8:1 24:2 78:2 114:3 126:1 129:1 138:3 232:1 271:2 295:1 315:1 414:1 426:2 428:2 449:2 601:1 667:5 934:1 1231:1 1427:1 1725:1 1978:2 2045:2 2325:1 2614:1 2738:3 3563:3 3602:2 4083:1 4748:2 4984:1 5561:3 6704:5 7743:2 10404:1 12390:1 18349:2 22989:2 25207:4 28027:1 28028:1 28029:1 28030:2 28031:2 28032:1 28033:1 28034:1 28035:1 28036:1 28037:1 28038:1 28039:1 28040:1 28041:3 28042:1 28043:5 28044:1 28045:1 28046:1 28047:2 28048:1 28049:1 28050:1 #
-0.00085753379144090657610483008355118 1:1 6:1 20:2 57:1 65:1 72:5 182:1 190:1 195:1 275:1 327:1 333:1 345:2 361:1 505:1 519:2 528:1 582:1 658:1 693:1 924:1 937:1 1035:1 1038:2 1044:1 1750:1 1931:1 2088:2 2733:1 2847:1 3161:1 4340:1 4776:1 4830:1 5035:1 5174:2 5561:1 5660:1 6051:1 7397:2 8075:1 9179:1 11560:1 11561:1 11562:2 11563:1 11564:1 #
-0.00028629394043112952727286879550661 7:2 8:1 34:1 71:1 78:1 114:1 129:1 138:1 251:2 257:1 265:1 345:1 437:1 496:1 601:1 826:1 879:2 934:1 964:1 976:1 980:2 1238:1 1293:1 1355:1 1493:2 3002:3 3081:1 3426:1 3654:2 4149:1 4808:1 4996:1 5006:4 5343:3 7677:2 8458:1 12752:1 12768:1 13172:1 20597:1 25427:1 26392:1 26393:2 26394:2 26395:6 26396:2 26397:1 26398:1 26399:2 26400:2 26401:1 26402:1 26403:1 26404:1 26405:1 26406:2 26407:1 26408:1 26409:4 26410:1 26411:1 26412:1 26413:2 26414:1 26415:1 26416:1 26417:1 26418:2 26419:2 26420:1 26421:1 26422:1 26423:1 26424:2 26425:3 26426:1 26427:2 26428:2 26429:1 26430:1 #
-0.00024344624271629229563668195268633 24:1 33:1 39:1 64:2 108:1 138:2 203:2 327:1 363:1 385:1 522:1 562:2 735:1 829:1 948:1 997:2 1016:1 1021:7 1022:1 1294:1 1504:1 1639:1 1685:2 2225:4 2578:1 2721:1 3032:1 3091:1 5054:2 5422:1 5826:1 6210:1 7060:1 8001:2 9291:2 9913:3 12059:1 12060:1 12061:1 12062:3 12063:1 12064:2 12065:1 12066:1 12067:2 12068:1 12069:1 12070:1 12071:1 12072:1 12073:1 12074:1 12075:1 12076:1 12077:1 12078:1 12079:1 12080:1 12081:1 12082:1 12083:1 12084:1 12085:1 12086:1 12087:1 #
-0.00062213255825881088201950719351885 7:2 8:3 61:1 65:1 99:1 136:1 142:1 154:1 164:1 165:1 232:1 235:1 268:1 305:4 328:1 353:1 382:1 393:1 464:1 480:1 516:1 566:2 592:1 705:1 761:1 762:1 821:1 934:1 1050:1 1106:1 1216:1 1243:1 1313:1 1575:1 1583:1 1608:1 2191:2 2409:1 2532:1 2561:4 2581:1 2614:1 3353:1 3623:1 4256:3 6321:1 10278:1 23588:1 23589:1 23590:2 23591:1 23592:2 23593:1 23594:1 23595:2 23596:1 23597:1 23598:1 23599:3 23600:1 23601:1 23602:1 23603:1 23604:1 23605:1 23606:1 23607:1 #
-0.0011450575325918246980677617230526 8:1 50:4 62:1 65:1 126:1 138:1 279:1 428:1 444:5 460:1 548:1 549:1 594:1 1052:1 1646:2 1654:2 1941:1 1942:1 2741:1 3310:2 3466:1 4334:1 9952:1 10127:1 13525:1 17119:1 17120:3 17121:1 17122:1 17123:1 17124:1 17125:1 17126:1 #
-0.0018391361559072936984055024467466 1:1 24:1 67:2 70:2 71:1 138:1 157:1 287:1 352:2 385:2 594:1 634:1 701:1 903:1 907:1 971:1 1608:1 1740:1 1936:1 2581:1 3453:1 7589:1 16783:1 19982:3 19983:1 19984:1 19985:1 19986:1 19987:1 #
-0.0011371069021961280592208920481312 8:3 24:1 37:4 58:4 65:1 136:1 143:1 148:1 186:1 190:1 196:1 240:1 250:1 307:1 405:1 574:2 582:1 594:1 940:2 948:1 982:1 1042:1 1294:1 1305:2 1309:2 1319:2 1366:1 1496:1 1577:1 1628:1 1726:1 1751:1 2283:1 8669:1 17647:1 17996:1 25602:2 25603:1 25604:1 25605:1 25606:1 25607:1 25608:1 25609:1 25610:1 25611:1 #
-0.0019257388420588024326857157220161 7:1 8:1 24:2 138:1 195:1 250:1 319:1 335:1 358:3 405:1 655:1 847:1 1741:1 3618:1 4149:1 8074:1 26034:1 26035:1 26036:1 26037:1 #
-0.00045990523662387233338327829912373 1:1 8:2 65:1 94:1 136:1 138:2 203:2 206:4 246:1 259:1 282:1 333:1 334:1 363:2 459:1 487:1 775:1 826:1 848:1 910:1 940:2 972:1 1231:2 1307:2 1541:1 2088:1 2099:4 2144:1 2223:2 2618:1 3030:1 3166:2 4552:1 5206:1 5343:1 5717:1 6868:1 6955:2 6997:1 7611:1 7792:1 8249:1 9475:1 9678:1 14125:1 20429:1 23888:1 23889:1 23890:1 23891:1 23892:1 23893:1 23894:1 23895:1 23896:1 23897:1 23898:1 23899:1 23900:1 23901:1 23902:1 23903:1 #
-0.00060352753829746570799624771908043 1:1 7:1 24:1 65:1 74:1 80:1 139:1 195:1 240:1 250:1 321:1 336:1 352:1 464:1 528:1 544:1 592:1 696:1 1119:2 1202:1 1312:1 1402:1 1697:1 1898:1 2011:2 2435:3 2438:1 2439:1 2603:1 2798:1 3424:1 4016:1 4248:1 4805:2 6409:1 9070:1 9071:1 9072:1 9073:1 #
-0.00061693023946013782546349268898211 8:2 24:2 57:1 72:1 138:1 148:1 211:1 307:1 365:1 592:1 655:1 679:2 701:1 890:1 1028:1 1037:1 1575:1 1821:2 2082:1 2461:1 2734:1 3344:1 4300:1 4859:1 5092:1 6164:1 6409:1 7697:1 9182:1 9551:1 11364:1 11365:1 11366:1 11367:1 11368:1 11369:1 11370:1 11371:1 11372:2 11373:1 11374:1 #
-8.5759517193134365115568529258638e-06 7:1 8:1 24:2 55:7 72:2 99:1 118:1 143:1 219:1 279:1 319:1 334:2 442:1 493:1 511:1 533:3 634:1 655:1 663:5 742:1 889:1 940:4 993:3 1018:1 1035:1 1223:1 1272:3 1906:1 2225:8 2865:2 3135:1 3163:1 3174:1 3873:1 3980:2 5513:4 9009:4 11999:2 17173:1 18135:2 18209:2 18432:1 18851:17 23008:4 23017:3 23131:1 25841:3 28259:31 28260:1 28261:1 28262:1 28263:1 28264:6 28265:6 28266:3 28267:1 28268:1 28269:1 28270:1 28271:1 28272:1 28273:1 28274:1 28275:1 28276:1 28277:1 28278:1 28279:1 28280:1 28281:6 28282:2 28283:1 #
-0.00093812118527534897605146824162148 8:2 24:2 65:1 114:2 145:1 295:1 304:1 767:1 1040:1 1306:1 1318:1 2967:3 4150:1 4314:1 5966:1 8449:1 8450:3 #
-2.5304011424421369501292986003982e-05 8:1 71:1 104:2 138:3 271:4 433:9 491:22 506:1 714:10 771:4 875:1 988:18 1182:1 1731:1 1818:1 1991:1 2045:2 2125:6 2133:4 2134:1 2209:20 2270:2 2595:1 2950:2 3106:4 3965:1 4208:1 5305:22 5611:2 6157:14 7209:1 7211:4 8087:1 8097:3 8620:4 8787:4 9076:1 10475:1 10682:1 14673:2 14674:14 14675:14 16297:1 23310:1 24061:1 24062:1 24063:1 24064:2 24065:2 24066:2 24067:3 24068:2 24069:2 24070:2 24071:2 24072:1 24073:1 24074:1 24075:1 24076:1 24077:2 24078:2 24079:2 24080:2 24081:2 24082:2 24083:10 24084:8 24085:6 24086:1 24087:1 24088:1 24089:1 24090:1 24091:1 #
-0.00062599693756193030159257206790357 7:2 8:1 29:1 55:2 116:1 132:1 136:1 138:1 156:1 165:1 176:1 246:1 251:2 283:1 321:1 327:1 328:1 347:1 385:1 388:1 516:1 519:1 557:1 682:1 861:1 875:1 999:2 1069:1 1070:1 1105:1 1179:1 1324:2 1330:1 1370:1 1426:1 1438:1 1541:3 2823:3 3334:1 3468:1 5458:1 6743:1 7190:1 7191:1 7192:1 7193:1 7194:2 7195:1 7196:2 #
-3.7010493785092472038104893794497e-05 8:1 22:1 24:1 65:1 67:2 114:2 134:10 137:9 179:1 200:4 285:3 287:1 305:2 307:1 385:1 462:1 822:2 850:1 907:1 909:1 940:4 946:1 1028:2 1092:2 1268:1 1270:11 1273:1 1711:1 1738:1 1823:10 2319:10 2425:1 2623:1 2720:1 3082:1 3174:1 3535:1 3710:1 3942:1 4104:1 4242:1 4531:1 4916:1 6557:1 6925:1 8560:1 9938:1 11525:1 12922:2 13488:1 18155:1 21492:1 22629:10 29131:3 29132:1 29133:1 29134:1 29135:2 29136:2 29137:1 29138:1 29139:10 29140:10 29141:1 29142:3 29143:3 29144:1 29145:1 29146:1 29147:1 29148:1 29149:1 29150:1 29151:1 #
-0.00071687821334526257485014744119667 8:1 21:1 33:1 194:1 316:1 352:2 374:1 375:1 407:1 408:2 409:2 411:1 412:1 460:1 551:1 594:1 663:2 761:4 762:2 964:1 3614:1 3832:1 3995:1 4185:2 5021:1 12572:1 19242:1 21737:1 25912:1 26205:1 30319:1 30320:2 30321:1 #
-0.001032906295701609784495889066136 7:1 8:1 20:1 23:1 80:2 107:1 116:1 127:2 138:1 219:1 631:1 1251:1 1303:1 1403:1 1404:1 1877:1 2219:1 2270:1 3378:1 3742:1 4181:1 4257:1 8398:1 12946:1 14490:1 18367:1 20227:1 23709:1 23710:1 23711:1 23712:1 23713:2 23714:1 23715:1 23716:1 23717:1 23718:1 #
-0.00052048885942917576946653568370493 1:1 7:1 20:1 25:1 58:1 115:3 136:1 156:1 209:1 232:1 243:1 321:3 325:1 328:1 501:1 592:1 594:1 715:1 870:2 883:2 1077:1 1161:1 1312:1 1575:1 1740:1 1848:1 1867:2 2213:1 2387:1 2614:1 2940:1 3468:1 3501:2 3551:1 4149:1 4547:2 4975:1 6045:1 6151:1 6463:1 6735:1 6878:1 8400:1 8407:1 11941:1 16122:1 16123:1 16124:1 16125:1 16126:1 16127:1 16128:1 #
-0.0010901690658281350341379800639174 8:1 23:1 72:1 212:1 252:4 263:1 327:1 371:1 457:1 579:1 950:3 1020:1 1106:1 1223:1 1324:1 1414:1 1591:1 3118:2 4894:1 6566:1 26577:2 26578:2 26579:1 26580:1 26581:1 26582:2 26583:1 #
-0.0010475050861731411127458768461906 61:1 65:1 157:1 219:1 316:1 334:2 634:1 701:1 1139:1 1182:1 1454:1 4182:1 5502:1 5764:1 11446:1 11447:1 11448:2 11449:1 11450:1 11451:1 11452:1 11453:1 #
-0.00053327559037451364564591527184234 8:3 24:1 126:1 138:2 351:2 385:1 422:1 433:1 800:1 934:1 1461:1 1991:1 2244:1 2743:1 3288:2 3611:2 14206:1 15449:2 28066:1 29589:1 29590:1 29591:2 29592:1 29593:2 29594:1 29595:1 29596:1 29597:1 #
-0.00069072755242922121224347087320439 8:2 24:2 57:1 58:2 65:1 74:1 134:1 196:1 212:1 250:2 328:1 363:1 526:1 946:1 976:1 1044:1 1285:1 1628:1 2460:1 2546:1 2790:1 3740:1 6995:1 9114:2 9115:1 9116:1 9117:1 9118:1 9119:1 #
-0.00015676722161382146284239191835752 7:2 20:2 22:4 24:2 37:3 50:1 65:6 80:1 92:2 114:16 116:1 136:1 138:1 139:1 148:1 203:2 250:1 268:1 274:1 283:1 295:1 316:1 318:1 335:1 345:1 352:3 353:1 358:1 363:4 376:1 406:1 414:13 442:2 480:1 501:1 516:1 556:1 575:1 578:1 594:2 649:1 659:1 668:1 680:2 696:2 710:1 767:1 769:1 774:3 821:1 841:1 847:6 879:3 927:5 931:2 988:1 1019:1 1054:1 1103:1 1139:1 1272:1 1303:1 1305:1 1324:1 1397:1 1402:2 1417:1 1430:1 1493:2 1529:1 1638:1 1691:1 1696:1 1942:1 1991:1 2002:1 2171:1 2188:1 2270:1 2300:2 2343:4 2431:1 2454:1 2460:1 2463:1 2473:1 2578:1 2795:1 2926:1 2940:1 2967:3 3290:1 3301:1 3302:1 3303:1 3304:5 3305:1 3306:2 3307:1 3308:1 3309:1 3310:1 3311:2 3312:3 3313:1 3314:1 3315:1 3316:1 3317:2 3318:3 3319:2 3320:3 3321:1 3322:1 3323:2 3324:1 3325:1 3326:1 3327:1 3328:1 3329:2 3330:3 3331:3 3332:4 3333:1 3334:1 3335:1 3336:1 3337:1 3338:1 3339:1 3340:1 3341:1 3342:1 3343:1 3344:1 3345:1 3346:1 3347:1 3348:1 3349:1 3350:1 3351:1 3352:1 3353:1 3354:2 3355:1 3356:1 3357:1 3358:1 3359:1 3360:1 3361:1 3362:1 3363:1 3364:1 3365:1 3366:1 3367:1 3368:1 3369:1 3370:1 3371:1 3372:1 #
-0.00098692587181030974954887291517025 6:1 7:2 8:2 20:1 24:3 78:1 126:1 138:1 165:1 171:1 259:1 268:1 305:2 365:1 408:1 409:1 412:1 413:1 414:1 415:1 847:1 1028:1 1108:1 1303:1 1344:1 1816:1 1823:5 1841:2 2191:1 2375:3 2432:1 2790:1 3099:1 4048:1 6305:1 8388:1 13415:1 14783:1 15502:1 15503:1 15504:2 #
-0.00022091865484538848740658778524448 7:1 126:1 138:1 212:1 257:1 371:1 927:1 1020:1 1330:1 1332:1 1430:1 1605:1 1978:1 2045:1 2518:2 2838:2 3121:1 5735:2 5985:1 5986:2 5987:1 5988:1 5989:2 5990:2 5991:2 5992:1 5993:2 5994:1 5995:1 5996:2 5997:1 5998:1 5999:1 #
-0.0015114559424879837976757324113919 8:2 39:1 65:1 126:1 138:1 265:1 279:1 345:1 363:1 397:1 435:1 480:1 576:1 659:1 1184:1 1461:2 1621:1 2473:2 2789:1 3037:1 3994:1 3995:1 3996:1 3997:1 3998:1 3999:1 4000:1 4001:1 4002:1 4003:1 4004:1 4005:1 4006:1 #
-0.00093929832254372402043640644109246 7:4 8:3 24:1 25:1 65:1 134:1 139:1 268:1 283:1 305:1 315:1 328:1 406:1 508:1 556:1 714:1 740:1 980:1 1095:1 1192:1 1196:1 1566:1 1726:1 1779:1 1816:1 2758:2 3549:1 4606:1 6470:1 7584:1 9631:1 9840:1 11021:1 11022:1 11023:1 11024:1 11025:1 11026:1 11027:1 11028:3 11029:1 11030:1 11031:1 11032:1 11033:1 11034:1 11035:1 11036:1 11037:1 #
-0.00076377378463663467104971527277257 8:2 23:1 48:1 138:1 152:1 154:1 333:1 371:1 509:2 522:1 588:1 1037:1 1231:1 1290:1 1428:1 1498:2 1584:1 2333:1 2675:1 3623:1 5207:1 5210:1 5521:1 7761:1 9670:2 9914:1 9915:1 9916:1 9917:1 9918:1 9919:1 9920:1 9921:1 9922:1 9923:1 9924:1 9925:1 9926:1 9927:1 9928:1 9929:1 9930:1 9931:2 9932:1 9933:1 9934:1 9935:1 9936:1 9937:1 #
-0.0005445359324006216264479895983186 23:1 92:1 99:2 294:1 321:1 325:2 334:1 352:2 353:1 408:2 409:2 412:2 486:1 501:1 948:1 972:1 988:1 989:1 1004:1 1399:1 2338:2 2604:1 2675:1 2928:1 4016:3 4927:2 5465:1 5970:2 6157:1 9482:2 9809:2 16941:1 16942:1 16943:1 16944:1 16945:1 16946:1 16947:1 16948:1 16949:1 16950:1 16951:1 16952:1 16953:1 16954:1 16955:1 16956:1 #
-0.0016668621483349578896171472308652 8:1 274:2 293:1 334:1 363:1 371:2 433:1 506:1 674:1 936:1 1041:1 1269:1 1989:1 1991:1 2404:1 2436:1 5582:1 9819:2 9820:1 9821:1 9822:1 9823:1 #
-0.00028512017629321579183579449257024 8:2 31:1 39:1 64:2 79:1 138:2 240:1 274:1 334:1 350:1 352:1 365:1 370:1 371:1 393:2 408:1 409:1 412:1 558:2 594:1 976:1 993:1 1330:2 1486:1 1496:1 1593:1 2079:2 2316:2 2338:1 2425:1 3068:5 3615:1 3670:1 4559:2 5022:1 7306:1 11697:1 13415:1 24176:1 24730:2 24731:1 24732:3 24733:1 24734:1 24735:2 24736:1 24737:1 24738:1 24739:1 24740:1 24741:1 #
-0.0019897306616681251223432980168582 8:1 37:2 123:2 139:1 160:1 190:1 696:1 861:1 894:1 1054:1 1696:1 1697:1 1698:1 1699:1 1700:1 #
-0.0023559054383184411564367000124776 1:1 7:1 24:2 74:1 99:1 115:2 134:2 242:1 701:1 797:1 1848:1 10591:1 10592:1 10593:1 10594:1 #
-4.4462737204114128599860555901557e-05 1:1 20:1 24:1 65:1 71:1 72:1 97:1 114:1 126:1 136:1 138:2 164:2 314:2 363:1 551:2 580:1 582:1 592:3 594:2 616:1 634:1 770:1 894:1 911:6 948:1 1122:1 1418:2 1685:1 2077:1 2591:1 2769:1 3628:1 4215:1 4382:4 4925:1 5583:4 5584:1 5585:1 5586:1 5587:1 5588:1 5589:1 5590:15 5591:5 5592:4 5593:10 5594:3 5595:1 5596:1 5597:1 5598:11 5599:1 5600:5 5601:2 5602:4 5603:1 5604:1 5605:2 5606:1 5607:1 5608:1 #
-0.00069926522120033010078421487065725 7:1 116:1 136:1 171:1 217:1 246:1 316:1 463:1 549:1 738:1 822:1 841:1 1207:1 1896:1 2321:1 2417:1 2463:1 3078:1 3422:1 3477:1 4208:1 4869:2 5342:1 6532:1 10879:1 24359:1 24887:1 26382:1 26383:1 26384:2 26385:1 26386:1 26387:1 26388:1 26389:1 26390:1 26391:1 #
-0.00062582884931290476675930234407019 4:1 8:2 13:1 23:1 200:2 206:1 246:1 293:1 319:1 388:1 436:1 534:1 555:1 586:1 680:1 694:1 1071:2 1108:1 1150:1 1171:1 1305:1 1319:1 1501:1 1571:1 1970:1 2812:2 2841:1 3309:1 3688:1 4923:1 5185:1 5221:1 5366:1 6794:1 7079:1 7757:1 8616:2 8617:1 8618:1 8619:2 8620:2 8621:1 8622:1 8623:1 8624:1 8625:1 8626:1 8627:2 8628:2 8629:1 8630:1 8631:1 8632:1 8633:1 8634:1 8635:1 #
-0.0019823172973748152438100422756406 33:1 39:1 83:2 285:1 506:1 761:1 762:1 1423:1 2018:1 3746:1 4242:1 22930:1 #
-0.00021330842623309468849591985506464 8:2 39:1 138:1 186:1 352:1 363:1 407:1 409:1 534:1 934:1 1056:1 1323:1 1643:1 1779:2 2002:4 2863:9 3239:1 3673:1 4863:1 5108:1 6360:1 6409:1 8217:1 8805:1 10950:1 14275:1 14283:1 14454:2 14455:1 14456:1 14457:1 14458:1 14459:1 14460:2 14461:2 14462:1 14463:1 14464:1 14465:1 #
-0.00026834250311561701164350668413761 1:1 7:4 8:2 126:1 138:4 168:2 199:2 275:1 287:2 328:1 351:1 406:2 459:1 582:1 649:1 934:2 1323:2 1717:1 1779:1 1807:1 2419:1 3947:1 4290:1 4793:1 5958:1 6908:1 7065:1 8181:2 10080:1 11628:1 12059:1 20370:5 20371:1 20372:1 20373:1 20374:5 20375:1 20376:1 #
-0.00025651077574119886606784923799296 7:1 8:1 37:1 57:1 65:1 136:2 138:1 139:1 176:1 265:1 333:1 358:1 509:1 631:1 659:2 688:2 740:3 771:1 847:2 1050:1 1182:1 1290:1 1305:1 1478:1 1486:1 1493:1 1539:1 1661:2 1698:1 2115:1 2136:4 2326:1 2438:1 2684:1 2687:3 2840:4 4514:1 5176:1 5179:1 6939:1 7586:2 8097:2 8594:1 10710:1 12284:2 19660:1 23754:1 23755:4 23756:1 23757:1 23758:1 23759:1 23760:1 23761:1 23762:1 23763:1 23764:1 23765:1 23766:1 23767:1 23768:1 23769:1 23770:1 23771:1 23772:1 23773:1 23774:1 #
-0.00073383269300752432175855011209364 8:1 107:1 136:2 265:1 299:1 345:1 565:1 573:1 590:1 626:1 634:2 658:1 1102:1 1222:1 1751:1 2047:1 2409:1 3121:3 3161:1 3713:1 4081:1 4184:1 5207:1 5665:1 6401:1 7387:1 7605:1 12946:1 12947:1 12948:1 12949:1 12950:1 12951:1 #
-0.00042567805822792278112876029894096 8:1 39:1 107:1 132:1 172:1 242:1 321:1 510:1 515:1 527:1 548:1 549:1 634:1 712:1 769:1 875:1 952:1 964:1 1018:3 1035:1 1202:2 1324:1 1816:1 2472:1 2554:1 3050:1 3873:1 3956:2 4028:1 4852:1 5343:2 6860:1 6861:1 6862:1 6863:1 6864:3 6865:1 6866:1 6867:1 6868:1 6869:1 6870:1 6871:1 6872:1 6873:1 6874:1 6875:1 6876:1 #
-0.00055992573527446323940204297997525 8:3 23:2 24:4 37:1 107:1 233:1 268:2 275:1 307:1 333:1 335:4 351:1 516:1 571:1 659:1 688:2 701:1 875:1 937:1 948:1 1013:1 1119:2 1354:1 1493:1 1496:1 1617:1 2245:1 2586:1 2734:1 2743:1 3055:1 3543:1 4240:3 4241:2 4242:1 4243:1 4244:1 4245:1 4246:1 4247:1 4248:1 4249:1 4250:1 4251:1 4252:1 4253:1 4254:1 #
-0.00061310229339858030549181844293116 8:1 25:1 79:1 126:1 138:2 177:1 509:1 702:1 747:1 821:1 823:1 915:1 946:1 984:1 1238:1 1347:2 1476:1 2249:1 2949:1 3154:1 7951:1 13039:3 19244:1 19245:1 19246:1 19247:1 19248:1 19249:1 19250:1 19251:1 #
-0.00037758540626907805557235797699889 19:1 24:1 33:1 114:2 126:1 138:1 153:1 293:2 335:2 475:2 516:1 571:1 659:2 861:2 1251:1 1269:1 1293:1 1418:1 1881:1 2270:1 2448:2 2841:1 3121:2 3979:1 3980:1 12779:1 12934:2 12936:1 12989:1 12990:1 12991:1 12992:1 12993:1 12994:1 12995:1 12996:1 12997:1 #
-0.00021680149590848254558678176451281 7:1 126:1 138:1 165:2 272:5 293:7 325:1 339:1 377:1 433:1 458:1 509:1 534:1 822:1 977:1 1050:1 1344:1 1430:1 2136:2 2454:1 2684:1 2687:3 3334:2 4508:2 5110:1 5179:1 5465:1 6038:2 7229:1 8059:3 10675:1 11500:1 12440:1 12877:1 12880:2 14550:1 18055:1 22497:2 22498:1 22499:1 22500:1 22501:1 22502:1 22503:1 22504:1 22505:1 22506:1 22507:2 22508:2 22509:1 22510:1 22511:1 22512:1 22513:1 22514:1 22515:1 22516:1 22517:1 22518:1 22519:1 22520:1 #
-6.2086215696718910364917953792485e-05 1:1 6:1 7:2 8:1 114:2 126:1 133:3 138:1 163:1 188:1 219:1 246:1 262:2 274:1 283:1 316:1 319:3 321:1 382:1 393:1 433:5 435:1 480:1 493:1 509:2 561:3 562:1 739:1 821:1 1238:1 1244:1 1269:1 1280:1 1299:1 1426:1 1496:1 1511:2 1512:1 2181:1 2308:1 2441:1 2463:1 2473:1 2764:1 3938:1 4135:1 6426:1 9104:2 12226:1 17957:1 18920:7 21236:1 21276:2 26460:1 29958:3 29959:1 29960:11 29961:2 29962:1 29963:1 29964:2 29965:2 29966:9 29967:1 29968:2 29969:1 29970:1 29971:1 29972:1 29973:1 29974:1 29975:1 29976:1 29977:1 29978:1 29979:1 29980:1 29981:1 #
-0.00014941389805257977068178587565228 7:2 8:1 126:1 136:2 138:1 179:1 385:1 406:1 501:1 531:1 558:1 565:1 693:1 697:1 702:1 964:1 1023:2 1027:2 1182:1 1272:1 1283:1 1330:2 1345:2 1496:1 2209:5 2211:1 2225:3 2366:2 3121:1 4421:1 4999:1 5672:9 6939:1 7210:1 7214:1 7228:2 10267:2 10605:1 11690:2 19376:2 19377:2 19378:1 19379:1 19380:1 19381:1 19382:4 19383:2 19384:1 19385:1 19386:1 19387:1 19388:1 19389:1 19390:1 19391:1 19392:1 19393:1 19394:1 19395:1 19396:1 19397:1 19398:1 19399:2 19400:1 19401:1 19402:1 19403:1 19404:1 #
-0.00078664123794115899633572208671239 37:1 114:1 136:1 316:2 327:1 345:1 351:1 1015:1 1222:1 2273:1 2404:1 2425:1 2668:2 2769:1 2991:1 3056:1 4349:1 4552:1 5006:1 5035:1 8250:1 8636:1 8637:1 8638:1 8639:1 8640:1 8641:1 #
-0.00067083048924053434187292355161958 7:1 8:1 99:1 136:2 139:1 176:1 414:1 1305:1 1630:2 2115:1 4934:1 5174:2 5175:1 6099:2 7178:2 8529:1 9677:3 10223:1 16616:2 16617:1 16618:2 16619:1 16620:1 16621:1 16622:1 #
-0.00013863147842455659846869209239628 18:1 39:3 61:1 160:1 307:1 321:1 328:1 548:1 556:2 573:1 999:1 1148:1 1312:1 1374:1 1585:1 1748:2 1756:3 1877:1 2172:1 2299:2 2409:1 2463:1 3205:1 3346:2 3492:1 3660:1 4258:1 5858:2 5986:1 6157:1 6272:1 6289:3 7187:2 7706:1 9533:1 10276:1 11050:2 15124:1 20643:1 20644:1 20645:1 20646:1 20647:1 20648:1 20649:1 20650:1 20651:2 20652:1 20653:1 20654:1 20655:1 20656:1 20657:1 20658:1 #
-0.00040556752321833987144639177557792 8:1 20:1 91:2 99:1 172:1 265:1 285:1 299:1 316:1 321:1 345:1 406:2 449:1 516:1 522:1 841:1 871:1 875:1 876:1 883:1 1064:1 1283:1 1486:1 1507:1 1517:1 1638:1 1643:1 1740:1 1820:1 2308:1 2461:1 3790:1 4810:1 5508:1 6157:1 6467:2 6524:1 6691:1 7097:2 7122:1 7407:1 7408:1 7409:1 7410:1 7411:1 7412:2 7413:1 7414:1 7415:1 7416:2 7417:1 7418:1 7419:1 7420:1 7421:2 7422:1 7423:1 7424:1 #
-0.00016018928384029936201442267940109 1:1 7:4 8:1 25:1 37:1 51:1 219:2 257:7 406:1 548:1 549:1 659:3 735:2 872:1 1498:3 1500:1 1844:1 1877:1 2088:1 2227:1 2741:1 3260:2 5458:1 8458:1 9952:1 10509:1 10510:1 10511:4 10512:2 10513:2 10514:1 10515:1 10516:1 10517:1 #
-0.00038424826779281327218326658190506 7:1 8:1 39:1 71:1 138:1 393:1 480:1 1238:1 1623:1 2255:1 8583:1 17534:1 17535:1 17536:1 17537:1 17538:1 17539:2 17540:4 17541:1 17542:4 17543:2 17544:1 17545:1 17546:1 #
-0.00066876620680637378392463521237232 24:1 71:3 141:1 157:1 232:1 240:1 251:1 340:2 352:1 358:1 496:1 571:1 655:1 693:1 702:1 992:1 1184:1 1749:1 2011:1 2115:1 2795:1 4859:1 5436:2 7230:1 8452:1 11581:1 17784:1 17785:1 #
-0.000375043918877441889107166028694 136:1 138:2 263:1 265:1 880:1 1283:1 2673:2 2698:1 5182:2 5436:4 7163:1 10304:1 14315:1 14664:2 22336:1 22337:1 22338:2 22339:1 22340:2 22341:1 22342:1 #
-0.0011539855265325137199244887042937 8:1 39:1 99:1 136:1 219:1 770:1 1122:1 1290:1 1949:1 2144:1 2668:1 2823:1 2847:1 6518:1 9379:1 11732:1 11755:1 11756:1 11757:1 11758:1 11759:1 #
-0.00072789992373410163876285006168132 8:1 67:1 114:1 136:1 138:1 287:2 365:1 435:1 590:1 594:1 619:2 1142:1 1273:1 1312:1 3091:1 3163:1 4248:1 5022:1 5536:1 6266:1 7046:1 7112:1 24767:2 24768:1 24769:1 #
-0.00019796619828336473848225118832289 1:1 24:1 58:1 65:1 116:1 126:1 136:1 138:1 157:1 191:1 200:2 251:1 271:3 333:1 355:1 699:1 714:2 738:1 1096:2 1182:1 1231:2 1261:1 1490:1 1691:1 2113:1 2115:2 2116:1 2117:1 3166:1 4207:1 5174:1 5764:1 7375:1 7387:1 7578:1 8181:2 8759:1 11628:1 12149:1 22362:2 22983:1 25426:3 25427:1 25428:1 25429:1 25430:1 25431:1 25432:1 25433:2 25434:1 #
-0.0006210894597711384950561308571082 8:1 126:1 138:1 275:1 355:1 571:1 686:1 993:1 1293:1 2209:1 2734:1 4526:2 5471:3 6401:1 6551:1 8064:1 20840:1 20841:1 20842:1 20843:1 20844:1 20845:1 #
-0.00027856895563603447773387555841396 107:1 159:2 190:3 283:1 397:2 1038:2 2404:1 4486:1 5212:1 5355:1 11838:1 18064:2 21894:1 23171:1 23172:1 23173:1 #
-0.00012256559435934333431549025927865 7:1 23:1 39:1 114:1 138:2 272:1 274:1 316:1 318:1 363:1 365:1 385:1 422:1 525:1 534:1 556:1 576:1 594:1 927:1 940:2 1089:3 1269:1 1551:1 1568:1 1691:1 1974:1 1978:1 2841:2 2919:1 2972:1 2982:1 3163:1 3309:1 3654:1 5532:2 5622:1 12226:2 13401:2 13750:1 14071:1 14072:2 14073:1 14074:1 14075:1 14076:1 14077:1 14078:1 14079:1 14080:1 14081:1 14082:1 14083:1 14084:1 14085:1 #
-0.00040747767786721554063300576586926 1:1 8:1 23:1 99:1 138:1 144:1 263:1 335:1 350:1 393:2 489:1 559:3 649:1 927:2 1426:1 1593:1 1622:1 2623:1 5023:2 5121:1 5122:1 5123:1 5124:1 5125:1 5126:1 5127:1 5128:1 #
-0.00057210251904496228943231006525139 8:1 71:1 259:2 281:1 351:1 352:1 408:2 409:2 412:2 413:2 414:2 415:2 435:1 634:1 823:1 847:1 946:1 1312:1 2314:1 2338:2 3372:1 4340:1 5080:5 5433:1 7089:1 13645:1 #
-0.00011899826686221070268581478934777 1:1 91:1 136:1 139:2 145:2 149:1 154:1 176:2 287:1 355:1 363:1 570:2 573:1 695:1 889:1 1018:6 1083:1 1190:1 1366:1 1493:1 1649:2 1907:1 2172:1 2434:2 2439:1 2623:1 2790:1 3617:1 3971:1 4142:1 4242:1 4925:1 5292:2 6184:2 6185:3 6186:1 6187:1 6188:2 6189:1 6190:1 6191:1 6192:1 #
-0.00010455787766329941313857981866065 8:2 253:1 351:3 438:1 499:1 510:2 544:1 909:4 971:2 976:2 1269:1 1312:1 1751:1 2614:1 3121:3 3174:1 4914:1 5310:2 6109:1 18358:1 22801:1 22802:3 22803:3 22804:2 22805:1 #
-6.900658308715129900939855289721e-05 7:2 37:2 116:1 121:3 138:1 200:2 245:1 405:1 505:1 506:1 873:1 927:1 1238:1 1696:2 1978:1 2088:2 2361:1 2798:1 3174:1 3183:1 3973:1 4207:1 4552:2 4553:1 6560:1 7429:1 7430:1 7431:1 7432:1 7433:2 7434:1 7435:1 7436:1 7437:1 7438:1 7439:1 7440:1 7441:1 7442:1 #
-0.00012195397605097247012775896202186 7:1 8:3 23:1 70:1 80:1 85:1 91:1 104:1 116:1 138:2 157:1 232:1 268:1 271:1 278:1 283:1 344:1 351:1 371:1 408:4 556:1 557:2 592:1 674:1 714:1 875:1 876:1 927:1 1114:1 1139:1 1184:1 1303:2 1324:1 1330:2 1332:1 1410:13 1414:1 1482:2 1527:2 1567:1 1601:2 1670:3 2209:1 2409:2 2419:2 2578:2 2982:1 3149:1 3570:1 5516:2 6837:1 8175:1 9824:1 10417:1 10554:2 10555:1 10556:2 10557:2 10558:2 10559:1 10560:1 10561:2 10562:1 10563:1 10564:1 10565:2 10566:1 10567:2 10568:1 10569:1 10570:2 10571:1 10572:1 10573:1 10574:1 10575:3 10576:1 10577:1 10578:1 10579:1 10580:1 #
-0.00034250109020191363924309757571507 7:1 8:2 89:2 118:2 156:1 186:2 203:2 206:4 361:3 380:1 590:1 655:1 874:1 937:1 964:1 980:1 1290:2 1418:3 1482:4 1498:1 1989:2 2225:2 2270:4 2290:1 2387:1 2425:1 2438:1 2613:2 3169:2 3310:1 4707:1 9572:1 12094:4 19321:1 19322:1 19323:2 19324:1 19325:1 19326:1 19327:1 19328:1 19329:1 19330:1 19331:1 #
-0.00028421678556237838907810866473369 8:1 78:2 176:1 293:4 321:1 334:1 580:1 634:1 1094:1 1936:1 2902:1 3118:1 4215:1 5567:2 5603:1 11462:8 11656:1 27346:1 27347:2 27348:1 27349:1 #
-0.00050798188437388435995806235112582 7:1 8:2 67:2 71:1 138:1 199:1 294:1 388:1 433:3 838:1 946:1 1427:2 1799:1 1942:2 2404:1 2746:1 5430:1 5739:1 6885:1 7661:1 8790:1 9366:1 9482:1 26122:2 27429:1 27430:2 27431:1 27432:1 27433:1 27434:1 27435:1 27436:1 27437:1 27438:1 #
-0.00013036369259076762664069371044917 7:1 8:1 67:1 70:3 104:1 138:1 251:1 272:1 307:2 371:2 393:1 634:2 915:1 980:1 1243:1 1303:2 1312:1 1330:1 1590:1 1779:1 1896:1 2672:1 2820:1 2902:2 2934:3 3078:4 3118:1 3430:1 3471:4 4383:2 5563:2 5603:2 6047:1 6539:2 6762:1 7089:1 8699:1 9191:1 9192:4 9193:1 9195:1 9196:1 9197:2 9198:1 16171:1 17066:1 23249:2 23250:1 23251:1 23252:2 23253:2 23254:2 23255:1 23256:1 23257:1 23258:1 23259:1 23260:1 #
-0.00050152257224573280110918593877045 7:1 23:1 39:1 141:1 809:1 909:3 960:1 1061:1 1108:2 1303:2 1804:2 1816:1 1898:2 4514:1 9109:1 10907:1 10908:2 10909:1 #
-5.5154798929749906076513976671549e-05 7:1 8:1 24:3 59:2 132:18 138:3 176:1 179:2 219:1 222:1 223:1 232:1 242:1 250:5 293:1 295:1 305:3 319:1 321:1 333:3 351:2 408:1 442:6 565:2 591:1 592:5 634:1 702:1 803:1 869:1 928:2 976:1 1090:1 1243:1 1251:1 1312:1 1324:1 1403:2 1504:1 1885:1 2048:1 2463:1 2614:1 2908:1 2940:1 3154:5 3201:4 3732:1 3792:1 3794:2 3876:1 4149:1 4215:2 4242:2 4258:1 4830:2 5818:6 6002:1 6464:7 6868:2 6955:3 6956:4 7239:4 7647:1 7648:1 13282:2 13304:5 14694:1 17961:1 25524:6 25525:1 25526:1 25527:1 25528:1 25529:2 25530:2 25531:2 25532:1 25533:1 25534:1 25535:1 25536:1 25537:1 25538:2 25539:2 25540:2 25541:2 25542:1 25543:1 25544:2 25545:1 25546:1 25547:1 25548:1 25549:1 25550:1 25551:1 25552:1 25553:1 25554:1 25555:1 25556:1 25557:1 25558:1 25559:1 #
-0.00025186660590837875841122017739337 8:2 126:1 138:1 328:1 363:1 462:1 489:1 556:2 562:6 927:1 1016:1 1214:1 1238:1 1355:1 1458:1 1595:1 2249:1 2623:1 2798:1 2840:1 3547:1 4561:3 4586:3 5125:1 14854:1 19056:1 19057:1 19058:1 19059:1 19060:1 19061:1 19062:1 19063:1 19064:1 19065:1 19066:1 19067:3 19068:1 #
-0.00095665965558042989798359645448045 67:2 351:1 426:1 544:1 594:2 875:1 2077:1 3404:1 5555:1 6525:1 6526:2 6527:1 6528:1 #
-0.00032379638650121737126694188013687 8:2 99:1 139:1 219:1 221:1 246:1 321:1 366:1 435:1 475:1 668:1 1243:1 1273:1 1622:1 2487:1 3050:1 3429:1 5334:2 5585:2 7375:1 7492:1 9007:1 11474:1 11700:1 11701:1 11702:2 11703:1 11704:1 11705:1 11706:1 11707:2 11708:1 11709:1 11710:1 11711:1 11712:1 11713:1 11714:1 11715:1 #
-0.00073885385560057013822760074717166 7:2 62:1 516:1 555:1 2169:1 3196:1 3941:1 3942:1 3943:1 3944:1 3945:1 3946:1 3947:1 3948:1 3949:1 3950:1 3951:1 3952:1 3953:1 #
-0.00028205507298096927238512110491797 6:1 7:1 8:1 23:1 24:3 83:1 114:2 156:1 265:1 285:1 305:2 334:1 344:1 350:1 380:1 457:1 551:1 573:1 619:1 626:1 634:1 655:1 656:1 667:1 696:1 702:1 828:1 940:4 1216:1 1294:1 1504:2 1921:1 3196:1 3602:2 3604:1 3720:1 3947:1 3958:2 17623:2 17924:1 19949:1 21051:1 26566:1 26567:1 26568:1 26569:2 26570:1 26571:1 26572:1 26573:1 26574:2 26575:1 26576:1 #
-0.00010072304228844016946945588708573 7:1 138:4 165:2 175:1 218:1 315:1 321:3 333:1 385:1 417:1 435:1 459:1 512:2 608:2 694:1 700:1 798:1 839:1 871:1 1139:2 1182:1 1490:3 1619:1 1644:1 1778:4 1779:3 2241:6 2290:1 2331:1 2463:1 2623:1 2631:1 2725:3 2940:1 3150:1 3166:1 3179:1 3460:1 3496:1 4335:1 4799:1 5026:1 5119:1 5129:1 5361:1 6305:1 6756:1 8586:5 8590:1 9143:2 11989:1 11990:1 11991:1 11992:1 11993:1 11994:2 11995:1 11996:1 11997:2 11998:1 11999:1 12000:1 12001:1 12002:1 12003:1 12004:2 12005:2 12006:1 12007:1 12008:1 #
-0.00058713997085353339389079962984397 7:1 8:1 25:1 199:1 408:1 505:1 735:1 770:1 997:1 1942:1 1998:1 1999:1 2000:2 2001:1 2002:1 2003:1 2004:1 2005:1 2006:2 2007:1 2008:1 2009:1 2010:2 #
-0.00084591640402271843501846859680882 8:1 39:1 65:1 139:1 191:1 275:1 295:1 314:1 867:1 1161:1 1312:2 3156:1 5102:1 6172:2 7112:1 7113:1 #
-0.00038921923455770615889875996273872 7:6 8:1 138:1 268:1 1238:2 1427:1 1725:1 2225:1 2438:3 3446:1 6426:1 14603:3 16216:1 18436:1 21953:1 26587:1 26588:2 26589:2 26590:1 26591:1 26592:1 26593:1 26594:1 26595:1 #
-3.3359181260892556810174203185682e-05 7:1 8:1 24:3 37:11 71:1 123:1 134:3 138:2 190:5 232:1 325:1 327:1 333:1 351:1 377:2 384:1 385:7 516:1 519:2 574:1 594:1 833:1 1251:1 1345:4 1354:4 1428:1 1496:4 1513:1 1564:4 1750:1 1801:1 1865:3 2002:1 2047:3 2269:2 2325:1 2491:1 2949:1 3098:2 3121:4 3180:1 3451:1 4150:2 4426:1 4427:1 4428:1 4429:1 4430:1 4431:1 4432:1 4433:1 4434:1 4435:1 4436:1 4437:1 4438:1 4439:2 4440:1 4441:1 4442:1 4443:1 4444:1 4445:2 4446:1 4447:1 4448:8 4449:1 4450:1 4451:3 4452:5 4453:1 4454:1 4455:2 4456:1 4457:1 4458:1 4459:1 4460:3 4461:1 4462:2 4463:1 4464:1 4465:1 4466:1 4467:1 4468:1 #
-0.00018631651716691428367911331775986 24:2 65:1 67:2 72:4 99:1 138:4 151:1 219:1 253:2 259:1 295:1 363:1 371:4 385:2 428:8 516:1 582:1 634:1 702:1 714:1 770:1 797:4 934:1 966:2 976:1 1306:5 1418:3 1717:2 1942:1 2325:2 2515:10 2593:3 3166:1 3673:1 4978:1 6177:1 12781:1 14186:1 26541:1 26542:1 26543:2 #
-0.00056431526594289467980286589821048 8:1 24:1 39:1 74:2 250:1 279:1 305:2 459:1 674:1 841:1 857:1 1106:2 1251:1 1661:3 4799:1 5616:1 5617:1 5618:1 5619:1 5620:1 #
-0.00062553820973855890456849504488446 8:1 295:1 321:1 361:1 397:1 435:1 854:1 1070:1 1273:1 1568:2 1714:1 2519:1 2638:1 2669:1 7762:1 11736:1 23126:1 23127:1 23128:1 #
-0.00013970067776421902323510937371509 7:3 8:2 24:1 65:1 70:1 104:1 134:1 138:2 172:1 283:1 374:1 444:3 519:2 696:1 781:1 872:1 946:1 1238:1 1269:2 1278:5 1330:1 1332:1 1347:1 1628:2 2001:2 2495:2 2581:1 2993:1 3047:1 3322:2 3594:1 4148:1 4149:2 4152:2 5639:1 13120:1 13196:2 14449:2 22228:1 22229:1 22230:1 22231:3 22232:1 22233:1 22234:1 22235:2 22236:2 22237:1 22238:1 #
-0.00019210205474369098309871117802317 7:1 8:1 24:3 126:1 138:2 157:2 242:3 385:4 415:2 505:1 542:1 579:1 655:1 705:2 976:1 1163:1 1240:1 1414:2 1654:3 1741:1 1991:2 2798:1 3078:1 6057:1 6058:1 6059:1 6060:1 6061:1 6062:1 6063:1 6064:1 6065:1 6066:1 6067:1 6068:1 6069:1 6070:1 6071:1 6072:1 6073:1 6074:1 6075:3 6076:1 6077:1 6078:1 6079:1 6080:1 6081:2 6082:2 6083:1 6084:1 6085:2 6086:1 6087:2 6088:1 6089:1 6090:1 6091:1 6092:1 #
-9.7048776850552551358902730882505e-05 29:1 92:1 100:1 139:2 148:1 158:1 240:1 321:1 335:1 363:1 449:1 454:1 558:1 920:1 1251:1 1414:1 1620:4 1740:1 2089:1 2219:2 2954:3 3309:1 3809:2 4330:1 4550:1 5370:1 5765:1 6289:1 6746:1 6868:2 7414:1 8522:1 9878:1 9879:2 9880:1 9881:1 9882:2 9883:2 9884:1 9885:1 9886:1 9887:1 9888:1 9889:1 9890:1 9891:1 #
