SVM-light Version V6.02
0 # kernel type
3 # kernel parameter -d 
1 # kernel parameter -g 
1 # kernel parameter -s 
1 # kernel parameter -r 
empty# kernel parameter -u 
29914 # highest feature index 
1555 # number of training documents 
319 # number of support vectors plus 1 
1.0392622 # threshold b, each following line is a SV (starting with alpha*y)
-8.5673285329708879945291577495681e-05 2:6 31:1 43:1 56:3 135:1 276:1 316:3 366:1 392:7 393:2 397:1 420:1 574:1 599:3 701:1 750:2 787:1 1224:2 1376:1 1383:1 1556:1 1681:1 1710:1 1721:1 2020:1 2408:3 2537:1 2544:1 2637:2 2737:1 3670:4 3859:1 4332:1 5454:1 5832:1 6279:2 6633:8 7080:1 8333:2 9797:1 13437:2 17524:1 21037:2 21038:1 21039:2 21040:5 21041:1 21042:1 21043:2 21044:2 21045:1 21046:1 21047:1 21048:1 21049:1 21050:1 21051:1 21052:1 21053:2 21054:1 21055:2 21056:1 21057:1 21058:1 21059:1 21060:1 21061:1 21062:1 21063:1 21064:2 21065:1 21066:1 21067:1 21068:1 21069:1 #
-0.00052982001933576830347838448886932 19:1 43:1 140:1 146:1 228:2 257:1 260:1 546:2 792:1 860:1 920:1 1971:1 2036:1 4533:1 5531:7 12954:2 17034:1 17845:1 17846:1 17847:2 17848:1 17849:1 17850:1 #
-0.00061496393845281095875965338137803 2:1 19:1 31:1 40:1 43:1 47:1 68:2 126:1 140:1 148:1 158:1 189:2 420:1 623:1 1206:2 1286:3 1392:1 1806:1 2805:1 2850:1 2877:1 3160:1 9578:1 10757:1 15160:1 16060:2 24087:4 24088:1 24089:4 24090:1 24091:1 24092:1 24093:1 24094:1 24095:1 24096:2 24097:2 24098:3 24099:1 #
-0.00043158704312336337340083591840312 65:3 70:2 107:2 218:1 232:3 289:1 346:1 366:1 441:1 475:1 794:1 1272:1 1968:1 2356:1 3463:1 4240:3 4494:1 5940:1 6008:1 9957:2 10163:1 10164:1 10165:1 10166:1 10167:1 #
-0.0014264751982597180697542871286032 2:1 6:1 12:1 31:1 53:1 105:1 215:1 218:1 495:1 552:1 907:1 1059:2 1115:1 1447:1 5192:1 5946:2 6081:1 6543:1 7417:2 7418:3 7419:1 7420:2 7421:1 7422:1 7423:1 7424:1 7425:1 #
0.00447123780196511874662768093458 1:1 2:1 3:1 4:1 5:1 6:1 7:1 8:1 9:1 10:1 11:1 12:2 13:1 14:1 15:1 16:1 17:1 18:1 19:1 20:1 21:2 22:2 23:2 24:2 25:1 26:1 27:1 28:1 29:1 30:1 #
0.00447123780196511874662768093458 2:2 31:2 32:1 33:1 34:1 35:3 36:1 37:1 38:1 39:1 40:3 41:1 42:1 43:2 44:1 45:1 46:2 47:1 48:1 49:1 50:1 51:3 52:1 #
0.00447123780196511874662768093458 5:2 7:1 53:1 54:2 55:3 56:3 57:1 58:1 59:2 60:2 61:2 62:1 63:1 #
0.00447123780196511874662768093458 5:1 6:2 31:1 43:2 45:5 64:1 65:2 66:1 67:5 68:1 69:2 70:2 71:2 72:1 73:2 74:1 75:1 76:3 77:1 78:1 79:2 80:2 81:1 82:6 83:2 84:1 85:1 86:1 87:1 88:2 89:1 90:1 91:1 92:1 93:1 94:1 95:1 96:1 97:1 98:1 99:1 100:1 101:1 102:1 103:1 104:1 105:1 106:1 #
0.00447123780196511874662768093458 5:1 6:3 20:1 21:2 22:2 24:2 25:1 26:1 27:1 28:1 29:1 31:2 47:1 87:2 103:1 107:2 108:1 109:1 110:1 111:1 112:1 113:1 114:1 115:2 116:1 117:1 118:1 119:1 120:1 121:1 122:1 123:1 124:1 125:1 126:1 127:1 128:1 129:1 130:2 131:1 132:1 133:1 #
-0.00046790919040383817210926320484532 2:1 12:4 31:3 43:1 102:1 115:2 118:1 153:1 170:1 215:1 289:3 309:1 341:1 503:1 529:1 661:1 743:1 775:2 833:1 1029:1 1206:3 1456:1 1469:1 1938:1 2033:1 2348:1 3182:2 3694:1 4367:2 5042:1 5211:1 5259:1 5873:1 5876:1 6031:2 8535:1 8734:1 14826:1 19471:1 20478:1 20596:1 22057:4 23444:2 27064:4 27065:1 27066:1 27067:1 27068:1 27069:1 27070:1 27071:9 27072:1 27073:1 27074:1 27075:1 27076:1 27077:1 27078:1 27079:1 27080:1 27081:1 27082:1 27083:1 27084:1 27085:1 27086:1 27087:1 27088:1 27089:1 27090:1 27091:2 27092:1 27093:1 27094:1 27095:1 27096:1 #
-0.00056509953215375032398865018379297 31:2 40:1 43:2 44:1 68:2 109:2 118:1 127:1 197:1 220:4 241:2 332:1 373:1 420:2 441:2 484:1 511:1 524:4 552:1 613:2 672:1 674:1 703:2 726:3 753:1 792:4 797:3 798:2 888:2 909:7 912:2 917:1 926:1 928:3 953:4 1085:1 1179:1 1185:4 1240:3 1442:1 1501:1 1613:4 1731:1 1770:1 1982:1 2082:1 2088:1 2178:1 2377:1 2420:1 2462:6 2465:1 3403:2 3550:2 3570:1 3834:3 4162:1 5205:1 5516:2 7099:2 7115:1 7955:1 8823:1 9591:1 9592:4 9593:1 9594:1 9595:2 9596:1 9597:1 9598:1 9599:1 9600:1 9601:1 9602:1 9603:1 9604:2 9605:2 9606:4 9607:2 9608:2 9609:2 9610:1 9611:1 9612:1 9613:1 9614:1 9615:1 9616:1 9617:1 9618:3 9619:1 #
-0.00022243066639015385667701996119661 2:1 12:4 20:1 21:2 22:2 24:2 25:1 26:1 43:5 44:1 46:3 54:1 82:38 108:1 118:4 126:1 138:1 148:1 161:2 170:1 199:36 218:1 248:4 276:5 309:1 328:1 361:1 387:1 392:2 397:6 420:1 423:1 440:1 441:1 451:1 503:1 552:1 578:1 628:1 639:1 660:1 671:1 706:2 740:1 758:1 774:1 833:1 898:1 907:1 999:3 1029:1 1147:2 1238:4 1254:1 1299:1 1328:1 1385:1 1469:2 1515:1 1523:5 1524:3 1554:2 1663:1 1711:1 1720:1 1746:5 1839:1 1938:1 1962:1 1980:4 2059:4 2179:1 2368:1 2465:1 2715:2 2770:1 2823:3 2983:1 3182:1 3235:1 3467:1 3626:1 3700:1 3865:2 3971:1 5065:1 5612:7 5675:1 6330:1 6331:1 6761:1 6889:1 6972:1 7426:2 8300:3 8598:1 8696:1 8893:1 9100:1 11187:1 11686:1 11891:3 13348:1 14496:1 14501:2 16469:1 16475:1 16511:1 17021:2 17384:1 18907:1 22172:1 22977:1 26093:1 26704:1 26775:2 28802:2 29202:1 29203:1 29204:1 29205:1 29206:3 29207:1 29208:1 29209:1 29210:1 29211:3 29212:1 29213:1 29214:1 29215:1 29216:1 29217:1 29218:1 29219:1 29220:1 29221:1 29222:1 29223:1 29224:1 29225:2 29226:1 29227:1 29228:1 29229:1 29230:1 29231:1 29232:2 29233:1 29234:1 29235:2 29236:1 29237:1 29238:1 29239:2 29240:1 29241:1 29242:1 29243:1 29244:1 29245:3 29246:1 29247:1 29248:1 29249:1 29250:1 29251:1 29252:1 29253:1 29254:2 29255:1 29256:2 29257:1 29258:1 29259:1 29260:1 29261:1 29262:1 29263:1 29264:1 29265:1 29266:1 29267:1 29268:1 29269:1 29270:1 29271:1 29272:1 29273:1 29274:1 29275:1 29276:1 29277:1 29278:1 29279:1 29280:1 29281:1 29282:1 29283:1 29284:1 29285:1 29286:1 29287:1 29288:1 29289:1 29290:1 29291:1 29292:1 29293:1 29294:1 29295:1 29296:1 29297:1 29298:1 29299:2 29300:1 29301:1 #
-0.0016930211452282207910957634311444 21:1 22:1 24:1 26:1 27:1 28:1 29:1 43:2 55:1 126:1 214:1 277:2 288:1 295:1 420:2 430:1 587:1 610:1 701:1 707:1 708:1 909:3 912:1 913:7 928:1 930:3 985:1 1053:1 1224:1 1282:2 1613:2 1770:1 1884:1 2004:1 2184:1 2713:1 3057:1 3074:1 3601:1 3749:1 3861:1 5569:1 5614:1 5615:1 5616:1 5617:3 5618:1 5619:1 5620:1 5621:1 5622:1 5623:1 5624:2 5625:1 5626:1 5627:1 5628:1 5629:1 5630:1 5631:1 5632:1 5633:1 5634:1 #
0.00447123780196511874662768093458 19:1 31:2 43:1 44:1 60:1 118:4 170:1 175:1 203:1 220:1 235:2 345:2 382:2 420:1 429:1 441:1 672:2 769:1 773:1 795:1 937:1 1021:6 1151:1 1152:1 1153:2 1154:1 1155:1 1156:1 1157:1 1158:1 1159:1 1160:1 1161:1 1162:1 1163:2 1164:2 1165:2 1166:2 1167:1 1168:2 1169:2 1170:2 1171:2 1172:3 1173:2 1174:1 1175:2 1176:1 1177:1 1178:1 #
0.00447123780196511874662768093458 2:1 31:1 106:1 170:2 201:1 362:1 553:1 560:1 562:1 574:1 769:1 770:1 771:1 772:1 773:1 774:1 #
0.00447123780196511874662768093458 60:1 324:1 423:1 444:1 447:1 768:1 1197:1 1198:1 1199:1 1200:2 1201:2 1202:3 1203:1 1204:2 1205:1 1206:1 1207:1 1208:1 1209:1 1210:1 1211:1 1212:1 1213:1 #
0.00447123780196511874662768093458 31:1 44:1 47:1 60:1 93:2 108:1 126:1 140:1 148:1 166:1 170:1 201:3 319:1 320:1 321:1 322:1 323:1 324:1 325:3 326:2 327:1 328:2 329:1 330:1 331:1 332:1 333:1 334:1 335:1 336:1 337:1 338:2 339:3 340:1 341:1 342:1 343:1 344:1 345:1 346:1 347:1 #
-0.00447123780196511874662768093458 2:1 19:2 20:5 21:10 22:10 24:10 25:5 26:5 27:5 28:5 29:5 30:5 31:2 64:1 140:1 170:2 220:1 271:1 384:1 414:1 617:1 753:1 1161:1 1205:1 1711:1 1712:1 2017:2 2706:2 3101:1 4854:2 5550:1 10162:2 10632:1 11212:1 15924:2 29759:2 29760:2 29761:2 29762:1 29763:1 29764:2 #
-0.0041307844541887267508784020719759 19:3 20:3 21:6 22:6 24:6 25:3 26:3 31:1 43:3 82:1 201:1 220:4 234:1 399:1 510:1 610:1 627:5 686:1 750:1 878:2 901:1 965:1 984:1 1771:1 2020:2 2228:3 2315:1 2373:1 2561:1 2661:2 2877:1 2924:4 2935:1 3012:1 3332:2 3378:1 3628:1 3825:1 3930:1 4098:1 4440:3 4533:2 4585:1 5499:1 6358:1 7639:1 12062:1 12456:1 17467:1 23219:2 26581:4 29020:1 29021:6 29022:3 29023:4 29024:1 29025:1 29026:1 29027:2 29028:3 29029:3 29030:1 29031:2 29032:1 29033:1 29034:2 29035:1 29036:1 29037:2 29038:1 #
-0.00045559802550721454272517063621706 2:2 43:2 56:18 67:4 70:2 126:1 146:1 192:2 218:1 220:2 234:1 266:1 399:1 447:2 548:2 673:8 678:1 681:2 740:1 900:2 999:1 1137:7 1161:2 1282:2 1303:1 1358:1 1481:2 1770:2 2088:2 2596:1 2943:1 3017:1 3018:1 3074:1 3399:1 3463:1 3516:3 3825:1 4096:1 4116:1 4562:1 4604:6 4774:2 6014:5 7634:2 8310:6 9113:1 9581:1 10159:1 10752:1 11208:4 17078:3 17619:2 18733:1 19837:1 19840:1 19841:3 20280:4 20281:5 20282:1 20283:1 20284:1 20285:2 20286:1 20287:1 20288:1 20289:1 20290:1 20291:1 20292:1 20293:4 20294:2 20295:2 20296:4 20297:2 20298:2 20299:2 20300:2 20301:1 20302:1 20303:1 20304:1 20305:1 20306:3 20307:1 20308:1 20309:2 20310:8 20311:1 20312:1 20313:1 20314:1 20315:1 20316:1 20317:1 20318:1 20319:1 20320:1 20321:1 20322:1 20323:1 20324:2 20325:6 20326:4 20327:2 20328:4 20329:1 20330:1 20331:1 20332:1 20333:1 20334:4 20335:1 20336:1 20337:1 20338:2 20339:1 20340:1 20341:1 20342:1 20343:1 #
-0.00048797430874743572644033906549055 2:19 31:1 41:8 218:1 342:1 477:1 485:1 562:1 644:1 680:1 745:2 758:1 953:2 985:8 1053:7 1083:2 1160:1 1602:1 1660:2 1881:1 2490:1 2637:3 2986:2 2988:2 3283:1 3972:1 4135:2 4136:1 4137:2 4257:1 4258:1 4259:3 4260:1 4261:5 4262:1 4263:5 4264:2 4265:1 4266:1 4267:2 4268:2 4269:2 4270:1 4271:2 4272:1 4273:1 #
-0.00447123780196511874662768093458 20:2 21:4 22:4 24:4 25:2 26:2 27:2 28:3 29:2 30:2 31:2 166:1 203:1 220:1 221:1 247:1 328:1 355:1 441:1 574:1 651:1 652:1 690:1 830:1 908:1 930:1 965:1 1085:1 1617:2 1962:1 2207:1 5303:2 29486:1 29487:1 29488:1 29489:1 29490:1 29491:2 29492:2 29493:1 29494:1 29495:1 29496:1 #
8.0828066961609616649514498121221e-05 3:1 13:16 31:1 40:1 43:3 46:1 47:2 48:1 54:6 58:3 60:1 68:1 76:2 82:12 89:1 93:3 101:1 126:1 148:2 220:2 227:1 230:1 233:1 276:1 277:1 278:1 290:1 307:1 345:1 369:1 373:2 384:2 387:1 420:2 439:1 442:1 483:21 518:1 529:1 550:4 574:1 618:8 623:1 674:1 703:1 708:1 720:1 740:1 753:2 777:1 822:1 835:2 878:81 908:1 970:1 978:3 999:2 1061:1 1086:1 1188:1 1260:1 1261:1 1262:1 1263:3 1264:1 1265:1 1266:1 1267:3 1268:1 1269:1 1270:1 1271:1 1272:1 1273:1 1274:1 1275:1 1276:1 1277:1 1278:1 1279:6 1280:1 1281:1 1282:2 1283:1 1284:1 1285:1 1286:1 1287:1 1288:1 1289:1 1290:2 1291:1 1292:1 1293:7 1294:1 1295:1 1296:1 1297:1 1298:1 1299:2 1300:1 1301:1 1302:1 1303:1 1304:5 1305:4 1306:2 1307:1 1308:1 1309:9 1310:3 1311:5 1312:1 1313:2 1314:2 1315:1 1316:1 1317:1 1318:1 1319:1 1320:1 1321:1 1322:1 1323:4 1324:1 1325:1 1326:1 1327:1 1328:1 1329:1 1330:1 1331:3 1332:2 1333:2 1334:1 1335:1 1336:1 1337:1 1338:1 1339:1 1340:1 1341:1 1342:2 1343:3 1344:2 1345:86 1346:86 1347:2 1348:81 1349:4 1350:2 1351:2 1352:3 1353:6 1354:2 1355:4 1356:23 1357:4 1358:2 1359:2 1360:8 1361:2 1362:2 1363:2 1364:4 1365:2 1366:2 1367:2 1368:8 1369:2 1370:1 1371:1 1372:4 1373:2 1374:1 1375:1 1376:1 1377:2 1378:1 1379:1 1380:1 1381:1 1382:1 1383:1 1384:1 1385:1 1386:1 #
0.00098531578884275788747515445464842 31:2 43:3 54:2 55:3 56:2 59:1 60:1 61:2 82:3 97:1 123:1 126:1 218:1 220:18 221:1 229:1 241:1 252:5 266:3 277:2 303:1 313:1 324:3 355:2 366:1 420:2 425:1 436:1 441:1 447:1 464:1 474:2 478:3 523:2 667:12 668:1 669:14 670:1 671:1 672:1 673:31 674:4 675:1 676:1 677:1 678:1 679:1 680:1 681:19 682:1 683:1 684:1 685:1 686:1 687:1 688:1 689:1 690:2 691:1 692:2 693:1 694:1 695:2 696:2 697:1 698:1 699:1 700:1 701:2 702:1 703:2 704:1 705:1 706:1 707:2 708:1 709:2 710:15 711:1 712:1 713:1 714:1 715:1 716:3 717:3 718:14 719:2 720:2 721:2 722:7 723:5 724:8 725:1 726:1 727:1 728:1 729:1 730:1 731:1 732:1 733:3 734:2 735:6 736:3 737:2 738:1 739:1 740:1 741:1 742:1 743:1 744:1 745:1 746:1 747:1 748:1 749:1 750:1 751:1 752:1 753:1 754:1 755:1 756:2 757:1 758:1 759:1 760:1 761:1 762:1 763:1 764:1 765:1 766:1 767:1 768:1 #
0.0029229934191695992364012912645421 2:1 12:3 31:1 43:5 46:2 54:3 55:2 58:2 82:2 112:2 146:1 197:1 201:2 218:1 252:4 266:2 310:1 366:4 392:3 420:1 478:1 508:2 688:2 701:2 705:11 792:5 840:3 881:1 888:2 912:5 913:1 920:1 939:3 981:1 982:1 983:1 984:1 985:4 986:1 987:1 988:1 989:1 990:3 991:2 992:2 993:2 994:7 995:3 996:9 997:1 998:3 999:9 1000:4 1001:3 1002:3 1003:3 1004:1 1005:4 1006:3 1007:5 1008:2 1009:3 1010:1 1011:1 1012:1 1013:3 1014:2 1015:3 1016:3 1017:4 1018:1 1019:3 1020:2 1021:1 1022:2 1023:1 1024:1 1025:1 1026:1 1027:1 1028:1 1029:1 1030:1 1031:1 1032:1 1033:1 1034:1 1035:1 1036:2 1037:2 1038:1 1039:3 1040:1 1041:1 1042:1 1043:1 1044:1 1045:1 1046:1 1047:2 1048:3 1049:1 1050:2 1051:1 1052:2 1053:1 1054:1 1055:1 1056:1 1057:2 1058:1 1059:1 1060:1 1061:2 1062:2 1063:1 1064:1 1065:2 1066:1 1067:1 1068:1 #
0.00447123780196511874662768093458 28:2 31:1 43:1 46:1 55:1 67:2 82:2 98:1 102:1 143:1 144:1 197:1 207:1 220:1 252:4 455:2 459:1 563:1 623:1 701:2 705:1 706:4 707:2 708:2 850:2 908:1 909:3 910:1 911:1 912:2 913:4 914:1 915:1 916:1 917:1 918:3 919:1 920:1 921:1 922:1 923:1 924:1 925:2 926:2 927:1 928:2 929:1 930:2 931:1 932:2 933:1 934:1 935:1 936:1 937:1 938:2 939:1 #
0.00447123780196511874662768093458 12:2 31:1 43:2 82:1 95:1 120:2 289:3 291:2 309:1 414:1 420:1 444:1 485:3 492:1 557:1 797:2 983:1 1160:1 1441:1 1442:5 1443:1 1444:1 1445:2 1446:1 1447:1 1448:1 1449:1 1450:1 1451:1 1452:2 1453:2 1454:2 1455:2 1456:2 1457:1 1458:2 1459:1 1460:1 1461:3 1462:1 1463:2 1464:3 1465:4 1466:2 1467:1 1468:2 1469:2 1470:3 1471:1 1472:1 1473:1 1474:1 1475:1 1476:1 1477:1 1478:1 1479:1 1480:1 1481:1 1482:1 1483:2 1484:1 1485:1 1486:2 1487:1 1488:1 1489:1 1490:1 1491:1 1492:1 1493:1 1494:1 1495:1 1496:1 1497:1 1498:1 #
-0.0022250553753039416585157717065613 2:1 38:3 39:1 43:1 45:1 46:1 54:1 56:1 60:1 70:1 82:2 98:5 107:1 143:1 144:1 158:1 197:1 207:1 220:4 222:1 252:6 257:1 277:1 307:3 330:1 366:1 455:1 550:1 630:1 681:3 701:2 705:4 706:2 707:2 708:2 714:1 850:2 909:3 913:2 919:1 920:1 921:1 922:1 923:1 924:1 925:2 926:3 927:1 928:1 929:1 930:2 936:1 937:1 938:2 976:1 1137:1 1618:5 1635:1 1763:1 2025:1 2252:1 2833:1 3516:1 3603:1 4096:1 4771:1 5541:1 7274:1 11111:1 11861:2 12875:1 25851:1 26480:1 26481:1 26482:1 26483:1 26484:1 26485:1 26486:1 26487:10 26488:1 26489:1 26490:5 26491:1 26492:1 26493:1 26494:1 26495:2 26496:1 26497:1 26498:2 26499:2 26500:1 26501:1 #
-0.00045482265931608151102519266295587 3:1 12:1 31:1 40:8 43:2 46:4 54:4 55:1 62:1 82:1 109:1 118:1 139:1 140:1 168:1 189:1 206:1 220:1 221:1 236:6 271:2 291:2 307:3 324:1 366:2 373:1 392:2 420:1 441:3 464:1 528:2 567:3 569:3 575:1 701:5 705:19 753:2 985:1 1157:1 1172:1 1205:6 1285:1 1345:1 1436:2 1608:1 1697:5 1710:1 1769:2 1811:1 1866:4 1891:1 1924:4 1970:1 2020:5 2046:1 2083:1 2090:1 2117:1 2272:8 2361:1 2408:1 2522:1 2798:1 2860:1 3069:1 3160:1 3166:1 3455:5 3491:2 3519:1 3605:1 3708:1 3884:1 3967:3 4196:2 4274:1 4423:2 4447:2 4494:1 4562:2 4800:1 5214:1 5551:2 5623:8 5810:3 6078:1 6523:1 6683:1 7387:1 7621:1 7819:2 9818:2 11008:3 13558:2 15520:5 17828:1 18003:1 18135:1 20911:1 21441:2 21442:6 21443:1 21444:3 21445:1 21446:1 21447:2 21448:2 21449:2 21450:2 21451:2 21452:2 21453:2 21454:2 21455:1 21456:1 21457:2 21458:1 21459:1 21460:1 21461:1 21462:1 21463:1 21464:2 21465:2 21466:2 21467:1 21468:1 21469:1 21470:1 21471:2 21472:1 21473:1 21474:1 21475:1 21476:1 21477:1 21478:1 21479:1 21480:1 21481:1 21482:1 21483:1 21484:1 21485:1 21486:1 21487:1 21488:2 21489:1 21490:2 21491:1 21492:1 21493:1 21494:1 21495:2 21496:1 21497:2 21498:4 21499:1 21500:1 21501:1 21502:2 21503:1 21504:1 21505:1 21506:1 21507:1 21508:1 21509:1 21510:1 21511:1 21512:1 21513:1 21514:1 21515:1 21516:1 21517:1 21518:1 21519:1 21520:2 21521:1 21522:1 21523:1 21524:1 21525:1 21526:1 21527:1 21528:1 21529:1 21530:1 21531:1 21532:1 21533:1 21534:1 21535:1 21536:1 21537:1 #
-0.0015580231881641773417079832597665 21:2 22:2 24:1 26:2 28:1 31:2 43:1 51:1 118:1 125:1 134:1 140:1 148:2 295:2 309:1 371:1 387:1 411:1 431:2 455:2 567:1 579:1 671:1 696:1 697:1 825:1 908:2 1144:1 1206:1 1282:1 2084:1 2099:1 2397:1 2507:2 2525:1 2880:1 3063:1 3160:1 3949:1 4508:2 5040:1 5323:1 5499:1 5532:1 6367:1 6922:1 12062:1 12230:1 14738:2 14792:2 16995:1 25135:1 25136:1 25137:1 25138:1 25139:1 25140:1 25141:1 25142:1 25143:1 25144:1 #
-0.00060631408908866162802558941180564 43:2 55:1 95:25 201:1 291:13 331:1 414:1 433:1 444:1 593:1 610:2 768:1 953:1 1226:1 1308:1 1982:2 2030:3 2072:1 2428:1 2500:1 2577:1 2585:1 2661:1 3278:1 3384:2 3834:1 4575:1 6919:1 6920:1 6921:2 6922:1 6923:1 #
0.00447123780196511874662768093458 5:1 6:1 20:1 21:2 22:2 25:1 26:1 55:1 61:1 67:2 87:1 134:1 212:1 218:1 371:1 411:2 447:2 623:1 789:1 790:1 791:1 792:2 793:1 794:2 795:1 796:2 797:1 798:1 799:1 800:2 801:2 802:1 803:1 804:1 805:1 #
0.00447123780196511874662768093458 5:1 6:1 19:2 20:2 21:4 22:4 24:4 25:2 26:2 27:2 28:2 29:2 30:2 59:2 60:2 87:1 101:2 108:1 139:1 146:1 147:1 148:3 149:1 150:1 151:1 152:1 153:1 154:1 155:1 156:1 157:1 158:1 159:1 160:1 161:1 162:1 163:2 164:2 165:2 #
0.00447123780196511874662768093458 2:1 5:1 6:1 12:1 19:2 20:2 21:4 22:4 24:4 25:2 26:2 31:2 54:1 87:3 140:1 150:3 392:1 528:1 557:1 563:1 631:1 632:1 633:1 634:1 635:1 636:1 637:2 638:1 639:2 640:2 641:1 642:1 643:1 644:1 #
0.00447123780196511874662768093458 2:1 5:3 6:1 19:1 20:2 21:4 22:4 24:4 25:2 26:2 27:2 28:2 29:2 30:2 31:1 40:1 60:1 67:2 85:2 110:1 134:1 139:1 220:1 245:1 341:1 417:1 475:1 500:1 557:1 569:1 570:1 623:1 630:1 740:2 805:1 900:1 968:1 969:1 970:1 971:1 972:1 973:2 974:2 975:1 976:1 #
0.00447123780196511874662768093458 5:1 19:1 20:1 21:2 22:2 24:2 25:1 26:1 27:1 28:1 29:1 30:1 59:1 126:1 140:1 206:1 569:1 570:1 588:1 627:1 657:1 659:1 744:1 957:1 958:1 959:2 960:1 961:1 962:1 963:1 964:1 965:1 966:1 967:1 #
-0.0017002599336414314992738106013803 12:6 31:1 114:1 125:1 140:1 142:1 153:1 197:1 206:1 229:1 230:1 243:1 345:1 392:1 417:1 484:1 550:1 557:5 615:2 661:2 725:1 753:1 792:6 825:1 861:2 866:1 878:1 912:4 981:3 1160:3 1442:4 1710:1 1851:1 1880:1 1941:3 1962:1 2088:2 2408:1 2409:1 2658:1 3867:1 4585:1 4954:4 5009:1 6542:1 6687:1 7749:3 8142:1 10544:1 11184:1 15506:2 15507:1 15508:1 15509:1 15510:1 15511:1 #
-0.00447123780196511874662768093458 5:3 13:2 31:3 43:1 47:1 60:6 93:5 126:1 148:1 170:1 171:1 182:1 247:1 387:3 535:3 586:1 726:1 740:1 783:1 789:1 798:1 809:1 1213:1 1267:1 1499:1 2218:1 2858:1 3166:1 4138:1 4500:1 4800:1 12634:2 12635:1 12636:1 12637:1 #
-0.002054829444559589431834600858906 3:1 6:1 21:2 22:2 24:2 26:2 27:2 28:2 29:2 31:2 88:1 109:2 160:1 249:1 350:5 455:1 479:1 674:2 792:1 920:1 1176:2 1881:1 1968:2 2004:2 2184:1 2668:2 2791:2 2845:2 3053:1 3057:1 3074:2 4554:1 5928:1 6032:2 9532:2 10155:1 10156:1 10157:1 10158:1 10159:1 10160:1 10161:1 10162:1 #
-0.00447123780196511874662768093458 6:1 10:1 12:1 31:1 60:2 86:1 87:3 726:3 1224:1 1393:1 1499:1 1515:1 1556:1 3625:1 29807:1 29808:1 #
0.0037336467399413301830601863429138 2:3 3:1 12:1 19:1 20:1 21:2 22:2 24:2 25:1 26:1 27:1 28:1 29:1 30:1 40:9 43:2 44:1 47:1 55:2 63:1 65:11 67:1 80:1 82:1 83:4 95:6 107:1 139:1 140:1 148:3 166:1 218:1 219:1 220:11 221:2 222:3 223:1 224:1 225:1 226:1 227:1 228:1 229:1 230:4 231:1 232:3 233:1 234:2 235:2 236:1 237:3 238:3 239:2 240:1 241:1 242:1 243:1 244:1 245:2 246:1 247:1 248:2 249:1 250:1 251:1 252:2 253:1 254:1 255:1 256:1 257:1 258:1 259:1 260:1 261:2 262:2 263:1 264:1 265:1 266:1 267:1 268:1 269:3 270:1 271:1 272:1 273:2 274:1 275:1 276:1 277:4 278:1 279:2 280:2 281:1 282:1 283:1 284:1 285:3 286:4 287:1 288:1 289:1 290:2 291:2 292:1 293:2 294:1 295:2 296:1 297:1 298:1 299:1 300:1 301:1 302:1 303:1 304:1 305:1 306:1 307:1 308:1 309:1 310:1 311:1 312:1 313:1 314:1 315:1 316:1 317:1 318:1 #
0.00447123780196511874662768093458 2:7 12:1 31:1 43:2 47:1 95:3 102:1 107:2 109:2 114:1 126:1 140:1 170:1 174:1 188:1 201:1 230:4 232:3 366:1 414:1 430:5 455:1 459:1 474:1 481:1 559:1 562:1 563:1 564:4 565:1 566:1 567:7 568:3 569:3 570:3 571:3 572:1 573:1 574:1 575:1 576:1 577:1 578:1 579:1 580:1 581:1 582:1 583:1 584:1 585:1 586:1 587:1 588:1 589:1 590:1 591:1 592:1 593:1 594:1 595:2 596:2 597:1 598:1 599:2 600:1 601:2 602:2 603:1 604:1 605:1 606:1 607:1 #
0.00447123780196511874662768093458 31:1 43:1 48:2 56:2 125:1 126:1 201:2 220:3 241:2 276:3 420:3 430:4 451:1 595:4 673:1 681:3 692:1 707:6 708:3 740:1 797:3 1083:2 1137:1 1282:2 1286:2 1509:1 1510:1 1511:1 1512:1 1513:1 1514:1 1515:1 1516:1 1517:2 1518:1 1519:1 1520:2 1521:9 1522:1 1523:6 1524:3 1525:2 1526:2 1527:2 1528:2 1529:1 1530:2 1531:2 1532:2 1533:1 1534:2 1535:1 1536:2 1537:1 1538:1 1539:1 1540:1 1541:1 1542:1 1543:1 1544:1 1545:1 1546:1 1547:1 1548:4 1549:1 1550:1 1551:1 #
0.00447123780196511874662768093458 5:1 43:1 52:1 109:3 178:1 221:1 234:2 241:3 291:4 559:1 705:1 753:1 939:1 985:1 1061:1 1157:1 1482:1 1601:1 1602:1 1603:1 1604:1 1605:2 1606:1 1607:1 1608:3 1609:1 1610:1 1611:4 1612:1 1613:1 1614:2 1615:3 1616:1 #
-0.00086755830436659414715144800211988 28:4 38:1 39:1 40:4 41:1 43:2 45:2 46:1 56:2 60:1 64:1 77:1 80:2 82:1 85:1 107:1 124:1 126:2 140:2 143:1 144:1 154:1 220:16 222:4 241:1 252:4 310:1 311:1 333:1 355:1 366:1 376:3 411:1 436:1 455:3 508:3 528:2 623:1 651:1 662:3 663:3 673:1 690:2 701:1 705:2 706:2 707:2 708:1 786:1 798:1 822:1 872:1 888:1 935:1 1137:1 1186:1 1256:1 1302:1 1556:1 1559:1 1638:1 1667:1 1795:1 1985:1 2036:1 2458:1 2943:1 2963:1 3044:1 3063:14 3074:1 3475:1 3510:1 3558:8 3584:3 4388:4 4747:1 5092:4 5487:2 5491:1 5703:1 6523:1 6684:4 7279:1 7561:1 8435:1 9109:1 9534:1 11387:2 11793:1 12296:1 16160:1 16208:1 16991:2 16995:2 17000:1 17001:1 20787:1 22419:1 22420:1 25523:4 25844:2 25845:1 25846:2 25847:1 25848:1 25849:1 25850:3 25851:1 25852:2 25853:1 25854:1 25855:1 25856:4 25857:4 25858:4 25859:4 25860:2 25861:1 25862:1 25863:1 25864:1 25865:1 25866:1 25867:1 25868:1 25869:1 25870:1 25871:1 25872:1 25873:1 25874:1 25875:2 25876:1 25877:1 25878:1 25879:1 25880:1 #
-0.00447123780196511874662768093458 6:5 31:1 70:1 101:1 104:1 107:1 118:2 201:1 234:2 322:1 441:1 563:1 772:2 908:1 1267:1 1469:1 1734:1 1763:1 1771:1 2025:2 2559:1 2690:3 2761:1 3577:1 3787:1 5940:1 10427:1 16910:1 #
-0.0011443491597499736833060124396866 6:1 19:2 44:1 58:1 64:1 102:1 146:1 355:1 359:1 363:1 436:1 662:1 766:1 767:1 915:1 1512:1 1938:2 2036:1 2184:1 2378:1 2586:2 2737:3 3169:1 4147:1 4345:1 4470:1 5907:2 7520:1 8316:1 14092:1 26036:1 26037:1 26038:2 26039:1 26040:1 #
-0.00091191311434091323808587281618543 2:1 3:1 31:1 43:1 65:2 97:2 118:2 126:2 140:1 148:1 221:2 230:2 267:1 269:1 275:1 355:1 417:1 430:3 444:1 568:4 593:1 595:1 601:1 789:1 969:4 1345:1 1360:2 1534:1 1811:1 2637:1 3339:4 3601:4 3733:1 4254:2 4255:2 9217:1 9634:1 9896:2 10491:3 11150:1 14534:2 14535:1 14536:1 14537:1 14538:1 14539:1 14540:1 14541:2 14542:6 14543:1 14544:1 14545:1 14546:1 14547:1 14548:2 14549:1 14550:1 14551:1 14552:1 14553:1 14554:1 14555:1 14556:1 14557:1 14558:1 14559:1 14560:1 14561:1 14562:1 14563:1 #
-0.00069537121141910105109190665118035 12:1 43:1 58:1 65:8 106:1 229:1 267:2 276:1 278:3 315:1 392:3 613:1 618:1 965:1 999:1 1184:2 1274:1 1464:1 1980:1 2131:1 2572:1 3097:3 3382:1 3564:2 3863:1 4167:1 4620:4 5675:1 6275:2 6725:4 7563:1 7564:1 7593:3 7918:1 11111:1 11607:2 17323:2 19252:2 21266:2 29427:1 29428:1 29429:1 29430:1 29431:5 29432:1 29433:1 29434:2 29435:1 29436:1 29437:4 29438:6 29439:3 29440:3 29441:2 #
0.00447123780196511874662768093458 31:1 60:4 127:1 148:4 153:1 161:2 175:1 213:1 218:1 235:1 247:1 387:2 437:1 500:1 628:1 629:1 630:1 777:1 940:1 941:1 942:1 943:1 944:1 945:4 946:1 947:1 948:2 949:1 950:1 951:1 952:1 953:1 954:1 955:1 956:1 #
0.00447123780196511874662768093458 3:1 19:1 20:1 21:2 22:2 24:2 25:1 26:1 53:1 60:1 436:1 441:1 670:1 723:1 908:1 1272:1 1499:1 1500:1 1501:1 1502:1 1503:1 1504:1 1505:1 1506:2 1507:1 1508:1 #
-0.0015853544084088941334975686459074 12:1 38:1 43:1 46:1 94:2 115:2 118:2 146:1 201:2 277:1 291:1 392:1 439:1 451:1 508:1 524:1 559:1 595:2 601:1 623:1 654:1 701:1 753:1 938:1 1026:1 1238:2 1282:2 1286:1 1363:1 1523:8 1524:2 1532:1 1540:1 1594:1 1613:1 1816:1 1868:1 2253:1 2408:1 2512:1 3028:1 3855:1 4681:2 4797:1 5369:1 5653:1 6546:1 7426:4 8864:1 9570:3 9681:1 12494:1 12495:1 12496:1 12497:1 12498:1 12499:1 12500:1 12501:1 12502:1 12503:1 12504:1 12505:1 12506:1 12507:1 12508:1 12509:1 12510:1 12511:1 12512:2 12513:1 12514:1 12515:1 12516:1 12517:1 12518:1 12519:1 12520:1 12521:1 12522:1 12523:1 12524:1 12525:1 12526:1 12527:1 12528:1 12529:1 12530:1 #
-0.00068181554156631133094962349261436 6:1 148:7 150:1 153:1 191:1 342:1 372:2 749:1 787:1 1081:1 1200:2 1213:3 1285:1 1854:2 1855:2 1868:1 1985:1 2322:1 2824:6 3235:1 3331:1 4137:1 6818:1 16060:1 16061:6 16062:1 16063:1 16064:1 16065:1 #
-0.00061516793426714152896728204922283 31:1 44:2 80:1 103:1 107:1 109:1 114:1 166:1 187:1 289:5 322:1 341:1 437:2 480:3 500:1 660:1 720:1 786:1 841:1 945:1 1070:3 1081:1 1086:2 1272:2 1446:2 1469:2 1584:1 1737:1 1760:1 1872:1 1980:1 2056:1 2059:2 2509:1 2543:1 2638:2 2673:2 2730:2 2747:2 2803:1 3093:1 3101:2 3168:2 3247:1 3445:2 3700:1 3867:1 4505:1 4923:2 4937:1 5214:3 5720:1 6014:1 6418:1 6701:2 7181:1 8243:1 9374:1 10511:1 10531:1 10942:2 10967:2 11798:1 13286:2 14295:2 15347:1 16883:1 19320:1 19339:1 25736:1 25737:5 25738:1 25739:1 25740:1 25741:1 25742:1 25743:1 25744:1 25745:1 25746:1 25747:1 25748:1 25749:1 25750:1 25751:1 25752:1 25753:1 25754:2 25755:2 25756:2 25757:2 #
-0.0011435551058806782322857520384218 3:1 67:3 69:2 80:2 86:1 112:1 146:1 166:1 218:1 326:1 366:1 378:2 556:1 567:1 673:1 1447:2 1591:1 2320:1 2830:1 3573:1 3865:1 4098:1 4255:1 4746:1 6492:1 10407:1 10697:1 13119:1 14576:1 15512:3 15513:1 15514:5 15515:1 15516:1 15517:1 15518:2 15519:1 #
0.00447123780196511874662768093458 12:1 31:1 43:2 46:1 58:2 86:1 245:1 251:1 252:1 256:1 266:1 309:1 370:1 392:4 703:1 705:5 792:1 798:1 886:3 909:1 912:1 915:4 928:2 929:1 1027:1 1036:1 1481:1 1557:1 1558:1 1559:1 1560:1 1561:1 1562:2 1563:2 1564:1 1565:2 1566:1 1567:1 1568:1 1569:1 1570:1 1571:1 1572:3 1573:3 1574:1 1575:1 1576:1 #
0.0036076957372300193921388355988711 2:1 5:2 6:2 12:1 31:1 39:1 43:2 44:1 46:4 48:1 50:1 55:2 85:1 87:3 97:1 99:1 101:1 102:1 106:1 109:2 112:2 118:5 132:1 143:1 144:1 161:1 170:1 220:1 221:1 234:1 236:2 241:2 243:1 245:3 252:5 257:1 277:6 311:1 345:1 362:2 366:1 392:6 420:1 433:1 451:3 455:1 473:2 484:1 498:1 575:1 599:1 600:1 601:1 607:1 610:1 618:1 690:1 701:1 705:3 706:2 707:2 708:2 749:1 753:2 805:1 827:1 828:1 829:1 830:1 831:2 832:3 833:2 834:2 835:2 836:1 837:1 838:1 839:1 840:2 841:1 842:1 843:1 844:2 845:2 846:2 847:1 848:3 849:2 850:2 851:1 852:2 853:1 854:1 855:1 856:1 857:1 858:1 859:1 860:1 861:1 862:1 863:1 864:1 865:1 866:2 867:1 868:1 869:1 870:1 871:1 872:1 873:1 874:1 875:1 876:1 877:1 878:1 879:1 880:1 881:1 882:1 883:1 884:1 885:2 886:1 887:1 888:2 889:1 890:1 891:1 892:1 893:1 894:1 895:1 896:1 897:1 #
-0.0003643679301030218259035975414406 12:2 29:2 31:1 40:1 43:2 46:3 55:14 82:19 97:1 115:2 117:18 156:2 201:4 229:1 328:1 388:2 392:15 495:14 714:1 753:1 758:1 794:2 908:1 938:3 953:3 1157:1 1192:1 1524:16 1608:1 1746:1 1902:1 1939:1 1980:1 2090:1 2273:2 2577:6 2586:4 2650:2 2790:3 3247:2 3421:4 3696:2 3697:1 3708:1 4116:1 4236:1 4736:1 4854:2 6291:1 6690:1 6725:1 7515:1 8908:1 9698:1 11816:4 16291:2 19967:1 19968:3 19969:1 19970:2 19971:1 19972:1 19973:2 19974:3 19975:2 19976:2 19977:2 19978:2 19979:2 19980:2 19981:2 19982:2 19983:2 19984:1 19985:2 19986:2 19987:2 19988:1 19989:1 19990:1 19991:1 19992:1 19993:1 19994:1 19995:1 19996:1 19997:1 19998:1 #
-0.00076231195733543564291290195455986 12:1 39:1 43:2 67:3 93:2 97:1 117:3 126:1 140:2 143:2 217:2 220:2 221:1 253:1 254:1 263:1 275:1 341:1 366:2 385:1 386:1 430:1 486:1 587:1 595:2 602:1 630:1 701:1 707:1 708:2 737:1 854:1 855:1 969:1 999:2 1141:1 1225:1 1226:2 1282:2 1286:1 1385:2 1512:1 1520:2 1524:3 1608:2 1681:1 1884:1 1900:1 2706:1 2823:4 2849:1 3519:1 4240:2 4647:1 4708:1 5616:1 5703:1 7426:1 9562:2 9563:1 9564:1 9565:2 9566:1 9567:2 9568:1 9569:3 9570:2 9571:6 9572:2 9573:2 9574:1 9575:3 9576:1 9577:1 9578:1 9579:1 9580:1 9581:1 9582:1 9583:1 9584:1 9585:1 9586:1 9587:1 9588:1 9589:1 9590:1 #
-0.00025270432489385311145696499934843 12:1 28:1 31:1 40:1 43:3 54:1 55:10 115:2 134:1 156:1 158:1 218:1 220:4 235:1 295:3 307:1 310:1 314:1 366:3 382:1 392:4 420:3 474:3 492:1 567:2 574:1 701:1 705:5 745:2 753:1 805:1 957:1 1077:4 1110:5 1155:3 1172:1 1204:1 1226:2 1286:1 1446:2 1447:1 1584:2 1707:1 1739:2 1938:5 2030:1 2084:8 2254:3 2272:1 2408:1 2463:1 2737:1 2787:2 2892:2 3221:1 3404:2 3409:2 3516:1 3625:1 3826:4 4104:6 4170:2 4628:1 4642:1 4708:1 4746:1 5218:1 5586:1 5675:2 5798:1 7438:2 8716:1 9320:4 9321:1 9325:1 11719:1 13932:1 15603:3 15604:1 15605:1 15606:1 15607:1 15608:1 15609:1 15610:1 15611:1 15612:1 15613:1 15614:1 15615:1 15616:1 15617:1 15618:2 15619:1 15620:1 15621:3 15622:1 15623:1 15624:1 15625:1 15626:1 15627:1 15628:1 15629:2 15630:3 15631:1 15632:1 15633:1 15634:1 15635:1 15636:3 15637:1 15638:1 15639:1 15640:2 15641:1 15642:2 15643:1 15644:2 15645:1 15646:1 15647:1 15648:1 15649:1 15650:14 15651:3 15652:1 15653:2 15654:2 15655:2 15656:1 15657:1 15658:3 15659:4 15660:1 15661:2 15662:2 15663:1 15664:2 15665:2 15666:1 15667:1 15668:1 15669:1 15670:1 #
-3.8053259999000332684544051220499e-05 2:1 12:3 31:1 41:1 43:1 55:7 126:1 148:1 151:1 201:1 218:1 236:9 272:1 291:1 295:5 341:1 384:1 420:1 447:1 459:1 474:1 567:1 705:11 772:2 792:1 795:1 912:2 1003:2 1053:1 1061:1 1172:1 1771:1 2084:8 2272:7 2494:1 2537:1 2561:3 2594:1 2637:1 3182:1 3247:5 3698:5 4177:1 4747:1 4882:2 6784:1 7622:1 7626:1 7627:2 7655:2 8813:1 8817:1 8823:1 13514:1 13733:1 18638:3 20739:1 22434:1 22435:1 22436:1 22437:1 22438:3 22439:2 22440:1 22441:3 22442:1 22443:1 22444:2 22445:2 22446:1 22447:1 22448:1 22449:3 22450:1 22451:1 22452:1 22453:1 22454:1 22455:1 22456:4 22457:3 22458:3 22459:1 22460:1 22461:1 22462:1 22463:1 22464:1 22465:1 22466:1 22467:1 22468:1 22469:1 22470:1 22471:1 22472:1 22473:1 #
0.00447123780196511874662768093458 5:1 31:1 60:1 148:2 348:1 349:1 350:2 351:1 352:1 353:1 354:1 355:1 356:1 357:1 358:1 #
0.00447123780196511874662768093458 2:1 28:1 31:1 40:1 45:1 68:1 70:1 105:1 220:2 228:1 245:2 336:1 355:1 366:1 613:1 714:1 898:1 899:1 900:1 901:1 902:1 903:1 904:1 905:1 906:1 907:1 #
0.00447123780196511874662768093458 2:1 31:1 43:1 134:1 135:3 136:3 137:1 138:1 139:1 140:1 141:1 142:4 143:1 144:1 145:5 #
0.00447123780196511874662768093458 3:1 5:1 6:1 31:1 41:1 61:1 97:1 99:1 137:2 146:1 192:1 220:2 341:1 479:1 620:1 645:2 646:2 647:1 648:1 649:1 650:1 651:1 652:1 653:1 654:1 #
-0.0020108239319135213021838559654952 31:1 39:1 40:1 43:2 46:1 58:1 85:1 95:1 198:2 252:2 277:1 366:1 392:1 420:1 459:1 508:1 623:2 705:1 706:3 707:2 708:4 753:2 854:1 945:1 1234:3 1279:2 2712:1 3221:1 3327:1 3935:2 3937:2 4388:1 4502:1 4856:1 5703:1 7401:1 9534:1 13427:1 16208:1 22239:1 22240:1 22241:1 22242:1 22243:4 22244:8 22245:2 22246:1 22247:2 22248:1 22249:1 #
-0.00040316229181869712300256836101653 31:1 38:2 43:2 44:1 60:3 66:2 68:1 85:2 105:1 109:1 112:1 118:2 175:1 201:2 218:1 220:1 241:1 288:1 330:1 345:1 359:1 420:1 430:1 498:1 522:1 575:1 628:1 662:1 663:1 673:1 701:1 753:1 878:1 909:3 913:2 928:1 930:2 953:1 985:1 1003:1 1224:1 1806:1 1900:1 1929:4 2016:1 2027:1 2036:1 2267:1 2465:1 2608:2 2805:1 2845:1 2859:1 2860:1 2951:1 3140:1 3289:1 3513:1 3595:1 4557:1 5541:2 5616:1 5625:1 5627:1 6040:1 6600:1 6691:1 7684:1 8248:1 12122:2 13594:6 13595:7 13599:1 13613:1 16198:1 16228:1 18791:1 19915:1 19916:1 19917:1 19918:1 19919:1 19920:1 19921:1 19922:1 19923:1 19924:1 19925:1 19926:1 19927:1 19928:1 19929:1 19930:1 19931:1 19932:1 19933:2 19934:1 19935:3 19936:1 19937:1 19938:1 19939:1 19940:1 19941:1 19942:1 19943:2 19944:1 19945:2 19946:2 19947:2 19948:2 #
0.00447123780196511874662768093458 47:1 55:1 58:2 68:1 95:1 366:1 908:1 1184:1 1323:1 1515:1 1552:1 1553:1 1554:1 1555:1 1556:1 #
0.0019352205152573717910485795457021 2:2 5:1 6:1 12:3 13:3 14:1 31:2 43:1 51:2 59:1 110:1 127:1 148:1 187:1 198:2 203:4 207:1 289:1 310:1 366:1 416:2 473:1 485:1 503:1 504:1 543:1 547:9 548:9 557:3 586:1 706:1 774:1 922:2 968:1 1105:2 1110:9 1175:1 1202:1 1225:9 1303:1 1323:1 1385:4 1387:1 1388:1 1389:3 1390:1 1391:1 1392:1 1393:1 1394:9 1395:2 1396:2 1397:2 1398:2 1399:2 1400:3 1401:1 1402:1 1403:2 1404:1 1405:1 1406:1 1407:2 1408:2 1409:2 1410:2 1411:2 1412:2 1413:1 1414:1 1415:2 1416:1 1417:9 1418:4 1419:4 1420:2 1421:4 1422:4 1423:4 1424:4 1425:4 1426:2 1427:4 1428:4 1429:1 1430:1 1431:1 1432:1 1433:1 1434:1 1435:1 1436:1 1437:1 1438:1 1439:1 1440:1 #
-0.00026766513478200374721860388405048 43:1 53:1 54:14 58:3 102:1 146:1 221:1 229:1 310:9 355:1 482:1 562:1 647:1 768:1 951:1 1436:1 1962:2 2116:1 2793:2 3153:1 3331:1 3385:2 3415:1 4774:1 5489:1 5693:2 5722:1 7948:1 8100:1 8352:1 8530:1 10028:2 11507:2 19356:1 20238:1 20239:1 20671:1 22385:2 23094:1 23095:1 23096:4 23097:2 23098:1 23099:1 23100:1 23101:1 23102:1 23103:1 23104:1 23105:1 23106:1 23107:1 23108:1 23109:1 23110:1 #
-0.00019321113279829172206317200455317 2:1 12:1 31:2 43:1 44:1 95:2 102:1 118:6 166:2 178:1 187:3 206:1 241:1 370:1 392:2 417:1 420:1 451:1 474:2 480:2 500:2 567:6 589:1 825:1 1081:1 1213:1 1254:1 1731:2 1811:3 1965:1 2089:3 2091:3 2260:1 2272:2 2363:1 2458:1 2461:1 2522:1 2620:1 2845:1 3168:1 3339:1 3749:4 3876:1 5988:1 6133:1 6785:1 7144:5 7550:1 9217:1 9463:1 9815:4 10043:1 10046:1 10293:1 15508:1 17841:1 19491:1 19931:1 20880:3 20881:3 20882:2 20883:1 20884:1 20885:1 20886:1 20887:1 20888:2 20889:2 20890:1 20891:2 20892:1 20893:1 20894:1 20895:2 20896:4 20897:4 20898:4 20899:1 20900:1 20901:1 20902:1 20903:2 20904:1 20905:1 20906:1 20907:1 20908:1 20909:1 #
-0.00051241764142254597400039095589364 31:1 126:1 218:1 219:1 241:1 464:1 493:1 498:2 500:2 662:1 663:1 667:5 786:1 1210:1 1308:1 1757:1 2538:1 2713:1 3331:1 3471:3 4584:1 4611:2 4699:1 4925:3 5646:1 6327:5 6383:1 6784:1 9954:1 14402:2 14403:1 14404:1 #
-0.00050074482359792934615255743935336 31:1 32:1 43:2 55:1 58:8 61:2 67:2 127:2 387:1 420:1 441:1 455:2 478:4 627:2 674:1 701:1 792:1 900:2 908:1 912:2 963:1 1172:1 1750:1 1773:1 1811:3 1844:1 1890:2 1937:3 2106:1 2356:1 2572:1 2761:1 3352:1 4976:1 5784:1 6298:1 9463:1 11643:1 11644:1 11645:1 11646:2 11647:1 11648:1 11649:1 11650:1 11651:1 11652:1 #
-0.00447123780196511874662768093458 5:3 6:1 14:2 31:1 43:4 54:1 218:1 366:2 387:1 398:1 420:1 423:1 480:1 574:1 586:1 661:1 783:1 789:2 808:1 975:1 1152:3 1213:1 2817:1 3210:1 10047:1 12131:1 14705:1 19508:1 19509:2 19510:1 19511:1 19512:1 19513:1 19514:1 19515:1 19516:1 #
0.00447123780196511874662768093458 6:3 31:1 87:1 98:2 118:2 148:1 153:1 366:1 480:1 651:1 794:1 805:1 880:1 1179:1 1180:1 1181:1 1182:1 1183:1 1184:1 1185:1 1186:1 1187:1 #
0.00447123780196511874662768093458 31:1 40:3 43:2 46:2 101:1 126:1 210:1 220:3 221:1 272:1 384:1 427:1 550:1 562:1 680:1 905:2 939:1 1161:1 1214:1 1215:1 1216:1 1217:1 1218:1 1219:1 1220:1 1221:1 1222:3 1223:4 1224:4 1225:1 1226:1 1227:2 1228:1 1229:1 1230:1 1231:1 1232:1 1233:1 1234:1 1235:1 1236:1 #
0.00447123780196511874662768093458 31:1 54:1 60:1 228:1 320:1 321:1 908:1 977:1 978:2 979:1 980:1 #
-0.00098124763536768270719146123326482 7:7 31:1 40:4 46:2 67:3 118:1 157:1 220:6 382:1 511:1 528:1 672:1 714:1 726:1 753:4 792:1 1024:3 1083:2 1204:3 1377:6 1477:1 1515:1 1608:1 1663:1 1748:1 1884:1 1983:1 2146:1 2572:1 2608:1 2710:1 3077:1 3221:1 3404:3 3497:3 3513:1 3829:1 6282:1 8250:1 14960:1 14961:1 14962:1 14963:1 14964:1 14965:1 14966:1 14967:1 #
-0.0015470507878021086053954569194957 40:3 64:1 97:1 107:1 109:1 166:1 170:1 324:1 351:1 359:1 414:1 707:1 835:1 981:1 1083:2 1204:3 2017:1 2077:2 2087:1 2102:1 3177:1 4799:1 9455:1 10697:1 11005:1 13356:1 21856:1 26805:1 26806:1 26807:1 #
-0.00044297139381797054173695027401436 17:1 21:2 22:2 24:2 26:2 27:2 28:2 29:2 31:1 43:1 54:1 309:1 341:1 366:1 371:1 382:1 420:1 431:1 455:1 459:2 792:3 912:1 1663:6 1682:1 2184:2 3405:1 3584:2 4508:2 4737:2 7556:3 7572:2 8584:1 8585:4 9244:1 11289:1 11418:3 12208:1 14992:1 19565:4 19566:1 19567:1 19568:1 19569:1 19570:1 19571:1 19572:2 19573:1 19574:1 19575:2 19576:5 19577:1 19578:1 19579:1 19580:1 19581:1 19582:1 19583:1 19584:1 19585:1 19586:1 19587:1 19588:1 19589:1 19590:1 19591:1 19592:1 19593:1 #
-0.00447123780196511874662768093458 2:2 5:1 31:1 45:1 65:2 67:2 148:1 154:1 175:1 220:1 245:1 303:1 369:1 417:1 674:1 723:1 771:1 772:1 1117:1 1267:1 2366:1 3449:1 5386:1 28612:1 #
-0.00447123780196511874662768093458 21:1 22:1 24:1 26:1 4508:1 4509:1 4510:1 4511:1 #
0.00447123780196511874662768093458 5:2 19:1 20:1 21:2 22:2 24:2 25:1 26:1 27:1 28:1 29:1 30:1 31:1 47:1 55:1 80:1 118:2 148:1 156:3 206:1 214:1 218:1 330:1 447:1 455:1 474:1 615:1 624:1 627:1 654:1 680:1 768:1 777:3 878:3 950:1 961:1 963:2 1069:1 1070:1 1071:1 1072:3 1073:1 1074:1 1075:2 1076:2 1077:2 1078:1 1079:1 1080:1 1081:1 1082:1 1083:2 1084:1 1085:1 1086:1 1087:1 1088:1 1089:1 1090:1 1091:1 1092:1 1093:1 1094:2 1095:2 #
0.00447123780196511874662768093458 19:1 20:1 21:2 22:2 24:3 28:3 31:1 43:1 54:1 67:3 109:1 161:1 222:1 420:1 478:1 481:1 486:2 630:1 656:1 660:1 787:1 825:1 826:1 1164:2 1185:1 1282:1 1617:1 1618:1 1619:1 1620:2 1621:1 1622:1 1623:1 1624:2 1625:2 1626:1 1627:1 1628:1 1629:1 1630:2 1631:1 1632:2 1633:2 1634:1 1635:1 1636:1 1637:1 1638:1 1639:1 1640:1 1641:1 #
0.00447123780196511874662768093458 2:1 6:1 12:2 16:1 19:1 20:1 21:2 22:2 24:2 25:1 26:1 27:1 28:1 29:1 30:1 31:1 43:1 289:1 310:2 503:3 504:1 615:3 628:1 630:1 1389:1 1588:1 1589:1 1590:1 1591:1 1592:1 1593:1 1594:1 1595:2 1596:1 1597:1 1598:1 1599:1 1600:1 #
-0.00061258547643932149788514873733902 24:6 28:10 31:2 43:3 56:8 148:1 221:1 266:1 277:1 309:1 310:4 414:1 420:2 451:4 455:1 548:5 672:2 673:3 674:1 678:1 681:8 696:1 743:1 795:2 934:2 965:1 981:1 999:3 1137:3 1147:3 1182:1 1559:1 1632:1 1887:1 2025:1 2133:1 2217:1 2429:5 2711:1 3184:3 3472:1 4047:1 4853:4 7087:1 9058:1 9113:4 9581:3 9707:1 13350:2 13607:2 13610:1 13611:2 14032:1 14636:1 15160:2 18389:1 19061:1 19679:1 20285:4 20286:1 20287:1 26224:2 26225:1 26226:1 26227:1 26228:6 26229:10 26230:2 26231:12 26232:2 26233:2 26234:1 26235:2 26236:1 26237:1 26238:3 26239:1 26240:1 26241:2 26242:1 26243:1 26244:1 26245:6 26246:3 26247:2 26248:1 26249:1 26250:1 26251:1 26252:1 26253:2 26254:1 26255:1 26256:1 26257:1 26258:1 26259:1 26260:1 26261:1 26262:1 26263:1 26264:1 26265:1 26266:1 26267:1 #
-0.00099566116246782750132116035501895 9:1 12:10 13:1 14:1 43:1 57:1 60:2 109:1 114:1 118:15 126:1 140:1 142:1 150:3 171:1 186:8 211:5 218:1 243:2 247:1 289:2 363:1 421:2 447:1 501:4 512:5 555:1 753:5 900:1 1070:1 1081:1 1105:13 1106:4 1175:2 1224:1 1401:1 1415:2 1416:1 1464:1 2635:1 4092:5 4701:1 5705:1 6923:1 7664:1 9217:1 10879:1 11335:1 11816:1 12508:1 12766:2 12864:1 22141:1 23667:3 24029:1 24030:1 24031:1 24032:3 24033:1 24034:1 24035:1 24036:2 24037:2 24038:14 24039:1 24040:1 24041:1 24042:1 24043:1 24044:1 24045:1 24046:2 24047:1 24048:1 24049:1 24050:1 24051:1 24052:1 24053:12 24054:1 24055:1 24056:1 24057:1 24058:1 24059:1 24060:1 24061:1 24062:3 24063:3 24064:3 24065:3 24066:1 24067:1 24068:1 24069:1 24070:3 24071:1 #
-0.0014535142510639974342684377361934 2:1 5:1 12:1 20:1 21:2 22:2 24:2 26:1 31:2 35:3 36:1 37:1 38:1 43:1 60:1 82:2 87:1 109:2 139:1 148:1 166:1 201:1 252:1 275:1 277:4 307:1 316:1 427:1 434:1 459:1 518:1 602:1 623:1 628:1 630:1 688:1 701:3 705:4 758:1 787:1 939:4 966:1 1053:3 1172:1 1234:1 1285:2 1496:2 1559:1 1608:3 1710:1 1878:1 2020:10 2089:1 2333:1 2594:2 2957:1 3104:1 3107:1 3166:2 3221:1 3558:1 3861:3 4316:1 4508:1 4610:1 4681:1 4927:1 6923:2 7651:2 7910:1 8422:1 9293:1 9483:1 9513:1 9700:1 10531:1 16128:3 17809:3 17810:1 17814:1 22604:1 28984:1 28985:3 28986:4 28987:3 28988:1 28989:4 28990:1 28991:4 28992:1 28993:3 28994:1 28995:1 28996:3 28997:2 28998:1 28999:1 29000:1 29001:2 29002:1 29003:1 29004:1 29005:1 29006:1 29007:1 29008:1 29009:1 29010:1 29011:1 29012:1 29013:1 #
0.00447123780196511874662768093458 2:1 54:1 94:1 148:1 250:1 423:1 424:1 425:1 426:1 427:2 428:1 429:1 430:1 431:1 432:1 433:1 434:1 435:1 436:1 437:1 438:1 439:1 440:1 441:1 442:1 443:1 444:1 445:1 446:1 #
-0.0011296998589927710783531455973616 6:2 31:1 47:1 157:1 227:1 433:1 492:1 769:1 945:1 1308:1 2077:1 2099:1 2207:1 2832:1 3395:1 3792:1 3903:2 4495:1 4830:3 4992:1 5318:1 5342:3 6757:1 7236:1 7237:1 7238:2 7239:1 7240:1 7241:1 7242:1 7243:1 7244:1 7245:1 7246:1 7247:1 7248:1 #
-0.00030135729868829906445693023187005 2:3 29:4 43:2 47:1 82:1 118:1 218:1 307:1 309:1 345:2 628:1 705:5 750:1 1160:1 1161:1 1172:2 1305:2 1671:1 1938:1 1968:1 2099:1 2390:2 2428:1 2880:2 3398:1 3406:1 4435:1 4949:1 11563:1 16574:2 17174:1 19525:1 22060:1 28041:1 28042:2 28043:2 28044:2 28045:1 28046:1 28047:2 28048:1 28049:1 28050:2 28051:1 28052:1 28053:1 28054:1 28055:1 28056:2 28057:4 28058:5 #
-0.0012145687396875159535375443553562 83:1 86:1 138:1 148:4 191:1 218:1 345:1 671:1 2732:1 3173:1 5995:1 7182:1 19168:2 19509:1 23664:1 23665:1 23666:1 23667:1 23668:1 #
-0.00447123780196511874662768093458 2:2 6:1 118:1 366:1 387:1 436:1 563:2 805:1 2489:1 3276:1 5527:1 25460:1 #
-0.00061594877863780685134376113865073 218:1 330:2 423:1 430:2 1038:1 1192:1 1225:1 1559:3 2151:2 2493:2 2577:2 3558:1 3799:1 3800:1 3801:1 3802:3 3803:1 3804:1 3805:1 3806:2 #
0.00447123780196511874662768093458 2:1 6:2 19:1 20:1 21:2 22:2 24:2 25:1 26:1 27:1 28:2 29:1 30:1 31:1 43:1 53:1 54:1 64:1 97:1 107:1 139:1 150:1 216:1 377:1 436:1 484:1 519:1 520:1 521:1 522:1 523:1 524:1 525:2 526:1 527:1 528:1 529:1 530:1 531:1 532:1 533:1 534:1 535:1 536:1 537:1 538:1 539:1 540:2 541:1 542:1 543:1 544:1 545:1 #
0.00447123780196511874662768093458 5:2 6:1 12:2 15:1 28:1 31:1 54:1 60:2 87:1 93:1 109:1 115:2 127:1 140:1 146:1 148:3 186:3 204:1 217:1 218:2 227:1 376:1 387:1 436:1 439:1 440:1 480:1 500:1 512:2 626:1 835:1 870:1 953:2 1237:4 1238:1 1239:1 1240:1 1241:1 1242:1 1243:1 1244:1 1245:1 1246:1 1247:1 1248:1 1249:1 1250:1 1251:1 1252:1 1253:1 1254:1 1255:1 1256:1 1257:1 1258:1 1259:1 #
0.00447123780196511874662768093458 2:1 3:1 6:4 7:3 14:1 19:1 20:1 21:2 22:2 24:2 25:1 26:1 27:1 28:1 29:1 30:1 31:1 56:2 64:1 85:5 91:3 93:1 229:1 341:2 441:1 459:1 608:1 609:1 610:1 611:2 612:2 613:2 614:1 615:2 616:1 617:2 618:1 619:1 620:1 621:1 622:1 623:1 624:2 625:2 626:1 627:2 628:1 629:1 630:1 #
-0.0013912062396510848673314431067638 2:3 6:1 12:2 31:2 40:2 43:2 57:1 58:1 82:1 107:2 109:1 115:2 124:1 140:1 161:1 172:1 220:8 309:1 366:1 484:1 536:1 589:2 594:1 662:2 663:2 680:1 703:2 725:1 766:1 767:1 866:1 1100:1 1256:1 1463:4 1618:1 1751:1 1891:1 1967:1 1969:1 2366:3 2462:1 2500:1 2513:1 2561:1 2608:1 2763:2 2854:1 2860:1 3050:1 3093:1 3166:1 3200:1 3229:1 4093:1 4155:1 4289:1 4704:1 4756:1 4854:1 5200:1 8711:1 8712:1 8713:1 8714:2 8715:1 8716:1 8717:1 8718:1 8719:1 8720:1 8721:1 8722:1 8723:1 8724:1 8725:1 8726:1 8727:1 #
-0.00447123780196511874662768093458 6:5 44:1 171:2 186:3 206:1 218:1 384:1 433:2 436:1 461:1 474:1 484:1 560:1 654:1 670:1 674:1 1092:3 1110:1 1226:1 1654:1 1695:1 1849:1 1854:1 1855:1 1859:1 1860:2 1865:1 1881:2 1891:1 2077:1 2368:1 2761:1 2817:1 3102:2 3217:1 4146:1 4273:1 4656:1 5366:1 7289:3 7431:1 8237:1 9459:2 11466:1 18413:1 18414:1 18415:1 18416:2 18417:1 #
-0.0010337874507862184533107940964669 31:1 40:2 54:2 60:1 93:2 95:2 109:2 147:4 148:1 220:6 237:1 238:1 242:2 307:1 319:1 366:1 538:1 680:1 714:1 957:1 976:1 1185:1 1376:2 1608:1 1681:1 1799:1 1986:1 2589:1 2968:1 3055:3 3056:2 3059:1 3060:3 3066:1 3074:1 4702:2 5491:1 7684:1 8790:2 16651:3 17198:1 17777:1 17778:1 17779:1 17780:1 17781:1 17782:1 17783:1 17784:1 #
-0.00447123780196511874662768093458 19:1 20:1 21:2 22:2 24:2 25:1 26:1 27:1 28:1 29:1 30:1 220:3 346:1 369:1 901:1 965:1 1328:1 2072:1 2088:1 6784:1 9514:1 29484:2 29485:2 #
-0.0011587743409995395881678659222302 2:2 31:1 40:5 43:1 76:1 123:1 126:1 139:1 175:1 220:5 234:1 310:1 341:1 441:2 447:1 550:2 587:3 714:1 830:1 1279:4 1282:2 1299:1 1591:1 1608:1 1763:1 1921:1 2138:1 2171:1 2325:2 2525:1 2691:1 3157:1 4772:1 8146:1 8179:1 8180:1 8181:5 8182:1 8183:5 8184:1 8185:1 8186:1 8187:2 8188:1 #
0.00447123780196511874662768093458 5:2 31:1 103:1 126:1 153:1 170:1 326:1 659:1 775:1 776:1 777:1 778:1 779:1 780:1 781:1 782:2 783:1 784:1 785:1 786:1 787:1 788:1 #
0.00447123780196511874662768093458 2:1 5:2 12:2 13:2 31:1 43:1 44:1 110:1 146:1 169:1 326:1 366:1 451:1 456:3 560:2 671:1 783:1 789:1 1096:1 1097:1 1098:1 1099:1 1100:1 1101:1 1102:1 1103:1 1104:2 1105:1 1106:1 1107:1 1108:1 1109:1 1110:1 1111:1 1112:1 1113:1 1114:1 1115:1 #
0.00447123780196511874662768093458 2:1 43:1 56:1 69:1 70:1 140:1 146:1 161:1 162:1 171:1 252:2 266:1 303:1 436:1 492:1 498:2 559:1 673:1 694:1 705:3 706:1 707:2 708:1 840:3 847:3 981:1 1036:1 1116:1 1117:1 1118:1 1119:2 1120:5 1121:1 1122:1 1123:10 1124:1 1125:1 1126:2 1127:1 1128:2 1129:1 1130:1 1131:1 1132:1 1133:1 1134:1 1135:1 1136:2 1137:1 1138:1 1139:1 1140:1 1141:1 1142:1 1143:1 1144:1 1145:1 1146:1 1147:1 1148:1 1149:1 1150:1 #
0.00447123780196511874662768093458 5:3 31:1 101:1 148:1 166:1 655:1 656:1 657:1 658:1 659:1 660:1 661:1 662:2 663:2 664:1 665:1 666:1 #
-0.00447123780196511874662768093458 5:2 28:1 55:1 512:1 686:1 825:1 1146:1 1163:1 1515:1 1632:1 1660:1 1750:1 1806:1 2047:1 2805:1 3039:2 3930:1 4132:1 5491:1 6178:1 9106:2 9107:2 9108:2 9109:1 #
-0.00447123780196511874662768093458 2:1 5:1 12:2 43:1 59:2 86:1 91:1 146:1 148:1 153:1 170:1 188:1 236:1 307:1 459:1 586:1 705:1 768:1 830:1 958:1 1172:1 1314:1 1870:1 7622:2 7623:1 7624:2 7625:1 7626:1 7627:2 7628:1 7629:2 7630:1 7631:1 7632:1 7633:1 #
-8.9780839940093481771517247569392e-05 12:1 31:1 115:2 153:1 230:1 241:1 289:1 310:1 328:10 366:1 377:1 474:1 480:1 503:2 618:10 835:1 878:10 978:3 1247:14 1400:1 1446:2 1465:1 1469:10 1470:1 1475:1 1980:1 2076:1 2730:2 2761:1 2884:1 3101:10 3253:1 3787:2 4702:1 4937:3 5735:1 7181:1 9374:1 10406:1 13267:1 15347:10 21677:1 22299:1 22300:1 22301:1 22302:1 22303:2 22304:1 22305:2 22306:2 22307:1 22308:1 22309:1 22310:1 22311:10 22312:10 22313:11 22314:1 22315:1 22316:1 #
-0.0013080776822383174268216166069578 19:3 21:1 22:1 24:1 26:1 27:1 28:1 29:1 31:1 46:1 68:1 102:1 105:1 106:1 126:1 201:5 355:2 359:2 363:1 402:1 423:1 792:1 913:1 921:1 1465:1 1685:1 1805:1 1806:1 1851:1 1924:1 2004:1 2033:1 2090:1 2180:1 2184:1 2477:1 3208:1 3238:1 3280:1 3378:1 4252:1 4682:1 5809:1 6061:1 6592:1 7361:1 8886:1 9319:1 10547:1 10884:1 11414:1 15948:5 15949:1 15950:1 15951:1 15952:3 15953:1 15954:1 15955:1 15956:1 15957:1 15958:1 15959:1 15960:2 15961:1 15962:1 15963:1 15964:1 15965:1 15966:1 15967:1 15968:1 #
0.00447123780196511874662768093458 5:2 6:2 31:1 80:2 87:1 153:1 186:9 221:1 355:1 362:1 366:1 372:1 375:2 436:1 447:4 503:1 546:1 547:1 548:1 549:1 550:1 551:1 552:1 553:1 554:1 555:1 556:1 557:1 558:1 559:1 560:1 561:1 #
-0.001827614672147926484432889360221 5:1 39:1 43:1 45:1 47:3 55:2 85:1 146:1 220:2 234:1 252:1 310:4 341:2 369:1 423:1 447:1 524:1 668:1 673:2 681:1 694:2 695:1 696:1 705:1 706:1 707:2 708:1 832:1 908:1 1036:1 1137:2 1175:1 1300:1 1377:1 1496:1 1654:1 1684:1 3053:2 3063:2 3108:1 3428:1 4201:11 6148:1 6317:1 7344:1 7948:1 8213:1 9086:1 9113:1 11279:1 11708:1 12054:1 12875:1 13192:1 13767:3 19564:1 22418:1 22419:1 22420:1 22421:2 22422:2 22423:1 22424:2 22425:2 22426:1 22427:1 22428:1 22429:1 22430:1 22431:1 22432:1 22433:1 #
-0.0011316161071386644787484243579456 24:3 31:2 43:3 46:1 82:2 109:1 140:1 158:1 235:1 236:1 241:1 290:2 309:1 420:2 557:1 603:1 613:1 695:5 705:1 773:1 1021:2 1358:1 1447:1 1477:1 1501:1 1997:2 1999:2 2125:1 2203:1 2214:2 2602:1 2678:1 2968:1 3124:1 3433:1 4759:3 5204:1 5889:1 5916:1 7872:1 8233:2 8598:1 9030:1 9058:2 9059:1 9060:1 9061:2 9062:1 9063:1 9064:1 9065:1 9066:1 9067:1 9068:1 9069:1 9070:1 9071:1 9072:1 9073:1 9074:1 9075:1 9076:1 9077:1 9078:1 9079:1 #
-0.0012023114565955061571606021786351 2:2 24:1 28:8 31:5 43:4 86:1 88:1 117:1 119:3 126:1 143:1 151:1 188:1 252:9 319:1 363:1 427:5 559:1 575:1 701:3 753:1 838:1 1024:2 1182:1 1447:2 1806:1 1880:1 2004:1 2373:1 2512:1 2594:1 2609:1 2737:2 2790:1 2832:4 3430:2 3540:2 4044:2 7417:2 8781:1 9620:1 9622:1 11017:2 12672:2 13908:3 15577:2 18875:1 21335:1 21339:2 21340:1 21341:1 21342:1 21343:1 21344:1 21345:1 21346:1 21347:1 21348:2 21349:1 21350:1 21351:1 21352:2 21353:2 21354:5 21355:1 21356:3 21357:1 21358:1 21359:1 21360:3 21361:1 21362:1 21363:1 #
-0.00081844724922002236484896986468129 2:1 31:1 43:1 47:1 67:1 70:1 80:1 221:1 234:1 241:2 373:1 384:1 388:1 392:1 420:1 459:1 490:1 589:1 615:4 651:1 681:11 745:2 750:1 753:1 822:1 838:1 908:1 983:1 1083:2 1738:2 3074:1 4728:4 7334:1 7515:1 7570:2 7593:1 11305:1 12173:1 12195:1 12196:1 15374:1 22572:1 29402:1 29403:1 29404:1 29405:1 29406:1 29407:1 29408:1 29409:1 29410:1 29411:1 29412:1 29413:1 #
-0.0024790655958263196206869949378415 2:1 3:1 6:1 31:2 43:1 234:1 729:1 743:1 950:1 1465:1 2082:1 3324:1 4282:1 4283:1 4284:1 4285:1 4286:1 4287:1 4288:1 #
-0.00037626678091886396268495040828839 31:1 44:2 61:5 102:1 201:1 388:2 627:1 630:1 651:1 792:2 797:2 826:1 1143:2 1442:6 1608:1 1857:1 2026:1 2377:2 2594:1 2650:1 2743:1 3280:1 3516:5 3518:1 4162:1 8195:1 10697:1 13060:1 15660:5 20652:1 22725:1 23768:1 23769:1 23770:1 23771:1 23772:1 23773:1 #
-0.00020558691023448059606061610882222 31:1 43:2 46:3 153:2 201:2 276:3 384:1 397:3 559:3 618:1 706:3 772:3 792:3 797:4 1303:1 2465:1 2746:1 3235:1 3626:2 3708:1 4774:1 5410:5 7438:2 7550:2 7952:1 17225:1 17226:1 17227:1 17228:1 17229:2 17230:1 17231:2 17232:1 17233:1 17234:1 #
-0.0025440825470644159306266018916176 6:2 62:1 80:1 142:1 161:2 378:1 397:1 414:1 436:2 835:2 1492:1 1608:2 1867:1 2044:1 2111:1 2463:1 2685:1 2760:1 2761:1 2762:1 2763:2 2764:1 2765:1 2766:1 2767:1 2768:1 2769:1 #
-0.0019224643727812431876628140869911 2:2 31:1 170:1 447:1 455:2 492:1 563:2 629:1 797:2 3102:1 5533:1 16883:1 24976:1 24977:1 24978:1 24979:1 #
0.00447123780196511874662768093458 5:2 6:1 12:1 14:1 19:1 20:1 21:2 22:2 24:2 25:1 26:1 27:1 28:1 29:1 30:1 31:2 43:1 47:1 87:1 109:1 229:1 492:1 806:1 807:1 808:1 809:1 810:1 811:1 812:1 813:1 814:1 815:1 816:1 817:1 818:1 819:1 820:1 821:1 822:1 823:1 824:2 825:1 826:1 #
0.00447123780196511874662768093458 2:1 5:3 6:5 10:1 12:3 54:1 60:1 87:1 107:1 139:1 146:2 150:1 153:2 166:1 167:1 168:1 169:1 170:1 171:7 172:1 173:1 174:2 175:1 176:1 177:1 178:1 179:1 180:1 181:1 182:1 183:1 184:1 185:1 186:1 187:2 188:5 189:2 190:1 191:1 192:1 193:1 194:1 195:1 196:1 197:1 198:2 199:1 200:1 201:1 202:1 203:1 204:1 205:1 206:1 207:1 208:1 209:1 210:1 211:1 212:1 213:1 214:1 215:1 216:1 217:1 #
0.00447123780196511874662768093458 2:4 5:3 31:1 43:4 107:1 118:7 215:1 241:1 309:2 314:1 320:1 447:1 448:1 449:2 450:1 451:1 452:1 453:1 454:3 455:2 456:2 457:1 458:1 459:1 460:1 461:1 462:1 463:1 464:1 465:2 466:2 467:1 468:3 469:1 470:1 471:1 472:1 473:1 474:1 475:1 476:4 477:1 478:1 479:1 480:3 481:1 482:1 483:1 484:1 485:1 486:3 487:1 488:1 489:1 490:1 491:1 492:1 493:1 #
0.00447123780196511874662768093458 2:2 4:1 5:1 6:1 12:3 15:3 16:1 19:1 20:1 21:2 22:2 24:2 25:1 26:1 27:1 28:1 29:1 30:1 31:1 87:1 142:1 171:1 289:2 332:1 414:1 455:1 494:1 495:1 496:1 497:1 498:1 499:2 500:1 501:1 502:2 503:2 504:2 505:1 506:1 507:1 508:1 509:1 510:1 511:1 512:1 513:1 514:1 515:1 516:1 517:1 518:1 #
-0.00056900098362505169627412193733562 3:2 12:17 31:1 43:3 54:2 68:1 82:1 97:1 118:2 126:1 139:1 142:4 188:3 234:3 269:2 289:1 291:1 309:1 319:1 341:1 343:1 414:1 447:2 455:3 456:6 460:1 476:1 632:4 644:1 661:2 726:2 831:1 861:1 908:1 1017:2 1234:2 1240:1 1279:2 1392:1 1401:3 1469:2 1490:1 1512:1 1715:1 1780:1 2090:2 2359:1 2420:2 2462:3 2610:1 2650:1 2660:16 2821:3 2854:3 3009:1 3168:1 3169:3 3261:2 3345:2 4240:1 5054:1 5074:1 5133:3 5698:2 5703:2 7200:2 7534:1 8579:1 9376:1 10511:1 11861:1 12127:2 12898:1 13270:1 13780:1 16984:1 18003:1 18907:1 18908:2 18909:1 18910:1 18911:3 18912:3 18913:3 18914:1 18915:1 18916:1 18917:1 18918:1 18919:1 18920:1 18921:2 18922:1 18923:1 18924:1 18925:1 18926:1 #
-0.0006110062380580552404349403694539 6:1 21:2 22:2 24:2 26:2 32:1 43:1 58:1 95:4 107:1 122:2 123:1 140:1 201:1 218:2 236:3 309:1 354:1 355:1 423:1 431:1 522:2 613:2 627:4 662:1 663:1 804:1 945:2 966:1 975:1 1083:2 1161:1 1182:1 1226:1 1303:1 1308:1 1799:4 1929:2 1962:1 1963:1 2004:2 2088:1 2260:2 2441:2 3930:1 4557:2 4670:7 4777:1 6451:1 6771:1 8195:5 8328:1 8352:2 8670:2 11867:2 12338:1 18581:2 19773:1 19774:2 19775:2 19776:1 19777:1 19778:1 19779:1 19780:1 19781:1 19782:1 19783:1 19784:1 19785:1 19786:1 #
-0.001033052230565976482845602646421 19:1 31:1 43:3 44:1 118:6 156:1 314:1 411:2 436:1 469:1 480:1 503:2 592:1 787:1 1436:1 1532:1 1605:1 1695:1 1814:1 2421:1 2723:1 2724:1 2725:2 2726:1 2727:1 2728:1 2729:1 2730:1 2731:1 2732:1 2733:1 2734:1 2735:1 2736:1 2737:1 2738:1 2739:1 2740:1 #
-0.00066285586175879535400512487797187 2:1 6:3 12:2 31:1 43:1 46:1 107:1 118:5 139:1 141:1 153:1 170:1 180:1 225:1 247:1 289:1 314:3 316:2 341:3 417:1 480:1 773:1 822:1 841:1 919:1 920:1 945:1 970:1 981:1 1303:1 1340:4 1671:1 1711:4 1732:1 1746:1 1970:2 1980:1 2086:1 2440:1 2849:1 3481:1 3733:8 3761:1 4794:1 5065:1 5877:1 5921:1 6784:1 6953:1 8834:1 10909:1 11880:1 14434:1 15249:1 16951:1 18061:2 18169:1 18318:1 23685:1 26890:1 26891:3 26892:1 26893:1 26894:1 26895:6 26896:1 26897:1 26898:1 26899:1 26900:1 26901:1 #
0.00447123780196511874662768093458 5:4 31:1 150:1 486:1 543:1 569:1 570:1 659:1 957:1 1115:2 1179:1 1181:1 1188:1 1189:1 1190:1 1191:1 1192:1 1193:1 1194:1 1195:1 1196:1 #
-0.00019939152755776924142751271862295 2:10 28:2 31:1 43:5 44:12 47:1 54:3 55:23 58:6 80:1 82:2 88:4 97:1 117:1 118:2 119:7 126:3 139:1 140:1 153:1 197:4 221:1 227:4 229:1 232:2 236:9 291:4 295:3 310:1 336:1 339:1 382:2 420:2 441:1 447:1 455:2 459:1 520:4 522:1 536:4 538:1 567:16 574:1 592:2 630:1 644:1 701:1 705:18 723:1 908:1 953:4 981:5 1160:4 1286:9 1358:1 1515:1 1801:2 1872:1 1938:22 2018:1 2033:1 2084:1 2088:1 2117:1 2187:2 2188:2 2189:1 2190:2 2191:2 2192:1 2193:1 2194:1 2195:2 2196:1 2197:1 2198:1 2199:2 2200:1 2201:1 2202:3 2203:8 2204:3 2205:6 2206:3 2207:3 2208:6 2209:5 2210:4 2211:8 2212:4 2213:9 2214:7 2215:3 2216:3 2217:4 2218:4 2219:7 2220:4 2221:4 2222:3 2223:6 2224:3 2225:3 2226:2 2227:1 2228:1 2229:4 2230:4 2231:6 2232:3 2233:3 2234:9 2235:3 2236:3 2237:3 2238:6 2239:6 2240:6 2241:6 2242:3 2243:3 2244:9 2245:7 2246:4 2247:7 2248:4 2249:3 2250:1 2251:1 2252:1 2253:1 2254:1 2255:1 2256:1 2257:1 2258:1 2259:1 2260:1 2261:1 2262:1 2263:1 2264:1 2265:1 2266:1 2267:3 2268:1 2269:1 2270:3 2271:1 2272:1 2273:1 2274:1 2275:1 2276:1 2277:1 2278:1 2279:1 2280:1 2281:1 2282:1 2283:2 2284:1 2285:3 2286:1 2287:1 2288:1 2289:1 2290:1 2291:1 2292:1 2293:1 2294:3 2295:1 2296:6 2297:1 2298:1 2299:1 2300:1 2301:1 2302:1 2303:1 2304:1 2305:1 2306:1 2307:1 2308:1 2309:1 2310:1 2311:1 2312:1 2313:1 2314:1 2315:1 2316:1 2317:1 2318:1 2319:1 #
-0.0015392711231714095287265164913038 2:1 12:1 31:1 43:1 156:1 276:2 346:1 451:1 557:1 672:2 705:7 939:4 1061:1 1962:1 2429:1 3109:1 3142:1 3406:1 5948:1 6369:6 10727:1 12940:1 22143:1 23455:5 24469:1 25436:1 25437:1 25438:1 25439:1 25440:1 25441:1 25442:3 25443:1 25444:1 25445:2 25446:1 25447:1 25448:1 25449:2 25450:1 25451:1 25452:1 25453:1 25454:1 #
-0.00030555031656172965646989236887521 2:4 3:2 28:1 43:1 47:2 54:2 89:1 112:1 115:2 201:2 204:2 227:1 234:1 236:3 288:1 316:7 324:1 336:1 384:1 528:1 575:1 705:6 740:1 750:3 775:1 778:1 794:1 807:1 918:7 939:1 953:1 981:1 985:1 999:1 1161:2 1172:1 1182:5 1286:1 1345:1 1436:1 1501:1 1811:1 2000:1 2022:1 2030:2 2084:1 2203:1 2218:1 2238:1 2252:1 2266:1 2504:1 2561:1 2568:1 2581:1 2586:1 2737:1 2787:1 2943:1 3573:1 4236:3 4240:1 4774:5 5247:1 5770:2 6488:1 6492:1 7213:1 7625:1 7667:2 8219:1 8295:5 9130:1 10773:1 10851:2 15009:1 15602:1 18056:1 21076:1 22608:7 26580:1 28118:2 28119:1 28120:2 28121:1 28122:1 28123:1 28124:2 28125:1 28126:1 28127:1 28128:3 28129:2 28130:1 28131:1 28132:1 28133:2 28134:1 28135:2 28136:1 28137:1 28138:1 28139:1 28140:1 28141:1 28142:1 28143:1 28144:1 28145:1 28146:1 28147:2 28148:1 28149:1 #
-0.00048528646546966685421109488629554 31:1 43:1 47:1 55:3 67:1 70:1 166:1 171:4 218:1 221:1 236:2 301:2 366:1 436:3 479:1 485:1 567:2 673:3 695:1 701:1 705:2 828:1 830:3 838:1 908:1 1021:3 1033:1 1137:2 1160:1 1172:1 1184:5 1608:1 1779:1 1814:2 2006:1 2018:1 2022:1 2032:1 2084:1 2214:1 2265:1 2330:1 2387:1 2554:1 2565:1 2596:1 2605:1 3282:1 3826:1 4047:1 4308:1 4332:1 4592:1 4853:1 5590:2 5597:1 5603:2 5608:1 5926:1 5927:1 5935:1 7426:1 9043:2 9335:1 11708:1 12054:2 13033:1 13034:5 13035:2 13036:4 13037:1 13038:1 13039:1 13040:2 13041:2 13042:1 13043:6 13044:1 13045:1 13046:1 13047:1 13048:1 13049:1 13050:1 13051:1 13052:1 13053:1 13054:1 13055:1 13056:1 13057:1 #
-0.0015513601093463220362972387889045 5:2 7:1 31:2 43:1 59:1 64:1 66:1 67:2 93:1 97:1 109:2 140:1 148:4 150:3 153:5 161:1 170:7 186:1 218:1 220:1 221:1 223:1 234:1 235:3 241:1 249:1 343:2 420:1 440:1 441:1 479:2 486:1 529:3 535:10 536:1 593:1 610:1 683:1 901:2 970:1 1081:1 1146:1 1148:1 1298:1 1349:2 1638:1 1720:1 1763:1 1891:1 1908:1 2368:1 2459:1 2525:1 2685:1 3074:2 3201:1 3331:1 3399:1 3988:1 4240:2 4468:1 4584:1 5448:1 8237:1 8377:2 9813:1 17189:1 17190:1 17191:1 17192:1 17193:1 17194:1 17195:1 17196:1 17197:1 17198:1 17199:1 #
-0.00447123780196511874662768093458 21:2 22:2 24:2 26:2 67:2 68:1 105:1 288:1 382:1 447:1 542:1 745:1 965:1 1920:1 2004:1 4508:1 4954:1 5037:1 9512:1 9513:2 9514:1 9515:1 9516:1 #
-0.0033274520575012852575957911227533 12:3 21:2 22:2 24:2 26:2 27:2 28:2 29:2 31:1 43:2 70:1 97:1 148:1 170:1 309:1 560:1 658:1 947:2 1695:1 1773:1 2030:1 2077:1 2184:2 2350:1 2377:2 4162:1 4508:2 6363:1 16242:1 22751:1 26191:1 26192:1 26193:1 26194:1 #
-0.00074039628510653261121016166512732 2:2 43:1 60:1 105:1 124:1 148:1 221:1 256:2 267:3 269:3 279:2 280:1 322:1 359:1 420:1 430:2 794:1 907:1 978:1 1200:2 1204:1 1209:1 1376:1 1749:4 2017:1 2077:1 2544:2 2771:2 2777:1 3006:1 3066:1 3108:1 3455:1 3829:1 3981:1 5237:1 17235:2 17236:1 17237:1 17238:1 17239:1 17240:3 17241:1 17242:1 17243:2 17244:2 17245:1 17246:1 17247:1 17248:1 17249:1 17250:1 17251:1 17252:1 #
-0.00061578260592847573664382343494594 2:1 21:1 22:1 26:1 28:6 31:2 43:2 67:7 95:2 101:1 170:1 341:1 411:1 420:2 459:3 475:1 574:1 592:2 674:1 830:1 903:1 965:1 1300:1 1497:2 1980:1 2589:1 4508:1 5037:1 7566:1 7573:1 9131:2 9710:1 10697:1 14408:1 14792:1 19275:1 19276:1 19277:1 19278:5 19279:1 19280:1 19281:1 19282:1 19283:1 19284:1 19285:1 19286:2 19287:1 19288:1 #
-0.0019384455689079155803200560370669 2:2 5:3 60:1 61:1 66:1 67:2 86:2 93:4 109:1 126:3 153:2 170:3 174:1 201:3 234:1 322:2 341:1 371:1 384:1 440:1 444:2 475:1 723:1 725:1 768:1 783:1 794:1 810:1 841:1 842:1 970:2 978:3 1161:1 1264:1 1267:2 1469:2 1671:1 1760:1 2017:3 2077:3 2331:1 2363:3 2559:1 2877:1 2935:1 3331:1 3599:3 3613:1 3961:2 4308:1 4470:1 4500:1 4597:1 4699:1 5027:1 5543:1 6080:1 6772:4 7150:1 9707:3 13060:3 14633:1 15521:1 22565:1 22566:1 22567:1 22568:1 22569:1 22570:1 22571:1 22572:1 22573:1 22574:1 22575:1 #
-0.00073282673599884358330708300499623 21:2 22:2 24:2 26:2 27:2 28:3 29:2 31:1 43:2 54:2 69:1 107:1 134:1 148:1 220:1 241:1 420:2 447:1 459:1 681:4 707:1 783:1 798:1 908:1 913:1 1119:1 1252:1 1501:3 1550:2 1608:2 1739:2 2025:3 2184:2 3331:1 3487:1 3581:2 3940:1 4490:1 4508:2 4592:1 4602:1 6418:1 7274:1 9113:1 11708:1 11777:1 12054:1 12230:1 13872:1 14987:1 19619:1 20363:1 22604:1 25884:2 25885:1 25886:1 25887:5 25888:1 25889:1 25890:1 25891:1 25892:1 25893:1 25894:2 25895:1 25896:2 25897:2 25898:1 25899:2 25900:1 #
-0.00038592460408526293178313459897311 2:4 21:1 22:1 24:1 26:1 28:1 31:1 68:1 210:1 288:3 291:3 346:3 377:4 425:1 447:1 451:1 492:1 495:1 552:1 754:1 860:1 1091:1 1100:1 1185:1 1192:1 1234:2 1515:1 1980:2 2050:1 2105:1 2387:1 2712:1 2820:1 2821:1 2893:1 3108:1 3296:1 3486:1 3502:1 3930:1 4099:1 4447:1 4497:3 4506:1 4508:1 4609:1 5053:1 5686:2 5912:1 8317:1 23660:1 23661:1 23662:1 23663:1 #
-0.0012369007049705779861803467412074 2:1 20:2 22:4 24:2 43:1 70:2 105:1 109:1 135:4 140:1 153:1 229:1 276:1 328:1 433:1 508:1 610:1 750:1 766:1 767:1 901:1 970:4 1061:1 1169:1 1182:1 1185:1 1226:1 1385:1 1389:1 1605:6 1621:2 1622:1 2025:1 2092:1 2220:1 2584:2 3018:1 3074:3 3108:2 3516:3 3626:1 4592:1 5037:4 6523:1 6908:1 9836:1 18913:1 23208:1 23209:1 23210:1 23211:1 23212:1 23213:1 23214:1 23215:1 23216:2 23217:2 23218:1 23219:2 23220:2 #
-0.00022560623454388967559780532212699 12:2 21:3 22:3 24:3 26:3 27:3 28:3 29:3 31:2 43:1 58:2 139:1 140:1 201:2 221:1 267:3 269:3 392:1 623:1 627:3 701:2 772:1 833:1 938:2 939:1 1230:1 1446:1 1860:1 2004:1 2184:3 2189:1 2390:1 2924:3 3626:1 4440:1 4508:2 5675:1 5804:1 7819:1 9468:1 10411:1 21223:1 21224:1 21225:1 21226:2 21227:1 21228:1 21229:1 21230:1 21231:1 21232:1 21233:1 21234:1 21235:1 21236:1 21237:1 21238:1 #
0.0019723074875301425251672426952609 5:3 6:5 19:1 25:1 43:3 60:1 87:3 109:2 117:3 118:1 119:5 143:1 148:2 150:2 157:2 186:12 206:1 213:4 241:2 359:1 360:7 361:3 362:2 363:1 364:1 365:1 366:2 367:3 368:5 369:3 370:1 371:1 372:1 373:1 374:1 375:1 376:1 377:1 378:1 379:1 380:1 381:2 382:6 383:1 384:2 385:1 386:3 387:2 388:1 389:2 390:1 391:1 392:1 393:1 394:1 395:1 396:1 397:1 398:1 399:1 400:1 401:1 402:1 403:1 404:1 405:1 406:1 407:2 408:1 409:1 410:1 411:1 412:1 413:1 414:1 415:1 416:1 417:1 418:1 419:1 420:1 421:2 422:1 #
0.00447123780196511874662768093458 5:3 6:1 19:3 20:3 21:6 22:6 24:6 25:3 26:3 27:1 28:1 29:1 30:1 59:3 60:1 67:1 68:1 70:1 93:1 102:1 139:1 153:4 156:2 158:1 234:1 290:1 441:1 511:1 560:1 570:1 613:2 789:1 805:1 957:1 1509:1 1577:1 1578:1 1579:1 1580:2 1581:2 1582:1 1583:2 1584:1 1585:1 1586:2 1587:1 #
-0.0011510619695893737311764848385565 19:1 21:1 22:1 26:1 27:1 28:2 29:1 140:1 411:1 414:1 780:1 912:1 2033:1 2036:1 2184:1 4508:1 9374:1 9516:1 11707:1 12531:1 12532:1 12533:1 12534:2 12535:2 12536:1 12537:1 #
-0.00032687111408139250725429780786158 2:4 3:3 6:1 43:1 44:3 46:3 54:1 86:1 102:1 107:1 126:1 134:1 156:1 157:1 204:1 218:2 221:1 226:1 263:1 277:1 309:1 314:1 366:5 436:1 439:2 503:10 524:1 567:1 781:2 804:1 899:1 919:1 939:1 953:1 981:3 985:1 1090:1 1160:1 1223:4 1226:7 1234:1 1302:4 1360:1 1377:1 1605:3 1608:2 1694:1 1731:2 1755:1 1799:1 1983:1 2364:1 2368:1 2441:2 2638:2 2678:1 2686:1 2830:1 3156:1 3221:1 3486:1 3903:1 3919:2 4272:1 4502:1 4672:3 5454:1 5685:1 5988:8 6008:1 7221:1 8968:1 9642:1 10789:1 11085:1 15259:1 16413:1 16414:1 16415:1 16416:1 16417:2 16418:1 16419:1 16420:1 16421:1 16422:1 16423:2 16424:2 16425:1 16426:1 16427:1 16428:2 16429:1 16430:1 16431:5 16432:1 16433:3 16434:1 16435:3 16436:1 16437:3 16438:1 16439:1 16440:1 16441:1 16442:2 16443:3 16444:1 16445:1 16446:1 #
-0.00077526327315103292763670550513666 12:1 21:1 31:1 43:4 44:1 46:4 56:2 58:1 140:1 218:1 221:1 301:3 366:1 369:1 392:14 397:6 420:1 550:1 673:3 701:1 753:1 835:1 908:1 985:1 1021:6 1036:1 1137:2 1481:1 1515:1 1608:1 2089:1 2179:6 2560:1 2943:1 3235:1 3428:1 3708:1 4562:1 6076:1 6780:1 9172:4 9173:2 9174:2 9175:4 9176:4 9177:1 9178:1 9179:1 9180:2 9181:1 9182:1 9183:1 9184:1 9185:2 9186:2 9187:1 9188:1 9189:1 9190:1 #
-0.0018119002318766790678855604923569 6:4 31:4 43:1 44:1 54:2 82:1 83:1 99:1 103:1 118:1 126:1 150:1 166:1 171:1 234:1 301:2 303:2 420:1 512:5 623:1 628:1 630:1 656:1 661:1 1029:1 1061:1 1245:1 1303:2 1618:3 1938:1 1969:1 2713:1 3166:1 3182:1 4015:1 4155:1 5040:1 5881:1 5926:1 5935:1 7539:1 7916:1 13091:2 17831:1 19018:3 19473:1 19927:1 20690:3 20691:1 20692:2 20693:1 20694:1 20695:1 20696:1 20697:1 20698:1 20699:1 #
-9.6367040962726897498913380957219e-05 6:1 31:1 54:3 97:1 103:4 118:2 126:1 150:8 156:3 161:1 166:1 216:2 228:1 243:4 341:1 361:1 480:1 491:1 549:1 657:1 726:1 758:1 804:1 900:1 1146:1 1515:1 1703:1 1849:1 1860:1 1867:5 1967:4 2029:1 2072:1 2463:1 2525:1 2594:2 3513:1 3624:2 4682:1 6481:1 8136:1 8137:1 8138:1 8139:1 8140:1 8141:1 8142:1 8143:1 8144:1 8145:1 8146:1 #
-0.00013331513539826996819423476914324 2:2 6:5 12:3 43:4 58:1 68:2 82:5 107:1 125:1 126:2 139:1 140:3 188:1 201:3 218:1 221:1 263:1 310:1 314:2 366:2 388:1 392:4 441:1 459:2 584:1 654:1 674:1 701:5 860:1 866:1 908:1 915:1 938:1 1061:10 1081:1 1256:1 1360:1 1387:1 1429:3 1469:1 1509:1 1608:2 1749:1 1823:1 1841:1 1842:1 2022:2 2030:2 2056:3 2089:1 2099:1 2180:1 2333:2 2400:1 2586:2 2787:2 2967:1 3221:6 3535:2 3625:1 3968:1 4505:1 4558:1 4592:1 4672:1 4919:1 5157:1 5519:7 5687:1 5949:3 7319:1 7375:1 7405:1 8172:1 9679:1 9856:4 10962:3 11057:1 11705:1 11868:2 11869:1 11870:1 11871:1 11872:1 11873:1 11874:1 11875:1 11876:1 11877:1 11878:1 11879:1 11880:1 11881:1 11882:1 11883:2 11884:5 11885:1 11886:8 11887:3 11888:1 11889:1 11890:1 11891:3 11892:1 11893:4 11894:1 11895:5 11896:3 11897:2 11898:3 11899:1 11900:1 11901:1 11902:2 11903:2 11904:1 11905:1 11906:1 11907:1 11908:1 11909:1 11910:1 11911:1 11912:1 11913:1 11914:1 11915:1 11916:1 11917:2 11918:1 11919:2 11920:2 11921:1 11922:1 11923:1 11924:1 11925:1 11926:1 11927:1 11928:1 11929:1 11930:1 11931:1 11932:1 11933:1 11934:1 11935:1 11936:1 11937:1 11938:1 11939:2 11940:1 11941:1 11942:1 #
-0.00048317885667888415017132142104117 2:2 31:1 43:1 61:1 82:4 97:1 126:1 148:1 161:1 206:1 263:1 310:1 316:1 326:1 328:1 343:1 366:2 369:1 436:1 440:3 442:1 948:1 999:10 1026:1 1028:1 1186:1 1509:1 1515:1 1641:1 1720:1 1755:1 2044:1 2261:1 2272:2 2390:2 2685:4 2849:1 3069:1 3182:2 3201:2 4709:3 5204:2 6004:1 6574:1 7488:2 8172:1 9293:1 9836:2 9837:2 9839:2 11305:2 11775:2 12071:1 12072:1 12073:1 12074:1 12075:1 12076:1 12077:1 12078:1 12079:2 12080:1 #
-0.0014932152156586378597552533520343 38:5 43:2 46:4 53:1 54:1 58:1 87:2 112:1 359:1 366:1 680:1 705:2 847:5 1245:1 1559:1 1755:1 1842:1 2340:1 2463:1 2594:1 2834:1 2860:2 2942:2 3486:1 3761:1 4066:4 5877:1 7169:1 8602:2 8850:1 16198:1 26068:1 26404:2 26405:2 26406:1 26407:1 26408:1 26409:1 26410:1 26411:1 26412:1 #
-0.002278325564486347303699842470337 6:2 59:1 60:1 95:1 102:1 118:2 126:1 134:1 139:1 148:5 150:1 171:1 201:1 247:1 249:2 328:1 387:1 439:1 794:1 810:2 900:1 954:1 1160:1 1230:2 1239:1 1601:1 1660:1 1763:1 1851:1 2020:1 2117:1 2131:1 2136:1 2420:1 2554:1 2556:1 2741:1 2877:1 2943:1 3017:1 3201:1 3855:1 4252:1 5407:1 6080:4 6761:1 6762:1 6763:1 6764:1 6765:1 6766:1 6767:1 6768:1 6769:1 6770:1 6771:1 6772:1 6773:1 6774:1 6775:1 #
-0.0026327856295007023325338568753295 5:1 150:2 218:1 366:1 486:1 535:1 657:1 741:1 1027:1 1499:1 1891:1 3074:1 3463:1 3869:1 3870:1 4499:2 4705:1 5940:1 6033:1 11668:1 11669:1 11670:1 11671:1 11672:1 11673:1 11674:1 #
-0.00028152205745806015277019063169917 2:5 12:2 31:2 43:4 46:2 47:1 150:2 153:2 157:1 236:3 248:2 254:1 263:1 276:7 307:1 397:2 416:1 557:2 660:1 678:1 701:1 822:1 835:1 938:1 999:12 1059:2 1172:2 1226:2 1356:1 1377:1 1710:1 1814:1 2105:1 2635:1 2642:1 2700:1 2716:1 2834:1 3430:1 3446:1 3487:1 3855:1 4303:2 4318:1 4502:1 4610:1 5154:1 5550:1 7206:1 7214:1 8993:3 9130:3 11287:1 15553:1 16748:2 16749:3 16750:5 16751:1 16752:1 16753:1 16754:1 16755:1 16756:1 16757:4 16758:1 16759:1 16760:4 16761:6 16762:1 16763:1 16764:2 16765:6 16766:2 16767:1 16768:2 16769:1 16770:5 16771:1 16772:1 16773:1 16774:1 16775:1 16776:1 #
-0.00035667342024664011818427256095276 2:1 12:1 19:1 109:1 123:1 178:1 234:1 241:3 322:1 398:1 421:1 491:1 512:2 567:1 835:1 966:1 1254:1 1495:2 1515:1 1769:1 1772:2 1891:1 2017:1 2021:2 2089:3 2830:1 2943:1 3123:1 4302:2 5900:1 6683:1 7515:2 7906:1 8289:1 9787:2 10086:2 11169:1 13554:1 21642:1 21894:1 24269:2 24270:2 24271:2 24272:1 24273:1 24274:1 24275:1 #
-0.00036715230445888641722107514908657 12:4 43:1 174:1 420:1 520:1 563:1 586:1 701:1 872:1 881:4 953:1 1067:4 1763:1 2283:1 3577:1 4663:1 9683:1 13401:1 18543:1 18544:4 18545:2 18546:2 18547:2 18548:2 #
-0.0011273550811220717574046012998679 19:1 20:1 21:2 22:2 24:1 41:1 43:1 56:2 61:1 82:4 86:1 105:1 106:1 109:1 218:1 232:1 309:1 370:1 384:1 518:1 538:1 628:1 750:1 774:1 908:1 1515:1 1621:1 1622:1 1965:1 2214:5 2220:1 2577:1 2602:1 2605:1 3160:1 3463:1 4759:6 5622:2 5960:1 5962:1 5978:2 5980:1 7561:1 8313:1 8782:2 10315:1 10720:1 11642:1 22648:1 22900:1 22910:1 22911:1 25153:1 29560:1 29561:1 29562:1 29563:1 29564:1 29565:1 29566:1 29567:1 29568:1 29569:1 29570:1 29571:1 29572:1 29573:1 29574:1 29575:2 #
-0.0011121741822650030653840680372468 2:1 31:2 58:1 97:1 107:1 118:3 153:2 186:5 188:4 221:1 243:1 289:1 309:1 345:1 417:1 418:1 425:1 433:1 480:2 485:1 486:3 589:1 592:1 831:3 970:1 1100:1 1651:1 1681:1 1710:2 1814:1 1938:3 1980:3 2020:1 2025:1 2421:1 2468:2 2514:1 3208:3 3346:1 3404:2 3486:2 3784:1 4098:1 4252:1 5339:1 5715:1 5765:1 6473:1 7634:1 7906:1 17458:2 17459:1 17460:3 17461:1 17462:4 17463:2 17464:1 17465:1 17466:1 17467:1 #
-0.00061856879210068528573973622997073 31:1 43:2 55:2 126:1 188:10 309:2 1240:1 1515:1 1962:1 3247:1 9460:1 11932:2 28881:2 #
-0.0018539419339772347534306407013105 3:1 21:1 22:1 24:1 26:1 27:1 28:1 29:1 43:1 46:1 54:2 95:4 140:2 162:1 221:1 291:4 373:2 392:5 503:1 550:1 674:1 701:1 835:1 906:1 915:4 1091:2 1224:1 1481:1 1608:1 1685:1 1744:1 1868:1 2184:1 3050:1 3074:1 3156:1 3626:1 4502:3 4508:1 6760:1 8352:1 16246:1 24701:1 25341:1 26906:1 27182:1 27183:1 27184:1 27185:1 27186:1 27187:1 27188:1 27189:1 #
-0.0017866933295971046055661268781023 2:1 12:1 43:1 109:1 140:1 156:5 241:1 250:1 291:1 447:2 705:1 825:1 866:1 938:1 985:3 2131:1 4236:1 5742:1 6008:1 6262:1 9244:1 9698:4 9699:1 9700:1 9701:1 9702:1 9703:3 9704:1 9705:2 9706:1 #
-0.0028731794135337020840159638623845 2:2 6:1 21:1 54:1 58:1 146:1 224:1 366:1 433:1 497:1 629:2 630:1 835:1 878:1 968:1 1160:1 1234:1 1668:1 1681:1 2136:1 2348:1 3221:1 3283:1 3865:1 5765:1 5910:1 10848:1 12090:1 14149:1 14150:1 14151:1 14152:1 14153:1 #
-0.00053693558309112247254463179402251 2:2 21:1 22:2 24:3 26:1 28:1 31:1 43:2 47:1 55:1 80:3 82:1 95:2 109:3 123:1 158:1 221:2 234:1 241:3 257:1 263:1 420:1 459:1 464:1 500:1 548:1 651:1 673:4 695:1 827:3 983:1 1137:4 1185:3 1252:1 1265:1 1436:1 1495:1 1768:2 2004:1 2022:1 2214:2 2602:1 2605:12 3011:1 3182:4 3283:1 3338:1 3339:2 3487:1 3584:1 4255:4 4737:4 4756:1 4759:2 4794:1 4926:2 5139:1 5317:1 5622:3 5932:2 5934:3 6229:1 6319:1 6321:1 6523:1 7514:3 9342:1 9530:1 10317:1 11385:3 11437:1 11442:1 13092:1 14083:1 15437:2 15439:1 15826:1 16086:1 19162:1 19163:2 19164:1 19165:1 19166:1 19167:1 19168:2 19169:1 19170:1 19171:1 19172:1 19173:1 19174:1 19175:1 19176:1 19177:1 19178:1 19179:1 19180:1 19181:1 19182:1 19183:1 19184:1 19185:1 19186:1 19187:2 19188:1 19189:1 19190:1 19191:1 19192:1 #
-0.0014756928178534843912328433646053 2:6 31:1 68:2 97:1 102:1 103:4 107:1 109:2 118:1 126:1 140:2 153:1 203:1 221:1 234:1 241:2 337:1 370:1 376:1 387:1 455:1 480:2 660:2 725:1 1520:1 1524:1 1795:1 1811:1 2095:1 2983:1 4170:1 4255:5 6318:1 7288:1 7534:1 11331:1 11698:1 11699:3 11700:3 11701:1 11702:1 11703:1 11704:1 #
-0.00021002307841918205514805673139733 2:1 20:1 22:1 24:4 28:11 41:5 43:1 54:1 68:1 80:1 82:2 89:1 97:4 140:1 146:1 201:1 236:5 241:2 306:1 310:1 341:1 366:1 370:1 411:1 438:1 451:5 498:1 552:1 568:5 651:1 660:1 670:1 673:5 701:1 705:8 749:1 795:1 908:1 914:2 963:1 1061:1 1137:5 1182:6 1185:1 1303:1 1311:1 1360:1 1363:1 1495:1 1556:1 1608:1 2000:1 2004:2 2084:1 2090:1 2368:2 2429:1 2464:1 2577:1 2637:3 3000:1 3184:2 3267:1 3374:4 3406:1 3486:1 3582:1 4255:2 4595:1 4671:3 4800:1 6178:2 6783:1 7211:1 7287:2 7360:12 7535:1 7573:1 7634:2 8397:1 9113:3 10180:2 10547:1 10754:1 11236:1 12415:1 12419:1 12420:21 13347:2 13348:11 13349:3 13350:10 13351:1 13352:1 13353:2 13354:1 13355:1 13356:1 13357:1 13358:1 13359:1 13360:1 13361:1 13362:1 13363:1 13364:1 13365:2 13366:1 13367:1 13368:3 13369:1 13370:3 13371:4 13372:1 13373:1 13374:2 13375:5 13376:5 13377:1 13378:2 13379:1 13380:3 13381:1 13382:1 13383:1 13384:2 13385:1 13386:1 13387:1 13388:1 13389:1 13390:1 13391:1 13392:1 #
-0.00065796274042973531930023067815227 2:2 31:1 43:2 46:1 55:1 58:1 67:4 69:3 70:1 97:1 109:1 153:1 156:2 161:2 236:2 241:1 301:1 384:1 428:1 455:3 459:1 567:1 613:1 620:1 623:1 705:4 912:1 961:1 983:1 1160:4 1800:2 2084:1 2133:1 2214:1 2572:1 2584:1 2602:1 2716:1 3338:1 3406:1 4236:1 4255:1 4759:2 4925:1 5910:1 5969:1 5971:5 5973:5 5974:1 6456:1 10265:1 11254:2 14077:3 15094:1 22910:1 28614:1 29576:1 29577:1 29578:1 29579:1 29580:1 29581:4 29582:4 29583:1 29584:1 29585:1 29586:1 29587:3 29588:2 29589:1 29590:2 29591:1 29592:1 29593:1 29594:1 29595:1 29596:1 #
-0.0011834870025768365244672741809495 2:4 12:2 19:1 21:1 31:2 43:2 54:1 82:2 112:1 114:1 140:1 156:1 201:1 234:1 249:1 277:3 392:1 423:1 450:1 480:3 550:1 629:1 651:1 662:1 663:1 966:1 1200:2 1204:1 1234:1 1347:1 1678:1 1967:1 1972:1 1991:1 2027:1 2036:1 2090:2 2254:1 2258:1 2778:1 3552:1 3790:1 3840:1 5370:1 5506:1 6504:1 6785:2 7539:1 7975:1 11509:1 11510:1 11511:1 11512:2 11513:1 11514:1 11515:1 11516:1 11517:1 11518:1 11519:1 11520:1 11521:2 11522:1 11523:1 11524:1 11525:1 11526:1 11527:1 11528:1 11529:1 11530:1 11531:4 11532:1 11533:1 11534:1 11535:1 11536:3 11537:1 11538:1 11539:1 11540:1 #
-0.0020216885695224285669768793383128 31:2 54:1 60:3 65:2 148:1 201:1 230:2 232:2 267:1 355:1 359:1 384:1 388:1 441:1 577:1 825:1 965:1 966:1 969:1 1083:2 1204:1 1360:2 1660:1 1774:3 2006:1 2030:1 2687:1 3216:1 4001:1 10491:1 15261:1 15262:1 15263:1 15264:1 15265:1 15266:1 15267:1 15268:2 15269:1 #
-0.00042456285774453172456033289705601 3:3 28:1 31:1 43:1 55:1 64:1 95:2 117:1 140:1 143:1 192:6 447:1 478:5 479:1 498:1 503:1 552:1 613:4 615:4 620:1 621:1 627:3 674:3 705:1 969:1 1090:2 1265:2 1880:7 1891:1 2133:1 2138:1 2260:1 2572:1 2596:1 2817:1 3570:1 4672:2 4954:2 4978:1 5784:2 8803:1 20874:2 22915:4 23035:1 24466:1 26363:1 28416:1 28417:2 28418:3 28419:1 28420:1 28421:2 28422:1 28423:1 28424:1 28425:1 28426:1 28427:1 28428:1 28429:1 28430:1 28431:1 28432:1 28433:1 28434:1 28435:1 28436:4 28437:2 #
-0.0013015213239205357213801317328716 3:1 6:1 31:2 43:1 65:2 95:1 106:1 109:1 126:1 229:1 232:2 241:1 269:1 433:1 436:4 441:1 486:1 552:1 644:1 866:1 1085:2 1100:1 1115:1 1345:3 1469:1 1886:1 2025:1 3619:1 4141:1 4502:1 7213:1 10490:1 10520:1 10522:1 10526:1 13121:1 18005:1 19683:1 21269:1 21270:1 21271:1 21272:1 21273:1 21274:1 21275:1 21276:1 21277:1 #
-9.7348203368718828052720548615895e-05 6:1 40:1 43:2 64:1 82:1 118:5 153:2 166:1 187:1 194:1 198:2 214:1 341:1 359:1 387:1 567:5 680:1 822:1 1081:1 1157:2 1226:2 1266:4 1710:2 2030:1 3178:3 3485:2 3495:10 3552:1 4152:2 4407:2 4408:3 5064:2 5068:1 5091:17 5308:1 5438:1 5586:1 5877:1 6757:3 8914:2 10782:1 10783:1 10784:2 10785:1 10786:1 10787:1 10788:1 10789:1 10790:1 10791:1 10792:1 10793:1 10794:2 10795:1 10796:1 10797:1 10798:1 10799:2 10800:3 10801:1 10802:1 10803:1 10804:1 10805:1 10806:1 10807:1 10808:1 10809:1 10810:1 10811:1 10812:1 10813:1 10814:1 10815:1 10816:1 10817:1 10818:1 10819:1 10820:1 #
-0.0041280695630269131218836875518718 31:1 55:2 118:3 319:1 345:1 485:1 486:2 567:1 963:1 1091:1 2951:1 4018:1 5906:1 6131:1 14380:1 #
-4.2634272713096129584896959441309e-05 28:2 31:1 43:1 46:1 54:1 56:15 82:1 91:2 93:1 117:4 126:2 139:1 143:1 201:6 220:16 241:1 256:4 366:1 386:1 673:8 690:2 694:14 701:1 707:1 708:2 911:1 1061:1 1137:8 1185:1 1186:1 1225:1 1226:2 1282:2 1309:1 1321:1 1608:1 2027:1 2120:1 2440:1 2668:1 2669:1 2849:1 3063:2 3599:7 3855:2 4388:1 4737:2 4774:2 5092:15 5491:8 5616:1 6790:1 8435:1 8785:6 8786:4 9652:7 10823:1 10923:3 12870:1 12871:1 16917:1 17439:1 19109:2 19627:2 24819:2 25501:1 25502:1 25503:1 25504:1 25505:1 25506:3 25507:1 25508:1 25509:5 25510:2 25511:2 25512:1 25513:8 25514:1 25515:1 25516:1 25517:2 25518:1 25519:9 25520:2 25521:1 25522:1 25523:1 25524:1 25525:1 25526:1 25527:7 25528:7 25529:7 25530:2 25531:2 25532:2 25533:3 25534:2 25535:1 25536:1 25537:1 25538:1 25539:2 25540:1 25541:1 25542:1 25543:1 25544:1 25545:1 25546:3 25547:2 25548:2 25549:3 25550:2 25551:1 25552:1 25553:1 25554:1 25555:1 25556:1 25557:4 25558:1 25559:1 25560:1 #
-0.00034412151526490991626516802170954 2:6 12:2 31:1 43:2 47:1 64:1 95:1 102:2 110:1 126:1 166:2 234:1 263:1 309:1 320:1 336:1 346:1 363:1 366:1 441:1 444:3 705:3 726:1 774:1 795:5 877:1 1160:2 1226:1 1556:1 1669:1 1763:1 1879:1 2586:1 2608:1 2678:1 2708:1 2772:2 2822:1 2854:1 3081:2 3488:1 4423:1 5064:5 5234:3 5408:1 6593:1 6902:1 6903:2 6905:1 8316:1 8422:1 9220:1 10941:1 11423:1 12559:1 13828:1 17860:1 19188:1 20446:1 26905:1 28195:3 28196:1 28197:1 28198:1 28199:2 28200:1 28201:2 28202:1 28203:1 28204:8 28205:1 28206:1 28207:1 28208:1 28209:1 28210:1 28211:1 #
-5.0973973080482973046709260778186e-05 11:1 43:1 46:1 107:1 109:1 117:1 146:1 153:1 210:1 276:1 390:5 395:3 397:2 436:1 441:1 557:1 660:1 667:11 673:2 729:3 745:1 830:1 900:1 945:5 968:1 969:3 1137:2 1161:1 1163:1 1224:1 1226:1 1514:6 1757:1 1915:1 1980:1 2050:1 2146:1 2432:5 2637:1 3160:1 3235:14 3697:1 3862:4 4303:1 4731:1 5454:1 5686:1 5735:4 6587:1 7080:1 8639:1 9109:1 10743:1 12623:2 16377:1 16486:1 16487:1 16488:2 16489:2 16490:1 16491:1 16492:1 16493:1 16494:5 16495:3 16496:3 16497:5 16498:2 16499:4 16500:3 16501:3 16502:4 16503:3 16504:2 16505:5 16506:5 16507:1 16508:1 16509:3 16510:7 16511:2 16512:6 16513:1 16514:1 16515:4 16516:2 16517:2 #
-7.3182790995045604782488768424997e-05 2:1 31:1 43:2 46:8 58:1 82:4 115:2 134:1 139:1 175:1 218:2 221:1 236:7 252:19 257:1 276:9 366:1 384:1 388:1 390:4 392:1 393:8 394:2 397:14 447:2 455:1 573:1 574:1 662:1 663:1 701:7 720:1 743:1 758:2 938:2 953:1 975:1 1221:1 1235:1 1259:1 1377:1 1712:1 1715:1 1885:1 1972:1 2020:5 2090:1 2122:1 2156:2 2179:6 2421:2 2431:1 2441:2 2512:4 2845:6 2961:1 3221:1 3251:1 3275:8 3327:2 3334:1 3569:1 4318:6 4490:4 4730:1 5053:1 5181:2 5410:4 5742:1 6497:1 6930:1 8955:1 8956:1 8957:1 8958:1 8959:2 8960:2 8961:1 8962:1 8963:1 8964:1 8965:1 8966:1 8967:1 8968:2 8969:1 8970:1 8971:1 8972:1 8973:1 8974:1 8975:1 8976:1 8977:1 8978:3 8979:5 8980:6 8981:14 8982:6 8983:7 8984:4 8985:6 8986:4 8987:4 8988:3 8989:1 8990:6 8991:3 8992:1 8993:2 8994:4 8995:4 8996:2 8997:4 8998:4 8999:2 9000:2 9001:1 9002:1 9003:1 9004:1 #
-0.00048728515794945316628311582363153 12:1 24:1 28:1 31:1 39:1 43:2 56:1 112:2 126:1 143:2 148:3 153:1 201:2 207:1 220:3 277:1 288:4 307:1 324:1 330:2 359:1 384:2 385:1 386:1 388:3 430:2 451:1 459:1 613:2 623:1 628:1 644:1 681:1 690:1 694:1 695:1 696:1 701:6 707:1 708:3 774:1 805:1 840:1 850:1 908:1 923:1 924:1 939:2 1003:3 1225:2 1226:3 1252:1 1279:1 1282:1 1446:1 1464:1 1501:1 1613:1 1632:2 1763:1 1924:4 2030:1 2375:1 2635:1 2685:1 2778:1 2849:1 3238:3 3934:1 3935:1 3936:1 3937:1 3938:1 3939:1 3940:1 4620:1 4681:1 5040:2 5195:1 5616:1 6008:1 6181:1 6688:1 11768:1 11966:1 13594:3 13595:5 13596:4 13597:1 13598:1 13599:1 13600:2 13601:2 13602:1 13603:8 13604:2 13605:2 13606:2 13607:1 13608:1 13609:1 13610:1 13611:1 13612:1 13613:1 13614:1 13615:1 13616:1 13617:1 13618:1 13619:1 13620:1 13621:1 13622:1 13623:4 13624:1 13625:1 13626:1 13627:1 13628:1 13629:2 13630:1 13631:1 13632:1 13633:1 13634:1 #
-7.2017040985261014099036436242329e-05 6:1 12:2 31:2 43:3 44:1 56:1 63:1 68:1 70:2 82:7 102:1 107:1 109:1 114:1 118:1 153:2 156:1 188:1 194:5 234:1 236:9 289:1 332:1 366:2 420:3 423:1 433:1 444:1 451:7 575:2 585:1 620:2 623:1 628:1 630:1 644:4 705:2 900:1 920:1 1081:1 1256:1 1271:1 1363:2 1556:1 1606:1 1712:1 1741:1 1811:1 1855:2 1983:1 2033:9 2182:1 2650:2 2853:1 2975:1 3235:2 3395:1 3486:1 3518:1 3996:1 4388:1 4583:8 4584:1 4670:1 4826:2 5321:1 6543:1 6768:1 8602:1 8603:6 8604:2 8605:1 8606:1 8607:1 8608:1 8609:1 8610:1 8611:1 8612:2 8613:2 8614:1 8615:1 8616:1 8617:1 8618:1 8619:1 8620:1 8621:1 8622:1 8623:2 8624:2 8625:1 8626:2 8627:1 8628:1 8629:1 8630:1 8631:1 8632:1 8633:7 8634:2 8635:2 8636:1 8637:2 8638:1 8639:9 8640:1 8641:1 8642:2 8643:4 8644:2 8645:2 8646:2 8647:1 8648:1 8649:1 8650:1 8651:2 8652:2 8653:1 8654:1 8655:1 8656:1 8657:1 #
-0.00075571365731373011786348170559791 2:1 6:1 10:1 47:1 54:2 58:1 70:1 105:1 106:1 142:3 146:1 186:2 225:1 447:5 491:1 565:1 628:1 686:1 753:1 772:2 908:2 1218:1 1345:1 1369:1 1469:1 1750:1 1771:3 1854:1 1855:1 1936:1 1980:1 2018:1 2047:1 2462:1 2507:1 2525:1 2713:1 2761:1 2967:1 3134:1 3247:1 3404:1 3463:1 3550:3 3996:1 4001:1 4779:1 4854:1 5755:1 6078:1 10012:1 12659:1 12660:1 12661:1 12662:1 12663:1 12664:1 12665:1 12666:1 12667:1 12668:1 12669:1 12670:1 #
-0.00099249399047958626086940459032348 3:1 6:1 13:2 31:2 86:2 107:1 126:1 148:3 150:2 153:1 178:1 206:1 241:1 341:2 377:1 447:1 474:1 480:1 486:1 620:3 628:1 630:1 647:1 672:1 674:1 769:1 785:1 900:1 1027:1 1376:1 1523:2 1579:1 1855:3 1860:1 1867:2 1980:1 2227:1 2331:1 2761:1 2803:1 3182:1 3446:1 3527:1 3624:1 3787:2 4272:1 4585:1 5622:1 6031:1 8146:1 8598:1 8794:1 13440:2 15543:1 16255:1 29836:1 29837:6 29838:1 29839:1 #
-0.001414169987975940484536963026585 21:1 22:1 24:1 26:1 27:1 28:1 29:1 47:1 54:1 146:2 186:2 219:1 363:2 485:1 726:2 900:1 965:1 1345:1 1615:1 1770:1 2027:2 2184:1 2240:1 2893:1 3066:1 3158:1 3221:2 4435:1 4508:1 5200:1 8076:1 15839:1 23332:1 23333:2 23334:1 23335:1 23336:1 23337:1 23338:1 23339:1 23340:1 23341:1 #
-0.00031492178655705463895253526374063 2:1 12:2 43:1 139:1 254:1 267:1 269:1 275:1 322:1 420:1 430:4 493:1 618:1 701:2 786:1 938:2 947:2 1267:1 1437:3 1469:1 1556:1 1777:2 2272:1 2451:2 2637:1 2761:1 3547:2 4071:2 4575:1 5553:1 5554:3 5555:1 5556:5 5557:1 5558:1 5559:1 5560:1 5561:1 5562:1 5563:2 5564:2 5565:1 5566:1 5567:1 5568:1 5569:1 5570:4 5571:2 5572:1 5573:1 5574:1 5575:1 5576:1 5577:1 5578:1 5579:1 #
-0.00042720702452016013099186930723761 12:1 31:1 118:1 150:2 153:1 187:2 243:2 342:2 355:1 359:1 450:1 464:1 503:4 574:1 957:1 1245:2 1392:1 1965:1 2017:1 2138:4 3303:1 4158:3 4926:1 5065:1 5555:1 6870:1 12741:1 18993:2 18994:1 18995:2 18996:3 18997:1 18998:2 18999:1 19000:1 19001:1 19002:1 #
-0.00085696057682134040185684131785138 19:1 31:1 54:1 124:1 140:1 229:1 310:1 336:3 373:2 491:1 706:2 910:1 1021:1 1053:1 2120:2 2884:3 2973:1 3015:1 3101:1 3389:1 4047:2 4670:1 6445:1 6446:1 6447:2 6448:1 6449:2 6450:1 6451:1 6452:1 6453:1 #
-0.00077988103403110894083771764684343 31:2 186:1 221:1 315:1 456:4 480:2 559:1 741:2 861:1 920:1 1213:2 1303:1 1801:2 1844:1 1875:1 2116:2 2178:1 2512:1 3121:1 3168:1 3235:1 5513:1 6394:1 8610:1 9218:1 11798:1 17628:1 19046:1 29427:1 29464:1 29465:1 #
-0.00021326988922693257367743657759718 31:2 41:3 43:2 55:4 67:2 68:1 74:2 83:3 95:1 203:1 295:1 307:3 330:1 341:1 382:1 420:1 455:1 474:2 485:1 567:3 673:1 705:1 860:1 1137:1 1160:3 1172:1 1447:1 1663:7 1724:3 1879:1 2032:1 2044:1 3406:1 3475:1 3516:2 3584:2 3840:1 7106:1 8341:2 9129:1 12190:1 17452:1 17770:1 18430:1 19343:2 19344:1 19345:1 19346:1 19347:1 19348:1 19349:2 19350:1 19351:2 19352:1 19353:1 19354:1 19355:3 19356:2 19357:2 19358:1 19359:1 19360:1 19361:1 19362:1 19363:1 19364:1 19365:1 19366:1 #
-0.00070368914540119712267007834327615 6:1 19:1 31:1 43:2 82:3 102:1 103:1 176:1 189:1 222:1 236:1 346:1 418:1 538:1 701:1 705:2 1385:4 2018:1 2108:1 2120:1 2187:2 2254:2 2403:1 3591:1 4756:3 6319:1 7463:1 8127:1 8248:1 9062:4 12285:1 15706:1 17942:2 17943:1 17944:1 17945:1 17946:1 17947:1 17948:1 17949:1 17950:1 17951:1 17952:1 17953:4 17954:1 17955:1 17956:1 #
-0.00056228545267315833099119881666184 31:1 53:2 69:1 148:3 191:1 480:1 543:1 740:1 983:2 1161:1 1285:1 1400:1 1469:1 1695:1 1801:2 2050:1 2129:1 2732:1 5906:1 6393:2 6394:2 6395:1 #
-0.0019234831851295184062394794111128 31:1 65:4 139:1 229:1 232:2 366:1 589:1 1265:1 1286:1 2507:1 2594:1 2787:1 3445:1 3550:1 8589:1 8590:1 #
-0.0010594189943227373326695150979049 2:1 31:1 43:1 54:1 67:1 70:1 88:2 105:1 140:1 148:1 162:1 189:2 220:1 232:4 276:1 336:1 369:1 382:2 397:1 447:1 488:3 500:1 567:1 671:2 758:1 830:1 1252:1 2108:2 2119:2 3064:2 3601:1 4172:1 4174:1 8525:1 8526:1 8527:1 8528:1 8529:1 8530:1 8531:1 #
-0.0005897519548618548532181726784529 12:1 31:1 40:1 43:2 44:2 46:1 47:1 56:1 105:1 106:1 148:2 166:1 229:2 241:2 332:1 384:1 420:1 543:1 574:1 656:1 744:1 769:1 938:1 1286:1 1437:3 1442:2 1755:1 1982:1 2368:1 2507:3 2522:1 2594:1 2924:1 3208:1 3247:2 3488:1 3552:1 3993:1 4672:2 5900:1 5921:2 6542:2 8154:3 8824:1 9760:2 10293:1 11333:1 17095:1 21217:2 21218:2 21219:1 21220:3 21221:1 21222:1 #
-0.00045047101414274039535290405922296 12:2 31:2 43:1 118:1 123:1 146:1 153:1 166:3 178:1 234:1 241:1 272:1 309:2 330:1 363:3 370:1 461:1 480:1 536:1 620:1 785:1 968:2 1115:1 1309:1 1495:1 1517:1 1674:2 3624:1 4425:1 4468:1 4663:3 5091:1 5705:1 10746:1 13740:1 17044:1 17619:1 18929:3 21325:1 22166:1 22167:3 22168:1 22169:1 22170:1 22171:5 22172:1 22173:1 22174:1 22175:1 22176:1 22177:1 22178:1 22179:1 22180:1 #
-0.00088484520416400958085084704762835 12:1 31:1 43:1 95:2 118:2 140:1 153:1 191:1 195:1 241:1 423:1 464:1 466:1 484:1 503:4 504:1 589:1 781:1 810:1 831:2 1401:1 2106:1 2116:3 2125:1 2635:1 2957:1 5040:1 5214:1 7355:1 14412:2 19246:4 19247:1 19248:1 19249:1 19250:1 19251:1 19252:2 19253:1 19254:1 #
-0.0013824637495281405161207111120802 14:1 19:1 55:1 98:2 186:1 345:1 538:1 872:1 1252:1 1254:1 1499:1 1806:1 2100:1 2658:2 2805:1 3247:1 4830:1 10042:1 17397:1 17860:1 22568:2 23141:1 23142:2 23143:1 23144:1 23145:1 23146:1 #
-0.00030284387735538020099829159548221 2:1 10:1 12:2 21:1 31:3 43:2 101:2 102:1 118:6 120:2 126:1 139:1 148:2 158:1 166:1 170:4 187:2 206:2 218:1 243:1 272:1 291:1 343:1 417:1 444:1 447:1 451:2 455:1 474:1 480:2 492:1 512:1 559:2 563:1 674:1 753:1 786:1 945:1 1029:1 1085:1 1113:1 1213:2 1401:1 1556:1 1658:1 1678:1 1711:1 1840:2 1908:1 1970:1 2359:2 2658:6 2730:1 3166:1 3255:1 3278:1 3345:1 3389:2 3601:1 3625:1 3786:1 4801:1 5064:1 5104:1 5107:2 6131:1 6859:1 6879:1 8317:1 8941:1 9707:1 11971:1 12182:1 12881:1 12882:1 12883:1 12884:3 12885:6 12886:4 12887:1 12888:1 12889:1 12890:1 12891:1 12892:1 12893:1 12894:3 12895:2 12896:1 12897:1 12898:1 12899:1 12900:1 12901:1 12902:1 #
-0.00019393188247897503746070002605961 31:1 43:2 46:1 56:3 92:1 123:1 135:1 156:3 201:2 212:3 223:1 248:1 276:1 307:1 394:4 395:2 420:1 427:3 455:1 484:1 524:1 552:2 559:1 573:1 740:1 758:1 794:1 805:1 913:1 938:3 1036:1 1256:1 1512:2 1515:1 1695:2 1929:1 2058:1 2089:3 2227:1 2258:1 2467:1 2711:1 2726:1 3073:6 3331:1 4603:1 6443:1 9362:3 9363:1 9364:1 9365:2 9366:2 9367:1 9368:1 9369:1 #
-9.7023486500340144788635809991462e-05 2:1 31:1 43:3 54:1 139:1 221:1 236:2 241:1 247:1 252:3 303:2 366:1 369:3 420:3 436:1 441:1 464:1 544:1 548:8 550:1 574:1 706:2 984:4 999:3 1081:1 1385:1 1556:1 1844:1 2025:1 2252:1 2678:1 3166:1 3487:1 3568:1 3581:1 3825:1 4490:8 4562:3 4648:1 4740:1 6014:2 6701:1 7181:1 7200:1 7426:1 7513:1 8311:1 16577:5 20285:3 20286:3 20288:3 20289:3 20290:3 20310:15 24616:4 26661:1 26662:1 26663:1 26664:2 26665:3 26666:3 26667:2 26668:4 26669:6 26670:2 26671:4 26672:6 26673:2 26674:2 26675:2 26676:2 26677:10 26678:2 26679:1 26680:1 26681:1 26682:2 26683:2 26684:1 26685:1 26686:1 26687:1 26688:1 #
-0.00094110341060131726120818740355389 2:4 28:1 58:1 67:2 98:1 107:1 134:1 146:1 157:2 218:1 303:1 324:2 366:2 444:1 567:2 585:1 628:1 630:1 835:1 1026:1 1115:1 1160:2 1524:1 1814:1 2083:1 2103:1 2261:1 2479:1 2561:1 3018:2 3283:1 3518:1 4015:1 4389:1 4451:1 4628:1 5455:1 6056:1 8289:1 10688:1 10689:1 10690:1 10691:1 10692:1 10693:1 10694:1 10695:1 10696:2 10697:1 #
-0.0011835273747009226064791365118367 19:1 47:1 68:1 101:1 125:1 126:3 139:1 148:3 372:1 423:1 441:1 464:1 567:1 587:1 981:2 1081:1 1179:1 1724:1 1803:1 1868:1 2820:1 3007:1 3431:1 4647:1 6768:1 9459:1 15003:1 17307:2 18206:2 20570:1 26599:2 26600:1 26601:1 26602:1 26603:1 26604:1 26605:1 #
-0.00042661958042561429899075520211227 2:3 21:5 31:1 43:2 64:1 157:1 236:1 276:4 319:1 393:1 397:2 574:1 701:2 938:4 1036:2 1234:1 1371:1 1377:2 1512:1 1603:1 1687:1 1983:1 2463:1 3102:2 3519:1 5092:1 5698:5 6409:1 6567:1 10410:1 16709:1 16710:4 16711:1 16712:1 16713:1 #
-0.0008998800778240209196495724697229 2:1 19:1 20:1 21:1 22:1 24:1 28:1 31:1 43:1 68:1 95:4 106:1 107:1 140:1 218:1 220:1 232:1 269:1 384:1 444:2 479:1 630:1 792:4 841:1 1160:4 1200:2 1204:2 1697:1 2099:1 2259:1 2356:1 2924:1 3107:1 3382:2 3399:1 4381:1 4445:1 4627:1 4699:1 5017:3 5051:1 5128:1 10011:1 11078:1 13480:1 18005:1 22244:1 26876:1 26877:1 26878:1 26879:1 26880:1 26881:1 26882:1 26883:4 26884:1 26885:1 26886:1 26887:1 26888:1 26889:1 #
-0.00089944235211231974170403846713384 31:2 67:1 70:1 148:1 186:3 220:2 455:1 628:1 745:1 769:1 833:1 999:1 1030:1 1082:1 1083:4 1146:1 1298:1 1501:1 1874:1 1900:1 1934:1 2082:2 2261:1 2464:1 2845:1 3074:2 3146:1 3182:1 3235:1 3298:1 3389:1 3840:2 4137:1 4188:2 4414:1 4415:1 4416:1 4417:1 4418:1 4419:1 4420:1 4421:1 4422:2 4423:1 4424:1 4425:1 4426:1 4427:1 4428:1 4429:1 4430:1 4431:1 4432:1 4433:1 4434:1 4435:1 4436:1 4437:1 #
-0.00017195579054982197838262469868909 12:2 31:1 43:3 47:1 102:2 118:3 135:1 194:1 206:2 289:1 417:1 420:1 456:2 461:5 484:1 498:1 830:1 833:1 1017:1 1186:1 1226:3 1252:1 1445:2 1446:2 1641:1 1710:1 1739:1 1921:1 1941:1 1983:1 2085:1 2138:2 2227:1 4003:1 5015:3 5091:3 10928:1 12785:1 12790:1 12791:1 14949:1 25649:1 25650:6 25651:2 25652:2 25653:2 25654:2 25655:3 25656:2 25657:1 25658:3 25659:2 25660:1 25661:1 25662:2 25663:1 25664:1 #
-0.00094878885693445156376130134034952 12:1 19:1 31:2 43:2 54:1 161:1 289:1 290:1 309:1 377:1 491:1 567:1 574:1 1082:1 1172:1 1469:2 1556:1 2556:1 2715:1 2830:1 3750:1 5715:1 5716:1 5717:2 5718:2 5719:1 5720:1 5721:1 5722:1 5723:2 5724:2 5725:1 5726:1 5727:1 #
-0.00039197283109433661433054774114737 2:4 31:2 50:9 97:1 109:1 118:2 201:1 328:1 433:1 485:3 552:1 617:1 635:1 1100:1 1226:1 1608:1 1980:1 2375:1 2462:1 4344:2 4873:1 5912:1 6716:1 7529:2 7530:5 8257:4 9459:1 12111:1 12393:1 16399:1 17658:1 21368:2 23023:1 23024:1 23025:1 23026:1 23027:1 23028:1 23029:1 #
-0.00037410675772453825084842837789267 2:2 43:1 82:1 140:1 218:1 236:1 243:1 392:2 575:1 589:1 705:1 777:2 976:1 985:1 1017:1 1482:1 2969:1 3329:1 3825:1 5913:1 6471:1 7684:1 8248:1 8407:4 10788:4 13870:1 17459:3 18561:2 28935:1 29597:1 29598:3 29599:1 29600:2 29601:1 29602:3 29603:1 29604:3 29605:1 29606:1 29607:1 29608:1 29609:1 29610:1 #
-0.00058406001887895922942278703615671 6:1 12:1 44:1 101:1 103:1 189:1 197:1 203:1 218:1 366:1 720:1 786:1 1811:1 1874:1 1941:1 2084:1 2103:2 3495:1 3640:4 5636:2 5686:1 5765:1 5893:2 5894:2 5895:1 5896:2 5897:1 5898:1 5899:1 5900:1 5901:1 5902:1 5903:1 5904:1 5905:1 #
-0.00065511079049711241038822517879225 2:1 31:1 43:1 56:1 67:1 69:2 109:1 126:1 140:1 171:1 222:1 241:1 324:1 350:4 420:1 429:1 486:2 491:1 492:1 508:1 511:1 753:1 768:1 1029:2 1164:2 1502:1 1618:1 1624:2 1987:1 2217:1 2462:1 2594:1 3516:3 3942:1 5489:1 7514:3 9410:2 9411:1 9412:3 9413:1 9414:1 9415:1 9416:1 9417:1 9418:1 9419:1 9420:1 9421:1 9422:2 9423:1 9424:1 9425:1 9426:1 #
-0.0011787941613923666375057797139903 24:1 28:1 31:1 55:1 225:1 232:2 366:1 447:1 567:1 630:1 1681:1 1727:1 2678:1 3562:1 4689:1 4690:1 4691:1 4692:2 4693:1 #
-4.219903195608768549547396009558e-05 2:4 31:1 43:2 56:2 57:1 178:1 277:2 451:2 455:1 623:1 692:2 697:1 699:1 822:1 1279:2 1282:1 1509:1 1552:1 1757:1 1820:1 2462:1 2596:1 3516:1 3948:1 6014:10 10194:1 10249:1 12875:1 13634:1 16577:1 17224:1 19546:1 19827:1 19828:1 19829:1 19830:1 19831:1 19832:1 19833:2 19834:1 19835:2 19836:5 19837:5 19838:1 19839:2 19840:1 19841:10 19842:2 19843:1 19844:1 19845:2 19846:2 19847:2 19848:3 19849:4 19850:2 19851:1 19852:1 19853:1 19854:1 19855:1 #
-0.00012166778054363891806675945783667 2:2 31:1 43:1 67:4 70:3 189:1 201:1 212:1 229:1 232:1 388:2 500:1 623:2 901:1 947:1 948:2 999:1 1061:1 1385:1 1806:1 2116:3 2187:1 2250:2 2504:1 2507:1 2589:1 2612:1 2805:1 3406:1 3602:1 3865:1 4236:1 5447:1 5698:1 5941:1 8172:1 8295:3 10013:2 10595:1 18612:1 18613:2 18614:1 18615:1 18616:1 18617:1 18618:1 18619:1 18620:1 18621:1 18622:1 #
-0.00080756838522804091744233812022458 2:2 40:1 54:1 109:1 127:1 220:5 221:1 241:1 455:1 479:1 651:5 681:2 792:2 805:1 830:1 909:1 1608:1 1731:1 1924:1 2138:2 3053:1 3074:1 3578:2 3826:1 4036:1 5484:1 5485:1 5486:1 5487:1 5488:1 5489:1 5490:1 #
-0.00017067967469220875556534799954989 2:1 12:2 13:1 31:1 43:1 44:1 54:1 58:1 109:1 125:1 140:1 142:8 148:2 201:1 218:1 232:5 241:1 289:1 345:1 392:1 420:1 484:1 504:1 753:3 966:3 985:1 1086:1 1160:1 1206:1 1226:1 1456:1 1469:1 1514:1 1608:1 1757:1 1820:1 2077:1 2102:1 2508:1 2612:1 2732:1 2761:1 2803:1 3168:1 3235:3 3616:1 3619:1 3868:1 4015:1 4294:4 4367:1 5491:1 5527:3 5675:1 6262:1 6306:1 6313:1 6793:1 7200:1 8536:1 12638:1 12639:1 12640:1 12641:1 12642:3 12643:1 12644:3 12645:1 12646:1 12647:1 12648:1 12649:1 12650:2 12651:1 12652:3 12653:3 12654:1 12655:1 12656:1 12657:1 12658:1 #
-0.00083350795087402376661728231610482 31:2 43:1 47:1 56:1 105:1 220:1 234:1 478:2 492:1 537:1 574:1 623:1 673:1 681:1 740:1 1136:1 1224:1 1225:1 1267:1 1417:1 3063:1 3539:1 3584:1 4731:1 6291:1 8707:1 8782:1 9534:1 10046:1 10751:1 10752:1 10753:1 10754:1 #
-0.0036199437154474361361122802804857 6:1 12:1 31:1 46:2 57:1 134:1 150:1 153:1 161:1 417:1 451:1 2077:1 2467:1 3733:1 5686:1 6953:2 12021:1 12022:1 #
-0.0002813514917505144916944070931919 2:1 3:1 7:4 12:2 31:1 43:2 46:3 82:1 118:1 126:1 134:1 135:1 140:1 148:8 153:3 170:1 248:1 276:1 310:1 342:1 366:4 369:1 373:1 392:1 397:1 436:2 440:1 461:2 473:2 480:2 484:1 503:1 511:1 557:2 589:1 703:1 705:1 706:1 898:1 969:2 970:1 1004:1 1081:1 1200:2 1204:1 1226:2 1463:1 1501:2 1637:1 1660:1 1666:1 1684:1 1695:1 1703:1 1707:2 1712:1 1819:1 1860:2 1901:1 1938:1 2022:1 2025:1 2126:1 2272:1 2368:2 2379:1 2440:2 2478:1 3235:3 3398:1 3404:1 3430:1 3532:1 3540:1 4512:1 4513:1 4514:1 4515:2 4516:2 4517:2 4518:1 4519:1 4520:1 4521:2 4522:1 4523:1 4524:1 4525:1 4526:1 4527:2 4528:2 4529:1 4530:1 4531:1 4532:1 4533:1 4534:1 4535:2 4536:2 4537:1 4538:1 4539:1 4540:1 4541:1 4542:1 4543:1 4544:1 4545:1 4546:1 4547:2 4548:1 4549:1 4550:1 4551:2 4552:1 4553:1 4554:1 4555:1 4556:1 4557:2 4558:1 4559:1 4560:1 4561:1 4562:1 4563:1 4564:1 4565:1 4566:1 4567:1 4568:1 4569:1 4570:1 #
-0.00023338472097756503059393096144447 31:2 97:3 107:1 140:1 151:5 170:1 201:1 289:1 291:10 345:1 414:1 425:1 455:1 503:1 552:1 617:1 620:1 866:1 901:1 953:1 970:1 1053:1 1083:4 1204:1 1205:1 1218:1 1223:8 1234:1 1256:2 1338:1 1349:1 1446:2 1605:1 1667:1 1674:1 1683:1 1695:1 1707:4 1749:1 1936:1 1970:1 2017:1 2421:1 2507:1 2880:2 3168:1 3216:2 3247:1 3455:1 4015:1 4137:2 4753:1 4779:1 5197:1 5430:1 5529:1 5700:1 5705:1 5776:1 6023:1 6523:2 7142:2 7149:1 7954:1 9319:4 10047:1 11338:1 12138:2 12139:1 12140:1 12141:1 12142:2 12143:1 12144:1 12145:1 12146:1 12147:1 12148:1 12149:1 12150:1 12151:1 #
-0.00039370751230835890604325966179999 60:2 105:1 106:1 118:1 148:1 154:1 288:1 423:1 774:1 775:1 866:1 1091:1 4104:2 4494:1 4499:1 6395:1 6784:1 #
-0.00033914444142930488378800957249837 2:1 6:2 12:1 43:1 46:4 50:1 54:6 127:1 330:1 392:4 397:7 423:1 797:1 938:1 945:4 1081:1 1160:2 1296:1 1442:1 1453:2 1703:1 1867:1 2254:1 2272:1 2377:1 2448:2 2537:5 3108:1 3283:1 3553:3 3626:1 3854:2 4272:1 4375:1 4584:1 4634:2 5017:1 5513:1 5514:1 5515:5 5516:2 5517:1 5518:1 5519:2 5520:2 5521:1 5522:1 5523:1 5524:1 #
-0.00078312666933257177228483447706253 7:1 21:1 22:1 24:1 26:1 27:1 28:1 29:1 31:2 43:1 56:2 82:2 118:1 310:1 427:1 492:1 503:1 749:1 919:1 1445:1 1497:2 1980:1 2131:1 2184:1 2322:1 2440:1 2624:1 3283:1 3452:1 3981:1 4508:1 5430:1 7216:1 8547:1 10047:1 10702:1 13267:1 24257:2 25007:3 25978:1 25979:1 25980:1 25981:1 25982:1 25983:1 25984:1 25985:1 25986:1 25987:1 25988:1 25989:1 25990:1 25991:1 25992:1 25993:1 25994:1 25995:1 #
-0.00028098124472365656719222148929305 2:1 6:1 7:2 31:1 43:1 47:1 82:1 95:1 97:2 101:1 106:1 109:1 118:1 139:1 148:7 172:1 185:1 187:1 189:1 201:1 234:5 241:1 338:1 341:1 355:1 366:2 392:1 439:2 441:1 451:3 461:5 508:1 512:1 538:2 563:2 617:1 661:1 674:1 678:1 757:1 772:3 901:1 978:1 1026:1 1083:2 1147:1 1314:1 1392:2 1852:2 1865:1 1867:2 1908:1 2099:1 2440:1 2690:1 2853:1 3235:1 3625:1 3808:4 4067:1 4117:1 4118:1 4119:1 4120:1 4121:1 4122:1 4123:1 4124:1 4125:1 4126:1 4127:1 4128:1 4129:1 4130:1 4131:1 4132:1 4133:1 4134:1 4135:2 4136:1 4137:2 4138:2 4139:1 4140:2 4141:2 4142:1 4143:1 4144:2 4145:1 4146:1 4147:1 4148:2 4149:1 4150:1 4151:2 4152:2 4153:1 4154:1 4155:1 4156:1 4157:1 4158:1 4159:1 #
-0.00014273180507250177303721350163812 2:2 24:2 31:1 43:2 54:1 55:3 58:1 67:6 69:4 70:1 80:1 97:1 101:1 118:2 124:1 126:3 224:1 247:2 276:6 355:1 369:1 397:4 474:1 550:2 627:2 674:1 740:6 831:4 880:1 915:1 938:3 945:1 969:2 970:1 1061:3 1108:1 1110:1 1202:1 1224:2 1256:1 1465:1 1501:2 1559:2 1608:2 1675:1 1757:1 1844:1 1924:1 2056:1 2084:1 2091:2 2272:2 2283:1 2368:1 2525:2 2581:3 2584:1 2637:4 2817:1 3570:1 3626:2 3867:1 3930:1 4154:1 4155:1 4342:1 4747:1 7570:1 8408:2 8903:1 9109:2 10402:1 10425:1 10698:1 10699:1 10700:1 10701:1 10702:2 10703:3 10704:3 10705:2 10706:2 10707:1 10708:5 10709:1 10710:1 10711:1 10712:2 10713:2 10714:2 10715:5 10716:1 10717:1 10718:2 10719:1 10720:1 10721:1 10722:1 10723:1 10724:1 10725:1 #
-0.00022030088949529912784042195994516 2:2 12:5 31:2 43:2 44:2 114:1 126:1 156:1 203:3 218:1 267:2 269:2 291:3 316:1 366:1 436:1 441:2 459:1 557:1 628:1 899:1 985:2 1081:1 1279:1 1282:1 1470:1 1613:1 1697:1 1936:1 1982:3 2272:1 2273:1 2717:1 2845:1 3349:3 3491:2 3632:2 4071:2 4575:1 5197:1 5555:2 5579:1 5623:1 7200:1 7213:1 7684:1 8237:1 9534:1 12559:3 13558:1 14968:1 14969:2 14970:1 14971:1 14972:1 14973:1 14974:7 14975:1 14976:1 14977:1 14978:1 14979:1 14980:2 14981:1 14982:1 14983:1 14984:1 #
-0.00039329791610119509180990005070555 2:2 6:1 29:1 43:1 44:3 66:1 67:4 95:1 97:1 107:1 201:1 219:4 236:2 341:1 344:1 345:1 355:1 388:1 420:1 455:3 492:1 629:1 672:1 674:2 701:1 750:1 774:1 792:1 794:1 835:1 866:1 911:1 912:8 946:1 963:2 1003:2 1053:1 1153:2 1160:1 1256:1 1469:2 1608:2 1696:2 1748:2 1866:2 1890:1 1934:1 1979:1 2027:1 2187:1 2212:1 2261:1 2431:1 2572:1 2594:2 2608:1 2668:1 2981:1 3177:1 3628:1 3962:1 4098:1 4543:2 5885:1 5887:1 5910:1 5940:3 6319:1 6321:1 6491:1 6796:1 8295:1 10620:1 12493:2 12762:1 14405:2 14406:1 14407:1 14408:2 14409:1 14410:1 14411:1 14412:2 14413:1 14414:1 14415:1 14416:1 14417:1 14418:1 14419:1 14420:1 14421:2 14422:1 14423:1 14424:1 14425:1 14426:1 14427:1 14428:3 14429:1 14430:1 14431:1 14432:1 #
-0.0013790862547684438251666128039119 21:1 22:1 24:1 26:1 27:1 28:1 29:1 139:1 150:1 153:1 218:1 234:1 366:2 423:1 436:1 441:1 618:1 1459:1 2004:1 2184:1 2378:1 3156:2 3999:1 4540:1 11885:1 22407:1 22408:1 22409:1 22410:1 22411:1 22412:1 22413:1 #
-5.629958028344467897089581365222e-05 3:1 43:1 47:1 109:1 157:1 234:1 392:11 459:1 483:3 563:1 674:1 938:2 969:1 1239:1 1356:9 2131:1 2616:13 2642:1 2726:1 3231:2 3275:2 3430:1 4210:1 4502:2 5149:1 5150:3 5151:1 5152:1 5153:1 5154:1 5155:1 5156:1 5157:1 5158:1 5159:2 5160:3 5161:5 5162:2 #
-9.4600628778297653513271181502375e-05 2:1 3:1 13:1 31:1 43:1 46:1 95:4 127:1 140:1 201:3 230:2 248:6 267:2 276:11 333:1 359:1 366:1 392:1 397:3 575:2 593:1 686:1 703:1 706:8 708:6 768:1 919:1 938:1 1160:1 1206:1 1224:1 1302:1 1321:5 1446:5 1711:4 2027:1 2030:3 2179:6 2272:2 2350:5 2356:1 2465:1 2577:1 2787:2 3198:1 3283:1 3626:1 3628:2 3708:1 4170:1 4196:1 4367:4 5437:3 7663:1 8281:1 8282:1 8283:2 8284:1 8309:2 9284:3 10463:1 13251:3 13689:1 13690:1 13691:2 14992:1 18077:1 18671:1 19693:2 20478:1 20479:1 20480:1 20481:1 20482:1 20483:1 20484:1 20485:1 20486:1 20487:8 20488:1 20489:1 20490:2 20491:3 20492:1 20493:1 20494:2 20495:1 20496:2 20497:2 20498:1 20499:2 20500:2 20501:1 20502:1 20503:1 20504:1 20505:1 20506:1 20507:3 20508:1 20509:1 20510:1 #
-0.00023514882329072703411564082554008 2:1 3:3 28:5 43:1 46:1 61:3 156:3 276:2 392:2 592:1 644:3 938:3 981:1 1137:1 1182:2 1202:9 1309:1 1638:1 1704:1 2044:1 2077:2 2502:1 2669:1 3626:1 3628:2 3708:1 4308:1 4428:1 6036:1 6131:1 6132:1 6133:1 6134:1 6135:1 6136:1 6137:1 6138:2 6139:1 6140:1 6141:1 6142:1 6143:1 6144:1 6145:1 6146:1 6147:2 6148:5 6149:2 6150:2 6151:1 6152:1 6153:1 6154:1 6155:1 6156:1 6157:1 6158:1 6159:1 6160:1 6161:1 6162:1 6163:1 6164:1 6165:1 #
-0.00055988973745335190307370609730242 6:1 29:1 31:1 43:1 58:3 97:2 115:2 126:1 134:1 232:1 420:1 645:1 650:2 726:1 787:1 1017:1 1594:1 1742:1 2079:1 3561:1 4990:3 5494:1 5687:1 8683:1 8909:1 8910:1 8911:1 8912:2 8913:1 8914:1 8915:1 8916:1 8917:1 #
-0.00035636600562111419307834148106906 2:1 12:3 43:2 47:1 48:1 94:1 118:1 218:1 276:1 278:1 309:1 395:2 474:2 492:1 504:1 573:1 628:1 745:2 783:1 938:1 1377:1 1744:1 2125:1 2379:2 2695:1 4085:1 5125:2 6883:1 7214:1 8179:1 12510:2 12519:2 13166:1 13167:3 13168:1 13169:1 13170:1 13171:4 13172:1 13173:1 13174:1 13175:1 13176:1 13177:1 13178:1 13179:1 13180:1 13181:1 13182:2 13183:1 13184:1 13185:1 13186:1 13187:1 13188:1 13189:1 13190:1 13191:1 #
-0.00067738109015090151258237094467063 31:1 43:2 46:3 47:1 68:1 70:2 139:1 161:1 236:1 241:1 420:1 528:1 574:1 837:1 877:1 999:1 1021:2 1026:1 1160:1 1746:1 1897:1 2211:2 2227:1 2517:1 2537:1 3406:1 5978:1 6550:1 6551:1 6552:1 6553:1 6554:1 6555:2 6556:1 6557:1 6558:1 6559:1 #
